{"id":90,"label":"Enemies v90","role":"enemies","model":"sb3-dqn-enemies-v90","actions":["drift_left","drop","drift_right","fire"],"features":["target_dx","abs_target_dx","threat_dx","threat_y","bullet_ready","alien_count","wave","drop_ready","enemy_shot_ready","fleet_y","lives"],"network":{"activation":"relu","layers":[{"weights":[[0.185736,-0.365932,-0.068806,-0.369684,0.280405,0.317551,-0.209906,-0.172295,-0.381656,-0.314102,-0.83438,0.324503,-0.52593,0.022342,-0.172923,-0.616364,0.011391,-0.102923,0.077634,-0.002562,0.696875,-0.245348,0.573779,-0.07128,-0.179281,0.036767,0.368853,-0.113627,-0.096276,0.442876,0.669599,-0.368392,-0.038323,0.393769,0.367723,0.105363,-0.613335,0.103821,0.687615,-0.267346,-0.121398,-0.171683,-0.149839,-0.259715,-0.029245,0.457786,0.018465,0.118573,0.078879,-1.148274,0.136104,0.432144,0.048325,0.281537,-0.429514,0.19036,0.231927,0.413567,0.136748,-0.536804,-1.008432,0.087758,0.080952,0.838792],[-0.199633,0.246476,0.12343,0.083981,0.151595,0.087304,-0.910096,0.013693,-0.066042,-0.308457,0.373067,-0.060629,0.323521,0.266757,-0.086849,0.189799,-0.394111,-0.154419,-0.236011,0.403215,0.120189,0.203866,0.189331,-0.291748,0.320766,0.296239,0.69195,0.298052,0.234236,0.089906,-0.080235,-0.674371,0.31645,0.09699,-0.160569,0.011648,0.142614,-0.087165,1.039536,0.14954,-0.190538,-0.050906,0.130286,-0.453015,0.259786,0.278808,0.216476,-1.131175,0.107817,-0.840057,0.250419,0.45302,0.519932,0.022956,-0.494758,-0.692823,-0.038744,0.139518,-0.221227,0.209797,-0.41857,-0.467654,-0.016777,-0.468723],[-0.057237,-0.068335,0.054811,-0.172519,0.019837,-0.035264,-0.121241,0.030045,0.094283,0.085252,-0.614223,0.115966,-0.107865,-0.26999,-0.05462,0.062177,0.031587,0.020509,0.307847,0.357162,0.021057,-0.193996,-0.09013,0.170506,0.097691,0.190046,-0.004877,0.235394,0.251638,0.273761,-0.890956,-0.047855,-0.755572,0.179528,-0.635202,-0.029028,0.155177,0.167421,-0.269054,-0.652609,0.015557,-1.077342,-0.036315,-0.088985,-0.08802,0.251071,-0.285071,0.125801,-0.006025,0.215704,0.149305,0.064392,-0.107785,-0.201519,-0.096099,-1.131843,0.134322,-0.018272,-0.123757,0.158448,0.067517,0.234496,0.256174,-0.53329],[-0.155575,0.22286,0.380518,0.342085,0.425319,0.160409,-0.581169,-0.211335,-0.351047,-0.493386,0.010917,-0.303832,0.30492,-0.499459,-0.187946,0.191372,0.273737,0.435409,-0.108354,0.401276,-0.377816,-0.122891,-0.425775,0.090423,-0.153279,0.187716,-0.104923,-0.000935,0.329251,-0.303034,0.104116,-0.162296,-0.36141,-0.189625,0.242197,0.045959,-0.319295,-0.164011,-0.218021,0.070158,0.306202,0.136024,-0.005505,-0.235895,-0.250615,0.045355,-0.264057,0.050098,-0.129441,0.395881,-0.183959,-0.066732,0.33953,0.223877,-0.110406,0.016153,-0.445499,0.180704,-0.022022,0.452084,0.178576,0.140888,-0.259864,-0.056092],[0.038267,-0.181074,0.064573,-0.177917,0.061003,0.101333,0.00926,0.22148,-0.003189,0.054543,-0.028227,0.191627,-0.026958,-0.11998,-0.274058,0.143521,-0.087779,0.026312,-0.174885,-0.029272,-0.164724,-0.196468,-0.179232,0.271766,-0.250427,-0.023567,-0.065115,-0.09127,0.074173,-0.517209,-0.128876,0.031138,0.089508,0.122558,0.05,0.038018,-0.285739,0.019761,0.002811,0.2157,-0.046634,0.010701,0.044942,0.190834,-0.162106,0.28385,0.051643,-0.223606,-0.204592,-0.021914,-0.236484,-0.203683,0.155291,-0.050811,-0.2442,-0.176674,0.158061,-0.072399,-0.201305,0.173178,-0.102814,-0.067851,0.121205,0.028469],[-0.339585,-0.388451,0.219709,-0.284691,-0.02585,-0.271619,0.230424,-0.500937,0.673987,0.374607,-0.138213,0.664436,0.038799,0.152969,-0.278689,0.455592,-0.427206,-0.258914,-0.440156,-0.144957,0.401095,-0.268034,0.377127,0.546695,0.255061,-0.320867,-0.25542,-0.444117,0.103925,0.006024,0.056471,0.520854,0.471547,-0.621904,-0.294362,0.70663,0.111453,0.626836,0.080595,-0.399192,-0.192469,0.624949,0.233578,0.435651,0.135021,-0.211291,-0.303546,0.284272,0.115175,0.260086,0.193213,-0.164878,-0.106013,0.236204,0.558296,-0.001636,0.319715,-0.762408,0.018575,-0.31883,-0.132321,-0.316506,-0.152222,-0.088559],[-0.061347,-0.147653,-0.469753,-0.325859,-0.44094,-0.012761,-0.155294,-0.199044,0.02862,0.260543,0.00476,0.215828,-0.037215,-0.139112,0.243341,0.383638,0.111182,0.066853,0.243452,0.440478,0.238295,-0.160206,0.028171,-0.020601,-0.631854,-0.232461,0.554746,-0.019332,-0.412087,0.549502,0.30365,0.381709,0.035884,0.161424,-0.023248,0.493833,-0.261353,-0.831443,0.034578,0.068798,-0.677847,0.527612,-0.650704,0.576075,-0.156417,0.073615,-0.171134,0.078816,-0.275683,-0.117522,-0.749377,-0.516055,-0.311412,-0.754973,0.087981,-0.122389,-0.276503,0.42593,0.223256,0.294215,-0.073954,0.411924,-0.741498,0.220394],[-0.174212,-0.297679,0.041759,0.28904,-0.032352,0.376502,-0.157232,0.25444,0.116754,-0.158123,0.013599,-0.090145,-0.139555,-0.018315,-0.118882,0.022964,-0.119939,0.089848,0.080063,0.068665,0.167683,-0.119521,0.192483,-0.137214,-0.331288,0.240019,-0.012042,0.272898,-0.070995,0.135171,-0.248922,-0.090477,0.086338,-0.17529,0.009268,-0.133099,-0.675461,-0.103187,-0.072194,-0.138293,0.134557,-0.062846,-0.070299,-0.030597,-0.212258,-0.027322,-0.234643,0.044488,0.100199,-0.113758,0.173238,0.01972,-0.018342,0.149369,-0.156988,0.066385,0.237953,0.04648,-0.174031,0.029565,0.185977,0.271857,0.05937,0.276747],[0.282364,0.30263,0.171768,-0.008276,-0.105445,0.287497,-0.157802,0.443746,0.154641,-0.055728,-0.046222,-0.012399,-0.060723,0.08701,0.071591,-0.110361,-0.05165,-0.495868,-0.224635,-0.196662,-0.177736,-0.198176,-0.016469,-0.129937,0.074755,0.015463,0.22461,0.082087,-0.057758,-0.160826,-0.117902,-0.007722,-0.181766,0.169909,-0.138802,-0.103107,-0.169263,-0.346146,0.057863,-0.024615,-0.292911,0.074884,0.09053,0.184597,-0.289016,-0.503445,-0.285751,0.055916,-0.12748,-0.063888,-0.043663,-0.049299,-0.133143,0.101818,0.288816,-0.072907,0.108619,0.226458,-0.288734,-0.044418,-0.047552,0.130699,0.074837,-0.110027],[0.441434,-0.148637,0.615464,-0.400189,0.548551,0.504664,0.200008,-0.280124,-0.159738,0.222077,0.015689,-0.000683,-0.348474,0.65798,0.025332,-0.418342,-0.38437,-0.456491,-0.34368,-0.386793,-0.382536,-0.298768,0.398774,-0.278894,0.572682,0.328959,-0.446065,-0.035677,0.450907,-0.293779,0.257267,0.142935,0.162624,-0.27276,0.311249,-0.08171,0.217525,0.596493,-0.013629,-0.112263,0.518289,0.175111,0.70611,-0.102841,0.049933,-0.16826,-0.003026,-0.326897,0.337661,-0.184474,0.609121,0.314584,-0.342736,0.401987,0.00526,0.087298,0.123477,-0.292881,-0.026355,0.001628,-0.469226,-0.263324,0.583739,0.025387],[-0.084559,-0.078688,-0.236664,-0.200438,-0.260962,-0.292563,0.297075,-0.25162,-0.06361,0.246682,0.060026,0.311571,-0.062065,0.034007,0.073975,0.252589,0.297651,-0.134379,0.198135,-0.069621,-0.096698,0.071439,0.001352,0.10355,-0.022317,-0.25122,0.134739,-0.173905,0.124702,-0.125892,0.206294,0.206515,0.164753,-0.070146,0.120203,0.170636,-0.153513,-0.167054,0.144682,0.048216,0.026678,-0.069689,-0.313461,0.203356,-0.200319,0.114281,0.193555,0.273807,-0.320989,0.140771,-0.169582,-0.030317,-0.030625,-0.20014,-0.039868,0.182094,-0.278215,0.198536,0.147115,0.061481,-0.073263,0.118762,0.06847,-0.291469]],"biases":[0.151224,0.364174,-0.196387,0.039869,0.12438,-0.224213,0.090076,0.114061,0.055804,0.120469,-0.048282,-0.075504,0.294183,0.0635,-0.179304,0.20487,0.208182,0.32483,0.347032,0.190211,0.30595,-0.099784,0.032188,-0.089206,0.079338,-0.009762,0.169701,-0.180367,-0.362753,0.132357,0.009293,0.026414,0.138974,0.39051,-0.147818,-0.007061,0.109738,0.015139,0.008044,0.220196,0.266956,-0.123055,-0.180856,0.138491,0.001162,-0.142242,-0.269281,-0.027251,0.114184,0.043836,-0.273869,0.230504,0.205804,-0.007863,0.105137,0.135889,0.051931,0.220695,-0.256623,-0.017335,0.231066,-0.098113,-0.382732,0.245733]},{"weights":[[-0.084544,-0.170923,-0.098949,-0.037912,0.141226,0.146495,0.127664,0.16112,0.176875,0.091073,0.168952,-0.334222,-0.174218,0.316069,0.079418,-0.130418,0.019434,0.153984,0.077478,-0.076982,-0.038863,0.21443,-0.061271,0.109862,0.011214,0.097698,-0.013148,0.177951,0.071798,-0.010826,0.195071,0.11056,-0.180042,-0.340073,0.112096,0.022841,-0.073086,0.048815,0.008638,-0.146739,0.042273,0.080689,0.023202,0.048134,0.161012,0.075323,0.031325,-0.109399,0.119046,-0.284582,0.213083,0.190609,-0.133181,0.004019,-0.102229,-0.032922,-0.024985,0.047311,-0.177244,-0.116153,-0.084453,-0.30035,-0.00887,0.041603],[-0.033713,-0.050642,-0.071133,0.091015,-0.241155,0.262045,0.067359,0.129557,0.302329,-0.479488,-0.356294,-0.171874,0.086036,-0.011374,0.116097,-0.143157,-0.262141,-0.12681,-0.071785,0.062478,-0.099933,0.236739,-0.286469,-0.021889,-0.333463,0.222963,-0.415129,0.264318,0.337473,0.087074,0.041904,0.069509,-0.5872,-0.187025,-0.139827,-0.020245,0.055199,0.335288,0.069797,-0.25518,-0.027941,0.211556,0.089246,-0.084018,-0.023774,0.222573,-0.109044,-0.255704,0.069663,-0.299949,-0.199699,0.241558,-0.160965,-0.01508,0.024149,-0.152691,-0.116982,-0.300433,-0.165723,0.028592,-0.237491,0.180892,-0.134856,-0.336273],[0.216723,0.02696,-0.072439,0.087484,0.298051,-0.102931,-0.027734,-0.064115,0.2056,0.522846,0.264063,-0.036717,0.131713,0.036874,-0.131405,0.22826,-0.088203,0.248661,0.030164,-0.046621,-0.449409,-0.004674,0.014962,-0.024377,0.092013,0.048551,0.011857,-0.12018,0.056436,-0.142799,0.123411,0.015767,0.201677,-0.096619,-0.161706,0.044759,-0.013498,-0.025828,0.01261,-0.067372,0.019854,0.012837,-0.105172,0.227211,-0.002488,0.088752,-0.046565,-0.056255,0.02972,0.043379,0.412321,-0.04501,0.150927,-0.033919,0.084669,-0.019661,-0.000713,-0.028412,0.104437,-0.037705,-0.079674,0.382436,0.098764,0.251876],[-0.423967,-0.145191,-0.123374,-0.044965,0.168552,-0.154817,-0.024392,0.21862,-0.23396,0.355385,0.107364,0.240034,0.04735,-0.321295,-0.096201,-0.396809,-0.302887,0.055162,0.007917,0.087303,0.432895,0.221854,-0.172909,0.383694,-0.172273,0.227521,-0.428901,0.215475,-0.10414,-0.048991,0.204072,0.245881,0.411966,-0.307293,-0.412347,0.048403,-0.003157,0.11413,0.006766,-0.283035,0.357132,0.34412,-0.513581,-0.48548,-0.527448,0.273885,-0.127239,-0.397861,0.211671,-0.418807,0.064273,0.003261,0.146632,0.123915,0.122613,-0.319821,0.221948,-0.412581,-0.210779,-0.106213,-0.440738,-0.116613,-0.34098,0.267978],[0.23586,0.01513,-0.002416,-0.12945,0.384755,-0.171788,-0.077431,0.093902,0.13141,0.485783,0.376588,-0.300341,-0.221972,-0.546877,0.06012,-0.037562,-0.165856,0.376526,0.024657,-0.119275,-0.08631,0.28521,-0.24966,0.221576,-0.018726,0.132893,-0.363563,0.171514,0.002179,0.068055,0.017245,0.264244,0.166687,-0.132269,-0.505166,-0.029488,0.099133,-0.013025,-0.07936,-0.203034,0.244189,0.216914,-0.83882,0.092158,0.239886,0.115521,-0.113752,-0.306049,0.215816,0.126527,0.438037,-0.175729,0.292846,-0.048657,-0.08704,-0.13623,0.218192,-0.382493,-0.051085,-0.121621,-0.154813,0.283596,-0.23599,0.228452],[0.141419,0.020526,0.109292,0.088314,0.123278,-0.03191,0.109195,0.238628,0.04016,0.284968,0.185361,0.014057,0.157113,-0.043418,-0.136644,-0.046209,-0.281606,0.298162,-0.01328,0.030557,-0.198935,0.272838,0.01266,0.03787,0.115981,0.136376,-0.104317,-0.014224,-0.08594,0.039085,0.212477,-0.101862,0.257944,-0.049922,-0.193983,0.040356,-0.013378,0.002936,-0.04867,0.04456,0.105939,-0.028201,0.01413,-0.200116,-0.040013,0.049867,0.006002,-0.130084,0.202753,0.198129,0.152601,-0.085987,0.076314,-0.055374,0.002272,0.09605,0.152545,-0.085417,0.045436,-0.085186,-0.042828,0.023114,-0.146287,0.277571],[0.33556,0.142555,-0.00776,-0.005851,-0.078365,0.198171,-0.489082,-0.527957,0.050411,-0.062221,0.058577,0.10903,0.033845,0.165723,-0.040663,0.230005,0.215081,-0.104649,0.085923,-0.098414,-0.577772,-0.451246,0.234384,-0.165984,-0.045456,-0.383487,0.313093,-0.187569,0.090996,-0.097177,-0.111574,-0.224421,0.084703,0.068108,0.335651,0.085114,-0.110946,-0.229614,-0.04953,0.349204,-0.246893,-0.398315,0.161394,0.201815,0.016336,-0.249713,0.011234,0.327332,-0.5499,0.276301,-0.058666,0.107494,-0.073347,0.109735,0.081716,0.361531,-0.258793,0.217768,0.340571,0.025964,0.308457,-0.106033,0.036544,-0.239024],[-0.046705,0.065512,0.109703,0.080498,-0.248034,-0.002552,0.075607,0.255063,0.037755,-0.304332,-0.19914,-0.01136,-0.128959,0.159472,0.017596,-0.222527,-0.07702,-0.177229,-0.050993,-0.12462,-0.213297,0.21828,0.046315,0.123906,0.145127,0.308572,-0.167097,0.310633,0.368235,-0.084645,0.067641,-0.091997,-0.260412,-0.253434,0.034995,-0.092684,-0.0668,0.198005,-0.11139,-0.131888,0.271214,0.414327,0.20691,-0.429296,-0.067703,-0.062262,0.079311,-0.368124,0.398568,0.109981,-0.11767,0.013161,-0.578489,0.034973,0.094445,-0.259228,0.025757,-0.180434,-0.476865,-0.087475,-0.288268,-0.121092,-0.155125,-0.046494],[0.022727,-0.073782,0.073708,-0.093759,0.107957,0.008768,-0.202627,0.124413,-0.051875,-0.085902,0.10305,0.152801,0.148757,0.199326,-0.144931,0.061482,0.196422,-0.089862,-0.04227,-0.119998,-0.244285,0.114596,0.211069,-0.040711,-0.15956,-0.001096,0.147899,-0.039564,-0.09366,-0.009583,0.025288,0.117516,0.088173,-0.030849,0.263668,-0.05038,0.036339,-0.087362,-0.057184,0.043514,0.145851,-0.019579,0.108607,0.073277,-0.165577,-0.011238,-0.117755,0.243242,0.05698,-0.052542,-0.042441,-0.036172,-0.269683,0.081177,-0.087498,0.153186,0.124128,0.355097,0.098232,0.044143,0.096916,0.176029,0.065777,0.055068],[0.064209,0.10243,-0.060217,-0.047893,0.036428,0.072932,-0.11779,-0.195697,-0.039603,0.109016,0.105736,0.170077,0.197321,0.008506,0.094747,0.251602,0.081402,-0.005178,0.046591,0.003639,-0.139208,-0.097059,-0.000354,-0.106082,0.013845,-0.13609,0.15913,-0.195194,-0.051331,-0.09025,-0.1507,-0.02607,0.155291,0.090732,0.230611,-0.10901,-0.036105,-0.126043,0.007221,0.257558,-0.084458,-0.268628,-0.013456,0.202385,0.077078,-0.029571,-0.028541,0.082962,-0.025379,0.015666,0.084159,-0.098213,-0.075744,0.04473,0.040123,0.096497,0.084197,0.196597,0.163882,0.069292,0.150276,-0.086163,0.137476,-0.000556],[-0.634604,0.118153,-0.03396,-0.124508,-0.071659,-0.481671,-0.604149,-0.010806,-0.153506,0.053926,0.181499,0.483169,-0.136674,-0.581589,-0.040294,0.115108,-0.318026,-0.061455,0.042857,0.050523,-0.096118,-0.016255,0.134623,-0.151412,0.064967,-0.390593,-0.342437,0.0094,0.150321,0.153976,0.018896,0.00458,0.063183,0.034789,0.112991,-0.023172,-0.12345,-0.289659,0.049209,-0.090742,-0.080879,-0.125032,-0.365295,-0.07166,-0.907525,-0.291504,0.079336,0.377343,0.042032,-0.439911,-0.293773,-0.025367,0.234807,-0.00319,-0.017137,0.018362,-0.089157,-0.621122,0.087526,0.018529,-0.243251,0.090651,-0.782168,0.171785],[-0.007481,-0.109858,-0.008504,0.043105,0.022667,-0.08708,-0.390363,-0.134379,-0.097952,0.127429,0.046135,0.302622,0.262848,0.057082,0.005835,0.251138,0.281495,0.099383,-0.125013,0.033024,-0.294638,-0.142457,0.189687,0.083678,-0.043286,-0.066082,0.361342,-0.112876,-0.003854,-0.019985,-0.233613,0.004044,-0.108086,0.186221,0.28741,0.014389,-0.146427,-0.134255,-0.125816,0.130872,-0.08959,-0.042886,0.211853,0.142009,0.145191,-0.05104,-0.091812,0.15222,-0.128677,0.111362,0.081443,-0.2134,0.08835,0.064438,0.022203,0.228126,-0.040919,0.390274,0.353815,0.076372,0.191637,-0.098294,0.169073,-0.057025],[-0.168639,-0.291375,-0.119785,-0.08333,0.057082,-0.048266,-0.237746,0.030577,0.06561,-0.063883,0.008594,0.047446,0.264307,-0.458524,-0.072481,-0.058573,-0.290053,-0.063512,-0.118274,0.097602,0.040746,0.136649,0.075581,0.280986,-0.06249,0.107105,-0.202685,0.152639,0.081393,0.043201,0.026759,0.102218,-0.042407,-0.011741,0.071769,-0.020956,-0.097072,0.134237,-0.111589,-0.141045,0.185323,0.223999,-0.320121,-0.211142,-0.381885,0.309333,0.036955,-0.192703,0.206897,-0.325244,-0.516254,0.162333,-0.004064,-0.018687,-0.001299,-0.381386,0.202019,-0.21358,0.148081,-0.09895,-0.25506,0.436735,-0.291751,-0.265253],[0.017084,0.05382,0.018501,-0.055782,0.074999,0.137205,-0.04385,0.006695,0.005824,0.308142,0.20321,0.040103,-0.00153,0.181405,-0.03933,0.224,0.125808,0.2644,-0.035224,0.012516,-0.070381,-0.101955,-0.00568,0.036517,0.114278,0.004599,0.170976,-0.001198,-0.100708,-0.065591,0.131083,-0.02419,0.106335,0.081902,0.038463,-0.122676,-0.137626,-0.200005,-0.082662,0.23113,-0.099971,-0.098795,0.135607,0.123648,0.068811,-0.057668,-0.011517,0.125342,-0.036279,-0.008769,0.219351,-0.087104,0.122707,-0.09903,0.066529,0.164194,-0.10606,0.074565,0.036668,0.020501,0.248103,-0.231698,-0.068806,0.141241],[-0.071123,0.074941,0.051843,-0.087577,-0.019853,0.032546,0.102577,-0.004998,0.110268,-0.034736,0.080789,-0.114929,-0.117539,-0.054335,0.091914,-0.01172,0.054219,-0.115989,-0.028569,0.07827,-0.076462,0.008383,-0.028718,0.018723,-0.009618,-0.09429,-0.013253,0.031769,-0.074775,0.056327,-0.076589,-0.019721,0.041312,-0.044249,0.092636,0.121511,0.100863,0.002839,-0.02986,-0.101988,0.044989,-0.060979,-0.016667,-0.035551,-0.088989,-0.099233,-0.087233,-0.093555,-0.002558,0.090609,0.113513,-0.118445,-0.106077,0.080889,-0.095065,0.082581,0.123419,0.10655,0.107622,-0.110812,0.036278,-0.104077,-0.0104,-0.028063],[0.116224,0.080737,-0.115383,-0.145435,-0.072803,-0.071144,-0.022662,0.169256,-0.107452,-0.307935,-0.092501,0.00498,0.10623,0.006775,0.084428,0.150269,0.038448,-0.24966,-0.122153,-0.032867,0.000128,0.034929,0.080041,0.098123,-0.010967,-0.061332,-0.000222,0.090021,-0.147819,-0.003654,-0.200147,-0.072597,-0.192222,0.11037,-0.029223,-0.112499,-0.142712,0.153901,-0.068778,0.151375,0.025647,0.00035,0.125119,0.069837,-0.171227,0.151807,0.010951,0.095059,-0.068563,-0.090026,-0.340275,-0.198234,0.089529,-0.056783,-0.05743,0.018341,0.09975,0.037245,0.132203,-0.025425,0.031683,0.235675,-0.010148,-0.086459],[0.07118,-0.171851,-0.047297,-0.054293,-0.122997,-0.306208,0.18065,0.29919,0.109299,0.054205,-0.243048,-0.426802,0.024811,-0.64158,-0.066198,0.00489,-0.482526,-0.08851,-0.104353,0.123393,0.21428,0.297454,-0.57632,0.08943,-0.254532,0.021215,-0.618972,0.099315,-0.150962,-0.117787,-0.271332,-0.08346,-0.179051,-0.432483,-0.556592,0.087963,-0.146217,0.088503,-0.123705,-0.366094,0.251153,0.222712,-0.715207,-0.315301,-0.150722,0.11332,0.023755,-0.469642,0.192046,-0.219505,-0.109261,0.044705,0.083079,-0.065165,0.077716,-0.418722,0.255859,-0.628621,-0.081791,0.0115,-0.291092,0.311608,-0.708993,-0.092807],[-0.282438,-0.204553,0.04431,-0.144224,-0.019061,-0.153522,0.072492,0.423847,0.086892,0.037902,0.043716,-0.463289,-0.365645,-0.16784,-0.026069,-0.221248,-0.159964,-0.132005,0.078743,0.091799,0.365225,0.364492,-0.395669,0.240948,-0.153957,0.310166,-0.466177,0.236803,-0.125628,-0.077934,-0.112839,0.03221,0.071506,-0.294288,-0.210256,-0.016498,-0.077775,0.333628,0.056598,-0.207425,0.330694,0.2554,-0.488914,-0.367198,-0.098985,0.231173,0.04936,-0.335652,0.353421,-0.155196,-0.192154,0.056725,0.219768,-0.070914,0.075,-0.298432,0.279465,-0.389397,-0.333102,-0.100964,-0.251888,0.194612,-0.211012,0.106724],[-0.038256,0.047318,-0.042907,-0.072365,-0.418,0.136181,0.171451,-0.098923,-0.048734,-0.657431,-0.39088,-0.299862,-0.002858,0.008075,-0.084265,-0.186573,-0.163116,-0.493809,-0.104495,0.083054,0.277188,-0.061639,-0.101888,-0.174611,-0.091176,0.210139,-0.239523,-0.019333,0.117514,0.024609,-0.370773,-0.0356,-0.379932,-0.585831,0.095058,0.000733,-0.06698,0.083068,0.022147,0.090968,0.066543,0.029999,-0.181964,-0.056056,-0.135634,-0.276123,0.122515,-0.08856,-0.14068,0.00488,-0.390284,0.342346,-0.13065,-0.07444,0.045798,-0.045868,-0.012894,-0.124226,-0.046405,0.020727,-0.074572,0.028079,-0.140358,-0.297464],[-0.362716,0.099005,0.059344,-0.061403,-0.361754,-0.243854,0.094411,0.188308,0.120863,-0.473298,-0.56526,-0.140801,-0.181354,-0.213422,0.020357,0.046014,-0.232997,-0.377786,0.047255,0.07365,0.134063,0.092473,0.024203,-0.017977,-0.024814,0.051369,-0.125879,0.088611,0.165478,-0.046462,-0.455524,0.018612,-0.275691,-0.24364,-0.249062,-0.000401,-0.113064,0.154441,0.075448,-0.032637,-0.073861,-0.073278,-0.142966,-0.025897,-0.073279,-0.08564,-0.114036,-0.439769,0.125785,0.044581,-0.407446,0.13821,0.046656,-0.057775,0.040633,0.087122,0.02613,-0.166742,-0.050541,0.049695,-0.244074,0.323335,-0.105642,-0.288609],[-0.151783,0.083879,-0.094515,-0.092852,-0.249911,-0.004444,0.054263,0.126869,-0.184388,-0.521015,-0.198471,0.403173,0.351366,0.240413,0.002224,-0.016079,0.12838,-0.358718,-0.04329,-0.108392,0.184288,-0.067999,0.204173,-0.192854,-0.036582,-0.142902,0.387697,-0.17605,0.204722,-0.151665,-0.153514,-0.106457,-0.496411,0.084406,0.27511,0.038088,0.006057,0.052408,-0.048158,0.218924,-0.099023,0.005885,0.076736,0.142212,-0.203956,-0.046997,0.020322,0.132783,-0.047588,0.051105,-0.331539,0.09348,-0.357396,-0.070446,0.033036,0.113911,-0.195758,0.227258,-0.049948,-0.014159,0.200147,-0.213485,0.147654,-0.319749],[0.041053,-0.025125,-0.052412,-0.02193,0.074793,0.059237,0.0106,0.069872,-0.0191,-0.103153,-0.072187,0.002051,-0.141695,0.020991,0.112725,0.046074,0.00802,-0.084572,-0.010172,-0.025587,-0.00853,-0.043834,0.008699,-0.015907,0.148013,0.02473,-0.066303,-0.108628,0.020709,-0.00186,-0.016315,0.015988,0.060813,0.069678,-0.05844,-0.110587,-0.048725,0.017743,0.062589,-0.019681,0.061032,-0.068624,0.077618,0.053461,0.041108,0.017109,0.038728,-0.100829,-0.030046,-0.074255,-0.007358,0.12235,-0.051194,-0.111339,-0.077115,-0.076477,0.073862,-0.120958,-0.082603,0.051876,0.096969,-0.017297,0.071002,-0.126169],[-0.080649,0.198302,-0.091424,-0.072677,0.202416,-0.115524,0.067513,-0.033876,-0.067704,0.192218,0.247426,0.243838,0.143677,-0.001518,0.025698,0.049505,0.236401,0.20856,0.076041,0.070141,0.084096,-0.049645,0.051823,-0.076271,0.162939,-0.168842,0.216608,-0.26393,-0.030855,-0.072823,0.185811,-0.039847,0.223922,0.061306,0.254186,0.019929,-0.079037,-0.103242,0.052955,0.190419,-0.049844,-0.090598,0.235984,0.243042,-0.00663,0.060875,0.034154,0.055825,0.041702,0.081065,0.024323,-0.051612,0.069339,0.050753,-0.032317,0.188513,-0.098115,0.186485,0.112118,0.047671,0.25526,-0.353409,0.131415,0.029208],[0.082142,-0.115415,0.059816,0.080207,0.058999,0.006564,0.112087,-0.022048,-0.042182,-0.377712,0.119902,0.059094,0.120755,0.103406,-0.032195,0.26351,-0.048503,-0.070143,-0.123091,-0.023279,-0.456666,-0.129733,-0.016683,-0.093217,0.074246,0.044136,0.105204,-0.018785,-0.098572,-0.038267,-0.581279,0.123326,-0.270646,0.068101,0.175132,-0.010703,0.00679,-0.018159,0.100209,0.13604,-0.00521,0.011604,0.154088,0.016171,-0.310302,0.02846,-0.0107,-0.117407,-0.111386,0.002464,-0.033708,-0.263759,0.017905,-0.098914,-0.08128,-0.027657,-0.088241,0.12673,0.240586,0.101542,-0.003287,0.284615,0.120378,-0.30279],[-0.231305,0.050139,-0.063472,-0.016781,0.359416,0.188197,0.167039,0.09337,0.191502,0.447532,0.228752,-0.086915,-0.127347,0.056924,-0.132133,-0.031489,0.047726,0.303825,-0.022835,-0.034617,-0.381174,0.119876,-0.006765,0.116135,-0.015066,0.099622,-0.199121,0.112882,0.027999,0.011274,0.176185,0.386011,0.260051,0.004343,-0.070643,-0.087025,0.067235,0.130195,-0.091692,-0.058112,0.239891,0.171746,-0.107038,0.031236,0.026386,0.247975,0.08089,-0.181394,0.048796,-0.213009,0.349208,0.184604,0.029092,-0.00026,0.023792,-0.048004,0.113782,0.012281,-0.127412,0.094866,-0.180118,0.167165,-0.0076,0.316583],[0.154002,0.168112,0.041278,0.095179,0.133131,-0.053468,-0.057877,0.165554,0.038663,0.048481,-0.017302,-0.13847,-0.159939,-0.130183,-0.040274,0.068567,-0.121445,0.111215,0.05886,-0.033337,0.053229,0.193284,-0.167525,-0.046644,-0.080869,0.031126,-0.041595,-0.007556,-0.100247,-0.136916,0.051907,-0.041235,0.054393,-0.265065,-0.267461,-0.145108,0.067582,-0.025661,0.065647,0.050727,0.099791,0.110891,-0.100525,-0.059309,0.036455,-0.122524,-0.062615,-0.34754,0.149256,-0.07093,0.057375,0.005793,-0.010174,0.109318,-0.021694,-0.026791,0.082657,-0.024459,0.039755,-0.121279,-0.142457,0.147666,-0.201253,0.238183],[-0.464438,0.060254,-0.095803,-0.143226,-0.390458,-0.175695,0.194551,0.03173,0.07851,-0.627664,-0.307647,-0.011565,-0.092251,0.003338,-0.056369,-0.132143,-0.029672,-0.521107,-0.010996,-0.006544,0.112621,0.09856,-0.042566,0.008038,-0.04073,0.086046,0.022224,0.089419,0.011874,0.019943,-0.166418,-0.281104,-0.498612,0.045064,0.161496,0.00178,-0.123452,-0.029978,-0.09046,-0.080278,0.030755,-0.062729,-0.017475,-0.186462,-0.116145,0.054927,-0.137395,0.092777,0.019354,-0.026586,-0.360718,0.13757,-0.055125,0.055732,-0.096737,-0.031154,0.004197,0.086511,0.04876,-0.106262,0.052535,-0.302171,0.015036,-0.240219],[-0.122348,0.106442,-0.081254,-0.140615,-0.18552,-0.100998,0.190766,0.031045,0.013129,-0.092956,0.041001,-0.177489,-0.167104,0.01627,-0.078423,0.052072,-0.184582,-0.147958,0.065356,-0.089132,0.222051,0.020202,-0.107416,0.18619,0.071255,0.170614,-0.070896,-0.076273,-0.050478,-0.054797,-0.10741,-0.168862,-0.110054,-0.088772,-0.1171,0.011942,-0.12063,0.016614,-0.134991,-0.144227,0.185694,0.030978,-0.070375,0.081441,-0.081802,-0.030259,0.020476,-0.133993,0.20723,0.129394,-0.031321,-0.012883,-0.077182,0.095792,-0.003714,-0.052946,0.091321,-0.076256,-0.102246,0.03912,-0.17374,0.032044,-0.093826,0.067026],[0.068105,0.129639,-0.120849,0.102477,0.357543,-0.15323,-0.027982,-0.078953,0.088077,0.506555,0.318238,-0.343017,-0.023257,-0.185248,0.002309,0.205717,-0.371263,0.465167,-0.107485,-0.060096,-0.451087,-0.119336,-0.257268,0.023705,0.109286,-0.183598,-0.147643,-0.072148,0.002102,-0.079232,0.186615,0.319361,0.189355,-0.232439,-0.192497,0.047007,-0.071303,-0.111008,0.082954,-0.041327,0.114752,-0.203035,-0.089765,-0.071445,-0.207547,0.117462,0.103195,-0.322528,-0.068284,-0.027835,0.407565,-0.013981,0.475538,-0.093163,0.011034,-0.139324,0.037504,-0.330223,0.366167,0.04325,-0.022951,0.435875,0.050945,0.164378],[0.00323,0.128693,-0.032487,0.019234,-0.367118,-0.052425,-0.076424,-0.19324,-0.027524,-0.380244,-0.319087,0.243991,-0.065103,0.058192,-0.080006,0.080937,0.070456,-0.380995,0.004291,-0.067898,0.200571,0.01274,-0.066593,-0.108658,0.012604,0.022464,0.040888,-0.113914,0.063772,-0.051109,-0.238158,-0.282934,-0.093015,0.07864,0.111004,-0.107993,-0.08138,0.058209,0.068749,-0.018037,-0.101567,-0.120966,0.193397,0.213213,-0.219659,-0.384515,0.020727,0.024461,-0.034282,0.125222,-0.180826,0.126201,-0.446807,-0.107262,-0.061342,0.105474,0.041675,-0.076964,-0.03476,0.098059,0.131581,-0.212509,-0.119156,-0.007534],[0.194864,0.203469,0.000306,0.093583,-0.040903,-0.031079,0.170692,-0.25885,-0.024838,-0.070182,0.111228,-0.072136,-0.165563,0.0894,-0.118928,0.050991,0.252225,-0.111623,-0.096155,-0.115891,-0.148726,-0.074614,-0.001811,-0.202468,0.207925,-0.195955,0.043907,-0.114931,0.17257,-0.087397,-0.126691,-0.08373,-0.22832,0.16371,0.154856,-0.06344,-0.105859,-0.169705,0.013224,0.168583,-0.08665,-0.097234,-0.261895,0.280414,0.3144,-0.281036,-0.104993,0.051235,-0.219219,0.278487,-0.108447,0.200742,0.210686,0.068063,-0.103502,0.242728,-0.275849,-0.066458,0.067962,0.032227,0.207551,-0.683243,-0.000572,-0.194706],[0.225184,0.050765,-0.067583,0.023645,0.135418,-0.086229,-0.298603,-0.080766,-0.169489,-0.026374,0.213142,0.123732,0.112937,0.080114,-0.132592,0.213469,0.169328,0.114535,-0.004261,0.013876,-0.103033,-0.111409,0.19319,-0.115151,0.002116,-0.102549,0.155882,-0.054221,-0.206759,0.082427,0.055931,-0.144122,0.066425,0.18014,0.10024,-0.110585,0.005695,0.000518,-0.058619,0.114885,0.041738,-0.067353,0.048476,0.28398,0.159969,0.073987,0.044468,0.168547,-0.187203,-0.062651,-0.05923,0.005919,-0.121627,0.093436,0.025403,0.021822,0.147979,0.155537,0.296016,-0.021683,0.052461,0.21251,0.047354,-0.054462],[0.022678,0.018579,-0.03983,-0.083879,0.056731,-0.110848,-0.037498,-0.06636,-0.026119,-0.249131,0.03875,0.145385,-0.202203,0.116824,-0.056342,0.003155,0.330585,-0.165418,-0.12284,-0.024027,0.093697,0.114055,0.190381,-0.052963,0.150588,0.018043,0.258576,-0.041263,-0.137587,0.059035,0.021971,0.098721,-0.143951,0.159903,0.255981,-0.112442,-0.111853,-0.061421,-0.128929,0.091606,-0.063956,-0.012834,0.053442,0.231061,0.12834,-0.003108,0.074182,0.347445,0.037375,-0.003612,-0.272866,-0.268737,-0.13925,-0.114087,0.103742,0.20726,-0.01183,0.305267,-0.056548,-0.091125,0.220512,-0.88604,0.006756,-0.184392],[-0.423518,0.08975,-0.108686,-0.02412,-0.425531,0.423537,-0.471812,-0.115555,-0.347795,-0.507572,-0.834748,-0.448047,-0.326744,0.158283,0.116336,-0.178288,0.172037,-0.537019,0.075459,-0.128187,-0.104798,-0.106979,0.010769,-0.034905,-0.263583,0.293435,-0.149656,0.038388,0.560618,0.03084,-0.215592,-0.034859,-0.585833,-0.293823,0.055233,0.109705,-0.011435,0.191646,0.086394,0.052624,-0.183104,0.248038,-0.254361,-0.541954,-0.211482,-0.524167,0.000156,-0.384082,0.082688,-0.278262,-0.102526,-0.017762,-0.109931,-0.006798,-0.118107,0.003922,-0.212158,-0.25369,-0.5314,-0.022314,-0.331973,-0.414739,-0.045197,0.056418],[0.012334,0.135196,0.004772,0.083913,-0.037463,-0.118227,0.031697,-0.077605,-0.170003,0.078175,-0.02164,-0.123512,-0.121633,0.071777,-0.023613,0.168452,-0.189049,-0.13262,-0.051206,0.080002,-0.010456,-0.014065,-0.13173,-0.028451,-0.033734,-0.130235,-0.126519,-0.054577,0.058583,0.088242,0.054107,-0.148776,0.045362,0.071838,-0.169822,-0.08763,-0.07676,-0.060874,0.048904,0.165407,0.151476,-0.130383,-0.312673,0.262718,0.155982,-0.121048,0.012998,0.027935,-0.049861,0.128985,0.073439,-0.058911,0.107362,0.032174,0.073607,0.059121,-0.142849,-0.138366,0.125862,0.064884,0.046174,-0.400405,-0.07737,0.321224],[0.173556,0.203726,0.106575,-0.100162,-0.075934,0.04215,0.059525,-0.094203,0.023711,-0.258417,-0.0969,0.392338,0.364621,0.057736,0.009932,0.299452,0.253944,-0.020286,0.064812,0.083859,0.021239,-0.191914,0.234179,-0.134695,-0.063882,-0.133369,0.338545,-0.265692,-0.085663,-0.084859,-0.34322,-0.079796,-0.060944,0.194072,0.389429,0.016429,0.036847,-0.270401,-0.008794,0.186785,-0.247133,-0.190752,0.121142,0.232458,0.103949,0.027103,-0.09033,0.24554,-0.256388,0.056454,-0.455989,-0.179605,0.083684,0.11014,-0.099586,0.178051,-0.105433,0.418702,0.280507,-0.116743,0.196179,0.286238,0.283311,-0.239672],[-0.100479,0.109762,-0.050554,0.072613,0.29693,0.254176,0.041707,0.150332,0.236718,0.409033,0.274842,-0.020777,-0.235552,-0.057604,-0.03494,-0.066769,-0.06329,0.352834,0.007082,-0.055548,-0.255107,0.082177,-0.061275,-0.085086,-0.065378,0.097371,-0.159903,0.309498,0.276423,0.126414,0.487212,0.150799,0.08456,0.147133,0.043892,0.110943,-0.09022,0.155149,-0.117056,0.119937,-0.00537,0.202126,-0.065242,-0.119902,0.085078,0.077665,0.003472,0.053987,-0.024973,-0.120285,0.102769,0.630613,0.13965,-0.062497,0.019956,0.254005,-0.24817,-0.088762,-0.036774,-0.003041,-0.284088,0.183468,-0.20708,0.258856],[-0.168729,-0.165883,-0.009899,-0.13265,0.537614,0.041124,-0.26219,0.251249,0.130434,0.897118,0.552931,0.102076,-0.183389,-0.168099,-0.037897,0.014627,0.082131,0.56655,-0.052185,-0.013095,-0.376689,0.210451,0.067968,0.122688,0.129583,0.287183,0.061436,0.012774,0.080861,0.023527,0.296319,0.395655,0.495336,0.157828,0.122646,0.07594,0.081369,0.040945,-0.072067,-0.104284,0.089361,0.059457,0.01293,0.100412,0.118707,0.268153,0.098792,0.041821,0.276855,-0.270761,0.62229,-0.044264,0.073865,-0.003736,-0.026253,-1e-05,0.328683,-0.010813,0.020549,-0.066702,0.050438,-0.253172,0.007724,0.574993],[-0.589696,0.124021,-0.027817,0.024059,-0.017331,-0.124517,-0.065971,0.115819,0.062794,-0.110335,0.06913,0.162488,-0.06175,-0.001652,-0.027312,0.049188,0.147276,0.01514,0.064621,-0.119938,0.02735,0.112156,0.037978,-0.16785,0.172902,-0.004036,0.122712,-0.046834,0.138656,-0.015244,-0.072076,-0.163387,-0.389056,0.009956,0.132561,-0.076888,0.034615,-0.005361,0.044619,0.167104,-0.100712,-0.032718,0.126271,-0.117363,-0.0634,-0.073458,-0.125467,0.247567,0.0526,-0.063829,0.006276,-0.007404,0.100553,0.023039,0.063706,0.146203,0.038901,0.213582,-0.072519,-0.171099,0.133657,-0.272065,0.214109,0.010513],[-0.04469,-0.079099,0.109874,0.030022,-0.058369,-0.012533,-0.18301,0.152855,0.055737,0.066517,-0.044027,-0.072132,0.105444,-0.170995,0.018757,0.157039,-0.181062,-0.052286,0.061,-0.126564,-0.045735,0.146729,-0.09771,-0.101411,0.130319,0.151248,-0.205946,-0.006937,-0.068566,0.00717,0.303437,-0.17093,-0.124306,0.118767,-0.102301,-0.110093,-0.11517,-0.102071,-0.069911,0.064598,0.133392,0.041428,-0.030382,0.162249,-0.113868,0.099752,-0.053987,0.026476,0.093803,-0.023462,-0.452622,0.089805,-0.106125,0.120209,0.012514,-0.003786,-0.074436,-0.277207,-0.140886,0.017472,-0.12912,-0.550203,-0.131076,-0.033373],[0.162059,-0.035666,-0.107635,0.067932,0.14116,-0.010619,-0.031138,0.13218,-0.090329,0.296543,0.097268,-0.166859,-0.102618,-0.02529,0.020694,0.156403,-0.053596,0.181999,-0.092924,-0.111265,0.003346,0.089863,-0.239427,0.091398,0.096412,0.145765,-0.245917,0.074769,-0.024733,-0.15637,-0.031358,0.11175,0.206793,-0.141352,-0.22273,0.04086,0.020285,-0.056123,0.086814,0.051677,-0.047546,0.08899,-0.163516,0.227598,0.197392,0.111727,-0.055533,-0.086199,0.130581,-0.065273,0.135217,-0.122376,0.145488,-0.011837,-0.146901,-0.00874,0.09996,-0.289912,-0.041697,0.078568,0.124065,0.065425,-0.146981,0.087592],[0.078083,0.194366,-0.091177,-0.120767,0.00963,0.150876,-0.190721,-0.096605,-0.028022,0.046193,0.011405,0.343003,0.14282,0.1825,-0.085775,0.293754,0.133695,-0.011865,0.004784,0.065875,-0.030568,-0.235417,0.37758,-0.188447,0.227177,-0.065928,0.512051,-0.083366,0.145216,-0.073992,0.270856,0.079387,-0.105373,0.144539,0.277142,0.021919,0.08694,-0.175217,-0.109943,0.168566,-0.146615,-0.198579,0.002608,0.314988,0.167809,-0.192459,0.047455,0.333326,-0.133125,0.373067,0.096608,0.11154,0.013431,0.047904,-0.063147,0.226313,-0.173395,0.515835,0.151758,-0.128379,0.345317,-1.051028,0.303194,-0.144017],[-0.168057,-0.37788,-0.108297,-0.001845,0.969824,0.001409,-0.055291,0.665331,0.65846,0.990204,0.559686,0.196232,0.262559,-0.249963,-0.007946,-0.299283,0.123247,0.83331,-0.063551,0.051544,-0.247647,0.568254,-0.161242,0.647807,-0.414074,0.471836,0.030311,0.570023,-0.17756,-0.038766,0.806254,0.549951,0.703496,-0.058305,-0.236592,0.086352,-0.066291,0.594451,-0.017754,-0.518131,0.616319,0.610098,-0.408943,-0.516623,-0.4381,0.647204,-0.114469,0.030668,0.800346,-0.453172,0.631582,-0.327898,-0.262187,-0.037389,-0.065601,-0.423439,0.656347,-0.118409,-0.016574,-0.115308,-0.517377,0.098174,-0.078342,0.62547],[0.068773,0.098708,0.058588,-0.054622,-0.051007,-0.103848,-0.121151,-0.18463,-0.070559,-0.269238,-0.019098,0.085089,0.109117,0.114173,-0.054739,0.111253,0.184276,-0.115958,-0.044921,0.032883,-0.032533,-0.082966,0.12771,-0.051787,-0.091169,-0.080454,0.156301,0.016649,-0.079687,-0.058505,-0.002546,-0.233005,-0.13676,0.069518,0.112626,-0.141879,-0.040231,-0.124748,-0.120347,0.264854,0.037176,-0.120785,0.237718,0.266002,0.061683,-0.074106,0.080672,0.176438,-0.090354,0.052254,-0.109801,0.039828,-0.299665,-0.099838,-0.119559,0.215727,-0.060712,0.108511,0.233193,-0.120689,-0.000281,0.035714,0.161618,-0.261111],[0.073214,0.103988,-0.101461,-0.001644,0.009514,0.066336,0.120266,0.076133,-0.00728,0.086411,-0.079861,-0.051953,-0.039098,-0.014232,-0.081554,0.078294,0.066338,-0.067244,0.017014,0.065174,-0.104818,-0.068705,-0.058134,-0.005559,-0.058273,0.138625,-0.040745,0.083522,-0.151936,-0.009972,-0.041597,0.000219,-0.032666,-0.072115,0.003057,0.084783,0.100824,-0.08544,-0.08086,0.079744,-0.028584,0.018301,-0.030857,-0.106956,-0.056451,-0.013799,0.00292,-0.042792,-0.017689,0.068432,-0.068552,-0.056199,-0.040841,-0.024855,0.106241,0.081579,0.122735,-0.120415,-0.036341,-0.107147,-0.093174,0.079245,-0.002541,0.082123],[-0.335123,-0.188277,-0.131894,-0.04327,0.091629,-0.081423,0.034467,0.063774,0.546417,-0.129235,-0.181766,0.198655,-0.058781,-0.094075,-0.084926,-0.097715,-0.116222,-0.044833,0.088939,-0.088397,-0.22781,0.16923,-0.056831,0.079944,-0.190936,0.076035,-0.217695,0.166925,0.164782,0.012812,-0.267832,-0.345154,-0.385874,0.129762,-0.195552,-0.032271,0.028548,0.142155,-0.101124,-0.259805,0.224593,0.218945,0.04392,-0.041924,-0.441058,-0.038152,-0.008718,0.023864,0.139031,-0.180173,-0.201789,0.120733,-0.165726,-0.051978,0.035431,-0.247345,0.214627,-0.399062,-0.172251,0.062962,-0.551043,0.092371,-0.297142,-0.038619],[0.108322,0.04753,-0.105999,0.026003,0.052527,-0.035331,0.112218,0.060924,-0.10193,0.005385,-0.041803,0.072061,0.0084,0.117324,-0.035789,-0.103863,-0.065768,0.067969,-0.089131,0.013672,-0.075387,0.064299,0.036658,0.018892,0.082936,0.076436,0.076736,0.009573,0.042247,-0.07187,-0.000322,-0.10669,0.104973,0.035724,-0.136752,-0.080353,0.08302,-0.031716,-0.023511,-0.020106,-0.03379,0.03521,0.006071,0.018953,-0.025392,-0.079065,-0.101015,0.126303,-0.102779,0.000485,0.112189,-0.113825,-0.101924,-0.010486,0.110608,-0.002066,-0.022752,-0.019294,0.084128,0.055947,0.015686,0.07243,-0.099438,-0.090483],[0.196625,0.02832,-0.040827,0.118062,-0.401276,0.069464,0.041103,-0.136448,-0.27889,-0.346828,-0.07202,-0.094152,-0.059937,0.020664,0.005806,0.414604,-0.024402,-0.180735,0.013779,-0.084817,0.111527,-0.318057,-0.121726,-0.189534,-0.070751,-0.306056,0.001794,-0.194533,-0.191478,-0.113931,-0.119277,-0.207667,-0.159223,-0.292854,0.036868,0.038901,-0.048329,-0.166599,0.064359,0.149754,-0.196184,-0.244824,0.172514,0.169847,-0.146994,-0.238871,-0.022081,0.204058,-0.214456,0.022227,-0.2824,0.035641,-0.029998,0.00923,-0.106476,0.273083,-0.039895,0.061744,0.334952,-0.075963,0.112038,0.218937,0.062057,-0.349331],[-0.196101,-0.009708,-0.030523,-0.106673,0.065422,0.065984,0.152368,0.087922,0.198089,0.202931,0.197098,0.018095,0.018997,-0.128335,0.060775,-0.041489,-0.021571,0.223848,-0.131419,-0.082154,0.028184,0.154522,-0.072325,0.123974,0.12152,-0.018462,0.181913,0.048763,0.058292,-0.084911,0.193014,0.034545,0.230923,-0.034911,-0.109684,-0.040109,0.089848,-0.048971,-0.054271,-0.034916,0.076774,0.006692,-0.113032,0.072108,-0.009592,-0.057877,-0.078463,0.081967,0.170353,0.031441,0.087383,0.031349,0.205172,-0.097482,0.074578,-0.073444,0.169352,-0.050436,0.051119,-0.106264,0.115513,-0.076112,-0.211553,0.323329],[0.234936,-0.010309,0.079194,-0.045923,-0.125871,-0.087758,-0.071463,-0.305389,-0.022356,-0.049512,-0.190152,-0.070637,0.065075,-0.206903,0.086584,0.282384,-0.120606,-0.117814,0.083738,-0.030621,0.013633,-0.194202,-0.10021,0.177005,-0.024117,-0.049446,-0.095948,0.050309,-0.074404,0.004852,-0.425129,0.173816,-0.136309,-0.202726,-0.145885,-0.0179,-0.058706,0.018704,-0.143683,0.030043,-0.105048,-0.135019,-0.212458,0.230987,-0.090561,-0.100781,-0.115609,-0.134779,-0.106679,0.212756,-0.26122,0.12649,0.228939,0.004395,-0.102357,-0.050735,0.129719,-0.229264,0.286619,-0.08019,-0.051417,0.710031,-0.291332,-0.422976],[-0.309885,-0.052614,0.06638,-0.070242,0.699126,-0.101926,0.101356,0.383366,0.252305,0.679272,0.357713,0.019317,-0.166641,0.02588,-0.078926,-0.416654,-0.176573,0.56496,-0.074813,-0.091083,-0.077877,0.366887,-0.010921,0.445885,-0.113943,0.174192,-0.246877,0.071568,-0.229989,-0.045395,0.554918,0.357721,0.62933,-0.195349,-0.101165,0.105613,-0.048144,0.078777,-0.022783,-0.279609,0.398898,0.190783,-0.088321,-0.002088,-0.332239,0.476121,-0.020974,0.059692,0.339858,-0.11396,0.443568,0.104371,-0.438836,0.11585,0.048191,-0.210254,0.440989,-0.251393,-0.15118,-0.123006,-0.063944,-0.043555,-0.099821,0.603989],[-0.236634,0.039903,0.081058,-0.059527,-0.018129,-0.135141,-0.0321,0.016162,-0.065569,0.257478,0.0109,-0.132169,-0.14795,-0.101532,0.001802,-0.060007,-0.03507,0.028685,0.006005,-0.044294,-0.053354,0.042573,0.059942,-0.018493,0.062106,-0.107936,0.014605,0.015943,0.056576,0.026846,-0.017673,-0.023411,0.012254,-0.22217,0.003712,0.006362,-0.113206,-0.02377,-0.032277,0.036809,-0.040738,-0.102853,0.072733,0.020209,-0.10803,0.007248,-0.133826,-0.071598,0.117086,0.021986,0.064496,0.155841,0.021517,0.032889,-0.128023,0.104265,-0.001145,-0.034641,-0.001525,0.030768,0.215572,-0.164029,-0.036448,0.224362],[-0.236344,0.084246,-0.071223,0.080417,-0.012108,-0.163988,0.056851,0.104469,0.141263,-0.013741,-0.158406,-0.189621,-0.059099,-0.168865,0.048072,-0.172041,-0.096919,-0.061672,-0.010303,-0.002903,0.082639,0.141145,-0.0777,0.243869,0.069979,0.289829,-0.162827,0.194975,-0.068102,-0.068465,-0.068252,0.02542,0.0866,0.124702,-0.138528,-0.166093,0.01119,0.072199,-0.154899,-0.171693,-0.012492,0.257272,-0.329183,0.090488,-0.022458,0.101379,-0.005764,-0.101402,0.218765,-0.033525,-0.154449,-0.107635,0.118037,-0.05171,-0.086869,-0.089363,0.191242,-0.398288,-0.270911,-0.029978,-0.245514,0.032743,-0.122408,-0.050894],[0.01174,0.04214,0.019317,-0.022155,0.131575,-0.18052,-0.008313,0.058418,-0.02329,0.318064,0.255327,-0.081145,-0.098133,-0.128845,-0.015884,-0.007345,0.009189,0.191788,-0.07131,0.047853,-0.100215,0.028273,-0.000908,4.3e-05,0.027994,0.100128,-0.081762,-0.006507,-0.085324,-0.063937,0.116603,-0.029052,0.205149,-0.001209,-0.104855,-0.11941,-0.119216,0.046404,-0.019067,0.089125,0.132182,0.09225,-0.160816,-0.026076,0.221626,0.117747,-0.05272,0.10156,0.107534,0.181349,0.390697,-0.089272,0.209654,-0.026598,-0.02415,0.134618,0.101442,-0.006058,-0.027994,-0.125336,0.020145,0.111792,0.085501,0.188468],[-0.031852,-0.04198,0.086273,0.090009,0.075883,0.138795,-0.09873,-0.04575,-0.097263,0.058405,-0.065783,0.195667,0.240921,0.086913,0.041006,0.213241,0.055624,0.175602,-0.058562,-0.133838,-0.723475,-0.111183,0.011881,0.070791,-0.176561,0.081329,0.201637,-0.01603,0.081403,0.08156,0.181234,-0.066183,0.1126,-0.011254,0.157349,-0.113739,-0.032709,-0.004173,-0.084587,0.013392,-0.045749,0.044661,0.262278,0.254617,-0.021411,-0.07508,-0.075717,0.187299,-0.138199,-0.041295,-0.101313,0.139042,-0.113107,-0.063525,-0.040366,-0.012463,-0.000621,0.243759,0.237551,-0.148515,0.001439,0.176694,0.199121,-0.122153],[0.039492,0.159879,-0.113619,0.058284,-0.097239,-0.014168,0.104999,-0.111262,-0.362435,-0.311087,-0.096853,-0.176885,-0.20878,0.1298,-0.108883,0.175949,0.132352,-0.167141,-0.107115,-0.023735,0.194122,-0.006126,-0.111021,-0.125729,0.118923,-0.059916,0.095421,-0.177559,0.085035,0.065254,0.300427,-0.090132,0.019018,0.099395,-0.03487,0.095758,-0.110036,-0.161622,-0.115367,0.193734,0.072763,0.039605,0.02514,0.203397,0.268285,-0.255725,-0.019367,0.215122,-0.154804,0.028228,-0.08904,-0.042336,0.119353,-0.074344,-0.092011,0.230911,-0.267493,0.083637,0.126271,0.01304,0.149804,-0.778484,0.033072,0.024044],[0.055818,0.158871,-0.043304,-0.095355,-0.020007,0.059254,0.066455,0.112293,0.045062,0.226999,0.077759,0.199922,-0.058813,0.010402,-0.086093,0.143262,-0.019455,-0.031069,-0.066555,-0.117675,-0.120236,0.15636,0.084585,0.063377,-0.064835,0.012939,0.183589,0.08941,0.08144,0.080852,0.102128,0.149879,-0.053625,-0.05807,0.204742,-0.018586,-0.062852,0.039618,-0.12401,0.152427,0.161509,0.064295,0.125717,-0.060435,-0.246395,-0.152928,0.019998,-0.174837,0.057123,0.154324,-0.062931,0.106127,-0.503155,0.020749,-0.141142,0.20582,0.026115,0.257126,-0.090896,-0.131048,0.103558,-0.123191,-0.011674,0.039646],[-0.196881,-0.032278,-0.081845,-0.072413,-0.328164,-0.169072,0.177113,-0.002261,0.111497,-0.449542,-0.474344,-0.324943,-0.05716,-0.010861,0.008976,-0.105737,-0.095747,-0.343942,-0.051032,-0.012764,-0.018815,0.132709,-0.346814,0.087768,0.040665,-0.010328,-0.297928,-0.053866,0.134863,-0.080731,-0.196055,-0.14529,-0.153128,-0.194969,-0.346461,0.014849,-0.004766,0.161522,-0.099949,-0.039059,0.143954,0.044907,-0.221132,-0.124621,-0.073853,-0.071435,0.089555,-0.100459,0.054496,0.04654,-0.373287,-0.047733,-0.012351,-0.029948,-0.083356,0.050094,0.036995,-0.244077,-0.031072,0.060594,-0.112242,-0.274677,-0.070171,-0.253072],[0.013301,-0.015619,-0.003951,-0.064175,-0.120353,-0.044269,-0.015376,0.014467,-0.048593,0.035192,0.088143,0.121868,0.036078,0.103888,-0.048941,0.088028,0.100347,0.047236,-0.001513,0.074578,-0.098455,-0.093045,0.04131,0.097966,-0.00987,-0.033836,-0.00724,0.041994,-0.095507,-0.097993,0.049169,-0.113196,0.001721,-0.072621,-0.020942,0.043823,-0.010252,0.051011,0.027027,0.012486,-0.115873,0.003127,0.043984,0.105216,0.010324,-0.03132,0.124166,-0.040173,-0.059945,-0.01021,0.021515,-0.08174,-0.079617,-0.037549,-0.088232,-0.084821,-0.063339,0.004789,0.102028,0.006123,0.084266,0.050993,-0.029273,0.050312],[0.110229,0.000353,-0.109762,-0.132279,0.010459,-0.23684,0.042174,0.061621,0.063082,-0.11805,-0.185984,0.025506,-0.120223,-0.06485,-0.114531,0.177938,-0.253261,-0.063463,-0.120456,-0.034082,-0.087677,0.065582,-0.165465,0.094801,-0.12393,0.079676,-0.206458,0.045848,-0.16872,-0.090505,-0.303306,0.084296,-0.219341,0.001556,-0.224448,-0.083307,-0.0215,0.144021,-0.023534,0.180738,0.101174,-0.060095,-0.209895,0.141841,-0.018331,-0.006189,0.079621,-0.046481,-0.039348,0.034441,-0.006149,-0.18895,0.176612,-0.0758,-0.080969,0.116907,0.005672,-0.222659,0.078676,0.003232,-0.123777,0.167846,-0.169491,-0.164889],[-0.139726,0.006144,-0.045883,0.014247,-0.299452,-0.031478,0.092128,0.091005,-0.401358,-0.260393,-0.269734,-0.075682,-0.245724,-0.276125,-0.049739,-0.008534,0.011436,-0.20158,-0.098838,-0.114001,0.161937,0.07801,-0.109118,0.299487,0.026994,0.343411,-0.274986,0.177009,0.039497,-0.146666,0.075527,0.027107,-0.005049,-0.148758,-0.180364,0.017314,0.057671,0.136804,0.04777,-0.064257,0.116379,0.130964,-0.119241,-0.099463,-0.325252,0.071461,-0.023127,-0.179858,0.081666,-0.035007,-0.504108,0.046301,0.074203,-0.020665,0.031798,-0.103438,0.189051,-0.284633,-0.098006,0.027274,-0.351793,0.283155,-0.215956,-0.191754],[0.032128,0.012612,-0.114851,0.02184,-0.36866,-0.014742,0.185719,-0.010207,-0.09176,-0.141848,-0.268489,-0.275838,-0.146847,0.121089,0.071896,-0.048677,-0.239775,-0.375871,-0.049459,0.054718,0.105843,0.057959,-0.096136,-0.026953,-0.082784,0.052096,-0.098083,0.015329,0.053596,0.013406,-0.339122,-0.123637,-0.052404,-0.287085,-0.041911,0.004689,-0.089577,-0.175038,0.090847,0.086737,0.155472,0.004998,-0.034489,-0.101819,-0.02312,-0.125695,-0.056317,-0.266217,0.051661,0.163395,-0.174985,0.105344,0.009201,-0.116128,-0.072314,0.187735,0.007193,-0.078399,0.059464,0.02786,-0.11154,0.139296,0.006805,-0.035828],[0.026865,-0.01224,-0.011647,0.105334,0.397383,-0.096307,-0.214914,0.214828,0.093835,0.424461,0.214551,-0.140522,-0.207847,0.136559,-0.07687,-0.241246,-0.262597,0.300704,0.051714,-0.0538,-0.257252,0.333122,0.060667,0.322829,-0.007993,0.239131,-0.170605,0.148987,0.036495,0.06544,0.359103,0.351076,0.387045,-0.225776,0.024468,-0.016292,0.060232,0.018208,0.060591,-0.277436,0.203273,0.281468,0.17456,-0.264509,-0.028933,0.228202,0.007217,-0.520569,0.230719,0.068339,0.474433,-0.13263,-0.485679,-0.035166,0.085051,-0.122399,0.263555,-0.105549,-0.104288,-0.093219,-0.004634,-0.321979,0.059756,0.397649],[0.207685,-0.127281,-0.058207,-0.016485,-0.233847,-0.060914,0.208519,0.095439,-0.038328,-0.253339,-0.360029,-0.182195,0.018979,-0.194607,0.023649,-0.127063,-0.007662,-0.429151,0.096205,-0.083322,0.142805,0.133173,0.032049,-0.193379,-0.018712,-0.068675,-0.015381,-0.079302,0.133013,0.012523,0.130688,-0.125217,-0.134276,0.065256,-0.311281,0.016631,0.005768,0.006985,-0.037544,0.0015,0.0464,0.033979,0.022849,0.091789,0.044794,-0.147515,0.01234,-0.248863,0.157359,0.141222,-0.217492,-0.151162,-0.09694,-0.089485,0.066228,0.078034,-0.210948,-0.134402,-0.376292,0.070128,-0.159428,-0.624015,-0.137851,0.133077]],"biases":[0.078993,-0.098525,-0.032377,-0.146118,-0.197825,0.050949,0.169916,0.034711,0.044208,-0.155625,-0.174174,0.008824,0.066823,0.03691,-0.151384,-0.029494,0.027279,-0.190725,-0.148622,-0.108382,-0.043849,0.001251,-0.041024,0.036168,0.054862,0.017534,-0.094279,0.111306,0.113103,0.050069,-0.020512,-0.000247,-0.041095,-0.11038,0.034713,-0.026526,-0.017555,0.186686,-0.093001,0.144542,-0.000148,0.15312,0.119331,-0.035897,0.019283,0.1023,-0.131184,-0.061762,0.087023,0.07161,-0.04912,0.091392,-0.002086,-0.12466,-0.023785,0.119818,-0.002224,-0.097121,0.119239,-0.116948,0.043215,-0.014577,0.027859,-0.087266]},{"weights":[[-0.251783,-0.318925,-0.386838,-0.389621],[-0.084666,0.01025,-0.122942,-0.007247],[0.113412,0.051993,0.00896,-0.082905],[0.099472,0.043114,0.053727,-0.088535],[0.667463,0.41062,0.734991,0.621767],[0.008912,-0.251102,-0.009763,0.018988],[0.22161,0.054683,-0.308067,0.078804],[0.215177,0.304379,0.235838,0.119769],[0.310497,0.04045,0.077508,-0.025701],[1.044684,1.113452,1.105385,0.933548],[0.536843,0.410869,0.734732,0.160639],[-0.218217,-0.407741,-0.345379,-0.511093],[-0.035804,-0.152258,-0.029616,-0.60007],[-0.270566,-0.086046,-0.213487,0.09375],[-0.055335,0.071175,0.086409,-0.02645],[-0.164441,-0.266923,-0.081805,-0.186392],[-0.40761,-0.416624,-0.24474,0.053242],[0.578869,0.402948,0.780811,0.741112],[-0.000467,-0.121657,0.045977,0.077654],[0.048799,0.004572,-0.045564,0.070535],[0.494824,-0.007319,0.390787,0.029029],[0.273804,0.314766,0.269149,0.219923],[-0.102385,-0.149521,-0.396569,-0.274715],[0.060173,0.238893,0.257688,0.24616],[-0.1298,0.053926,-0.132595,0.119923],[0.076861,0.088156,0.165944,0.239856],[-0.295269,-0.418804,-0.3788,-0.361784],[0.106767,-0.108272,0.187125,0.201209],[0.119814,-0.137997,-0.074322,0.248892],[0.033668,0.075324,0.110594,0.092215],[0.365628,0.393422,0.47799,0.393061],[0.30346,0.241432,0.174642,0.450668],[0.0924,0.649044,0.621446,0.252767],[0.121558,-0.23165,-0.535319,-0.059335],[-0.317463,-0.371285,-0.260487,-0.170437],[-0.034678,-0.043739,0.083343,-0.025082],[0.080611,-0.030149,0.074014,0.035117],[0.20447,-0.102517,0.167552,0.165648],[0.042915,0.063409,-0.045314,0.124506],[-0.171996,-0.259424,-0.179681,-0.175601],[0.128619,0.264758,0.213385,0.056666],[0.159782,0.07451,0.167744,0.216147],[-0.421687,-0.157929,-0.335923,-0.200798],[-0.189125,-0.256274,-0.20179,-0.229834],[-0.362679,0.025759,-0.489603,-0.023939],[0.174275,0.1832,0.361103,0.212268],[-0.048558,0.034286,0.043025,0.086992],[-0.387833,-0.351975,-0.204284,-0.063136],[0.233165,0.351921,0.239094,0.182838],[-0.075245,0.022714,-0.277822,-0.014668],[0.578341,0.689021,0.454654,0.66049],[0.208093,-0.339778,-0.164218,0.212919],[-0.364592,-0.197016,-0.295924,-0.118515],[0.11027,0.010893,-0.025403,-0.004565],[-0.050119,0.044989,0.003883,0.086815],[-0.098601,-0.267661,-0.179863,-0.202224],[0.05857,0.283277,0.182855,0.100213],[-0.478764,-0.473316,-0.372994,-0.422453],[-0.197295,-0.275623,-0.040495,-0.345493],[0.037836,0.072355,0.004982,0.001588],[-0.286491,-0.092617,-0.268885,-0.289725],[-0.84795,-0.68149,-0.958683,-0.624244],[-0.330644,-0.088388,-0.230358,-0.32918],[0.215271,0.630982,0.241186,0.12847]],"biases":[0.116482,-0.202184,0.100936,-0.101044]}]},"round":190,"phase":81,"phaseIteration":1,"trained":"enemies","generation":90,"dominanceMetric":"enemyWinRate","dominanceThreshold":0.6,"dominanceReached":true,"pilotWinRate":0.0,"enemyWinRate":1.0,"averageScore":550.0,"averageWave":1.0,"averageSteps":84.0,"enemyDropRate":0.0119,"invalidDropRate":0.0,"enemyFireRate":0.0,"pilotFireRate":0.2143}
