{"id":5,"label":"Enemies v5","role":"enemies","model":"sb3-dqn-enemies-v5","actions":["drift_left","drift_left_fire","drop","drift_right","drift_right_fire","fire","dive","loop","scatter"],"features":["target_dx","abs_target_dx","threat_dx","threat_y","bullet_ready","alien_count","wave","drop_ready","enemy_shot_ready","fleet_y","lives"],"network":{"activation":"relu","layers":[{"weights":[[0.081374,-0.175967,-0.084657,-0.074671,0.202912,0.245608,-0.097776,-0.12634,-0.251075,-0.200027,-0.258204,0.154167,-0.317325,-0.379854,-0.172923,-0.207023,0.197017,-0.005872,-0.086485,0.155737,0.304201,-0.270095,0.089906,0.106668,-0.185343,0.131473,0.116209,-0.189284,0.072317,-0.329472,0.238482,-0.244311,-0.335146,0.248761,-0.054814,0.083774,-0.022665,0.053305,0.100574,-0.282777,-0.160031,-0.268002,-0.228266,-0.291984,-0.040121,0.275837,0.083334,0.057351,0.047348,-0.281996,-0.105039,0.235482,-0.014951,0.108531,-0.107339,0.024428,-0.061569,0.15189,0.158751,-0.198104,-0.299494,0.135219,-0.26272,0.134],[-0.301551,0.059848,-0.143128,0.082182,-0.151781,-0.214065,-0.341738,-0.05275,-0.201311,-0.23301,0.223602,-0.128079,0.268503,0.081852,-0.086849,0.232937,-0.188788,-0.113907,-0.101757,0.295905,0.166778,0.228612,0.054641,-0.002848,0.193125,0.248334,0.280049,-0.230694,0.162055,-0.007199,-0.241314,-0.348781,0.161435,-0.134459,-0.021246,0.156743,0.098499,-0.235035,0.305031,-0.192998,-0.263987,-0.113192,-0.119578,-0.255682,0.283051,0.150886,0.281345,-0.194639,0.164714,-0.040824,0.161084,0.179751,0.178848,-0.274991,-0.257613,-0.3487,0.084155,0.017457,-0.199224,0.276162,0.021603,-0.281801,-0.144988,-0.195345],[0.053495,0.061526,0.095337,-0.143997,0.047043,-0.123887,0.097415,0.011389,0.21308,0.206269,-0.235645,0.154861,-0.058892,0.168944,-0.05462,0.032672,-0.041319,-0.001495,0.182232,0.256336,0.104891,-0.170278,0.152803,0.164694,0.151534,0.246782,-0.078822,0.298264,0.221115,0.224255,-0.189441,0.098905,-0.289629,-0.109481,-0.219887,0.02767,-0.199718,0.256342,-0.110133,-0.277297,0.031404,-0.273462,-0.020637,-0.014582,-0.087346,0.058888,-0.250609,0.17817,0.136573,0.125223,0.2577,0.040223,-0.276931,-0.237325,0.180002,-0.164934,0.281555,-0.28156,-0.146198,-0.026668,-0.033911,0.106203,0.303515,-0.185177],[-0.089802,0.162018,0.237349,0.297865,0.295889,0.161551,-0.294284,-0.278833,-0.198277,-0.184412,-0.121378,-0.207505,0.160131,-0.127359,-0.187946,0.165562,0.180091,0.25068,-0.110938,0.098209,-0.222038,-0.098158,-0.233114,0.028036,-0.163093,0.074488,-0.0797,0.050382,0.239701,-0.278216,0.055206,-0.064115,-0.125524,-0.192346,0.281333,0.035947,-0.135859,0.06968,0.050923,0.090312,0.275821,0.184278,0.005056,-0.215932,-0.237834,-0.088614,-0.203261,0.042333,0.00906,0.295052,-0.215846,-0.014072,0.25347,0.291812,-0.034829,0.191166,-0.299399,0.230154,0.000433,0.1867,0.1753,-0.103984,-0.231871,-0.026871],[0.106204,-0.228897,0.058145,-0.227283,-0.106643,0.093269,0.085186,0.116165,0.052946,0.106934,-0.003512,0.252518,-0.031831,-0.069201,-0.274058,0.141989,-0.184295,0.027362,-0.256904,-0.242807,-0.236715,-0.196468,-0.207849,0.278276,-0.318488,-0.067533,-0.080047,-0.193105,0.097996,-0.26076,-0.223529,0.217945,0.132733,0.076325,0.157368,0.112987,-0.158508,0.143438,0.076149,0.123758,-0.082598,0.026546,0.162022,0.255439,-0.162106,0.233979,0.106189,-0.267502,-0.183442,-0.097423,-0.261454,-0.301316,0.124489,0.016673,-0.289148,-0.121262,0.205492,-0.069107,-0.201305,0.211929,-0.03844,-0.030873,0.222221,-0.162761],[-0.25015,-0.093476,0.163152,0.011685,-0.000128,-0.219893,0.003911,-0.123088,0.252413,0.104031,-0.113485,0.308295,0.11513,-0.074166,-0.278689,0.326274,-0.25637,-0.2083,-0.257952,0.148611,0.290753,-0.243357,0.085114,0.197717,-0.069277,-0.14524,0.124331,-0.213256,0.074519,0.059138,-0.050819,0.21253,0.270773,-0.300862,-0.240062,0.243175,-0.086596,0.210074,0.118838,-0.167241,-0.005393,0.258153,0.206666,0.247609,0.151161,-0.148698,-0.261102,0.039883,0.191024,0.031378,0.020588,0.075601,0.139507,0.187521,0.335344,-0.172259,0.168966,-0.107639,0.041023,-0.053513,0.094206,-0.323262,-0.157598,0.003186],[0.304079,-0.016031,-0.0697,-0.178676,-0.063461,0.27513,-0.184673,-0.088689,-0.194876,0.046664,-0.083205,-0.055336,-0.051636,0.325408,0.243341,0.043472,0.11884,0.120312,-0.175871,0.170724,-0.205081,-0.135631,-0.03188,-0.280623,-0.212302,0.066362,0.035126,0.098446,0.057458,0.140379,0.215526,0.228774,-0.026107,-0.161757,-0.114405,0.107868,-0.197157,-0.251541,0.106564,0.099544,-0.264949,0.297273,-0.059505,0.243316,-0.139955,0.090908,-0.117901,-0.299639,0.310597,-0.272286,-0.26347,-0.063034,-0.262664,-0.293492,-0.020446,-0.186241,-0.203475,0.203049,0.245626,0.300173,0.125715,-0.113848,-0.213664,-0.117454],[-0.272497,-0.297093,-0.008452,0.163827,-0.03324,0.278436,-0.20036,0.095019,0.193894,-0.216069,-0.011022,-0.157698,-0.178868,0.125286,-0.118882,0.136018,-0.210559,0.146396,-0.001172,0.186146,0.24821,-0.094763,0.231277,-0.149196,-0.355422,0.36284,0.079706,0.212678,0.026967,0.26942,-0.144352,0.000112,0.143936,-0.223733,0.124004,-0.089593,-0.292806,-0.064918,0.006323,-0.165043,0.187322,-0.278364,0.045422,-0.065663,-0.212258,-0.10823,-0.234643,-0.041493,0.173092,-0.00332,0.18953,0.099824,-0.007188,0.200181,-0.116666,0.168458,0.247263,-0.027793,-0.174031,0.194787,0.278157,0.247152,0.024433,0.259722],[0.149086,0.191232,0.297051,0.034444,-0.066024,0.216443,-0.123912,0.234693,0.173897,-0.084209,-0.101614,-0.068939,0.048286,0.316561,0.071591,-0.016983,0.048615,-0.257635,-0.305106,-0.089258,-0.156943,-0.198176,0.065566,-0.160289,0.0144,0.00583,0.265975,0.236216,0.079769,-0.142608,-0.211716,0.020948,-0.144352,0.135826,-0.230092,-0.152095,-0.232086,-0.189463,0.142679,-0.106404,-0.282619,0.273259,0.137923,0.220175,-0.289016,-0.29603,-0.285751,-0.012422,-0.002302,-0.010366,0.097606,-0.003315,-0.087573,0.131523,0.281978,-0.069012,0.002754,0.217815,-0.288734,0.014814,0.028761,-0.007029,0.099758,-0.162365],[0.135939,-0.142864,0.302683,-0.225259,0.269531,0.195198,0.259974,-0.259305,-0.19961,0.214043,0.039975,0.052724,-0.218485,0.314645,0.025332,0.027329,-0.114576,-0.214812,-0.280156,-0.168168,-0.151742,-0.274043,0.144582,-0.071995,0.20215,0.212633,-0.178913,0.080737,0.220826,-0.143302,0.062096,0.119216,0.097219,-0.249455,0.019318,-0.024846,0.100452,0.241688,0.068166,-0.068754,0.260435,-0.001347,0.18323,0.038745,0.068101,-0.212418,0.054474,-0.261746,0.060438,-0.106876,0.13247,0.134487,-0.211506,0.078044,-0.045697,-0.126922,0.126851,-0.043334,-0.003904,-0.01116,-0.239357,-0.094742,0.154377,-0.034221],[-0.047759,-0.067193,-0.132718,-0.218077,-0.23516,-0.290503,0.202729,-0.280273,0.040022,0.206266,0.126037,0.252898,-0.043593,0.135827,0.073975,0.321135,0.230887,-0.17158,0.132712,-0.018232,-0.134173,0.096197,-0.073414,0.167661,0.025604,-0.171428,0.204501,0.152077,0.17734,-0.110266,0.219981,0.284,0.132083,-0.234155,0.129973,0.149205,-0.053896,-0.05271,0.194555,0.107297,0.15901,-0.21875,-0.267231,0.153666,-0.181714,0.027066,0.248101,0.211698,-0.067736,0.185981,-0.03031,0.054529,0.029426,-0.062686,0.047379,0.200189,-0.090095,0.281389,0.169581,0.117728,0.014128,0.014759,0.163611,-0.276909]],"biases":[0.092138,0.165733,-0.177732,-0.087369,0.078896,-0.315339,0.095239,-0.053431,0.167839,0.177156,-0.139692,-0.07533,0.12274,0.328269,-0.179304,0.327546,0.107859,0.249082,0.203237,0.122796,0.278944,-0.075026,0.106656,-0.070323,0.103285,-0.026624,0.053386,-0.104181,-0.253209,0.113878,0.12508,0.184904,0.280025,0.132504,-0.054641,0.043653,0.128804,0.218808,0.019577,0.197742,0.292992,-0.102046,-0.137017,0.181808,0.019587,-0.199185,-0.214735,0.004688,0.281411,0.128811,-0.139631,0.242587,0.067784,0.027082,0.169011,0.277678,0.114585,0.070173,-0.234157,-0.054141,0.18407,-0.228917,-0.250416,0.187617]},{"weights":[[0.018998,-0.086985,-0.084689,-0.037912,-0.139492,-0.023915,0.147301,0.079335,0.02216,-0.035955,0.101054,-0.099949,-0.076711,0.152054,0.104434,-0.094583,0.080396,-0.036059,0.101725,-0.040754,0.035695,0.027015,0.096346,-0.041053,0.057336,-0.118695,0.157602,-0.010716,-0.011956,-0.012224,0.060755,-0.010799,-0.168378,-0.035305,0.105556,0.047337,-0.051135,-0.10163,0.033521,-0.121413,-0.038157,-0.132309,-0.081187,0.062507,0.092535,-0.021887,0.031325,-0.076375,0.004319,-0.061512,-0.005993,-0.000919,0.115447,0.004019,-0.0924,0.000455,-0.089215,0.015124,-0.035418,-0.10313,-0.06297,0.078057,-0.007352,-0.088936],[0.111895,0.112532,-0.071133,0.112448,-0.152347,0.132755,-0.045976,0.047501,0.048592,-0.117204,-0.116741,0.081595,-0.023641,0.114919,0.123988,-0.105175,0.027877,-0.005952,-0.071785,0.070794,-0.098197,0.059721,0.04298,-0.112737,-0.017414,0.073251,-0.058438,-0.003653,0.15208,0.062102,0.056374,-0.02881,-0.178421,0.115247,0.141484,-0.002801,0.077303,0.107678,0.094673,-0.045692,-0.138662,-0.036295,0.111922,0.024982,0.087488,0.049921,-0.109044,-0.121849,-0.0444,-0.001405,-0.12216,-0.093026,0.143227,-0.01508,0.025541,0.107482,-0.076014,-0.106929,-0.056635,0.044697,-0.081174,0.075123,-0.027442,-0.037554],[0.034833,-0.053594,-0.057996,0.109338,0.003811,-0.038818,0.014064,-0.08187,0.140191,0.099674,0.000771,-0.099283,0.088212,0.147913,-0.098154,0.067807,0.027205,-0.067732,0.054438,-0.034957,-0.04377,-0.060743,0.059335,-0.079175,0.095948,0.058665,0.055571,-0.068134,0.100187,-0.126331,0.061523,-0.111709,-0.025589,0.066609,-0.021035,0.084511,0.009171,0.079207,0.047913,-0.109113,-0.008226,0.024683,-0.006127,0.12099,-0.031399,0.065458,-0.030194,-0.029419,-0.010939,-0.014338,0.075237,0.033439,-0.082955,-0.033919,0.097775,-0.06026,-0.051141,-0.030184,-0.093448,0.012663,-0.11244,0.122899,0.040412,0.059829],[-0.079745,0.110741,-0.123374,-0.044965,0.060892,0.122987,0.051808,-0.094725,-0.068752,0.107625,0.03552,-0.027551,0.083408,0.096778,-0.089798,-0.086297,0.086026,-0.014388,0.007917,0.087804,0.101294,-0.10693,0.062719,0.041874,0.033209,-0.009733,-0.00564,-0.042712,-0.052172,-0.037745,-0.016316,0.101983,-0.029365,0.058792,0.040874,0.084405,-0.003157,-0.037582,0.006766,0.056752,0.015653,0.04449,-0.064419,-0.07502,-0.09173,0.060446,-0.111009,-0.042824,-0.088167,-0.114055,-0.036845,0.061099,0.016245,0.123915,0.111166,0.014537,-0.080726,0.069659,0.003319,-0.10776,0.11916,-0.013069,-0.101245,-0.083047],[0.120173,0.029053,0.011458,-0.107606,0.107869,-0.112378,-0.120502,-0.061084,-0.108875,-0.021477,0.114677,-0.073365,-0.071542,-0.045957,0.092454,-0.039921,0.031549,0.051847,0.048913,-0.095823,0.006151,0.123505,-0.003093,0.041257,0.025185,0.042793,-0.02402,0.104438,-0.069872,0.076604,-0.095324,0.116061,-0.024132,0.012879,0.004775,0.013569,0.122036,-0.105622,-0.044443,-0.119823,0.083684,0.063526,-0.124158,0.07121,0.080479,-0.003207,-0.097392,-0.001201,0.086771,0.107673,-0.031349,-0.092225,0.005887,-0.048657,-0.076687,-0.092015,0.106593,0.108385,-0.002148,-0.089143,-0.069142,0.108064,0.063522,-0.063078],[0.060425,-0.02868,0.123789,0.110171,-0.079528,0.065729,-0.000807,0.099734,-0.026531,0.027579,-0.009143,0.066872,0.11441,-0.02125,-0.116376,-0.012612,-0.084381,0.119996,0.011003,0.025715,-0.050597,0.113845,0.081734,-0.046366,0.066077,0.122692,0.033753,-0.013082,-0.050748,0.114907,0.076572,-0.061814,0.097639,0.103998,0.064217,0.081093,0.008987,0.013665,-0.014986,0.087629,0.005214,-0.073265,0.002461,-0.122663,0.045346,0.016048,0.022382,0.090051,0.044047,0.092153,-0.040704,0.041942,-0.034368,-0.055374,0.006488,0.049785,0.031141,0.061218,0.075481,-0.068268,0.051874,-0.003899,-0.059057,0.093932],[0.08386,0.07804,-0.00776,-0.005851,-0.01567,0.126146,0.003184,-0.076709,0.0653,0.078442,0.006506,-0.087569,-0.073268,0.043408,-0.004916,-0.069133,0.028765,-0.001525,0.085923,-0.061437,0.02898,-0.00971,0.160661,0.053632,-0.030545,-0.10886,0.148225,0.109899,0.149551,-0.090534,0.031686,-0.028176,0.048344,0.004959,0.051289,0.085114,-0.093431,0.062833,-0.04953,0.02184,0.014563,-0.017883,0.034567,-0.084697,-0.031574,-0.065477,0.011234,0.017421,-0.049524,0.087176,0.015228,0.103979,-0.094824,0.109735,0.096564,0.068101,-0.084926,0.024213,0.097553,0.047573,0.063944,0.029015,-0.014235,-0.113892],[0.099708,0.073687,0.124175,0.102263,-0.091829,-0.092721,-0.090563,-0.024284,0.011643,-0.100036,-0.05967,0.117515,-0.035612,0.005633,0.017596,0.053296,-0.002705,-0.000458,-0.026779,-0.099753,0.027779,-0.087395,0.044263,-0.02823,0.105068,-0.085473,0.02037,0.108401,0.117836,-0.056757,0.045071,-0.093761,0.107115,-0.046375,0.067439,-0.081167,-0.0668,-0.059792,-0.086561,0.109161,0.104473,0.08054,0.036749,-0.049206,0.027048,-0.070362,0.095679,0.112852,0.111001,0.096062,0.018737,-0.124358,0.070259,0.034973,0.099981,-0.07765,-0.14701,-0.035449,0.024399,-0.06465,-0.087379,0.087391,0.043224,-0.085871],[0.002788,-0.09372,0.08822,-0.072025,0.141718,0.049981,-0.085265,0.120039,0.104811,-0.083678,0.083399,-0.099513,0.001855,0.129013,-0.115725,-0.067898,0.068005,-0.119122,-0.01801,-0.079624,-0.121683,0.075466,0.105154,-0.002725,-0.077998,-0.00058,-0.03821,0.021379,-0.024319,0.01226,0.044758,0.052006,0.096478,-0.026151,0.061307,-0.020044,0.036339,-0.013032,-0.044522,-0.068848,0.116547,0.021518,-0.022381,0.017957,0.077886,-0.04552,-0.101373,0.096093,0.016026,-0.05617,0.03443,-0.05113,0.079527,0.081177,-0.070341,0.087794,0.119805,0.129925,-0.056372,0.07198,-0.007613,0.02616,-0.048762,0.110656],[-0.011226,0.101828,-0.045932,-0.047893,0.014438,0.070533,0.049018,-0.111996,0.090773,-0.010304,0.010307,0.065036,0.079111,-0.041547,0.124672,0.036536,0.007468,-0.060353,0.046591,0.034942,0.018231,0.009593,-0.01373,-0.030167,0.029865,-0.051431,0.058193,-0.065995,0.107064,-0.078522,-0.047587,-0.063773,0.08391,0.109127,0.073978,-0.089871,-0.021895,0.002401,0.019535,0.052513,-0.041573,-0.115591,-0.077578,-0.002746,0.040476,0.011473,-0.012196,-0.080307,0.070485,0.030752,0.046317,-0.100143,0.009827,0.04473,0.056586,-0.068726,0.09633,0.072567,-0.088245,0.091698,0.022222,-0.067517,0.067422,0.00758],[-0.07028,0.052599,-0.03396,-0.124508,-0.031467,-0.105404,-0.039773,0.039569,-0.045735,-0.118071,-0.052926,0.083485,0.024253,-0.028576,-0.040294,0.092326,-0.042667,-0.121675,0.042857,0.059926,0.036209,0.026236,0.022684,-0.06666,0.010351,-0.113257,-0.078569,0.011859,0.097149,0.101726,0.002494,0.114623,-0.082506,-0.066673,0.105267,-0.023172,-0.12345,-0.118037,0.049209,-0.120427,0.014974,0.023104,0.119116,-0.080274,-0.103777,-0.080393,0.09572,0.080887,0.07324,-0.041176,-0.09382,-0.072955,-0.048861,-0.00319,-0.021872,-0.045037,0.101998,-0.022032,-0.065956,0.007328,-0.110747,0.050333,-0.034451,0.104729],[-0.010265,-0.066742,0.005914,0.043105,-0.063858,-0.004097,-0.064866,-0.107139,-0.074303,0.042258,-0.044758,0.080101,0.030043,-0.039808,0.042862,0.014628,0.130693,0.023095,-0.100907,0.063341,-0.028885,-0.089158,0.081421,0.128536,-0.012903,-0.011825,0.136942,0.001755,0.147364,-0.008744,-0.097264,0.00128,-0.087058,0.093402,0.025361,0.026742,-0.124163,-0.022825,-0.113477,-0.061052,-0.075559,0.09611,0.070121,-0.037877,0.08502,-0.106889,-0.091812,-0.113013,-0.097683,0.131551,0.099122,-0.066606,0.126033,0.064438,0.042706,0.051747,-0.074018,0.121945,0.052685,0.101032,-0.026853,0.105313,-0.013879,-0.022088],[-0.058986,-0.100952,-0.119785,-0.08333,0.095994,0.054869,-0.05077,-0.112296,-0.096185,-0.048785,-0.023142,-0.111157,0.08655,-0.050087,-0.040462,-0.070891,-0.032107,-0.042414,-0.118274,0.119258,-0.008408,-0.04612,0.062879,0.120872,0.161536,-0.021372,-0.004286,-0.00029,0.049856,0.024723,0.081089,-0.028413,0.050678,0.025514,0.12254,0.011079,-0.075379,-0.025844,-0.08688,0.092255,0.05266,0.019547,-0.006832,-0.092165,-0.093936,0.038468,0.053326,-0.124328,0.08469,-0.036324,-0.0758,-0.092212,0.067502,-0.018687,0.00223,-0.130387,0.142237,-0.029556,0.109323,-0.071071,-0.063441,0.018156,-0.102348,-0.098475],[-0.013869,-0.051122,0.03303,-0.033948,-0.050348,0.123071,-0.012562,0.064912,0.066462,0.118324,0.022839,-0.044241,-0.027153,0.14017,-0.031024,0.072551,0.038403,0.081483,-0.010943,0.048734,0.006496,-0.090241,-0.027333,0.106713,0.044214,0.069478,0.130989,0.131544,-0.051274,-0.046908,0.015224,-0.046647,-0.035059,0.113118,-0.078197,-0.091849,-0.11597,-0.055637,-0.070323,0.086291,-0.097572,-0.041122,0.076455,0.003499,0.03813,-0.03859,0.004871,0.009377,-0.013671,-0.039701,0.095964,-0.122183,0.106056,-0.09903,0.082228,0.063739,-0.044604,-0.008853,-0.090395,0.055728,0.123819,-0.032637,-0.058183,-0.027969],[-0.071123,0.074941,0.051843,-0.087577,-0.019853,0.032546,0.102577,-0.004998,0.110268,-0.034736,0.080789,-0.114929,-0.117539,-0.054335,0.091914,-0.01172,0.054219,-0.115989,-0.028569,0.07827,-0.076462,0.008383,-0.028718,0.018723,-0.009618,-0.09429,-0.013253,0.031769,-0.074775,0.056327,-0.076589,-0.019721,0.041312,-0.044249,0.092636,0.121511,0.100863,0.002839,-0.02986,-0.101988,0.044989,-0.060979,-0.016667,-0.035551,-0.088989,-0.099233,-0.087233,-0.093555,-0.002558,0.090609,0.113513,-0.118445,-0.106077,0.080889,-0.095065,0.082581,0.123419,0.10655,0.107622,-0.110812,0.036278,-0.104077,-0.0104,-0.028063],[0.123199,0.122175,-0.100874,-0.123588,0.065183,0.057621,-0.015629,0.141906,-0.062025,-0.085707,-0.059754,-0.084767,0.024963,0.068503,0.116189,0.02251,0.052172,-0.0887,-0.097905,-0.002257,-0.011959,-0.022109,0.088043,0.102695,0.052164,-0.109241,-0.025511,0.106921,-0.065621,0.019113,-0.040864,-0.001021,-0.015493,0.105788,-0.064007,-0.072155,-0.119721,0.135462,-0.043612,0.056829,-0.009184,-0.014903,0.147366,0.021216,-0.100636,0.106924,0.027342,0.054335,-0.121587,-0.066057,-0.143991,-0.124562,0.101068,-0.056783,-0.037511,-0.017612,0.083594,0.015489,-0.01495,0.003254,0.021984,0.075628,-0.027602,0.069337],[0.107928,0.077843,-0.047297,-0.054293,-0.103755,-0.037098,0.0548,0.059093,-0.082951,0.080374,-0.081122,-0.069594,-0.114024,0.020812,-0.030503,0.106528,0.084522,0.090883,-0.104353,0.123367,0.121606,0.079641,0.034604,-0.117854,0.1258,0.008892,0.010672,-0.02892,-0.006758,-0.111007,-0.090258,-0.014718,-0.180106,0.10678,-0.028152,0.112877,-0.124318,-0.082575,-0.098981,-0.018208,-0.004711,0.063149,0.095464,-0.067395,-0.083196,-0.120738,0.023755,-0.068012,0.030765,0.127881,0.012561,0.037428,0.15184,-0.065165,0.09255,-0.140074,0.061976,0.101118,-0.104508,0.007962,-0.114843,0.126635,-0.051265,0.076927],[0.036553,0.035011,0.057952,-0.122751,0.028296,0.039773,0.077226,0.095065,0.073253,0.032,0.105372,-0.014982,0.04606,0.111037,0.004951,0.094907,0.022817,-0.083164,0.078743,0.110511,0.123733,0.056615,-0.130797,-0.019248,0.065304,0.044215,-0.103348,0.013489,0.004847,-0.053309,-0.034158,-0.025512,-0.066355,-0.017548,0.104278,0.005513,-0.055468,0.003702,0.068935,0.038856,0.030863,-0.033286,-0.014858,-0.097383,0.032645,-0.002068,0.065745,0.107739,0.057292,0.032206,0.046758,0.074017,0.127725,-0.070914,0.086153,-0.035802,0.040786,0.081172,-0.001195,-0.073975,0.033353,0.103062,0.079789,-0.109258],[0.114747,0.120774,-0.042907,-0.072365,0.126887,0.106501,0.068897,-0.037394,0.080947,0.002742,-0.071892,-0.037619,0.120098,-0.079382,-0.076197,-0.126021,-0.102983,-0.016726,-0.082177,0.087673,-0.047351,-0.022392,0.096922,-0.096495,-0.029226,0.097981,-0.084405,-0.088752,0.087098,0.042188,0.025479,0.117312,-0.036449,-0.009038,0.125163,0.044366,-0.06698,-0.041146,0.022147,0.039534,0.074804,-0.06899,-0.109338,-0.025794,0.058938,-0.070678,0.122515,0.022616,-0.068717,0.072002,0.0546,0.08474,-0.002498,-0.07444,0.028699,-0.024117,0.064513,0.000384,0.061112,0.041606,0.050902,0.092523,-0.045118,-0.088013],[-0.114752,0.119455,0.073589,-0.03965,0.139676,-0.057423,0.01382,0.171513,0.106046,-0.086727,-0.049281,-0.07633,0.090747,-0.108819,0.052968,0.101927,-0.06525,0.082616,0.071511,0.084748,-0.063763,0.015963,0.086148,0.034904,0.044836,0.060377,0.000267,0.119428,0.082409,-0.030979,0.049609,-0.003093,0.086319,0.045132,-0.099936,0.045704,-0.090957,0.098079,0.104455,-0.035531,-0.125829,-0.144192,0.019181,0.098723,0.106656,0.017047,-0.114036,-0.077766,0.08646,0.000664,0.00385,-0.00911,-0.073668,-0.057775,0.05288,0.071552,0.114358,0.048345,0.074019,0.075043,-0.135121,0.012534,0.016116,-0.115707],[-0.030542,0.035809,-0.080474,-0.092852,0.107648,0.041229,0.015932,0.167661,0.058061,-0.117839,0.075689,0.086322,0.08197,0.121714,0.010142,-0.130457,-0.074149,-0.014307,-0.019081,-0.084956,-0.087036,-0.063662,-0.066474,0.046605,-0.033862,-0.01336,0.064908,-0.024787,0.053981,-0.098006,0.12895,0.020258,-0.054872,0.049274,0.001697,0.065711,0.006057,0.078638,-0.035824,0.083935,-0.052216,0.037582,-0.078326,0.023816,-0.076282,0.061006,0.036621,0.045202,-0.042637,-0.054517,0.068652,0.018356,-0.046083,-0.070446,0.04153,-0.101717,0.01781,-0.069817,-0.112514,0.009431,0.079319,-0.13281,-0.040366,-0.061716],[0.041053,-0.049435,-0.052412,-0.02193,0.099301,0.059237,0.0106,0.094318,-0.0191,-0.103153,-0.072187,0.002051,-0.119421,0.020991,0.112725,0.022435,0.00802,-0.060148,-0.010172,-0.025587,0.013587,-0.019313,0.008699,0.008612,0.123699,0.048724,-0.066303,-0.084448,0.020709,-0.00186,0.008182,-0.007759,0.085083,0.069678,-0.05844,-0.110587,-0.048725,0.041859,0.062589,-0.044119,0.08548,-0.044436,0.077618,0.029126,0.041108,0.041598,0.038728,-0.100829,-0.005595,-0.074255,-0.007358,0.12235,-0.074734,-0.111339,-0.077115,-0.076477,0.098265,-0.120958,-0.096296,0.051876,0.096969,-0.041969,0.071002,-0.102295],[-0.107795,0.093328,-0.077016,-0.072677,0.13765,-0.045995,0.08118,-0.025732,0.025732,-0.012496,0.115591,0.028514,0.053495,-0.085857,0.034196,-0.057336,0.046353,0.058101,0.100312,0.092205,-0.039353,-0.07918,-0.052279,0.006146,0.091607,-0.038577,0.030082,-0.079342,0.026524,-0.034877,0.14357,-0.038504,0.108621,0.039886,0.059544,0.062885,-0.079037,0.036687,0.065292,0.038987,-0.098398,-0.026169,0.122935,0.115999,-0.017102,0.057695,0.050191,-0.092961,0.015506,-0.034069,-0.087612,-0.025731,0.014034,0.050753,-0.019048,-0.003509,-0.051777,-0.038106,0.001095,0.074714,0.041715,-0.045357,0.037184,-0.111169],[0.060174,-0.02444,0.074147,0.080207,0.092048,0.07992,0.139952,-0.032239,0.010617,-0.013653,0.106746,-0.105414,-0.100462,0.08092,0.002334,0.069644,0.042573,0.008733,-0.123091,0.013025,0.039896,-0.107979,-0.035203,-0.13156,0.135785,-0.028652,0.028653,-0.020785,-0.057212,-0.02941,-0.109181,0.042666,-0.033764,0.044175,0.053655,0.009948,0.029031,0.005959,0.12233,0.018777,0.024611,0.103255,0.052814,-0.083282,-0.05034,-0.019937,-0.0107,-0.0326,-0.094683,0.04069,0.086878,-0.123458,0.050909,-0.098914,-0.058804,-0.092725,-0.128881,0.063256,0.009912,0.123386,-0.011609,-0.051802,0.011878,-0.110375],[0.095628,0.11344,-0.063472,-0.016781,0.070207,0.090519,0.15245,-0.033145,0.042941,0.032331,0.058276,0.037668,-0.045995,0.036203,-0.123741,0.076994,0.086606,-0.008123,0.001415,-0.034617,-0.054579,-0.0761,0.081568,-0.056445,0.178684,-0.045518,0.016807,-0.064685,0.033802,-0.013987,-0.058977,0.047941,-0.097536,0.137708,-0.023176,-0.087025,0.067235,-0.023143,-0.068101,0.060781,0.099333,-0.000141,-0.085702,0.050144,0.080533,0.049638,0.08089,-0.07603,-0.103603,0.032505,0.085016,-0.043626,0.062228,-0.00026,0.02796,0.093189,-0.014072,0.074953,-0.016357,0.108195,-0.106793,0.104659,0.08794,0.023628],[0.071202,0.111585,0.055782,0.117028,0.121435,0.029973,-0.106078,0.113628,0.000518,-0.122645,-0.052846,-0.111282,-0.049277,-0.07789,-0.006386,0.06884,0.04703,0.039533,0.083149,-0.032544,-0.010832,0.066688,-0.094226,-0.069033,-0.143326,-0.006928,0.071992,0.035446,-0.116422,-0.087987,0.162784,-0.088755,-0.002687,-0.046947,-0.138054,-0.100852,0.090288,-0.013061,0.096062,0.035216,0.0039,0.034891,-0.061944,-0.027281,0.060503,-0.081998,-0.046236,-0.051752,0.032183,-0.140546,-0.082822,0.000201,-0.137905,0.109318,-0.005887,-0.062918,0.067708,0.12765,0.07188,-0.087642,-0.122623,0.028325,-0.07836,0.087287],[-0.089746,0.07376,-0.081487,-0.121442,0.027731,-0.03065,0.098318,0.031153,0.125328,-0.064889,0.033359,-0.095818,-0.115924,0.015666,-0.043454,-0.12164,-0.038203,-0.089794,0.013264,0.021204,-0.111356,0.027108,0.034918,0.093576,-0.018621,0.082904,-0.009233,0.11548,0.040703,0.030897,-0.02745,0.006839,-0.088478,0.144842,0.118438,0.037409,-0.102322,-0.008808,-0.055844,-0.103597,-0.001881,-0.096623,-0.095375,-0.088858,0.056431,0.106338,-0.121148,-0.055871,-0.071466,0.029833,-0.006079,0.102591,0.096169,0.055732,-0.08139,0.014596,0.058123,-0.027641,0.073781,-0.08744,-0.045674,-0.09692,-0.046951,-0.054432],[-0.010254,0.085054,-0.066801,-0.11885,-0.063574,-0.096486,0.121094,-0.016465,0.153727,1.8e-05,-0.031657,-0.003583,-0.01368,0.016837,-0.078423,0.072849,9.7e-05,-0.091243,0.089618,-0.089132,0.039177,-0.087171,0.077576,0.135474,0.016778,0.118534,0.106284,-0.042686,0.014519,-0.03797,0.040885,-0.100002,0.004014,0.041183,-0.006325,0.051458,-0.12063,0.034862,-0.12266,-0.133766,0.085954,-0.033213,-0.038391,0.120015,0.016791,0.13595,0.020476,0.032082,0.100451,0.098925,0.012153,-0.026,-0.009487,0.095792,0.01053,-0.000581,0.031676,0.080366,-0.095692,0.053283,-0.039234,0.088708,0.005531,0.078606],[0.104245,0.08088,-0.106587,0.124303,0.018171,0.024056,0.140112,-0.064277,0.074969,-0.016955,0.074605,-0.119883,-0.001341,0.021861,0.037398,0.046412,0.024533,0.123021,-0.083224,-0.056641,0.046059,-0.110358,-0.098473,-0.007177,0.091785,-0.099308,0.067995,0.033411,0.070729,-0.067352,0.153055,0.093608,-0.104743,-0.074185,0.039006,0.086911,-0.048823,0.067845,0.113671,-0.080289,0.093618,-0.098866,0.117503,-0.118692,-0.07414,0.088744,0.103195,0.051114,-0.086796,0.016723,-0.000847,0.077745,0.095124,-0.093163,0.023795,-0.085949,0.021236,-0.054141,0.083601,0.074364,0.010682,0.058381,0.078772,-0.133324],[-0.144924,0.03673,-0.032487,0.019234,0.162249,-0.026556,-0.10873,-0.054049,0.078627,-0.063282,0.059495,0.108215,0.000986,0.006879,-0.080006,0.101163,0.055714,-0.057013,0.004291,-0.067898,-0.015374,0.062695,-0.077212,0.000244,-0.06331,-0.016078,-0.017052,0.000293,-0.103295,-0.075636,-0.006664,-0.086636,0.11417,-0.073621,0.109688,-0.085809,-0.08138,0.099741,0.068749,-0.102791,-0.065238,-0.121944,0.144985,0.065887,0.042618,0.152521,0.020727,0.021567,-0.001152,0.034219,-0.00222,-0.049255,-0.110519,-0.107262,-0.050445,0.078703,0.171069,-0.054092,0.024372,0.082428,0.11579,-0.089744,-0.170632,0.023514],[0.115008,-0.007622,0.000306,0.093583,0.114226,-0.073719,-0.032653,-0.105417,0.101279,-0.067863,0.0802,0.009051,-0.070255,0.013882,-0.110402,-0.129853,0.126025,0.064943,-0.096155,-0.085963,-0.089621,0.018638,-0.03517,-0.006232,-0.047241,-0.083811,-0.079023,0.055082,-0.069798,-0.08169,-0.076243,-0.079848,0.034329,0.034627,0.100333,-0.038611,-0.105859,0.034849,0.013224,-0.048223,0.016726,-0.004329,-0.113518,0.055305,0.049252,-0.075601,-0.104993,-0.05957,-0.036577,0.015681,0.0675,-0.061826,0.102086,0.068063,-0.086517,0.028081,-0.047597,-0.124461,0.032381,0.072748,-0.061782,-0.114514,-0.096699,-0.064986],[0.041074,0.06853,-0.053188,0.044208,0.110694,-0.052757,-0.095363,-0.02134,-0.044605,-0.02541,0.111022,0.0094,-0.086047,0.093167,-0.102068,-0.031253,0.12063,0.093242,-0.004261,0.040908,0.003004,-0.054951,0.142764,-0.059964,0.095958,0.002651,0.043811,0.091578,0.015276,0.099917,0.090921,-0.091675,0.045896,0.155332,-0.017768,-0.089724,0.024456,0.131468,-0.046285,-0.073397,0.039978,0.056637,0.010727,0.092137,0.14013,-0.004768,0.060852,0.028424,-0.124352,-0.067084,0.026478,0.108733,-0.036056,0.093436,0.043842,-0.102386,0.108248,0.035756,-0.00286,0.005346,-0.070579,0.079847,-0.023941,0.03166],[0.101749,-0.023521,-0.026537,-0.083879,0.158345,-0.089245,-0.046569,-0.047464,0.065774,0.019703,-0.012837,0.039273,-0.092979,0.006764,-0.040754,-0.133232,0.089197,-0.033806,-0.12284,0.010436,0.085153,0.104939,0.080819,0.002155,0.054191,-0.078155,0.093263,0.020503,-0.115319,0.077213,-0.033907,0.116575,0.032971,-0.020516,0.01471,-0.090126,-0.090625,-0.079492,-0.116593,-0.083397,-0.071313,-0.035124,-0.017449,0.021834,0.040592,0.012245,0.090573,0.1028,0.014619,-0.044773,-0.102295,-0.076648,-0.102908,-0.114087,0.118211,0.050616,0.029856,0.141081,-0.130722,-0.057424,0.065757,-0.055906,-0.105407,-0.137713],[0.08035,-0.08139,-0.108686,-0.02412,0.084272,0.00632,-0.121456,-0.091042,-0.102813,0.065763,-0.104132,-0.019263,0.107077,-0.118836,0.116336,0.07317,0.090084,-0.058408,0.075459,-0.107592,-0.109787,-0.096907,0.088426,-0.033028,-0.040474,-0.0424,0.06586,-0.068613,0.090731,0.016969,0.001364,-0.082055,0.09049,-0.095097,0.112788,0.109705,-0.011435,0.071623,0.111229,0.053248,-0.063237,0.121896,-0.109996,-0.082957,-0.097555,0.022045,0.000156,0.089605,0.067902,0.021062,-0.075857,-0.06228,-0.043156,-0.006798,-0.118107,0.060631,-0.069739,-0.101601,0.020636,-0.034959,-0.09274,-0.076586,-0.053858,0.080829],[0.06143,0.099735,0.004772,0.105712,-0.019336,-0.021188,0.066358,-0.101248,-0.025061,0.021243,0.003995,0.105273,-0.000119,0.118499,0.012192,0.103751,-0.096099,-0.079462,-0.051206,0.102755,-0.038665,-0.05576,-0.0141,0.05374,-0.102965,-0.087925,0.100462,0.065098,0.090362,0.107213,-0.065176,-0.019281,-0.063741,0.027511,0.044417,-0.058969,-0.054316,0.060547,0.061243,0.08586,0.097497,-0.050536,-0.113343,0.103095,0.006791,-0.016538,0.029384,0.116033,-0.119572,0.077393,0.088753,0.099015,0.008614,0.032174,0.083955,-0.023578,-0.094271,0.123718,0.057898,0.089687,0.03941,0.070353,-0.042494,0.11618],[0.118573,0.143993,0.120844,-0.084185,-0.050275,0.15145,0.135245,0.03628,0.06594,-0.119088,-0.119884,0.070114,0.08738,-0.026735,0.043158,-0.059739,0.123055,0.01567,0.064812,0.115329,0.070894,-0.037343,-0.003777,-0.016638,-0.088429,0.037281,0.014843,-0.046605,0.044326,-0.07447,0.002862,-0.091146,0.090566,0.086647,0.108615,0.041691,0.059462,-0.092935,0.005066,-0.103765,-0.125955,0.018218,-0.032066,-0.026345,0.092335,-0.018752,-0.073951,0.009926,-0.110852,-0.032343,-0.142785,-0.098692,-0.017097,0.11014,-0.075038,-0.073699,-0.060504,0.137017,-0.097842,-0.089613,-0.066985,0.003452,0.025307,-0.030602],[-0.031567,-0.001521,-0.050554,0.072613,-0.009352,-0.032036,0.024237,0.081062,-0.048104,-0.11928,0.006736,0.120095,-0.088717,-0.038315,-0.030839,-0.064132,-0.081838,-0.091095,0.007082,-0.055548,-0.123719,-0.030548,-0.021606,-0.089136,-0.057355,-0.118767,-0.011683,0.078654,-0.025562,0.104027,0.037071,-0.030077,-0.099192,0.102848,0.054341,0.110943,-0.09022,-0.095075,-0.117056,0.076195,0.01944,0.01313,0.07416,-0.046518,0.060467,-0.034155,0.003472,0.058587,-0.064729,-0.11509,-0.104507,-0.075853,0.086156,-0.062497,0.040636,0.110352,-0.099441,0.093494,0.088351,-0.027508,-0.041666,0.066462,0.09917,-0.033295],[-0.099501,-0.068557,0.004363,-0.113109,0.116354,0.013058,0.006012,0.021418,-0.043938,0.112982,0.105555,0.07191,-0.119374,-0.005628,-0.007556,0.028692,-0.048609,-0.041573,-0.028108,0.023881,-0.004422,0.021428,0.13736,-0.086985,0.130075,0.040263,0.030979,-0.013389,0.09483,0.020305,-0.063753,-0.001828,-0.045831,0.156956,0.089653,0.100081,0.104197,0.003686,-0.059728,-0.066418,-0.091182,-0.05587,0.14743,-0.031933,0.068138,0.033105,0.115161,0.022968,0.05137,-0.04603,-0.020228,0.064323,-0.030572,-0.003736,-0.011496,0.054198,0.124176,-0.025683,0.051777,-0.046685,0.059492,-0.107117,0.069492,0.017682],[-0.11187,0.053365,-0.013341,0.045902,0.007456,-0.027173,-0.038744,0.134443,0.033546,-0.096156,0.084939,-0.047947,-0.084515,-0.067641,-0.000584,0.010698,0.062346,0.114143,0.088897,-0.084277,0.074353,0.102212,-0.038519,-0.09489,0.075588,0.052331,0.012363,0.062626,0.120568,-0.031941,-0.08398,0.0454,-0.097197,-0.088726,0.049558,-0.042333,0.057453,0.084996,0.073257,0.091224,-0.112047,0.001286,0.003798,-0.120712,-0.09288,-0.059318,-0.109081,0.071183,-0.002365,-0.061553,0.028664,0.019603,0.105383,0.023039,0.081018,0.114263,0.112917,0.061811,-0.012886,-0.124402,-0.068895,-0.005081,0.095916,-0.004991],[0.116273,-0.045356,0.109874,0.030022,-0.011465,-0.012537,-0.058966,0.1185,0.041004,0.048544,0.073198,-0.028893,0.057506,-0.113238,0.05032,0.124826,-0.070526,0.037121,0.061,-0.123118,0.120947,0.060821,-0.020875,-0.079278,0.094125,0.081284,-0.093048,-0.020744,-0.108576,0.021555,0.071677,0.019686,-0.001305,0.070118,-0.041773,-0.110093,-0.092831,-0.107472,-0.069911,0.07154,0.037167,-0.003768,0.104489,0.083533,-0.014304,0.11444,-0.037604,-0.011508,-0.029335,-0.000283,-0.124807,0.075384,0.079814,0.120209,0.03366,0.022173,-0.097355,-0.120584,-0.122771,0.037487,-0.082422,-0.068687,-0.065618,-0.002632],[0.092961,-0.037427,-0.093381,0.089776,0.086663,0.072679,-0.008979,0.118115,-0.081261,0.047893,-0.077468,0.02928,0.096369,0.103221,0.050962,0.063686,-0.005888,0.064866,-0.068678,-0.081466,-0.00542,0.05423,-0.076003,0.095529,0.088844,0.118572,-0.092414,0.143814,0.053237,-0.118072,0.050238,0.083833,0.08485,-0.08931,-0.092849,0.084271,0.04316,-0.036396,0.110381,-0.059858,-0.085983,0.078251,0.032701,0.116838,0.141469,0.089582,-0.039144,-0.046251,0.110815,-0.105765,-0.09636,-0.053812,-0.053166,-0.011837,-0.129461,-0.079142,0.100092,-0.105367,-0.134641,0.10919,0.121725,0.035227,-0.023522,-0.053714],[-0.010971,-0.008502,-0.091177,-0.120767,-0.070793,-0.040842,-0.107924,0.111211,-0.039562,0.052563,-0.121245,0.002135,-0.06181,0.073644,-0.081719,-0.011706,-0.07015,0.029214,0.004784,0.106129,0.062868,-0.083549,0.068847,0.037441,0.03248,0.012304,0.11018,0.027815,-0.018386,-0.068679,0.065012,0.101254,-0.033508,-0.014035,-0.02766,0.016879,0.08694,-0.029079,-0.109943,-0.096664,0.00367,-0.11506,-0.054151,-0.055522,-0.079429,-0.084423,0.047455,-0.07449,0.07406,0.122099,0.00516,0.018836,0.067606,0.047904,-0.07949,-0.027213,0.065707,0.085873,-0.017735,-0.109763,0.109378,0.054389,0.084783,0.057831],[-0.030801,-0.051233,-0.094017,0.019973,0.0845,0.063344,0.018688,-0.089549,0.079154,-0.000185,-0.080557,-0.087871,0.041731,0.015355,0.016881,0.035025,0.151507,-0.019402,-0.039402,0.054968,-0.059124,-0.11835,-0.117534,0.023628,0.076062,0.076411,0.120619,0.085175,-0.033502,-0.030058,0.081351,0.020215,0.087756,-0.011982,-0.039436,0.101628,-0.047067,0.064298,0.018818,0.035729,-0.036241,0.015253,-0.036455,-0.103435,0.085091,-0.098685,-0.098093,-0.052141,0.094678,-0.006785,-0.101466,-0.045871,-0.062789,-0.037389,-0.058362,-0.041138,-0.026024,-0.020732,0.0968,-0.091103,-0.136591,-0.020205,0.109269,-0.080723],[-0.019227,0.129152,0.073008,-0.033009,0.061398,-0.096229,-0.033168,-0.117697,-0.005186,-0.04229,-0.041309,-0.05754,-0.071538,0.096462,-0.021886,-0.111156,0.124412,-0.00177,-0.044921,0.062966,0.006065,-0.04218,0.07738,0.044324,-0.019536,-0.058953,0.009016,0.086133,-0.00683,-0.040472,0.041845,-0.120379,0.017111,0.033758,-0.056368,-0.113342,-0.020898,-0.058284,-0.096379,0.069948,0.075439,-0.046662,0.142555,0.113208,0.09876,-0.077821,0.097055,0.007781,-0.059604,0.05077,0.054379,0.093217,-0.123563,-0.099838,-0.101529,0.07744,-0.027737,-0.089107,-0.002779,-0.095543,-0.090726,0.060995,0.092834,-0.022253],[0.089142,0.1173,-0.101461,-0.001644,0.00104,0.09625,0.122445,0.071539,-0.014801,0.062652,-0.095823,-0.01789,-0.057481,-0.007339,-0.081554,0.092723,0.084042,-0.087812,0.017014,0.065174,-0.104818,-0.078767,-0.033415,-0.016019,-0.047697,0.121329,-0.028821,0.075949,-0.110193,-0.002957,-0.052983,0.000219,-0.033662,-0.072115,0.007677,0.084783,0.100824,-0.09015,-0.08086,0.086199,-0.03968,0.012481,0.001465,-0.102493,-0.052987,-0.032203,0.00292,-0.039574,-0.021289,0.065446,-0.092242,-0.019919,-0.044471,-0.024855,0.106241,0.088731,0.1139,-0.110808,-0.070406,-0.107147,-0.088905,0.079245,0.029044,0.066582],[-0.123755,0.014277,-0.118483,-0.04327,0.1046,-0.098556,0.088326,-0.112843,0.124748,0.103722,-0.000547,0.115001,0.056171,-0.055285,-0.038432,-0.011809,0.103229,-0.002296,0.088939,-0.088397,-0.084512,0.003842,-0.049852,-0.021522,-0.057183,-0.021378,0.124771,0.062753,0.122566,-0.035871,-0.085053,-0.104224,-0.074817,0.014018,-0.00987,-0.019944,0.051272,-0.091389,-0.088786,-0.084372,0.08801,0.054054,0.0913,-0.087846,0.116126,-0.092588,0.007417,0.020826,-0.106653,-0.026377,-0.060016,0.004447,0.111884,-0.051978,0.054819,-0.099786,0.103974,-0.023513,0.108739,0.076189,-0.120865,0.11624,-0.04626,-0.08],[0.112977,0.05726,-0.105999,0.026003,0.04517,-0.009492,0.112218,0.058686,-0.12412,-0.015074,-0.048916,0.070966,-0.008578,0.124617,-0.035789,-0.098597,-0.039854,0.060222,-0.089131,0.013672,-0.075387,0.061856,0.037306,0.017009,0.068317,0.077462,0.10376,-0.000581,0.051439,-0.07187,-0.000322,-0.10669,0.104973,0.03915,-0.113423,-0.080353,0.08302,-0.038745,-0.023511,-0.011548,-0.035755,0.029999,0.006071,0.019848,-0.025392,-0.080478,-0.101015,0.108609,-0.1052,0.008577,0.112189,-0.113825,-0.096546,-0.010486,0.110608,0.019128,-0.023843,0.005361,0.056956,0.055947,0.022356,0.04823,-0.096902,-0.092447],[0.030931,0.039877,-0.040827,0.118062,-0.095601,0.094359,0.127261,0.118972,-0.024074,0.03769,0.052036,0.0023,-0.075373,0.015102,0.039239,0.112141,-0.009326,0.093172,0.013779,-0.070761,-0.053772,-0.11273,-0.021491,0.058015,0.069057,-0.077075,-0.051788,-0.001575,-0.031,-0.082646,0.086527,0.010466,-0.027987,-0.010328,-0.058743,0.063899,-0.048329,0.025431,0.064359,-0.116696,-0.045413,-0.046475,0.16395,-0.052636,-0.035457,-0.073339,-0.022081,0.040011,0.065729,0.028782,-0.029706,-0.022538,-0.124809,0.00923,-0.103107,0.132363,0.104974,-0.089375,0.0079,-0.047739,0.04896,-0.068768,-0.004946,-0.023342],[-0.079015,-0.048851,-0.016111,-0.084853,-0.024043,0.092402,0.065784,0.017427,0.053305,-0.052917,0.027955,-0.109384,0.036423,0.048986,0.069052,-0.019571,-0.103543,0.042609,-0.107158,-0.025019,0.01313,0.05877,-0.055834,0.065872,0.116806,-0.069296,0.125029,0.130473,0.080611,-0.09134,0.169086,-0.04728,0.08882,0.063953,-0.065009,-0.005795,0.111902,-0.029784,-0.041933,-0.06311,-0.046149,-0.063852,0.057694,0.058408,-0.042062,-0.080869,-0.06208,0.037198,0.081114,-0.005868,-0.09807,0.010874,0.080733,-0.097482,0.088913,-0.100451,0.12643,-0.036044,0.084089,-0.092323,0.078917,-0.070378,-0.035827,0.06348],[-0.114539,-0.042052,0.079194,-0.045923,0.037477,0.049428,0.04052,-0.095247,0.138265,0.033243,-0.109207,0.002892,0.003437,0.014407,0.118136,0.020229,0.144665,-0.048614,0.083738,-0.00769,-0.000458,-0.054732,0.107463,0.155217,-0.00758,-0.060057,0.133782,0.07524,-0.035406,0.01319,-0.010953,0.086738,0.08502,-0.063341,0.123537,0.023581,-0.058706,0.096791,-0.115286,-0.116591,0.001996,-0.082902,-0.007873,0.116107,0.035706,-0.074821,-0.09927,-0.032349,0.094201,0.091791,-0.134288,0.009862,0.019649,0.004395,-0.089442,-0.013839,0.143604,0.077966,-0.030396,-0.057829,0.098437,-0.016432,-0.115859,-0.042715],[0.050783,-0.049765,0.080706,-0.070242,0.079207,-0.021491,0.099995,0.096337,-0.036646,-0.073678,-0.092235,0.091656,-0.077043,0.09346,-0.078926,-0.117392,0.08586,-0.120275,-0.050543,-0.091083,0.067682,-0.006521,0.064951,0.175149,-0.125437,-0.1027,-0.068679,-0.065856,-0.114171,-0.054433,0.161095,0.049309,0.101525,-0.023109,0.010106,0.117921,-0.048144,-0.075291,-0.010502,-0.055283,0.03462,-0.142255,-0.002633,0.053316,0.092665,0.125851,-0.020974,0.004629,-0.044894,-0.130319,-0.064902,0.048124,-0.122588,0.11585,0.062795,0.0436,0.13568,-0.115345,-0.007939,-0.121078,0.043231,0.026992,0.010913,-0.002906],[-0.067561,-0.02329,0.095485,-0.037699,-0.032124,-0.070685,-0.046138,0.025253,-0.091431,0.086575,-0.039825,-0.091975,0.012188,-0.07919,0.010445,-0.093639,-0.094201,-0.031314,0.030292,-0.009691,-0.092744,0.02449,0.137278,0.032736,0.036621,-0.072342,0.027906,0.12225,0.103757,0.037944,0.029052,-0.036622,-0.0481,-0.07286,-0.002178,0.048403,-0.090732,0.046784,-0.010221,-0.059139,-0.068862,-0.091936,0.100934,-0.031273,-0.101473,0.037794,-0.117451,-0.115307,0.093931,0.002534,-0.018666,0.099214,-0.126278,0.032889,-0.117363,0.026811,0.05413,-0.052196,0.003684,0.062107,0.105635,0.054652,0.009936,0.071576],[-0.024925,0.118165,-0.071223,0.102213,-0.00272,-0.056303,0.028443,-0.019023,0.119829,-0.07308,-0.117247,-0.11054,0.114144,-0.070295,0.082164,-0.059632,-0.005797,-0.031009,-0.010303,0.01215,0.052055,0.004975,-0.013296,0.105753,0.061445,0.090152,0.067516,0.075072,-0.090453,-0.049256,-0.106246,0.057117,0.070416,0.055211,0.072266,-0.124598,0.033994,-0.088344,-0.118754,-0.103361,-0.11725,0.107445,-0.020411,0.112221,0.036128,0.063064,0.010622,-0.041173,0.048014,-0.026052,-0.044471,-0.056799,-0.014174,-0.05171,-0.065892,0.062189,0.097411,-0.113738,-0.099269,-0.014453,-0.068926,-0.065115,-0.084062,-0.082655],[-0.125303,-0.031298,0.033653,-0.000302,-0.031529,-0.069955,-0.067299,0.046608,-0.008486,-0.015224,-0.099632,-0.073778,-0.072723,-0.013001,0.011356,-0.088924,0.012643,-0.01114,-0.047083,0.084734,-0.046849,-0.011721,0.050852,0.008621,-0.078677,0.058403,-0.030128,0.061244,-0.081418,-0.030219,-0.01637,-0.00256,0.037331,-0.044498,0.06848,-0.080174,-0.096908,0.12633,0.013146,-0.012944,0.101126,0.067298,0.01872,-0.113856,0.113352,0.113478,-0.036334,0.073337,0.06546,0.05136,0.07958,0.034749,-0.002325,-0.026598,-0.012048,0.09581,0.087437,0.054015,-0.097587,-0.1045,0.013573,0.049196,0.064725,0.004016],[-0.08703,-0.072839,0.086273,0.090009,0.065249,0.127286,0.089336,0.104697,-0.046279,-0.078071,-0.074548,0.032555,0.124752,0.068384,0.049127,0.028373,0.040646,0.083671,-0.034417,-0.09647,0.026201,-0.081725,-0.036556,0.084056,-0.018737,0.11839,0.097064,0.028526,0.142628,0.081099,0.099059,-0.061203,-0.069672,0.135153,0.063795,-0.092748,-0.032709,0.124567,-0.084587,-0.126353,-0.040799,0.065458,0.14211,0.125147,0.118202,-0.103414,-0.075717,-0.01832,-0.03518,-0.05596,-0.058231,0.039607,-0.123925,-0.063525,-0.037457,-0.028082,-0.014582,0.040263,0.040845,-0.118244,-0.109625,0.056664,0.052448,-0.078198],[0.007185,0.026743,-0.113619,0.058284,0.158713,0.006038,-0.026012,-0.020309,0.122002,-0.080619,-0.061369,-0.089933,-0.071341,0.064468,-0.100494,0.064389,-0.007419,0.081269,-0.107115,0.008276,0.089663,0.010557,-0.092247,0.051545,-0.08465,-0.072883,0.075662,-0.016694,0.01147,0.091149,0.164115,-0.056799,0.083472,0.001305,-0.075803,0.113008,-0.110036,0.006433,-0.103108,0.005697,0.095493,0.04815,0.080466,0.034249,0.113121,-0.081027,-0.002996,0.116009,-0.093922,-0.121047,0.055361,-0.068597,-0.012483,-0.074344,-0.072476,0.109806,-0.051115,0.066679,0.088671,0.026442,0.032594,-0.123268,-0.031267,0.002561],[0.008141,0.132651,-0.028788,-0.073588,-0.041229,0.079944,0.123472,0.054266,0.136247,0.087382,0.010392,0.048439,-0.124202,-0.077169,-0.07937,0.091949,-0.075294,-0.119733,-0.04229,-0.081638,-0.045913,0.063711,0.003922,0.094635,-0.099973,-0.033642,0.061932,0.141319,0.040788,0.114223,0.143608,0.001476,-0.037198,-0.017182,0.074916,0.003616,-0.040891,0.084139,-0.111135,0.081849,0.096163,0.075938,-0.009584,-0.118001,-0.099365,-0.105051,0.036382,-0.060259,-0.064554,0.103334,-0.120917,0.116777,-0.10912,0.020749,-0.122939,0.100653,0.021034,0.125893,-0.103199,-0.107012,0.040458,-0.071388,-0.066508,-0.019011],[-0.059055,0.016762,-0.067815,-0.050572,-0.062917,-0.02157,0.113468,-0.013587,0.10783,-0.049698,-0.128399,-0.004136,0.063833,0.10662,0.034698,-0.100814,0.079045,-0.001324,-0.026785,0.001156,-0.098522,0.050426,0.000813,0.110219,0.080377,-0.073623,-0.026067,-0.072283,0.148118,-0.06309,-0.057705,0.043988,0.094654,0.001819,-0.107616,0.056493,0.01787,0.138163,-0.065612,-0.065859,0.092616,-0.029037,-0.082595,-0.064897,-0.070916,-0.037258,0.105932,-0.081437,-0.018727,0.112877,-0.120202,-0.094009,0.012068,-0.029948,-0.081018,0.115503,0.060155,-0.055364,-0.015719,0.071489,-0.048545,-0.079944,0.041044,-0.105202],[-0.008753,-0.037883,-0.003951,-0.064175,-0.098021,-0.066437,-0.015376,0.036799,-0.026916,0.035192,0.088143,0.121868,0.057989,0.103888,-0.048941,0.066243,0.078188,0.069521,-0.001513,0.074578,-0.098455,-0.070675,0.04131,0.120327,-0.032182,-0.011871,-0.029543,0.064224,-0.117839,-0.097993,0.049169,-0.113196,0.023934,-0.072621,-0.043073,0.043823,-0.010252,0.07314,0.027027,-0.009832,-0.093544,0.025305,0.043984,0.082996,-0.012048,-0.008977,0.124166,-0.020753,-0.03761,-0.01021,0.021515,-0.08174,-0.079617,-0.037549,-0.088232,-0.107105,-0.041047,-0.017385,0.123168,0.006123,0.062009,0.050993,-0.029273,0.072337],[0.034254,0.00624,-0.095346,-0.110436,0.126308,-0.109282,0.029728,0.05623,0.058942,-0.044102,-0.072114,0.085566,-0.104474,0.035815,-0.078795,0.057812,-0.08844,0.044839,-0.096221,-0.020298,-0.013723,0.020006,-0.076649,0.108821,-0.16929,0.044025,-0.059128,0.075426,-0.130514,-0.043522,-0.038194,0.112526,-0.074915,0.003507,-0.091447,-0.04015,0.001352,0.146746,0.007829,0.102124,0.087995,-0.045608,-0.070952,0.068426,0.028685,0.020944,0.09601,0.04321,-0.11937,0.029377,0.087825,-0.011703,0.106294,-0.0758,-0.063597,0.054566,0.019209,0.043665,-0.05059,0.026602,-0.08577,-0.028275,-0.077568,-0.094853],[-0.087175,0.012776,-0.045883,0.035992,0.070281,0.120005,0.025552,0.06538,-0.033706,0.060146,0.033977,0.04528,-0.094688,-0.108944,-0.027175,0.036771,0.113482,0.112997,-0.098838,-0.094268,0.049422,-0.020737,0.088637,0.183736,-0.056164,0.091888,-0.042059,0.068865,-0.020422,-0.108102,0.155457,0.0435,0.149291,0.012876,0.059347,0.052253,0.057671,0.074574,0.04777,-0.068346,0.055898,-0.031255,0.141438,0.022196,-0.115218,0.141252,-0.00674,-0.097598,0.00413,-0.010856,-0.101481,0.009727,-0.055619,-0.020665,0.049314,0.038796,0.156652,0.015432,-0.027564,0.055378,-0.064878,0.069822,0.03088,-0.030061],[-0.089693,-0.03664,-0.100429,0.04361,-0.063754,0.112158,0.050313,0.00184,0.06195,0.095005,-0.098646,-0.095685,-0.035454,0.088621,0.071896,-0.040331,-0.006487,-0.099986,-0.025208,0.063051,-0.066257,-0.001219,-0.017769,-0.003689,-0.129152,0.066358,0.000577,0.090494,0.032419,0.087,-0.099318,0.011969,0.083164,-0.060984,0.045677,0.039739,-0.089577,-0.114016,0.121456,0.016075,0.124379,0.027126,-0.130971,-0.101413,0.047964,-0.010822,-0.056317,-0.021683,0.03448,0.064154,-0.079957,0.107109,0.020036,-0.116128,-0.064379,0.108092,-0.010901,0.09401,0.065138,0.042054,-0.114781,0.011691,0.056441,0.079254],[0.121635,0.031205,0.00282,0.105334,0.031365,-0.061302,-0.09635,-0.048259,0.110396,0.004095,-0.058189,0.027597,-0.089789,0.088966,-0.07687,-0.05689,-0.095784,-0.038182,0.075963,-0.0538,-0.099208,0.043096,0.064495,0.124741,-0.058891,0.025071,0.030688,0.051091,0.106138,0.081252,0.13603,0.03281,0.100257,0.073033,0.047866,-0.004034,0.060232,-0.06101,0.072746,-0.114905,-0.042737,0.09147,0.111107,-0.111263,0.036062,0.034828,0.007217,-0.121898,-0.074048,0.086774,0.084557,-0.044224,-0.062101,-0.035166,0.095363,-0.024519,0.048222,-0.018017,0.052916,-0.106996,0.072724,0.002656,0.054333,-0.037146],[0.119048,-0.121911,-0.058207,0.004958,0.05204,-0.038907,-0.017244,0.002661,0.078308,0.097336,-0.094938,-0.01863,0.044309,-0.0945,0.02729,0.006325,0.091807,-0.097544,0.096205,-0.052895,-0.115167,0.020963,-0.00873,-0.055052,-0.007301,-0.120656,0.028779,-0.02549,-0.01071,0.0744,0.027337,0.018325,-0.12397,-0.122587,-0.120987,0.038253,0.005768,-0.040932,-0.037544,-0.028565,-0.054571,-0.022669,0.050084,0.094981,-0.025673,-0.098764,0.028712,0.01499,0.074474,0.041554,-0.01012,-0.05017,-0.082075,-0.089485,0.077274,-0.076728,-0.116534,-0.112885,-0.074439,0.088693,-0.082432,-0.037032,-0.045281,0.081762]],"biases":[0.114381,-0.044236,-0.017839,-0.124261,-0.074,0.107441,0.13861,-0.010072,0.030639,-0.031837,-0.116146,0.024132,0.071387,0.100185,-0.120599,-0.078903,0.076085,-0.0878,-0.124334,-0.075569,-0.09375,-0.090121,0.041534,0.030386,0.134197,-0.069871,-0.045586,0.088022,0.114869,0.068063,0.064238,0.007454,0.0913,-0.034789,0.057142,0.017015,0.005529,0.134625,-0.060192,0.089144,-0.068108,0.076877,0.149541,-0.037461,0.102464,0.074562,-0.114793,-0.029001,0.012964,0.116951,0.068932,0.020291,0.06295,-0.12466,-0.006186,0.102506,-0.01153,-0.076227,0.103761,-0.090864,0.068011,-0.004228,0.085494,-0.02251]},{"weights":[[0.024913,0.081175,-0.094527,-0.054906,0.155961,-0.019412,-0.012069,-0.045815,-0.073684],[0.008615,0.123032,-0.051017,0.060945,-0.069315,-0.030431,-0.055285,0.074976,0.101572],[0.113412,0.051993,0.023332,-0.082905,0.095281,-0.020051,0.096877,0.025594,0.079038],[0.099472,0.043114,0.074906,-0.088535,-0.080724,-0.036944,-0.005626,0.018295,0.031739],[0.057283,-0.009626,0.144168,0.127147,-0.043173,0.035904,-0.018625,-0.008464,0.149677],[0.071324,-0.055938,-0.06146,0.087845,-0.081296,0.025747,-0.099194,0.127832,0.006695],[0.146932,0.099369,-0.111972,0.018747,0.133142,0.057866,-0.051429,0.005453,-0.051455],[0.116624,0.14091,0.151568,0.037163,0.003558,-0.065705,0.036237,0.123838,-0.026653],[0.132629,-0.024709,0.025161,-0.025429,-0.008205,-0.076128,0.05636,-0.001325,0.15067],[-0.037599,0.111965,0.040812,-0.043788,-0.079912,0.040572,0.063258,-0.004037,0.083761],[-0.003775,-0.092367,0.060774,0.038279,0.043405,0.089368,-0.071847,0.120753,0.092865],[-0.010815,-0.003616,0.01757,-0.119887,-0.105822,0.083836,-0.096084,-0.109641,-0.084503],[0.049479,-0.017194,0.041008,-0.098682,0.040904,0.100542,0.123371,0.053039,0.107193],[-0.05606,0.078516,-0.097198,0.077399,0.120035,0.047752,-0.046708,-0.012527,0.152275],[-0.058446,0.078071,0.103419,-0.028258,0.123311,0.08654,0.023727,-0.028704,-0.037092],[0.026831,-0.048555,-0.027467,-0.020655,-0.125364,-0.127385,-0.079402,-0.074836,-0.097044],[-0.041131,-0.08,-0.067209,0.136876,0.059838,0.094297,0.129302,-0.06665,0.126769],[-0.04352,-0.066612,0.052205,0.085386,0.080034,-0.017582,0.034632,0.017779,-0.11655],[-0.000467,-0.121657,0.069821,0.077654,-0.034074,0.08095,-0.077475,0.047352,0.018863],[0.026412,0.004572,-0.078217,0.082035,-0.044608,0.000436,0.098982,0.046041,0.118587],[0.096063,-0.05167,0.024254,0.035408,0.082276,-0.046381,0.117206,0.019992,-0.027919],[0.107573,0.018904,0.109498,0.120446,-0.050798,-0.116947,-0.120767,0.107516,-0.071802],[0.087398,0.129805,-0.081655,-0.059898,0.002267,-0.032741,0.123791,0.073542,0.028954],[0.024944,0.12498,0.154462,0.117176,0.151644,0.104704,0.083794,0.13384,0.100365],[-0.046223,0.13513,-0.132597,0.056537,0.067989,0.091211,0.131932,-0.09894,0.005736],[-0.01972,-0.020964,-0.052589,0.062667,0.047808,-0.09629,0.03519,0.002502,0.055352],[0.034016,0.021982,-0.071818,-0.077213,0.014465,0.136049,0.1087,0.129808,0.145487],[0.102807,-0.066586,0.063127,0.138052,0.144551,0.008479,0.096163,-0.003403,0.123417],[0.135608,0.026182,-0.131108,0.092505,-0.104921,0.04303,0.142802,-0.066935,-0.042491],[0.075017,0.101429,0.102329,0.111704,-0.062323,-0.001881,0.059134,-0.067343,0.027655],[0.106382,0.044018,0.153963,0.139404,0.056046,0.147529,-0.024466,0.150878,-0.010673],[0.074309,0.115911,-0.022943,0.115958,-0.106948,0.099685,-0.106928,0.038506,-0.094177],[-0.024617,0.140723,0.086956,0.026772,-0.047137,0.112047,-0.066298,-0.037494,0.045252],[0.100392,0.058778,-0.144808,0.102665,0.025317,0.105668,0.026448,0.068803,0.086814],[-0.03969,-0.100733,-0.039847,-0.024156,0.005673,-0.049551,0.100926,0.076158,0.050661],[-0.060959,-0.043739,0.100766,-0.012857,-0.082899,0.090109,0.100443,-0.057989,0.023419],[0.093575,-0.030149,0.074014,0.035117,-0.004943,0.09869,-0.035741,-0.0041,-0.070928],[0.156301,-0.03922,0.037457,0.110294,-0.094017,-0.089999,0.018244,0.040668,0.08533],[0.066469,0.063409,-0.057567,0.124506,0.122524,-0.023986,-0.070249,-0.06926,-0.000808],[-0.093526,0.007734,-0.027484,0.011002,0.097607,0.120509,0.000743,-0.123126,0.073098],[0.09654,0.003034,0.068961,-0.020096,0.084412,0.103374,0.103511,-0.070545,0.032275],[0.061321,0.001325,-0.011591,0.091754,0.041364,-0.102538,-0.137466,0.100293,-0.085359],[-0.032232,0.12034,-0.015304,0.074941,0.145438,0.132761,-0.034889,-0.067453,0.157022],[-0.029111,0.033163,0.005275,-0.041011,0.112415,-0.022603,0.11158,-0.03934,0.083062],[-0.035948,0.116307,-0.106615,-0.043325,0.150307,0.087915,-0.079356,0.118051,0.09551],[0.134384,0.076589,0.131255,-0.061205,-0.070781,-0.083347,0.020679,0.015797,0.002906],[-0.048558,0.034286,0.059283,0.086992,-0.074522,-0.081035,-0.094219,-0.053092,-0.093409],[-0.004543,-0.024197,0.035755,-0.01717,0.098864,-0.032038,-0.088758,0.058201,-0.013293],[0.10597,0.092851,0.079645,0.050279,0.029665,0.100493,0.10248,0.023975,-0.097409],[0.027814,0.135914,-0.146152,-0.003424,0.01635,0.120756,-0.040796,0.020718,-0.082114],[-0.042345,0.059631,0.028849,0.104211,0.099418,-0.042493,0.116143,0.007961,-0.015503],[0.094002,-0.096714,-0.069772,-0.018045,-0.046891,-0.043079,-0.001193,-0.056534,-0.025367],[-0.107922,0.066676,-0.056092,0.053739,0.062118,-0.09556,0.070005,-0.012991,-0.080056],[0.11027,0.010893,-0.025403,-0.004565,-0.037427,0.020216,-0.0244,-0.073234,-0.057615],[-0.056795,0.061493,-0.026069,0.110014,-0.046067,-0.026044,0.107533,-0.010992,-0.087717],[0.059144,0.035104,-0.002616,-0.081747,-0.068942,-0.067973,-0.016355,0.037325,0.128814],[0.06131,0.140561,0.073884,0.037297,0.041369,-0.021591,0.122679,0.165003,0.00059],[-0.065126,-0.10304,-0.018419,0.049609,0.186132,0.182495,-0.052215,0.034655,-0.012373],[-0.071412,-0.062434,0.040068,-0.093781,-0.009763,0.068943,-0.000511,0.051963,-0.000856],[0.065828,0.078713,0.028861,0.001588,-0.101608,-0.000824,-0.118489,-0.076731,-0.014629],[-0.048441,0.164643,-0.008631,-0.063657,0.040583,-0.09101,-0.017988,0.01272,0.073163],[-0.033912,0.116448,-0.119328,-0.098223,0.101854,0.084085,0.11285,-0.029851,0.088159],[-0.097015,0.070552,-0.046307,0.03481,0.075564,0.051644,-0.011681,-0.097413,-0.064214],[0.002622,0.096028,-0.004783,0.044701,0.077442,-0.036917,-0.084799,-0.081519,-0.06433]],"biases":[0.138321,-0.022287,0.098442,0.093125,0.086286,-0.014242,0.052677,0.135,-0.083323]}]},"round":21,"phase":6,"phaseIteration":3,"trained":"enemies","generation":5,"dominanceMetric":"enemyWinRate","dominanceThreshold":0.65,"dominanceReached":false,"pilotWinRate":0.0,"enemyWinRate":0.0,"averageScore":150.0,"averageWave":1.0,"averageSteps":360.0,"waveClearRate":0.0,"averageClearSteps":0.0,"enemyDropRate":0.0,"invalidDropRate":0.0,"enemyFireRate":0.0,"pilotFireRate":0.3306,"pilotShotAccuracy":0.0252,"pilotHits":30,"pilotFires":1190}
