{"id":82,"label":"Enemies v82","role":"enemies","model":"sb3-dqn-enemies-v82","actions":["drift_left","drop","drift_right","fire"],"features":["target_dx","abs_target_dx","threat_dx","threat_y","bullet_ready","alien_count","wave","drop_ready","enemy_shot_ready","fleet_y","lives"],"network":{"activation":"relu","layers":[{"weights":[[0.226057,-0.394275,-0.049779,-0.389909,0.279699,0.335448,-0.260315,-0.175867,-0.338912,-0.288388,-0.814806,0.335971,-0.541818,0.048651,-0.172923,-0.634302,0.01711,-0.097131,0.0455,-0.032817,0.655439,-0.245348,0.620324,-0.047616,-0.146242,0.027536,0.357109,-0.155194,-0.089818,0.430188,0.621663,-0.353529,-0.046747,0.371708,0.318934,0.094572,-0.608714,0.109332,0.67423,-0.304679,-0.109834,-0.162927,-0.121048,-0.265277,-0.029245,0.458018,0.018465,0.084807,0.106371,-1.116763,0.158835,0.442884,0.054283,0.306139,-0.379613,0.172035,0.23716,0.391512,0.136748,-0.577443,-1.017199,0.059017,0.077638,0.808758],[-0.169353,0.239918,0.134711,0.110465,0.160802,0.109265,-0.899691,0.023873,-0.092945,-0.349023,0.38701,-0.096857,0.34059,0.264905,-0.086849,0.166542,-0.351403,-0.131192,-0.250133,0.391153,0.093642,0.203866,0.165614,-0.277736,0.342532,0.319195,0.676306,0.254024,0.248594,0.073096,-0.096736,-0.696376,0.27089,0.084434,-0.14414,-0.009441,0.156442,-0.084706,0.98449,0.153331,-0.167647,-0.074165,0.156626,-0.474225,0.259786,0.277774,0.216476,-1.118797,0.146961,-0.788135,0.271089,0.45832,0.542651,0.034666,-0.528619,-0.697239,-0.04977,0.147615,-0.221227,0.217136,-0.368496,-0.468085,-0.008373,-0.460397],[-0.052872,-0.053427,0.057876,-0.137895,0.016693,-0.032606,-0.119991,0.039824,0.09333,0.084372,-0.572817,0.10811,-0.107665,-0.27635,-0.05462,0.060453,0.02937,-0.039833,0.308022,0.345881,0.017761,-0.193996,-0.091968,0.18279,0.103798,0.196922,-0.009308,0.218334,0.257439,0.274675,-0.880702,-0.051721,-0.738584,0.17001,-0.589244,-0.036235,0.133773,0.164578,-0.264195,-0.635778,0.012781,-1.060329,-0.028223,-0.090897,-0.08802,0.243842,-0.285071,0.133199,-0.012142,0.229382,0.151335,0.06633,-0.094132,-0.20018,-0.100319,-1.09163,0.13178,-0.021947,-0.123757,0.156388,0.071009,0.238814,0.25253,-0.476874],[-0.166793,0.206732,0.371197,0.350199,0.41946,0.177137,-0.585855,-0.21422,-0.336683,-0.479083,0.001804,-0.299068,0.302252,-0.469731,-0.187946,0.174516,0.261583,0.433757,-0.131854,0.392872,-0.390968,-0.122891,-0.413573,0.070608,-0.143788,0.199809,-0.115578,-0.023714,0.313339,-0.367671,0.087194,-0.1658,-0.347299,-0.23578,0.225915,0.039066,-0.271147,-0.164748,-0.189613,0.064528,0.297323,0.147837,0.008882,-0.23477,-0.250615,0.046446,-0.264057,0.04041,-0.103496,0.386955,-0.187599,-0.067373,0.33088,0.226802,-0.101799,0.023675,-0.435006,0.172921,-0.022022,0.424126,0.202614,0.143857,-0.266188,-0.053829],[0.033384,-0.173074,0.062868,-0.185417,0.047271,0.09959,0.023823,0.221582,0.0075,0.048055,-0.039719,0.19292,-0.020747,-0.116214,-0.274058,0.159289,-0.092787,0.017146,-0.207766,-0.035802,-0.160804,-0.196468,-0.186062,0.271832,-0.228651,-0.029633,-0.079173,-0.129655,0.07703,-0.502065,-0.147218,0.03622,0.093485,0.131942,0.048617,0.03981,-0.275349,0.028032,0.01409,0.219195,-0.05622,0.01785,0.053384,0.196242,-0.162106,0.281781,0.051643,-0.233415,-0.208113,-0.03015,-0.231758,-0.215546,0.15722,-0.062517,-0.238849,-0.178998,0.143003,-0.072435,-0.201305,0.181494,-0.106813,-0.067673,0.135518,0.024801],[-0.333352,-0.371725,0.185324,-0.259642,-0.035383,-0.267362,0.221764,-0.481161,0.653301,0.354197,-0.140056,0.646193,0.034709,0.124646,-0.278689,0.450506,-0.419834,-0.265684,-0.407147,-0.12316,0.405546,-0.268034,0.349246,0.521375,0.228032,-0.303292,-0.223313,-0.433177,0.094511,0.017385,0.060042,0.493855,0.473093,-0.591239,-0.29684,0.685845,0.095455,0.60849,0.078921,-0.391841,-0.197775,0.634025,0.231581,0.423594,0.135021,-0.198454,-0.303546,0.274887,0.089473,0.242873,0.173784,-0.14631,-0.104711,0.214644,0.538481,0.008563,0.309337,-0.73494,0.018575,-0.30532,-0.127761,-0.285618,-0.157298,-0.060567],[-0.045208,-0.157382,-0.444779,-0.328418,-0.424167,0.015826,-0.145904,-0.20031,0.02491,0.252922,-0.01029,0.212072,-0.049558,-0.108777,0.243341,0.34686,0.104075,0.053247,0.207753,0.402278,0.218089,-0.160206,0.039458,-0.041046,-0.604205,-0.209111,0.526701,-0.033707,-0.376401,0.521149,0.306739,0.371674,0.042367,0.139416,-0.034892,0.47362,-0.250319,-0.797972,0.044338,0.06257,-0.664792,0.544426,-0.601478,0.557524,-0.156417,0.084493,-0.171134,0.065988,-0.244303,-0.146052,-0.723048,-0.481187,-0.331856,-0.725406,0.084372,-0.115793,-0.247259,0.399887,0.223256,0.261102,-0.092099,0.389954,-0.715743,0.20593],[-0.194714,-0.313539,0.030733,0.280254,-0.038794,0.372366,-0.159791,0.240588,0.117698,-0.164239,0.006433,-0.084392,-0.143257,-0.015414,-0.118882,0.022244,-0.126002,0.10113,0.079069,0.080025,0.166227,-0.119521,0.192433,-0.132491,-0.338168,0.24382,-0.017591,0.259438,-0.076292,0.142927,-0.247298,-0.09755,0.092688,-0.175682,0.002294,-0.131182,-0.654206,-0.105253,-0.066751,-0.15829,0.131793,-0.065625,-0.073092,-0.028647,-0.212258,-0.023349,-0.234643,0.034843,0.100262,-0.121183,0.17676,0.031749,-0.021127,0.151562,-0.162971,0.074784,0.252311,0.04939,-0.174031,0.029369,0.179239,0.280105,0.066532,0.280025],[0.275118,0.302664,0.172811,-0.019609,-0.109031,0.284154,-0.16802,0.435808,0.148087,-0.070283,-0.075805,-0.014665,-0.064056,0.079339,0.071591,-0.112129,-0.057565,-0.501538,-0.214712,-0.194203,-0.170896,-0.198176,-0.020551,-0.134726,0.08091,0.019093,0.225193,0.076228,-0.050504,-0.160988,-0.133551,-0.012243,-0.188989,0.177197,-0.157943,-0.10683,-0.186889,-0.350733,0.062062,-0.051745,-0.294635,0.081696,0.101972,0.184673,-0.289016,-0.482618,-0.285751,0.067625,-0.129922,-0.051004,-0.03776,-0.048069,-0.137875,0.101978,0.280511,-0.091008,0.093831,0.225286,-0.288734,-0.035517,-0.032585,0.135997,0.083372,-0.131082],[0.440199,-0.130429,0.600753,-0.400822,0.53977,0.5057,0.203854,-0.248707,-0.155675,0.201117,0.006052,-0.012896,-0.336108,0.64639,0.025332,-0.416384,-0.371439,-0.448991,-0.344564,-0.376132,-0.37372,-0.298768,0.371651,-0.278019,0.566713,0.341516,-0.426085,-0.011104,0.436638,-0.278184,0.242692,0.123174,0.156859,-0.263442,0.282343,-0.092524,0.209891,0.586553,-0.000135,-0.107513,0.506974,0.171687,0.698141,-0.105765,0.049933,-0.15417,-0.003026,-0.317963,0.324112,-0.18673,0.595442,0.314279,-0.336742,0.390979,-0.002294,0.076187,0.13123,-0.281037,-0.026355,0.000622,-0.450257,-0.241271,0.569824,0.027156],[-0.085362,-0.071028,-0.237319,-0.19184,-0.264522,-0.289866,0.285637,-0.253969,-0.061358,0.242636,0.063385,0.312085,-0.059783,0.033669,0.073975,0.247704,0.295106,-0.139123,0.182974,-0.068105,-0.096169,0.071439,-0.002896,0.11842,-0.015758,-0.238117,0.136457,-0.173305,0.113277,-0.136716,0.203899,0.205228,0.165996,-0.062617,0.126336,0.16859,-0.158324,-0.16,0.152196,0.043597,0.029953,-0.064162,-0.311706,0.201657,-0.200319,0.118098,0.193555,0.270472,-0.314635,0.14481,-0.158954,-0.026196,-0.026442,-0.197442,-0.040994,0.190826,-0.271313,0.200574,0.147115,0.061983,-0.06711,0.121565,0.078708,-0.285157]],"biases":[0.143732,0.34424,-0.189171,0.033836,0.121078,-0.214565,0.088756,0.10439,0.061539,0.121846,-0.062564,-0.070319,0.284608,0.084357,-0.179304,0.193364,0.198143,0.31409,0.328456,0.175868,0.307604,-0.099784,0.038687,-0.089402,0.088261,0.002964,0.159772,-0.193439,-0.355611,0.129807,0.016861,0.028063,0.148271,0.381293,-0.142284,-0.007984,0.119789,0.027474,0.018148,0.208803,0.265716,-0.109505,-0.164033,0.139021,0.001162,-0.136115,-0.269281,-0.019619,0.123285,0.04422,-0.268314,0.241173,0.190472,0.000485,0.108603,0.14796,0.061457,0.207639,-0.256623,-0.027901,0.217297,-0.094174,-0.376968,0.242137]},{"weights":[[-0.103804,-0.1739,-0.098949,-0.037912,0.15043,0.114743,0.153804,0.167102,0.186277,0.085117,0.169489,-0.327181,-0.172195,0.309392,0.079418,-0.145494,0.014857,0.16319,0.077478,-0.076982,-0.10277,0.21958,-0.064541,0.111352,-0.021133,0.111627,-0.013586,0.183421,0.087798,-0.010826,0.209769,0.101762,-0.177248,-0.341262,0.103437,0.022841,-0.073086,0.066061,0.008638,-0.15245,0.044339,0.092205,0.015212,0.032077,0.141674,0.085112,0.031325,-0.125096,0.12415,-0.276584,0.218959,0.182133,-0.137506,0.004019,-0.102229,-0.047816,-0.022132,0.045409,-0.191717,-0.109655,-0.073629,-0.296163,-0.008638,0.056179],[-0.024838,-0.052693,-0.071133,0.091015,-0.197496,0.229453,0.054836,0.118802,0.295507,-0.456718,-0.315122,-0.156443,0.088309,-0.024292,0.116097,-0.135165,-0.256558,-0.076763,-0.071785,0.062478,-0.130572,0.223846,-0.283399,-0.038338,-0.349439,0.221437,-0.391191,0.269001,0.340925,0.087074,0.070631,0.071806,-0.549798,-0.174213,-0.123883,-0.020245,0.055199,0.347303,0.069797,-0.244372,-0.035451,0.205077,0.054034,-0.105684,-0.020016,0.223455,-0.109044,-0.251068,0.053881,-0.301128,-0.162315,0.220754,-0.142904,-0.01508,0.024149,-0.153953,-0.126618,-0.290244,-0.154391,0.036969,-0.225537,0.174451,-0.127446,-0.267848],[0.197423,0.01972,-0.072439,0.087484,0.283691,-0.132597,-0.009889,-0.050323,0.203736,0.507463,0.238974,-0.039489,0.122281,0.033023,-0.131405,0.201708,-0.105037,0.240839,0.030164,-0.046621,-0.421132,0.010533,0.01172,-0.014596,0.084725,0.065842,0.008284,-0.103621,0.064477,-0.142799,0.139273,-0.001618,0.172975,-0.111667,-0.158704,0.044759,-0.013498,-0.004677,0.01261,-0.084873,0.034233,0.031941,-0.105408,0.180989,-0.019905,0.093618,-0.046565,-0.063971,0.044897,0.041743,0.401895,-0.051557,0.110833,-0.033919,0.084669,-0.044212,0.011813,-0.039649,0.064719,-0.001553,-0.08833,0.367313,0.094845,0.242812],[-0.408399,-0.123769,-0.123374,-0.044965,0.166992,-0.154817,0.001463,0.215986,-0.237996,0.332234,0.114334,0.243795,0.048014,-0.305089,-0.096201,-0.395515,-0.264303,0.074979,0.007917,0.087303,0.442788,0.207892,-0.155596,0.381293,-0.184097,0.219934,-0.387447,0.220072,-0.117022,-0.048991,0.191441,0.240161,0.382722,-0.239411,-0.36566,0.048403,-0.003157,0.136134,0.006766,-0.272847,0.339308,0.332788,-0.517194,-0.481044,-0.492539,0.286344,-0.127239,-0.360848,0.202644,-0.41734,0.082936,-0.001924,0.151876,0.123915,0.122613,-0.303147,0.225742,-0.390241,-0.202484,-0.101463,-0.38672,-0.095842,-0.299816,0.260493],[0.219017,0.012853,-0.002416,-0.12945,0.381693,-0.186371,-0.061718,0.112053,0.146846,0.478057,0.37715,-0.26884,-0.196808,-0.520983,0.06012,-0.056125,-0.171434,0.387017,0.024657,-0.119275,-0.077283,0.308653,-0.228399,0.223848,-0.027947,0.142375,-0.323889,0.18565,0.013275,0.068055,0.058006,0.250018,0.152756,-0.148092,-0.482443,-0.029488,0.099133,0.003819,-0.07936,-0.217521,0.265135,0.235131,-0.779676,0.052186,0.224056,0.132808,-0.113752,-0.323218,0.232326,0.11993,0.442885,-0.158557,0.249954,-0.048657,-0.08704,-0.159157,0.225591,-0.342991,-0.07194,-0.102984,-0.16458,0.267132,-0.196452,0.223312],[0.138987,0.029576,0.109292,0.088314,0.111697,-0.043224,0.126905,0.237002,0.027008,0.275023,0.158931,0.029345,0.160799,-0.045593,-0.136644,-0.046226,-0.272555,0.298378,-0.01328,0.030557,-0.188208,0.266195,0.029281,0.047525,0.122812,0.141243,-0.086824,-0.010028,-0.087672,0.039085,0.220391,-0.107236,0.245935,-0.061224,-0.168544,0.040356,-0.013378,0.008834,-0.04867,0.049416,0.102819,-0.028564,0.016392,-0.214838,-0.041203,0.050167,0.006002,-0.112348,0.202492,0.20489,0.148775,-0.081408,0.067278,-0.055374,0.002272,0.091333,0.157599,-0.080169,0.030819,-0.058101,-0.029221,0.024184,-0.141834,0.281666],[0.340467,0.150349,-0.00776,-0.005851,-0.09709,0.187848,-0.467534,-0.476783,0.080713,-0.05879,0.038371,0.140707,0.038141,0.172076,-0.040663,0.229101,0.208862,-0.125934,0.085923,-0.098414,-0.558846,-0.404271,0.262105,-0.16016,-0.024472,-0.385945,0.332838,-0.177653,0.129194,-0.097177,-0.128341,-0.234512,0.055644,0.093663,0.327337,0.085114,-0.110946,-0.22897,-0.04953,0.35503,-0.226005,-0.378055,0.164098,0.211728,0.054007,-0.261256,0.011234,0.336325,-0.497503,0.276698,-0.048567,0.10934,-0.048821,0.109735,0.081716,0.369263,-0.256467,0.24282,0.335319,0.032588,0.314624,-0.108959,0.07372,-0.260207],[-0.034074,0.089536,0.109703,0.080498,-0.239303,-0.022129,0.084236,0.226423,0.005128,-0.298525,-0.201387,-0.012772,-0.126243,0.15253,0.017596,-0.200678,-0.078507,-0.156146,-0.050993,-0.12462,-0.184382,0.181797,0.052594,0.107778,0.168042,0.27995,-0.169202,0.280572,0.346345,-0.084645,0.092307,-0.096645,-0.23408,-0.245188,0.041811,-0.092684,-0.0668,0.176352,-0.11139,-0.102027,0.250759,0.382259,0.20058,-0.411205,-0.06187,-0.083002,0.079311,-0.354956,0.371647,0.132567,-0.107551,0.017171,-0.524555,0.034973,0.094445,-0.235003,0.009463,-0.19,-0.456307,-0.06465,-0.277667,-0.104027,-0.162531,-0.004792],[0.024731,-0.074824,0.073708,-0.093759,0.084236,-0.007221,-0.199125,0.120407,-0.070116,-0.093519,0.086497,0.132429,0.137284,0.190179,-0.144931,0.050946,0.174043,-0.10869,-0.04227,-0.119998,-0.205207,0.107347,0.201271,-0.040922,-0.153558,-0.006224,0.130787,-0.039685,-0.103678,-0.009583,0.005876,0.119612,0.070309,-0.027886,0.251007,-0.05038,0.036339,-0.085041,-0.057184,0.04039,0.146828,-0.021521,0.094254,0.075198,-0.14537,-0.019254,-0.117755,0.248536,0.056683,-0.044471,-0.049467,-0.048801,-0.246666,0.081177,-0.087498,0.152464,0.128529,0.334101,0.091939,0.056272,0.093004,0.170296,0.052611,0.048456],[0.053074,0.099765,-0.060217,-0.047893,0.020755,0.054873,-0.130503,-0.18688,-0.027737,0.097868,0.094072,0.166395,0.180342,0.00733,0.094747,0.229086,0.06607,-0.025014,0.046591,0.003639,-0.133934,-0.08173,0.000213,-0.106794,0.000588,-0.124656,0.151036,-0.182457,-0.01685,-0.09025,-0.147826,-0.044762,0.135595,0.099929,0.211166,-0.10901,-0.036105,-0.11514,0.007221,0.244396,-0.075162,-0.249097,-0.026614,0.202493,0.074075,-0.029956,-0.028541,0.076248,-0.013707,0.01706,0.077334,-0.102879,-0.053763,0.04473,0.040123,0.083313,0.088305,0.189076,0.135747,0.078091,0.143906,-0.076032,0.136684,-0.020161],[-0.612553,0.107793,-0.03396,-0.124508,-0.088429,-0.489871,-0.574929,-0.017905,-0.180193,0.04447,0.187319,0.487594,-0.071874,-0.568316,-0.040294,0.129552,-0.330146,-0.06574,0.042857,0.050523,-0.053317,-0.026685,0.11531,-0.13594,0.036448,-0.42096,-0.3291,0.004,0.103639,0.153976,-0.028214,0.017712,0.033557,0.043982,0.09517,-0.023172,-0.12345,-0.250036,0.049209,-0.083198,-0.082277,-0.145518,-0.39799,-0.05414,-0.891653,-0.239902,0.079336,0.360461,0.0206,-0.465753,-0.282656,-0.010496,0.233723,-0.00319,-0.017137,0.043655,-0.056824,-0.614851,0.125814,0.035686,-0.21982,0.075909,-0.729655,0.138432],[-0.015969,-0.117317,-0.008504,0.043105,0.013853,-0.097302,-0.421173,-0.129101,-0.086096,0.12444,0.04374,0.292912,0.248159,0.050071,0.005835,0.23666,0.272828,0.083727,-0.125013,0.033024,-0.298415,-0.13372,0.184028,0.083311,-0.044438,-0.05731,0.350559,-0.101019,0.007482,-0.019985,-0.233877,0.001153,-0.121089,0.180191,0.274478,0.014389,-0.146427,-0.124661,-0.125816,0.118213,-0.081431,-0.030056,0.196773,0.146581,0.131727,-0.053094,-0.091812,0.148264,-0.124125,0.104817,0.07474,-0.220904,0.088683,0.064438,0.022203,0.213724,-0.035971,0.379382,0.33661,0.084238,0.181447,-0.102848,0.161211,-0.072888],[-0.158386,-0.288082,-0.119785,-0.08333,0.060002,-0.031886,-0.25914,0.016707,0.065075,-0.058624,0.025614,0.053011,0.275558,-0.440951,-0.072481,-0.054241,-0.304113,-0.029583,-0.118274,0.097602,0.057785,0.131299,0.072603,0.250987,-0.069492,0.07911,-0.197384,0.148601,0.075923,0.043201,0.060386,0.102559,-0.021204,0.002317,0.063182,-0.020956,-0.097072,0.126271,-0.111589,-0.129271,0.185654,0.201743,-0.308596,-0.219158,-0.375735,0.301514,0.036955,-0.208449,0.186402,-0.345184,-0.48036,0.162823,-0.018496,-0.018687,-0.001299,-0.362935,0.177423,-0.199942,0.160187,-0.074687,-0.259795,0.41915,-0.267652,-0.243277],[0.002155,0.041123,0.018501,-0.055782,0.055913,0.118579,-0.035911,0.027244,0.014527,0.298288,0.181645,0.033905,0.002021,0.174122,-0.03933,0.194062,0.100669,0.251854,-0.035224,0.012516,-0.069706,-0.076228,-0.011431,0.056054,0.082617,0.030809,0.169743,0.027196,-0.094074,-0.065591,0.113191,-0.040974,0.092379,0.081347,0.019146,-0.122676,-0.137626,-0.168842,-0.082662,0.21039,-0.077694,-0.076446,0.121293,0.099525,0.066118,-0.040626,-0.011517,0.112135,-0.017214,-0.017632,0.216684,-0.093921,0.106534,-0.09903,0.066529,0.143243,-0.080911,0.065831,0.010272,0.041919,0.245981,-0.223719,-0.06374,0.127568],[-0.071123,0.074941,0.051843,-0.087577,-0.019853,0.032546,0.102577,-0.004998,0.110268,-0.034736,0.080789,-0.114929,-0.117539,-0.054335,0.091914,-0.01172,0.054219,-0.115989,-0.028569,0.07827,-0.076462,0.008383,-0.028718,0.018723,-0.009618,-0.09429,-0.013253,0.031769,-0.074775,0.056327,-0.076589,-0.019721,0.041312,-0.044249,0.092636,0.121511,0.100863,0.002839,-0.02986,-0.101988,0.044989,-0.060979,-0.016667,-0.035551,-0.088989,-0.099233,-0.087233,-0.093555,-0.002558,0.090609,0.113513,-0.118445,-0.106077,0.080889,-0.095065,0.082581,0.123419,0.10655,0.107622,-0.110812,0.036278,-0.104077,-0.0104,-0.028063],[0.108588,0.083348,-0.115383,-0.145435,-0.077877,-0.068036,-0.055799,0.161812,-0.111731,-0.297509,-0.09353,0.00212,0.100376,0.00891,0.084428,0.145863,0.030032,-0.24309,-0.122153,-0.032867,0.005183,0.031836,0.080891,0.083501,-2.1e-05,-0.074537,-0.006532,0.08861,-0.14121,-0.003654,-0.18455,-0.050881,-0.200327,0.108359,-0.038003,-0.112499,-0.142712,0.14663,-0.068778,0.149578,0.025299,-0.005996,0.11436,0.065245,-0.177064,0.146676,0.010951,0.086289,-0.077892,-0.097848,-0.326741,-0.19189,0.086448,-0.056783,-0.05743,0.016675,0.093308,0.032136,0.126461,-0.011359,0.022417,0.222725,-0.008992,-0.086505],[0.079828,-0.154067,-0.047297,-0.054293,-0.117572,-0.284303,0.139828,0.274109,0.107901,0.040655,-0.209024,-0.391092,0.008619,-0.61006,-0.066198,0.031743,-0.450571,-0.066515,-0.104353,0.123393,0.188837,0.279912,-0.543758,0.05256,-0.233183,0.009269,-0.585781,0.110735,-0.13218,-0.117787,-0.267855,-0.110288,-0.148991,-0.404183,-0.545236,0.087963,-0.146217,0.081887,-0.123705,-0.340726,0.233015,0.205302,-0.687774,-0.317844,-0.138858,0.083029,0.023755,-0.45453,0.161307,-0.221438,-0.080646,0.042792,0.093401,-0.065165,0.077716,-0.401528,0.210976,-0.59256,-0.069882,0.020562,-0.27788,0.309789,-0.648408,-0.068211],[-0.286067,-0.188448,0.04431,-0.144224,-0.020481,-0.148682,0.070288,0.418594,0.114018,0.010132,0.100999,-0.468639,-0.31467,-0.133745,-0.026069,-0.213229,-0.171708,-0.122051,0.078743,0.091799,0.363901,0.36367,-0.407382,0.228353,-0.151145,0.293075,-0.462691,0.234115,-0.136952,-0.077934,-0.071145,0.051584,0.049559,-0.308183,-0.229384,-0.016498,-0.077775,0.317942,0.056598,-0.204334,0.333295,0.246009,-0.459907,-0.357604,-0.082236,0.241426,0.04936,-0.342259,0.346893,-0.176626,-0.175546,0.095214,0.214664,-0.070914,0.075,-0.290162,0.274019,-0.367259,-0.302895,-0.081043,-0.25463,0.169103,-0.180722,0.067934],[-0.032241,0.082071,-0.042907,-0.072365,-0.389711,0.136153,0.156092,-0.117114,-0.021387,-0.626374,-0.358186,-0.288389,-0.042002,0.037714,-0.084265,-0.176109,-0.13352,-0.464484,-0.104495,0.083054,0.256471,-0.075776,-0.073528,-0.185034,-0.067813,0.198855,-0.217189,-0.039315,0.138079,0.024609,-0.316347,-0.003322,-0.346107,-0.542296,0.113275,0.000733,-0.06698,0.043651,0.022147,0.10522,0.056462,0.015666,-0.156304,-0.051159,-0.084395,-0.26505,0.122515,-0.074916,-0.15759,0.029789,-0.337798,0.353667,-0.111161,-0.07444,0.045798,-0.039153,-0.024487,-0.115489,-0.043743,0.026696,-0.057828,0.053997,-0.118383,-0.259272],[-0.349586,0.117131,0.059344,-0.061403,-0.333226,-0.25202,0.079363,0.178257,0.120322,-0.452141,-0.510646,-0.148115,-0.180618,-0.195669,0.020357,0.057883,-0.230116,-0.338237,0.047255,0.07365,0.136729,0.084954,0.038875,-0.031162,-0.006735,0.036008,-0.112239,0.078341,0.147873,-0.046462,-0.372917,0.028749,-0.254085,-0.249217,-0.231185,-0.000401,-0.113064,0.132914,0.075448,-0.024911,-0.073294,-0.082771,-0.119277,-0.0485,-0.053517,-0.077009,-0.114036,-0.438868,0.114268,0.049089,-0.374133,0.137972,0.039425,-0.057775,0.040633,0.08702,0.021483,-0.159141,-0.040215,0.060691,-0.236375,0.315462,-0.081883,-0.259868],[-0.144787,0.088613,-0.094515,-0.092852,-0.256522,0.001622,0.039356,0.12246,-0.145516,-0.496494,-0.17496,0.369037,0.332251,0.235025,0.002224,-0.015183,0.114401,-0.340635,-0.04329,-0.108392,0.169776,-0.065029,0.193618,-0.178018,-0.020829,-0.156495,0.382319,-0.162153,0.154347,-0.151665,-0.144902,-0.078724,-0.469189,0.088225,0.276919,0.038088,0.006057,0.046197,-0.048158,0.218202,-0.080855,-0.005407,0.084424,0.139134,-0.167229,-0.018234,0.020322,0.14351,-0.05768,0.056872,-0.300052,0.088994,-0.348725,-0.070446,0.033036,0.108453,-0.180492,0.206893,-0.039044,-0.007075,0.206891,-0.230148,0.1431,-0.299026],[0.041053,-0.025125,-0.052412,-0.02193,0.074793,0.059237,0.0106,0.069872,-0.0191,-0.103153,-0.072187,0.002051,-0.141695,0.020991,0.112725,0.046074,0.00802,-0.084572,-0.010172,-0.025587,-0.00853,-0.043834,0.008699,-0.015907,0.148013,0.02473,-0.066303,-0.108628,0.020709,-0.00186,-0.016315,0.015988,0.060813,0.069678,-0.05844,-0.110587,-0.048725,0.017743,0.062589,-0.019681,0.061032,-0.068624,0.077618,0.053461,0.041108,0.017109,0.038728,-0.100829,-0.030046,-0.074255,-0.007358,0.12235,-0.051194,-0.111339,-0.077115,-0.076477,0.073862,-0.120958,-0.082603,0.051876,0.096969,-0.017297,0.071002,-0.126169],[-0.088729,0.193547,-0.091424,-0.072677,0.183567,-0.127454,0.080804,-0.021814,-0.052341,0.18973,0.235684,0.224235,0.136796,-0.002771,0.025698,0.029964,0.221107,0.198226,0.076041,0.070141,0.078037,-0.034746,0.046415,-0.059964,0.153925,-0.153837,0.213185,-0.245517,-0.031941,-0.072823,0.171137,-0.045565,0.216443,0.057855,0.247194,0.019929,-0.079037,-0.092706,0.052955,0.175109,-0.033564,-0.078655,0.234584,0.23049,0.000185,0.073808,0.034154,0.057955,0.053531,0.079313,0.024592,-0.052744,0.048818,0.050753,-0.032317,0.168773,-0.078267,0.170935,0.090199,0.058529,0.255976,-0.357324,0.130903,0.021934],[0.087022,-0.123129,0.059816,0.080207,0.071882,-0.004522,0.03051,-0.020672,-0.017688,-0.365903,0.122301,0.061756,0.125753,0.091926,-0.032195,0.260116,-0.055253,-0.098067,-0.123091,-0.023279,-0.391981,-0.12857,-0.018734,-0.101611,0.074649,0.035749,0.097501,-0.016856,-0.097209,-0.038267,-0.502872,0.132764,-0.264927,0.068833,0.167101,-0.010703,0.00679,-0.010286,0.100209,0.131478,-0.007591,0.019048,0.135686,0.032938,-0.321512,0.016799,-0.0107,-0.104315,-0.11093,-0.010166,-0.034278,-0.277096,0.037824,-0.098914,-0.08128,-0.030331,-0.092493,0.127049,0.242979,0.115839,-0.016778,0.270492,0.113823,-0.312684],[-0.227799,0.056431,-0.063472,-0.016781,0.349218,0.159029,0.151612,0.095571,0.16859,0.430494,0.215219,-0.089222,-0.135601,0.056421,-0.132133,-0.038005,0.036369,0.289886,-0.022835,-0.034617,-0.412981,0.130563,-0.015746,0.112374,-0.044996,0.115399,-0.193396,0.11866,0.032733,0.011274,0.174403,0.371208,0.23001,0.01234,-0.085707,-0.087025,0.067235,0.130568,-0.091692,-0.060145,0.25223,0.181385,-0.121817,0.013573,0.049055,0.236694,0.08089,-0.184104,0.050414,-0.197014,0.342796,0.156313,0.040287,-0.00026,0.023792,-0.053032,0.124453,0.013449,-0.126335,0.100712,-0.166111,0.159378,0.000645,0.302767],[0.147052,0.178194,0.041278,0.095179,0.131458,-0.066458,-0.040067,0.168863,0.035478,0.040917,-0.024237,-0.139044,-0.154736,-0.125747,-0.040274,0.063156,-0.12672,0.116369,0.05886,-0.033337,0.061823,0.195121,-0.154633,-0.039646,-0.086729,0.034276,-0.029086,-0.005106,-0.102398,-0.136916,0.079838,-0.048213,0.047509,-0.28402,-0.25214,-0.145108,0.067582,-0.027727,0.065647,0.050255,0.104547,0.115296,-0.087421,-0.087073,0.039269,-0.112943,-0.062615,-0.346596,0.15427,-0.065861,0.059216,0.00823,-0.021155,0.109318,-0.021694,-0.034246,0.088187,-0.020913,0.025657,-0.101614,-0.130606,0.15078,-0.186795,0.243283],[-0.44173,0.068012,-0.095803,-0.143226,-0.347676,-0.182452,0.185788,0.018036,0.068001,-0.598183,-0.265376,-0.029746,-0.104354,-0.005709,-0.056369,-0.117028,-0.019748,-0.479868,-0.010996,-0.006544,0.078857,0.082609,-0.048144,0.007944,-0.029296,0.091725,0.020297,0.092011,0.006845,0.019943,-0.154972,-0.241683,-0.446409,0.045263,0.171116,0.00178,-0.123452,-0.03249,-0.09046,-0.070714,0.022199,-0.071899,-0.032805,-0.181871,-0.104685,0.062034,-0.137395,0.089761,0.003204,-0.012824,-0.322789,0.121294,-0.040161,0.055732,-0.096737,-0.03111,0.005053,0.074694,0.056148,-0.095327,0.056568,-0.305581,0.010114,-0.184906],[-0.058654,0.135334,-0.081254,-0.140615,-0.188119,-0.120225,0.191096,-0.009062,0.011811,-0.090777,0.013982,-0.197565,-0.155024,0.041421,-0.078423,0.083511,-0.189861,-0.147665,0.065356,-0.089132,0.221772,-0.021187,-0.050744,0.149698,0.03005,0.127937,-0.026884,-0.102455,-0.045605,-0.054797,-0.075755,-0.162964,-0.101117,-0.088772,-0.050172,0.011942,-0.12063,-0.019589,-0.134991,-0.097839,0.146139,-0.004721,-0.030071,0.073377,-0.079573,-0.020055,0.020476,-0.125448,0.166301,0.161732,-0.02659,-0.000338,-0.007841,0.095792,-0.003714,-0.005137,0.047632,-0.052659,-0.085866,0.03912,-0.136081,0.057542,-0.061933,0.088839],[0.072344,0.121757,-0.120849,0.102477,0.338809,-0.174481,-0.021005,-0.058677,0.100885,0.479272,0.29218,-0.322571,-0.047427,-0.174893,0.002309,0.183824,-0.360088,0.43992,-0.107485,-0.060096,-0.421776,-0.092009,-0.245674,0.037694,0.089599,-0.151465,-0.135888,-0.049201,0.024414,-0.079232,0.18983,0.272113,0.156779,-0.23422,-0.19447,0.047007,-0.071303,-0.084138,0.082954,-0.063624,0.132336,-0.170125,-0.090354,-0.095976,-0.224349,0.120836,0.103195,-0.31144,-0.048293,-0.032544,0.381061,-0.021446,0.44822,-0.093163,0.011034,-0.166031,0.054323,-0.321242,0.323132,0.065364,-0.014598,0.427752,0.071327,0.132665],[0.009079,0.149652,-0.032487,0.019234,-0.364623,-0.060731,-0.079198,-0.211257,0.002245,-0.366169,-0.291652,0.2499,-0.053405,0.073677,-0.080006,0.098785,0.079589,-0.38304,0.004291,-0.067898,0.165712,-0.011229,-0.048603,-0.114246,-0.027053,-0.004595,0.059948,-0.123754,0.04282,-0.051109,-0.211881,-0.2557,-0.079626,0.077387,0.146314,-0.107993,-0.08138,0.020573,0.068749,0.003175,-0.122338,-0.138123,0.216882,0.197043,-0.128561,-0.342959,0.020727,-0.006761,-0.051238,0.157397,-0.169494,0.11349,-0.425996,-0.107262,-0.061342,0.125738,0.027753,-0.069345,-0.016896,0.074876,0.15337,-0.199037,-0.107575,0.007621],[0.191516,0.196955,0.000306,0.093583,-0.032849,-0.011801,0.166195,-0.25045,0.005703,-0.051136,0.139008,-0.050444,-0.157028,0.106686,-0.118928,0.045278,0.256669,-0.083242,-0.096155,-0.115891,-0.175592,-0.066691,0.003864,-0.208924,0.190862,-0.188905,0.067913,-0.08731,0.16736,-0.087397,-0.151662,-0.105638,-0.177559,0.161052,0.155911,-0.06344,-0.105859,-0.129472,0.013224,0.16635,-0.073145,-0.100383,-0.211993,0.278286,0.305714,-0.241978,-0.104993,0.047545,-0.222975,0.265804,-0.062496,0.205428,0.183115,0.068063,-0.103502,0.240951,-0.273972,-0.054214,0.071667,0.060374,0.201574,-0.682475,0.012086,-0.171261],[0.206453,0.04814,-0.067583,0.023645,0.110659,-0.09755,-0.306237,-0.077209,-0.149606,-0.024541,0.193819,0.127584,0.102248,0.081305,-0.132592,0.196117,0.156235,0.090626,-0.004261,0.013876,-0.097564,-0.102288,0.19372,-0.127153,0.004135,-0.103136,0.149712,-0.041389,-0.173835,0.082427,0.041325,-0.140282,0.043355,0.182636,0.083881,-0.110585,0.005695,0.012092,-0.058619,0.105312,0.046168,-0.057966,0.03834,0.281302,0.15292,0.061019,0.044468,0.163951,-0.181702,-0.065817,-0.061409,0.009478,-0.125403,0.093436,0.025403,0.015141,0.142285,0.149864,0.275557,-0.009399,0.043575,0.200182,0.050342,-0.079373],[0.021917,0.022994,-0.03983,-0.083879,0.031923,-0.090449,-0.051106,-0.080321,-0.026127,-0.216142,0.027277,0.152382,-0.182444,0.125212,-0.056342,0.010395,0.323989,-0.144422,-0.12284,-0.024027,0.092558,0.107679,0.19277,-0.080241,0.155307,-0.022607,0.263048,-0.055811,-0.136192,0.059035,-0.005705,0.118882,-0.144519,0.153295,0.248783,-0.112442,-0.111853,-0.078638,-0.128929,0.096419,-0.072233,-0.041923,0.049194,0.239284,0.123106,0.003046,0.074182,0.337331,0.013488,-0.012175,-0.235844,-0.235532,-0.134627,-0.114087,0.103742,0.215701,-0.020707,0.311496,-0.037188,-0.071875,0.215877,-0.875414,0.014523,-0.19858],[-0.420913,0.094319,-0.108686,-0.02412,-0.385002,0.397722,-0.439178,-0.130068,-0.345351,-0.494351,-0.786058,-0.464576,-0.348209,0.15918,0.116336,-0.173247,0.182331,-0.501581,0.075459,-0.128187,-0.118805,-0.121341,0.00812,-0.048409,-0.267824,0.288389,-0.153126,0.024684,0.568474,0.03084,-0.167452,-0.040938,-0.542032,-0.292922,0.060875,0.109705,-0.011435,0.182134,0.086394,0.059761,-0.191141,0.242817,-0.245467,-0.542241,-0.244044,-0.507721,0.000156,-0.415615,0.066799,-0.268597,-0.082884,-0.018192,-0.095063,-0.006798,-0.118107,-0.002128,-0.219046,-0.253925,-0.527375,-0.034959,-0.331623,-0.392358,-0.040387,0.103711],[-0.010819,0.125317,0.004772,0.083913,-0.032035,-0.113414,0.01904,-0.071016,-0.146458,0.056624,0.014769,-0.088945,-0.113891,0.090611,-0.023613,0.160017,-0.174607,-0.134124,-0.051206,0.080002,-0.043235,-0.011238,-0.126386,-0.012234,-0.047123,-0.117896,-0.097576,-0.034907,0.06176,0.088242,0.024136,-0.144204,0.01365,0.059603,-0.159736,-0.08763,-0.07676,-0.023951,0.048904,0.15833,0.148465,-0.120471,-0.296515,0.252553,0.133854,-0.07581,0.012998,0.030195,-0.049799,0.106555,0.089295,-0.030215,0.081628,0.032174,0.073607,0.050247,-0.127081,-0.112963,0.117048,0.095866,0.034643,-0.379052,-0.077742,0.276104],[0.160869,0.18695,0.106575,-0.100162,-0.091093,0.037071,0.017138,-0.08064,0.045893,-0.241029,-0.100871,0.378618,0.352432,0.053435,0.009932,0.275433,0.237879,-0.031676,0.064812,0.083859,0.025551,-0.167321,0.221763,-0.141301,-0.058273,-0.124293,0.32446,-0.237814,-0.073472,-0.084859,-0.341843,-0.066445,-0.088447,0.191748,0.370705,0.016429,0.036847,-0.248976,-0.008794,0.163603,-0.224796,-0.172004,0.110259,0.21848,0.095536,0.030064,-0.09033,0.234806,-0.246677,0.040197,-0.451372,-0.187343,0.052685,0.11014,-0.099586,0.155799,-0.098548,0.407004,0.258931,-0.10549,0.175822,0.251781,0.280507,-0.2685],[-0.12034,0.079935,-0.050554,0.072613,0.290538,0.211801,0.027106,0.148631,0.232053,0.386808,0.269034,-0.008594,-0.206268,-0.100867,-0.03494,-0.089324,-0.071521,0.333139,0.007082,-0.055548,-0.241324,0.089581,-0.06687,-0.078862,-0.076508,0.101666,-0.144934,0.309948,0.245942,0.126414,0.460299,0.153203,0.029066,0.131558,0.021229,0.110943,-0.09022,0.168712,-0.117056,0.095291,0.021948,0.205516,-0.092691,-0.144632,0.108128,0.079322,0.003472,0.023914,-0.016803,-0.106191,0.071417,0.592549,0.125285,-0.062497,0.019956,0.232359,-0.211938,-0.089444,-0.029246,-0.027508,-0.271905,0.140332,-0.194068,0.236147],[-0.157604,-0.15361,-0.009899,-0.13265,0.49697,0.014757,-0.241655,0.243836,0.14243,0.861376,0.529891,0.13452,-0.132077,-0.145711,-0.037897,0.02262,0.063466,0.523324,-0.052185,-0.013095,-0.333152,0.21234,0.096004,0.095007,0.109032,0.256354,0.099053,0.013619,0.055378,0.023527,0.27054,0.344415,0.45028,0.166099,0.132867,0.07594,0.081369,0.057687,-0.072067,-0.087636,0.090839,0.061129,0.041034,0.10602,0.1139,0.256041,0.098792,0.037687,0.262282,-0.230661,0.583003,-0.055241,0.052198,-0.003736,-0.026253,0.027441,0.315436,0.013525,0.043876,-0.057004,0.076808,-0.218313,0.042377,0.520975],[-0.533226,0.116026,-0.027817,0.024059,-0.012858,-0.124467,-0.061921,0.116989,0.066443,-0.097505,0.079937,0.136547,-0.053029,-0.023455,-0.027312,0.061444,0.152812,0.03688,0.064621,-0.119938,0.022216,0.122232,0.021774,-0.169132,0.1723,0.009639,0.128111,-0.027313,0.135952,-0.015244,-0.084912,-0.150271,-0.348815,-0.004764,0.135469,-0.076888,0.034615,0.012841,0.044619,0.162549,-0.095322,-0.028116,0.099293,-0.104778,-0.07146,-0.052629,-0.125467,0.226473,0.04179,-0.060086,0.021366,-0.017704,0.090247,0.023039,0.063706,0.131559,0.048975,0.206069,-0.057337,-0.138974,0.131137,-0.265232,0.207045,0.031064],[-0.045889,-0.089856,0.109874,0.030022,-0.052668,-0.009388,-0.212105,0.149375,0.076457,0.059742,-0.018441,-0.036104,0.141342,-0.173336,0.018757,0.164038,-0.187383,-0.024829,0.061,-0.126564,-0.044379,0.137582,-0.087993,-0.101278,0.112939,0.136237,-0.183393,-2e-05,-0.071598,0.00717,0.285019,-0.120379,-0.121822,0.115378,-0.10431,-0.110093,-0.11517,-0.077829,-0.069911,0.074425,0.119514,0.032472,-0.065334,0.168431,-0.127025,0.126877,-0.053987,0.018561,0.081392,-0.046484,-0.423348,0.124568,-0.109532,0.120209,0.012514,0.014499,-0.086032,-0.253504,-0.120734,0.051625,-0.126594,-0.564368,-0.137306,-0.048048],[0.14357,-0.026384,-0.107635,0.067932,0.135541,-0.011633,-0.032358,0.137156,-0.081685,0.289233,0.095092,-0.147144,-0.091694,-0.003208,0.020694,0.146666,-0.057652,0.188806,-0.092924,-0.111265,0.002373,0.10152,-0.218451,0.084998,0.095968,0.143523,-0.228745,0.079527,-0.005309,-0.15637,-0.002332,0.106911,0.197205,-0.14511,-0.224295,0.04086,0.020285,-0.06124,0.086814,0.045981,-0.038344,0.093524,-0.14771,0.210298,0.19204,0.118311,-0.055533,-0.100192,0.134504,-0.072902,0.146731,-0.105386,0.131076,-0.011837,-0.146901,-0.017743,0.099571,-0.274116,-0.055036,0.094859,0.117719,0.057524,-0.11752,0.077689],[0.076175,0.186211,-0.091177,-0.120767,-0.0191,0.176057,-0.158605,-0.100745,-0.004971,0.07101,-0.012855,0.355823,0.15348,0.195244,-0.085775,0.29042,0.138154,0.001472,0.004784,0.065875,-0.005914,-0.240009,0.373008,-0.192006,0.212671,-0.070936,0.525292,-0.066543,0.15348,-0.073992,0.248255,0.102833,-0.105033,0.140536,0.288106,0.021919,0.08694,-0.140541,-0.109943,0.16622,-0.154062,-0.202644,0.017466,0.313705,0.159214,-0.171803,0.047455,0.331912,-0.143798,0.35833,0.128406,0.123035,-0.022998,0.047904,-0.063147,0.229946,-0.179068,0.523221,0.155806,-0.109763,0.346308,-1.030457,0.307439,-0.147696],[-0.154433,-0.342871,-0.108297,-0.001845,0.925676,-0.021764,-0.023443,0.638463,0.6361,0.944698,0.508818,0.2033,0.288271,-0.232738,-0.007946,-0.28628,0.120538,0.792106,-0.063551,0.051544,-0.243761,0.543738,-0.164616,0.620533,-0.396376,0.444444,0.048192,0.546695,-0.181631,-0.038766,0.766673,0.502315,0.645038,-0.047608,-0.227467,0.086352,-0.066291,0.575594,-0.017754,-0.484707,0.595761,0.584102,-0.373762,-0.495281,-0.416898,0.622896,-0.114469,0.041314,0.774849,-0.404823,0.579838,-0.323697,-0.278649,-0.037389,-0.065601,-0.391648,0.636624,-0.097367,-0.007493,-0.091103,-0.44839,0.097715,-0.050666,0.574508],[0.059161,0.098439,0.058588,-0.054622,-0.059318,-0.115389,-0.148027,-0.190714,-0.074361,-0.263664,-0.030756,0.085448,0.102816,0.110417,-0.054739,0.107287,0.178007,-0.119697,-0.044921,0.032883,-0.029497,-0.09006,0.12759,-0.06005,-0.084392,-0.086925,0.150378,0.01732,-0.075679,-0.058505,-0.008362,-0.212025,-0.14445,0.066375,0.105062,-0.141879,-0.040231,-0.123501,-0.120347,0.264311,0.033184,-0.125503,0.223157,0.268053,0.051796,-0.082173,0.080672,0.17597,-0.097015,0.048729,-0.106286,0.035666,-0.294356,-0.099838,-0.119559,0.214046,-0.064823,0.102255,0.228273,-0.111137,-0.005022,0.029892,0.157569,-0.260697],[0.073214,0.103988,-0.101461,-0.001644,0.009514,0.066336,0.120266,0.076133,-0.00728,0.086411,-0.079861,-0.051953,-0.039098,-0.014232,-0.081554,0.078294,0.066338,-0.067244,0.017014,0.065174,-0.104818,-0.068705,-0.058134,-0.005559,-0.058273,0.138625,-0.040745,0.083522,-0.151936,-0.009972,-0.041597,0.000219,-0.032666,-0.072115,0.003057,0.084783,0.100824,-0.08544,-0.08086,0.079744,-0.028584,0.018301,-0.030857,-0.106956,-0.056451,-0.013799,0.00292,-0.042792,-0.017689,0.068432,-0.068552,-0.056199,-0.040841,-0.024855,0.106241,0.081579,0.122735,-0.120415,-0.036341,-0.107147,-0.093174,0.079245,-0.002541,0.082123],[-0.349659,-0.176148,-0.131894,-0.04327,0.090863,-0.090448,0.020591,0.036139,0.528281,-0.130589,-0.160665,0.227512,0.057349,-0.162575,-0.084926,-0.049711,-0.101791,-0.032964,0.088939,-0.088397,-0.193781,0.143993,-0.014591,0.039396,-0.177879,0.038905,-0.168026,0.153359,0.173847,0.012812,-0.252993,-0.302182,-0.361209,0.109282,-0.167431,-0.032271,0.028548,0.124441,-0.101124,-0.232948,0.189233,0.193235,0.019449,-0.04474,-0.463132,-0.039779,-0.008718,0.008615,0.09875,-0.18738,-0.206707,0.125309,-0.100925,-0.051978,0.035431,-0.215223,0.177926,-0.363467,-0.119434,0.076189,-0.520465,0.138709,-0.285695,-0.080882],[0.108322,0.04753,-0.105999,0.026003,0.052527,-0.035331,0.112218,0.060924,-0.10193,0.005385,-0.041803,0.072061,0.0084,0.117324,-0.035789,-0.103863,-0.065768,0.067969,-0.089131,0.013672,-0.075387,0.064299,0.036658,0.018892,0.082936,0.076436,0.076736,0.009573,0.042247,-0.07187,-0.000322,-0.10669,0.104973,0.035724,-0.136752,-0.080353,0.08302,-0.031716,-0.023511,-0.020106,-0.03379,0.03521,0.006071,0.018953,-0.025392,-0.079065,-0.101015,0.126303,-0.102779,0.000485,0.112189,-0.113825,-0.101924,-0.010486,0.110608,-0.002066,-0.022752,-0.019294,0.084128,0.055947,0.015686,0.07243,-0.099438,-0.090483],[0.16674,0.039129,-0.040827,0.118062,-0.400491,0.066662,0.027737,-0.133923,-0.288191,-0.33833,-0.053856,-0.091436,-0.084268,0.031412,0.005806,0.411581,-0.019843,-0.190449,0.013779,-0.084817,0.086405,-0.320684,-0.115385,-0.180588,-0.050405,-0.290317,0.004702,-0.182657,-0.178345,-0.113931,-0.14801,-0.175645,-0.158379,-0.257694,0.0385,0.038901,-0.048329,-0.173629,0.064359,0.148812,-0.194697,-0.24495,0.180155,0.15395,-0.132049,-0.240772,-0.022081,0.204018,-0.207876,0.031384,-0.270738,0.026669,-0.03626,0.00923,-0.106476,0.269961,-0.037323,0.0558,0.321441,-0.064081,0.112678,0.214193,0.072176,-0.347009],[-0.158923,0.006142,-0.030523,-0.106673,0.036574,0.053571,0.164113,0.084869,0.221523,0.188437,0.178153,0.027584,0.047889,-0.090846,0.060775,-0.036202,-0.02747,0.209618,-0.131419,-0.082154,0.034583,0.152681,-0.058587,0.101329,0.101581,-0.040327,0.205557,0.045606,0.034105,-0.084911,0.181694,0.012296,0.20592,-0.028972,-0.082508,-0.040109,0.089848,-0.051832,-0.054271,-0.020338,0.07682,-0.001312,-0.072134,0.086879,-0.003428,-0.059163,-0.078463,0.082218,0.167057,0.051666,0.084166,0.035951,0.170015,-0.097482,0.074578,-0.056139,0.156988,-0.035449,0.065683,-0.106863,0.137847,-0.079545,-0.175565,0.309388],[0.211951,-0.013519,0.079194,-0.045923,-0.126119,-0.101498,-0.097268,-0.309561,-0.017929,-0.042165,-0.181161,-0.055392,0.057109,-0.208462,0.086584,0.280111,-0.14119,-0.120052,0.083738,-0.030621,0.035943,-0.19552,-0.088381,0.144843,-0.037006,-0.077664,-0.093517,0.046874,-0.06334,0.004852,-0.381043,0.153397,-0.134673,-0.182707,-0.155149,-0.0179,-0.058706,0.007712,-0.143683,0.03075,-0.104639,-0.142099,-0.213606,0.198388,-0.09245,-0.126002,-0.115609,-0.150258,-0.110247,0.186897,-0.239725,0.131731,0.227316,0.004395,-0.102357,-0.042016,0.103218,-0.223211,0.277451,-0.070629,-0.061064,0.69638,-0.261422,-0.421203],[-0.290055,-0.043449,0.06638,-0.070242,0.65664,-0.118435,0.103178,0.376097,0.227838,0.646905,0.309634,0.028493,-0.162965,0.039333,-0.078926,-0.40363,-0.192612,0.521531,-0.074813,-0.091083,-0.081262,0.358288,0.002351,0.439921,-0.146845,0.1672,-0.230068,0.060534,-0.230526,-0.045395,0.530144,0.320608,0.59738,-0.211907,-0.095262,0.105613,-0.048144,0.051056,-0.022783,-0.264999,0.389048,0.181022,-0.078602,-0.000924,-0.293477,0.454297,-0.020974,0.055123,0.333201,-0.107638,0.412473,0.094038,-0.45041,0.11585,0.048191,-0.199101,0.431884,-0.251248,-0.154568,-0.128308,-0.031835,-0.021819,-0.093819,0.578636],[-0.23173,0.047402,0.081058,-0.059527,-0.015579,-0.151522,-0.015379,0.026169,-0.049314,0.25806,0.014168,-0.13977,-0.15037,-0.091719,0.001802,-0.069816,-0.035463,0.039216,0.006005,-0.044294,-0.060364,0.059726,0.066528,-0.009176,0.052643,-0.090108,0.030912,0.030604,0.07263,0.026846,0.000195,-0.033978,0.017883,-0.213129,0.010996,0.006362,-0.113206,-0.020075,-0.032277,0.028983,-0.024009,-0.089527,0.083519,0.00263,-0.085558,0.023182,-0.133826,-0.080037,0.125596,0.031394,0.081338,0.151771,0.001649,0.032889,-0.128023,0.087645,0.013399,-0.032731,-0.012673,0.047521,0.221373,-0.163822,-0.01411,0.234868],[-0.238568,0.091552,-0.071223,0.080417,-0.013643,-0.160721,0.037996,0.098553,0.139691,-0.025311,-0.143032,-0.175965,-0.029478,-0.16026,0.048072,-0.161129,-0.097467,-0.051447,-0.010303,-0.002903,0.090924,0.138868,-0.06973,0.228223,0.082564,0.272675,-0.150405,0.184371,-0.062077,-0.068465,-0.035186,0.046644,0.064549,0.112376,-0.137812,-0.166093,0.01119,0.057851,-0.154899,-0.166112,-0.019155,0.245739,-0.33798,0.080207,-0.033599,0.106395,-0.005764,-0.119415,0.205586,-0.043547,-0.153473,-0.074861,0.103078,-0.05171,-0.086869,-0.087071,0.178736,-0.383076,-0.261353,-0.004596,-0.250987,0.013119,-0.11808,-0.046325],[-0.00771,0.04441,0.019317,-0.022155,0.111577,-0.169751,0.00734,0.065345,-0.026575,0.307631,0.225289,-0.075127,-0.094493,-0.120324,-0.015884,-0.021831,0.010488,0.190267,-0.07131,0.047853,-0.095245,0.035413,-0.001603,0.006708,0.030217,0.106952,-0.070453,0.004684,-0.083422,-0.063937,0.110532,-0.027445,0.179055,-0.017598,-0.086647,-0.11941,-0.119216,0.058931,-0.019067,0.079742,0.139622,0.097417,-0.145701,-0.056025,0.21399,0.127716,-0.05272,0.097113,0.112456,0.178176,0.390156,-0.093512,0.171065,-0.026598,-0.02415,0.117207,0.114402,-0.005218,-0.048633,-0.099825,0.018419,0.093584,0.092337,0.181303],[-0.039629,-0.051921,0.086273,0.090009,0.050923,0.117564,-0.075001,-0.040193,-0.096315,0.046542,-0.080932,0.186857,0.250703,0.06583,0.041006,0.202291,0.029163,0.161229,-0.058562,-0.133838,-0.635803,-0.111233,0.001096,0.062039,-0.176389,0.081824,0.196534,-0.001359,0.081136,0.08156,0.146449,-0.063039,0.07129,0.003234,0.150024,-0.113739,-0.032709,0.01825,-0.084587,0.00642,-0.044741,0.043832,0.241681,0.236073,-0.005305,-0.088424,-0.075717,0.188713,-0.130405,-0.033971,-0.105684,0.121521,-0.114553,-0.063525,-0.040366,-0.012386,-0.001332,0.230152,0.227998,-0.129159,0.002958,0.157762,0.193242,-0.14863],[0.036815,0.159922,-0.113619,0.058284,-0.09878,0.001402,0.117479,-0.114221,-0.333125,-0.302329,-0.090829,-0.160247,-0.202515,0.140128,-0.108883,0.174207,0.137455,-0.142745,-0.107115,-0.023735,0.176236,-0.010978,-0.107956,-0.12543,0.114286,-0.064025,0.11463,-0.158914,0.088747,0.065254,0.256924,-0.090052,0.013725,0.101508,-0.030784,0.095758,-0.110036,-0.134795,-0.115367,0.194557,0.068634,0.029943,0.030345,0.206262,0.269907,-0.228453,-0.019367,0.219614,-0.163441,0.01901,-0.042393,-0.032163,0.103859,-0.074344,-0.092011,0.233167,-0.257973,0.09446,0.131889,0.031986,0.153929,-0.787178,0.045402,0.012036],[0.049384,0.156942,-0.043304,-0.095355,-0.035508,0.037264,0.083836,0.114831,0.033527,0.215365,0.066406,0.187126,-0.060036,0.003433,-0.086093,0.135337,-0.031907,-0.043508,-0.066555,-0.117675,-0.103311,0.152031,0.082571,0.072278,-0.078239,0.012754,0.180467,0.092433,0.056444,0.080852,0.10558,0.147778,-0.060774,-0.070378,0.205768,-0.018586,-0.062852,0.04501,-0.12401,0.150492,0.166209,0.066753,0.120366,-0.057914,-0.243674,-0.144465,0.019998,-0.143899,0.062066,0.155389,-0.072628,0.098449,-0.469424,0.020749,-0.141142,0.203764,0.035158,0.248523,-0.088034,-0.119503,0.11197,-0.122195,-0.020398,0.039162],[-0.191666,-0.013778,-0.081845,-0.072413,-0.289622,-0.168033,0.166919,-0.020236,0.101339,-0.42996,-0.439523,-0.301615,-0.063663,-0.002435,0.008976,-0.085219,-0.060326,-0.29638,-0.051032,-0.012764,-0.041056,0.112526,-0.321945,0.077383,0.052828,-0.013097,-0.273015,-0.061075,0.141069,-0.080731,-0.171856,-0.131102,-0.108292,-0.191877,-0.319458,0.014849,-0.004766,0.148805,-0.099949,-0.020591,0.125019,0.03006,-0.219464,-0.124412,-0.074406,-0.075166,0.089555,-0.100018,0.035207,0.057399,-0.336621,-0.051964,-0.004597,-0.029948,-0.083356,0.054839,0.021585,-0.230167,-0.02528,0.078315,-0.100142,-0.266179,-0.052784,-0.205258],[0.013301,-0.015619,-0.003951,-0.064175,-0.120353,-0.044269,-0.015376,0.014467,-0.048593,0.035192,0.088143,0.121868,0.036078,0.103888,-0.048941,0.088028,0.100347,0.047236,-0.001513,0.074578,-0.098455,-0.093045,0.04131,0.097966,-0.00987,-0.033836,-0.00724,0.041994,-0.095507,-0.097993,0.049169,-0.113196,0.001721,-0.072621,-0.020942,0.043823,-0.010252,0.051011,0.027027,0.012486,-0.115873,0.003127,0.043984,0.105216,0.010324,-0.03132,0.124166,-0.040173,-0.059945,-0.01021,0.021515,-0.08174,-0.079617,-0.037549,-0.088232,-0.084821,-0.063339,0.004789,0.102028,0.006123,0.084266,0.050993,-0.029273,0.050312],[0.101561,0.008096,-0.109762,-0.132279,0.018296,-0.242425,0.027112,0.053411,0.054489,-0.12375,-0.182582,0.041101,-0.125466,-0.058501,-0.114531,0.177402,-0.251694,-0.047166,-0.120456,-0.034082,-0.077269,0.06043,-0.1499,0.079345,-0.118493,0.069333,-0.202496,0.039759,-0.153305,-0.090505,-0.251537,0.086377,-0.22661,-0.005246,-0.222939,-0.083307,-0.0215,0.135611,-0.023534,0.183796,0.094363,-0.063456,-0.21568,0.125704,-0.035319,-0.010046,0.079621,-0.061624,-0.048249,0.026646,-0.001535,-0.170819,0.173027,-0.0758,-0.080969,0.116268,-0.00766,-0.215214,0.067378,0.021743,-0.133151,0.165986,-0.158716,-0.160364],[-0.123649,0.032368,-0.045883,0.014247,-0.29187,-0.015656,0.087853,0.061886,-0.402619,-0.25934,-0.237405,-0.074885,-0.220622,-0.260533,-0.049739,0.012819,-3.7e-05,-0.161504,-0.098838,-0.114001,0.169039,0.04918,-0.084945,0.257991,0.022799,0.29172,-0.258323,0.150347,0.021908,-0.146666,0.086626,0.049802,-0.006149,-0.129766,-0.16736,0.017314,0.057671,0.112293,0.04777,-0.039757,0.091222,0.097233,-0.099439,-0.102644,-0.299679,0.068944,-0.023127,-0.188436,0.051958,-0.023418,-0.457696,0.061513,0.078972,-0.020665,0.031798,-0.063142,0.155978,-0.274192,-0.068149,0.045927,-0.328994,0.302433,-0.176866,-0.180964],[0.024806,0.032054,-0.114851,0.02184,-0.355582,-0.012294,0.170682,-0.026605,-0.114149,-0.130042,-0.265546,-0.267164,-0.16566,0.12824,0.071896,-0.035332,-0.223619,-0.361395,-0.049459,0.054718,0.089727,0.034813,-0.081081,-0.031447,-0.065848,0.046154,-0.090813,0.003294,0.049376,0.013406,-0.315635,-0.115465,-0.038561,-0.279936,-0.029329,0.004689,-0.089577,-0.196589,0.090847,0.10062,0.139873,-0.010235,-0.029589,-0.107644,-0.025565,-0.139284,-0.056317,-0.246283,0.039233,0.174876,-0.158121,0.104881,0.021978,-0.116128,-0.072314,0.194522,-0.003827,-0.080259,0.05582,0.041659,-0.103346,0.146347,0.011358,-0.009241],[0.022234,-0.007686,-0.011647,0.105334,0.377687,-0.111467,-0.199126,0.213105,0.069347,0.402305,0.189512,-0.135324,-0.22733,0.14449,-0.07687,-0.248332,-0.253224,0.28076,0.051714,-0.0538,-0.266081,0.329583,0.066255,0.33,-0.045479,0.254258,-0.16455,0.150977,0.050442,0.06544,0.357259,0.319231,0.376567,-0.190571,0.022908,-0.016292,0.060232,0.019514,0.060591,-0.276716,0.202539,0.288179,0.176154,-0.248225,-0.007994,0.218406,0.007217,-0.44418,0.232383,0.066615,0.455297,-0.125396,-0.421661,-0.035166,0.085051,-0.125213,0.265862,-0.105542,-0.120087,-0.114266,0.017456,-0.300348,0.062553,0.378338],[0.201202,-0.101965,-0.058207,-0.016485,-0.242808,-0.041455,0.208319,0.093111,-0.045657,-0.243559,-0.364038,-0.153895,0.021336,-0.16275,0.023649,-0.118212,0.017356,-0.398014,0.096205,-0.083322,0.130225,0.120873,0.045583,-0.168393,0.006202,-0.068082,0.021223,-0.077419,0.123107,0.012523,0.102262,-0.073617,-0.156521,0.048582,-0.27854,0.016631,0.005768,0.009298,-0.037544,0.012735,0.034409,0.021372,0.052929,0.098442,0.057625,-0.118591,0.01234,-0.215405,0.149801,0.144926,-0.19155,-0.104003,-0.103984,-0.089485,0.066228,0.079812,-0.188134,-0.105126,-0.355972,0.088061,-0.13708,-0.6191,-0.120878,0.121297]],"biases":[0.07408,-0.091667,-0.032377,-0.146118,-0.192274,0.0374,0.161211,0.030079,0.046838,-0.149038,-0.167229,0.011644,0.068422,0.040086,-0.151384,-0.030324,0.0222,-0.173718,-0.148622,-0.108382,-0.046199,-0.001859,-0.034607,0.026621,0.059324,0.009112,-0.089623,0.110323,0.115843,0.050069,-0.00107,0.007138,-0.036884,-0.111065,0.033849,-0.026526,-0.017555,0.181503,-0.093001,0.146636,0.0004,0.147072,0.115956,-0.041321,0.019256,0.103954,-0.131184,-0.066167,0.080666,0.071974,-0.029145,0.089691,-0.003909,-0.12466,-0.023785,0.117992,-0.005125,-0.095401,0.119658,-0.105155,0.042572,-0.020339,0.035496,-0.074074]},{"weights":[[-0.205648,-0.298927,-0.354852,-0.369005],[-0.090417,0.040963,-0.119364,0.000663],[0.113412,0.051993,0.00896,-0.082905],[0.099472,0.043114,0.053727,-0.088535],[0.608779,0.377479,0.677143,0.585626],[0.015752,-0.201777,-0.006483,0.01402],[0.202051,0.051546,-0.324415,0.083919],[0.207562,0.303657,0.230174,0.110631],[0.307491,0.0475,0.055803,-0.006293],[0.98091,1.077083,1.056302,0.901306],[0.460639,0.375041,0.649092,0.139575],[-0.184397,-0.392758,-0.31611,-0.516014],[-0.001262,-0.144885,-0.023642,-0.590826],[-0.260892,-0.065558,-0.197371,0.121603],[-0.055335,0.071175,0.086409,-0.02645],[-0.14848,-0.252861,-0.075269,-0.179302],[-0.393899,-0.385871,-0.223884,0.057406],[0.532834,0.377466,0.716124,0.717903],[-0.000467,-0.121657,0.045977,0.077654],[0.048799,0.004572,-0.045564,0.070535],[0.464259,0.054793,0.349243,0.013219],[0.264559,0.314987,0.259165,0.217723],[-0.086488,-0.122442,-0.374435,-0.269853],[0.058888,0.227593,0.244129,0.239042],[-0.13472,0.081257,-0.12677,0.11131],[0.072293,0.085672,0.14553,0.234166],[-0.274761,-0.397736,-0.351099,-0.360027],[0.100869,-0.107056,0.162929,0.191894],[0.094239,-0.125308,-0.084541,0.248559],[0.033668,0.075324,0.110594,0.092215],[0.303729,0.372206,0.423389,0.376989],[0.263723,0.201498,0.138001,0.401899],[0.07011,0.61541,0.534576,0.219878],[0.14276,-0.217756,-0.512673,-0.102631],[-0.301501,-0.345284,-0.244372,-0.14976],[-0.034678,-0.043739,0.083343,-0.025082],[0.080611,-0.030149,0.074014,0.035117],[0.187165,-0.100693,0.141305,0.156919],[0.042915,0.063409,-0.045314,0.124506],[-0.172406,-0.234262,-0.173858,-0.171614],[0.126316,0.260715,0.203579,0.052871],[0.152482,0.072086,0.150334,0.203376],[-0.394173,-0.130032,-0.314823,-0.171424],[-0.174076,-0.237509,-0.194849,-0.238353],[-0.349544,0.030294,-0.460055,0.00488],[0.175696,0.16891,0.340522,0.197324],[-0.048558,0.034286,0.043025,0.086992],[-0.379347,-0.328702,-0.195632,-0.093354],[0.227124,0.350327,0.229582,0.176071],[-0.076427,0.047471,-0.278606,-0.011111],[0.526297,0.65517,0.415484,0.6367],[0.175364,-0.329945,-0.173401,0.218143],[-0.312569,-0.201486,-0.259606,-0.069768],[0.11027,0.010893,-0.025403,-0.004565],[-0.050119,0.044989,0.003883,0.086815],[-0.099398,-0.2445,-0.172445,-0.199611],[0.056569,0.27281,0.173459,0.092774],[-0.451386,-0.452875,-0.346735,-0.401931],[-0.176972,-0.269067,-0.035786,-0.325121],[0.064429,0.072355,0.012152,0.001588],[-0.279751,-0.061432,-0.25215,-0.277524],[-0.829369,-0.641414,-0.933598,-0.605848],[-0.304338,-0.072176,-0.201677,-0.291263],[0.198676,0.600029,0.208687,0.120875]],"biases":[0.115062,-0.187275,0.101144,-0.096743]}]},"round":182,"phase":78,"phaseIteration":1,"trained":"enemies","generation":82,"dominanceMetric":"enemyWinRate","dominanceThreshold":0.6,"dominanceReached":false,"pilotWinRate":1.0,"enemyWinRate":0.0,"averageScore":750.0,"averageWave":1.0,"averageSteps":320.0,"enemyDropRate":0.0,"invalidDropRate":0.0,"enemyFireRate":0.0813,"pilotFireRate":0.1594}
