{"id":7,"label":"Enemies v7","role":"enemies","model":"sb3-dqn-enemies-v7","actions":["drift_left","drift_left_fire","drop","drift_right","drift_right_fire","fire","dive","loop","scatter"],"features":["target_dx","abs_target_dx","threat_dx","threat_y","bullet_ready","alien_count","wave","drop_ready","enemy_shot_ready","fleet_y","lives"],"network":{"activation":"relu","layers":[{"weights":[[0.194316,-0.069232,-0.008704,-0.106435,0.299515,0.309442,-0.148902,-0.254554,-0.108681,-0.195966,-0.45003,0.295203,-0.360162,-0.229348,-0.172923,-0.085293,0.272875,0.071383,0.048941,0.147136,0.401039,-0.270095,0.277549,0.226304,-0.040945,0.137399,0.141077,-0.124076,0.086655,-0.35073,0.290384,-0.127981,-0.179775,0.244335,-0.025384,0.179167,-0.022665,0.1766,0.002082,-0.234958,-0.060698,-0.254055,-0.226222,-0.084281,-0.040121,0.275837,0.083334,0.076277,0.039421,-0.126121,0.015398,0.198564,-0.02137,0.185396,-0.010236,0.248401,-0.12885,0.132852,0.158751,-0.175316,-0.365308,0.198514,-0.227112,0.113499],[-0.190659,0.227447,0.176929,0.315235,0.096161,0.049175,-0.408104,0.167443,-0.140857,-0.317105,0.487866,0.004741,0.434899,0.34926,-0.086849,0.356337,-0.036721,0.177072,-0.081737,0.560246,0.157005,0.228612,0.197294,0.013757,0.591571,0.444241,0.125017,0.058598,0.355643,0.277765,-0.236839,-0.288529,0.17557,-0.137325,0.220354,0.104264,0.098499,-0.054715,0.186459,-0.32377,-0.056999,0.110444,0.031308,-0.096711,0.283051,0.150886,0.281345,-0.474613,0.296289,0.206371,0.395013,0.399078,0.290349,-0.072764,-0.323951,-0.238087,-0.11981,-0.085626,-0.199224,0.392295,0.045292,-0.227382,-0.171184,0.114238],[0.037632,0.119753,0.069817,-0.125653,-0.046125,-0.090288,0.066664,0.161706,0.259064,0.237456,-0.376288,0.246171,-0.010621,0.131007,-0.05462,-0.001642,-0.14648,0.121428,0.284399,0.247154,0.124124,-0.170278,0.145137,0.209484,0.220152,0.208301,-0.105026,0.305537,0.202761,0.24791,-0.228151,0.128944,-0.203048,-0.165283,-0.322852,-0.11905,-0.199718,0.304863,-0.09537,-0.326459,-0.058387,-0.23323,-0.071428,-0.00685,-0.087346,0.058888,-0.250609,0.134121,0.080323,0.147215,0.313267,0.105994,-0.351784,-0.194507,0.131541,-0.289722,0.225959,-0.277866,-0.146198,0.013435,-0.124548,0.200607,0.364199,-0.21676],[-0.088294,0.172811,0.299726,0.376035,0.41844,0.28346,-0.271865,-0.256699,-0.163874,-0.196254,-0.004611,-0.175843,0.250896,-0.068496,-0.187946,0.154856,0.233486,0.373284,-0.186087,0.173815,-0.200058,-0.098158,-0.231057,-0.029035,-0.086803,0.119241,-0.132516,0.138113,0.301781,-0.313937,0.018097,-0.034989,-0.164889,-0.207317,0.430743,0.043456,-0.135859,0.10967,-0.037703,0.094507,0.354074,0.300055,0.086049,-0.230743,-0.237834,-0.088614,-0.203261,0.096958,0.096607,0.354588,-0.252673,-0.028864,0.351664,0.386046,-0.07371,0.212267,-0.321305,0.17994,0.000433,0.226586,0.23756,-0.106042,-0.235004,0.05763],[0.118866,-0.325195,0.007471,-0.262477,-0.018744,0.203811,0.170346,0.196538,0.138169,0.046729,0.069975,0.22854,-0.021574,-0.076303,-0.274058,0.110237,-0.224024,0.149461,-0.17824,-0.114333,-0.023292,-0.196468,-0.193152,0.262589,-0.3484,0.045035,-0.041408,-0.155826,0.106222,-0.121028,-0.223529,0.17358,0.193105,0.076262,0.247459,0.124848,-0.158508,0.150598,0.071541,0.13808,-0.062289,0.028004,0.227439,0.221054,-0.162106,0.233979,0.106189,-0.41276,-0.217071,-0.061354,-0.016217,-0.301885,0.179062,0.077083,-0.366078,-0.145444,0.311008,-0.09586,-0.201305,0.288281,0.024647,-0.046212,0.328551,-0.088393],[-0.264948,-0.126416,0.072015,-0.033053,-0.078913,-0.2774,0.075291,-0.129977,0.202072,0.186962,-0.131966,0.339026,0.040295,-0.205825,-0.278689,0.208394,-0.347754,-0.280889,-0.209162,0.056665,0.277074,-0.243357,0.08476,0.256807,-0.092604,-0.235742,0.09584,-0.302159,-0.058925,0.009155,-0.067527,0.100857,0.300841,-0.313357,-0.343659,0.308889,-0.086596,0.166436,0.129307,-0.111289,-0.114397,0.195913,0.153537,0.228307,0.151161,-0.148698,-0.261102,0.130592,0.079148,-0.084326,-0.009312,0.043401,0.051686,0.112165,0.263134,-0.241544,0.177876,-0.098046,0.041023,-0.142818,-0.018233,-0.304768,-0.189622,-0.039932],[0.302607,-0.000834,-0.062223,-0.182964,-0.044476,0.32356,-0.169864,-0.073001,-0.217326,0.082229,-0.026322,-0.035257,-0.050036,0.313987,0.243341,-0.035691,0.102256,0.152081,-0.114242,0.176616,-0.215938,-0.135631,-0.021319,-0.26495,-0.146661,0.056209,-0.023495,0.098441,0.024013,0.14015,0.20819,0.208485,-0.055672,-0.162563,-0.121871,0.096199,-0.197157,-0.238574,0.097408,0.102559,-0.275272,0.322344,-0.044957,0.225693,-0.139955,0.090908,-0.117901,-0.268935,0.302817,-0.304023,-0.266459,-0.07242,-0.280668,-0.279037,-0.050143,-0.212867,-0.224063,0.168149,0.245626,0.264027,0.091411,-0.066147,-0.206681,-0.094643],[-0.306671,-0.276095,0.040242,0.157285,-0.00616,0.324805,-0.169263,0.117644,0.191993,-0.197855,0.088045,-0.160235,-0.197175,0.109605,-0.118882,0.080377,-0.197111,0.173127,0.056987,0.168858,0.226351,-0.094763,0.217526,-0.257776,-0.291699,0.321317,0.038455,0.262078,0.064589,0.257023,-0.181195,0.032528,0.100331,-0.237672,0.151725,-0.107547,-0.292806,-0.030262,0.01179,-0.162315,0.179605,-0.268908,0.099275,-0.070393,-0.212258,-0.10823,-0.234643,0.01776,0.184628,-0.028944,0.160058,0.104325,-0.018563,0.224559,-0.221844,0.111163,0.232255,-0.067379,-0.174031,0.168905,0.24348,0.294882,0.153859,0.286418],[0.146714,0.205403,0.301683,0.030156,-0.047039,0.264987,-0.112593,0.25038,0.147909,-0.048697,-0.044925,-0.050882,0.050853,0.30156,0.071591,-0.099344,0.033116,-0.225827,-0.243461,-0.086515,-0.168474,-0.198176,0.072547,-0.144033,0.079126,-0.005384,0.205245,0.233589,0.044946,-0.145192,-0.219048,-0.002904,-0.177076,0.135554,-0.237558,-0.164767,-0.232086,-0.179924,0.133961,-0.103257,-0.295695,0.298332,0.150121,0.198636,-0.289016,-0.29603,-0.285751,0.01807,-0.011779,-0.045839,0.092713,-0.013211,-0.105578,0.145205,0.248948,-0.098069,-0.018929,0.181873,-0.288734,-0.022746,-0.008051,0.040701,0.102896,-0.139551],[0.1296,-0.110341,0.338205,-0.217632,0.325195,0.280525,0.258172,-0.240061,-0.212352,0.234746,0.105205,0.070699,-0.191476,0.332938,0.025332,-0.038702,-0.102404,-0.143919,-0.214868,-0.135102,-0.155137,-0.274043,0.144896,-0.067408,0.293482,0.222294,-0.244233,0.107639,0.216553,-0.14413,0.05838,0.127375,0.047365,-0.249372,0.054382,-0.057115,0.100452,0.275002,0.043309,-0.089386,0.270866,0.052813,0.216473,0.013231,0.068101,-0.212418,0.054474,-0.248108,0.079651,-0.115464,0.135127,0.129323,-0.198977,0.116461,-0.052733,-0.1426,0.098438,-0.085549,-0.003904,-0.03453,-0.255136,-0.04321,0.162725,0.006998],[-0.030074,-0.119013,-0.19353,-0.240776,-0.272807,-0.312105,0.246229,-0.263848,0.011498,0.238868,0.164555,0.259822,-0.091014,0.06078,0.073975,0.23023,0.172459,-0.210984,0.190859,-0.074417,-0.164028,0.096197,-0.04547,0.208694,0.041212,-0.20438,0.136336,0.101828,0.098152,-0.097397,0.209472,0.19823,0.1472,-0.216383,0.071605,0.185717,-0.053896,-0.095379,0.195678,0.157218,0.105296,-0.262505,-0.305618,0.14968,-0.181714,0.027066,0.248101,0.263945,-0.149366,0.112882,-0.012165,0.025999,-0.012554,-0.09074,-0.043213,0.17969,-0.1088,0.240031,0.169581,0.085607,-0.063598,0.077985,0.167103,-0.273372]],"biases":[0.089766,0.179904,-0.173099,-0.091656,0.097882,-0.266795,0.106558,-0.037744,0.141851,0.212668,-0.083003,-0.057273,0.125307,0.313268,-0.179304,0.245185,0.09236,0.28089,0.264883,0.125539,0.267412,-0.075026,0.113637,-0.054067,0.16801,-0.037838,-0.007343,-0.106809,-0.288033,0.111294,0.117748,0.161052,0.247301,0.132233,-0.062107,0.030981,0.128804,0.228347,0.010858,0.200888,0.279916,-0.076973,-0.12482,0.160269,0.019587,-0.199185,-0.214735,0.03518,0.271934,0.093338,-0.144524,0.232691,0.04978,0.040764,0.135981,0.248621,0.092902,0.034232,-0.234157,-0.091702,0.147258,-0.181186,-0.247278,0.210431]},{"weights":[[-0.04218,-0.128771,-0.084689,-0.037912,-0.095758,0.00601,0.082057,0.093884,-0.0312,-0.035955,-0.009767,-0.099949,-0.077741,0.147567,0.104434,-0.104185,0.055167,-0.053702,0.101725,-0.051881,0.035695,0.019689,0.03365,-0.080314,0.023891,-0.072245,0.14112,-0.08655,-0.053895,-0.042772,0.039299,-0.011827,-0.051601,-0.053029,0.097195,0.016784,-0.051135,-0.113027,0.033521,-0.086797,-0.139223,-0.127948,-0.099544,-0.062127,0.090342,0.001921,0.031325,-0.109586,-0.01928,-0.079236,-0.016404,0.013141,0.104554,0.004019,-0.063686,0.004091,-0.124012,0.004198,-0.023586,-0.076954,-0.049227,0.073077,0.021821,-0.09648],[0.068489,0.079796,-0.071133,0.112448,-0.172832,0.228245,-0.022891,0.130411,-0.017917,-0.126531,-0.081562,0.081595,0.122843,0.212685,0.123988,-0.112693,-0.038087,-0.025433,-0.071785,0.052276,-0.11213,0.059721,0.108343,-0.034914,-0.012432,0.252812,0.035374,0.012913,0.133006,0.015301,0.157991,-0.062806,-0.138849,0.230519,0.111877,0.043968,0.077303,0.145377,0.094673,-0.044623,-0.133938,0.045478,0.152267,-0.051186,0.18926,0.010322,-0.109044,-0.106208,0.003306,0.026727,0.009682,0.050262,0.15445,-0.01508,0.185254,0.138824,0.050196,-0.109497,0.075559,0.067248,-0.014076,0.159496,-0.081194,-0.050468],[0.056231,-0.089718,-0.057996,0.109338,-0.016822,-0.038177,0.035877,-0.062073,0.08053,0.090341,0.0404,-0.099283,0.151412,0.153981,-0.098154,0.057139,-0.019293,-0.031055,0.054438,-0.04497,-0.058244,-0.068112,0.082219,-0.058049,0.105106,0.122831,0.076029,-0.098848,0.082461,-0.133042,0.093426,-0.124499,-0.03485,0.089261,-0.019158,0.089799,0.009171,0.04776,0.047913,-0.093282,0.04017,0.066047,-0.022224,0.111514,0.005095,0.035756,-0.039035,0.010482,0.055039,0.033465,0.128064,0.108153,-0.064772,-0.033919,0.152701,-0.061117,-0.0059,-0.05338,-0.039984,0.014045,-0.089226,0.161728,0.05345,0.094644],[0.045436,0.110741,-0.123374,-0.044965,0.006476,-0.003547,0.116345,0.081163,-0.034094,0.098298,0.121187,-0.027551,0.223014,0.146627,-0.089798,-0.116548,-0.006457,0.062931,0.007917,0.076186,0.086829,-0.10693,0.228484,0.232837,0.18866,0.131953,0.079562,0.025995,-0.039873,-0.050221,0.047542,0.056079,0.003353,0.125028,0.019183,0.153001,-0.003157,-0.09704,0.006766,0.06114,0.187287,0.010465,0.011736,0.006178,-0.028589,0.023654,-0.111009,-0.05612,0.083767,-0.022368,0.129798,0.134795,0.186087,0.123915,0.267302,0.013575,0.084123,0.069659,0.090932,-0.10776,0.284643,0.17825,-0.066481,-0.002192],[0.20551,0.001405,0.011458,-0.107606,0.007155,-0.078654,0.003141,0.051782,-0.204002,-0.030809,0.226328,-0.073365,0.099817,0.093437,0.092454,-0.063371,-0.052264,0.126667,0.048913,-0.110932,0.006151,0.116138,0.139192,0.213791,0.122823,0.208877,0.112921,0.152012,-0.076877,0.04032,0.036286,0.10249,-0.064885,0.184269,0.004974,0.034954,0.122036,-0.121021,-0.044443,-0.107422,0.199277,0.165759,-0.042683,0.05937,0.255457,-0.110956,-0.097392,0.080027,0.226425,0.240494,0.106126,0.119795,0.091832,-0.048657,0.068774,-0.098112,0.285084,0.108385,0.107417,-0.092483,0.029569,0.264615,0.068032,-0.006983],[0.1335,-0.04425,0.123789,0.110171,-0.125331,0.055616,0.083781,0.18753,-0.081182,0.018245,0.08227,0.066872,0.249016,0.041132,-0.116376,-0.030568,-0.155608,0.211033,0.011003,0.007467,-0.065306,0.106476,0.182666,0.117698,0.123149,0.225518,0.134071,0.064806,-0.082247,0.153853,0.234053,-0.09995,0.035307,0.222329,0.050881,0.096483,0.008987,-0.000532,-0.014986,0.06947,0.13799,0.006758,0.048108,-0.097723,0.155874,-0.056797,0.013731,0.165159,0.182758,0.16966,0.076376,0.177317,0.006673,-0.055374,0.112699,0.019861,0.175634,0.044953,0.137687,-0.076169,0.086797,0.087424,-0.085405,0.128806],[-0.046038,0.03133,-0.00776,-0.005851,0.11359,0.111093,-0.140884,-0.068213,0.085057,0.078442,0.010564,-0.087569,-0.160795,-0.08781,-0.004916,-0.073951,0.045522,-0.051885,0.085923,-0.069534,0.02898,-0.00971,0.016663,-0.037171,-0.149491,-0.201541,0.062021,0.003549,0.151471,0.018343,-0.012806,-0.023515,0.181592,-0.134343,0.0098,0.029011,-0.093431,0.068803,-0.04953,0.029597,-0.025766,-0.061608,-0.050877,-0.189944,-0.176926,0.059186,0.011234,-0.054898,-0.061841,-0.002059,-0.064541,0.042114,-0.205214,0.109735,0.069477,0.096876,-0.203775,0.003881,0.134823,0.056722,-0.005459,-0.070067,-0.024594,-0.173873],[0.090765,0.054654,0.124175,0.102263,-0.018401,-0.255801,-0.164209,0.066068,0.102751,-0.100036,0.093963,0.117515,0.034149,-0.010849,0.017596,0.028787,-0.086398,0.023113,-0.026779,-0.111376,0.013393,-0.087395,0.093784,0.12532,0.11462,-0.078691,0.07171,0.193012,0.049575,0.106648,0.190249,-0.104772,0.12481,-0.070489,-0.000804,-0.05785,-0.0668,-0.003726,-0.086561,0.191257,0.290399,-0.030782,0.117902,-0.050041,0.006275,-0.120444,0.095679,0.127787,0.245696,0.045324,0.108537,-0.202987,-0.027991,0.034973,0.161553,-0.080168,-0.027561,-0.097981,0.145739,-0.077535,-0.084367,0.150139,-0.029814,-0.119811],[-0.029066,-0.126258,0.08822,-0.072025,0.163679,0.032544,-0.11306,0.093945,0.087603,-0.093009,0.122288,-0.099513,-0.020815,0.085513,-0.115725,-0.073947,0.055103,-0.109497,-0.01801,-0.089605,-0.136087,0.068098,0.075383,-0.057299,-0.102535,0.000619,-0.068845,-0.029048,-0.023789,0.043605,0.021267,0.040068,0.095392,-0.0669,0.060455,-0.049103,0.036339,-0.03359,-0.044522,-0.055092,0.124751,0.033955,-0.074764,0.011515,0.047663,-0.041828,-0.110314,0.100327,0.023831,-0.052418,0.022699,-0.071909,0.057005,0.081177,-0.071515,0.092392,0.091508,0.109347,-0.018397,0.075186,-0.022638,0.005982,-0.044363,0.121206],[-0.073225,0.067185,-0.045932,-0.047893,0.049256,0.086558,0.007611,-0.144947,0.069419,-0.019632,0.006064,0.065036,0.044546,-0.075037,0.124672,0.033328,0.005319,-0.080296,0.046591,0.026716,0.018231,0.002226,-0.067447,-0.129315,-0.014883,-0.056594,0.027206,-0.139913,0.10137,-0.060204,-0.075468,-0.067801,0.123285,0.078433,0.060088,-0.193913,-0.021895,-0.02069,0.019535,0.078599,-0.099873,-0.111973,-0.12375,-0.043426,0.011436,0.035828,-0.020439,-0.083689,0.048603,0.026475,0.008343,-0.142282,-0.027499,0.04473,0.037785,-0.057681,0.044041,0.056466,-0.061744,0.099029,0.001848,-0.099205,0.078006,0.008393],[0.033638,0.01175,-0.03396,-0.124508,-0.153422,-0.22561,0.043279,0.132982,-0.144321,-0.118071,0.073331,0.083485,0.230435,0.104395,-0.040294,0.059679,-0.014106,-0.025103,0.042857,0.048263,0.021691,0.026236,0.128332,0.167862,0.132413,0.031933,0.031572,0.193973,0.081544,0.023031,0.156654,0.089645,-0.268002,0.003637,0.144755,0.116826,-0.12345,-0.244067,0.049209,-0.007333,0.298012,0.021246,0.285305,-0.034637,-0.001813,-0.224944,0.087063,0.143039,0.320513,0.039562,0.10581,-0.002158,0.037944,-0.00319,0.203247,-0.127904,0.23128,-0.022032,0.002338,-0.01239,0.019442,0.263546,-0.089867,0.174223],[-0.068935,-0.095957,0.005914,0.043105,-0.001505,-0.051728,-0.176665,-0.152078,-0.055495,0.042258,-0.025561,0.080101,-0.006175,-0.113301,0.042862,0.010302,0.113461,-0.056191,-0.100907,0.054371,-0.028885,-0.096525,0.011263,0.038271,-0.095843,-0.099014,0.119344,-0.102432,0.11528,0.013307,-0.176136,-0.002347,-0.016996,-0.007253,0.059,0.08935,-0.124163,-0.040942,-0.113477,-0.025571,-0.117901,0.04634,0.005685,-0.1533,0.03267,-0.039081,-0.091812,-0.134628,-0.148454,0.082933,0.018308,-0.163951,0.044199,0.064438,-0.041803,0.111935,-0.175351,0.09523,0.066097,0.124725,-0.047581,0.078079,-0.010752,-0.107613],[-0.003934,-0.144335,-0.119785,-0.08333,0.048229,0.059409,-0.005274,-0.063659,-0.159224,-0.048785,-0.113536,-0.111157,0.215451,-0.006052,-0.040462,-0.097578,-0.105349,-0.029999,-0.118274,0.10568,-0.022784,-0.04612,0.127298,0.16253,0.208812,0.091599,0.068335,-0.066629,0.049104,-0.044943,0.067523,-0.048617,0.060071,0.090709,0.127374,0.14711,-0.075379,-0.087638,-0.08688,0.132481,0.097922,-0.001823,0.022519,-0.127428,-0.029179,0.046854,0.045019,-0.123983,0.182918,0.029884,0.001848,0.017469,0.085761,-0.018687,0.116431,-0.120668,0.178962,-0.045627,0.154282,-0.049178,0.014646,0.12806,-0.099065,-0.053242],[-0.020314,-0.080741,0.03303,-0.033948,-0.050702,0.112438,-0.008851,0.047555,0.025607,0.108991,0.052461,-0.044241,0.001352,0.148626,-0.031024,0.065331,0.023157,0.107599,-0.010943,0.037797,-0.007987,-0.09761,-0.032396,0.083018,0.054344,0.119804,0.12953,0.099814,-0.059713,-0.035189,0.01192,-0.059904,-0.039042,0.116323,-0.082187,-0.094134,-0.11597,-0.090861,-0.070323,0.124334,-0.078975,-0.021596,0.068088,0.008988,0.052692,-0.067405,-0.004441,0.027991,0.023267,-0.011231,0.128869,-0.096662,0.11497,-0.09903,0.121221,0.052971,-0.047322,-0.02803,-0.043915,0.058365,0.141479,-0.009156,-0.036016,0.006038],[-0.071123,0.074941,0.051843,-0.087577,-0.019853,0.032546,0.102577,-0.004998,0.110268,-0.034736,0.080789,-0.114929,-0.117539,-0.054335,0.091914,-0.01172,0.054219,-0.115989,-0.028569,0.07827,-0.076462,0.008383,-0.028718,0.018723,-0.009618,-0.09429,-0.013253,0.031769,-0.074775,0.056327,-0.076589,-0.019721,0.041312,-0.044249,0.092636,0.121511,0.100863,0.002839,-0.02986,-0.101988,0.044989,-0.060979,-0.016667,-0.035551,-0.088989,-0.099233,-0.087233,-0.093555,-0.002558,0.090609,0.113513,-0.118445,-0.106077,0.080889,-0.095065,0.082581,0.123419,0.10655,0.107622,-0.110812,0.036278,-0.104077,-0.0104,-0.028063],[0.115908,0.093771,-0.100874,-0.123588,0.069617,0.038545,-0.02596,0.125582,-0.098242,-0.095039,-0.045909,-0.084767,0.048583,0.045697,0.116189,0.014179,0.029557,-0.066002,-0.097905,-0.012189,-0.026456,-0.029478,0.069333,0.073385,0.034378,-0.094955,-0.028808,0.061389,-0.09003,0.01879,-0.047661,-0.012043,-0.018111,0.079653,-0.049759,-0.064231,-0.119721,0.096021,-0.043612,0.087894,0.011078,-0.002922,0.116289,0.019584,-0.097195,0.110868,0.017984,0.081151,-0.089238,-0.048943,-0.139986,-0.105665,0.085782,-0.056783,-0.032277,-0.016176,0.06825,-0.008318,-0.004086,0.004856,0.024324,0.082347,-0.01497,0.097643],[0.118586,0.063318,-0.047297,-0.054293,-0.095086,-0.019922,0.106308,0.109973,-0.123439,0.071055,-0.07897,-0.069594,0.019664,0.15775,-0.030503,0.106528,0.003346,0.123838,-0.104353,0.112505,0.121606,0.079641,0.042041,0.001005,0.100785,0.144792,0.085751,0.011385,-0.14561,-0.150541,0.017579,-0.023653,-0.110615,0.191845,-0.073874,0.169363,-0.124318,-0.119342,-0.098981,0.067499,0.077314,0.120541,0.212959,-0.06814,0.078004,-0.163624,0.023755,0.029902,0.105667,0.153029,0.124766,0.147752,0.142905,-0.065165,0.186456,-0.131224,0.153566,0.085516,-0.046473,0.00406,0.0077,0.229451,-0.05264,0.151943],[0.140834,0.011565,0.057952,-0.122751,-0.071235,0.005317,0.191278,0.222577,-0.006974,0.022668,0.230046,-0.014982,0.252623,0.219952,0.004951,0.070092,-0.072972,0.034035,0.078743,0.093872,0.109266,0.049248,0.025573,0.228111,0.152903,0.196988,0.071639,0.129931,-0.070601,-0.045325,0.174112,-0.068483,-0.149378,0.158144,0.112321,0.046272,-0.055468,-0.044872,0.068935,0.03129,0.239027,0.055218,0.079956,-0.061633,0.20966,-0.121398,0.057341,0.22665,0.258747,0.143653,0.221376,0.253689,0.195564,-0.070914,0.241897,-0.076195,0.23359,0.064393,0.083466,-0.084211,0.10807,0.275088,0.044235,-0.060921],[0.108291,0.092924,-0.042907,-0.072365,0.050003,0.074855,0.056109,0.012149,0.071328,0.002742,-0.045286,-0.037619,0.18172,-0.148732,-0.076197,-0.133092,-0.225434,0.054598,-0.082177,0.087673,-0.047351,-0.022392,0.2398,0.042534,0.014818,0.09825,-0.000635,-0.098982,0.121928,0.117311,0.06799,0.117312,-0.072415,0.076807,0.124686,-0.003174,-0.06698,-0.069292,0.022147,0.006394,0.244331,-0.025377,-0.156043,0.008472,0.061639,-0.181713,0.122515,0.147202,0.040994,0.179448,0.118854,0.082294,0.078629,-0.07444,0.114192,-0.038855,0.204028,-0.00942,0.168181,0.060038,0.081178,0.168326,-0.054784,-0.085454],[-0.060197,0.078305,0.073589,-0.03965,0.120136,-0.126231,0.052567,0.135014,0.061718,-0.096057,0.035315,-0.07633,0.125555,-0.098517,0.052968,0.087107,-0.092395,0.140456,0.071511,0.073753,-0.075597,0.008595,0.108417,0.015476,0.105941,0.115476,0.008508,0.129175,0.087895,0.007763,0.017694,-0.039348,0.064298,0.047877,-0.081597,0.077523,-0.090957,0.05463,0.104455,0.031087,-0.045975,-0.133834,0.031774,0.162217,0.137068,-0.047841,-0.119717,-0.052473,0.148731,0.053183,0.076778,0.027707,-0.042652,-0.057775,0.099322,0.039479,0.100433,0.02481,0.162076,0.079046,-0.110121,0.072035,0.063226,-0.056902],[-0.050743,0.003274,-0.080474,-0.092852,0.118961,0.020182,0.002992,0.097142,0.051743,-0.127153,0.142418,0.086322,0.015631,0.069431,0.010142,-0.137736,-0.092842,-0.004752,-0.019081,-0.084956,-0.087036,-0.071028,-0.077225,-0.05077,-0.030759,-0.028834,0.024171,-0.049486,0.084904,-0.042075,0.060731,0.020258,-0.091122,0.017309,0.019782,0.047867,0.006057,0.08544,-0.035824,0.078449,-0.045741,0.068149,-0.132613,0.040418,-0.109104,0.01332,0.036621,0.042998,-0.059654,-0.04717,0.059666,-0.029819,-0.074721,-0.070446,0.019903,-0.093743,-0.057324,-0.100943,-0.03999,0.013206,0.059009,-0.158565,-0.045017,-0.061799],[0.041053,-0.049435,-0.052412,-0.02193,0.099301,0.059237,0.0106,0.094318,-0.0191,-0.103153,-0.072187,0.002051,-0.119421,0.020991,0.112725,0.022435,0.00802,-0.060148,-0.010172,-0.025587,0.013587,-0.019313,0.008699,0.008612,0.123699,0.048724,-0.066303,-0.084448,0.020709,-0.00186,0.008182,-0.007759,0.085083,0.069678,-0.05844,-0.110587,-0.048725,0.041859,0.062589,-0.044119,0.08548,-0.044436,0.077618,0.029126,0.041108,0.041598,0.038728,-0.100829,-0.005595,-0.074255,-0.007358,0.12235,-0.074734,-0.111339,-0.077115,-0.076477,0.098265,-0.120958,-0.096296,0.051876,0.096969,-0.041969,0.071002,-0.102295],[-0.119904,0.063632,-0.077016,-0.072677,0.150101,-0.078842,0.094291,-0.08285,0.007411,-0.021828,0.177392,0.028514,0.038553,-0.070524,0.034196,-0.058965,0.063814,0.099585,0.100312,0.08124,-0.039353,-0.086548,-0.061242,-0.050019,0.1342,0.007862,-0.000266,-0.072349,0.046961,0.028405,0.104013,-0.043534,0.094167,0.040586,0.042255,0.052026,-0.079037,0.020608,0.065292,0.083999,-0.071013,-0.008358,0.127738,0.158406,-0.021366,-0.010447,0.050191,-0.097086,0.030197,-0.012558,-0.041049,-0.032131,0.031882,0.050753,0.014505,-0.036018,-0.091514,-0.056385,0.0782,0.078664,0.049189,-0.030787,0.075351,-0.074937],[-0.001824,-0.054189,0.074147,0.080207,0.188324,0.016338,0.005497,-0.075232,0.031932,-0.013653,0.101114,-0.105414,-0.164353,-0.010775,0.002334,0.064478,0.040984,-0.043455,-0.123091,0.004856,0.039896,-0.115339,-0.133831,-0.197235,0.044008,-0.134528,-0.013813,-0.104215,-0.098763,-0.026512,-0.185855,0.0382,0.061393,-0.089531,0.095883,0.097889,0.029031,-0.009445,0.12233,0.059281,-0.026341,0.041502,-0.011083,-0.175533,-0.13198,0.069056,-0.0107,-0.062133,-0.167982,-0.045131,0.003234,-0.233002,-0.022475,-0.098914,-0.160106,-0.044253,-0.234547,0.032897,-0.029869,0.146814,-0.056659,-0.108506,0.023771,-0.185231],[0.083704,0.083435,-0.063472,-0.016781,-0.020741,0.159603,0.209198,-0.009362,-0.00955,0.023033,0.021225,0.037668,0.154693,0.179113,-0.123741,0.074125,0.056836,-0.054357,0.001415,-0.045609,-0.054579,-0.0761,0.20417,0.024145,0.261763,0.135647,0.18078,-0.059543,0.053176,0.020682,-0.028625,0.047941,-0.074947,0.300732,-0.037757,-0.021085,0.067235,-0.025812,-0.068101,0.125887,0.10604,0.015531,0.011788,-0.019373,0.230609,-0.014999,0.08089,-0.048942,-0.044862,0.121345,0.208097,0.060467,0.082998,-0.00026,0.17791,0.110301,0.113867,0.063238,0.14808,0.134004,-0.006289,0.279207,0.079843,-0.00264],[0.146306,0.089736,0.055782,0.117028,0.071636,-0.046285,-0.040648,0.125045,-0.039383,-0.131977,0.084846,-0.111282,0.080338,-0.019441,-0.006386,0.060602,0.006112,0.126835,0.083149,-0.050382,-0.02509,0.05932,-0.016629,0.028639,-0.045689,0.089878,0.15839,0.099024,-0.128992,-0.024521,0.252517,-0.106644,-0.072859,0.032769,-0.106745,-0.068966,0.090288,-0.057707,0.096062,0.081931,0.173575,0.077802,-0.011492,0.038053,0.152195,-0.206935,-0.053709,0.010027,0.167075,-0.058991,0.045705,0.106491,-0.089754,0.109318,0.10229,-0.100085,0.130706,0.099277,0.204704,-0.100731,-0.07794,0.147799,-0.058003,0.134026],[-0.110537,0.053232,-0.081487,-0.121442,0.040943,-0.051065,0.090977,-0.019383,0.100392,-0.07422,0.029579,-0.095818,-0.117436,0.01012,-0.043454,-0.128024,-0.040034,-0.07673,0.013264,0.010585,-0.12592,0.019739,0.004583,0.026359,-0.023439,0.095669,-0.027368,0.072672,0.02275,0.037674,-0.066818,-0.004173,-0.084793,0.116895,0.122637,0.032058,-0.102322,-0.05212,-0.055844,-0.053668,-0.013511,-0.095547,-0.111435,-0.072762,0.056759,0.098772,-0.130113,-0.042388,-0.064519,0.040035,-0.012916,0.091241,0.080339,0.055732,-0.086667,0.008665,0.007644,-0.050133,0.064758,-0.085761,-0.036923,-0.09395,-0.01925,-0.015134],[0.000837,0.053673,-0.066801,-0.11885,-0.068737,-0.124921,0.137777,-0.033286,0.115803,-0.009315,0.034464,-0.003583,0.002918,0.025589,-0.078423,0.066377,-0.026174,-0.051786,0.089618,-0.106551,0.025129,-0.094539,0.081091,0.11955,0.040871,0.167417,0.090605,-0.050983,0.004291,0.002816,0.043127,-0.130456,-0.014985,0.036929,-0.016207,0.04853,-0.12063,0.00363,-0.12266,-0.099428,0.13627,0.009207,-0.045773,0.145726,0.030727,0.096926,0.011748,0.065008,0.141855,0.133113,0.07488,-0.012595,0.023997,0.095792,0.057687,-0.029717,0.043209,0.062368,-0.026765,0.055162,-0.019988,0.109322,0.03209,0.120962],[0.150792,0.056281,-0.106587,0.124303,0.000353,-0.039847,0.12774,-0.038686,0.030957,-0.026285,0.143662,-0.119883,0.098453,0.008293,0.037398,0.039513,-0.042798,0.174224,-0.083224,-0.066325,0.032057,-0.117727,-0.081814,0.061714,0.071978,-0.081802,0.118792,0.005968,-0.005839,-0.070004,0.186543,0.082625,-0.11533,-0.10029,0.099605,0.15066,-0.048823,0.016385,0.113671,-0.034458,0.203781,-0.081653,0.102574,-0.116085,-0.019237,0.102948,0.094629,0.131835,0.015101,0.04895,0.039323,0.14591,0.088198,-0.093163,0.044978,-0.063633,0.070066,-0.082174,0.138851,0.076154,0.04115,0.122053,0.084971,-0.104725],[-0.129155,-0.00152,-0.032487,0.019234,0.017246,-0.073146,-0.088906,-0.075734,0.059469,-0.063282,0.106186,0.108215,0.133532,-0.026434,-0.080006,0.09255,0.038494,0.035977,0.004291,-0.067898,-0.015374,0.062695,0.037877,0.053119,0.010834,0.082875,0.137282,0.053703,-0.077534,-0.140956,0.005762,-0.065521,-0.051536,-0.012965,0.196654,-0.075569,-0.08138,0.013645,0.068749,-0.062493,0.081092,-0.18956,0.0812,0.148811,0.095441,-0.012001,0.020727,0.079111,0.10233,0.12286,0.096953,-0.040124,-0.037792,-0.107262,-0.012897,0.002165,0.21829,-0.06249,0.117371,0.082894,0.122908,0.030806,-0.210103,-0.037032],[0.111187,-0.007622,0.000306,0.093583,0.036272,0.000986,0.048007,-0.150325,0.054307,-0.067863,0.12028,0.009051,0.011287,0.0986,-0.110402,-0.124066,0.130636,0.02925,-0.096155,-0.085963,-0.089621,0.018638,-0.012315,-0.028795,-0.029316,-0.035332,0.003617,0.057868,-0.075978,-0.086721,0.025422,-0.079848,0.035234,0.131531,0.082108,-0.027132,-0.105859,0.003778,0.013224,0.015851,-0.019943,0.013733,-0.038868,-0.02026,0.142469,-0.12348,-0.104993,0.004477,-0.019066,0.075185,0.057108,-0.011687,0.063489,0.068063,-0.10503,0.037088,-0.027104,-0.119678,0.070944,0.06588,-0.057537,-0.047814,-0.092356,-0.065428],[0.007267,0.03534,-0.053188,0.044208,0.13551,-0.05494,-0.125641,-0.033509,-0.071917,-0.034742,0.127282,0.0094,-0.099068,0.049267,-0.102068,-0.03805,0.103512,0.101166,-0.004261,0.03214,-0.011545,-0.06232,0.102581,-0.11153,0.052154,0.001001,0.015111,0.034476,-0.004163,0.11242,0.083885,-0.100923,0.059152,0.11402,-0.018426,-0.122769,0.024456,0.105346,-0.046285,-0.060419,0.033699,0.074741,-0.040927,0.070724,0.116154,0.016035,0.051699,0.044572,-0.115183,-0.065923,0.01009,0.102531,-0.063273,0.093436,0.035526,-0.096187,0.081409,0.012073,0.016408,0.008266,-0.086225,0.052448,-0.018749,0.048655],[0.092551,-0.048522,-0.026537,-0.083879,0.159974,-0.107267,-0.048792,-0.072768,0.035869,0.010372,-0.015064,0.039273,-0.083875,-0.028628,-0.040754,-0.14634,0.088313,-0.010233,-0.12284,-0.001347,0.070605,0.09757,0.064163,-0.046797,0.052586,-0.072188,0.08257,-0.033495,-0.115887,0.076925,-0.045902,0.100475,0.006048,-0.052862,0.030451,-0.088884,-0.090625,-0.119402,-0.116593,-0.063755,-0.062033,-0.027305,-0.058196,0.027065,0.031267,0.014871,0.081294,0.11638,0.041693,-0.019262,-0.110978,-0.067356,-0.121322,-0.114087,0.11351,0.042854,-0.003921,0.105742,-0.149868,-0.057587,0.061774,-0.056125,-0.093132,-0.105872],[0.104395,-0.08139,-0.108686,-0.02412,-0.002907,0.077598,-0.02196,-0.067438,-0.196613,0.065763,-0.130356,-0.019263,0.181349,-0.060956,0.116336,0.07317,0.094156,0.024579,0.075459,-0.107592,-0.109787,-0.096907,0.130555,0.035613,-0.045153,0.077164,0.11562,-0.04087,0.07501,-0.033118,0.095343,-0.082055,0.001728,0.009494,0.140334,0.108072,-0.011435,0.085053,0.111229,0.034052,-0.04089,0.181261,-0.139898,-0.107855,-0.030684,-0.081625,0.000156,0.141188,0.151171,0.100592,-0.007392,0.025295,0.015674,-0.006798,0.0045,0.05648,-0.032057,-0.101601,-0.020578,-0.034959,-0.101509,0.002311,-0.078417,0.123138],[0.197967,0.083894,0.004772,0.105712,-0.122236,-0.066001,0.163219,0.105688,-0.163425,0.011915,0.150264,0.105273,0.29272,0.154151,0.012192,0.078204,-0.282847,0.066932,-0.051206,0.08258,-0.053238,-0.063128,0.160645,0.361273,-0.064086,0.005654,0.303981,0.158526,-0.01553,0.151922,0.196878,-0.051009,-0.171094,0.17661,0.066093,0.076298,-0.054316,-0.014172,0.061243,0.061736,0.420557,0.029627,-0.053277,0.090863,0.157495,-0.081513,0.020448,0.258074,0.182261,0.221838,0.324233,0.347361,0.048255,0.032174,0.332713,-0.07567,0.140949,0.117368,0.230841,0.082997,0.096523,0.259986,-0.121429,0.142607],[0.075432,0.117558,0.120844,-0.084185,-0.000898,0.125915,0.062059,0.01203,0.062553,-0.119088,-0.149067,0.070114,0.094481,-0.098833,0.043158,-0.067704,0.107074,-0.008226,0.064812,0.103959,0.056408,-0.044711,-0.080273,-0.090855,-0.192294,-0.038638,0.01451,-0.13116,-0.024165,-0.091545,-0.027899,-0.100734,0.135126,-0.000284,0.155676,0.055994,0.059462,-0.124133,0.005066,-0.067114,-0.153327,-0.000837,-0.096198,-0.101057,0.074694,0.050067,-0.082379,0.038691,-0.118691,-0.071665,-0.221903,-0.10139,-0.111743,0.11014,-0.165751,-0.022695,-0.135271,0.107077,-0.135051,-0.086625,-0.101986,-0.035035,0.011506,-0.045261],[-0.031567,-0.001521,-0.050554,0.072613,-0.009352,-0.032036,0.024237,0.081062,-0.048104,-0.11928,0.006736,0.120095,-0.088717,-0.038315,-0.030839,-0.064132,-0.081838,-0.091095,0.007082,-0.055548,-0.123719,-0.030548,-0.021606,-0.089136,-0.057355,-0.118767,-0.011683,0.078654,-0.025562,0.104027,0.037071,-0.030077,-0.099192,0.102848,0.054341,0.110943,-0.09022,-0.095075,-0.117056,0.076195,0.01944,0.01313,0.07416,-0.046518,0.060467,-0.034155,0.003472,0.058587,-0.064729,-0.11509,-0.104507,-0.075853,0.086156,-0.062497,0.040636,0.110352,-0.099441,0.093494,0.088351,-0.027508,-0.041666,0.066462,0.09917,-0.033295],[-0.111864,-0.105223,0.004363,-0.113109,0.124117,0.011632,-0.023003,0.03483,-0.076136,0.103651,0.15356,0.07191,-0.086407,-0.035066,-0.007556,0.022095,-0.094128,-0.024041,-0.028108,0.014581,-0.004422,0.01406,0.132257,-0.080589,0.091159,0.064002,0.045842,-0.071942,0.066815,0.032898,-0.05132,-0.009135,-0.028263,0.14529,0.10683,0.075436,0.104197,-0.010956,-0.059728,-0.057046,-0.066358,-0.027958,0.10163,-0.081376,0.082964,0.041569,0.107295,0.057815,0.096506,-0.028341,-0.019696,0.097623,-0.056509,-0.003736,-0.003098,0.083909,0.144839,-0.051485,0.111329,-0.037688,0.054987,-0.095663,0.069111,0.013647],[-0.126307,0.031368,-0.013341,0.045902,0.018373,-0.044986,-0.049743,0.112473,0.003465,-0.105488,0.08838,-0.047947,-0.063738,-0.075576,-0.000584,0.002932,0.049989,0.132678,0.088897,-0.093981,0.059806,0.094843,-0.059384,-0.124454,0.062177,0.068911,0.012053,0.021135,0.094576,-0.030407,-0.093737,0.035628,-0.088856,-0.106204,0.062061,-0.04166,0.057453,0.046356,0.073257,0.128189,-0.10429,0.006506,-0.013108,-0.117462,-0.083723,-0.058454,-0.118282,0.092837,0.023991,-0.049982,0.02998,0.036027,0.090267,0.023039,0.084848,0.117751,0.093779,0.040051,-0.005705,-0.122827,-0.061015,0.006835,0.111017,0.025716],[0.084369,-0.057941,0.109874,0.030022,0.013399,0.036769,-0.067969,0.139068,0.001839,0.039234,-0.045152,-0.028893,0.078293,-0.140723,0.05032,0.100538,-0.047246,0.063829,0.061,-0.132886,0.106313,0.053458,-0.066798,-0.070845,0.052384,0.081481,-0.084642,-0.071317,-0.121244,-0.038832,0.1289,0.010524,0.002798,0.062215,-0.022669,-0.130321,-0.092831,-0.14508,-0.069911,0.067547,0.011899,0.02005,0.073779,0.040451,-0.011377,0.135667,-0.04645,0.010621,-0.004525,0.013786,-0.14414,0.091658,0.052792,0.120209,0.038821,0.01123,-0.0986,-0.129159,-0.226716,0.022542,-0.115697,-0.098788,-0.078184,0.005506],[0.119941,-0.0676,-0.093381,0.089776,0.069434,0.062941,0.023819,0.115218,-0.137545,0.03856,-0.040096,0.02928,0.128222,0.098419,0.050962,0.053638,-0.038604,0.105535,-0.068678,-0.092276,-0.019969,0.046861,-0.072003,0.082906,0.102545,0.156637,-0.103566,0.115935,0.037058,-0.116338,0.070631,0.068384,0.057884,-0.091685,-0.09866,0.085583,0.04316,-0.077822,0.110381,-0.040862,-0.03805,0.133061,0.008212,0.129344,0.162164,0.063683,-0.04817,0.001272,0.160338,-0.055953,-0.051101,-0.00724,-0.023708,-0.011837,-0.091017,-0.102761,0.115662,-0.122222,-0.120279,0.106545,0.132242,0.048348,-0.003007,-0.006073],[-0.012711,-0.017154,-0.091177,-0.120767,-0.083438,0.04555,-0.048164,0.173907,-0.087025,0.043233,-0.194456,0.002135,0.022257,0.132105,-0.081719,-0.034973,-0.072746,0.043017,0.004784,0.093719,0.048322,-0.083549,0.126213,0.103843,0.071434,0.119967,0.179674,0.0102,0.006632,-0.147619,0.124322,0.088764,-0.036672,0.089666,-0.033999,0.042377,0.08694,-0.029519,-0.109943,-0.102939,0.006146,-0.075359,-0.028515,-0.120666,-0.004763,-0.117179,0.039026,-0.059526,0.134964,0.189358,0.052204,0.141733,0.072103,0.047904,-0.006699,-0.020306,0.124974,0.080333,-0.021933,-0.118417,0.15011,0.117876,0.066087,0.08632],[0.014434,-0.050636,-0.094017,0.019973,0.074416,0.113967,0.06253,0.101868,0.062102,-0.009514,0.011479,-0.087871,0.160695,0.009452,0.016881,0.012219,0.072248,0.061918,-0.039402,0.037193,-0.073655,-0.125716,0.005905,0.205207,0.052568,0.170923,0.19494,0.104262,-0.040949,-0.004377,0.254393,0.000596,0.036608,0.088489,-0.060382,0.102024,-0.047067,0.120375,0.018818,-0.05263,0.075453,0.116132,-0.064598,-0.149739,0.13699,-0.087532,-0.106452,-0.015484,0.26455,0.041565,-0.028012,0.082581,-0.063572,-0.037389,0.072585,-0.009034,0.141247,-0.078316,0.185502,-0.103739,-0.101336,0.01543,0.010122,-0.069236],[-0.063897,0.094941,0.073008,-0.033009,0.086724,-0.090344,-0.067044,-0.130779,-0.033343,-0.05162,-0.035783,-0.05754,-0.076257,0.054354,-0.021886,-0.118681,0.112008,-0.000159,-0.044921,0.053672,-0.008534,-0.049548,0.036184,-0.010294,-0.063822,-0.054494,-0.010944,0.024104,-0.018388,-0.02917,0.032268,-0.129184,0.031202,0.002048,-0.056989,-0.144427,-0.020898,-0.079522,-0.096379,0.083375,0.053985,-0.036218,0.089984,0.076555,0.074212,-0.058191,0.08791,0.011533,-0.053807,0.050357,0.032091,0.094202,-0.158379,-0.099838,-0.109796,0.086034,-0.059596,-0.112945,0.015096,-0.092074,-0.109646,0.036245,0.097032,-0.016491],[0.089142,0.1173,-0.101461,-0.001644,0.00104,0.09625,0.122445,0.071539,-0.014801,0.062652,-0.095823,-0.01789,-0.057481,-0.007339,-0.081554,0.092723,0.084042,-0.087812,0.017014,0.065174,-0.104818,-0.078767,-0.033415,-0.016019,-0.047697,0.121329,-0.028821,0.075949,-0.110193,-0.002957,-0.052983,0.000219,-0.033662,-0.072115,0.007677,0.084783,0.100824,-0.09015,-0.08086,0.086199,-0.03968,0.012481,0.001465,-0.102493,-0.052987,-0.032203,0.00292,-0.039574,-0.021289,0.065446,-0.092242,-0.019919,-0.044471,-0.024855,0.106241,0.088731,0.1139,-0.110808,-0.070406,-0.107147,-0.088905,0.079245,0.029044,0.066582],[-0.123755,0.014277,-0.118483,-0.04327,0.1046,-0.098556,0.088326,-0.112843,0.124748,0.103722,-0.000547,0.115001,0.056171,-0.055285,-0.038432,-0.011809,0.103229,-0.002296,0.088939,-0.088397,-0.084512,0.003842,-0.049852,-0.021522,-0.057183,-0.021378,0.124771,0.062753,0.122566,-0.035871,-0.085053,-0.104224,-0.074817,0.014018,-0.00987,-0.019944,0.051272,-0.091389,-0.088786,-0.084372,0.08801,0.054054,0.0913,-0.087846,0.116126,-0.092588,0.007417,0.020826,-0.106653,-0.026377,-0.060016,0.004447,0.111884,-0.051978,0.054819,-0.099786,0.103974,-0.023513,0.108739,0.076189,-0.120865,0.11624,-0.04626,-0.08],[0.112977,0.05726,-0.105999,0.026003,0.04517,-0.009492,0.112218,0.058686,-0.12412,-0.015074,-0.048916,0.070966,-0.008578,0.124617,-0.035789,-0.098597,-0.039854,0.060222,-0.089131,0.013672,-0.075387,0.061856,0.037306,0.017009,0.068317,0.077462,0.10376,-0.000581,0.051439,-0.07187,-0.000322,-0.10669,0.104973,0.03915,-0.113423,-0.080353,0.08302,-0.038745,-0.023511,-0.011548,-0.035755,0.029999,0.006071,0.019848,-0.025392,-0.080478,-0.101015,0.108609,-0.1052,0.008577,0.112189,-0.113825,-0.096546,-0.010486,0.110608,0.019128,-0.023843,0.005361,0.056956,0.055947,0.022356,0.04823,-0.096902,-0.092447],[0.015821,-0.003311,-0.040827,0.118062,-0.082853,0.097267,0.16508,0.012271,-0.083232,0.03769,0.015195,0.0023,-0.202797,-0.002848,0.039239,0.108785,-0.016785,0.067852,0.013779,-0.070761,-0.053772,-0.11273,-0.116538,-0.147841,0.06071,-0.175253,-0.182026,-0.092149,-0.034929,-0.064438,-0.00488,0.010466,0.037865,-0.075986,-0.149111,-0.070805,-0.048329,-0.035376,0.064359,-0.03101,-0.171913,-0.042231,0.153334,-0.055556,-0.075817,-0.065278,-0.022081,0.053269,-0.001619,0.058841,-0.098251,-0.109914,-0.150143,0.00923,-0.172553,0.084837,-0.018655,-0.088058,-0.006598,-0.042675,0.006632,-0.138849,0.082111,0.045553],[-0.062794,-0.079162,-0.016111,-0.084853,-0.037826,0.079106,0.09644,-0.014193,0.013298,-0.06225,0.072557,-0.109384,0.062609,0.080413,0.069052,-0.028216,-0.11943,0.067192,-0.107158,-0.038946,-0.001307,0.051402,-0.041705,0.030417,0.158959,-0.009994,0.123391,0.110361,0.087567,-0.074573,0.148069,-0.070119,0.074235,0.080046,-0.077354,-0.005007,0.111902,-0.063769,-0.041933,-0.016702,-0.01878,-0.035538,0.063678,0.082287,-0.012812,-0.135329,-0.070696,0.054558,0.114321,0.040613,-0.048969,0.043964,0.107088,-0.097482,0.132724,-0.115688,0.121561,-0.053664,0.136828,-0.090351,0.109173,-0.031419,-0.004527,0.107203],[-0.083241,-0.082769,0.079194,-0.045923,0.020407,0.030343,0.060226,-0.101524,0.069457,0.023912,-0.093685,0.002892,0.053647,0.016682,0.118136,0.005064,0.095651,-0.00861,0.083738,-0.020487,-0.01475,-0.0621,0.101237,0.143262,-0.007679,-0.016848,0.135026,0.040557,-0.077852,-0.015332,-0.003905,0.067454,0.084318,-0.075238,0.125472,0.05097,-0.058706,0.035269,-0.115286,-0.058818,0.043673,-0.05205,-0.018639,0.123073,0.06692,-0.083825,-0.108088,0.028574,0.147424,0.131512,-0.090559,0.049615,0.033316,0.004395,-0.054124,-0.031873,0.154753,0.061542,-0.016346,-0.055794,0.120346,0.010828,-0.086953,0.013993],[0.040917,-0.087236,0.080706,-0.070242,0.001822,-0.037983,0.028963,0.058468,-0.050988,-0.073678,-0.020515,0.091656,-0.02116,0.033528,-0.078926,-0.116857,0.019876,-0.046715,-0.050543,-0.091083,0.067682,-0.006521,0.138973,0.232416,-0.132601,-0.068228,0.024649,-0.054267,-0.097743,-0.039287,0.163088,0.049309,-0.023247,0.015503,0.074223,0.17197,-0.048144,-0.086051,-0.010502,-0.07415,0.174795,-0.108264,-0.080455,0.119574,0.105328,-0.034907,-0.020974,0.109695,0.023193,-0.087732,-0.01743,0.038825,-0.13442,0.11585,0.110833,0.03718,0.163461,-0.12496,0.08291,-0.110061,0.033735,0.093348,-0.063288,-0.081323],[-0.060231,-0.048078,0.095485,-0.037699,-0.03698,-0.088811,-0.022332,-0.023824,-0.124928,0.077243,-0.011043,-0.091975,0.031791,-0.040523,0.010445,-0.097394,-0.106168,-0.016935,0.030292,-0.019951,-0.104263,0.017121,0.13583,-0.020236,0.069385,-0.021211,0.026523,0.097836,0.099447,0.049823,-0.006847,-0.042895,-0.047667,-0.062248,-0.009595,0.050276,-0.090732,0.006037,-0.010221,0.007958,-0.069867,-0.080653,0.118178,-0.006868,-0.071288,-0.006823,-0.125366,-0.095642,0.108872,0.036731,0.010283,0.111535,-0.107329,0.032889,-0.0921,0.016264,0.030814,-0.061984,0.046719,0.065905,0.134644,0.090526,0.050151,0.115291],[0.032619,0.108505,-0.071223,0.102213,-0.02208,-0.068662,0.058911,0.086992,0.066965,-0.082392,-0.1506,-0.11054,0.247563,-0.100246,0.082164,-0.086187,-0.0762,0.035824,-0.010303,-0.001588,0.037499,-0.002393,0.044369,0.236601,0.056023,0.083969,0.156024,0.06059,-0.122933,-0.092565,0.004691,0.037444,0.036969,0.074004,0.107211,0.005031,0.033994,-0.134603,-0.118754,-0.10079,0.017408,0.111542,-0.02925,0.069492,0.090586,0.084462,0.001633,0.018757,0.208076,0.037548,-0.009039,0.062343,-0.03601,-0.05171,-0.000569,0.069389,0.184393,-0.120076,-0.10608,-0.024947,-0.060635,0.003658,-0.12567,-0.050583],[-0.08641,-0.059728,0.033653,-0.000302,-0.054361,-0.06785,-0.006707,0.046235,-0.066824,-0.024558,-0.099247,-0.073778,-0.039179,-0.009145,0.011356,-0.10865,-0.002787,0.026576,-0.047083,0.073571,-0.061515,-0.01909,0.075222,-0.011708,-0.033029,0.09747,-0.029024,0.024335,-0.059925,-0.051002,0.008706,-0.017361,-0.014093,-0.024557,0.076908,-0.080499,-0.096908,0.087302,0.013146,-0.008981,0.133813,0.117815,-0.006057,-0.103628,0.142317,0.079723,-0.04555,0.111759,0.112078,0.124695,0.107769,0.09058,0.022358,-0.026598,0.009188,0.071972,0.104375,0.012377,-0.109504,-0.118031,0.018237,0.071189,0.08518,0.045691],[-0.139553,-0.109138,0.086273,0.090009,0.078195,0.179157,0.102534,0.047256,-0.090163,-0.087401,-0.07893,0.032555,0.114352,0.086904,0.049127,0.024972,0.024776,0.040026,-0.034417,-0.100534,0.026201,-0.081725,-0.052362,-0.042732,-0.020278,0.152976,0.084152,-0.028845,0.167508,0.085647,0.062922,-0.060103,-0.051229,0.16542,0.024392,-0.151598,-0.032709,0.111559,-0.084587,-0.090135,-0.121116,0.087507,0.12899,0.087224,0.122695,-0.138075,-0.075717,-0.027979,-0.064407,-0.025012,-0.068519,0.030442,-0.139678,-0.063525,-0.026019,-0.017038,-0.057135,0.032976,0.099991,-0.10795,-0.114049,0.05,0.065849,-0.070563],[0.045335,0.013941,-0.113619,0.058284,0.136186,0.014347,0.039784,-0.064144,0.059687,-0.089951,-0.094906,-0.089933,-0.059504,0.098363,-0.100494,0.053018,-0.010776,0.120898,-0.107115,-0.000996,0.074168,0.00319,-0.08382,0.000911,-0.0275,-0.038473,0.061188,-0.049509,0.016165,0.077501,0.161804,-0.071618,0.045235,0.023592,-0.079653,0.107552,-0.110036,-0.0476,-0.103108,0.042855,0.109477,0.113393,0.084929,0.068296,0.159712,-0.13428,-0.011699,0.163176,-0.060721,-0.045245,0.091245,-0.035859,0.03326,-0.074344,-0.052457,0.070605,-0.080535,0.035398,0.057642,0.015019,0.053696,-0.100741,0.017829,0.061391],[-0.032752,0.105429,-0.028788,-0.073588,-0.016263,0.037609,0.04892,0.071611,0.147511,0.078057,0.091242,0.048439,-0.139457,-0.169261,-0.07937,0.086679,-0.104391,-0.086195,-0.04229,-0.092857,-0.060301,0.056342,-0.006501,0.110494,-0.150905,-0.048022,0.047503,0.097504,0.042118,0.195332,0.150501,-0.016335,-0.054974,-0.080998,0.086323,-0.050259,-0.040891,0.098522,-0.111135,0.050385,0.151525,0.089737,-0.09298,-0.154233,-0.153937,-0.086104,0.027874,-0.064417,-0.016288,0.083236,-0.122284,0.094917,-0.152519,0.020749,-0.109914,0.128347,0.025498,0.094514,-0.031916,-0.104986,0.01579,-0.092854,-0.100604,-0.045571],[-0.06717,-0.000847,-0.067815,-0.050572,-0.05656,-0.021497,0.120594,-0.043666,0.060366,-0.059031,-0.160091,-0.004136,0.089234,0.119933,0.034698,-0.111023,0.069085,0.028257,-0.026785,-0.008298,-0.113235,0.043057,-0.02405,0.076298,0.072193,-0.036304,-0.031304,-0.103281,0.111431,-0.08199,-0.064737,0.033613,0.103187,-0.002609,-0.102299,0.056455,0.01787,0.093486,-0.065612,-0.016985,0.083017,0.001003,-0.085612,-0.053966,-0.044923,-0.051409,0.096782,-0.045994,0.006208,0.132128,-0.10142,-0.061021,0.010859,-0.029948,-0.068662,0.104001,0.038681,-0.075541,-0.044427,0.070091,-0.032519,-0.069736,0.070772,-0.055056],[-0.008753,-0.037883,-0.003951,-0.064175,-0.098021,-0.066437,-0.015376,0.036799,-0.026916,0.035192,0.088143,0.121868,0.057989,0.103888,-0.048941,0.066243,0.078188,0.069521,-0.001513,0.074578,-0.098455,-0.070675,0.04131,0.120327,-0.032182,-0.011871,-0.029543,0.064224,-0.117839,-0.097993,0.049169,-0.113196,0.023934,-0.072621,-0.043073,0.043823,-0.010252,0.07314,0.027027,-0.009832,-0.093544,0.025305,0.043984,0.082996,-0.012048,-0.008977,0.124166,-0.020753,-0.03761,-0.01021,0.021515,-0.08174,-0.079617,-0.037549,-0.088232,-0.107105,-0.041047,-0.017385,0.123168,0.006123,0.062009,0.050993,-0.029273,0.072337],[0.079987,0.004182,-0.095346,-0.110436,0.099968,-0.167362,0.035548,0.07996,0.022739,-0.053432,-0.048712,0.085566,-0.016931,0.011684,-0.078795,0.046128,-0.115887,0.119436,-0.096221,-0.032424,-0.028207,0.012637,-0.027201,0.166958,-0.140475,0.053121,-0.002017,0.043154,-0.164574,-0.053749,0.006678,0.096099,-0.133971,-0.02378,-0.01162,0.01503,0.001352,0.097909,0.007829,0.108252,0.203242,-0.031908,-0.097536,0.095624,0.076556,0.021068,0.086793,0.098461,0.000182,0.081255,0.123329,0.049011,0.106758,-0.0758,-0.035399,0.066962,0.041344,-0.011234,-0.043741,0.01202,-0.047102,0.037956,-0.079842,-0.061807],[-0.045872,-0.011275,-0.045883,0.035992,0.045781,0.108623,0.082566,0.053608,-0.08304,0.050814,0.07762,0.04528,-0.080779,-0.120661,-0.027175,0.015957,0.10128,0.160102,-0.098838,-0.109103,0.03491,-0.028105,0.117837,0.155284,-0.003072,0.123861,-0.060945,0.048517,0.006823,-0.106514,0.169007,0.019165,0.085853,0.015495,0.054555,0.056217,0.057671,0.039452,0.04777,-0.074573,0.116728,0.018442,0.11082,0.05386,-0.104568,0.104439,-0.01584,-0.067446,0.054936,0.05795,-0.050662,0.041398,-0.019338,-0.020665,0.085814,-0.001845,0.159783,-0.025201,-0.034188,0.041138,-0.055184,0.082963,0.048239,0.018915],[-0.082472,-0.045899,-0.100429,0.04361,-0.135053,0.048446,0.095039,-0.022394,0.084386,0.095005,-0.061877,-0.095685,-0.043767,0.179479,0.071896,-0.04715,0.0154,-0.00527,-0.025208,0.063051,-0.066257,-0.001219,-0.009222,0.10916,-0.089371,0.188602,0.035898,0.198983,-0.040853,0.056442,-0.031107,0.011969,-0.027814,-0.015343,0.086338,-0.023513,-0.089577,-0.191373,0.121456,0.104243,0.210894,0.063026,-0.04358,-0.007258,0.149651,-0.178662,-0.056317,0.082675,0.095323,0.068186,0.000873,0.050469,0.112702,-0.116128,-0.060636,0.036237,0.009192,0.027053,0.062356,0.025007,-0.049303,0.111978,0.087274,0.118676],[0.046806,0.00345,0.00282,0.105334,0.09106,-0.186759,-0.255468,0.048683,0.158456,0.004095,0.077908,0.027597,-0.075968,0.004419,-0.07687,-0.059534,-0.12692,-0.031395,0.075963,-0.0538,-0.099208,0.043096,0.055562,0.248501,-0.13847,0.048372,0.043816,0.047423,0.074287,0.223782,0.164361,0.030233,0.117828,-0.013676,0.081229,0.050438,0.060232,-0.014218,0.072746,-0.130306,0.080633,0.082004,0.053016,-0.174016,-0.045211,0.108585,0.007217,-0.130322,0.00864,0.005097,0.143328,-0.093553,-0.114934,-0.035166,0.155597,0.023226,0.094449,-0.055383,0.161478,-0.102396,0.087096,0.023583,-0.008099,-0.133364],[0.15499,-0.121911,-0.058207,0.004958,0.066665,-0.082155,0.022548,0.016343,0.089654,0.088005,-0.040851,-0.01863,0.088246,-0.061875,0.02729,-0.016312,0.090842,-0.058997,0.096205,-0.052895,-0.130289,0.020963,0.024404,0.00538,0.03448,-0.064759,0.04423,0.029747,-0.024091,0.091552,0.055419,0.005931,-0.122654,-0.096439,-0.142031,0.042662,0.005768,-0.064021,-0.037544,-0.00628,0.006272,-0.026803,0.095282,0.14539,0.003777,-0.175718,0.028712,0.031749,0.126461,0.050948,0.048681,-0.032135,-0.05086,-0.089485,0.110409,-0.079057,-0.081911,-0.112885,-0.055997,0.081051,-0.057153,0.005412,-0.035162,0.10774]],"biases":[0.099273,-0.075488,-0.017839,-0.124261,-0.07059,0.108742,0.139513,-0.027516,-0.013378,-0.041171,-0.102184,0.024132,0.094675,0.104013,-0.120599,-0.086799,0.060323,-0.067555,-0.124334,-0.085394,-0.108323,-0.09749,0.029512,-0.000212,0.132434,-0.023812,-0.049681,0.048111,0.103195,0.069871,0.05946,-0.00303,0.096397,-0.032019,0.052898,0.007601,0.005529,0.102165,-0.060192,0.121118,-0.066893,0.100273,0.133745,-0.042486,0.11522,0.053023,-0.124139,-0.012027,0.040742,0.141689,0.089561,0.048441,0.063865,-0.12466,0.022611,0.097678,-0.018444,-0.094379,0.134254,-0.087982,0.079649,0.009466,0.107097,0.006697]},{"weights":[[0.054292,0.181909,0.092051,-0.073201,0.132627,0.085341,0.012521,0.065602,-0.040863],[-0.010351,0.092,-0.033154,0.055972,-0.099987,-0.065312,-0.050113,0.047483,0.09033],[0.113412,0.051993,0.023332,-0.082905,0.095281,-0.020051,0.096877,0.025594,0.079038],[0.099472,0.043114,0.074906,-0.088535,-0.080724,-0.036944,-0.005626,0.018295,0.031739],[-0.011322,-0.13703,0.160783,0.036076,-0.112308,0.020627,-0.069069,-0.127964,0.091908],[0.063206,-0.057638,-0.135152,0.145795,-0.107538,0.026273,-0.132221,0.138931,0.030215],[0.150112,0.110366,-0.121292,0.028005,0.151168,0.082064,-0.064393,0.024006,-0.031215],[0.186968,0.114638,0.122939,0.083694,0.009725,-0.04787,0.079645,0.084622,-0.008887],[0.091818,-0.076936,0.076705,-0.081863,-0.050396,-0.088475,0.047629,-0.082392,0.101904],[-0.037599,0.111965,0.040812,-0.043788,-0.070601,0.040572,0.063258,-0.004037,0.083761],[0.123561,0.022312,0.145728,0.098301,0.022935,0.120756,-0.027521,0.247783,0.214207],[-0.010815,-0.003616,0.01757,-0.119887,-0.105822,0.083836,-0.096084,-0.109641,-0.084503],[0.124282,0.073416,0.008948,-0.00355,0.101703,0.1711,0.191371,0.149628,0.225779],[-0.076458,0.08089,-0.113805,0.088079,0.110266,0.058243,-0.060799,0.021172,0.173149],[-0.058446,0.078071,0.103419,-0.028258,0.123311,0.08654,0.023727,-0.028704,-0.037092],[0.025382,-0.054283,-0.011709,-0.022422,-0.116596,-0.112882,-0.066431,-0.072711,-0.10554],[-0.085046,-0.167558,-0.089887,0.088208,0.002417,0.116183,0.040353,-0.137857,0.08396],[0.056179,-0.006922,0.087392,0.149764,0.15068,0.030448,0.076272,0.048574,-0.102433],[-0.000467,-0.121657,0.069821,0.077654,-0.034074,0.08095,-0.077475,0.047352,0.018863],[0.026412,0.004572,-0.078217,0.082035,-0.035555,0.006714,0.098982,0.030069,0.118587],[0.096063,-0.05167,0.024254,0.035408,0.082276,-0.046381,0.117206,0.006346,-0.027919],[0.107573,0.018904,0.109498,0.120446,-0.050798,-0.109586,-0.120767,0.107516,-0.071802],[0.073237,0.126495,-0.068956,-0.074383,-0.006704,-0.00472,0.120146,0.089691,0.030187],[0.143465,0.149435,0.179244,0.157134,0.138784,0.128121,0.167289,0.134641,0.151698],[-0.065399,0.141513,-0.140119,0.054849,0.084965,0.113843,0.114134,-0.078913,0.018794],[0.068609,0.042659,-0.056969,0.163256,0.129709,-0.081883,0.103912,0.072856,0.128408],[0.028223,0.027395,-0.072473,-0.079251,0.005396,0.174715,0.120796,0.154982,0.168867],[0.109188,-0.050569,0.076634,0.130097,0.140356,0.018867,0.125969,0.005676,0.144138],[0.111426,0.012171,-0.162972,0.085255,-0.119431,0.043097,0.100333,-0.092803,-0.029697],[0.11788,0.119899,0.124666,0.130706,-0.100853,0.027368,0.114857,-0.01865,0.108181],[0.157174,0.026691,0.103999,0.229084,0.053218,0.119105,0.03406,0.109033,0.038388],[0.074309,0.120734,-0.021846,0.122942,-0.098021,0.106842,-0.100506,-0.007537,-0.098622],[-0.076234,0.027741,0.026565,-0.00102,-0.087647,0.10131,-0.122416,-0.133944,-0.04184],[0.095874,0.06417,-0.153184,0.109789,0.003029,0.133534,0.007407,0.107892,0.119515],[-0.084266,-0.120732,0.004294,-0.077497,-0.035603,0.003342,0.072216,0.08001,0.045907],[0.137835,-0.008723,0.164165,0.097966,-0.011527,0.037221,0.202609,-0.026633,0.152564],[0.093575,-0.030149,0.074014,0.035117,-0.004943,0.09869,-0.035741,-0.0041,-0.070928],[0.125569,-0.072173,0.027453,0.08828,-0.109364,-0.115348,-0.035759,0.013724,0.036364],[0.066469,0.063409,-0.057567,0.124506,0.122524,-0.023986,-0.070249,-0.06926,-0.000808],[-0.10962,-0.005224,-0.028211,-0.008379,0.096721,0.166746,-0.010793,-0.076955,0.112743],[0.240891,0.096011,0.226207,0.056527,0.1259,0.184138,0.191123,0.064866,0.127692],[0.121106,0.037707,0.049339,0.130331,0.046825,-0.084294,-0.102654,0.125708,-0.038902],[-0.057219,0.092391,-0.046909,0.072457,0.124024,0.128776,-0.057468,-0.087072,0.184438],[-0.04779,-0.024242,-0.02567,-0.060158,0.107862,-0.096919,0.122599,-0.15197,-0.016807],[-0.039671,0.116154,-0.106879,-0.034196,0.143984,0.119265,-0.084989,0.164663,0.112661],[0.055232,-0.040348,0.115116,-0.146522,-0.141309,-0.089849,-0.025319,-0.04273,-0.100659],[-0.048558,0.034286,0.059283,0.086992,-0.074522,-0.081035,-0.094219,-0.048396,-0.093409],[0.052865,0.007957,0.117812,-0.024839,0.135923,0.039423,-0.073197,0.108211,-0.019456],[0.164194,0.152971,0.075929,0.129625,0.105791,0.142631,0.169731,0.069993,-0.023466],[0.034552,0.162198,-0.121289,0.003775,0.041322,0.161352,-0.029597,0.063103,-0.073604],[-0.015462,0.120032,0.053501,0.132082,0.122746,0.008777,0.17368,0.084162,0.101496],[0.261558,0.079321,0.05261,0.133715,0.0296,0.082875,0.058173,0.11156,0.073081],[-0.114318,0.108323,-0.027789,0.039206,0.10113,-0.064053,0.060529,0.028523,-0.02403],[0.11027,0.010893,-0.025403,-0.004565,-0.037427,0.020216,-0.0244,-0.073234,-0.057615],[0.057451,0.135964,0.008491,0.233675,0.032422,0.035804,0.202028,0.053623,0.068558],[0.009136,-0.022147,-0.025204,-0.11117,-0.097398,-0.047966,-0.074964,0.018625,0.08876],[0.06908,0.139392,0.058414,0.03579,0.053662,0.002137,0.143578,0.17915,0.014986],[-0.079639,-0.105013,-0.003401,0.025799,0.125909,0.119742,-0.065371,-0.016815,-0.00807],[0.096696,0.095856,0.027291,0.017719,-0.005735,0.15266,0.046496,0.203444,0.205852],[0.065828,0.085007,0.012732,0.000179,-0.094216,0.015893,-0.10669,-0.040308,-0.018802],[-0.027172,0.159566,-0.03329,-0.040365,0.073958,-0.107813,0.011294,-0.001754,0.089592],[0.000597,0.198337,-0.077298,-0.058714,0.107137,0.125664,0.130877,0.071622,0.198244],[-0.120803,0.059021,-0.057508,0.025027,0.079268,0.067885,-0.047471,-0.080411,-0.062271],[0.045475,0.103575,0.015111,0.085293,0.134685,-0.009568,-0.046103,-0.094572,-0.023189]],"biases":[0.103218,-0.035078,0.083356,0.083212,0.079847,0.004757,0.032617,0.139091,-0.087691]}]},"round":32,"phase":10,"phaseIteration":2,"trained":"enemies","generation":7,"dominanceMetric":"enemyWinRate","dominanceThreshold":0.6,"dominanceReached":false,"pilotWinRate":1.0,"enemyWinRate":0.0,"averageScore":100.0,"averageWave":1.0,"averageSteps":320.0,"enemyDropRate":0.0,"invalidDropRate":0.0,"enemyFireRate":0.0,"pilotFireRate":0.5}
