{"id":44,"label":"Enemies v44","role":"enemies","model":"sb3-dqn-enemies-v44","actions":["drift_left","drift_left_fire","drop","drift_right","drift_right_fire","fire","dive","loop","scatter"],"features":["target_dx","abs_target_dx","threat_dx","threat_y","bullet_ready","alien_count","wave","drop_ready","enemy_shot_ready","fleet_y","lives"],"network":{"activation":"relu","layers":[{"weights":[[0.164828,-0.149142,0.040898,-0.166437,0.297757,0.359684,-0.401539,-0.044707,-0.079067,-0.303795,-0.451002,0.215551,-0.714152,-0.223608,-0.172923,0.062679,0.124976,0.09265,0.187439,0.199601,0.652782,-0.311827,0.375083,0.36626,-0.141494,0.16646,0.178251,-0.098928,0.115546,-0.476073,0.332739,-0.056847,-0.319964,0.214709,-0.019447,0.136639,0.002334,0.276616,-0.163517,-0.377272,-0.06546,-0.511355,-0.176484,0.0796,-0.040121,0.275837,0.083334,0.09553,0.069751,-0.14836,-0.06319,0.288586,-0.110871,0.185786,0.017962,0.344372,-0.139377,0.059579,0.158751,-0.124504,-0.319356,0.150804,-0.194062,0.083384],[-0.282767,0.225371,0.119301,0.275378,0.121167,0.021381,-0.957795,0.136011,-0.536146,-0.713205,0.507657,-0.180519,0.231983,0.265797,-0.086849,0.142126,-0.345275,0.15556,-0.026506,0.533899,0.094313,0.270344,0.171744,0.252186,0.627375,0.440289,-0.085198,0.013095,0.357219,0.355481,-0.18728,-0.41677,-0.018265,-0.322369,0.213813,0.148059,0.0735,-0.146669,-0.022349,-0.629522,-0.113501,-0.056792,-0.04293,-0.255219,0.283051,0.150886,0.281345,-1.041571,0.24484,0.183169,0.525582,0.436228,0.270706,-0.153986,-0.487413,-0.227924,-0.260844,-0.344397,-0.199224,0.396771,-0.086548,-0.115321,-0.24605,0.045385],[-0.047845,0.063729,0.049949,0.219107,0.076543,-0.10864,-0.093481,0.303184,0.141183,0.127868,-0.390844,0.377753,-0.071622,0.118141,-0.05462,-0.07885,-0.129156,0.206187,0.164468,0.313816,0.336644,-0.2271,0.085697,0.31082,0.065098,0.258838,-0.332053,0.290095,0.232943,0.182303,-0.203599,0.079396,-0.404698,-0.0721,-0.238899,-0.407934,-0.174729,0.150035,-0.186577,-0.871837,-0.115615,-0.172829,-0.064691,0.047036,-0.087346,0.058888,-0.250609,0.224773,0.091945,0.149198,0.218426,0.048299,-0.419239,-0.285102,0.093761,-0.008265,0.07382,-0.200629,-0.146198,0.14617,-0.2543,0.014994,0.252223,-0.150817],[-0.119376,0.158116,0.259098,0.357355,0.393637,0.261273,-0.342666,-0.247833,-0.235159,-0.237594,-0.026133,-0.145841,0.219069,-0.124631,-0.187946,0.087043,0.144804,0.353096,-0.305249,0.139249,-0.166334,-0.138388,-0.164939,0.161233,-0.123736,0.081524,-0.214831,0.092341,0.272752,-0.418883,0.111174,-0.070693,-0.25081,-0.208156,0.423557,0.16932,-0.160581,0.130262,-0.193905,-0.002075,0.334489,0.26206,0.05171,-0.260965,-0.237834,-0.088614,-0.203261,0.04895,0.05495,0.335281,-0.402784,-0.142732,0.395562,0.33334,-0.057229,0.223016,-0.373688,0.045727,0.000433,0.203653,0.21179,-0.176425,-0.324488,0.005316],[0.195786,-0.458902,0.038182,-0.525631,0.097851,0.228914,0.140055,0.233499,0.101022,0.062623,0.043096,0.226643,-0.007248,-0.031951,-0.274058,-0.066898,-0.168222,0.19789,-0.042506,-0.149142,0.033347,-0.428977,-0.211464,0.188693,-0.388061,0.014917,-0.012629,-0.127601,0.102356,-0.159852,-0.130409,0.18893,0.081541,0.203371,0.251194,0.098854,-0.158508,0.138563,-0.005003,0.211106,-0.075909,0.030511,0.273117,0.179117,-0.162106,0.233979,0.106189,-0.144944,-0.196909,-0.062841,-0.040668,-0.302518,0.137836,0.085772,-0.223201,-0.159653,0.281415,-0.049855,-0.201305,0.258123,-0.016848,-0.033494,0.390083,-0.146926],[-0.420892,-0.313278,-0.13413,-0.15378,-0.293002,-0.4568,0.360789,-0.296809,0.430679,0.419378,-0.349621,0.584107,-0.145096,-0.439411,-0.278689,0.010322,-0.472573,-0.494839,-0.408781,-0.158272,0.528536,-0.168894,0.152895,0.174231,-0.272871,-0.48342,0.285092,-0.518101,-0.308795,-0.144485,-0.209428,-0.047635,0.514418,-0.330165,-0.544677,0.531594,-0.110881,0.079009,-0.010548,0.194668,-0.354964,0.024535,0.063235,0.21624,0.151161,-0.148698,-0.261102,0.444649,-0.141211,-0.325486,-0.225984,-0.165904,-0.083311,-0.047305,0.322792,-0.512545,0.356893,-0.186408,0.041023,-0.388528,-0.150871,-0.553252,-0.352995,-0.21205],[0.38509,0.051331,-0.022318,-0.145504,-0.000758,0.384486,-0.177827,-0.079835,-0.237545,0.044572,0.024886,-0.061726,0.028012,0.354236,0.243341,-0.067046,0.229507,0.198664,-0.029497,0.201249,-0.243624,-0.071228,-0.033545,-0.338006,-0.098675,0.069032,-0.06671,0.144094,0.050004,0.206304,0.308842,0.253031,-0.134999,-0.057562,-0.071126,0.05809,-0.220255,-0.234544,0.054174,0.093528,-0.256593,0.376469,0.013929,0.199901,-0.139955,0.090908,-0.117901,-0.31927,0.33416,-0.27197,-0.229496,-0.042347,-0.299346,-0.244838,-0.064121,-0.187451,-0.254966,0.189505,0.245626,0.287501,0.138516,-0.025564,-0.143011,-0.059548],[-0.245408,-0.245392,0.018937,0.179196,-0.047786,0.329034,-0.083794,0.162678,0.193437,-0.19968,0.097766,-0.136873,-0.228974,0.083423,-0.118882,-0.020644,-0.16705,0.143876,0.064629,0.155688,0.201919,0.029827,0.157799,-0.2955,-0.27286,0.29574,0.040654,0.253119,0.028187,0.299147,-0.190276,-0.017181,0.098123,-0.378916,0.164224,-0.084084,-0.292806,-0.087818,-0.02893,-0.066209,0.156511,-0.292247,0.093885,-0.117602,-0.212258,-0.10823,-0.234643,0.038153,0.153165,-0.061311,0.190369,0.062863,-0.092243,0.212374,-0.306405,0.086737,0.256266,-0.034505,-0.174031,0.13518,0.223346,0.335441,0.168171,0.328371],[0.229199,0.257569,0.341588,0.067616,-0.00332,0.325914,-0.120557,0.243545,0.127689,-0.086355,0.006284,-0.077352,0.128903,0.34181,0.071591,-0.1307,0.160368,-0.179244,-0.158715,-0.061882,-0.196161,-0.13297,0.060321,-0.217091,0.127112,0.007439,0.162029,0.279242,0.070937,-0.079037,-0.11839,0.041644,-0.256404,0.240568,-0.186813,-0.202877,-0.257192,-0.175894,0.090725,-0.112287,-0.277016,0.352457,0.209007,0.172843,-0.289016,-0.29603,-0.285751,-0.032265,0.019564,-0.013787,0.129676,0.016862,-0.124256,0.179405,0.234969,-0.072652,-0.049833,0.203229,-0.288734,0.000729,0.039055,0.081285,0.166567,-0.104455],[0.239247,-0.084261,0.410554,-0.223252,0.412504,0.378839,0.194964,-0.234028,-0.260771,0.156986,0.194668,-0.031976,-0.099528,0.413486,0.025332,-0.030394,0.017276,-0.055593,-0.107221,-0.083631,-0.223896,-0.216222,0.128049,-0.171844,0.32028,0.268093,-0.298808,0.188163,0.278878,-0.116507,0.196835,0.208917,-0.059446,-0.106458,0.155598,-0.168307,0.075664,0.30154,-0.012841,-0.117196,0.321013,0.096485,0.298838,-0.009667,0.068101,-0.212418,0.054474,-0.288952,0.145125,-0.041406,0.185624,0.200286,-0.163785,0.179077,-0.049673,-0.079334,0.033596,-0.063986,-0.003904,0.020052,-0.189786,0.012659,0.269672,0.032572],[0.076151,-0.134579,-0.167558,-0.268421,-0.233052,-0.24075,0.224156,-0.319169,-0.056185,0.1612,0.210528,0.242226,-0.08542,0.094166,0.073975,0.182498,0.238192,-0.164108,0.24615,-0.056594,-0.180993,0.18506,-0.118225,0.131336,0.035026,-0.188447,0.054724,0.141695,0.125869,-0.042099,0.301087,0.235518,0.043265,-0.114658,0.128582,0.165412,-0.078526,-0.103143,0.103608,0.136391,0.136182,-0.24303,-0.270666,0.119586,-0.181714,0.027066,0.248101,0.298884,-0.126104,0.141019,0.061592,0.033528,-0.006352,-0.056721,-0.064573,0.220261,-0.167211,0.218606,0.169581,0.132945,-0.04229,0.121703,0.226211,-0.227575]],"biases":[0.172251,0.23207,-0.133193,-0.054197,0.1416,-0.205868,0.098595,-0.04458,0.12163,0.17501,-0.031794,-0.083743,0.203357,0.353517,-0.179304,0.213829,0.219612,0.327474,0.349629,0.150173,0.239725,-0.009819,0.101411,-0.127124,0.215996,-0.025016,-0.05056,-0.061156,-0.262042,0.177449,0.218406,0.2056,0.167972,0.237246,-0.011361,-0.007129,0.103698,0.232376,-0.032377,0.191858,0.298595,-0.022848,-0.065934,0.134476,0.019587,-0.199185,-0.214735,-0.015154,0.303278,0.12539,-0.10756,0.262765,0.031101,0.074962,0.122002,0.27404,0.061998,0.055588,-0.234157,-0.068227,0.194363,-0.140603,-0.183607,0.245526]},{"weights":[[0.203463,-0.128771,-0.07209,-0.037912,-0.240049,0.035511,0.196156,0.307486,-0.083269,-0.060849,0.19671,-0.124886,0.189966,0.409919,0.104434,-0.104185,-0.02701,0.206207,0.101725,-0.06048,0.035695,0.019689,0.248945,0.212625,0.228325,0.208441,0.364426,0.172962,-0.016949,0.083849,0.288256,-0.020225,-0.1478,0.205884,0.114864,-0.072658,-0.051135,-0.2077,0.033521,0.075367,0.134171,0.028749,0.086588,-0.111993,0.333911,-0.093483,-0.00024,0.086476,0.272362,0.138334,0.286367,0.267814,0.395418,0.004019,0.236956,-0.108913,0.114282,0.004028,0.220391,0.193103,0.148343,0.348064,0.105057,0.076006],[0.183475,0.079796,-0.054025,0.112448,-0.20278,0.168889,0.033039,0.334346,-0.041224,-0.126531,0.122562,0.081595,0.320697,0.280628,0.123988,-0.130653,-0.136321,0.056083,-0.071785,0.029157,-0.11213,0.059721,0.285093,0.180274,0.029859,0.462917,0.166621,0.160897,0.168913,0.095613,0.288195,-0.08125,-0.143847,0.332171,0.22184,-0.024005,0.077303,0.161006,0.094673,-0.106543,0.040839,0.19693,0.168348,-0.164037,0.269378,0.048914,-0.116249,-0.037293,0.146944,0.053889,0.208481,0.24301,0.279615,-0.01508,0.370442,0.113976,0.255902,-0.109497,0.265862,0.112703,0.12332,0.309812,-0.064829,0.020012],[0.079358,-0.089718,-0.069886,0.109338,0.038546,-0.0385,0.020315,-0.044998,0.043993,0.085975,0.0769,-0.12429,0.191061,0.158235,-0.098154,0.048926,0.017084,-0.024967,0.054438,-0.055638,-0.058244,-0.068112,0.088198,-0.014911,0.096017,0.121569,0.109865,-0.098285,0.109882,-0.157989,0.131086,-0.128248,0.00905,0.114393,-0.020132,0.106454,0.009171,0.074171,0.047913,-0.091563,0.076869,0.063634,-0.025739,0.145043,0.025555,0.086194,-0.051175,0.022435,0.086197,0.04667,0.151391,0.146203,-0.067917,-0.033919,0.175011,-0.027794,0.019553,-0.053939,0.006019,0.019273,-0.097382,0.184567,0.045722,0.088493],[0.146286,0.110741,-0.149781,-0.044965,-0.005213,0.036238,0.106646,0.233152,0.043006,0.098298,0.312302,-0.027551,0.30464,0.205772,-0.089798,-0.138535,-0.118247,-0.083225,0.007917,0.055873,0.086829,-0.10693,0.403559,0.33428,0.201051,0.154172,0.223084,-0.144754,-0.05385,-0.115671,0.092047,0.056079,0.107709,0.273176,0.252493,0.108034,-0.003157,-0.129962,0.006766,-0.136597,0.206895,0.1198,-0.021285,-0.179087,0.086636,0.109091,-0.100975,-0.097344,0.136555,0.09082,0.221313,0.272785,0.268882,0.123915,0.366367,0.234358,0.248408,0.069659,0.320741,-0.135203,0.432113,0.310588,-0.055662,-0.051318],[0.249598,0.001405,-0.025076,-0.107606,0.084341,-0.082231,-0.000655,0.099904,-0.470996,-0.035645,0.283185,-0.097105,0.161386,0.137615,0.092454,-0.076394,-0.152872,0.151833,0.048913,-0.130361,0.006151,0.116138,0.135405,0.296358,0.144643,0.22998,0.139678,0.192871,-0.111902,-0.004488,0.125647,0.089339,-0.118263,0.234263,-0.006374,0.104377,0.122036,-0.100418,-0.044443,-0.061052,0.281975,0.190127,0.015731,0.155601,0.28155,-0.248414,-0.121123,0.102237,0.290692,0.267969,0.15373,0.209324,0.090223,-0.048657,0.128134,-0.103614,0.312221,0.086774,0.17354,-0.074476,0.029169,0.306867,0.106292,0.01937],[0.189135,-0.04425,0.104156,0.110171,-0.140991,0.019695,0.138482,0.23874,-0.044576,0.013697,0.132679,0.041854,0.306173,0.103299,-0.116376,-0.042854,-0.132514,0.237346,0.011003,-0.010788,-0.065306,0.106476,0.238451,0.18979,0.168626,0.281064,0.181815,0.06965,-0.04582,0.147155,0.296141,-0.109372,0.03845,0.28856,-0.004866,0.135286,0.008987,0.020297,-0.014986,0.074221,0.188302,0.046881,0.068165,-0.09918,0.219776,-0.014066,-0.007399,0.184622,0.251405,0.236709,0.146504,0.236142,0.065057,-0.055374,0.191663,0.063625,0.241398,0.041459,0.201199,-0.244257,0.13979,0.154333,-0.118134,0.160413],[-0.193654,0.03133,-0.029295,-0.005851,0.194623,0.170724,-0.395398,-0.224426,0.357321,0.054367,-0.249654,-0.112552,-0.367051,-0.190638,-0.004916,-0.073951,0.145501,-0.200007,0.085923,-0.069534,0.02898,-0.00971,-0.08633,-0.232746,-0.237324,-0.327584,-0.097307,-0.163418,0.320766,-0.008933,-0.227975,-0.023515,0.323056,-0.280044,-0.042398,-0.203679,-0.093431,0.162732,-0.04953,-0.054828,-0.225159,-0.175298,-0.16031,-0.262386,-0.28835,0.214224,-0.01699,-0.222073,-0.228091,-0.095673,-0.224146,-0.189751,-0.275397,0.109735,-0.075768,0.172867,-0.358605,0.003881,-0.073801,0.212483,0.003239,-0.195459,-0.066311,-0.22913],[0.050212,0.054654,0.152201,0.102263,0.168121,-0.277896,-0.20855,-0.100164,0.335424,-0.123352,0.099838,0.092412,0.069466,-0.023976,0.017596,0.009602,0.115576,0.256424,-0.026779,-0.12959,0.013393,-0.087395,-0.062286,0.136043,0.072464,-0.107292,0.096253,0.367068,0.017411,-0.167926,0.249639,-0.105398,0.150132,-0.112693,0.040018,-0.097619,-0.0668,-0.072367,-0.086561,0.410076,0.36475,-0.166029,0.168745,-0.001698,0.001797,-0.141206,0.095886,0.274277,0.269554,-0.025525,0.095784,-0.260509,-0.0936,0.034973,0.082882,-0.336515,-0.090995,-0.097981,0.114165,-0.004703,-0.277542,0.098052,-0.012225,-0.205994],[-0.019956,-0.126258,0.085485,-0.072025,0.187912,0.030654,-0.126421,0.085555,0.284021,-0.098645,0.102535,-0.124666,-0.035042,0.081445,-0.115725,-0.076561,0.16574,-0.123625,-0.01801,-0.089956,-0.136087,0.068098,0.094016,-0.060116,-0.119753,-0.011197,-0.069522,-0.078981,0.075206,0.019693,0.000309,0.040068,0.226539,-0.06235,-0.074618,-0.071938,0.036339,0.015493,-0.044522,-0.089759,0.103977,0.023414,-0.112816,-0.091946,0.069316,0.097875,-0.122175,0.087388,0.029261,-0.021405,0.024375,-0.093837,0.06857,0.081177,-0.06828,0.173962,0.107207,0.109139,-0.023699,0.083529,-0.007762,0.014897,-0.075273,0.107487],[-0.077553,0.067185,-0.044394,-0.047893,0.083325,0.104333,-0.127526,-0.167942,0.174256,-0.031628,-0.00746,0.039962,0.026897,-0.094733,0.124672,0.033328,0.053514,-0.089677,0.046591,0.026716,0.018231,0.002226,-0.082801,-0.143825,-0.08705,-0.074628,0.023962,-0.182738,0.17977,-0.066062,-0.104696,-0.067801,0.234386,0.066737,0.014015,-0.536755,-0.021895,0.020971,0.019535,0.038962,-0.129105,-0.106171,-0.180078,-0.101621,0.029004,0.143968,-0.038485,-0.071893,0.026227,0.019352,-0.008916,-0.175315,-0.031631,0.04473,0.002161,-0.008041,0.043148,0.056369,-0.069657,0.238162,0.005495,-0.113888,0.079144,-0.074127],[0.118966,0.01175,-0.086107,-0.124508,-0.312817,-0.234629,0.130382,0.190281,-0.153249,-0.14092,0.159037,0.083485,0.343326,0.177334,-0.040294,0.039441,0.022231,0.061924,0.042857,0.026687,0.021691,0.026236,0.214848,0.268877,0.17023,0.131909,0.130006,0.264299,0.04449,0.029743,0.22724,0.073536,-0.427674,0.079322,0.266562,0.147039,-0.12345,-0.369879,0.049209,0.021289,0.402404,0.07099,0.295739,-0.043929,0.107292,-0.285533,0.107708,0.233954,0.414509,0.109113,0.213967,0.06615,0.145406,-0.00319,0.280596,-0.256122,0.332655,-0.042775,0.086296,-0.142644,0.085977,0.364125,-0.204531,0.200574],[-0.135867,-0.095957,0.002993,0.043105,0.002763,-0.041539,-0.391991,-0.212961,0.021659,0.018257,-0.035041,0.054955,-0.053463,-0.149307,0.042862,0.010302,0.161763,-0.170632,-0.100907,0.054371,-0.028885,-0.096525,-0.020763,-0.033492,-0.280616,-0.176782,0.117404,-0.249507,0.227707,0.037509,-0.221898,-0.002347,0.110349,0.013617,0.022821,-0.010172,-0.124163,0.086201,-0.113477,-0.13079,-0.20866,0.061973,-0.110232,-0.205527,0.052388,0.050514,-0.109829,-0.159968,-0.237115,0.083287,-0.08883,-0.201065,-0.083925,0.064438,-0.149692,0.267286,-0.215467,0.094902,0.056964,0.333208,-0.10611,0.019222,0.007194,-0.368349],[0.076138,-0.144335,-0.179871,-0.08333,0.00952,0.113224,-0.013509,0.038412,-0.362397,-0.073272,0.026008,-0.111157,0.33688,0.031589,-0.040462,-0.117489,-0.239518,0.069794,-0.118274,0.085355,-0.022784,-0.04612,0.160944,0.303786,0.190591,0.186087,0.130857,0.043517,-0.072103,-0.113724,0.180357,-0.063395,-0.189873,0.144816,0.326393,0.205794,-0.075379,-0.303624,-0.08688,0.13768,0.238898,0.075727,0.04745,-0.024668,0.02761,-0.161026,0.065202,-0.020131,0.272607,0.03689,0.113366,0.151181,0.133873,-0.018687,0.200587,-0.412181,0.267885,-0.045774,0.274293,-0.040981,0.042792,0.194135,-0.078661,-0.03473],[0.060448,-0.080741,0.023511,-0.033948,-0.069637,0.093675,0.023988,0.121571,0.030431,0.103663,0.125799,-0.069419,0.097858,0.198562,-0.031024,0.058864,0.040203,0.173147,-0.010943,0.029083,-0.007987,-0.09761,0.035836,0.184284,0.090799,0.182619,0.211086,0.150631,-0.053434,0.000941,0.093704,-0.06397,-0.03814,0.185798,-0.100482,-0.11418,-0.11597,-0.102322,-0.070323,0.151527,0.015616,0.013743,0.095991,-0.008024,0.124274,-0.040304,-0.013785,0.088382,0.116139,0.050304,0.218031,-0.009096,0.186076,-0.09903,0.203028,0.043124,0.04262,-0.028369,0.048246,0.082379,0.191517,0.072469,-0.046889,0.039993],[-0.071123,0.074941,0.051843,-0.087577,-0.019853,0.032546,0.102577,-0.004998,0.110268,-0.034736,0.080789,-0.114929,-0.117539,-0.054335,0.091914,-0.01172,0.054219,-0.115989,-0.028569,0.07827,-0.076462,0.008383,-0.028718,0.018723,-0.009618,-0.09429,-0.013253,0.031769,-0.074775,0.056327,-0.076589,-0.019721,0.041312,-0.044249,0.092636,0.121511,0.100863,0.002839,-0.02986,-0.101988,0.044989,-0.060979,-0.016667,-0.035551,-0.088989,-0.099233,-0.087233,-0.093555,-0.002558,0.090609,0.113513,-0.118445,-0.106077,0.080889,-0.095065,0.082581,0.123419,0.10655,0.107622,-0.110812,0.036278,-0.104077,-0.0104,-0.028063],[0.12891,0.093771,-0.126472,-0.123588,0.083571,0.031935,-0.037787,0.132013,-0.108299,-0.096299,-0.023444,-0.109423,0.063345,0.038829,0.116189,0.009518,0.069949,-0.065348,-0.097905,-0.017417,-0.026456,-0.029478,0.069065,0.089469,-0.002704,-0.099816,-0.014487,0.045683,-0.061877,0.021391,-0.034467,-0.012842,0.024767,0.091499,-0.054574,-0.074745,-0.119721,0.135977,-0.043612,0.059456,0.02164,0.010435,0.087172,0.025709,-0.075492,0.165124,0.002981,0.101489,-0.082261,-0.042314,-0.139684,-0.089182,0.075333,-0.056783,-0.041893,0.019414,0.082271,-0.008608,0.017476,0.004757,0.017109,0.085541,-0.030923,0.078923],[0.325691,0.063318,-0.035979,-0.054293,-0.059982,-0.036296,0.199383,0.331318,-0.5265,0.053174,0.296088,-0.069594,0.316691,0.323734,-0.030503,0.106528,-0.058687,0.410645,-0.104353,0.089606,0.121606,0.079641,0.100933,0.336838,0.162701,0.404508,0.243534,0.346265,-0.33588,-0.186837,0.321128,-0.04278,-0.209267,0.317782,-0.019241,0.139128,-0.124318,-0.135983,-0.098981,0.219985,0.41474,0.314408,0.387066,0.053887,0.22899,-0.156409,0.003919,0.312296,0.330503,0.178665,0.394407,0.440378,0.304414,-0.065165,0.386084,-0.279876,0.354868,0.085516,0.201801,-0.018257,0.09709,0.404503,-0.022927,0.318739],[0.197579,0.011565,0.049829,-0.122751,-0.067285,-0.066815,0.260639,0.26215,-0.108236,0.016995,0.273688,-0.040027,0.294608,0.29808,0.004951,0.055071,-0.214875,0.096271,0.078743,0.073115,0.109266,0.049248,0.03191,0.30267,0.193347,0.260118,0.08176,0.178925,-0.132082,-0.155791,0.253735,-0.078057,-0.294231,0.208967,0.05901,0.130548,-0.055468,-0.041846,0.068935,0.075842,0.308495,0.102288,0.143337,0.00778,0.262558,-0.308412,0.046042,0.265239,0.327984,0.193214,0.284428,0.318824,0.23776,-0.070914,0.307459,-0.111238,0.269211,0.045203,0.122563,-0.280999,0.139801,0.323583,0.05746,-0.000467],[0.322157,0.092924,-0.032647,-0.072365,-0.090832,-0.108361,0.185015,0.197253,-0.009328,-0.014368,0.02084,-0.062645,0.319334,-0.061294,-0.076197,-0.133092,-0.468604,0.304329,-0.082177,0.087673,-0.047351,-0.022392,0.361749,0.239174,0.14386,0.248662,0.059773,0.088073,-0.074395,0.184507,0.244618,0.117312,-0.282166,0.134718,-0.045755,-0.058577,-0.06698,-0.269665,0.022147,0.111212,0.476861,0.047598,-0.060633,0.139288,0.167428,-0.367183,0.110317,0.361964,0.274303,0.305102,0.309589,0.244888,0.329231,-0.07444,0.28035,-0.249436,0.396109,-0.00942,0.245023,0.040954,0.203414,0.306662,0.011577,0.082642],[-0.070044,0.078305,0.067872,-0.03965,0.209201,-0.156663,0.021092,0.111473,-0.070383,-0.096057,0.037617,-0.10136,0.135726,-0.160184,0.052968,0.071204,-0.125803,0.134074,0.071511,0.058602,-0.075597,0.008595,0.051306,0.020675,0.046064,0.052758,-0.0028,0.132118,-0.011105,-0.025003,0.02468,-0.039348,0.017615,0.007363,-0.102699,0.160624,-0.090957,0.101241,0.104455,0.033373,-0.013074,-0.196004,0.017503,0.256331,0.098052,-0.127976,-0.118474,-0.046468,0.146854,0.011399,0.041212,0.039667,-0.124481,-0.057775,0.053523,0.047166,0.070134,0.018465,0.161436,-0.050327,-0.189943,0.042867,0.04475,-0.071762],[-0.246173,0.003274,-0.073955,-0.092852,0.280134,-0.070313,-0.225029,-0.077012,0.306551,-0.127153,0.001319,0.061188,-0.138838,-0.142977,0.010142,-0.137736,0.128103,-0.234625,-0.019081,-0.084956,-0.087036,-0.071028,-0.196342,-0.242931,-0.269031,-0.247631,-0.08277,-0.262798,0.198448,-0.024056,-0.141421,0.020258,0.183914,-0.137497,-0.215828,0.023111,0.006057,0.277372,-0.035824,-0.102911,-0.239693,-0.116688,-0.344352,-0.016644,-0.265562,0.26159,0.019346,-0.129026,-0.257018,-0.196921,-0.156225,-0.20445,-0.325534,-0.070446,-0.18813,0.123516,-0.207522,-0.102911,-0.174237,-0.077761,-0.122202,-0.326697,-0.076342,-0.318711],[-0.176764,-0.049435,-0.052412,-0.02193,0.15622,0.414227,-0.218456,-0.086808,-0.037856,-0.103153,-0.142123,0.002051,-0.256523,-0.139683,0.112725,0.022435,0.133989,-0.056345,-0.010172,-0.025587,0.013587,-0.019313,-0.180328,-0.151147,-0.146221,-0.07057,-0.17642,-0.000101,-0.207524,0.06205,-0.038932,-0.007759,0.07789,-0.058734,0.254107,-0.008832,-0.048725,0.027024,0.062589,-0.077783,-0.084154,-0.172305,-0.123908,0.167698,-0.11764,0.162284,0.036366,-0.164854,-0.210485,-0.293882,-0.176388,-0.016028,-0.261913,-0.111339,-0.244467,-0.113467,-0.074852,-0.120958,-0.242966,0.051876,-0.128635,-0.242692,0.071002,-0.407803],[-0.107533,0.063632,-0.075004,-0.072677,0.197914,-0.131651,0.058934,-0.050994,0.070628,-0.021828,0.194763,0.003545,0.077046,-0.12089,0.034196,-0.058965,0.101337,0.090719,0.100312,0.08124,-0.039353,-0.086548,-0.045104,-0.019083,0.10107,-0.018601,0.026802,-0.073786,0.028309,0.104509,0.107812,-0.043534,0.154396,0.014491,-0.086934,0.061286,-0.079037,0.068339,0.065292,0.050869,-0.030373,-0.058078,0.096217,0.121756,-0.047302,0.066216,0.036405,-0.100462,0.052037,-0.037335,-0.0326,-0.002062,0.010773,0.050753,0.019482,0.013681,-0.062714,-0.056751,0.114706,-0.028678,0.034543,-0.020228,0.064482,-0.097793],[-0.029494,-0.054189,0.081272,0.080207,0.304149,0.000554,-0.242697,-0.222714,-0.144228,-0.013653,0.123107,-0.119359,-0.132677,0.093899,0.002334,0.064478,0.00642,-0.169654,-0.123091,0.004856,0.039896,-0.115339,-0.216634,-0.215149,0.073328,-0.21571,0.047487,-0.077106,-0.096114,0.104165,-0.241008,0.0382,0.041745,-0.073663,0.113697,0.05273,0.029031,-0.059863,0.12233,0.242924,-0.005595,-0.065958,0.153015,0.137446,-0.097687,-0.053184,-0.040885,-0.093576,-0.255811,-0.091016,-0.032534,-0.302228,-0.097208,-0.098914,-0.241219,0.020202,-0.329614,0.032846,-0.000928,0.439455,-0.075149,-0.051751,0.104586,-0.403708],[0.186256,0.083435,-0.039991,-0.016781,-0.056687,0.028222,0.226856,0.142111,0.116964,0.023033,0.050266,0.037668,0.258734,0.188813,-0.123741,0.061494,-0.063968,0.052077,0.001415,-0.0659,-0.054579,-0.0761,0.319876,0.192006,0.294553,0.29441,0.212822,0.074229,0.078217,0.109166,0.032271,0.023317,-0.087802,0.31004,0.001131,-0.016303,0.067235,-0.021258,-0.068101,0.072554,0.267611,0.092513,0.004475,-0.007712,0.25377,-0.044379,0.106331,0.013422,0.071592,0.115006,0.361477,0.1666,0.184196,-0.00026,0.31363,0.019648,0.25744,0.063238,0.219968,0.164003,0.100967,0.376448,0.113533,0.076937],[0.190943,0.089736,0.051739,0.117028,0.063045,-0.116887,0.01538,0.158473,-0.098847,-0.131977,0.120043,-0.136327,0.14259,0.022069,-0.006386,0.050186,-0.038838,0.185079,0.083149,-0.068107,-0.02509,0.05932,-0.00167,0.100045,-0.004999,0.135957,0.186055,0.160492,-0.215036,-0.036566,0.315652,-0.107864,-0.206616,0.067298,-0.14388,0.013816,0.090288,-0.086309,0.096062,0.135538,0.25549,0.075457,0.039971,0.106726,0.181849,-0.383866,-0.056183,0.037477,0.237837,-0.030919,0.104268,0.167093,-0.058175,0.109318,0.160698,-0.158282,0.167717,0.098486,0.244537,-0.377272,-0.063062,0.196791,-0.066572,0.18168],[-0.136013,0.053232,-0.133863,-0.121442,0.034861,-0.05685,0.066495,-0.073676,0.206443,-0.074347,-0.040729,-0.095818,-0.144857,-0.031962,-0.043454,-0.128698,0.060045,-0.1273,0.013264,0.009328,-0.12592,0.019739,0.005961,-0.019108,-0.049314,0.055567,-0.03668,0.006547,0.122305,0.11637,-0.139018,-0.004366,-0.009352,0.08425,0.167131,0.045334,-0.102322,0.022418,-0.055844,-0.097231,-0.061622,-0.15109,-0.17676,-0.10947,0.05095,0.251479,-0.132501,-0.080008,-0.097476,0.036318,-0.053417,0.026624,0.053394,0.055732,-0.135245,0.089953,-0.016645,-0.050242,0.024208,-0.100123,-0.049475,-0.108728,-0.033879,-0.052938],[0.085882,0.053673,-0.07597,-0.11885,-0.069286,-0.170719,0.188728,0.039404,0.06303,-0.01103,0.102554,-0.028713,0.093614,0.068099,-0.078423,0.060621,-0.039502,0.028704,0.089618,-0.118961,0.025129,-0.094539,0.127169,0.223863,0.07487,0.225407,0.149527,0.017273,-0.056517,0.010959,0.130107,-0.132483,-0.045029,0.077901,-0.088315,0.068418,-0.12063,-0.014553,-0.12266,-0.056439,0.243566,0.038031,-0.003455,0.180663,0.086984,0.083077,0.002923,0.136782,0.235722,0.179158,0.163031,0.074159,0.089434,0.095792,0.132744,-0.049301,0.123022,0.061827,0.050374,-0.037651,0.019251,0.181759,0.013521,0.178009],[0.182882,0.056281,-0.121728,0.124303,0.003224,-0.091782,0.142,-0.044894,-0.210304,-0.029124,0.178087,-0.144871,0.12256,0.043218,0.037398,0.03156,-0.174599,0.212607,-0.083224,-0.074816,0.032057,-0.117727,-0.119116,0.098492,0.03094,-0.081118,0.130391,0.025348,-0.152012,-0.13641,0.240722,0.081298,-0.26847,-0.06932,0.069573,0.225279,-0.048823,0.010554,0.113671,-0.000252,0.251701,-0.056743,0.130482,0.001229,0.022644,-0.092911,0.086524,0.189921,0.038606,0.073533,0.039055,0.185659,0.05206,-0.093163,0.027484,-0.101004,0.067789,-0.082797,0.164108,0.111689,0.002189,0.12645,0.106818,-0.103605],[-0.069684,-0.00152,-0.024526,0.019234,0.014282,-0.127939,-0.104538,-0.018828,0.242202,-0.063282,0.159953,0.083162,0.250815,-0.153344,-0.080006,0.071619,-0.117266,0.186398,0.004291,-0.067898,-0.015374,0.062695,0.043,0.144699,-0.035036,0.044546,0.224135,0.126325,-0.178549,-0.135567,0.107952,-0.087345,-0.227933,-0.038909,0.49015,0.076809,-0.08138,-0.087752,0.068749,-0.090555,0.2337,-0.294037,-0.009402,0.175133,0.061005,-0.332244,0.033705,0.19739,0.216768,0.117734,0.141982,0.056446,-0.023153,-0.107262,-0.000975,-0.198727,0.314385,-0.06249,0.191837,-0.104808,0.00557,0.031989,-0.28873,-0.082353],[0.201095,-0.007622,0.017171,0.093583,0.110575,0.023966,0.026926,-0.07962,-0.3232,-0.091628,0.357723,0.009051,0.179715,0.127117,-0.110402,-0.124066,0.124782,0.175469,-0.096155,-0.085963,-0.089621,0.018638,-0.03129,0.126769,-0.0928,0.019119,0.14137,0.211726,-0.169324,-0.010551,0.219028,-0.079848,0.014509,0.208221,0.101427,-0.1932,-0.105859,0.076646,0.013224,0.094611,0.134654,0.097974,-0.009462,0.075919,0.229868,-0.097773,-0.104993,0.204007,0.076993,0.081881,0.126105,0.153659,0.059053,0.068063,-0.088424,0.022207,0.047209,-0.119678,0.224488,0.123804,-0.117104,-0.002137,-0.079372,-0.086487],[0.064659,0.03534,-0.067403,0.044208,0.121461,-0.056139,-0.11624,0.008225,-0.007686,-0.043813,0.170668,-0.015752,-0.048559,0.097544,-0.102068,-0.040866,0.156064,0.143068,-0.004261,0.027858,-0.011545,-0.06232,0.150312,-0.051328,0.063975,0.046373,0.064456,0.050067,0.050015,0.116446,0.132943,-0.102384,0.119752,0.174179,-0.081534,-0.183865,0.024456,0.119355,-0.046285,-0.052964,0.08072,0.115175,-0.033169,0.035709,0.184898,0.07993,0.036265,0.089259,-0.056973,-0.00588,0.065473,0.151617,-0.007801,0.093436,0.086332,-0.06473,0.140279,0.011799,0.070747,0.084422,-0.042665,0.107682,-0.027956,0.062397],[0.049479,-0.048522,-0.051575,-0.083879,0.142745,-0.073688,-0.09428,-0.127072,0.193587,0.00993,-0.06447,0.015374,-0.145632,-0.068933,-0.040754,-0.154956,0.22389,-0.10112,-0.12284,-0.006915,0.070605,0.09757,0.074334,-0.115251,-0.01256,-0.118656,0.063367,-0.167875,0.024297,0.102655,-0.133118,0.09795,0.13322,-0.074109,0.050601,-0.178338,-0.090625,-0.036485,-0.116593,-0.171873,-0.165415,-0.039658,-0.171111,-0.076128,0.040515,0.199622,0.086092,0.062068,-0.024064,-0.019154,-0.165646,-0.149831,-0.149432,-0.114087,0.054639,0.176484,-0.017668,0.105482,-0.187345,-0.111607,0.06573,-0.087722,-0.16515,-0.183514],[0.27923,-0.08139,-0.108686,-0.02412,-0.005953,0.093692,-0.16997,0.019318,-0.393581,0.041014,0.076401,-0.019263,0.422234,0.139093,0.116336,0.07317,0.077966,0.338869,0.075459,-0.107592,-0.109787,-0.096907,0.175979,0.285819,0.131054,0.262168,0.287546,0.320703,0.000122,0.147859,0.329416,-0.103946,-0.174228,0.165331,0.288974,-0.068993,-0.011435,-0.04456,0.111229,0.285081,0.247325,0.202276,0.077786,-0.024238,0.116072,-0.189818,-0.030334,0.360862,0.381904,0.204238,0.239746,0.216242,0.219022,-0.006798,0.214833,-0.179802,0.099208,-0.101601,0.151731,0.158334,-0.106972,0.180224,0.144143,0.114838],[0.245417,0.083894,-0.038477,0.105712,-0.184336,-0.106493,0.245629,0.131106,-0.307648,0.005188,0.206591,0.105273,0.320535,0.240093,0.012192,0.06161,-0.498412,0.102199,-0.051206,0.060973,-0.053238,-0.063128,0.162503,0.417961,-0.075733,0.059089,0.323009,0.166314,-0.119997,-0.033167,0.270605,-0.061153,-0.370459,0.243482,0.079534,0.184949,-0.054316,-0.025939,0.061243,0.064272,0.458232,0.106358,-0.027422,0.148159,0.236684,-0.305579,0.036189,0.315937,0.218744,0.278258,0.36374,0.406333,0.068125,0.032174,0.367271,-0.11335,0.17251,0.111114,0.275585,-0.042191,0.114088,0.29433,-0.158905,0.189078],[-0.110692,0.117558,0.053407,-0.084185,0.093219,0.203044,-0.150763,-0.158008,0.118173,-0.139479,-0.215938,0.070114,-0.046135,-0.270771,0.043158,-0.068344,0.26479,-0.252019,0.064812,0.095284,0.056408,-0.044711,-0.196062,-0.296336,-0.452023,-0.254184,-0.041135,-0.425782,0.161238,-0.188155,-0.167583,-0.104438,0.327464,-0.059049,0.205732,0.021322,0.059462,0.106307,0.005066,-0.260005,-0.381013,-0.054229,-0.343338,-0.093097,0.013369,0.277877,-0.091876,-0.061937,-0.338394,-0.159676,-0.479068,-0.238846,-0.378496,0.11014,-0.427202,0.232889,-0.268899,0.106687,-0.216859,-0.010532,-0.291277,-0.222545,-0.021138,-0.3118],[-0.007694,-0.001521,-0.050554,0.072613,-0.009352,-0.007814,0.047136,0.105016,-0.048104,-0.11928,0.0313,0.120095,-0.064277,-0.014618,-0.030839,-0.064132,-0.081838,-0.067793,0.007082,-0.055548,-0.123719,-0.030548,0.002584,-0.064736,-0.071191,-0.094746,0.012769,0.10087,-0.025562,0.104027,0.061232,-0.030077,-0.099192,0.127099,0.078037,0.08668,-0.09022,-0.095075,-0.117056,0.059312,0.043201,0.037386,0.058113,-0.071321,0.084992,-0.034155,0.003472,0.082635,-0.040886,-0.091246,-0.080319,-0.05171,0.110188,-0.062497,0.064514,0.110352,-0.074902,0.093494,0.112923,-0.027508,-0.017956,0.090537,0.09917,-0.052195],[-0.122886,-0.105223,0.013009,-0.113109,0.192382,-0.003057,-0.108245,0.003777,-0.065366,0.09775,0.155377,0.046881,-0.085547,-0.013263,-0.007556,0.022095,-0.04692,-0.025401,-0.028108,0.014095,-0.004422,0.01406,0.097323,-0.07404,0.074489,0.046829,0.054659,-0.075285,0.139436,-0.020791,-0.026753,-0.009135,0.058963,0.183105,-0.002716,0.080469,0.104197,0.035858,-0.059728,-0.027352,-0.059284,-0.041957,0.117593,-0.01955,0.097382,0.055151,0.091131,0.049265,0.103432,-0.010307,-0.03736,0.112334,-0.102628,-0.003736,-0.007287,0.118825,0.121328,-0.051806,0.119797,0.157655,0.007508,-0.099214,0.118976,-0.044926],[-0.097182,0.031368,-0.042983,0.045902,-0.023179,-0.021377,-0.044952,0.12601,0.02906,-0.106323,0.098765,-0.047947,-0.039485,-0.055623,-0.000584,-0.00085,0.082333,0.13641,0.088897,-0.097825,0.059806,0.094843,-0.019724,-0.102252,0.07104,0.088235,0.043239,0.006856,0.132167,0.026033,-0.090526,0.034879,-0.07831,-0.079338,0.088726,-0.081699,0.057453,0.048868,0.073257,0.117358,-0.093622,0.022375,-0.027482,-0.135816,-0.040529,0.008619,-0.098736,0.107899,0.045579,-0.015396,0.054314,0.044957,0.121602,0.023039,0.102311,0.142088,0.127211,0.03987,0.020365,-0.106756,-0.026159,0.040325,0.085023,0.028235],[-0.012005,-0.057941,0.066116,0.030022,0.049055,0.162561,-0.174709,0.007927,0.179926,0.01641,-0.237796,-0.028893,-0.07019,-0.2309,0.05032,0.089844,0.07531,-0.004805,0.061,-0.147606,0.106313,0.053458,-0.160776,-0.21645,-0.017433,-0.019368,-0.200255,-0.193549,0.027733,-0.195142,-0.00526,0.002526,0.089288,-0.05445,0.057123,-0.218878,-0.092831,-0.104209,-0.069911,0.003536,-0.145726,-0.05424,-0.037604,0.060439,-0.072133,0.295201,-0.056623,-0.057568,-0.121684,-0.046103,-0.268227,-0.079404,0.004674,0.120209,-0.093812,0.054906,-0.201447,-0.129159,-0.394063,-0.00778,-0.161948,-0.215111,-0.126354,0.005619],[0.174293,-0.0676,-0.135592,0.089776,0.079993,0.056648,0.052624,0.164322,-0.254814,0.037336,0.027665,0.02928,0.195478,0.129047,0.050962,0.046056,-0.017123,0.141573,-0.068678,-0.10535,-0.019969,0.046861,-0.041616,0.155131,0.110007,0.192896,-0.052498,0.147302,0.011424,-0.113832,0.130716,0.065837,0.059297,-0.056691,-0.110671,0.091581,0.04316,-0.0754,0.110381,-0.026023,0.028379,0.166539,0.024779,0.166606,0.208654,0.104466,-0.07319,0.048333,0.213082,-0.030583,0.006622,0.05437,0.013813,-0.011837,-0.045499,-0.082792,0.172159,-0.12284,-0.05197,-0.004013,0.158247,0.096926,-0.035012,0.021163],[0.019953,-0.017154,-0.122767,-0.120767,-0.000441,0.139155,-0.103687,0.254626,-0.217242,0.029656,-0.060204,0.002135,0.09426,0.142899,-0.081719,-0.051888,-0.085664,0.069743,0.004784,0.076047,0.048322,-0.083549,0.135672,0.188725,0.028527,0.160035,0.22015,0.045415,0.006568,-0.261064,0.210632,0.077672,-0.032697,0.138043,0.104071,0.021213,0.08694,-0.073872,-0.109943,-0.135061,0.070285,-0.002718,-0.033494,-0.097616,0.019481,-0.101276,0.056718,-0.015341,0.17773,0.181641,0.106197,0.248203,0.081899,0.047904,0.045548,-0.107477,0.18215,0.067032,0.078529,-0.063168,0.157907,0.137922,0.080257,0.081223],[0.000326,-0.050636,-0.101059,0.019973,0.074194,0.157405,0.049962,0.080715,0.336895,-0.02431,-0.016741,-0.112936,0.108487,0.026726,0.016881,-0.004431,0.216474,-0.005238,-0.039402,0.016901,-0.073655,-0.125716,0.027654,0.176334,0.059575,0.160231,0.168926,-0.014467,0.177557,-0.091752,0.209065,-0.011221,0.198871,0.10629,-0.082614,0.091771,-0.047067,0.142643,0.018818,-0.124381,-0.005849,0.119118,-0.111073,-0.229991,0.161607,0.064145,-0.116158,-0.082066,0.244807,0.081121,-0.033914,0.037791,-0.04261,-0.037389,0.086016,0.060483,0.148536,-0.079619,0.171781,-0.073152,-0.060655,0.019243,-0.035969,-0.086076],[-0.025067,0.094941,0.063244,-0.033009,0.068642,-0.084936,-0.086055,-0.095593,0.068165,-0.063547,-0.004714,-0.08267,-0.038716,0.086415,-0.021886,-0.121132,0.172681,0.01762,-0.044921,0.050201,-0.008534,-0.049548,0.089264,0.030487,-0.065487,-0.02001,0.03521,0.013584,0.071889,0.003625,0.06386,-0.130123,0.110639,0.062587,-0.106237,-0.217839,-0.020898,-0.043317,-0.096379,0.064426,0.077335,-0.002432,0.071676,-0.010799,0.13303,0.03408,0.074595,0.032729,-0.009678,0.10761,0.070062,0.132829,-0.117437,-0.099838,-0.067534,0.133748,-0.007679,-0.11316,0.062299,0.01353,-0.070984,0.080218,0.094866,-0.03444],[0.089142,0.1173,-0.101461,-0.001644,0.00104,0.09625,0.122445,0.071539,-0.014801,0.062652,-0.095823,-0.01789,-0.057481,-0.007339,-0.081554,0.092723,0.084042,-0.087812,0.017014,0.065174,-0.104818,-0.078767,-0.033415,-0.016019,-0.047697,0.121329,-0.028821,0.075949,-0.110193,-0.002957,-0.052983,0.000219,-0.033662,-0.072115,0.007677,0.084783,0.100824,-0.09015,-0.08086,0.086199,-0.03968,0.012481,0.001465,-0.102493,-0.052987,-0.032203,0.00292,-0.039574,-0.021289,0.065446,-0.092242,-0.019919,-0.044471,-0.024855,0.106241,0.088731,0.1139,-0.110808,-0.070406,-0.107147,-0.088905,0.079245,0.029044,0.066582],[-0.123755,0.014277,-0.118483,-0.04327,0.1046,-0.098556,0.088326,-0.112843,0.124748,0.103722,-0.000547,0.115001,0.056171,-0.055285,-0.038432,-0.011809,0.103229,-0.002296,0.088939,-0.088397,-0.084512,0.003842,-0.049852,-0.021522,-0.057183,-0.021378,0.124771,0.062753,0.122566,-0.035871,-0.085053,-0.104224,-0.074817,0.014018,-0.00987,-0.019944,0.051272,-0.091389,-0.088786,-0.084372,0.08801,0.054054,0.0913,-0.087846,0.116126,-0.092588,0.007417,0.020826,-0.106653,-0.026377,-0.060016,0.004447,0.111884,-0.051978,0.054819,-0.099786,0.103974,-0.023513,0.108739,0.076189,-0.120865,0.11624,-0.04626,-0.08],[0.112977,0.05726,-0.105999,0.026003,0.04517,-0.009492,0.112218,0.058686,-0.12412,-0.015074,-0.048916,0.070966,-0.008578,0.124617,-0.035789,-0.098597,-0.039854,0.060222,-0.089131,0.013672,-0.075387,0.061856,0.037306,0.017009,0.068317,0.077462,0.10376,-0.000581,0.051439,-0.07187,-0.000322,-0.10669,0.104973,0.03915,-0.113423,-0.080353,0.08302,-0.038745,-0.023511,-0.011548,-0.035755,0.029999,0.006071,0.019848,-0.025392,-0.080478,-0.101015,0.108609,-0.1052,0.008577,0.112189,-0.113825,-0.096546,-0.010486,0.110608,0.019128,-0.023843,0.005361,0.056956,0.055947,0.022356,0.04823,-0.096902,-0.092447],[-0.09202,-0.003311,-0.070245,0.118062,0.128426,0.076678,0.032021,-0.192948,0.036509,0.03769,-0.156484,-0.022694,-0.366568,-0.152691,0.039239,0.108785,0.132203,0.017143,0.013779,-0.070761,-0.053772,-0.11273,-0.376837,-0.30281,-0.129207,-0.333688,-0.376866,-0.145306,-0.047423,-0.154879,-0.184336,0.010466,0.237108,-0.34655,-0.258275,-0.299513,-0.048329,0.061394,0.064359,-0.053376,-0.297602,-0.199166,0.061474,0.068213,-0.212546,0.177545,-0.050802,0.041703,-0.176234,-0.133805,-0.264177,-0.319326,-0.294733,0.00923,-0.414833,0.170108,-0.230956,-0.089493,-0.22417,-0.175994,-0.150424,-0.307221,0.040849,-0.023977],[-0.038471,-0.079162,-0.027876,-0.084853,0.021106,0.049359,0.089274,0.010435,0.024302,-0.064097,0.089146,-0.134427,0.104604,0.055795,0.069052,-0.035976,-0.072343,0.073759,-0.107158,-0.051782,-0.001307,0.051402,-0.029702,0.071819,0.153576,-0.019322,0.148716,0.118753,0.094014,-0.05286,0.165715,-0.07473,0.12852,0.067949,-0.102538,0.022648,0.111902,-0.03305,-0.041933,-0.022898,0.02596,-0.071693,0.053019,0.093906,-0.019511,-0.050618,-0.078363,0.057993,0.147875,0.03496,-0.024715,0.07417,0.105928,-0.097482,0.153203,-0.085162,0.149815,-0.054232,0.172121,-0.183356,0.103631,-0.009457,-0.022658,0.112427],[-0.039258,-0.082769,0.045232,-0.045923,0.078163,0.021513,0.060813,-0.07467,-0.310251,0.021883,-0.045174,-0.021518,0.091697,0.018923,0.118136,-0.00696,-0.008552,0.052605,0.083738,-0.034663,-0.01475,-0.0621,0.057518,0.203005,-0.042156,-0.012732,0.133108,0.101942,-0.213093,-0.099095,0.063158,0.063354,-0.023298,-0.079396,0.140988,0.096124,-0.058706,0.021095,-0.115286,-0.026438,0.122994,-0.026133,0.013608,0.258497,0.078375,-0.19953,-0.10319,0.099284,0.182904,0.116202,-0.070257,0.109369,0.016365,0.004395,-0.055545,-0.100218,0.161065,0.060098,0.014821,-0.075147,0.092051,0.013517,-0.084146,0.051741],[0.255233,-0.087236,0.102231,-0.070242,-0.152148,-0.183823,0.169197,0.250919,-0.046918,-0.073678,0.04674,0.066573,0.122216,0.081663,-0.078926,-0.128709,-0.342856,0.19062,-0.050543,-0.091083,0.067682,-0.006521,0.252238,0.435294,-0.005299,0.036851,0.094346,0.100167,-0.34741,0.08916,0.347308,0.029902,-0.417123,0.101318,0.044371,0.467277,-0.048144,-0.295348,-0.010502,-0.019102,0.431468,-0.067674,6.8e-05,0.361097,0.178033,-0.633718,-0.015595,0.263747,0.284138,0.054133,0.15608,0.238753,0.025869,0.11585,0.279352,-0.230444,0.326482,-0.125701,0.187722,-0.223509,0.107337,0.223979,0.007166,0.087649],[-0.022038,-0.048078,0.084587,-0.037699,0.018145,-0.121421,-0.025011,0.032065,-0.240604,0.077243,0.042836,-0.116624,0.115534,-0.069062,0.010445,-0.099351,-0.106278,0.018093,0.030292,-0.019951,-0.104263,0.017121,0.15374,0.050877,0.06046,-0.016534,0.081299,0.150037,0.04221,0.130921,0.048661,-0.043131,-0.046014,-0.062538,0.000908,0.096939,-0.090732,0.034469,-0.010221,0.016635,0.020932,-0.109201,0.120257,0.024923,-0.080865,0.022688,-0.116667,-0.062775,0.164916,0.02022,0.048622,0.189003,-0.110891,0.032889,-0.062057,0.022757,0.075723,-0.062266,0.11567,-0.039593,0.121362,0.121934,0.048708,0.128119],[-0.067547,0.108505,-0.119629,0.102213,0.025749,-0.008688,-0.067631,0.007469,-0.143147,-0.090543,-0.163387,-0.11054,0.183954,-0.18669,0.082164,-0.101345,-0.204293,-0.053666,-0.010303,-0.017816,0.037499,-0.002393,-0.058046,0.162865,-0.100036,0.000159,0.105786,-0.01022,-0.260309,-0.233214,-0.042374,0.031228,-0.186341,0.012592,0.21767,0.095822,0.033994,-0.154276,-0.118754,-0.1819,-0.062475,0.081402,-0.125895,0.18395,0.036263,-0.223092,-0.01172,-0.020167,0.093182,-0.074718,-0.111268,0.003021,-0.16868,-0.05171,-0.116048,-0.037582,0.115781,-0.121376,-0.147629,-0.165353,-0.16851,-0.103923,-0.169668,-0.137853],[-0.071744,-0.059728,0.001586,-0.000302,-0.017904,-0.065427,-0.010763,0.056798,-0.038491,-0.028364,-0.072542,-0.09872,-0.015957,-0.006842,0.011356,-0.117365,0.081755,0.014152,-0.047083,0.06291,-0.061515,-0.01909,0.088815,0.012468,-0.047668,0.095319,-0.002131,-0.000535,-0.000739,-0.062575,0.024792,-0.020499,0.068115,-0.003774,0.052943,-0.075548,-0.096908,0.135962,0.013146,-0.030271,0.143697,0.121243,-0.029446,-0.111583,0.165722,0.195074,-0.074849,0.11246,0.126961,0.14056,0.121831,0.108902,0.023938,-0.026598,0.022858,0.143261,0.127998,0.011535,-0.076102,-0.178686,0.020119,0.088089,0.053643,0.036789],[-0.15039,-0.109138,0.080548,0.090009,0.237948,0.144616,-0.005207,0.103694,-0.185343,-0.09277,-0.075385,0.008815,0.141639,0.019887,0.049127,0.024972,0.024851,0.018073,-0.034417,-0.100534,0.026201,-0.081725,-0.054173,-0.017679,-0.072714,0.140384,0.082394,0.006678,0.200208,0.174331,0.066918,-0.060103,0.057611,0.13139,-0.049531,-0.299927,-0.032709,0.19286,-0.084587,-0.136872,-0.085983,0.072632,0.097037,0.078572,0.053758,-0.051991,-0.103804,-0.050555,-0.059537,-0.096724,-0.075139,0.083191,-0.188957,-0.063525,-0.025199,0.017178,-0.054581,0.032976,0.124099,-0.006812,-0.123402,0.041918,0.082976,-0.095609],[0.162347,0.013941,-0.160237,0.058284,0.135712,-0.014835,0.11674,0.0676,-0.216268,-0.090523,0.045926,-0.089933,0.097078,0.177472,-0.100494,0.053018,-0.043302,0.223307,-0.107115,-0.0013,0.074168,0.00319,-0.00082,0.160013,0.041408,0.061814,0.177937,0.067133,-0.056078,0.146115,0.312418,-0.071618,-0.015802,0.124132,-0.205034,0.126154,-0.110036,-0.041243,-0.103108,0.114622,0.278596,0.188661,0.167155,0.126856,0.240827,-0.138805,-0.011699,0.258063,0.075684,0.01982,0.223134,0.129768,0.123354,-0.074344,0.075838,0.06531,0.037367,0.034355,0.206643,-0.066997,0.119477,0.014853,0.0002,0.142267],[-0.034931,0.105429,-0.025241,-0.073588,-0.061404,0.005853,0.050745,0.045625,0.456551,0.066181,0.048392,0.023289,-0.177467,-0.14343,-0.07937,0.0833,0.067863,-0.139737,-0.04229,-0.092857,-0.060301,0.056342,0.055972,0.080677,-0.149703,-0.042435,0.050025,-0.002846,0.220146,0.187062,0.083819,-0.016335,0.119583,-0.057052,-0.044177,-0.143654,-0.040891,0.139553,-0.111135,-0.01012,0.080323,0.084767,-0.146612,-0.371237,-0.101915,0.065942,0.019308,-0.113356,-0.028465,0.147922,-0.119746,0.032069,-0.108304,0.020749,-0.100263,0.234852,0.050866,0.094341,-0.049472,-0.05438,0.083797,-0.065824,-0.155218,-0.083146],[-0.009567,-0.000847,-0.118377,-0.050572,-0.052316,-0.008301,0.133079,0.017579,0.011522,-0.062044,-0.089416,-0.004136,0.170615,0.147947,0.034698,-0.111539,0.096768,0.086533,-0.026785,-0.012653,-0.113235,0.043057,0.013956,0.158343,0.08492,0.017465,0.028143,-0.05109,0.124278,-0.05641,0.007933,0.032968,0.119794,0.04135,-0.070718,0.048461,0.01787,0.108834,-0.065612,0.000125,0.162678,0.039459,-0.076201,-0.036108,0.002252,0.029725,0.058033,0.010304,0.071971,0.158618,-0.033694,0.01543,0.060086,-0.029948,-0.011491,0.116026,0.104528,-0.075815,0.030872,0.044121,-0.005709,-0.018424,0.055241,-0.023635],[-0.008753,-0.037883,-0.003951,-0.064175,-0.098021,-0.066437,-0.015376,0.036799,-0.026916,0.035192,0.088143,0.121868,0.057989,0.103888,-0.048941,0.066243,0.078188,0.069521,-0.001513,0.074578,-0.098455,-0.070675,0.04131,0.120327,-0.032182,-0.011871,-0.029543,0.064224,-0.117839,-0.097993,0.049169,-0.113196,0.023934,-0.072621,-0.043073,0.043823,-0.010252,0.07314,0.027027,-0.009832,-0.093544,0.025305,0.043984,0.082996,-0.012048,-0.008977,0.124166,-0.020753,-0.03761,-0.01021,0.021515,-0.08174,-0.079617,-0.037549,-0.088232,-0.107105,-0.041047,-0.017385,0.123168,0.006123,0.062009,0.050993,-0.029273,0.072337],[0.124842,0.004182,-0.115265,-0.110436,0.051667,-0.197653,0.08084,0.090299,-0.010696,-0.061598,-0.009701,0.060465,0.012811,0.067761,-0.078795,0.032452,-0.144534,0.156078,-0.096221,-0.044418,-0.028207,0.012637,-0.017676,0.208856,-0.141393,0.084097,0.025097,0.039122,-0.19002,-0.113315,0.053495,0.092592,-0.214325,0.02837,-0.030533,0.050155,0.001352,0.081073,0.007829,0.123281,0.23574,0.006542,-0.084564,0.13421,0.143849,-0.069089,0.080016,0.144724,0.039243,0.139778,0.154158,0.083363,0.132003,-0.0758,-0.015641,0.044655,0.070485,-0.011917,-0.008782,0.016586,-0.032803,0.071309,-0.093011,-0.04956],[-0.026097,-0.011275,-0.073306,0.035992,0.060459,0.110574,0.090114,0.064747,-0.011643,0.048067,0.087125,0.020839,-0.073405,-0.128187,-0.027175,0.00145,0.179885,0.157507,-0.098838,-0.130044,0.03491,-0.028105,0.135659,0.175807,-0.006155,0.124828,-0.058544,0.022594,0.049737,-0.138735,0.163005,0.011992,0.145455,-0.001507,0.058209,0.062786,0.057671,0.05427,0.04777,-0.103673,0.121568,0.01533,0.082829,0.037667,-0.090691,0.215331,-0.013681,-0.067943,0.068863,0.064666,-0.026395,0.033198,0.005033,-0.020665,0.10174,0.037417,0.19075,-0.025944,-0.022029,-0.155191,-0.035767,0.098671,-0.010431,0.02652],[0.260734,-0.045899,-0.096476,0.04361,-0.434542,-0.053876,0.417321,0.399499,-0.059664,0.095005,0.305133,-0.119737,0.408467,0.503882,0.071896,-0.04715,-0.288455,0.429791,-0.025208,0.063051,-0.066257,-0.001219,0.312627,0.580407,0.190611,0.655288,0.371665,0.664803,-0.396522,0.260003,0.431781,0.011969,-0.566163,0.319748,0.003207,-0.007647,-0.089577,-0.478775,0.121456,0.386258,0.690571,0.378074,0.231229,0.126059,0.464419,-0.571936,-0.083836,0.439763,0.531057,0.269581,0.471674,0.511526,0.564618,-0.116128,0.370797,-0.301887,0.456969,0.027053,0.417213,-0.253746,0.237133,0.470835,0.154373,0.407382],[0.206779,0.00345,0.010111,0.105334,-0.099102,-0.271167,-0.112673,0.144137,0.335698,-0.020528,0.139703,0.002426,0.00304,0.188583,-0.07687,-0.066511,-0.101243,0.112826,0.075963,-0.0538,-0.099208,0.043096,0.196192,0.373742,-0.024274,0.214018,0.116073,0.112398,0.137737,0.200718,0.249736,0.015105,0.121521,0.116904,-0.051508,-0.102774,0.060232,-0.103262,0.072746,-0.080199,0.171932,0.197867,0.140754,-0.303593,0.138576,0.020832,-0.001258,-0.011249,0.154017,0.186038,0.302495,-0.016029,0.118729,-0.035166,0.298965,-0.034323,0.231052,-0.055695,0.240718,0.061954,0.293496,0.178567,-0.001846,-0.051382],[0.178754,-0.121911,-0.082471,0.004958,0.144725,-0.048615,-0.001747,0.046894,0.106368,0.088005,0.038445,-0.01863,0.185915,-0.059471,0.02729,-0.032376,0.207776,-0.071955,0.096205,-0.075914,-0.130289,0.020963,0.053133,0.073531,0.082149,-0.079234,0.154851,0.049148,0.023425,0.148205,0.094363,0.005256,-0.060523,-0.061287,-0.048462,0.115875,0.005768,-0.06127,-0.037544,0.053035,0.084549,-0.115103,0.137704,0.089411,-0.008143,-0.093281,0.02076,-0.002328,0.177111,0.053305,0.100293,0.023028,-0.038725,-0.089485,0.172832,-0.048941,-0.040355,-0.132203,0.053266,-0.054088,-0.054076,0.061729,-0.085551,0.106807]],"biases":[0.158441,-0.075488,-0.029738,-0.124261,-0.064014,0.103486,0.150577,0.029781,0.018934,-0.047271,-0.039246,-0.00105,0.171322,0.13972,-0.120599,-0.091613,0.107968,-0.029441,-0.124334,-0.092331,-0.108323,-0.09749,0.084016,0.077764,0.149724,0.018237,0.020842,0.074487,0.147044,0.094117,0.122769,-0.005795,0.146841,0.030411,0.02668,-0.026095,0.005529,0.12189,-0.060192,0.130217,0.001106,0.127959,0.144099,-0.083456,0.173212,0.126198,-0.138893,0.028149,0.109759,0.19074,0.15435,0.119594,0.111285,-0.12466,0.084616,0.124014,0.051986,-0.094759,0.214124,-0.0449,0.115026,0.072486,0.096015,0.020918]},{"weights":[[0.111174,0.24515,0.188966,0.0684,0.218447,0.173422,0.045053,0.123505,0.052588],[-0.010351,0.092,-0.033154,0.055972,-0.099987,-0.065312,-0.050113,0.047483,0.09033],[0.068664,0.07157,0.064914,-0.047485,0.1537,-0.040935,0.114476,-0.046357,0.068582],[0.099472,0.043114,0.074906,-0.088535,-0.080724,-0.036944,-0.005626,0.018295,0.031739],[-0.068175,-0.251879,0.154903,-0.187905,-0.223805,-0.061122,-0.274864,-0.154349,0.06002],[0.165957,-0.081926,-0.077122,0.210091,-0.105033,-0.013264,-0.066462,0.164187,0.047475],[0.233217,0.145609,0.075874,0.099847,0.193867,0.192078,0.030176,0.071651,0.280497],[0.221606,0.169482,0.171724,0.161549,0.071921,-0.001585,0.137344,0.13154,0.044421],[-0.229281,-0.342078,-0.27252,-0.250805,-0.163442,-0.481378,-0.095849,-0.447943,-0.012808],[-0.037599,0.111965,0.040812,-0.043788,-0.070601,0.040572,0.063258,0.020924,0.083761],[0.176035,0.098451,0.210507,0.170618,0.096573,0.178334,0.006089,0.23876,0.247946],[-0.010815,-0.003616,0.01757,-0.119887,-0.105822,0.083836,-0.096084,-0.109641,-0.069754],[0.21213,0.120684,0.180979,0.065695,0.149056,0.256802,0.2399,0.204739,0.308478],[0.000234,0.150743,-0.035448,0.173125,0.189845,0.134701,0.045042,0.1103,0.254236],[-0.058446,0.078071,0.103419,-0.028258,0.123311,0.08654,0.023727,-0.028704,-0.037092],[0.025382,-0.054283,-0.011709,-0.022422,-0.116596,-0.112882,-0.066431,-0.070623,-0.10554],[-0.190872,-0.312365,-0.222329,-0.107327,-0.134823,0.068848,0.016087,-0.345821,-0.001253],[0.119287,0.039422,0.239008,0.198424,0.206233,0.122216,0.127791,0.087129,-0.043853],[-0.000467,-0.121657,0.069821,0.077654,-0.034074,0.08095,-0.077475,0.047352,0.018863],[0.026412,0.004572,-0.078217,0.058728,-0.035555,0.006714,0.098982,0.030069,0.118587],[0.096063,-0.05167,0.024254,0.035408,0.082276,-0.046381,0.117206,0.006346,-0.027919],[0.107573,0.018904,0.109498,0.120446,-0.050798,-0.109586,-0.120767,0.107516,-0.071802],[0.119384,0.184554,-0.043051,-0.013378,0.053524,0.0471,0.184582,0.159918,0.052888],[0.202269,0.219376,0.285314,0.260421,0.221045,0.190721,0.211249,0.195765,0.198432],[-0.025975,0.169044,0.071388,0.090693,0.115958,0.193079,0.213276,-0.005335,0.165507],[0.129642,0.115404,0.045573,0.234537,0.191112,-0.014863,0.198358,0.138854,0.197073],[0.096725,0.078569,-0.009936,-0.015222,0.065297,0.239352,0.163932,0.207683,0.215042],[0.168022,0.012696,0.24009,0.180388,0.207775,0.104601,0.214451,0.05581,0.199128],[0.048936,-0.035383,-0.392207,-0.023674,-0.195103,-0.070544,-0.001008,-0.234025,-0.071163],[-0.049927,0.259117,-0.008591,0.04849,-0.025752,-0.138381,0.232469,0.053894,0.122335],[0.201492,0.084302,0.176259,0.281994,0.112478,0.164762,0.087711,0.155217,0.066468],[0.074309,0.120734,-0.021846,0.122942,-0.098021,0.106842,-0.100506,-0.004502,-0.098622],[-0.2973,-0.21297,-0.162529,-0.258299,-0.271139,-0.076297,-0.256167,-0.39942,-0.149395],[0.175164,0.123523,-0.081184,0.180832,0.071856,0.173865,0.080074,0.168598,0.181724],[-0.132705,-0.255364,0.117881,-0.109301,-0.009449,0.04123,-0.114095,0.108625,0.099052],[0.159368,-0.065557,0.319272,0.228066,-0.165558,-0.056572,0.130655,-0.174435,0.388489],[0.093575,-0.030149,0.074014,0.035117,-0.004943,0.09869,-0.035741,-0.0041,-0.070928],[0.124511,-0.20272,-0.244511,-0.155283,-0.212249,-0.218597,-0.283048,-0.0427,-0.078311],[0.066469,0.063409,-0.057567,0.124506,0.122524,-0.023986,-0.070249,-0.06926,-0.000808],[-0.022421,0.041196,0.175774,0.052593,0.170231,0.224277,0.153984,-0.008976,0.167011],[0.278708,0.161106,0.326146,0.173794,0.221158,0.249234,0.226811,0.114276,0.171926],[0.14625,0.119348,0.023353,0.212254,0.106302,-0.054066,-0.037673,0.16915,0.063007],[0.017765,0.119344,0.189724,0.101725,0.173808,0.198758,0.052604,-0.011475,0.28297],[-0.098246,-0.117506,0.158338,-0.094162,0.060321,-0.07112,0.065037,-0.346011,0.041936],[0.03227,0.167985,-0.064741,0.043083,0.203966,0.194479,-0.032101,0.226261,0.15692],[-0.195178,-0.277584,-0.169015,-0.443272,-0.329691,-0.25748,-0.246639,-0.244826,-0.421681],[-0.088148,0.058361,0.059283,0.038952,-0.074522,-0.026851,-0.069152,-0.048214,-0.068703],[0.103737,0.045432,0.195208,0.038119,0.196188,0.12986,-0.048452,0.140193,0.002875],[0.204356,0.195251,0.196844,0.186105,0.160169,0.217476,0.225198,0.121187,0.023481],[0.076536,0.19746,-0.08103,0.065412,0.095992,0.217684,0.009045,0.120842,-0.042132],[0.062264,0.203237,0.178245,0.225137,0.215419,0.109469,0.257946,0.159384,0.171455],[0.335435,0.149059,0.17564,0.243294,0.094147,0.140214,0.111197,0.153038,0.172344],[-0.020083,0.202488,0.109688,0.156115,0.226321,0.058286,0.210205,0.141127,0.113838],[0.11027,0.010893,-0.025403,-0.004565,-0.037427,0.020216,-0.0244,-0.073234,-0.057615],[0.110705,0.214311,0.090537,0.305461,0.115779,0.083912,0.288554,0.124541,0.114996],[-0.082918,-0.072081,-0.294694,-0.253244,-0.139643,-0.141775,-0.228911,0.029312,-0.045584],[0.119085,0.186893,0.143285,0.09313,0.115689,0.063597,0.185926,0.230321,0.039075],[-0.079579,-0.105013,-0.003401,0.025799,0.125909,0.119742,-0.065371,-0.016815,-0.00807],[0.205934,0.170326,0.16761,0.096363,0.080004,0.23056,0.121313,0.241196,0.260807],[0.177019,0.30049,-0.015037,0.142162,-0.0976,0.234584,-0.137107,-0.181073,0.133233],[0.013079,0.237137,0.020256,0.024092,0.129472,-0.035503,0.105793,0.111263,0.108491],[0.081936,0.2593,0.034088,0.033546,0.190754,0.202237,0.19742,0.144423,0.26805],[-0.139489,0.092545,-0.062976,-0.026759,0.060764,-0.014,0.0123,-0.132637,-0.007531],[0.094114,0.153775,0.268852,0.17078,0.178611,0.13225,0.064104,-0.019334,0.242078]],"biases":[0.132365,0.004981,0.090958,0.098694,0.105555,0.054296,0.058739,0.210183,-0.070815]}]},"round":144,"phase":50,"phaseIteration":2,"trained":"enemies","generation":44,"dominanceMetric":"enemyWinRate","dominanceThreshold":0.6,"dominanceReached":true,"pilotWinRate":0.0,"enemyWinRate":1.0,"averageScore":300.0,"averageWave":1.0,"averageSteps":52.0,"enemyDropRate":0.0,"invalidDropRate":0.0,"enemyFireRate":0.9038,"pilotFireRate":0.3269}
