{"id":34,"label":"Pilot v34","role":"pilot","model":"sb3-dqn-pilot-v34","actions":["left","right","fire","stay"],"features":["target_dx","abs_target_dx","threat_dx","threat_y","bullet_ready","alien_count","wave","drop_ready","enemy_shot_ready","fleet_y","lives"],"network":{"activation":"relu","layers":[{"weights":[[0.158419,-0.208632,0.409972,0.031946,-0.07634,-0.478693,-0.149823,0.059692,-0.11686,-0.657667,0.041731,0.162559,0.019496,0.041107,-0.017661,-0.276722,-0.154609,-0.223022,0.274513,0.272774,0.209015,0.122202,0.132966,0.873947,0.267634,-0.259344,-0.114649,-0.289679,-0.035761,-0.243986,0.13209,0.196339,0.059667,-0.024211,0.277666,0.004223,-0.0412,-0.595593,-0.113083,-0.003387,-0.043384,0.221683,-0.168383,0.066881,-0.29496,-0.080815,0.217989,-0.150416,0.087101,0.052946,0.098614,0.029416,0.197563,0.154712,-0.044967,-0.744325,0.08622,0.374969,0.05558,0.414591,0.298191,-0.133997,0.300776,-0.241106],[0.207646,0.701268,-0.303391,0.157175,0.476133,0.605652,-0.213957,-0.140437,-0.1885,0.074859,-0.539114,0.259211,-0.122952,-0.146433,0.15176,-0.123141,-0.284958,-0.382751,-0.2902,0.260701,-0.232903,-0.360342,-0.243864,0.561973,-0.176336,-0.224093,-0.220129,0.225363,0.583386,-0.093248,-0.157482,0.191602,-0.060305,0.205016,0.330141,0.160787,0.030291,0.548949,0.289035,0.557578,0.209463,0.110876,0.529052,-0.082701,-0.291021,-0.250798,-0.256567,-0.261039,0.200703,0.321289,-0.149608,-0.113143,-0.187703,0.09372,0.078811,0.390963,-0.07357,-0.458035,0.542439,0.320292,0.291457,-0.101771,-0.247254,-0.281615],[-0.203615,0.203168,-0.00372,-0.23388,0.107932,0.159851,0.047642,0.111226,0.05514,0.02606,-0.082406,-0.287287,0.007819,-0.188936,-0.200583,0.232581,-0.23094,-0.184849,-0.112458,-0.267759,-0.100032,0.221594,0.23076,-0.124229,-0.14224,0.191375,0.022171,0.106126,0.312258,0.249191,-0.047805,-0.001114,0.154378,-0.127294,0.070559,-0.25275,0.311672,-0.012639,0.069461,-0.0563,-0.062297,-0.274038,-0.173623,-0.239979,0.274298,-0.119196,0.221738,0.292787,0.147456,-0.112241,-0.090107,-0.109855,0.307149,-0.28083,-0.266062,-0.054743,0.255415,0.360573,0.197051,-0.275138,0.009533,-0.200856,0.049313,0.183809],[-0.162025,-0.034564,0.188627,0.054306,-0.233833,0.262975,0.001832,0.190032,-0.119985,0.037441,0.126652,-0.045092,-0.221037,-0.135421,0.030081,-0.132152,-0.237033,0.009562,0.051118,-0.266881,-0.06867,-0.221672,0.07541,0.289929,0.073085,-0.291032,-0.097124,-0.086906,-0.158893,-0.066506,0.290705,-0.071558,-0.134931,-0.146453,0.172766,0.27848,-0.012822,-0.215328,-0.238942,-0.270601,-0.172268,-0.01126,-0.096419,0.15814,0.243102,-0.19506,-0.075735,0.060394,0.231675,0.045283,-0.150496,-0.103038,0.098848,-0.193914,0.043629,0.104357,-0.259291,-0.089209,-0.255852,0.110276,-0.273309,0.094997,-0.135084,-0.232095],[0.191005,0.233796,0.0366,0.032252,0.247148,-0.017664,0.192175,0.221886,0.130125,0.256129,0.118759,0.075804,0.084041,0.10279,0.209605,-0.082415,0.00827,0.067783,0.259092,0.076372,-0.115068,0.165146,0.005318,-0.011329,0.078879,0.08217,-0.218998,0.091835,-0.381054,-0.066592,0.240965,-0.265335,0.029169,-0.09924,0.204026,0.001349,0.316547,-0.138014,0.022812,0.151029,-0.264224,0.081962,0.182353,-0.024172,-0.107904,0.226221,-0.156577,-0.103595,0.263404,-0.370672,0.287027,-0.003359,0.328099,-0.244232,-0.299456,-0.255104,-0.055333,-0.037941,0.034957,0.29744,0.013014,0.239985,-0.005544,-0.031459],[0.300728,-0.141222,0.264036,-0.236261,-0.06431,0.171957,0.077465,-0.276966,0.118416,-0.148256,0.143029,0.14975,-0.254702,0.121843,0.087773,-0.017009,-0.18545,0.388329,0.093537,-0.010757,0.248196,-0.028676,-0.007278,-0.240236,0.17563,-0.223603,0.362893,-0.019283,0.318835,0.120815,0.059026,-0.194052,0.11555,-0.246886,0.325414,0.274647,0.05261,-0.11551,-0.098564,0.144196,0.101059,0.048382,0.009325,-0.066818,0.047733,0.104492,0.078311,0.161565,0.170425,0.382579,0.30432,-0.243737,0.402394,0.06518,-0.228856,-0.054855,0.082075,0.209207,-0.21707,0.129757,0.386906,-0.054252,0.176181,-0.24116],[0.261505,0.072104,0.073354,-0.053553,-0.270905,0.050145,0.01303,-0.083581,0.169532,-0.091236,0.093968,0.14929,0.045221,0.263104,-0.228251,-0.103392,0.121683,0.338725,-0.128973,-0.19692,-0.272722,0.116633,0.009584,0.227149,0.281432,0.175132,-0.009665,0.288754,-0.204698,0.114795,0.170906,0.11273,-0.012789,-0.128338,0.283934,0.02477,0.119779,-0.120173,0.042936,-0.023353,-0.045385,-0.013784,0.253209,-0.238466,-0.000493,-0.106498,-0.013345,-0.180021,0.176726,0.209484,0.19016,-0.155401,0.010645,-0.232809,-0.134026,-0.008607,-0.281213,0.120069,0.113554,0.254106,-0.188051,0.209499,-0.116864,0.111245],[-0.203126,-0.134895,0.249598,-0.01122,0.120872,0.011398,0.124484,-0.013308,-0.155468,-0.291987,0.071565,-0.028876,-0.263924,-0.036272,-0.234694,-0.295168,0.106732,0.144448,-0.209083,-0.197845,-0.235582,0.219656,0.12741,0.264604,0.162672,-0.170345,0.093283,0.38556,-0.025795,-0.185934,-0.089071,-0.287075,0.049739,-0.231274,0.225644,-0.221488,0.22041,0.128087,0.317827,-0.005133,0.055029,0.207606,-0.038175,-0.149351,0.08715,0.073689,-0.186559,0.076758,0.247203,0.271764,0.076113,0.049912,0.11431,-0.140833,0.065149,0.019421,-0.277261,0.180609,-0.021148,-0.188996,0.350807,-0.101319,0.109252,0.094282],[0.076032,0.338047,0.141093,-0.017115,-0.259655,0.052446,0.11896,0.032802,-0.186852,0.144599,-0.085726,-0.108085,-0.121991,-0.125418,-0.301355,0.238059,-0.216054,-0.063499,0.071416,-0.118091,-0.12681,-0.021429,0.239085,-0.305087,0.373287,-0.278763,0.283203,0.295404,-0.020464,0.33323,-0.164011,-0.186514,0.220504,0.028721,0.105411,-0.218092,-0.007128,-0.140107,0.005166,-0.069174,-0.072081,-0.191586,0.069754,-0.246326,0.187043,0.269148,0.150203,0.261622,0.373903,-0.085052,0.120268,-0.073877,-0.171969,-0.046892,0.103015,-0.116641,-0.218665,-0.173086,0.132743,-0.217636,0.342233,-0.060432,-0.254399,0.056367],[-0.118951,-0.182734,-0.24323,-0.047247,-0.126621,0.406728,0.211562,0.018788,0.078941,0.11147,-0.035757,0.11007,-0.218901,0.206866,0.12975,-0.19881,-0.032025,0.17717,0.118896,0.19857,-0.160248,0.221723,-0.073306,-0.097906,-0.22733,-0.130983,-0.21845,-0.089005,0.188595,-0.032212,0.495648,0.26227,-0.07953,0.053466,-0.189654,-0.170958,0.133314,0.196841,0.341461,-0.233049,0.174991,-0.212674,0.286914,0.2532,-0.108855,0.084178,-0.250033,0.226566,-0.00476,0.014408,0.326677,-0.073999,0.096984,0.074674,-0.089248,-0.000946,-0.097541,0.11895,0.265843,0.346901,0.068182,0.008142,0.155571,-0.14555],[-0.223187,-0.224061,0.095394,-0.02513,-0.273198,-0.19883,0.005376,-0.268909,-0.024154,0.091337,0.292152,0.051791,0.292263,-0.19505,-0.283179,-0.122098,0.20557,0.197585,-0.128081,0.040278,-0.079476,0.226679,0.089034,0.164009,0.260268,-0.291707,0.340871,0.393252,-0.047739,0.126893,0.051731,0.011673,-0.03843,0.024827,0.056216,0.128382,-0.022823,0.212428,-0.275983,-0.037362,-0.122267,-0.221682,0.098161,0.065574,0.375235,0.240925,-0.138916,0.249334,0.071524,0.361054,0.244564,-0.104995,-0.143797,-0.019444,-0.128237,0.110136,-0.239082,0.352674,-0.248597,-0.052289,-0.122611,-0.260366,-0.246439,-0.15068]],"biases":[-0.222888,-0.010436,0.09889,0.201768,0.119261,-0.264581,0.087545,-0.26543,-0.068786,-0.144855,0.290729,-0.088801,-0.067524,-0.005715,0.191932,-0.103736,-0.17792,0.341585,-0.11913,-0.043533,-0.009838,0.008368,-0.052954,0.079218,0.235326,-0.298571,-0.115358,0.385298,0.305382,0.097224,-0.215104,-0.001059,0.301999,-0.239053,0.374417,0.271417,0.26992,-0.059955,-0.281181,0.05383,-0.191971,-0.109224,-0.083779,0.234787,0.312566,-0.053487,-0.037301,0.333909,0.026542,0.093768,-0.135379,0.268464,0.229997,-0.061153,0.203434,0.324486,0.204662,-0.115198,-0.190677,0.212043,0.016613,0.132269,-0.060144,-0.188085]},{"weights":[[-0.097028,-0.079685,0.086597,0.056345,-0.064481,0.003571,0.075981,0.069049,-0.092356,-0.093109,-0.050587,-0.051055,-0.048549,-0.03698,0.02455,-0.072302,-0.03849,-0.076519,0.061121,0.033862,-0.027217,0.053919,-0.089342,-0.082336,-0.066702,0.042445,-0.016784,-0.044417,-0.097679,0.021055,-0.108833,-0.091401,0.07451,-0.036584,0.089469,-0.090154,0.055172,-0.097666,-0.035708,0.012252,-0.064072,-0.030923,-0.036623,0.064017,-0.095242,0.038585,0.084354,-0.058674,-0.03475,-0.101329,-0.019669,-0.072923,0.087958,0.084199,-0.033524,0.108491,-0.117348,-0.051429,0.022731,-0.006422,-0.10603,-0.068876,-0.06906,-0.102707],[0.050448,0.013257,0.079575,-0.065389,0.119635,-0.052354,0.025221,0.100672,-0.005576,0.030277,0.175114,0.137108,-0.01406,0.133472,0.187397,0.054116,-0.153417,-0.077708,0.175172,-0.032099,-0.083473,-0.129419,0.031386,-0.157341,-0.074457,0.067292,0.095577,-0.082922,0.036263,0.038027,0.17897,-0.09123,-0.170514,0.021108,-0.002839,-0.024439,0.0314,0.059851,0.104445,-0.11256,-0.087414,0.083929,-0.023199,-0.057629,0.050782,0.122324,-0.029952,-0.053026,0.043375,0.026834,0.112502,0.167863,-0.080596,-0.001311,-0.012878,0.040808,0.001271,-0.012272,0.026651,0.107455,-0.048113,-0.075916,0.147077,0.199919],[0.109029,-0.035477,0.075669,-0.06524,0.007101,-0.026344,0.10559,0.076087,-0.068125,-0.01957,0.159394,0.003361,0.200612,0.081438,-0.130182,0.027953,0.142311,0.02087,-0.102978,-0.087875,0.086289,0.151368,0.130443,0.036433,0.03231,-0.09427,-0.075192,0.108892,0.219727,0.147068,0.02179,0.071236,0.203769,0.224438,0.03258,0.059071,-0.043613,0.074682,0.016486,-0.135992,0.077121,0.05618,0.076102,-0.060742,0.024745,-0.074798,0.089412,0.105651,0.175809,0.004269,0.090928,0.165911,0.092258,0.076398,0.000605,0.095865,0.225172,0.079154,-0.124872,0.037611,0.002717,0.139706,-0.047417,-0.204174],[-0.081223,-0.028824,0.053197,0.066325,0.01672,-0.058528,-0.10425,-0.002177,-0.099931,-0.11171,-0.035766,-0.012504,0.105656,0.087575,-0.008431,0.060059,-0.032209,0.083736,0.045348,0.111942,0.11531,-0.038401,0.027601,-0.022293,0.088817,-0.146818,-0.110066,-0.039108,-0.068674,0.059883,0.110677,0.00954,-0.046162,-0.07069,-0.120038,-0.049203,-0.090857,0.065752,0.009748,-0.067903,0.116762,0.035465,0.055659,-0.105349,0.081937,0.054439,-0.098418,0.113571,0.086992,0.052915,-0.080199,-0.079333,-0.04286,-0.106485,0.079333,-0.051738,-0.021036,0.126142,-0.061549,0.104977,0.007815,-0.040952,0.011344,-0.041557],[-0.165952,-0.041344,-0.052938,-0.097127,0.072268,0.02184,0.092601,-0.009533,0.083354,-0.089516,-0.159127,-0.207357,-0.141412,-0.088896,0.371484,-0.127777,0.145642,-0.006545,0.253136,-0.084111,-0.021541,-0.008719,-0.110693,-0.00943,0.064491,-0.109456,-0.06732,-0.04874,-0.205647,-0.11509,0.145384,0.078314,-0.343629,-0.246859,0.009039,0.129697,0.075221,-0.065384,-0.001764,0.084604,0.036852,-0.097185,0.060736,0.244535,-0.152231,0.244297,-0.293311,0.008018,0.044342,-0.098577,-0.265235,-0.130418,-0.095587,0.108039,-0.116207,0.239314,0.016353,-0.206062,-0.048585,0.186151,0.10694,-0.113353,0.030784,0.189956],[-0.167591,-0.045825,-0.171552,-0.02428,-0.047059,0.012259,-0.078055,0.032387,0.04871,0.018278,-0.409603,-0.08344,-0.178678,-0.434134,0.32712,-0.129796,-0.347697,-0.067625,0.16557,-0.119967,-0.201845,-0.454466,-0.271209,-0.119042,-0.100976,0.275011,-0.037968,-0.074676,-0.309164,-0.286239,0.203797,-0.041619,-0.438448,-0.228688,0.112757,0.018806,0.079405,-0.096718,-0.010721,-0.014409,0.005946,-0.426006,0.086682,0.034214,-0.45548,0.22031,-0.325015,0.054442,-0.33233,-0.104061,-0.243532,-0.293408,0.050142,0.058103,0.066083,0.086046,-0.324446,-0.40944,0.015913,0.385763,-0.0364,-0.285008,0.088674,0.205985],[-0.025349,0.102799,0.122709,-0.001572,-0.027185,0.081571,-0.051305,-0.05424,-0.02487,-0.112058,0.207293,0.12588,0.161188,0.024181,0.058197,0.05015,-0.067517,-0.089044,-0.049325,0.044773,0.146867,0.05345,0.057427,0.07793,0.00404,0.025782,0.0908,0.066344,0.195162,0.064508,0.122829,-0.049371,0.124811,0.086735,-0.134491,0.00878,-0.064264,-0.062512,-0.073097,0.068823,0.081622,0.177475,0.035988,-0.110838,0.078127,0.002984,-0.007477,0.075845,0.013606,-0.108668,0.175713,0.091997,0.059601,-0.005335,0.008891,-0.12105,0.199729,0.087089,-0.086556,-0.071006,-0.100391,0.04273,-0.000665,0.023408],[0.036803,0.073542,0.075489,0.061277,-0.043833,-0.027329,-0.034855,-0.105361,-0.12041,-0.023548,-0.088907,-0.054513,0.018678,-0.004786,0.04738,0.059825,-0.130414,-0.037992,0.011052,-0.082207,-0.017857,0.06237,0.000848,0.110193,0.120457,-0.072532,-0.073226,0.013495,0.086487,0.005568,0.113793,0.078298,-0.053304,-0.020149,0.048625,0.052782,0.033672,0.07947,-0.016556,0.05322,0.109829,-0.104563,-0.026375,0.101171,-0.026933,0.094246,0.112178,-0.047698,-0.099566,0.038807,0.047081,0.09415,-0.054022,0.086182,0.025517,0.067631,-0.08504,0.035185,-0.088167,-0.048306,-0.102658,0.00782,0.021028,0.091518],[0.101108,0.022373,-0.081581,-0.053912,-0.007005,-0.003109,-0.036355,-0.100988,0.065693,0.034769,-0.107059,-0.073311,0.040744,-0.103224,0.005382,0.051086,0.077913,-0.080504,-0.084946,0.011373,0.013939,-0.093509,0.059641,0.113319,-0.071696,-0.020371,0.095615,0.100956,0.075784,0.069849,0.123174,-0.119302,-0.000371,0.083119,-0.02306,-0.020902,0.072939,0.120734,-0.029656,-0.072993,-0.015935,0.07248,0.086938,0.104837,-0.046621,-0.062239,0.091794,-0.079014,-0.068411,-0.035653,0.091283,0.003379,0.077897,0.014594,0.092123,-0.019627,-0.037679,0.116543,0.069492,0.062584,-0.11594,-0.039869,0.077775,0.063182],[0.160237,0.015873,-0.079815,-0.005778,0.064069,-0.052802,0.035095,0.076721,0.078335,-0.027342,-0.166188,0.117318,-0.210259,-0.314489,0.008417,-0.072569,-0.041887,0.074,0.027477,0.088401,0.012795,0.040466,-0.081248,0.059375,-0.037087,0.435706,0.123241,0.064115,0.066624,-0.189422,0.171425,0.05029,-0.337118,-0.06226,0.10359,0.043333,-0.05228,-0.087326,0.090554,-0.044018,0.008976,-0.125433,-0.028453,0.188376,0.02584,0.297136,-0.140309,-0.015591,0.043973,-0.100943,-0.129591,-0.061303,0.066948,-0.044516,0.009683,0.078179,-0.047282,-0.124299,-0.015086,0.29373,-0.023384,-0.130707,0.058602,0.325703],[0.249327,-0.087997,0.221411,-0.102269,0.008798,-0.026461,-0.018705,0.022162,0.110631,0.069774,0.237047,0.26225,0.110822,0.093766,-0.20501,-0.068127,-0.085191,-0.055354,-0.127818,-0.09873,0.142663,0.07416,0.253519,0.051026,-0.093673,-0.095411,-0.124051,-0.108336,0.023208,0.148527,-0.225368,-0.008,0.075056,0.083222,0.028855,0.061908,0.102493,0.103075,-0.003614,-0.051075,0.052535,0.257659,0.066729,-0.069902,0.068948,-0.142274,0.194955,-0.084509,0.098184,0.08988,0.070314,0.119556,-0.03154,-0.084028,0.043838,-0.211189,0.244321,0.200463,-0.108694,-0.161426,-0.056079,0.226098,-0.071599,-0.02583],[-0.027332,-0.044798,-0.016096,0.105993,0.110813,0.061441,0.119614,-0.121564,0.050957,0.009215,-0.005584,-0.106948,0.103945,0.046216,0.065411,0.001526,-0.030947,-0.033256,-0.089735,-0.029981,0.048431,0.100379,-0.060337,0.075372,0.036659,-0.010194,-0.079862,-0.109832,-0.052688,0.04045,0.011948,-0.066901,0.122171,-0.070261,-0.086316,0.043423,-0.068597,0.04849,-0.105417,-0.006187,0.08999,-0.08826,0.063007,-0.017268,0.007985,-0.013134,-0.021562,-0.090889,0.08265,0.079354,-0.059726,-0.028503,0.09884,-0.088547,-0.10401,-0.100771,0.041825,-0.091087,-0.115982,0.01283,0.003075,-0.00378,-0.024745,-0.014508],[-0.123685,0.00931,-0.007566,0.097594,0.044205,0.006908,0.043106,-0.107377,0.018796,-0.088024,-0.077824,-0.040283,0.030505,0.060646,-0.026445,0.026812,-0.117024,-0.047329,-0.009347,-0.007782,-0.002632,0.03015,-0.08873,0.005183,-0.092306,0.103599,-0.087789,0.075284,-0.097947,-0.102495,0.065751,-0.066478,-0.079203,0.079518,0.003526,-0.120605,0.011786,0.042903,-0.034086,0.003223,0.110409,0.093674,0.114936,-0.069472,0.037752,0.017558,0.032997,0.010472,-0.046721,0.050279,-0.116452,0.104727,-0.066267,0.10791,0.02535,-0.014168,0.002179,0.03101,-0.063612,0.014746,0.046937,0.059959,0.023209,-0.04982],[0.032797,-0.100548,0.048173,0.104012,-0.070632,-0.093468,-0.025726,-0.013108,0.081045,-0.031177,0.055278,-0.053312,-0.08412,-0.100284,0.069441,-0.074933,-0.089841,0.111671,0.047601,-0.023271,0.027257,-0.025346,0.008181,0.042982,0.087047,0.123556,-0.097529,-0.080997,-0.047396,0.108902,-0.061781,-0.116191,-0.069321,0.130633,0.121909,-0.097424,-0.040245,0.008253,-0.004193,0.068811,0.022257,-0.096443,-0.100419,0.002409,0.102755,0.030901,-0.0957,-0.097945,0.050506,-0.053101,-0.052398,-0.111627,0.083394,0.011045,0.111255,0.007609,-0.097187,0.054656,-0.114109,-0.058486,-0.04597,0.007143,0.018904,0.009388],[-0.005922,0.118229,0.063545,0.020102,0.079511,0.045324,0.039249,-0.097437,-0.01608,-0.054617,0.007545,0.043408,0.023876,0.024204,-0.088237,-0.093863,-0.096154,0.068084,-0.117732,-0.122138,0.07969,0.069428,0.110855,-0.099656,0.097131,0.069172,0.003663,-0.050055,0.071861,-0.071814,-0.08254,0.004751,-0.05118,0.120869,0.003604,0.064269,0.018374,-0.069582,0.081384,-0.116441,0.011991,0.106268,-0.073182,-0.023459,-0.04672,0.024014,-0.037512,-0.036218,-0.079014,0.031417,-0.032895,-0.050089,0.053569,-0.01576,0.021634,-0.082914,-0.113489,0.044642,0.069613,-0.073508,0.122452,0.048611,0.025432,-0.004138],[0.05482,-0.036829,0.013431,0.101276,0.042081,0.052703,-0.061344,0.107671,0.058345,-0.078137,0.005976,-0.035509,-0.097155,0.0846,-0.091748,0.017833,-0.059902,0.110712,0.067535,0.123842,0.007567,-0.022336,0.100645,-0.034791,-0.013665,-0.083842,0.093986,0.023907,-0.056375,-0.065143,0.032929,-0.00798,-0.067628,-0.028008,-0.02928,-0.03838,-0.096448,0.056463,-0.017869,-0.033793,0.120325,-0.085091,-0.065952,0.060076,-0.069608,-0.032447,0.081092,-0.057546,0.114405,-0.11208,0.052324,-0.058774,0.054198,-0.093735,0.065236,0.063848,-0.105827,-0.095198,-0.096327,-0.008376,-0.022126,0.013075,0.109469,0.031103],[-0.04235,0.110922,-0.083996,0.044752,-0.058184,0.090777,0.066537,-0.04709,-0.001378,-0.107613,-0.042198,0.00398,-0.10914,0.057965,0.094059,-0.092463,-0.020281,0.083899,-0.099103,-0.02215,-0.022077,-0.060095,-0.021399,-0.000232,-0.107306,-0.116681,-0.035719,0.059531,0.047278,-0.039642,-0.092416,0.000767,0.03715,-0.104835,0.021815,-0.042865,0.013869,0.003353,0.064196,0.019437,0.119139,-0.023298,0.114349,0.011236,0.085439,-0.011171,0.000811,-0.087632,-0.082234,-0.066228,-0.092191,0.120141,0.09372,0.073899,-0.058768,-0.006892,-0.070766,0.058092,-0.025403,0.064553,-0.005783,-0.054627,0.11968,-0.042516],[0.143984,-0.031221,0.096284,-0.109811,-0.063999,0.01827,-0.006382,0.000833,0.124579,0.089009,0.243182,0.008642,0.09475,0.082499,-0.094166,0.046056,0.098981,0.054101,-0.180136,0.06227,0.069813,0.099131,0.067944,-0.148223,-0.110911,-0.062342,-0.110268,-0.12392,0.105302,0.076343,-0.051619,-0.083697,0.033918,0.181878,-0.067991,-0.009754,-0.071509,-0.064934,-0.006838,-0.057178,-0.13105,0.054988,-0.111969,0.027062,0.245083,0.013364,0.225802,0.123865,0.054402,-0.086549,0.129094,0.093087,0.028752,-0.006895,0.057004,-0.096378,0.211876,0.214918,-0.104629,-0.143601,0.108713,0.223761,-0.020645,0.025582],[-0.096663,-0.117847,-0.004668,0.091141,-0.004711,0.068326,-0.063858,0.083839,-0.091122,-0.015108,0.057823,-0.009276,0.037818,0.07602,-0.055564,-0.124319,-0.043727,-0.095024,0.037002,-0.036765,0.093768,-0.108164,0.102446,0.115024,-0.069175,-0.051356,0.063659,0.120768,-0.086197,0.05686,-0.050329,-0.024103,0.04573,-0.034899,0.076318,0.038481,0.044888,-0.026963,0.124152,0.024015,0.015194,-0.020875,0.076141,-0.040468,0.127771,-0.117537,-0.064904,0.007181,-0.089011,0.120641,-0.070563,0.120078,0.085037,0.097714,-0.019544,-0.12055,0.017782,0.120941,-0.000453,-0.01028,0.094985,0.012963,0.1171,-0.01046],[0.0546,-0.122331,-0.118141,-0.091406,-0.049571,-0.096397,-0.067905,0.065049,-0.113497,0.032248,-0.017451,-0.119103,0.082451,-0.060184,0.089893,-0.028588,-0.124104,-0.009272,-0.000323,-0.080512,-0.022144,0.008335,0.058204,0.008848,-0.009033,0.054823,0.113296,-0.086425,0.056621,-0.107335,-0.054925,-0.005889,-0.044035,0.043817,-0.067506,0.042387,0.119916,0.074585,0.003648,-0.119914,-0.098841,0.091154,0.013261,0.090162,0.018836,0.106184,-0.089653,-0.087026,-0.120223,-0.102556,-0.121402,-0.083765,-0.024479,0.05027,0.092126,0.037801,-0.119627,0.038552,-0.012783,-0.067851,0.087423,0.005509,-0.030717,0.008034],[0.0512,0.104197,0.078273,0.118159,-0.122881,0.007623,0.015871,-0.004951,0.000341,-0.071818,0.007105,-0.08478,0.077969,0.119624,-0.034552,-0.123852,0.017398,0.070694,-0.09898,-0.03361,-0.064451,-0.003014,0.072977,0.008698,0.052368,0.014771,0.100904,-0.081741,0.054958,-0.069022,0.085644,0.072732,0.067079,0.007542,-0.00285,-0.079237,-0.00586,-0.064588,0.063519,0.02042,-0.043958,-0.057201,-0.037337,-0.121975,-0.017194,-0.019008,0.124903,-0.067831,-0.005047,0.097389,-0.056723,0.088756,-0.016651,0.059965,-0.08797,-0.0417,-0.056467,-0.11931,-0.008017,-0.103304,-0.033404,-0.119717,0.105202,-0.052217],[0.184247,0.011398,-0.032198,0.022418,-0.098209,-0.012056,-0.127181,0.050984,-0.028842,0.123126,0.226386,0.040818,0.00097,0.173504,-0.094585,-0.103271,0.01289,-0.08619,0.046584,0.020297,0.129586,0.013849,0.047849,0.040225,-0.006633,-0.06556,0.072613,-0.071689,0.212656,0.147186,-0.092606,0.005937,0.019719,0.166991,0.022624,-0.085047,0.011046,-0.01729,0.079857,-0.114894,-0.131576,0.219977,-0.037772,-0.092465,0.228472,-0.086887,0.097259,0.011718,0.103053,-0.048876,-0.021173,0.086201,0.048155,0.051929,-0.096667,-0.026052,0.148172,0.113482,-0.052545,-0.034014,-0.079923,0.158802,-0.035459,0.069273],[0.082306,-0.135516,0.160463,0.009064,-0.0057,-0.102248,-0.066124,0.026901,0.036071,0.050453,0.104339,0.078359,0.016931,0.147741,-0.062018,-0.003193,0.030011,-0.051195,0.029614,-0.013257,0.131495,0.233192,0.081495,0.068304,-0.119324,-0.049883,-0.055833,0.083222,0.099886,0.099316,-0.177789,0.107495,0.167671,0.186551,0.054587,-0.081159,-0.005893,-0.007321,0.103008,0.01216,0.100456,0.187232,-0.042872,0.018196,0.129456,-0.129801,0.029301,-0.042919,0.256219,-0.072797,0.150281,0.209007,-0.076151,0.056736,-0.004988,-0.076038,0.240627,0.201409,-0.00606,0.027745,0.11091,0.04061,0.038913,0.006989],[-0.034012,0.012822,-0.118106,-0.121922,0.038189,-0.118671,-0.121172,0.08172,-0.027533,0.119097,-0.026445,-0.159569,0.064454,0.120305,0.435987,0.023785,0.355743,-0.086105,0.672297,0.063013,0.204463,0.035484,-0.036086,0.023328,-0.012693,-0.529019,0.04173,0.072266,0.111406,0.171807,-0.16571,-0.054218,0.137118,-0.212832,-0.077911,-0.051883,0.094475,-0.107766,0.098383,0.073676,-0.05024,-0.025123,0.020077,0.460624,0.026932,-0.052119,0.025757,-0.026489,-0.13172,-0.052487,0.15083,0.053389,-0.016064,-0.081982,-0.064749,0.53618,-0.010608,0.379642,-0.062539,0.294999,-0.005309,-0.132196,0.166497,-0.167855],[0.015794,-0.058667,0.070846,0.052435,0.108898,0.070615,-0.115632,-0.139964,-0.065793,0.01032,0.099111,-0.026751,0.21529,0.158849,-0.055356,0.038779,0.10697,0.095382,-0.075007,-0.115297,0.140332,0.262849,-0.006551,-0.106024,0.027247,0.052173,0.045856,-0.0895,0.211143,0.201128,-0.047049,-0.054492,0.131184,0.121624,-0.022564,-0.144156,-0.102581,0.064053,0.060627,0.078179,0.008315,0.172857,-0.046755,-0.034759,0.02283,-0.033423,0.167535,-0.088902,0.093141,0.121933,0.192408,0.207962,0.084707,-0.037787,-0.080076,0.039829,0.181282,0.118278,-0.044897,0.056663,-0.056868,0.163662,0.005191,-0.07947],[0.045201,-0.121806,0.056925,0.035824,-0.039163,0.099112,0.077285,-0.042796,-0.056072,0.043306,0.004038,-0.094144,-0.052087,0.01404,-0.022892,-0.078305,0.093695,-0.100755,-0.081341,0.1233,0.080768,0.019052,0.098138,0.075027,-0.076039,-0.106744,0.059159,-0.123775,0.097206,-0.093433,-0.062161,-0.090945,0.082965,0.094912,0.107388,-0.012821,0.084203,-0.121325,0.004013,-0.054818,0.034707,-0.056147,-0.007078,0.109999,-0.094303,0.09949,0.036694,0.009333,-0.038562,0.06834,-0.057828,-0.025713,0.027306,-0.072276,-0.0567,0.093315,0.007957,-0.11895,-0.054048,0.016647,-0.032164,0.00731,-0.074138,0.09819],[0.266108,-0.05096,0.229861,0.012938,0.007944,0.021333,0.080426,0.072386,0.060789,0.106265,0.106853,0.209505,0.07235,0.055724,0.038095,0.055072,0.256693,-0.00142,-0.036727,0.078425,0.22406,0.219044,0.250635,-0.004641,0.00398,-0.01446,-0.000397,-0.094847,0.234277,0.103659,-0.003194,-0.130477,0.000964,0.213789,-0.021455,0.035906,0.079648,0.09092,0.047249,-0.031979,-0.138242,0.030176,-0.051587,0.03478,0.218486,-0.019058,0.248957,-0.083793,0.27443,0.109076,0.122964,0.07755,-0.110647,-0.034298,-0.081388,0.012199,0.298203,0.148775,0.089268,-0.124131,0.023527,0.018844,0.079345,-0.079474],[0.234217,-0.127751,-0.013465,-0.044849,-0.0656,-0.079486,-0.011222,-1e-05,-0.077265,-0.021129,0.205426,0.187786,0.096369,0.194203,0.05996,0.059038,-0.036676,-0.097045,-0.022934,-0.075117,0.124333,0.238475,0.207771,-0.012797,0.088077,0.072605,-0.053662,0.081235,0.068642,0.034456,0.113308,0.031758,0.073028,0.141984,0.075584,-0.035122,0.111427,-0.076525,-0.105098,0.082565,0.026408,0.07734,-0.108543,0.074503,0.174299,0.050953,0.207905,-0.122956,0.203203,0.084501,0.200957,0.19665,-0.087372,0.09441,0.01799,-0.092168,0.144321,0.148934,0.082566,0.0682,0.011819,0.153831,-0.118259,0.087966],[0.05789,0.023491,0.08115,-0.0072,0.075585,0.07185,-0.063543,-0.060637,-0.121311,-0.005519,0.060158,-0.016676,0.214845,0.052792,0.130948,-0.081329,0.041871,-0.103994,0.133105,0.091852,0.102438,0.174701,0.02672,-0.075932,0.097205,0.127532,-0.056019,-0.111406,0.086269,-0.002095,0.043779,-0.086654,0.070781,-0.047616,-0.094901,-0.005929,0.023857,0.056943,-0.115385,-0.130691,0.019856,0.137129,0.011137,0.080982,0.059043,-0.013533,0.076301,0.02268,0.092806,-0.102344,-0.008272,0.125957,-0.067197,0.047064,-0.128653,0.111187,0.057296,0.154474,-0.086115,-0.045898,-0.014215,0.00408,0.079744,0.134566],[0.081865,-0.078801,0.059682,0.02972,-0.012332,-0.025835,-0.026677,-0.086012,0.053876,0.067767,0.050017,0.211637,0.007577,0.202732,-0.026938,-0.061112,0.119106,0.121579,-0.154159,-0.115375,0.172645,0.0242,0.159489,0.007596,-0.056709,0.119702,-0.106626,-0.017312,0.200631,0.056998,-0.067979,-0.016053,0.137961,0.115318,0.094249,0.084483,0.00977,-0.080072,0.031188,0.018673,-0.107968,0.092879,0.003658,0.038445,0.195482,0.01902,0.055243,-0.040318,0.021532,-0.061431,-0.014093,0.108249,-0.043759,0.005439,0.050996,-0.037103,0.104161,0.119631,0.037993,0.033449,-0.034554,-0.015128,-0.014286,0.090106],[-0.292728,-0.005173,-0.322222,0.068482,-0.091592,0.093544,-0.049322,-0.048339,0.002871,0.082674,-0.144709,-0.26224,-0.196618,-0.168387,-0.20389,-0.110624,-0.0306,0.104374,-0.201335,-0.047788,-0.303586,-0.251817,-0.140301,0.082773,-0.019719,-0.295243,-0.04397,-0.108333,-0.113413,-0.164378,-0.004866,-0.124261,-0.161566,-0.196446,0.100109,0.02911,-0.032253,-0.113626,0.090711,0.102091,0.019841,-0.134175,-0.065652,-0.423859,-0.233276,0.283721,-0.084886,-0.100777,-0.372036,-0.027025,-0.053692,-0.196949,0.0888,-0.101855,0.081755,-0.073496,-0.300702,0.027425,0.113605,-0.329958,-0.016464,-0.162258,0.089088,-0.284844],[0.100257,-0.09225,-0.026942,-0.001386,0.028254,0.027993,-0.024485,0.114458,-0.023992,-0.113135,0.121883,0.025773,-0.045382,0.111086,-0.104148,0.110682,-0.072624,0.019863,0.073941,0.073112,0.087686,0.009696,0.122197,-0.054866,-0.025877,0.035203,-0.109929,-0.02153,0.026745,-0.015633,0.042239,-0.083438,0.049557,0.045104,-0.009694,-0.037587,0.085174,-0.085332,0.032719,0.11588,-0.055404,0.055745,-0.014188,0.019818,0.124883,0.01458,0.072619,0.084495,-0.106438,-0.054326,0.037477,0.008731,-0.103136,0.116402,-0.082414,-0.015619,-0.00804,0.041003,-0.073134,0.014565,-0.06376,-0.005393,0.018806,0.018831],[0.214394,-0.04585,0.13753,-0.061474,-0.112667,-0.006448,0.018732,0.080417,-0.000968,-0.096402,0.024066,-0.001019,0.215259,0.213743,-0.043391,-0.146943,0.197985,0.025881,0.085003,0.042266,0.058976,0.190007,0.114736,-0.115921,0.061279,-0.052007,0.047528,0.031965,0.1888,0.126835,-0.098799,-0.063608,-0.012619,0.195058,0.087795,0.094636,-0.034111,0.048697,-0.061058,-0.076359,0.071866,0.097352,-0.019181,-0.026981,0.087692,-0.06097,0.195733,-0.081903,0.087782,-0.08159,0.098091,0.012203,-0.110719,-0.113975,-0.107364,-0.047061,0.021835,-0.001394,-0.080632,-0.071396,0.049365,0.152994,-0.137055,0.090963],[0.053548,0.062924,0.096465,0.045143,-0.022749,0.103146,-0.048216,-0.052083,-0.094563,-0.016846,-0.097996,0.078358,-0.048577,-0.084614,0.019682,-0.048035,0.056484,0.061147,0.083592,-0.015757,-0.063911,-0.021719,0.057827,0.074652,0.005288,-0.07049,-0.064934,0.082896,-0.024262,0.079989,0.059475,0.004671,-0.100147,-0.115684,-0.085614,-0.096614,-0.04017,-0.069147,-0.03675,-0.085118,0.073599,-0.041281,0.054677,0.10928,0.108546,0.122204,0.005981,0.023816,-0.037969,0.098705,0.069745,-0.01744,0.085297,-0.02875,-0.025364,-0.004379,0.027247,-0.001699,-0.054455,0.11709,0.083156,-0.124592,-0.041534,0.070835],[0.043813,0.108673,0.145649,-0.078432,-0.110003,-0.057122,0.093364,0.048717,-0.078645,-0.028486,0.003659,0.12298,0.163858,0.220968,0.068509,0.086064,0.106085,0.013333,0.099563,-0.111544,0.176044,0.227851,0.185747,-0.133787,-0.122095,0.016954,-0.036344,-0.116093,0.066047,0.22411,0.073802,-0.047006,-0.060518,0.006547,-0.097672,-0.036617,0.042747,-0.093682,-0.017915,-0.134127,-0.025582,-0.012143,0.058259,0.044413,0.121508,0.118511,0.135272,-0.030952,0.026278,-0.095993,0.08885,0.094778,-0.09555,-0.08285,0.083995,0.077939,0.066049,0.09237,0.016631,0.115965,-0.124205,0.062828,0.08642,-0.092188],[0.067343,0.078688,0.080461,-0.049894,0.025193,-0.043975,0.1122,0.036947,0.087322,-0.029852,-0.023428,-0.113319,0.009641,-0.074627,0.035424,0.006321,-0.007644,-0.065277,-0.036525,-0.041747,0.055849,0.072479,-0.009137,-0.042983,-0.069294,0.109075,0.019556,0.015449,-0.0902,0.074228,0.014431,-0.067542,-0.084238,-0.048269,-0.067486,-0.110193,0.054493,0.042505,0.038675,0.070998,0.033379,-0.029332,0.099837,0.017288,0.070044,-0.019687,0.057861,0.052217,0.101337,0.096083,-0.102324,0.088888,0.062889,0.072556,0.005078,-0.018371,0.11597,0.062169,0.043065,0.044728,-0.030386,0.049277,-0.109,0.070353],[0.202666,0.08492,0.115955,0.112543,-0.10639,-0.086531,0.013658,0.007382,-0.008561,-0.035033,0.149941,0.084848,0.210471,-0.006882,0.117922,0.006586,0.133587,-0.032016,0.018644,-0.006783,0.196217,0.00244,0.144778,-0.021556,-0.0501,-0.072083,-0.086283,-0.058406,0.222377,0.131258,-0.055256,-0.007697,0.134652,0.075452,0.043037,0.079434,-0.076447,-0.075355,-0.070262,-0.060428,0.095799,0.170379,-0.040098,-0.08293,0.021071,-0.059788,0.134986,0.01794,0.181814,-0.121242,0.166433,0.047843,-0.085514,-0.11938,-0.018848,0.003501,0.15132,0.018234,-0.031079,-0.099115,0.031419,-0.044396,-0.091046,0.001675],[0.193693,-0.014114,0.138087,-0.083508,-0.130955,0.069695,0.023459,0.089287,0.062079,-0.091122,-0.029532,0.147578,0.00934,0.003395,0.213319,0.075347,-0.067825,0.117782,0.126952,-0.115069,0.181563,0.170365,0.125827,-0.036306,-0.02858,0.286223,0.080941,-0.094659,0.136327,-0.04806,0.131425,-0.035388,-0.037143,0.001294,-0.100135,-0.082129,0.100157,-0.060875,0.070886,-0.026112,0.001379,-0.062765,-0.068785,0.137855,-0.063225,0.069736,0.083801,-0.084002,-0.055427,0.115405,-0.010597,0.181633,-0.059845,-0.105128,-0.038021,0.061208,0.031613,-0.087972,-0.122333,-0.01409,-0.093936,-0.015162,-0.020324,0.332911],[-0.182348,0.009177,0.043311,0.01988,0.104784,0.072696,-0.010519,-0.122836,0.062377,0.083438,-0.050338,-0.090743,-0.036866,-0.088132,0.165075,-0.03042,0.018204,-0.084372,0.002562,-0.034897,-0.119436,-0.158058,-0.231149,0.034909,0.060709,-0.093487,-0.067306,-0.110175,-0.011167,0.010628,0.2187,-0.01631,-0.165494,-0.196338,-0.099868,-0.112883,0.080285,-0.01311,-0.101226,0.073411,0.042751,-0.059133,0.097613,0.065777,-0.17658,0.249817,-0.158373,-0.050962,-0.111487,0.081944,-0.115202,-0.029828,0.109932,0.041751,-0.058774,0.132382,-0.139135,-0.207635,-0.106966,0.085262,0.005563,-0.133668,-0.07278,-0.101088],[0.107567,0.081662,0.110917,-0.051494,-0.087253,0.022094,0.052689,-0.114041,0.024785,0.001559,0.019567,0.043583,-0.0659,-0.109499,0.311711,-0.109347,0.198176,0.025742,0.248813,0.10837,0.079096,0.204289,0.135733,-0.047236,-0.123942,-0.118878,0.044499,0.122756,-0.086588,-0.098947,0.072869,-0.054861,-0.192278,-0.04478,-0.086297,0.015697,-0.065098,0.097294,-0.03486,-0.123164,0.034514,-0.031213,0.073228,0.396001,-0.0085,0.264079,0.149003,-0.09981,0.034216,-0.099976,0.103393,0.115685,-0.086214,-0.035269,-0.086746,0.252037,0.161398,0.010394,-0.10415,0.265149,0.10301,-0.018768,0.156725,0.219707],[0.075003,-0.110024,0.108856,-0.069669,0.044653,0.030645,0.086105,0.062166,0.109678,-0.05782,0.121395,-0.025616,0.052689,0.052547,0.031368,-0.109322,-0.08047,-0.081607,-0.061322,0.115187,0.095021,0.083311,0.092044,0.115013,0.101667,-0.027323,-0.062121,0.045955,-0.009074,0.122403,0.089753,-0.081681,-0.092335,0.123237,-0.0608,-0.026731,-0.012799,0.001953,0.081662,-0.008475,0.026459,0.072173,-0.054801,0.093808,-0.042614,-0.093013,-0.105928,0.055329,0.007552,0.071915,0.090342,-0.027074,0.092213,-0.116972,0.071057,0.02021,-0.091982,-0.050264,0.114203,-0.012444,0.034413,0.048471,0.078738,0.120616],[-0.077103,-0.090522,-0.072341,-0.049735,-0.049208,0.033381,0.036487,-0.0397,-0.104722,0.110339,-0.030099,-0.099642,0.116589,0.055961,-0.030435,-0.059265,-0.053252,-0.121311,0.039824,-0.100769,0.048534,-0.050249,-0.094639,0.028005,-0.01647,-0.039707,-0.019545,0.080689,0.073783,-0.095572,-0.095731,0.080974,0.073538,-0.088631,-0.008639,0.020466,0.051738,0.104996,0.047338,-0.072666,0.0115,-0.047986,-0.056159,-0.08169,-0.098499,-0.111799,0.11098,0.022101,-0.031074,-0.014445,-0.059369,-0.03806,-0.083141,0.030083,0.098164,0.077494,0.068193,0.018968,0.002381,-0.079158,-0.027846,-0.040288,-0.03531,-0.104714],[-0.05622,0.076705,0.010533,0.025603,-0.050743,0.086387,-0.126904,0.091078,0.090586,-0.068021,0.010361,0.036499,0.119465,-0.024896,0.229859,0.044835,-0.156398,0.007647,0.037528,0.07981,-0.022688,0.055549,-0.101617,-0.029836,-0.066407,0.024541,-0.020713,0.014739,0.019186,-0.115714,0.135631,0.020771,-0.183918,0.049843,-0.040844,0.125509,-0.091568,0.029626,-0.057322,0.095779,0.004789,0.028057,0.066668,-0.156971,-0.103581,0.086983,0.078529,0.072967,-0.108073,-0.041243,-0.045037,0.163793,-0.043709,-0.110666,0.044679,0.278882,-0.083945,0.009657,-0.124875,0.208614,0.067441,0.034528,0.102121,0.089672],[0.039135,0.010535,0.015179,0.119675,-0.023114,-0.009772,0.095562,-0.055088,-0.090524,-0.117753,-0.021908,-0.00481,0.076771,0.121316,0.033948,-0.039407,-0.082187,0.094849,-0.115748,-0.041073,-0.018444,-0.026104,0.031211,0.008408,0.049394,-0.045249,0.120266,0.113631,0.015144,-0.1153,0.043426,0.026917,-0.113004,-0.058347,0.123297,0.089112,0.061101,0.071534,0.080442,0.096551,-0.071191,-0.09126,0.010802,0.03556,-0.111458,0.085503,0.010291,0.100945,0.046895,0.033885,0.088834,-0.097278,0.021303,0.068359,0.039544,-0.01341,-0.117065,0.044962,0.097686,0.043528,0.057848,0.022808,0.01701,0.042381],[0.233152,0.091339,0.028735,-0.124825,0.090133,0.035582,0.007758,0.014319,0.030686,-0.075226,0.085633,0.188189,0.120944,0.045809,-0.074767,-0.095405,0.142859,-0.02875,0.065629,-0.00221,0.169498,0.216873,-0.015378,0.057698,0.010803,0.147434,0.103577,0.090189,0.11206,0.001241,-0.057583,0.083127,0.015663,0.124431,0.014408,0.09381,-0.107127,-0.110818,0.101343,-0.05421,-0.117614,0.104264,-0.041167,0.144813,0.145033,0.097199,0.081658,-0.04846,0.093792,-0.094249,0.075673,0.138747,0.017581,-0.105251,0.018436,-0.078464,0.090371,-0.016239,-0.100041,-0.03385,-0.11275,0.126772,-0.128128,-0.098201],[-0.012543,0.015411,-0.012138,0.062211,0.030526,0.070777,-0.082393,-0.065705,-0.113239,-0.03308,0.157389,0.231113,0.172833,0.125956,-0.159573,-0.026847,0.030405,0.058005,-0.144887,-0.041205,0.08553,0.092853,0.214598,-0.077112,0.037106,0.007821,-0.032737,-0.076302,0.205751,0.107867,0.018107,-0.059223,0.093469,0.122142,-0.030201,-0.081792,-0.069198,0.004194,0.056541,0.004202,0.067302,0.086626,0.099055,-0.044316,0.061335,0.078334,0.13546,-0.018758,0.08036,-0.002826,0.008579,0.002842,-0.01491,-0.091136,0.101245,0.010859,0.06836,0.092849,0.022271,0.002809,0.045292,0.019625,-0.114451,0.00546],[-0.058027,0.073645,-0.012864,0.095629,-0.006894,-0.021299,0.041389,-0.106187,0.058369,0.017728,-0.114123,0.014141,-0.061703,0.063924,0.042242,-0.041148,0.074719,-0.112798,0.007948,-0.002825,-0.004727,-0.052758,-0.067599,-0.038768,-0.015591,-0.043173,-0.069753,-0.087683,0.089695,-0.119274,0.018251,-0.106444,0.06495,0.038231,-0.02479,-0.007627,0.03453,-0.093273,-0.054793,-0.098129,-0.080934,-0.014077,-0.059468,-0.023392,0.020528,-0.012995,-0.032383,0.103764,-0.05884,-0.119195,-0.113931,0.036635,-0.012845,0.096059,0.071175,-0.090075,0.104858,-0.032896,0.080133,-0.022658,0.100542,-0.052238,-0.00062,0.122852],[0.145447,-0.12299,0.186761,0.03379,-0.05286,-0.033953,-0.00143,-0.00628,-0.099591,0.019568,0.008648,0.152528,0.137746,0.150545,-0.058598,-0.074891,0.094075,-0.119698,0.0141,0.036284,0.217201,0.054424,0.077801,0.014246,0.067748,0.003533,-0.098504,0.119253,0.134339,0.192884,-0.0349,0.095963,0.1361,0.195961,0.040093,0.034461,-0.121546,-0.046137,0.070111,0.093023,-0.075234,0.060132,0.043401,0.078471,0.207097,-0.125712,0.014762,-0.070279,0.18128,-0.072132,0.073119,0.024875,-0.093502,-0.091314,0.107205,0.050935,0.008708,0.127183,-0.105662,-0.099035,0.08509,0.06371,-0.114996,-0.012865],[0.107905,-0.091351,0.074354,0.079484,-0.086378,-0.092244,-0.020915,0.001423,-0.118433,-0.112998,0.183301,0.002331,0.121294,0.057453,0.042968,-0.041619,0.133775,0.041355,-0.039798,-0.121431,0.219481,0.117907,0.112089,0.07139,-0.032029,-0.015729,-0.103038,0.032811,0.175812,0.173269,0.067074,0.093423,-0.069593,0.126361,0.045493,-0.075128,-0.053483,-0.118484,-0.05947,-0.04611,0.07505,0.128318,-0.012215,0.100387,0.183001,-0.007046,0.011878,0.010619,0.130482,0.060152,0.195633,0.169745,0.035487,0.092277,-0.008375,0.048659,0.034292,0.174379,-0.028834,0.109547,0.07046,0.134308,0.021738,-0.080478],[0.152955,0.080851,0.122069,0.122199,0.076349,-0.083163,-0.002879,-0.127381,0.064746,-0.055729,0.050542,0.076859,0.09208,0.161827,0.156873,-0.006367,0.279636,-0.009858,0.061848,0.096858,0.331525,0.199741,0.004438,0.047976,-0.106271,0.134321,-0.055391,0.042152,-0.014824,0.141325,0.08824,-0.098475,0.166161,0.004674,-0.043967,0.083371,-0.048937,-0.054466,-0.041991,0.111452,0.020476,0.198711,0.047841,0.275129,0.211061,0.024649,0.169269,0.042314,0.12433,0.049898,0.046249,0.094654,-0.101898,-0.071107,-0.033365,0.119203,0.067204,0.234573,-0.073032,-0.022986,-0.065029,0.179351,0.041982,0.061556],[0.232654,-0.068472,0.093171,-0.004733,-0.10491,-0.05584,-0.082896,0.037753,0.113246,0.036913,0.181534,0.018939,0.152275,0.230302,0.058562,-0.142815,0.089264,0.088148,-0.086946,-0.079534,-0.021431,0.065185,0.158689,0.090078,-0.106459,0.069252,0.088032,0.025036,0.066921,0.210539,-0.090772,0.053095,0.016537,0.075203,-0.104952,-0.023073,0.015377,0.074886,-0.108796,-0.047181,-0.102075,0.004162,-0.114162,-0.176537,0.055427,-0.049622,0.188834,-0.023094,0.018702,0.113508,0.04171,0.149843,0.031091,-0.052363,-0.098917,0.025269,0.042303,0.000844,0.088243,-0.148326,-0.036923,0.120459,0.036945,-0.113222],[-0.064815,-0.123821,0.065826,-0.12334,0.102376,0.088008,0.069808,-0.004936,-0.062771,0.053162,0.077485,-0.040061,-0.022008,0.052272,0.009665,0.062258,-0.094443,-0.102246,0.092502,-0.079019,-0.109305,0.040939,0.065464,-0.029764,0.013247,-0.085297,-0.121994,0.015171,-0.077862,0.065895,0.001672,-0.080894,-0.107051,-0.004579,-0.038858,0.077832,-0.120852,-0.057806,0.117286,0.005791,0.0153,-0.091001,-0.093942,0.08758,0.134024,0.110114,-0.037942,-0.020083,0.059647,-0.029571,-0.030846,0.022345,0.029984,-0.12221,-0.08502,-0.06087,0.019517,-0.020284,0.05197,0.026929,0.009341,-0.030373,-0.028465,0.089202],[0.223414,0.043402,0.010073,-0.049802,-0.087439,0.052706,-0.111832,-0.092816,0.090873,0.105182,0.242782,-0.000141,0.197153,0.157212,-0.070837,-0.092572,0.03216,-0.123452,-0.060758,-0.050739,0.026283,-0.020756,0.109944,0.032259,-0.05821,0.015473,0.121852,-0.010689,0.220314,0.179856,0.08875,-0.09969,0.109933,0.233202,-0.05069,0.038193,-0.140551,-0.104069,-0.094678,-0.040436,-0.064869,0.088112,0.091489,-0.1721,0.144443,-0.034613,0.143393,-0.056384,0.056573,0.121641,0.199846,0.039303,-0.088079,0.087187,-0.116482,0.029982,0.208713,0.135879,0.002206,-0.139919,-0.04165,0.067096,-0.002969,-0.009958],[0.09006,0.020951,0.106443,-0.119377,0.057114,0.109206,0.0785,-0.023633,-0.088419,-0.016578,0.096661,-0.053056,0.100556,-0.043119,-0.118155,0.102734,-0.052922,0.021828,0.007485,0.002663,0.106879,0.117678,0.110401,0.045272,0.084018,0.031799,0.02592,-0.011208,0.090122,0.05301,-0.096104,-0.046156,-0.017692,0.105397,-0.006923,-0.067317,0.008131,0.086653,0.035572,-0.079548,-0.079672,0.03941,-0.077049,-0.069775,-0.029469,-0.101362,0.088056,0.114493,-0.018161,0.004871,-0.044173,-0.017172,0.008346,-0.060293,0.00126,-0.088713,0.121751,-0.076233,-0.038025,0.019065,0.038184,0.026493,0.07085,-0.038697],[0.080719,0.10831,-0.002545,0.098304,0.112479,0.037155,-0.055196,0.085941,-0.072565,0.109738,0.071856,0.087499,0.10989,-0.012847,0.033839,-0.035686,-0.089527,-0.112848,0.081731,0.058705,0.00195,-0.031678,0.011933,0.11738,0.010967,-0.027252,-0.087049,0.030921,0.010561,-0.053541,0.114789,0.013245,-0.001206,-0.084516,-0.108879,-0.073347,0.022756,0.079217,0.112948,0.079041,-0.022582,0.011824,-0.020849,0.087315,-0.013341,-0.000386,0.061973,-0.089424,0.098104,-0.00796,-0.002688,0.005802,-0.046223,-0.115975,-0.021196,-0.02664,0.022995,0.098483,-0.09187,0.048567,0.017774,-0.01263,0.060085,-0.095714],[0.005689,0.046323,0.045341,0.097468,-0.071894,-0.047016,0.075538,-0.010623,-0.100579,0.072527,0.116955,0.078037,0.093347,-0.070715,0.065983,0.010899,-0.03685,0.055026,-0.014859,-0.118059,0.143714,0.030233,0.167361,0.051123,-0.092386,0.415225,0.002798,-0.058341,0.177702,-0.090824,0.170261,-0.083449,-0.109802,0.087334,0.002558,-0.03909,-0.089221,0.036271,0.051459,0.001372,-0.072837,-0.093594,0.064011,0.258869,0.101463,0.142913,-0.062553,-0.096723,0.110655,0.058723,0.098714,0.083167,-0.09272,-0.088069,-0.023714,0.001867,0.154016,0.120113,0.017139,0.121285,-0.053901,0.037991,-0.147147,0.129267],[-0.115706,0.047472,-0.017105,0.100423,-0.118491,0.09093,0.118872,-0.002485,-0.064375,-0.044876,0.053312,-0.112269,-0.033081,-0.052842,0.11882,-0.122094,0.123794,-0.114154,-0.046373,0.056219,-0.121535,0.016891,0.04019,-0.119075,0.079198,-0.092073,-0.072781,0.040284,0.08433,-0.027788,0.072475,-0.107313,-0.048599,-0.101156,0.006824,0.057753,0.098461,-0.040408,-0.036464,0.038057,0.089392,-0.03399,-0.112882,-0.008492,-0.0245,0.014483,-0.105186,-0.103543,-0.086943,-0.043652,-0.033736,-0.09614,0.077694,0.017701,-0.096866,-0.090584,-0.013749,-0.053794,-0.023213,-0.007077,0.044888,-0.095086,-0.112383,0.119971],[0.086914,-0.07708,-0.018759,-0.067365,-0.015799,-0.109235,-0.121119,-0.080576,0.104713,0.015711,0.017086,0.039851,0.040667,0.230683,-0.118948,-0.05644,0.209407,-0.046119,0.101587,-0.017144,0.259915,0.167939,0.126068,-0.092146,-0.059758,-0.032923,-0.008936,-0.105476,0.004237,0.198135,-0.053909,-0.028252,0.016792,0.188668,0.030791,0.047729,0.041367,0.049914,0.10683,-0.00189,0.059668,0.157714,-0.063433,0.038175,0.224869,-0.012239,0.146559,-0.046335,0.245101,0.067127,0.222207,0.129659,-0.058339,-0.029891,-0.112483,-0.093003,0.262187,0.131835,-0.054198,0.026057,0.086923,0.066899,0.074608,-0.038771],[-0.280973,-0.120552,-0.125555,-0.089131,-0.095191,0.025084,0.067897,-0.121365,0.036864,-0.004741,-0.290501,-0.35005,-0.142502,-0.281712,0.247118,-0.097428,0.072834,0.024404,0.254901,0.049146,-0.233609,-0.274398,-0.134027,-0.012808,-0.015597,-0.139677,0.049289,0.108278,-0.282655,-0.198976,0.088389,-0.072941,-0.307853,-0.14469,0.047199,-0.055041,-0.005788,0.013798,0.096059,0.072033,-0.064441,-0.276106,0.050419,0.071277,-0.281135,0.23396,-0.185436,-0.042417,-0.311698,0.08699,-0.152372,-0.051055,0.044606,-0.127804,-0.066586,0.222835,-0.200248,-0.210568,-0.096861,0.136023,0.021171,-0.298957,0.125916,0.120388],[-0.175943,0.040611,-0.083831,-0.035403,-0.018563,-0.060304,-0.012503,0.114731,-0.120726,0.011588,-0.122035,-0.401888,-0.244109,-0.013528,0.097774,0.074185,0.028756,0.010728,0.303419,0.045827,-0.290476,-0.218228,-0.132709,-0.114786,0.051013,-0.637745,-0.039787,0.061094,-0.247174,0.048546,0.144309,0.067979,-0.160049,-0.33263,-0.04069,-0.058809,-0.123579,0.010025,0.054139,0.097192,0.128184,0.053165,0.109889,-0.234987,-0.289325,-0.024825,-0.099244,-0.013696,-0.243558,0.015813,-0.139096,-0.285559,-0.095799,0.025698,-0.039784,0.161363,-0.321301,0.172261,-0.029857,0.071746,-0.079858,-0.022713,0.032333,-0.09801],[0.135364,-0.010081,0.065853,-0.002538,-0.028095,-0.064266,-0.130176,-0.116467,0.100881,-0.067583,0.115908,0.152938,0.169188,0.049596,-0.000922,0.034862,0.024519,0.050419,0.164331,0.119378,0.132549,0.228345,0.143754,0.007713,0.04309,-0.011245,0.052837,-0.02695,0.196085,0.118788,-0.071517,-0.071093,-0.028775,-0.049261,-0.087021,-0.137876,0.000928,-0.03597,-0.115237,-0.029856,-0.08624,0.034648,-0.089277,0.138399,0.095712,-0.031436,0.007949,-0.016238,-0.013151,0.054992,0.061597,0.217087,-0.117865,0.104765,0.106404,0.088342,0.062521,0.125564,0.076485,0.080573,-0.018361,0.135693,-0.103655,0.00233],[0.074869,0.051999,0.03485,-0.057861,-0.084917,-0.023322,0.117742,-0.025752,-0.061906,0.069466,0.060278,0.102535,-0.111765,0.03435,0.03375,-0.079491,0.040431,0.089155,0.062905,-0.008573,0.029893,-0.044234,0.015954,-0.112023,-0.039008,0.021885,-0.043022,-0.030784,0.086003,0.021878,0.087679,0.040139,-0.095929,0.022875,-0.061065,0.059873,0.102521,0.081525,0.076651,-0.096793,-0.119124,-0.100554,-0.102732,0.075173,-0.052284,8.4e-05,-0.026294,0.114879,-0.004368,0.053639,-0.110198,-0.070959,0.075949,0.01018,-0.106616,-0.099656,-0.095447,0.089342,-0.074627,0.03425,-0.121466,0.128766,-0.014756,0.020599],[-0.104894,-0.115913,-0.098337,-0.075892,0.067787,-0.014726,0.034557,0.007497,-0.115335,0.063335,-0.061351,-0.070125,0.018888,0.102815,-0.09984,-0.018305,-0.114955,-0.114118,0.015085,0.065935,0.038924,0.036678,-0.108698,-0.00717,0.090962,0.086819,-0.070651,0.010277,-0.005102,0.020872,0.077052,0.093491,0.067882,0.021642,-0.003526,-0.076898,0.049345,-0.002589,0.098692,-0.114256,-0.008991,-0.080522,-0.000716,0.004193,-0.070912,0.076104,0.092661,0.043887,-0.012799,0.113102,0.030717,-0.021523,-0.045107,-0.038576,0.115751,0.011392,-0.054877,-0.113438,0.004251,0.003132,-0.004876,0.101519,0.062035,0.079787],[0.037441,-0.02749,0.091205,-0.123977,0.071042,-0.090554,-0.024146,0.027333,0.077096,-0.091795,-0.116019,-0.094198,0.004203,0.098308,-0.029447,0.079677,-0.075902,0.034005,0.095361,-0.003159,0.114245,-0.014345,-0.09238,0.093635,0.098396,0.025829,-0.124501,0.115799,-0.108569,-0.00198,0.024924,0.062236,0.036213,-0.085908,0.105927,0.05228,-0.011195,-0.11427,0.085293,0.000843,0.112111,-0.033968,-0.120349,-0.000772,-0.101476,-0.085482,0.037177,-0.006829,-0.07784,0.062974,-0.004097,0.022756,0.112036,-0.060365,-0.107181,0.024553,-0.122183,0.06398,0.098956,0.071846,0.083319,-0.038821,-0.026995,0.13922]],"biases":[0.202564,0.085847,0.031791,-0.107829,0.080516,0.02522,0.094432,0.010779,-0.044052,-0.032484,0.176451,0.183014,0.217712,0.16758,0.087725,-0.140606,0.140158,0.098336,0.042438,-0.120216,0.089818,0.005451,0.172052,-0.061498,-0.111116,-0.017587,0.049549,-0.106175,0.078013,0.025729,-0.040138,-0.09511,0.170871,0.166181,-0.128325,-0.002079,0.064436,0.081726,-0.025848,-0.000843,0.035243,0.156993,-0.055736,0.119395,0.164736,0.053481,0.189608,-0.025733,0.195114,-0.012124,-0.023547,0.145845,-0.072413,-0.088572,-0.097539,-0.017707,0.19158,0.2287,0.030731,0.065994,-0.022271,0.024752,0.00837,-0.090781]},{"weights":[[0.23639,0.150361,0.153242,0.187057],[-0.099173,0.070434,-0.020655,-0.099476],[0.123344,0.033272,0.152168,0.156178],[-0.072052,-0.067402,-0.094079,-0.003988],[0.074681,-0.104494,-0.080925,-0.107122],[-0.037388,-0.050279,0.008249,0.031785],[-0.093075,0.073007,-0.024399,-0.034487],[-0.009071,-0.093089,-0.035242,-0.011319],[0.039339,-0.108671,-0.114451,0.091374],[-0.071775,0.114787,-0.04484,-0.099547],[0.094496,0.061058,0.136227,0.136054],[0.240136,-0.014885,0.114344,0.096014],[0.16087,0.163824,0.140225,0.040443],[0.089366,0.228113,0.179414,0.062127],[0.209444,0.065775,-0.378113,-0.145043],[-0.103678,-0.071482,-0.119089,-0.024223],[0.01657,0.232987,0.041576,0.173946],[0.038246,-0.024705,0.045786,0.121629],[0.146795,0.351701,-0.04147,-0.093006],[-0.001832,-0.124927,0.088526,-0.001655],[0.166003,0.219303,0.084662,0.162836],[0.128799,0.137846,0.084437,0.200437],[0.157365,0.076953,0.162218,0.161668],[-0.107277,-0.119783,-0.099021,-0.050467],[0.008778,-0.046473,0.025255,-0.0639],[0.277991,-0.064571,0.013679,0.029956],[0.082531,-0.05906,0.064229,0.011168],[0.066009,-0.018292,-0.123283,0.031787],[0.217096,0.099613,0.18379,0.069921],[0.049225,0.159012,0.166888,0.124611],[-0.183082,0.231619,0.030383,0.172514],[0.096185,-0.080483,-0.006639,-0.054397],[0.073661,0.193641,0.094059,0.028302],[0.188764,-0.01442,0.194,0.106307],[0.005422,-0.057485,-0.055261,-0.075555],[0.090284,-0.086887,-0.055002,0.048758],[-0.014961,-0.088376,-0.081739,-0.035283],[0.06618,0.088769,0.02022,0.114571],[0.031587,0.010583,-0.021751,-0.032827],[-0.05037,-0.022486,-0.085998,0.000628],[-0.005222,0.043828,-0.050074,-0.100089],[0.01153,0.145849,0.15128,0.213448],[0.087515,0.034122,0.035106,0.100151],[0.256855,0.250826,-0.048923,0.229935],[0.103301,0.120854,0.142218,0.196597],[-0.135104,0.192365,-0.080636,0.264906],[0.147831,0.11907,0.160439,0.101559],[0.071566,-0.086001,-0.027727,-0.075971],[0.128732,0.088552,0.099142,0.225704],[0.073677,0.115065,-0.117144,0.005915],[0.14485,0.148823,0.197621,0.048983],[0.218297,0.209817,0.126722,0.055062],[-0.039913,-0.035401,0.101838,0.034222],[0.036415,-0.096737,-0.00111,-0.099632],[-0.015444,-0.011247,0.066381,-0.092882],[0.026028,0.319217,-0.221101,0.142438],[0.116597,0.095535,0.105031,0.203653],[0.050185,0.252885,0.104536,0.102125],[-0.09998,-0.020491,-0.004031,0.10998],[0.117869,0.014037,-0.165033,0.112949],[0.061465,0.049383,-0.038137,-0.026509],[0.024624,0.077486,0.123288,0.190076],[0.110111,-0.047462,0.03064,-0.012292],[0.139975,0.119733,0.053351,0.288735]],"biases":[0.037175,0.080054,0.075406,0.00868]}]},"round":40,"phase":11,"phaseIteration":2,"trained":"pilot","generation":34,"dominanceMetric":"pilotWinRate","dominanceThreshold":0.65,"dominanceReached":false,"pilotWinRate":0.0,"enemyWinRate":0.0,"averageScore":100.0,"averageWave":1.0,"averageSteps":360.0,"waveClearRate":0.0,"averageClearSteps":0.0,"enemyDropRate":0.0,"invalidDropRate":0.0,"enemyFireRate":0.0,"pilotFireRate":0.3333,"pilotShotAccuracy":0.0167,"pilotHits":20,"pilotFires":1200}
