{"id":22,"label":"Pilot v22","role":"pilot","model":"sb3-dqn-pilot-v22","actions":["left","right","fire","stay"],"features":["target_dx","abs_target_dx","threat_dx","threat_y","bullet_ready","alien_count","wave","drop_ready","enemy_shot_ready","fleet_y","lives","danger_shot_dx","danger_shot_y","danger_shot_lane","pilot_bullet_dx","pilot_bullet_y","bee_count","gunship_count","boss_count"],"network":{"activation":"relu","layers":[{"weights":[[0.173507,0.286824,-0.175215,0.135467,-0.049732,-0.240068,0.016095,-0.076878,0.167538,-0.07867,-0.210743,0.192189,-0.215324,-0.14308,-0.172218,-0.392664,0.273275,-0.066836,0.574858,-0.33884,0.195145,-0.009756,-0.127834,-0.111116,0.052149,-0.567675,0.215161,-0.511201,0.17464,-0.068273,0.011646,-0.177141,0.389147,0.240159,-0.013224,0.190469,0.057427,-0.139578,0.024203,0.115628,0.082813,-0.029485,-0.129276,-0.00633,-0.04578,0.29364,0.107858,-0.049946,-0.166593,-0.11807,0.035366,-0.018332,-0.022883,0.081942,0.036203,-0.163091,-0.40283,-0.106633,0.406138,0.116151,0.188635,-0.08097,0.197718,-0.106343],[0.512354,-0.426037,-0.352251,0.564056,-0.302916,0.174393,-0.288277,-0.010725,-0.138293,-0.224589,0.150453,0.183003,-0.252944,-0.385326,0.055609,0.077371,0.504677,-0.327755,0.223612,0.173199,-0.189746,0.193557,-0.253247,-0.694782,-0.066022,0.597749,-0.389873,0.260481,0.288747,-0.508752,-0.149311,-0.107158,0.167116,-0.318852,0.65481,-0.593215,-0.087222,-0.455774,0.088715,-0.05889,-0.434721,-0.248848,-0.09779,0.05042,-0.393733,0.06412,0.456504,-0.339998,-0.286909,0.344024,-0.332046,-0.448938,0.163475,-0.052245,-0.262883,-0.324405,0.274446,0.332144,-0.037968,-0.453191,0.14457,-0.345521,-0.256653,-0.198598],[-0.246264,-0.20595,0.009423,-0.210951,-0.089196,0.047908,-0.003491,-0.151489,-0.013438,0.181136,0.141496,-0.219113,-0.126588,0.043303,0.008707,-0.04257,-0.383735,0.049337,-0.044164,-0.230258,0.025172,-0.075172,0.027553,-0.033271,0.164609,-0.029572,-0.004232,-0.38495,-0.471657,-0.237282,0.10556,-0.03568,-0.021557,0.217639,-0.139184,0.196422,-0.020579,-0.020046,-0.295571,0.038003,-0.04121,0.013802,0.196582,-0.04022,0.203612,-0.306977,0.197574,-0.150169,-0.007991,0.235904,0.003971,0.18586,0.129025,0.210777,0.164571,0.083752,-0.057159,-0.228217,0.161541,-0.101239,-0.115277,0.102669,-0.084208,0.037524],[-0.021676,0.130536,-0.069097,0.286668,0.031469,0.096118,-0.091689,0.047283,0.115472,-0.151272,0.265085,-0.203066,-0.021031,0.071182,0.037876,-0.119207,0.389577,-0.271059,-0.187225,0.288009,-0.210591,0.017772,-0.268714,-0.124937,-0.265971,0.007817,-0.193902,-0.084431,0.013523,0.095961,-0.016539,0.056819,-0.010694,-0.17164,0.270292,0.15412,0.148219,0.011519,0.01702,-0.056826,0.086281,-0.022151,0.043061,0.307153,0.067794,0.039711,0.190913,0.117286,-0.269371,0.232688,-0.258061,0.039936,0.113045,-0.116378,-0.158131,0.17676,0.072389,0.198841,0.115963,-0.228796,-0.047112,-0.035999,-0.096126,-0.080158],[0.205493,-0.099567,-0.038318,0.055924,0.097636,-0.373963,-0.124619,-0.193799,-0.152621,-0.092902,0.042384,0.042731,-0.241087,-0.061496,0.157485,-0.056376,-0.064435,0.201266,-0.301705,-0.074842,-0.053031,0.086417,-0.114777,0.175014,-0.235781,-0.106111,-0.14744,-0.162023,0.233946,0.133819,0.197623,-0.014795,-0.160115,-0.07843,0.282923,0.071209,-0.096299,0.181877,-0.118849,-0.071641,-0.064246,0.078465,-0.123963,0.061277,0.054601,-0.093483,0.159441,-0.000747,0.158189,0.101039,0.044458,0.127979,-0.037337,-0.295786,-0.024666,-0.059583,0.172751,0.193513,0.264484,0.089966,0.21851,0.227301,-0.070491,0.034032],[0.188992,0.129382,0.134692,-0.057795,0.338095,-0.116173,0.120216,0.017701,0.022888,-0.11764,-0.199135,-0.022673,0.287959,0.139,0.059785,-0.259587,0.065876,0.106649,0.041,-0.133477,0.164338,-0.086714,0.058335,0.025236,-0.17176,-0.157136,0.287269,-0.110721,-0.004536,0.211662,0.105042,-0.034215,-0.144974,0.202921,-0.307202,-0.249435,0.080623,0.24909,0.09541,-0.095942,0.300544,-0.095493,0.278135,0.2001,0.197875,0.041481,-0.203086,0.022847,-0.049746,0.16074,0.328794,0.022977,0.084907,-0.059092,0.07513,0.167399,0.112484,-0.011828,-0.155259,0.25317,-0.146286,0.236098,0.12667,0.018589],[0.202618,0.223704,0.115512,0.053037,-0.11716,0.041402,0.225166,-0.217462,0.159485,-0.216821,0.101483,-0.164628,-0.073366,0.295187,0.22004,0.100876,0.289695,0.086497,-0.228424,-0.029605,0.209295,0.068378,0.093907,-0.139652,-0.119233,-0.155184,0.081067,0.18093,-0.007532,0.043128,0.189953,0.059967,0.063075,0.077788,0.080476,-0.109295,-0.19512,-0.131936,0.187099,0.139641,0.073267,0.001565,0.266002,-0.149435,-0.067244,-0.061492,-0.089009,0.108067,0.218383,-0.122281,0.057085,0.157149,-0.149853,-0.223107,0.064837,-0.035904,0.119045,-0.031761,0.019101,0.093178,0.08566,0.044776,0.155922,0.203126],[-0.171526,0.102914,0.202332,0.192049,0.036429,-0.002834,0.200685,-0.109535,0.066786,-0.175719,0.005147,-0.165917,0.184182,0.096411,-0.189826,-0.083172,-0.098519,0.129973,-0.143023,-0.17962,-0.096017,-0.109944,0.306034,-0.186541,0.145518,0.200313,-0.029197,0.034687,-0.158108,0.080107,0.21632,-0.202443,0.002891,0.141372,0.179251,-0.073676,0.116804,0.102807,-0.198236,0.167627,-0.003589,-0.225008,0.232162,-0.183702,-0.010153,-0.007092,0.196597,0.093521,0.098959,0.032878,0.148629,0.040826,-0.092226,0.180365,0.207961,0.226798,-0.022447,-0.025473,-0.025827,0.105593,-0.074706,0.168723,0.007502,-0.095314],[0.040881,0.230311,0.168172,-0.168725,0.089988,0.165903,0.274226,-0.183273,-0.173673,-0.180355,0.154003,-0.105233,-0.005181,-0.004408,0.123886,-0.012364,-0.17189,0.068617,0.198451,-0.089419,0.308189,-0.196275,0.068135,0.091397,-0.127189,0.057551,0.100701,-0.140902,0.166155,0.281399,-0.045796,0.033197,0.032996,-0.127749,0.056061,-0.148797,-0.18878,-0.084156,-0.13621,-0.084782,-0.053294,0.07806,-0.021892,-0.066065,0.089153,-0.191796,-0.063504,0.019426,0.045095,0.037056,-0.095814,-0.242848,0.205898,0.17883,0.134931,0.065461,-0.083674,-0.084541,-0.191359,0.110614,-0.081979,-0.015897,0.293116,0.22944],[-0.053429,-0.00653,-0.19946,-0.075838,0.031793,-0.04519,-0.268892,0.205688,-0.178575,0.006293,-0.187545,0.135723,0.026461,0.197069,-0.197331,0.209559,0.298134,-0.058844,0.056587,-0.105222,-0.005096,-0.01741,0.171915,-0.084444,-0.089035,-0.075753,0.14464,0.095039,-0.241986,0.090448,0.030467,-0.227852,-0.066334,-0.050325,0.231739,0.047113,-0.207407,-0.057214,0.268474,-0.038816,0.009051,0.070526,0.005753,-0.164373,-0.221669,-0.057463,-0.128464,0.03551,0.094324,-0.000771,0.16536,0.046079,-0.158129,0.119751,0.1775,-0.17956,0.433826,0.170881,-0.251357,0.121215,-0.067979,0.132658,0.174772,-0.124932],[-0.17585,0.315099,0.31535,-0.124208,0.163599,-0.114516,0.099913,0.024571,-0.229297,-0.141106,-0.169824,0.015302,0.286385,0.187936,-0.170509,-0.184897,-0.136335,0.327051,0.002705,-0.010838,0.339223,-0.0191,-0.083482,0.164777,0.163702,-0.139793,0.199573,-0.22419,0.093949,0.125761,-0.258732,-0.174133,0.165404,0.380439,-0.22905,0.204559,-0.210997,0.0206,0.236145,0.135339,0.148241,0.110562,0.271,0.225815,0.326845,0.100331,0.125554,0.218222,0.338089,-0.186998,0.225451,-0.187879,0.041331,-0.089661,0.22166,0.133855,-0.26233,0.015318,0.114664,0.065701,0.030216,0.142997,0.207064,0.281656],[-0.068599,0.063449,-0.047833,-0.026292,-0.245995,-0.010918,0.023403,-0.084715,0.098725,0.092587,0.020959,0.143657,-0.140618,-0.239249,0.145615,0.20666,-0.008767,0.177111,0.07836,-0.004606,0.018124,-0.16384,0.050854,-0.150338,0.023727,0.149664,0.135355,-0.075044,-0.477742,-0.242421,0.013965,-0.101978,-0.11693,0.017654,-0.031639,-0.061549,0.138234,0.157779,-0.212695,-0.022835,-0.128863,-0.105254,-0.150798,0.04128,-0.104335,0.115235,0.076502,-0.205058,-0.190208,0.061907,-0.115801,0.199595,-0.07736,-0.173473,-0.132508,-0.217575,0.208636,0.065906,0.174399,0.034734,-0.297357,-0.137176,0.049082,0.209495],[0.220165,-0.199379,-0.220435,0.105924,-0.111619,0.136495,0.080441,-0.150297,-0.215467,0.081211,0.197744,-0.177213,0.153523,0.175431,-0.221442,-0.265189,0.111752,0.042573,0.04452,0.069104,-0.154364,-0.081918,0.106809,0.142422,0.097508,0.153049,0.148923,0.055918,0.1371,-0.092164,-0.208662,0.049571,-0.049567,0.031782,0.190259,0.177939,-0.176598,-0.063912,-0.071678,0.004908,-0.136001,-0.202926,-0.148207,0.187236,0.178487,0.248136,0.285629,-0.056343,0.02278,0.204013,-0.136036,-0.097241,-0.055831,-0.147992,0.122325,-0.049552,-0.016589,0.031339,0.110664,0.103024,0.185039,-0.1107,-0.042042,-0.212],[0.147773,0.088756,0.116674,0.163732,-0.141051,0.156155,0.169203,-0.10304,-0.210554,-0.164392,0.133159,-0.076113,0.198808,0.272051,0.062522,0.182089,0.234077,0.131966,-0.105078,0.164366,-0.138187,-0.078808,-0.01316,-0.188704,-0.038868,0.135903,-0.16507,0.095201,0.110213,-0.06055,0.233738,0.078383,-0.016595,0.373491,0.013399,-0.305233,-0.010996,-0.011065,0.049137,-0.025635,0.284723,-0.214599,0.10949,-0.36108,0.014787,0.272141,0.195171,0.2756,-0.023594,0.036362,0.143287,-0.052147,0.031974,-0.064329,0.117453,-0.187985,-0.010809,0.034655,-0.121969,-0.050824,0.140678,0.057471,0.182264,0.172724],[-0.065497,0.037006,-0.148309,0.00653,0.039822,0.233913,0.038666,0.071634,-0.093696,-0.024368,-0.089471,-0.05225,0.112424,-0.17637,-0.170136,-0.184988,-0.021285,-0.032761,-0.29978,0.336905,-0.080835,-0.090418,-0.16989,0.238947,0.061405,0.006921,0.212025,0.197217,0.14435,0.047965,0.10229,-0.067908,-0.544503,-0.150376,0.202867,-0.093805,-0.217096,0.059901,0.157121,0.249695,-0.136141,0.056628,0.253995,0.090515,-0.163415,-0.061504,-0.000105,0.178409,-0.107973,0.063776,-0.157828,-0.09125,0.172374,-0.193549,-0.068192,0.090975,0.232173,-0.283226,0.070329,0.002263,0.353732,-0.12612,0.18694,-0.007174],[0.655966,0.262682,-0.077804,0.047744,-0.155263,0.176091,-0.04579,0.086268,0.176967,0.156415,-0.453738,-0.087554,-0.204186,-0.008602,0.133255,-0.610621,-0.267706,-0.033921,-0.546365,0.075612,0.214811,0.087976,0.252757,-0.019499,0.461439,-0.80698,0.056211,-0.185377,0.204734,-0.29338,-0.023542,-0.097574,-1.095495,0.0343,0.499013,0.069315,0.12312,0.241405,-0.370067,0.841369,0.064935,0.130296,-0.112012,-0.131932,-0.084345,0.17061,-0.582816,-0.161181,0.017957,-0.081573,0.066178,0.454568,0.631309,0.125211,0.00525,-0.1195,-0.081857,-0.21286,-0.086327,-0.132528,-0.314639,0.035732,0.243124,-0.147469],[-0.21168,-0.008484,-0.044092,-0.019156,0.231886,-0.287764,0.235081,0.193543,-0.100553,-0.216615,-0.032968,0.17436,0.301958,0.277832,-0.129613,0.002252,0.019444,0.354953,-0.099725,0.102694,0.07752,-0.116089,0.278425,-0.133915,0.090837,-0.041606,0.024779,0.1719,0.019003,0.012008,-0.138629,-0.206405,-0.198569,0.024158,-0.182766,-0.249297,0.070263,0.067161,0.211647,-0.064916,0.376891,0.199239,0.027954,0.109082,0.327053,0.129687,-0.202755,0.164351,0.247818,0.080666,0.140724,0.043782,-0.219786,-0.187809,0.145559,-0.099056,-0.218056,0.07641,0.179718,-0.042969,0.239774,-0.052168,-0.046379,0.363638],[-0.00449,0.198747,-0.076164,0.012839,0.237454,-0.159457,0.207238,-0.034097,-0.062708,-0.150132,0.067877,-0.20751,0.234078,0.282019,-0.212107,-0.271789,0.155608,0.246147,-0.132913,0.148358,0.22514,0.14768,0.134202,0.057611,-0.059374,0.035921,0.209418,0.034832,0.203158,0.188421,-0.097439,0.102999,-0.08164,0.237825,-0.27422,0.204933,0.037956,0.030223,0.24573,0.073938,0.399088,-0.115233,0.210277,-0.006267,0.201277,-0.189279,0.056832,0.17364,0.334076,-0.1619,0.259373,0.048956,0.112867,-0.109224,0.059823,0.335248,0.105059,0.039031,0.130054,0.036838,-0.106027,-0.015123,0.347531,0.211821],[-0.149178,0.039203,0.209704,0.234607,0.119894,0.191863,0.016323,-0.085292,-0.012942,-0.210182,-0.016496,-0.179251,-0.04167,-0.031348,-0.099663,0.133815,0.042351,0.143802,0.188045,0.189092,0.17746,0.14318,0.012916,0.000345,-0.063236,0.138256,-0.00538,0.290867,0.148678,-0.046901,-0.045984,-0.069887,0.059242,0.014469,0.104207,-0.212998,-0.098112,0.212943,0.172769,0.04479,0.184157,-0.089319,0.011554,-0.113088,-0.232537,0.025144,0.119319,-0.039925,0.122497,0.245159,-0.090506,-0.158657,0.110959,0.219128,-0.216364,-0.175515,0.145838,-0.073888,-0.276883,0.148679,-0.02479,0.16849,0.072374,-0.019956]],"biases":[0.109757,0.313642,0.260679,-0.021915,0.068108,0.039413,0.01458,-0.210085,-0.185346,0.169476,0.023642,-0.238489,-0.078887,0.049997,-0.178828,0.191649,-0.064044,0.11626,0.152765,0.127617,0.08721,0.138094,0.1673,0.198782,-0.213949,-0.070888,0.254293,0.030547,-0.072293,-0.05745,-0.051704,0.210068,0.15806,-0.009926,0.088716,0.061716,0.040338,0.2864,-0.196502,-0.179535,0.238879,-0.095011,0.292621,-0.072447,0.139577,-0.102496,-0.145696,0.053805,0.127081,-0.189325,0.200888,-0.050368,-0.125309,-0.043429,0.248104,0.068043,0.042696,-0.077825,-0.195461,0.243251,-0.133404,0.049425,0.109754,0.146793]},{"weights":[[-0.118796,-0.095883,-0.146386,0.008207,-0.064866,0.162511,0.016738,-0.207743,0.093376,-0.182918,0.26462,0.104821,0.126786,0.18207,-0.094956,-0.179203,-0.069291,-0.033663,-0.016784,-0.055723,-0.157429,-0.058066,-0.19929,-0.15045,0.07451,-0.049362,0.078935,-0.10553,0.047424,0.083957,-0.130758,-0.003111,-0.025489,-0.122108,0.046314,0.133695,-0.101935,0.033788,-0.005175,-0.12809,-0.03955,-0.167344,-0.019669,-0.049812,0.084835,0.084199,0.106045,0.043785,-0.126135,-0.185427,0.022731,-0.022752,0.141362,-0.165001,0.110234,-0.125405,0.244818,0.023917,0.020314,0.039829,0.082728,-0.05956,0.301985,0.084066],[0.107006,0.020891,0.214888,0.052842,-0.115598,0.074051,0.222847,0.1423,0.029837,0.008206,0.116823,0.107788,-0.039877,-0.060897,-0.036977,-0.046214,-0.065069,0.055577,0.095577,-0.093524,0.025561,0.000362,0.223039,0.025211,-0.114775,-0.111116,0.010551,-0.053128,0.036817,0.077822,0.182213,-0.118862,-0.081108,0.1724,0.012586,0.246398,0.02055,0.132014,-0.039094,0.03313,0.056524,0.124654,0.003612,0.234082,-0.092563,0.011792,0.008012,0.023755,0.001727,0.114694,0.026651,0.133238,-0.05126,0.032911,0.163916,0.201494,0.097814,-0.017901,0.032197,0.080591,-0.143134,-0.03264,0.087709,-0.082696],[0.075064,-0.029138,0.144585,-0.10929,0.059222,-0.030505,0.062886,0.128317,-0.03411,0.113959,-0.073165,0.107923,-0.09924,-0.029453,-0.002744,0.148443,0.040555,0.074421,-0.075192,0.09998,0.222403,-0.013759,0.242804,0.206589,0.117805,0.112938,0.048421,0.063324,-0.043128,0.110726,0.112623,-0.135973,0.090099,0.012266,0.070522,0.12776,-0.116966,0.094897,0.053597,0.217823,0.03033,0.123988,-0.035782,0.197585,0.077841,0.089418,-0.012003,0.233277,0.063767,0.019337,-0.124872,0.202143,0.016883,0.121998,0.069667,-0.024475,-0.072752,0.15193,-0.041774,0.229391,0.061244,0.008615,0.231963,-0.029632],[-0.230451,-0.116357,-0.218497,0.218149,0.100577,0.223911,-0.160894,-0.134316,0.158535,-0.082402,0.187657,0.016042,0.329978,0.041214,0.038938,-0.175549,0.103762,-0.256843,-0.110066,-0.050607,-0.226197,0.032456,-0.091255,-0.171455,-0.010852,-0.049215,-0.128643,-0.061246,-0.098591,0.195951,-0.170434,-0.078225,0.260807,-0.15663,0.24151,-0.17535,0.079366,-0.054398,-0.244972,-0.080085,0.089955,-0.088071,-0.076901,-0.181212,-0.050192,-0.106485,0.298514,-0.24346,-0.023082,-0.090416,-0.061549,-0.025328,0.148255,-0.204339,0.09797,-0.194411,0.10082,-0.26082,-0.092457,-0.238737,0.005354,-0.0748,0.191302,0.071475],[0.267953,-0.099448,0.196608,-0.11357,0.011709,-0.00773,0.30187,0.095593,0.054472,0.20601,-0.0626,0.088784,-0.007646,0.010796,0.025544,0.188833,0.047221,0.254447,-0.06732,-0.059417,0.176663,0.063907,0.23542,0.287317,-0.07209,-0.079391,0.006221,0.093857,0.080914,-0.197463,0.202879,0.069399,-0.006246,0.199714,0.03327,0.178186,-0.039513,0.275219,0.067933,0.218058,0.089314,0.114808,-0.079558,0.19858,-0.108874,0.120653,-0.159614,0.114037,0.090343,0.085079,-0.048585,0.087905,0.071789,0.166823,-0.084161,0.293219,0.02483,0.252537,-0.14597,0.105843,-0.134223,0.087892,0.005425,0.045699],[-0.07434,0.015322,-0.182579,0.192749,0.081336,-0.093075,-0.149355,-0.20664,-0.216009,-0.17041,0.032086,-0.233387,0.181007,0.002662,0.036266,-0.239141,-0.079669,-0.130387,-0.037968,-0.086399,-0.149328,0.154925,-0.048793,-0.1731,-0.071777,-0.002653,0.113893,-0.041162,0.083317,-0.052586,-0.111777,-0.020441,0.052564,-0.128072,0.205506,-0.161205,-0.088775,-0.114946,-0.136308,-0.071148,0.00828,-0.232104,0.050559,-0.208206,0.039047,0.071238,0.17013,-0.231092,0.032373,-0.199443,0.015913,-0.116444,-0.072082,0.015759,0.084015,-0.126205,0.095271,-0.129901,-0.050279,-0.107155,0.027125,-0.117484,-0.05457,-0.04413],[0.098879,-0.121518,0.189943,0.025611,0.042458,-0.070984,0.213024,0.134697,-0.04911,-0.001188,0.02501,0.20849,0.063056,-0.036163,-0.065296,0.179563,0.018324,0.074004,0.0908,0.054017,0.181331,-0.057411,0.238081,0.082846,0.117855,-0.045136,-0.117933,0.011126,-0.058472,-0.029295,0.00368,0.068451,0.098363,0.155472,0.060454,0.135739,-0.034273,0.132052,-0.049574,0.164926,-0.08122,-0.0076,0.050996,0.139298,0.050542,0.00788,0.025296,0.018934,0.092485,0.096106,-0.086556,0.097347,-0.089007,0.042947,0.114345,0.131515,0.095218,-0.009781,0.033328,0.085636,-0.070093,0.008766,0.124609,-0.00134],[-0.136897,-0.023548,-0.119269,-0.04622,0.006956,-0.003584,0.049373,0.043256,-0.122289,-0.054544,0.042465,-0.098355,-0.009096,0.069278,-0.012003,0.093646,0.120457,-0.084591,-0.073226,0.013495,0.058182,-0.010248,0.097392,0.06181,-0.059783,-0.032999,0.054132,0.058988,0.033672,0.095799,-0.03311,0.05322,0.126419,-0.138823,-0.009807,0.10564,-0.041505,0.083941,0.082666,-0.06416,-0.110737,0.022256,0.033204,0.068674,-0.054022,0.09899,0.042033,0.061297,-0.096551,0.002727,-0.088167,-0.053803,-0.086475,-0.026288,0.036611,0.075112,0.033382,-0.04016,-0.107666,-0.06554,-0.028992,0.065566,0.020457,-0.022321],[0.065693,0.034769,-0.107059,-0.073311,0.040744,-0.103224,0.005382,0.051086,0.077913,-0.080504,-0.084946,0.011373,0.013939,-0.093509,0.059641,0.113319,-0.071696,-0.020371,0.095615,0.100956,0.075784,0.069849,0.123174,-0.119302,-0.000371,0.083119,-0.02306,-0.020902,0.072939,0.120734,-0.029656,-0.072993,-0.015935,0.07248,0.086938,0.104837,-0.046621,-0.062239,0.091794,-0.079014,-0.068411,-0.035653,0.091283,0.003379,0.077897,0.014594,0.092123,-0.019627,-0.037679,0.116543,0.069492,0.062584,-0.11594,-0.039869,0.077775,0.063182,-0.044052,0.039339,-0.108671,-0.114451,0.091374,0.071989,0.062567,0.045229],[0.078335,-0.027342,-0.115484,0.002657,-0.102446,-0.118113,-0.104811,-0.049613,0.008492,0.074,0.046024,0.088401,0.005772,-0.017227,-0.070878,0.078253,-0.01999,0.077196,0.123241,0.064115,0.113937,-0.028964,0.081096,0.052916,0.022111,-0.039871,0.12118,0.040029,-0.04129,-0.087326,0.095356,-0.031554,0.027202,-0.000173,-0.028453,-0.032064,0.072905,0.111866,-0.054362,-0.015591,-0.039039,-0.100943,0.019051,-0.013961,0.066948,-0.044516,0.016317,-0.110147,-0.079878,0.078015,-0.015086,0.10716,-0.023384,-0.01397,0.071935,0.118891,-0.032484,-0.071775,0.114787,-0.04484,-0.099547,0.062956,-0.024064,0.018624],[0.123791,0.060521,0.08857,0.211094,-0.04502,-0.079321,-0.094648,-0.047123,-0.092899,-0.035813,-0.064685,-0.105616,0.021692,-0.148619,0.086654,0.088787,-0.057506,-0.108775,-0.124051,-0.113982,-0.114478,0.02994,-0.104104,-0.009911,0.0022,-0.073828,0.055661,0.081159,0.100003,0.105164,0.008653,-0.036965,0.120285,0.09948,0.107047,-0.046055,-0.096943,-0.051167,0.036753,-0.096822,-0.070033,0.103168,-0.084528,-0.020749,-0.0432,-0.071084,0.079395,-0.10114,0.067288,0.065796,-0.108694,-0.041146,-0.088008,0.093662,-0.076009,-0.013972,0.073014,0.023869,-0.057686,0.047124,0.024981,-0.036982,-0.027894,0.030519],[0.06592,0.009215,0.008242,-0.121757,0.103945,0.06118,0.080334,-0.008141,-0.017339,-0.020252,-0.074798,-0.014914,0.034405,0.086839,-0.060337,0.089386,0.036659,0.004335,-0.079862,-0.109832,-0.038077,0.04045,0.025021,-0.051971,0.122171,-0.070261,-0.086316,0.043423,-0.068597,0.063136,-0.093833,-0.006187,0.101144,-0.075582,0.049042,-0.002338,0.007985,0.001888,-0.007161,-0.076702,0.08265,0.094254,-0.059726,-0.013459,0.09884,-0.088547,-0.094505,-0.086258,0.041825,-0.103265,-0.115982,0.027722,0.017611,0.01016,-0.009809,0.000309,0.104131,0.113279,-0.109932,0.048401,-0.013147,-0.072063,-0.020867,-0.057961],[0.153927,-0.088024,0.022769,0.000148,0.014101,0.034948,0.113238,0.120273,-0.0895,0.059164,-0.034201,0.152835,0.012021,0.01731,-0.085021,0.09726,-0.090025,0.206462,-0.087789,0.064636,0.014489,-0.075336,0.173225,0.092552,-0.079203,0.069251,-0.000904,-0.132193,0.011786,0.029349,0.055061,-0.005996,0.152031,0.191504,0.168281,0.076943,0.037752,0.138709,0.134198,0.108847,-0.046721,0.173591,-0.132442,0.257406,-0.071581,0.10791,0.061389,0.09909,-0.005423,0.110842,-0.063612,0.136026,0.037936,0.157857,0.05815,0.066606,0.114835,0.168767,0.033429,0.187071,-0.05803,0.050279,-0.011848,-0.074002],[0.162535,-0.033763,0.113554,-0.013049,-0.115811,-0.138115,0.168311,-0.018816,-0.108173,0.183206,0.038713,0.057034,0.04964,-0.031027,-0.004447,0.103663,0.083308,0.187634,-0.097529,-0.091611,0.017484,0.117636,0.005718,-0.02733,-0.081846,0.106301,0.111167,-0.113841,-0.047993,-0.000133,0.060493,0.051671,0.039104,-0.042545,-0.054495,0.089052,0.083037,0.107103,-0.058401,-0.035136,0.032999,0.016368,-0.081282,-0.034642,0.076093,0.022347,0.140853,0.098435,-0.123067,0.101876,-0.114109,0.018466,-0.071812,0.061689,0.012007,0.07173,0.096095,0.064449,0.079439,0.172883,-0.054621,-0.004308,-0.064452,-0.121096],[-0.01608,-0.054617,0.007545,0.043408,0.023876,0.024204,-0.088237,-0.093863,-0.096154,0.068084,-0.117732,-0.122138,0.07969,0.069428,0.110855,-0.099656,0.097131,0.069172,0.003663,-0.050055,0.071861,-0.071814,-0.08254,0.004751,-0.05118,0.120869,0.003604,0.064269,0.018374,-0.069582,0.081384,-0.116441,0.011991,0.106268,-0.073182,-0.023459,-0.04672,0.024014,-0.037512,-0.036218,-0.079014,0.031417,-0.032895,-0.050089,0.053569,-0.01576,0.021634,-0.082914,-0.113489,0.044642,0.069613,-0.073508,0.122452,0.048611,0.025432,-0.004138,0.084246,-0.058378,0.028952,-0.103682,-0.082526,0.001293,0.010413,0.013535],[-0.161177,-0.087338,-0.229776,0.026283,-0.112619,0.221272,-0.307348,-0.22198,-0.193076,-0.136434,0.223246,-0.032186,0.065753,-0.076932,0.086889,-0.268176,-0.022434,-0.308924,0.093986,0.012005,-0.279385,0.012731,-0.177521,-0.270725,-0.067628,-0.028008,-0.030897,-0.04584,-0.096448,0.20852,-0.238968,-0.042162,0.366261,-0.312315,-0.179112,-0.063119,-0.069608,-0.262649,-0.174805,-0.288429,0.109632,-0.352885,0.052324,-0.28796,0.061246,-0.093735,-0.039359,-0.154843,-0.10543,-0.321232,-0.096327,-0.241341,0.006041,-0.215979,0.178185,-0.220365,-0.155757,-0.314591,-0.101976,-0.333034,-0.02032,-0.026998,-0.033519,0.093773],[-0.269504,-0.107613,-0.33172,0.306424,-0.093683,0.195891,-0.179132,-0.353496,0.128597,-0.162682,0.037663,-0.262563,0.250247,0.036579,-0.007177,-0.249694,-0.080352,-0.360077,-0.035719,0.048344,-0.225798,0.093155,-0.40892,-0.250146,0.03715,-0.093772,0.025846,-0.033671,0.006155,0.142446,-0.193595,0.02373,0.380029,-0.302317,0.376023,-0.181389,0.085439,-0.224745,-0.251686,-0.387068,-0.082234,-0.311547,-0.092191,-0.133261,0.083541,0.073899,0.225072,-0.287267,-0.070766,-0.229868,-0.025403,-0.178053,0.129989,-0.319572,0.133351,-0.29754,0.369918,-0.372654,0.066134,-0.324068,0.064655,-0.043401,0.054591,6.7e-05],[0.25235,0.079621,0.221609,-0.111361,-0.035998,-0.013829,0.066999,0.136787,0.040372,0.141156,-0.106225,0.226021,-0.089168,-0.056957,-0.07228,-0.036895,-0.092413,-0.016488,-0.110268,-0.133709,0.091316,-0.06478,0.071955,0.036929,-0.003656,0.060526,-0.044759,-0.004049,-0.069207,-0.03357,0.077858,-0.057468,-0.11327,0.019734,-0.121364,0.206146,0.11409,0.13543,0.186428,0.221431,-0.087583,0.023896,0.007636,0.111723,0.013461,0.006294,0.053677,0.067781,0.059557,0.195267,-0.104629,0.023677,0.116362,0.217539,0.111001,0.103216,0.067857,0.138695,-0.046041,0.166449,0.090596,-0.111363,0.093302,-0.089653],[-0.146533,-0.024002,-0.07969,-0.029212,0.018832,0.337632,-0.089705,-0.304207,0.220813,-0.227652,0.305684,0.071166,0.125309,-0.255963,0.073171,-0.02661,-0.082186,-0.16553,0.063659,0.120768,-0.19318,0.152716,-0.141532,-0.091344,0.045222,-0.060207,0.065171,0.028578,0.044888,0.239931,-0.022803,0.0189,0.15933,-0.179404,0.273489,0.138401,0.111644,-0.201887,-0.202105,-0.09618,-0.109502,0.015382,-0.078626,0.100758,0.090095,0.110408,0.117101,-0.219329,-0.003341,-0.060419,-0.000453,-0.099317,0.305002,-0.134273,0.429643,-0.10856,0.118543,-0.228375,0.060567,-0.142854,-0.072304,-0.046322,0.222093,0.0082],[-0.236566,0.032248,-0.216693,0.05769,0.06922,0.186283,-0.051349,-0.255972,-0.124132,-0.223315,0.281243,-0.144601,0.216325,0.160142,0.078446,-0.173272,-0.023272,-0.139067,0.113296,-0.098769,-0.135624,-0.21304,-0.252059,-0.136461,-0.044035,0.043817,-0.067506,0.042387,0.112354,0.305771,-0.224342,-0.11619,0.167544,-0.139578,0.223827,0.101062,0.018836,-0.018324,-0.237352,-0.291175,-0.120223,-0.245198,-0.121402,-0.173039,-0.024479,0.05027,0.371661,-0.149921,-0.119627,-0.207167,-0.012783,-0.212926,0.310785,-0.184781,0.218146,-0.137195,0.126259,-0.214842,-0.124927,-0.0591,-0.001655,-0.08961,0.391349,-0.073775],[0.181017,-0.081716,0.156116,-0.180005,0.047605,0.122423,0.151411,-0.024505,0.04189,0.195937,-0.085941,0.229812,-0.130407,0.019513,0.062991,0.129136,0.004658,0.136959,0.100904,-0.092407,0.202509,-0.092355,0.271203,0.212454,0.067079,0.003601,-0.010535,-0.100581,-0.00586,-0.040189,0.168233,0.007937,-0.11308,0.060087,-0.10264,0.156815,-0.017194,0.111796,0.249247,0.078711,-0.005047,0.247715,-0.072789,0.284538,-0.031225,0.059965,-0.16807,0.115425,-0.066773,-0.004044,-0.008017,0.036444,-0.003033,0.015336,0.221355,0.063098,-0.115744,0.17388,0.058328,0.178611,-0.001988,0.082213,0.122608,0.090038],[-0.028842,0.123126,0.118497,-0.048848,-0.099265,0.075175,-0.068095,-0.080279,-0.02947,-0.08619,0.076249,0.020297,0.009275,-0.099514,-0.057839,0.066486,0.023333,-0.040291,0.072613,-0.070355,0.112487,0.042764,-0.05846,0.016641,-0.022855,0.073416,0.055381,-0.059941,0.022592,-0.01729,0.090682,-0.094974,-0.10544,0.114838,-0.037772,-0.097453,0.120701,-0.049183,-0.004801,0.011718,-0.007793,-0.048876,-0.116464,-0.020975,0.048155,0.065165,-0.090146,-0.011156,0.029972,0.010309,-0.052545,0.024884,-0.075298,0.071047,-0.015667,0.103931,-0.11481,-0.003166,-0.004886,0.008961,0.076644,-0.048332,-0.01505,-0.007606],[0.12879,0.041279,0.075553,-0.00029,-0.107419,0.025522,0.06521,0.070634,-0.079773,0.0268,0.047453,0.102824,-0.024943,0.122401,-0.038636,0.157974,-0.107102,0.03925,-0.055833,0.075905,0.078383,0.033391,-0.00101,0.196831,0.097904,0.085637,0.074821,-0.071905,-0.005473,0.000841,0.175888,0.016726,0.080737,0.142213,-0.030341,0.102464,0.008109,-0.017476,-0.021234,0.033065,0.118919,0.003783,0.036737,0.178928,-0.077505,0.069816,-0.026764,0.035831,0.092147,0.149629,-0.00606,0.148312,0.105618,0.022851,0.068675,0.08178,0.047555,0.137622,-0.059786,0.171362,0.037102,-0.101951,0.031428,0.004946],[0.141728,0.123232,0.216498,-0.205508,-0.080206,-0.083352,0.270359,0.232357,-0.065278,0.120203,-0.040249,0.252063,-0.139229,-0.170367,-0.024973,0.192965,0.000789,0.249397,0.04173,0.071767,0.315746,0.126135,0.129087,0.216858,-0.118481,-0.113648,-0.067144,-0.057727,0.095091,-0.253629,0.334992,0.069008,-0.170191,0.180175,-0.145606,0.206245,-0.00321,0.088793,0.13175,0.22903,-0.119049,0.129201,0.063068,0.061131,-0.021017,-0.081982,-0.235905,0.316623,-0.007313,0.304211,-0.062539,0.171289,-0.112641,0.105133,0.088314,0.08197,-0.257915,0.096061,-0.12324,0.093483,-0.073974,0.055253,0.052321,-0.026227],[0.068274,0.01032,0.068455,-0.065105,0.09396,0.040177,0.090433,0.117257,0.094042,0.170631,-0.074571,0.08662,0.01427,0.331672,-0.143043,-0.009486,0.055869,0.14857,0.045856,-0.089282,0.192119,0.018884,0.098065,0.081912,0.064806,0.026312,0.01637,-0.128824,-0.093159,0.076011,0.131068,0.104669,-0.338166,0.125648,0.03486,0.13381,-0.096613,0.097204,0.13924,0.010443,-0.036534,0.239474,0.075603,0.235912,0.075044,-0.024604,-0.107515,0.137195,0.024454,0.050742,-0.044897,0.184415,0.062998,0.145706,0.027522,0.04759,-0.148242,0.072631,-0.065017,0.13753,-0.103742,-0.084023,0.147836,-0.005361],[-0.300647,0.041092,-0.227087,0.175081,-0.05106,0.123424,-0.279186,-0.305556,0.090193,-0.321151,0.046016,-0.090047,0.311851,0.047212,0.09971,-0.162666,-0.087161,-0.352961,0.059159,-0.136255,-0.141152,0.12072,-0.250842,-0.313965,0.082965,0.083535,0.106881,-0.009291,0.084203,0.033571,-0.222891,-0.037453,0.304067,-0.292541,0.168385,-0.07928,-0.094303,-0.17886,-0.222062,-0.225184,-0.038562,-0.179458,-0.073269,-0.291865,0.037681,-0.072276,0.114564,-0.138431,7.8e-05,-0.322293,-0.054048,-0.257318,0.074259,-0.222844,-0.066225,-0.20974,0.078022,-0.161396,-0.137953,-0.232307,-0.020637,0.059164,-0.104896,-0.046629],[0.173463,0.096868,0.059586,0.065616,-0.085282,-0.070318,0.214471,0.141203,0.081905,0.09092,0.011973,0.232039,-0.068618,-0.00223,0.091347,0.076868,0.021219,-0.039445,-0.000397,-0.105491,0.199951,0.018317,0.163838,-0.013232,-0.096225,0.098574,-0.005826,0.034618,0.073078,0.104824,0.128659,-0.035334,-0.136133,-0.035155,-0.043221,0.060759,0.054678,0.097065,0.184307,0.005482,0.061314,0.202652,-0.002111,0.015043,-0.121428,-0.034298,-0.112089,0.200391,0.081807,0.064536,0.089268,0.004357,0.029203,-0.023016,0.150935,-0.063422,-0.02043,0.183712,-0.085544,0.176128,-0.013715,-0.077101,0.005504,0.010977],[-0.204104,-0.023565,-0.076579,0.213438,-0.009339,0.300181,-0.063097,-0.115441,-0.129365,-0.301086,0.160448,-0.095016,0.240995,0.307096,0.111234,-0.175692,0.126632,-0.127578,-0.053662,0.080824,-0.184601,-0.021327,-0.046239,-0.185413,0.030804,0.058006,0.108178,-0.021256,0.122272,0.078602,-0.270243,0.08835,0.246028,-0.177448,0.125203,-0.019461,0.074718,-0.06415,-0.050761,-0.26296,0.086714,-0.080721,0.114162,-0.010853,-0.087928,0.107687,0.207284,-0.258343,0.020416,-0.14541,0.082566,-0.049962,0.217375,-0.106534,-0.000319,-0.064371,-0.014162,-0.117278,-0.034833,-0.246017,0.012852,0.026469,0.133944,-0.090677],[-0.059894,-0.005519,-0.036016,-0.045669,0.102334,0.13776,0.152103,-0.111651,-0.0578,-0.126544,0.281158,0.232317,0.030697,0.000258,-0.075666,-0.078525,0.127198,0.105211,-0.056019,-0.123177,0.017086,-0.205237,-0.017119,-0.003395,0.019869,-0.116284,-0.077536,-0.005731,0.024226,0.182735,-0.137137,-0.130703,0.108109,0.033474,0.068729,0.127284,-0.036381,0.05592,-0.001359,0.023977,-0.021088,-0.074658,-0.081332,0.12191,-0.078382,0.060194,0.002582,0.093448,-0.07877,-0.020807,-0.086115,0.004787,0.264359,-0.069594,0.304087,0.159293,0.074694,0.091401,-0.015549,0.14566,-0.032214,0.056085,0.270154,-0.061272],[0.177954,0.058376,0.088161,0.141597,-0.108355,0.027359,0.112927,0.107821,0.0289,0.274264,-0.239378,-0.017744,0.027378,-0.150499,0.056189,0.166207,-0.041727,0.213982,-0.106626,-0.028558,0.255592,-0.01065,0.038706,0.142291,0.099487,0.023091,0.113257,0.0835,0.012085,-0.186526,0.191196,0.013963,-0.102453,0.151903,0.02993,0.032125,0.086761,0.169297,0.082731,0.101611,-0.109923,0.079864,-0.096152,0.122301,-0.058843,0.018515,0.049011,0.126404,-0.04377,0.164358,0.037993,0.203603,-0.097405,0.0452,-0.073828,0.191776,-0.104105,0.108443,-0.00069,0.214275,-0.004864,0.106956,-0.019286,-0.051556],[0.039525,0.073633,0.047487,0.111928,-0.038643,-0.27851,-0.0062,-0.074622,0.038315,0.152145,-0.10932,-0.092608,-0.024168,-0.08058,0.020208,0.154751,-0.025958,0.099599,-0.04397,-0.108333,0.077881,-0.149183,-0.084956,-0.155293,-0.017627,-0.022224,0.10791,0.018899,-0.029773,-0.240808,0.109168,0.099411,-0.00281,-0.115705,-0.233565,-0.011943,-0.073075,0.074696,0.112235,-0.117626,-0.113257,0.018708,0.031875,0.032625,0.084409,-0.089743,-0.005447,0.028685,-0.066153,0.155638,0.113605,-0.042986,-0.196261,-0.021247,-0.025229,-0.178968,-0.130293,-0.025587,0.092068,-0.016922,-0.142615,0.012241,0.000381,-0.098437],[-0.023992,-0.113135,0.121883,0.025773,-0.045382,0.111086,-0.104148,0.110682,-0.072624,0.019863,0.073941,0.073112,0.087686,0.009696,0.122197,-0.054866,-0.025877,0.035203,-0.109929,-0.02153,0.026745,-0.015633,0.042239,-0.083438,0.049557,0.045104,-0.009694,-0.037587,0.085174,-0.085332,0.032719,0.11588,-0.055404,0.055745,-0.014188,0.019818,0.124883,0.01458,0.072619,0.084495,-0.106438,-0.054326,0.037477,0.008731,-0.103136,0.116402,-0.082414,-0.015619,-0.00804,0.041003,-0.073134,0.014565,-0.06376,-0.005393,0.018806,0.018831,-0.08433,0.086731,-0.088426,-0.014527,-0.064862,0.119388,0.034879,0.099173],[-0.212831,-0.096402,-0.326723,0.09693,0.098908,0.398807,-0.235698,-0.416634,0.289642,-0.257377,0.373586,-0.040593,0.238135,-0.07896,0.028716,-0.352169,0.082564,-0.296372,0.047528,0.022441,-0.123298,0.162644,-0.280028,-0.375657,-0.061636,0.103298,0.107057,0.097365,-0.02327,0.352692,-0.278855,-0.078663,0.477243,-0.238942,0.281958,-0.177515,-0.022145,-0.273905,-0.177477,-0.308057,-0.034985,-0.343867,0.012565,-0.312685,-0.118203,-0.100779,0.133643,-0.263685,-0.125905,-0.361343,-0.080632,-0.271499,0.33153,-0.176679,0.048182,-0.176839,0.362687,-0.22905,0.056489,-0.190705,-0.101775,-0.045087,0.173712,-0.023319],[0.016083,-0.019771,-0.051115,0.086084,-0.061717,-0.021071,0.125681,-0.028054,0.05756,0.106817,0.16148,0.173709,-0.062454,-0.039139,0.042401,0.108341,0.002952,-0.038123,-0.064934,0.072221,0.033732,0.062368,0.141995,0.100554,-0.100147,-0.126591,-0.081263,-0.111373,-0.04017,0.017673,-0.017827,-0.081935,0.093843,-0.010109,0.06957,0.333315,0.108546,0.184785,0.05352,0.080699,-0.037969,0.180334,0.053693,0.117138,0.069868,-0.02875,0.016022,0.062792,0.015265,0.017946,-0.054455,0.179359,0.125397,-0.083726,0.130859,0.131684,0.128758,0.136052,-0.14464,0.203662,-0.048213,-0.004086,0.098564,0.07091],[-0.185362,-0.037134,-0.218197,0.182277,0.038531,0.165298,-0.047799,0.001061,0.097409,-0.082452,0.108024,-0.201733,0.228449,0.25584,0.082393,-0.214137,-0.096861,-0.041975,-0.036344,-0.127018,-0.132012,0.165548,-0.037305,-0.158482,-0.117045,-0.098699,-0.079071,-0.034586,0.04718,-0.065443,-0.092336,-0.135539,0.070699,-0.213818,0.170793,-0.111712,0.005586,0.043463,-0.097682,-0.145611,-0.086951,-0.205395,-0.009509,-0.129207,-0.098631,-0.069605,0.190002,-0.055921,-0.058511,-0.130641,0.016631,0.024575,-0.038534,-0.12695,0.038034,-0.210816,-0.020163,-0.111418,-0.10247,-0.169485,-0.096429,0.102069,-0.016505,-0.122581],[0.197399,-0.031117,0.119161,-0.176692,-0.005944,-0.148321,0.186924,0.167399,0.032592,0.108958,-0.220994,0.041036,-0.059856,-0.032161,0.013147,0.09841,-0.054412,0.291531,0.019556,0.015449,0.086789,0.125888,0.126437,0.085259,-0.084238,-0.060029,-0.076134,-0.126951,0.054493,-0.097273,0.229327,0.064649,-0.220693,0.17095,0.048091,0.03515,0.063268,0.144234,0.17859,0.208782,0.101337,0.221214,-0.117776,0.1993,0.034115,0.072556,-0.179003,0.140097,0.092871,0.226241,0.043065,0.212993,-0.227155,0.189376,-0.203812,0.247876,-0.127568,0.214857,-0.142443,0.04768,0.012411,-0.075248,-0.022584,0.029133],[-0.016041,-0.042065,0.047607,-0.035725,0.117613,-0.105453,0.109683,0.025242,0.06966,-0.038435,0.020824,-0.027846,0.143254,-0.093837,0.059052,0.000709,-0.021768,-0.057081,-0.086283,-0.058555,0.120366,0.026831,-0.062989,-0.036311,0.106551,-0.016177,0.073912,0.101774,-0.061679,-0.086545,-0.061158,-0.040833,0.13219,0.075427,-0.040098,-0.117563,-0.075937,-0.061096,0.031373,0.010664,0.088012,-0.127003,0.075429,-0.066435,-0.074933,-0.106107,-0.012215,-0.0134,0.043874,-0.068573,-0.031079,-0.078636,0.025199,-0.121122,-0.092747,-0.002309,0.09043,-0.023817,-0.102222,-0.08793,-0.030554,0.097956,-0.098023,0.016783],[0.187352,-0.100181,0.037783,0.031821,-0.114695,-0.074439,0.217056,0.182626,-0.126174,0.210831,0.095381,0.022405,0.0653,0.112755,0.052346,0.066777,-0.024273,0.055245,0.080941,-0.105198,0.132529,-0.068424,0.125072,0.067287,-0.028385,-0.068075,-0.083304,-0.085031,0.100348,-0.055348,0.16346,-0.035723,-0.036237,0.031205,-0.074386,0.170319,-0.105755,0.042523,0.106055,0.010004,-0.122853,0.224727,-0.091638,0.144469,-0.07361,-0.105128,-0.020549,0.146087,-0.046934,-0.019161,-0.122333,-0.035446,-0.093915,0.119308,0.024137,0.136317,0.071809,0.176617,0.069741,0.140125,0.074387,0.047727,0.049155,-0.066104],[-0.007985,0.083438,-0.01708,0.168899,0.074207,0.130502,0.056342,-0.08548,0.100485,-0.168018,0.095058,-0.038873,0.133159,0.056508,-0.116654,-0.092279,0.060709,-0.110787,-0.067306,-0.110175,0.051211,0.162188,-0.018499,-0.05891,-0.001796,-0.084928,-0.099868,-0.112883,0.082333,0.092142,-0.163324,0.093541,0.188638,-0.026172,0.245555,0.072887,-0.06908,-0.008868,-0.131622,-0.09097,0.012218,6.5e-05,-0.016247,0.03804,0.109932,0.054877,0.110826,-0.013383,-0.019146,-0.191691,-0.106966,-0.014618,0.115458,-0.129026,0.008086,-0.171524,0.028257,-0.045181,0.003355,-0.083223,-0.043409,0.002291,-0.014693,-0.102958],[-0.319666,0.000946,-0.415402,0.190958,-0.094646,0.293215,-0.280066,-0.488997,0.013199,-0.374005,0.414337,-0.099214,0.330262,0.56795,0.077252,-0.430756,-0.103461,-0.371544,0.044499,0.109821,-0.484135,0.107315,-0.318699,-0.451299,-0.063883,-0.075825,-0.073471,0.000699,-0.050886,0.53779,-0.413558,-0.123837,0.234567,-0.501787,0.349317,-0.040833,-0.097001,-0.278956,-0.271679,-0.481529,-0.104742,-0.481556,0.103177,-0.252235,-0.096722,-0.035269,0.207796,-0.401863,0.045186,-0.421285,-0.10415,-0.4248,0.384511,-0.488159,0.28132,-0.33039,0.270428,-0.419876,-0.034325,-0.437224,-0.038409,-0.104188,0.285454,-0.105737],[0.251181,-0.05782,0.232029,-0.005185,0.034708,0.032004,0.171203,-0.021427,-0.065687,0.024207,-0.076739,0.26576,0.10129,0.052244,0.094595,0.21176,0.097227,0.082175,-0.062121,0.035328,0.107311,0.112499,0.194651,0.059144,-0.092335,0.113588,-0.068808,-0.041232,-0.02046,-0.004835,0.171975,-0.025024,0.01351,0.166662,-0.017213,0.24052,-0.042614,0.034821,-0.008477,0.155489,0.002753,0.194407,0.090342,0.131901,0.088321,-0.116972,0.096008,0.139548,-0.091982,0.030567,0.114203,0.11352,0.019688,0.154174,0.124468,0.241336,0.088472,0.085062,0.006911,0.068658,-0.131772,0.091989,0.104644,-0.120411],[-0.092243,0.105434,-0.01661,-0.099642,0.106158,0.045054,-0.013805,-0.046344,-0.044107,-0.107216,0.027737,-0.086374,0.048534,-0.057848,-0.094639,0.040335,-0.01352,-0.021079,-0.019545,0.080689,0.089024,-0.102059,-0.082286,0.115638,0.073538,-0.088631,-0.014281,0.007518,0.051738,0.090241,0.062177,-0.084307,0.000992,-0.031969,-0.056159,-0.049999,-0.098499,-0.098324,0.122429,0.03958,-0.031074,-0.002347,-0.059369,-0.023983,-0.094342,0.030083,0.102964,0.094376,0.068193,0.033339,0.002381,-0.06457,-0.03904,-0.027789,-0.047015,-0.096842,0.053493,-0.078775,0.030051,0.072656,0.09265,0.029479,0.052928,-0.101442],[0.204749,-0.077476,0.105045,-0.004324,0.049124,-0.052896,0.216297,0.134038,-0.046522,0.093998,-0.096532,0.220204,0.004141,0.100571,-0.131883,0.066187,-0.057272,0.022958,-0.020713,-0.014078,0.050285,-0.103556,0.176166,0.136308,-0.109077,-0.019472,-0.029894,0.101698,-0.083838,0.043643,0.019183,0.085147,0.032647,0.156807,0.095195,0.073903,-0.088987,0.035702,0.115599,0.157851,-0.07214,0.057815,-0.104362,0.237693,-0.056174,-0.097563,0.055155,0.217739,-0.055177,0.145129,-0.124875,0.201271,0.05592,0.19088,0.116514,0.033565,-0.080725,0.182416,0.008325,0.143836,0.066125,-0.088113,0.052303,-0.069135],[-0.108368,-0.117753,0.013777,-0.165002,0.067963,0.096317,0.119608,0.069729,0.040843,0.146985,-0.229182,-0.007306,-0.119778,-0.128545,0.036012,0.027339,0.050284,0.071977,0.120266,0.113631,0.159795,-0.07213,0.06682,0.08673,-0.113004,-0.058347,0.114238,0.076038,0.053456,-0.090115,0.281619,0.085465,-0.256135,0.11961,-0.101299,-0.047204,-0.118225,0.200306,0.015827,0.248119,0.046895,0.004045,0.088834,-0.088307,0.021303,0.068359,-0.237491,0.069998,-0.117065,0.133965,0.097686,0.187875,0.035554,0.040962,-0.101103,0.21452,-0.10985,0.031907,0.036192,-0.030723,0.119583,0.059667,-0.122018,-0.069426],[0.155821,-0.084827,0.081274,0.081649,-0.003364,-0.046091,0.063635,-0.002051,0.060041,0.062273,0.100422,0.158118,0.002129,0.050489,-0.130712,0.160247,0.033309,0.190678,0.103577,0.079588,0.113134,-0.100537,0.071114,0.211598,-0.032075,0.022334,0.034166,0.097712,-0.105415,-0.085114,0.191761,-0.053475,-0.086178,0.09244,-0.039159,0.266511,0.028026,0.208621,0.056693,0.051684,-0.039326,0.013229,-0.032127,0.15074,0.000329,-0.092034,0.016495,0.04915,-0.055704,-0.035075,-0.100041,0.091069,-0.099043,0.136961,-0.019988,-0.04877,0.027673,0.084741,-0.024714,0.182231,0.051452,-0.121347,0.04298,-0.060032],[-0.150182,-0.03308,-0.087335,0.240298,0.067223,0.259527,-0.178533,-0.184258,0.138211,-0.100578,0.185495,0.034608,0.176453,0.165638,0.104453,-0.187719,0.071456,-0.162022,-0.032737,-0.087799,-0.04674,-0.069141,-0.04854,-0.093265,0.066527,-0.008444,-0.008587,-0.070323,-0.05644,0.284436,-0.114067,0.012521,0.294186,-0.188677,0.284156,0.178852,-0.0505,0.016463,-0.082598,-0.14757,-0.017503,-0.089364,-0.10317,-0.10474,-0.021204,-0.077983,0.329036,-0.064079,-0.038528,-0.168285,0.022271,-0.047285,0.215437,-0.202533,0.22171,-0.093154,0.270843,-0.226463,0.083472,-0.179717,0.04243,0.030418,0.418218,-0.019168],[-0.08082,0.012873,-0.301262,0.231241,-0.07616,0.219595,-0.1198,-0.241397,0.208328,-0.281259,0.189324,-0.109704,0.185899,-0.094939,-0.051087,-0.199545,-0.000415,-0.238364,-0.069753,-0.099073,-0.109693,-0.080531,-0.138216,-0.250491,0.071351,0.016358,-0.013049,-0.011242,0.026688,0.070992,-0.253569,-0.080621,0.196161,-0.228474,0.082737,-0.056479,0.006659,-0.171556,-0.200801,-0.101768,-0.065107,-0.254118,-0.129817,-0.110797,-0.036973,0.096059,0.298813,-0.266123,0.085456,-0.22078,0.080133,-0.197899,0.219997,-0.214843,0.142044,-0.078267,0.268612,-0.136829,-0.031347,-0.090741,-0.029446,0.059089,0.117371,-0.002173],[-0.004912,0.00978,-0.008624,0.121744,0.022661,0.031485,0.041217,0.023829,-0.014797,-0.030453,0.001654,0.117225,0.119363,-0.104276,-0.026498,0.117242,0.091245,0.08668,-0.098504,0.108611,0.131437,0.088714,0.027771,0.209397,0.091687,0.104958,0.059828,0.03915,-0.11975,-0.063623,0.159305,0.092156,-0.027507,0.041002,0.097915,0.107637,0.098138,-0.003365,-0.007119,0.00055,0.057263,0.02617,-0.011522,0.021351,-0.102489,-0.078046,0.16158,0.144973,-0.117503,0.092292,-0.105662,0.031989,0.053185,0.069941,-0.085025,0.071561,0.011259,0.14771,-0.112487,0.063081,-0.092837,0.044552,0.040271,0.077727],[0.028559,-0.123033,0.217944,-0.110955,-0.000546,-0.052559,0.184037,0.093851,0.034845,0.161292,-0.072077,0.058571,0.088026,0.013194,0.009801,0.210516,-0.032177,0.124268,-0.103038,0.023132,0.218904,0.069763,0.210987,0.242512,-0.110406,0.028406,0.06444,-0.075076,-0.04805,-0.13549,0.073066,-0.048385,0.075561,0.164271,-0.045583,0.250981,0.076697,0.12089,0.019973,0.154662,0.025312,0.198092,0.08882,0.22518,0.016314,0.105545,-0.037058,0.164623,-0.087266,0.198739,-0.028834,0.254934,0.07411,0.182519,0.076726,0.031627,0.043339,0.136279,-0.061326,0.163112,0.074338,-0.04008,0.134216,-0.103215],[0.032111,-0.064718,-0.067902,0.129173,-0.018712,0.00499,0.027051,-0.016018,0.191322,-0.008693,-0.022951,0.010471,0.179446,0.03086,-0.103226,0.036254,-0.048575,0.031322,-0.055391,0.026628,-0.149838,0.109963,-0.007205,-0.131223,0.084998,-0.052998,-0.027521,0.083141,-0.052217,-0.115455,-0.077472,0.106923,0.072005,0.048507,0.077348,0.04145,0.102016,-0.028852,0.048436,-0.040109,-0.026695,0.023955,-0.040866,-0.118725,-0.104745,-0.071107,0.033536,0.060408,-0.09146,0.073125,-0.073032,-0.143002,-0.133037,0.097603,-0.012253,-0.121511,-0.019745,0.043666,0.088312,-0.162798,0.00121,0.107952,-0.096404,-0.05126],[0.265663,0.02717,0.18522,-0.101313,0.015696,0.081708,0.229365,-0.018888,0.059799,0.203795,-0.107354,0.102114,-0.121082,-0.035409,0.02467,0.23459,-0.102024,0.228914,0.088032,0.009839,0.077968,0.054537,0.069053,0.201954,-0.017045,-0.067337,-0.085655,-0.023292,0.014391,0.07151,0.005642,-0.048795,-0.112446,0.00105,-0.132535,0.087551,-0.0736,0.114825,0.163253,0.106227,-0.078628,0.251181,-0.101284,0.222837,0.01749,-0.039153,-0.116893,0.155882,-0.06564,0.020517,0.088243,0.065834,-0.054842,0.139466,0.105498,0.043218,-0.129284,0.173531,0.005082,0.257764,-0.097054,0.037203,0.1342,-0.120729],[-0.016692,0.043936,0.106632,0.045188,-0.040868,-0.024055,0.039416,0.078657,-0.170551,-0.060862,0.072101,-0.08523,0.066224,0.095173,0.038585,0.018318,0.008214,-0.064476,-0.121994,0.015171,-0.072604,0.069133,0.028934,-0.049644,-0.116854,-0.014137,-0.0381,0.075398,-0.128535,-0.111741,0.11972,0.004337,-0.159526,-0.110713,-0.029687,0.12918,0.117428,0.127664,-0.011875,-0.026111,0.045455,0.022749,-0.056351,0.040458,0.022404,-0.12221,-0.03721,-0.03214,0.00449,-0.006848,0.05197,0.035923,-0.067887,0.007111,-0.055089,0.050669,0.00162,0.132459,0.08243,0.070941,-0.075268,-0.109328,0.101286,0.054535],[-0.178307,0.105182,-0.152397,0.181834,0.0851,0.167447,-0.317601,-0.338199,0.016442,-0.40129,0.097426,-0.285143,0.249703,0.230016,-0.012072,-0.219443,-0.050337,-0.205137,0.121852,-0.010342,-0.172792,0.283755,-0.108386,-0.368017,0.06186,0.113695,-0.019199,0.061102,-0.111136,0.091062,-0.361465,-0.02122,-0.027648,-0.319258,0.379032,-0.345071,0.018536,-0.308633,-0.262592,-0.327293,-0.043619,-0.159775,0.063078,-0.333475,-0.088079,0.100438,0.159816,-0.244764,0.101557,-0.231214,0.002206,-0.368297,0.077096,-0.317569,-0.036093,-0.249407,0.191849,-0.29079,-0.035401,-0.168463,0.016847,-0.124159,-0.201544,-0.016732],[-0.084397,-0.02252,0.073998,-0.052956,0.084733,0.008375,-0.113992,0.057052,0.050697,-0.001186,0.062519,0.054103,0.054547,0.120097,0.097238,0.012318,0.080432,0.007256,0.02592,-0.022063,0.074813,0.120598,-0.099737,-0.060528,-0.017692,0.093985,-0.014031,-0.073517,0.008131,0.151525,-0.001208,-0.08945,-0.093832,0.003675,-0.081058,-0.000412,-0.029469,-0.122906,0.047604,0.092103,-0.022947,-0.021654,-0.06019,-0.012195,0.011846,-0.060293,-0.077845,-0.096792,0.110434,-0.111875,-0.038025,-0.001221,0.076871,0.001525,0.119551,-0.079277,-0.141318,0.021184,-0.112421,-0.011362,-0.113921,0.055383,0.095895,0.017653],[0.021268,0.100484,0.149998,0.117097,0.090099,-0.018028,0.129778,0.014713,-0.095168,-0.041387,0.081626,0.173911,0.011011,-0.025504,0.003938,0.178545,0.000825,0.040394,-0.087049,0.02033,0.090225,-0.034963,0.203789,0.098724,-0.001206,-0.095767,-0.12,-0.090554,0.015006,0.094881,0.173786,0.06187,-0.022427,0.077302,0.002205,0.214049,-0.020109,0.068387,0.11313,-0.01877,0.093303,0.071887,-0.018759,0.107583,-0.059126,-0.115975,-0.022228,0.057565,0.012998,0.163057,-0.09187,0.121986,0.010147,0.058479,0.093584,-0.0446,-0.109975,0.059011,-0.038104,0.163159,-0.124815,-0.020891,0.072206,0.062654],[0.033996,0.076004,0.228871,-0.038411,0.007851,-0.147469,0.093459,0.15919,-0.103277,0.185923,-0.09358,0.04286,-0.027856,-0.068193,0.118053,0.161441,-0.070313,0.24372,0.002798,-0.072059,0.259122,-0.052018,0.204533,0.086407,-0.094673,0.044562,0.006177,-0.061757,-0.090668,-0.01382,0.191895,-0.028364,-0.049983,0.051003,0.072958,0.233326,0.063735,0.155718,0.014917,0.040454,0.036023,0.181706,0.05719,0.10425,-0.074725,-0.088069,-0.058825,0.133164,0.064834,0.237224,0.017139,0.170226,-0.05445,0.179156,-0.152978,0.027532,-0.140631,0.123801,-0.076716,0.025634,0.08785,-0.04275,-0.008469,0.090797],[-0.287042,-0.052992,-0.114842,0.166096,-0.03884,-0.310145,-0.167887,-0.264468,0.100065,-0.246778,-0.222143,-0.292109,0.126574,0.198523,0.044419,-0.235367,0.079198,-0.266409,-0.072781,0.040284,-0.159157,0.140297,-0.125648,-0.396444,-0.048599,-0.101156,0.000741,0.06599,0.098461,-0.263533,-0.223362,0.029027,0.268035,-0.263331,-0.110016,-0.339657,-0.0245,-0.239466,-0.285398,-0.384119,-0.086943,-0.229776,-0.033736,-0.376604,0.086732,0.017701,-0.077151,-0.299528,-0.013749,-0.171727,-0.023213,-0.285941,-0.16176,-0.219728,-0.42323,-0.190953,0.004642,-0.154848,-0.03265,-0.246397,0.06286,-0.024976,-0.303637,-0.098776],[0.006255,0.015711,-0.276029,0.130766,-0.084591,0.105269,-0.207253,-0.200402,0.240409,-0.168437,0.116678,-0.147814,0.243341,0.01804,0.025161,-0.144334,-0.048742,-0.051998,-0.008936,-0.1026,-0.258413,0.046487,-0.126167,-0.148081,-0.071126,0.095867,0.06176,0.0681,0.048189,0.014051,-0.042467,0.015605,0.145513,-0.154587,-0.037229,-0.122256,0.087531,0.040966,-0.047525,-0.248144,0.09613,-0.001698,0.116679,-0.076379,-0.055253,-0.016773,0.021495,-0.223534,0.10671,-0.215232,-0.054198,0.017571,0.126496,-0.15589,0.030028,-0.056732,0.271058,-0.249218,0.099971,-0.118486,-0.01764,0.070656,0.016683,0.038983],[0.248216,-0.010955,0.118106,-0.236271,0.041894,-0.05238,0.208811,0.048319,0.241386,0.17194,0.076998,0.288349,-0.038763,-0.033524,0.09583,0.154616,0.004782,0.218117,0.049289,0.10783,0.082953,-0.175611,0.176943,0.111709,-0.071986,0.091177,0.059554,-0.066738,0.007381,-0.007987,0.22658,0.067719,-0.044417,0.053655,-0.184489,0.271626,-0.066835,0.165435,0.206039,0.125278,-0.091298,0.269908,0.033985,0.334761,0.032045,-0.114658,-0.078593,0.134231,0.043158,0.103563,-0.096861,0.116724,0.026077,0.11603,0.237644,0.211013,-0.08724,0.064526,-0.020491,0.190564,0.075642,0.011821,0.310311,0.12063],[-0.021684,0.002321,0.179174,-0.035991,-0.09313,-0.020622,0.068024,0.144852,-0.129752,0.100344,-0.062303,0.15846,-0.093602,0.050484,0.084294,-0.04671,0.048969,0.082664,-0.039787,0.050437,0.063984,0.116621,0.160045,0.176457,-0.10799,-0.107027,-0.061519,-0.086267,-0.111578,0.004558,0.1346,0.071512,0.098964,0.143161,0.106975,0.011964,-0.129616,-0.00765,0.144945,0.078993,0.061687,0.109542,-0.047728,0.036453,-0.109431,0.03863,-0.070259,0.127042,-0.035123,0.169078,-0.029857,0.08291,-0.093331,0.123806,-0.025067,0.17859,0.039448,0.055654,-0.10093,0.052177,-0.05842,-0.072503,-0.007691,0.009431],[0.28016,-0.067583,0.102572,-0.058923,0.067115,0.092296,0.132275,0.085003,-0.049861,0.11018,0.255125,0.356566,-0.090038,-0.015649,0.068064,0.118496,0.075358,0.170653,0.052837,-0.026361,0.221676,-0.118615,-0.018134,0.094757,-0.086044,-0.107487,-0.05714,-0.123052,0.004689,0.014129,-0.064069,-0.02026,-0.084724,-0.013027,-0.224619,0.300808,-0.001353,0.162817,0.062878,0.084576,-0.118225,0.207388,-0.012233,0.354129,-0.117865,0.118005,0.080917,0.133057,-0.049077,-0.001768,0.076485,0.263008,0.257333,0.133874,0.083624,0.234116,-0.114404,0.094443,0.049383,0.115617,-0.045717,0.00563,0.200844,-0.059956],[0.052911,0.060084,0.148858,0.132103,-0.138645,-0.008898,0.159269,0.006816,-0.006733,0.177007,0.047176,0.106497,0.049316,-0.062774,0.003127,-0.017709,-0.068928,0.114305,-0.043022,-0.041484,0.175569,0.015277,0.18451,0.121092,-0.106945,0.006364,-0.071412,0.04051,0.094786,0.058379,0.163003,-0.112338,-0.126306,-0.026917,-0.11546,0.192842,-0.064553,0.093149,0.04274,0.206789,-0.015849,0.161627,-0.138801,0.033839,0.051503,0.018588,-0.098111,0.017628,-0.127963,0.164225,-0.074627,0.131433,-0.131958,0.215488,-0.005299,0.086785,-0.036407,0.00747,-0.064432,0.14726,0.02672,-0.057039,-0.081891,0.050497],[-0.017252,0.054306,0.012223,-0.034309,-0.004999,0.100653,0.007357,0.030993,-0.101856,-0.040964,0.036345,0.186295,0.063936,0.074625,-0.117607,0.053635,0.079252,0.141123,-0.070651,-0.000355,0.070806,0.032841,0.161826,0.188336,0.066698,0.00051,-0.01402,-0.094256,0.041597,0.015445,0.154876,-0.132032,-0.014544,-0.022688,0.044639,0.14622,-0.080932,0.160175,0.137905,0.111051,-0.021019,0.196055,0.011459,0.083376,-0.055168,-0.038576,0.142553,0.095297,-0.067854,-0.059585,0.004251,0.080011,-0.015975,0.169051,0.105919,0.15336,0.037728,0.128441,-0.027006,0.085867,0.018127,0.010858,0.096728,-0.01916],[0.217158,-0.101185,-0.010791,-0.095759,-0.034623,0.100931,0.104704,0.14388,-0.072241,0.116267,0.150233,0.190999,0.097069,-0.05005,-0.109412,0.17735,0.07704,0.106446,-0.124501,0.111453,-0.020452,-0.049382,0.155085,0.173181,-0.004806,-0.103455,0.103548,0.040978,-0.018723,-0.061931,0.151751,-0.008683,0.124741,0.040764,-0.117725,0.291265,-0.108815,0.01101,0.108295,0.089251,-0.079451,0.176055,-0.038057,0.16712,0.097034,-0.060365,-0.108781,0.136109,-0.126626,0.144842,0.098956,0.17677,0.09103,0.058793,0.100976,0.192988,-0.117181,0.210551,0.07375,0.234738,0.02531,0.041513,0.048143,-0.060038]],"biases":[0.193067,-0.097053,0.085071,0.070945,0.069501,0.09349,0.050942,0.071064,0.041724,0.109506,0.110361,0.219214,-0.018952,0.029382,-0.047996,0.166104,-0.08078,0.10199,0.076214,-0.10403,0.186485,0.026813,0.090294,0.001361,-0.076951,-0.085575,-0.04858,-0.011863,-0.098379,0.069553,-0.055841,0.062787,0.030388,0.181245,-0.006706,0.051555,-0.116613,0.0807,0.140282,0.164275,-0.034805,0.122298,-0.022707,0.195377,0.069893,-0.105459,-0.025845,0.111155,-0.033682,0.123733,0.061211,0.120082,0.068968,0.041757,-0.00566,0.135549,-0.124264,0.119051,-0.135073,0.087357,-0.022195,-0.031432,0.021035,0.05796]},{"weights":[[0.252117,0.212511,0.174481,0.112981],[-0.087365,-0.088239,0.025761,-0.078705],[0.197333,0.090682,0.180513,0.153244],[-0.117821,-0.181014,-0.160449,-0.332786],[-0.006388,-0.085028,-0.00834,0.043364],[-0.097021,0.225555,-0.167736,0.121456],[0.114661,0.201136,0.154032,0.192956],[0.14123,0.033401,0.259261,0.184681],[0.029908,0.269055,0.056535,-0.074124],[0.153068,0.073562,0.230651,0.121413],[0.063277,0.211695,-0.135716,0.043922],[0.146137,0.270093,0.085591,0.231898],[-0.154104,-0.066634,-0.213534,-0.205195],[-0.03728,-0.149374,-0.376201,0.05995],[-0.08093,0.011883,-0.050393,0.028441],[0.200807,0.099561,0.22302,0.041302],[0.090049,-0.053392,-0.101088,0.0205],[0.074456,0.139801,0.270626,0.106102],[-0.046001,-0.00955,-0.00678,0.019324],[-0.083681,0.03766,-0.006315,-0.051321],[0.105931,0.136691,0.208451,0.242055],[-0.119767,-0.192157,-0.061293,0.078973],[0.238373,0.071976,0.13549,0.239747],[0.173142,0.22353,0.181216,0.259716],[0.114934,-0.023472,0.038202,-0.082128],[-0.052256,-0.124475,0.011061,-0.044173],[-0.096399,0.055862,-0.070802,-0.00228],[0.025083,-0.089253,-0.037093,-0.07692],[0.089578,-0.114277,0.123831,0.077326],[0.133346,0.129982,-0.141196,0.093578],[0.042436,0.050875,0.229923,0.22615],[-0.029269,0.029533,-0.080571,-0.025622],[-0.049723,-0.004389,-0.334025,-0.164951],[0.040736,0.073787,0.205979,0.263716],[-0.153521,-0.077216,-0.274828,-0.073517],[0.187945,0.210846,0.059253,0.117001],[-0.048295,0.120666,-0.009255,0.037988],[0.018122,0.245027,0.202609,0.050076],[0.179221,0.120164,0.150484,0.073013],[0.106953,0.129458,0.169542,0.282157],[0.079198,-0.064617,0.094539,-0.090619],[0.240671,0.202059,0.223556,0.081095],[-0.01891,0.090985,0.087968,0.052566],[0.161103,0.262457,0.134498,0.117708],[0.079359,0.100967,-0.064824,0.046838],[0.095364,-0.034985,0.081874,-0.070571],[-0.019814,0.034641,-0.197954,-0.260301],[0.177018,0.135751,0.205781,0.217154],[0.109928,-0.041918,0.016284,0.107034],[0.131575,0.009695,0.164764,0.157116],[-0.015002,0.01318,-0.078073,-0.033745],[0.033333,0.196236,0.170399,0.122218],[0.079959,0.170209,-0.106461,0.098528],[0.229645,0.089916,0.219482,0.086515],[0.119782,0.208968,-0.01393,0.084564],[0.001938,0.187414,0.147084,0.12824],[-0.102994,0.052505,-0.187129,-0.206203],[0.225032,0.065382,0.213673,0.244615],[0.056415,-0.091252,-0.054101,0.105602],[0.198503,0.205596,0.182933,0.196284],[-0.020061,-0.0629,-0.059724,0.041901],[0.042763,-0.089059,0.020362,-0.078055],[0.108634,0.24319,-0.004362,0.044289],[-0.095433,0.115466,0.027208,0.005214]],"biases":[-0.046373,-0.025086,0.022263,-0.002106]}]},"round":23,"phase":7,"phaseIteration":2,"trained":"pilot","generation":22,"dominanceMetric":"pilotWinRate","dominanceThreshold":0.65,"dominanceReached":false,"pilotWinRate":0.0,"enemyWinRate":1.0,"averageScore":1345.0,"averageWave":2.3,"averageSteps":83.1,"waveClearRate":0.0,"averageClearSteps":0.0,"enemyDropRate":0.0,"invalidDropRate":0.0,"enemyFireRate":0.8,"pilotFireRate":0.4412,"pilotShotAccuracy":0.3877,"pilotHits":126,"pilotFires":325}
