{"id":425,"label":"Pilot v425","role":"pilot","model":"sb3-dqn-pilot-v425","actions":["left","right","fire","stay","up","down"],"features":["target_dx","abs_target_dx","threat_dx","threat_y","bullet_ready","alien_count","wave","drop_ready","enemy_shot_ready","fleet_y","lives","danger_shot_dx","danger_shot_y","danger_shot_lane","pilot_bullet_dx","pilot_bullet_y","bee_count","gunship_count","boss_count","ship_y","target_dy","enemy_ship_dx","enemy_ship_y","enemy_ship_role","enemy_ship_fire_ready","enemy_ship_bullet_lane","enemy_ship_bottom"],"network":{"activation":"relu","layers":[{"weights":[[0.075103,-0.400311,0.26384,-0.104704,-0.091052,-0.148185,-0.094276,-0.169282,-0.084742,0.615334,-0.193672,0.113335,-0.012604,-0.140042,-0.117852,0.006674,-0.452528,0.053521,-0.088455,0.099329,-0.000212,-0.07204,1.566424,0.371677,1.052368,0.031541,-0.480368,0.546386,0.238836,0.690111,-0.018486,2.141232,-0.031149,-0.347784,0.092837,0.064483,0.079473,0.131822,-0.46674,0.29607,0.020707,-0.625239,-0.045465,0.056167,0.087382,0.39912,-0.055108,-0.080517,-0.199419,0.549189,0.715368,0.069213,0.252487,-0.806898,-0.062581,0.374306,-0.377663,-0.06964,-0.510382,-0.327632,0.151556,-0.030511,0.295033,0.534771],[-0.510531,-0.046902,0.137246,-0.010959,0.259838,-0.451993,-0.34919,-0.073303,-0.357745,-0.88373,-0.165259,0.226717,-0.021911,0.048568,0.352248,0.404954,-0.052395,-0.689731,-0.291564,-0.02257,-0.116,0.137988,-2.219117,-0.225242,-0.775198,0.152657,-0.710487,-0.740765,-1.116897,0.379438,-0.146497,0.488202,-0.034669,-0.327178,-0.201757,0.007812,-0.167131,0.000642,-1.953692,0.032196,-0.362343,0.064685,0.001142,-0.365642,-0.117537,0.552167,-0.533875,-0.055924,-0.580985,0.696072,0.288863,-0.763019,0.215767,0.678311,-0.28913,0.27903,-0.483555,0.090934,-0.493931,-0.893478,-0.156442,0.124682,-0.271957,-1.028011],[-0.000672,-0.080394,0.049832,-0.106557,-0.058392,0.075273,0.236346,-0.039675,0.154627,-0.376897,0.026936,-0.089415,-0.10159,0.045574,-0.246853,-0.029424,-0.22004,-0.450891,0.688612,-0.062159,0.28578,0.305679,0.14645,-0.035532,-0.007525,0.090411,-0.011376,0.164011,0.082546,0.189847,-0.076754,0.003019,-0.68716,0.231338,-0.098156,0.067963,-0.203123,-0.145048,-0.02636,0.974764,0.003333,-0.223051,-0.045657,0.049391,0.101545,0.010498,0.160223,-0.021539,0.795682,-0.216758,0.591486,0.086508,-0.226821,-0.083045,0.073145,-0.046246,0.079333,-0.132025,-0.055349,0.743538,-0.042303,0.069172,0.029802,0.127707],[0.107407,-0.234112,0.215904,-0.154327,-0.041423,0.200741,0.032372,-0.054006,0.087895,0.159144,0.000626,0.51533,-0.030527,-0.029449,0.042162,-0.76221,-0.052539,-0.032768,-0.177822,0.051789,0.075616,0.17845,0.026622,0.067315,-0.174847,-0.100578,-0.17964,0.480215,0.220949,-0.537466,-0.049961,0.055061,-0.096312,0.281561,0.249809,-0.150645,0.23508,-0.188235,0.064666,0.172228,-0.025148,0.022224,-2.624218,-0.151113,0.083681,0.702786,0.141445,0.025581,0.673096,0.1655,-0.357722,-0.318592,0.225221,-0.347221,-0.118155,0.2796,0.268387,-0.092745,0.307162,0.258775,0.018326,0.168138,0.084992,0.120418],[-0.096754,0.146434,0.054572,0.036805,-0.028458,0.10647,0.03963,0.026887,-0.025879,0.06501,-0.084833,-0.076882,0.072436,-0.127337,0.070649,-0.01911,-0.051614,0.009583,-0.142945,-0.044326,-0.045416,-0.018591,-0.012806,0.325283,0.022213,0.082822,0.241456,-0.570589,-0.413781,-0.145254,0.067832,0.124877,-0.009011,0.036574,-0.09183,-0.058108,0.134743,-0.118692,0.238145,0.32975,-0.017553,0.091372,0.002242,-0.035262,0.092483,-0.048747,0.050976,-0.015608,-0.009719,0.032879,-0.233537,0.017269,0.022878,0.151588,-0.087521,-0.079216,-0.364436,0.083971,-0.150856,-0.171184,-0.155839,0.029368,-0.017847,-0.109801],[0.332312,0.411658,0.590981,-0.140177,0.305669,0.512377,0.545746,-0.068464,0.372684,-0.274257,0.563224,-0.057782,-0.0802,-0.192762,-0.585648,0.241745,-0.697828,-0.601635,0.456528,-0.052437,0.272573,0.54511,0.580057,0.038398,-0.347503,0.036899,0.399673,-0.002007,0.46447,-0.409792,0.122873,-0.368633,0.65513,0.704681,-0.544563,-0.175807,-0.293092,-0.145567,-0.030163,-0.119118,0.374375,-0.766043,0.567955,-0.072761,-0.046241,-0.441413,0.458631,0.627352,0.01994,0.299066,0.185608,-0.140264,0.701164,0.394383,0.107615,0.047006,0.27699,-0.228159,0.379975,-0.774507,-0.097413,0.082093,0.691624,0.624791],[0.29756,-0.46831,0.374042,-0.08436,-0.405115,0.37409,0.110991,0.184158,0.354952,-0.180505,0.216435,0.403154,-0.060251,-0.080321,0.051155,0.670728,-0.038105,0.197414,0.169824,0.088439,0.288802,-0.272488,-0.302715,0.292075,0.294459,0.077634,-0.071467,-0.3882,0.140232,-0.196275,-0.209289,0.081972,0.247299,-0.014226,0.347445,-0.209188,0.221695,-0.046399,0.617165,-0.185855,-0.362249,0.117679,0.62881,0.333833,0.110898,-0.102096,-0.046192,0.395897,0.379617,-0.331506,0.268348,0.102811,0.086168,0.275342,-0.220542,0.228489,-0.164312,0.071746,-0.079133,-0.034211,-0.137982,0.10603,-0.088252,0.140628],[0.265447,0.179921,0.056053,-0.032248,0.099963,-0.05729,0.264344,-0.18801,0.084194,0.353575,0.146078,0.050103,0.012547,-0.101137,0.37368,-0.371232,0.356501,0.421041,-0.049918,-0.070689,0.207474,0.169077,0.016667,0.154183,0.048466,0.062547,-0.139398,0.169203,-0.199821,-0.091739,-0.000276,0.080702,-0.045772,0.02101,0.183598,0.029233,0.156825,-0.156361,0.118021,0.281696,0.234614,0.07253,-0.053559,0.125953,-0.086643,-0.017251,0.05433,-0.039786,-0.285811,0.037724,0.123081,-0.020945,-0.002605,-0.389019,-0.181923,0.202303,0.015753,-0.231067,-0.091645,-0.036942,-0.196583,-0.023588,-0.154936,0.088619],[0.201421,0.121449,-0.104455,-0.186066,0.149792,0.099436,0.334914,0.010166,0.02936,0.098388,0.244322,-0.054407,-0.167241,0.053754,0.145863,-0.136587,0.339943,0.438982,0.029689,-0.216107,-0.041266,0.148559,-0.028397,0.192334,-0.190049,0.150981,-0.000885,-0.124924,-0.084109,-0.094508,-0.196405,0.388891,0.02668,0.119419,0.181372,-0.196078,0.151113,-0.082223,0.214938,-0.010516,-0.0458,0.165227,0.09602,0.207437,-0.199448,0.141736,0.117235,-0.136746,-0.165564,0.034054,0.063042,-0.220571,-0.160857,-0.302623,0.047314,0.197856,0.110739,-0.064315,0.109045,0.143538,0.015018,-0.184822,0.02244,-0.000839],[-0.65027,0.285735,-0.698727,-0.163728,-0.52969,-0.614424,-0.526311,0.105414,-0.523531,0.844952,-0.377278,0.20749,-0.105757,-0.008349,-0.300145,-0.369471,0.55028,0.623073,-0.521323,-0.181531,-0.579347,-0.515099,-0.129004,-0.327488,-0.109347,0.224517,-0.28117,-0.375522,-0.342858,0.749439,-0.076012,-0.170929,0.051669,0.000652,0.967603,-0.177832,0.856907,-0.175497,-0.429767,-0.296205,-0.152465,1.042793,-0.381503,-0.705871,-0.17792,0.966875,0.071576,-0.938623,-0.026442,-0.532383,0.513095,-0.021051,-0.612739,-0.359951,0.041043,-0.720156,-0.125651,-0.040941,-0.276138,0.156172,-0.1197,-0.08012,0.004632,-0.352783],[-0.013147,0.028985,0.136451,-0.210212,0.371535,0.002062,0.06563,-0.03954,0.086259,-0.414552,0.239189,-0.104955,-0.140058,-0.071122,0.293185,0.447137,-0.122368,-0.106354,0.08012,0.060637,0.066875,-0.01044,0.289933,-0.300599,0.050309,0.020359,0.304767,-0.030701,-0.166765,0.057247,-0.000244,0.049051,-0.04843,0.144184,-0.654284,0.140334,-0.005515,-0.139334,-0.151048,-0.27074,0.267556,0.047081,-0.500411,0.320793,0.010582,-0.467408,-0.122155,0.53714,0.019524,0.451435,-0.646889,0.044136,0.628661,-0.483837,0.006146,0.217584,-0.098306,-0.071839,0.33645,-0.145516,0.038692,-0.203876,0.081519,0.03949],[0.012953,0.208299,0.045129,0.118689,-0.133345,0.236851,0.051454,-0.018799,-0.069482,-0.158696,0.205477,-0.123818,-0.032101,-0.094714,-0.131307,-0.01254,0.076245,-0.195791,0.355742,-0.148272,0.128776,0.317027,0.15438,-0.040294,0.853195,-0.044986,0.27156,-0.135469,0.018453,0.3253,0.054316,-0.126946,-0.35091,0.060181,0.035861,-0.107687,0.229219,0.099929,-0.099943,0.501,0.029397,-0.369957,0.142279,0.020348,-0.150958,-0.465731,0.289645,0.057247,0.134026,-0.193538,0.354226,0.164114,-0.107035,0.231947,-0.12606,-0.080254,0.133935,0.052507,-0.118232,0.918629,0.087705,-0.049237,0.08758,-0.096947],[-0.107222,-0.18924,-0.106181,-0.163374,-0.545647,-0.190907,-0.304339,-0.117491,0.103293,-0.149274,0.004954,0.438799,-0.164533,0.07203,0.066029,-0.790273,0.177378,0.310709,-0.264964,-0.096334,-0.166793,-0.666934,0.09448,0.102192,0.082364,0.000675,-0.283339,-0.158095,-0.060725,0.219371,0.104597,0.066406,0.258661,0.17618,0.221252,0.068758,-0.083396,-0.113999,0.017645,-0.538523,-0.160383,-0.338132,-2.515465,-0.11441,-0.183804,-0.0948,-0.268948,-0.111204,0.3034,0.025265,-0.006671,-0.175875,0.194177,-0.485348,-0.000111,0.065617,0.154679,0.069463,0.19063,0.079729,0.021499,-0.129292,-0.238206,0.0989],[-0.285055,-0.074353,0.163978,0.039937,0.353001,0.172022,-0.223467,0.130579,0.273675,0.464127,0.184093,0.294876,-0.056204,-0.16098,0.297716,-1.164248,0.686921,0.187077,-1.01004,0.162979,0.107131,-0.775105,-0.23602,-0.236435,-0.453064,-0.118009,-1.127425,0.207901,-0.571285,0.091158,-0.11794,0.186844,-0.184105,-0.261848,-0.022374,-0.002584,0.355157,-0.168353,-0.033246,0.147844,-0.066472,0.075292,0.212812,-0.331599,0.045197,0.29938,-0.40469,-0.196566,-0.149603,0.479503,-1.066536,-0.257471,0.214247,0.01377,0.105194,-0.126173,-0.085158,0.06167,0.262494,-0.371892,0.131677,0.188156,-0.580048,-0.203711],[0.133046,-0.152281,0.175985,-0.060113,-0.017301,0.035344,-0.003898,-0.075905,0.18024,-0.213211,-0.257897,-0.024692,-0.007322,-0.085549,-0.090543,-0.402964,-0.243049,-0.058173,0.014865,-0.045319,-0.018835,0.264736,-0.023571,-0.332181,0.025502,-0.305755,-0.384847,-0.006991,-0.312853,0.030198,0.166554,-0.059212,-0.125902,-0.001706,0.029795,-0.070324,0.444268,-0.046381,0.179462,0.388222,-0.011371,-0.096489,0.040399,0.017776,-0.081809,0.254899,0.132233,-0.039973,-0.011792,0.162391,0.11513,1.461124,0.071607,-0.274022,0.010204,0.170489,0.48728,0.129213,0.04419,0.188428,-0.004749,-0.165094,0.051304,-0.022897],[0.078195,0.132765,-0.152783,0.131758,0.28089,-0.603668,0.244631,-0.038679,0.026847,-0.324747,-0.188321,-0.282272,0.188923,0.071507,-2.795543,0.061857,0.728609,-0.022362,-0.195415,-0.022652,-0.641135,-0.100599,-0.623107,-1.446069,-0.186262,-6.697347,0.021567,2.261089,1.246987,0.450907,0.009229,0.719847,0.415965,-0.142143,0.256115,0.090396,0.323914,0.175583,-1.20886,-0.156969,-0.574596,0.0734,-0.201212,-0.744195,-0.109467,-0.418859,0.422534,-0.089959,-0.134189,0.383059,-0.664985,-1.808968,-0.030079,-0.367132,0.000966,0.308165,-0.032398,0.084844,-0.323788,-0.211522,0.15465,0.120054,0.155849,-0.525584],[0.341821,0.807382,0.5125,0.154129,0.338533,0.467975,0.308273,0.012363,0.476134,0.073774,0.509608,-0.27397,0.092543,-0.058834,-0.552516,0.249177,-0.721928,-0.541952,0.04322,-0.074039,0.440276,0.582364,0.589426,0.379549,-0.315411,0.105371,0.28989,0.179878,0.430926,-0.372,-0.167236,-0.668025,0.743951,0.856069,-0.53385,-0.073022,-0.22649,0.123291,-0.336104,-0.137793,0.829823,-0.713837,0.476725,-0.11209,0.013479,-0.300823,0.742863,0.080875,-0.107045,0.515208,0.30611,-0.073184,0.630673,0.282387,-0.040554,0.193833,0.623855,-0.111146,0.813337,-0.64686,-0.199271,0.087987,0.507261,0.722608],[0.552712,-0.438337,0.584498,-0.017191,0.303603,0.141117,0.234155,0.159322,0.373071,-0.807228,0.037428,0.663058,0.031253,-0.102587,-0.318103,0.764396,-0.806373,-0.432904,0.653713,-0.189922,0.281108,0.096927,0.319452,-0.221107,0.124085,-0.001092,0.132898,0.006879,0.547206,-0.524996,-0.027952,-0.24943,0.484058,0.133399,-0.087789,-0.178162,-0.385132,-0.165901,0.858278,-0.188801,-0.295265,-0.653358,1.046951,0.192716,-0.195108,-0.72397,0.102935,1.446919,0.076639,-0.182889,-0.867352,0.127304,0.544481,0.203712,-0.045313,0.565685,0.145028,0.033464,0.389304,-0.677867,-0.090773,0.003628,0.637665,0.423772],[1.14218,-2.962755,0.345431,0.144216,-0.453174,0.339203,0.394586,0.007269,0.932794,-1.814184,0.294632,1.356385,-0.091663,0.018802,0.330082,2.594583,0.574499,-0.34472,1.068162,-0.019141,0.954822,-2.102637,-0.292399,0.379235,0.503669,-0.209318,-0.286387,0.356514,0.329178,-0.823386,0.189148,0.194401,0.043545,-0.781136,0.925376,0.164008,-0.925089,-0.002875,3.078103,-0.724672,-2.15806,0.164079,0.360755,3.83797,-0.2083,-1.337639,-1.12359,2.952892,0.678538,-1.184509,-0.131803,-0.436141,0.091027,-0.283629,-0.203882,1.595529,-0.081415,0.090807,-0.752781,-0.254301,0.166571,-0.141396,-1.867876,0.262276],[0.248525,-0.188981,-0.169581,-0.065313,0.008215,0.118963,0.136769,-0.08659,0.027459,0.024004,-0.079123,0.164126,0.061725,-0.145916,0.35588,-0.1829,0.006851,0.095414,-0.025579,0.108309,0.242517,-0.250499,0.039306,-0.0096,-0.17864,0.071759,-0.111862,-0.118249,0.194215,-0.020841,-0.19122,0.305683,0.10729,-0.293845,0.257996,-0.042203,-0.22203,-0.190088,0.182087,0.010408,-0.27944,0.323564,0.160287,0.189777,-0.072263,-0.056183,-0.10061,0.110434,-0.219208,-0.324197,0.008046,0.149385,-0.31741,-0.379512,-0.179258,0.388768,-0.325795,-0.15654,-0.094042,0.006744,-0.138953,-0.156058,-0.004548,-0.172266],[-0.291614,0.76629,-0.188366,-0.157953,0.058195,0.040552,-0.143094,0.052614,-0.435344,-0.001309,0.115596,-0.597077,-0.165851,0.100704,-0.663542,-0.216348,-0.029499,-0.777041,-0.263646,0.048111,-0.000529,-0.000538,-0.102239,-0.430093,0.029219,0.165516,-0.051017,0.235336,-0.030007,0.409581,0.048347,-0.187796,0.107161,0.327294,0.303019,0.141344,0.244449,-0.126527,-0.122943,-0.428414,-0.293974,0.07518,0.184601,-0.815077,0.118982,0.03986,0.118342,-0.122842,0.178021,0.386865,0.019161,-0.046643,0.288266,0.084331,0.162546,-0.33477,-0.014723,0.106002,0.023402,0.045053,0.20871,0.181336,-0.163169,0.060039],[0.03155,-0.277739,0.348397,-0.074656,0.06238,-0.445149,-0.10332,0.199546,0.113566,0.630731,0.047785,0.144666,-0.071347,0.089081,0.107207,-0.132345,-0.426167,0.119924,0.05166,0.12057,-0.119921,-0.050447,1.452406,0.327961,1.191322,0.113758,-0.368559,0.705965,0.098077,0.751756,-0.079292,2.116176,0.087833,-0.360822,0.025753,-0.007519,0.09597,-0.187541,-0.556096,0.393446,-0.047653,-0.689637,0.17685,-0.107092,-0.062436,0.410387,0.221143,0.075725,-0.470618,0.494693,0.620352,0.309026,0.026622,-0.712838,0.04695,0.225839,-0.306736,0.120933,-0.606521,-0.20813,0.081384,0.072345,0.083421,0.484896],[0.095941,0.206418,0.134892,-0.184723,0.273415,0.172196,0.126224,-0.052127,0.040918,0.097913,-0.083199,-0.653095,-0.148304,-0.014081,-0.026029,-0.500813,0.018226,-0.464961,-0.282194,-0.213184,0.019232,-0.23033,-0.019166,-0.00133,0.043353,0.089313,-0.263164,-0.062382,-0.006126,0.302937,-0.196021,0.006274,0.008878,0.080555,0.460777,0.13415,-0.225178,0.088797,0.212046,-0.057073,-0.411307,0.247855,-0.093326,0.071652,0.17056,0.172929,-0.038087,-0.173787,-0.090744,0.198597,0.176943,-0.066623,-0.142387,-0.254417,-0.078752,-0.203594,-0.589705,-0.021383,-0.003745,-0.12988,-0.188778,-0.142546,-0.951201,-0.050911],[0.191858,-0.101463,0.103715,0.100505,-0.382857,-0.026319,0.035514,-0.235079,0.235976,0.154604,0.071255,0.29503,0.13341,-0.173597,-0.022061,0.493845,0.260979,-0.070739,0.022788,-0.167067,0.147947,-0.375046,0.072318,-0.12155,-0.579739,0.119574,-0.30935,0.130091,-0.526685,0.310101,-0.097448,-0.211094,-0.733966,-0.042384,0.275679,0.127028,-0.484808,0.020931,-0.070948,-0.400588,-0.125836,0.168191,0.338474,-1.446015,-0.1649,0.15586,-0.155167,-0.149792,-0.150382,0.469442,-0.205534,0.044582,0.181061,0.265469,0.068028,0.125751,0.366705,0.071284,-0.693115,-0.308953,0.073498,0.114758,0.179041,0.239563],[0.017989,0.199129,-0.003362,0.099232,-0.123649,0.163372,0.084709,-0.032937,-0.065724,0.182814,0.234232,-0.063447,-0.090078,-0.027383,0.020301,0.236493,-0.442644,-0.068776,-0.201198,-0.004129,0.060376,-0.179536,0.000541,-0.242692,0.267382,-0.041787,0.024905,-0.001022,0.246396,0.04753,-0.110335,-0.172401,-0.341995,-0.184037,0.073794,-0.06273,-0.003108,0.085266,0.082654,0.018558,0.033146,0.068734,0.010959,-0.507893,-0.120002,0.062063,-0.107146,-0.123518,-0.053087,0.134853,-0.406925,0.000613,0.030791,0.18035,0.085236,0.04474,0.281931,0.019977,-0.137239,0.138167,0.048283,-0.142784,0.044229,0.035499],[0.115315,-0.009648,0.073526,-0.028333,0.152074,0.040095,0.170831,0.177495,0.208549,-0.134189,0.252846,-0.037526,-0.180396,-0.083869,-0.015942,-0.001375,-0.153304,-0.004648,0.023068,-0.045023,-0.068648,-0.147652,-0.154744,-0.156027,0.271617,-0.073275,0.681665,0.360402,0.360632,0.36073,-0.169651,-0.109467,-0.117661,0.053261,-0.223115,0.122728,0.602823,-0.108244,-0.00646,-0.083797,0.149311,0.083907,0.00801,-0.151192,-0.096766,0.241637,-0.410197,-0.00106,-0.042627,-0.064036,-0.324943,-0.290729,0.028832,-0.196648,-0.176361,-0.192924,0.11887,-0.169197,0.025583,0.025349,-0.069619,-0.169333,-0.077404,-0.148395],[-0.186934,-0.08538,0.077604,0.107145,0.006576,-0.067128,0.142876,-0.148223,-0.072556,0.235199,0.031278,-0.530335,0.028637,-0.196277,0.068064,-0.276404,-0.052294,-0.30143,-0.25813,-0.009191,0.175779,-0.370433,-0.078645,0.159485,-0.046832,0.092849,-0.290066,0.010997,-0.100528,0.29874,0.002832,0.134716,0.181399,-0.250208,0.319184,-0.201376,-0.157933,-0.033249,0.09622,-0.2497,-0.370891,0.113508,0.049763,-0.074326,-0.127394,0.201751,-0.174571,-0.104334,0.074802,-0.105071,0.263544,-0.007841,-0.288086,-0.444732,0.070406,0.014668,-0.241326,0.076028,0.175459,-0.135731,-0.054716,-0.146917,-0.695444,0.121271]],"biases":[0.104695,-0.133927,0.050841,-0.163036,-0.008712,0.067535,0.167143,-0.005503,0.157928,0.383903,0.21485,-0.109975,-0.180096,-0.086728,0.273466,-0.239815,0.411304,0.058852,-0.013655,-0.204915,0.241275,-0.187119,-0.024841,0.345314,-0.024406,-0.037096,-0.133683,-0.099113,-0.086538,-0.004312,0.085668,0.144185,0.256403,-0.145623,0.16983,-0.056858,0.074473,-0.102807,0.138255,0.276074,-0.052218,0.377498,-0.149237,-0.016283,0.034147,0.241041,-0.106125,-0.250832,-0.325256,0.202047,-0.151978,0.078931,-0.302425,-0.220701,-0.237933,0.149884,-0.045247,-0.138619,-0.084949,0.164837,0.137215,-0.096378,-0.122151,-0.018236]},{"weights":[[-0.043689,-0.289312,0.166103,-0.114561,0.113267,0.043303,-0.045401,0.290819,0.40222,-0.007025,0.617824,0.1873,-0.6521,0.175161,0.238151,-0.093612,-0.010269,0.207189,0.449304,-0.21207,0.202137,0.266556,-0.147177,0.124006,0.065183,0.17407,0.011862,0.011521,0.385822,0.356371,0.26354,0.047825,-0.318742,0.126779,0.080787,0.14236,0.156239,-0.043583,-0.049448,-0.269757,-0.055529,0.202664,-0.482678,0.353505,0.501075,0.070066,0.079273,0.408638,0.458254,-0.004044,0.13383,0.377274,0.000709,-0.038243,0.056189,-0.022228,0.123591,-0.082563,0.261226,0.041359,0.015432,0.514973,0.229848,0.299982],[0.424382,0.29246,-0.540419,0.450913,0.092236,-0.043934,-0.0123,0.171466,0.063391,-0.565775,0.137011,-0.938586,0.348672,0.156401,0.014129,0.018017,0.365796,-0.055388,-0.146389,-0.611931,-0.902701,-0.344072,0.133344,0.315485,0.632993,0.282255,-0.219069,-0.023152,-0.681732,-0.168761,0.027135,-0.033195,0.615942,-0.216089,-0.062183,-0.161866,0.085391,-0.003087,-0.207029,0.316213,0.078592,-0.253689,0.762528,-0.047124,0.168637,-0.015046,0.241324,-0.035081,0.045162,0.649214,-0.142942,-0.55768,-0.180758,0.060872,-0.036283,0.11026,0.033547,0.165673,-0.121279,0.105263,-0.114558,0.061386,0.117443,0.182764],[0.199478,0.111959,0.0008,0.102409,0.050305,-0.049328,0.050199,0.312973,0.210802,0.205163,0.33738,0.244188,0.10335,-0.079897,0.267014,0.092814,-0.02407,0.02655,0.389,0.47729,0.115892,0.391056,0.17112,0.198198,0.098112,0.350846,0.134679,0.031822,0.346125,0.266666,0.155772,-0.023698,-0.818254,0.041489,-0.138033,0.133659,0.044984,-0.129971,-0.071299,-0.016402,0.253051,0.222038,0.09138,0.296643,0.273595,0.006939,-0.12454,0.321152,0.256838,-0.272419,0.185273,0.138639,-0.098799,0.146931,0.023646,-0.263229,0.083318,0.113592,0.207039,-0.091831,-0.014334,0.176499,0.337101,0.07168],[-0.077931,0.029825,0.05335,0.043379,-0.001632,-0.016655,-0.10973,-0.007131,0.038167,-0.007183,-0.043713,0.113237,0.073088,-0.102663,-0.094438,0.009261,-0.002136,0.118654,-0.034248,-0.044933,-0.02439,-0.10919,-0.006132,-0.02039,0.067173,0.043825,-0.086286,0.081504,-0.101206,0.005496,0.003318,-0.090429,-0.025855,0.02405,-0.052864,0.004752,-0.089644,-0.025478,0.103266,-0.05078,0.120486,-0.02237,-0.129323,-0.001172,0.113925,-0.001869,0.000815,-0.024108,0.049867,0.022158,0.049037,-0.041997,-0.111323,0.038678,0.050991,-0.06706,0.096201,0.038891,0.092621,-0.037934,-0.086058,-0.025778,-0.036131,0.025611],[-0.037589,-0.069278,-0.081166,-0.148562,-0.292899,-0.030895,-0.150737,0.030668,0.324163,-0.365705,0.164745,0.421283,0.025794,-0.024897,0.008328,0.0863,0.119547,-0.130327,0.135411,0.195494,-0.021114,0.219055,0.137543,0.017945,0.154125,-0.223761,-0.056957,0.019772,0.27903,0.312368,0.457066,0.070504,-1.030055,-0.142593,-0.169532,0.148831,-0.040323,0.069707,-0.072528,-0.4396,-0.06486,-0.090551,-0.041306,0.215095,0.07295,-0.054768,-0.181314,0.126933,0.259307,0.155302,-0.111221,0.108427,-0.086445,0.275173,-0.087603,-0.404467,0.050867,0.253234,0.184993,-0.031853,0.061863,0.193039,0.024989,0.140904],[0.103484,0.175259,0.020026,0.163063,0.128101,-0.091565,-0.118912,0.373409,0.155809,-0.22536,0.141569,0.076473,0.265297,-0.244798,0.375961,-0.081299,-0.091018,0.331613,0.17894,-0.282243,0.058988,0.124417,-0.215106,0.074991,0.197517,0.322058,-0.051445,-0.013599,0.219854,0.198112,0.193339,-0.094599,-0.197716,-0.004498,-0.130776,0.161973,0.182323,-0.016696,0.074552,0.032396,-0.056875,0.240636,0.202888,0.398188,0.238175,-0.148482,-0.073774,0.259455,0.224658,-0.006499,-0.159717,0.06593,-0.119969,0.052793,-0.042137,0.220635,0.131524,0.124075,0.227125,-0.06483,-0.034735,0.207419,0.192067,0.258966],[0.059584,0.143951,0.207847,0.050729,0.092331,-0.024581,-0.118437,0.182545,0.440462,-0.064292,0.488129,-0.091218,0.115703,0.141001,0.228186,-0.055442,0.012059,0.28027,0.405521,-0.161639,-0.048051,0.066083,0.003027,-0.145903,-0.068295,-0.031624,0.230613,-0.108969,0.083543,0.414943,0.350827,-0.125801,-0.214134,0.029991,0.039891,0.083922,0.285063,0.023029,-0.065641,0.015901,0.005628,0.108658,-0.062949,0.333163,0.394713,-0.013479,-0.149402,0.347725,0.439707,-0.208533,-0.090176,0.007844,-0.137427,-0.058951,-0.072171,-0.067514,0.101948,0.318345,0.339688,-0.025084,-0.075545,0.36076,0.156118,0.235924],[0.021947,0.141806,0.089963,-0.091201,0.080987,-0.111962,0.040971,0.076458,0.017746,0.000566,0.059918,0.024544,0.123208,0.197622,0.047212,-0.105977,-0.078442,0.096043,0.113482,0.096617,-0.006626,0.015857,-0.038876,-0.041672,-0.03905,-0.044395,-0.080922,0.047472,0.063907,0.02665,-0.12233,0.013933,-0.071455,-0.029938,-0.095906,-0.070331,0.07542,0.116619,0.041904,-0.088837,0.055924,0.080604,-0.120089,0.095096,0.158828,-0.102867,-0.017203,0.011209,-0.038045,-0.016107,-0.054005,-0.040923,-0.050067,0.130995,-0.030578,0.130268,0.023517,-0.071559,0.100397,0.010767,-0.07817,0.070582,-0.082031,0.057826],[0.062569,-0.260135,0.120871,-0.184845,0.085964,-0.086867,-0.098791,0.228467,0.150768,0.140429,0.270579,0.342605,-0.682194,0.045212,0.28523,-0.05109,-0.109234,0.098105,0.338122,-0.169737,0.320885,0.205136,-0.103502,0.432319,0.075142,0.126082,0.027819,0.014469,0.48088,0.28823,0.304539,-0.060893,-0.149037,0.183078,-0.064617,-0.013146,-0.001059,-0.046074,0.20988,-0.01097,-0.102618,0.274149,-0.137927,0.393628,0.182919,-0.052266,-0.249791,0.211833,0.337781,0.089056,0.090251,0.171898,-0.051663,0.045865,-0.074679,-0.160585,0.164111,-0.036736,0.247232,-0.1112,-0.049507,0.387195,0.196718,0.193469],[0.049544,-0.437992,0.199498,-0.049889,-0.018426,-0.082717,0.017368,-0.00653,0.124002,0.406508,-0.194984,0.007581,0.528672,-0.208306,0.026443,-0.102986,0.00084,-0.098096,-0.149343,0.233208,-0.396072,-1.602849,0.365518,0.302465,-0.086095,-0.26501,0.212803,-0.06662,-0.493575,0.01634,-0.229607,-0.124455,0.673152,-0.456313,-0.140777,-0.250348,-0.281363,-0.098871,-0.09634,0.209275,0.116213,-1.456718,0.52295,-0.064867,0.078341,-0.126206,0.033697,-0.105152,-0.168637,0.103003,0.44503,0.115023,-0.063011,-0.116899,-0.00171,0.211681,-0.675399,-0.265533,0.107374,0.069724,-0.106407,0.056972,-0.402529,-0.124927],[0.156012,0.243111,0.032357,-0.063595,0.040786,0.092012,-0.164538,0.257646,0.127459,-0.128294,0.382558,-0.025743,0.192045,-0.091585,0.288859,0.058646,0.127336,0.113864,0.156226,0.008082,-0.199391,0.052124,-0.009117,0.216493,0.164231,0.192199,0.211572,-0.144334,0.200728,0.320744,0.274507,0.072573,-0.150238,-0.10074,0.012494,0.05645,0.013401,-0.137384,0.129256,0.005659,-0.071557,0.174296,0.131539,0.230277,0.218229,-0.014428,0.090133,0.236255,0.239353,0.211695,-0.195477,0.003006,-0.171656,0.075641,-0.111834,-0.045064,0.154356,0.153468,0.240195,-0.080497,-0.01009,0.356768,0.160175,0.17015],[0.340826,-0.105899,0.242631,-0.810804,-0.459568,-0.044497,-0.01066,-0.263211,-0.288533,-0.282413,-0.383115,-0.106927,-0.283439,0.052863,-0.08873,-0.094212,0.341026,-1.168823,-0.314303,0.406758,0.01843,-0.049897,0.275352,0.817507,-0.765742,0.134066,0.053951,-0.087081,0.443845,-0.182528,-0.081238,-0.021809,0.037737,0.262662,0.03617,0.361156,-2.107219,-0.015805,0.165263,0.487966,-0.045942,-0.339876,0.023939,-0.10324,-0.340114,-0.061523,0.444386,-0.347826,-0.417223,-1.312596,0.347616,0.284157,-0.022107,0.816778,0.06435,-0.174657,-0.430972,-1.548601,-0.199409,0.000687,0.015839,-0.349567,-0.409163,-0.470294],[0.027645,0.04938,0.092704,0.016558,0.109446,-0.000738,-0.080216,0.003253,-0.018606,-0.122521,-0.090393,0.035967,-0.124886,-0.079631,-0.117584,-0.063002,0.001953,0.032871,-0.083653,0.078852,0.016964,0.083742,0.044367,-0.004689,-0.122422,-0.043106,0.122642,0.051388,-0.007172,0.026097,0.018862,0.028097,0.049333,-0.11881,-0.060756,0.018004,0.014883,-0.087893,0.108907,0.013835,0.030537,0.112086,-0.090033,0.098982,0.004929,-0.002142,-0.121738,-0.107098,-0.032227,-0.115553,0.092701,-0.11144,0.103592,-0.033492,-0.091658,0.041997,-0.033325,-0.116185,-0.036216,-0.014865,-0.080763,-0.092663,0.115361,0.091379],[-0.05847,0.006457,0.018478,-0.112851,0.146148,-0.0667,-0.077327,0.044997,-0.014381,0.101882,0.01902,0.080182,0.091821,0.052886,0.069306,-0.03696,-0.064548,0.073081,0.123643,-0.076675,0.038352,0.124753,-0.108111,-0.017098,0.107824,0.062552,0.072182,0.082412,0.109063,-0.078354,-0.002813,-0.016545,-0.036186,0.098757,-0.098044,0.008935,0.085733,-0.101555,-0.017267,-0.020762,-0.123822,-0.023965,-0.090267,-0.040122,-0.028435,-0.04688,-0.001871,-0.047971,0.04155,-0.102171,-0.046178,-0.014475,0.007839,-0.113957,0.000635,0.117958,0.003007,-0.046882,0.096639,-0.09249,0.114746,0.148707,-0.056196,-0.049552],[-0.245174,0.496204,0.268991,-0.360382,0.22139,-0.061978,-0.017261,0.194191,0.064617,-0.103495,0.148838,0.335993,-0.209577,-1.206343,0.314871,-0.156216,0.126939,-0.256419,0.02947,0.38432,-0.043282,-0.297412,0.267372,-0.156118,0.061397,-0.180637,0.074749,-0.123065,0.316427,0.065492,-0.074324,0.087155,-0.095077,-0.130598,-0.045061,-0.073758,-0.414403,0.016551,0.023743,-0.283778,0.076223,-0.502729,-0.296636,0.305344,0.171071,0.048484,0.494479,-0.120902,0.129454,-0.606564,0.087575,0.634016,-0.163958,-0.569243,0.012488,0.143322,-0.523701,0.077351,0.251066,-0.13901,-0.142124,0.283308,0.046564,0.081446],[0.45897,1.008284,-0.949835,-0.466024,-0.613144,-0.01921,-0.053987,-0.833745,-0.894345,0.074521,-1.033463,-1.244138,1.975559,0.531794,-0.797139,0.069601,-1.182763,-0.844487,-1.01428,-1.105847,-0.604072,-0.383868,0.217139,1.141314,-0.568989,-1.565394,-0.478189,0.038568,0.090696,-0.956742,-0.926246,0.050551,-2.58749,0.884004,-0.03262,-0.021546,-0.478148,-0.10306,-0.825215,-0.363627,0.989842,0.073504,-1.815846,-0.93112,-1.06289,0.051722,-0.136606,-1.289471,-1.094062,0.207159,-0.221536,-0.444759,-0.036902,-0.923173,0.069225,0.713251,0.16391,-0.737968,-1.111032,0.01176,0.022586,-1.103189,-0.657283,-0.819725],[0.007736,0.313244,0.083261,-0.550736,-0.148578,0.067189,-0.022753,0.107079,0.075765,-0.624405,0.064656,0.105877,0.04316,0.542836,0.090277,-0.059058,-0.048803,-0.283931,-0.120978,-0.979207,-0.385993,-1.036053,-0.443612,-0.052512,-0.571095,0.081767,0.314167,-0.12215,0.061763,-0.064832,0.130691,-0.121556,0.289457,-0.117183,-0.06708,-0.096738,-0.063149,-0.070722,0.379293,-0.074645,0.084603,-1.000673,-0.032484,-0.146719,0.011928,-0.180491,0.402515,-0.057871,0.043843,-0.047271,-0.379623,0.227568,-0.051528,-0.014142,-0.06091,0.478181,0.224955,-0.055881,-0.10992,-0.053624,0.099924,0.092362,0.061179,0.196061],[-0.222184,-0.018189,0.208779,-1.198909,-0.612244,-0.125441,-0.045602,-0.563883,-0.343834,-0.124261,-0.171877,0.326021,-0.939974,0.496517,-0.224588,0.075542,0.541593,-2.009176,-0.164636,-0.261754,0.090579,-1.413477,-0.095692,0.247524,-1.163887,0.030949,0.494856,-0.111022,0.373043,0.035107,0.084783,-0.113701,0.513047,0.493013,0.069408,0.221367,-0.916272,0.093896,0.353847,-0.096603,-0.232831,-2.01795,0.079397,-0.341902,-0.590208,-0.008276,0.574123,-0.438921,-0.055336,-0.180902,0.214207,0.367214,-0.143878,-0.063789,-0.099017,0.210326,0.484614,-0.288322,-0.319992,-0.110066,-0.113204,-0.376203,0.108615,-0.610495],[-0.15563,0.449267,-0.03555,0.053464,0.204345,-0.00595,0.029419,0.320967,0.59579,-0.11756,0.578025,0.18493,0.77524,0.037796,0.415832,-0.068341,-0.263237,0.393239,0.571245,-0.27984,0.331907,0.239284,-0.02933,-1.205192,0.438001,0.259168,0.18368,-0.12799,0.3353,0.47239,0.307481,-0.070649,-1.073862,0.241777,-0.177275,0.032492,0.22186,0.093429,-0.206771,-0.917357,0.323909,0.462832,-1.523256,0.346261,0.356861,-0.161924,-1.690168,0.320061,0.599996,-0.486129,-0.160234,-0.030534,-0.126392,0.040732,-0.063995,-0.05903,0.053459,0.366344,0.482307,-0.056398,-0.027468,0.549235,0.291831,0.397416],[-0.011442,-0.028954,0.021354,-0.110161,0.12772,-0.027309,-0.047155,0.055193,-0.058563,0.032908,-0.070514,-0.029374,-0.020531,0.055842,0.017045,0.075732,-0.062118,0.107793,0.014043,0.039056,0.095002,-0.065355,-0.110294,-0.090792,-0.024662,-0.118231,0.008095,0.033329,0.109131,0.041481,-0.076997,0.030552,0.040884,-0.071202,0.091451,-0.050348,-0.092425,-0.009399,0.012131,0.017551,0.02094,0.097504,0.111555,-0.121464,-0.044591,-0.007382,0.201726,0.091633,-0.047724,0.010343,-0.03845,-0.083192,-0.09768,0.071214,-0.112222,0.15482,-0.063063,0.00481,0.025214,-0.085423,-0.049222,-0.013763,-0.071227,-0.081563],[0.128689,0.186335,0.274262,-0.015623,0.178814,-0.013975,0.040556,0.339174,0.321391,0.036094,0.264095,0.168442,0.189373,-0.153475,0.287554,-0.123224,0.004304,0.357733,0.326589,0.07272,0.134305,0.046307,0.135965,0.098676,0.103741,0.163274,0.225262,0.07878,0.176641,0.226117,0.286215,-0.067253,-0.264204,-0.008944,-0.167462,0.04188,0.049883,-0.102464,0.20647,0.03344,-0.018545,0.152999,-0.124545,0.226822,0.349484,0.018883,-0.111911,0.086825,0.16532,0.061172,-0.0524,0.227702,-0.166183,0.126596,-0.047479,0.226939,-0.025628,0.275752,0.137932,-0.135048,-0.066105,0.429232,0.205429,0.263986],[0.020991,0.056039,-0.466802,0.501224,-0.025274,-0.107006,-0.065989,0.112683,0.50474,0.150803,0.306642,0.308875,0.388899,0.174348,-0.014226,-0.041488,0.236226,0.660727,0.326846,-0.025003,-0.276267,0.155209,0.050005,-1.343485,0.554304,-0.466116,0.157682,-0.008405,-0.376758,0.482209,0.242194,-0.095172,-0.532677,-0.07522,-0.136927,0.058852,0.336367,-0.12363,-0.140447,-0.890292,0.28057,-0.97257,-1.079987,0.181624,0.409561,-0.062312,-0.116853,0.317923,0.455459,0.261636,0.216926,-0.605094,-0.118775,0.535387,0.062339,-0.240629,-0.402199,0.198125,0.153791,-0.107278,-0.069669,0.489401,0.058972,0.183606],[-0.371578,-1.744589,-0.737957,-0.129492,0.054664,-0.020133,0.065974,0.048529,0.308615,0.421128,0.089352,0.009775,-0.294703,-0.306956,0.127478,0.116267,-0.438766,-0.012039,0.271715,7.6e-05,0.261132,0.195952,-0.079395,-0.260067,0.388207,0.394536,-0.580272,0.074879,0.240858,-0.119829,-0.407476,-0.106864,-0.024537,-0.404566,-0.042174,0.134208,-0.062156,-0.135617,-0.686929,0.250055,-0.198095,0.828943,0.079174,0.37529,0.335321,-0.021186,-0.347185,0.087962,0.15878,0.235722,0.018643,0.249903,-0.155357,-0.070213,-0.036216,0.203111,-0.834287,-0.585217,0.127598,0.002907,-0.065864,0.286334,-0.281155,0.210493],[0.087908,0.064508,0.105399,0.011793,0.311436,-0.139576,-0.058922,0.094679,0.214467,0.284177,0.224614,0.223838,-0.384207,-0.49179,0.280631,0.097736,0.032401,0.010984,0.35846,0.119502,0.035418,-0.14294,0.122662,-0.188164,-0.057431,0.227939,0.377842,0.100872,0.183726,0.350049,-0.159822,-0.035474,0.392874,-0.049609,0.019538,-0.113576,-0.055573,-0.050793,-0.007982,0.256543,0.023688,-0.220255,-0.112165,0.461514,0.372605,0.06722,0.030344,0.317675,0.14605,0.112359,0.037739,0.20352,0.05759,-0.273059,0.048606,0.235031,-0.534263,0.009755,0.276928,-0.06077,0.081904,0.277415,0.013301,0.022885],[-0.199323,-1.27552,-0.285085,0.117674,-0.253252,0.015894,-0.075469,-0.38613,-0.040903,0.472693,0.019433,-0.456637,0.478179,-0.188472,-0.605206,-0.004748,-0.219216,-0.145039,-0.215696,0.313369,0.068043,-1.892063,0.059822,-0.242604,-0.74951,0.237524,0.622696,-0.100525,-0.339234,-0.197141,0.042389,0.082002,-0.805838,-0.211439,-0.031446,0.389344,-0.986472,-0.053823,0.197987,-0.380901,0.069024,-2.283883,-0.565517,-0.26687,-0.148538,-0.026249,0.857869,-0.035968,-0.092668,-0.116218,0.321585,-0.498261,0.078367,0.177795,-0.030846,0.376938,0.050218,0.069199,-0.199081,0.054558,0.082657,-0.042012,-0.257567,-0.19334],[-0.255698,-0.176528,0.119313,0.932827,-0.133021,0.053046,-0.193154,-0.372529,-0.499947,0.170134,-0.239984,-0.497378,0.428506,1.018643,-0.257458,-0.124314,0.259098,-0.712403,-0.387654,-0.018228,0.03681,-0.108021,-0.302086,-0.154738,-0.198799,-0.141378,-0.248551,0.078406,-0.39898,-0.393018,-0.149945,-0.132476,0.170608,0.400734,0.037273,-3.576413,-1.74817,-0.04848,-0.182892,0.006257,0.343379,0.256647,-0.17496,-0.181311,-0.156381,0.025454,-0.323949,-0.488733,-0.326745,-0.07102,0.51267,-1.207826,0.029306,0.680224,0.095885,-0.364165,0.353563,0.058403,-0.35279,-0.095719,-0.065278,-0.336339,-0.180283,-0.056578],[-0.380055,-0.118273,-0.743905,0.154175,-0.017453,0.049043,0.004482,-0.012618,0.204151,-0.334745,0.258237,0.106772,1.093089,-0.368493,0.198442,0.029336,-0.050179,0.069941,0.129141,-0.603516,0.03845,0.396854,-0.347307,-1.023199,0.393712,-0.197225,-0.40112,0.071361,0.406812,0.184538,-0.061065,0.011866,-0.283719,0.10358,-0.139559,-0.269195,0.190858,-0.132179,-0.307218,-0.231606,-0.733428,0.359609,-0.751735,0.315285,0.298191,-0.053619,-0.57531,0.09226,0.270605,-0.050256,-0.442551,-0.467347,-0.038654,-0.11822,-0.052665,-0.519646,-0.13124,0.017383,0.159282,-0.024437,0.08805,0.366958,0.114954,-0.030876],[0.67183,-1.353384,0.858183,1.608219,-0.213794,0.013107,0.098563,-0.081715,-0.300498,-0.294461,-0.064,0.677961,-0.215884,0.33655,-0.285648,-0.01028,0.542208,-0.845827,-0.050052,-0.003587,0.245095,0.653354,-1.966079,0.25825,0.46813,0.100297,0.71634,0.018482,0.609476,0.002086,0.297914,-0.106691,-0.356069,-0.872498,0.075072,-0.327186,-0.522662,0.01846,0.619265,0.542759,-1.963256,0.43075,0.619834,-0.115484,-0.173658,-0.011065,0.16226,0.165639,-0.080679,-1.172419,0.384995,0.71269,-0.139997,0.430176,-0.029071,-0.845206,0.262468,0.270447,-0.129447,-0.055704,0.013853,-0.090808,-0.073781,0.087115],[0.629074,-0.637863,0.096418,0.237828,-0.193709,0.027684,0.082121,-0.030468,0.36242,0.230804,0.363588,-0.110072,0.060363,0.739032,0.03201,-0.127276,-0.227175,0.384785,0.342271,-0.375196,0.650988,0.299406,-0.66323,-0.606844,0.113459,0.239223,-0.157859,-0.108506,0.25817,0.255645,0.396051,-0.12112,-0.395321,0.018597,-0.072432,0.215989,0.263094,-0.145277,-0.501598,0.341205,-1.429859,0.383272,0.317275,0.114083,0.041425,-0.060729,0.224668,0.36471,0.433571,-0.439141,-0.123127,0.599383,-0.035392,0.036699,-0.108898,-0.171111,0.698987,0.27777,0.067077,-0.098935,-0.138715,0.350278,0.092703,0.052595],[0.151865,-0.341824,0.332909,-0.308358,-0.161889,-0.117261,0.026233,-0.470361,-0.208487,0.404613,-0.061067,-0.486112,0.091668,0.459346,-0.525931,-0.038282,0.037791,-0.393828,-0.586953,0.544736,-0.041888,-1.677785,0.479864,-0.003921,-0.502801,-1.478174,0.457886,-0.017658,-0.576574,-0.263208,0.003963,-0.099285,0.487547,0.128831,0.066216,0.106031,-0.182821,-0.144108,0.522563,0.034789,-0.137985,-1.330353,0.58597,-0.339642,-0.305014,-0.040254,-0.040563,-0.385579,-0.382465,0.189254,0.226137,-0.631516,-0.021532,0.348282,-0.115253,0.205001,0.469379,-0.079145,-0.484448,-0.04267,-0.016619,-0.230555,-0.090111,-0.347643],[-0.047616,0.139112,0.08806,0.092427,-0.051191,0.104985,0.008286,0.014074,0.059382,0.096872,0.055996,0.067961,-0.086523,0.099584,-0.112268,-0.078513,0.006293,0.005179,-0.042134,0.113359,0.094999,0.010863,-0.024219,-0.035007,0.024641,0.10987,0.018737,0.113496,-0.091947,-0.093163,-0.051385,-0.086609,0.038516,-0.093748,0.057916,-0.055564,-0.004782,0.112366,-0.046661,0.064802,0.072923,-0.132998,-0.019138,0.052313,-0.012315,0.042031,0.066815,0.057128,0.104122,0.080164,-0.101212,-0.028758,0.025178,0.037246,0.026812,0.025787,0.090244,-0.097601,-0.021592,-0.116095,-0.095145,-0.058705,0.074816,0.114314],[0.49168,-0.90105,0.373971,-0.191847,-0.065719,0.085326,-0.069,0.008786,0.326391,0.917576,0.212213,0.482823,0.379539,0.162539,-0.131221,-0.108155,-0.533457,-0.066727,0.181994,0.936883,0.148396,-0.400176,0.564449,0.07136,-0.43342,-0.063178,0.561966,-0.045132,0.535911,0.287371,0.480357,0.035658,-0.152135,-0.672027,-0.155247,0.062445,-0.448038,0.059823,-0.12052,-0.123355,0.24095,-0.466733,-0.343047,0.018616,-0.158587,-0.117522,-0.034002,0.015458,0.122118,-0.756916,0.721081,0.556695,0.067343,-0.107529,-0.067471,-0.308487,-0.225682,0.028523,-0.028795,0.023627,-0.037859,0.19779,-0.160156,0.029631],[-0.309554,0.082196,-0.027357,-0.060524,0.160837,-0.000147,0.111004,0.087264,0.233084,-0.047058,0.23538,0.131533,0.095757,0.166082,0.430383,-0.050999,-0.055805,-0.050895,0.526939,-0.305542,-1.462659,-0.059875,-0.164254,-0.012967,0.51299,0.218432,-0.163097,-0.054898,-0.459739,0.537483,0.294297,0.003494,-0.039131,0.636955,-0.158255,-0.154006,0.210914,0.03631,0.150629,-0.195355,0.399156,0.257392,0.13771,0.391316,0.012777,-0.109194,0.098098,0.323861,0.270696,-1.16984,0.17692,0.009044,0.077881,-1.970962,-0.0142,0.129361,0.277654,-0.096572,0.349728,-0.080551,-0.039849,0.180895,0.566265,-0.044875],[-0.006618,-0.097527,-0.534775,0.192405,0.062337,-0.023008,-0.001501,0.250192,0.010615,-0.284696,0.189243,-0.144585,0.055816,0.228072,0.207024,0.034872,0.247867,0.189036,0.197154,-0.260961,-0.213064,0.282088,-0.018321,0.038605,0.496828,0.522116,-0.355748,-0.109053,0.019045,0.230718,-0.133694,0.020143,0.130024,-0.211952,-0.123338,0.011631,0.247578,-0.085383,-0.383523,0.541828,-0.497361,0.446095,0.384633,0.101553,0.082809,-0.06684,-0.218826,0.286776,0.066323,0.496222,-0.272821,-0.04105,-0.16103,0.243195,0.029282,-0.203379,-0.079284,0.026028,0.23047,-0.021142,-0.129101,0.109906,0.282542,0.032385],[0.384278,0.214622,0.799971,0.052278,0.013899,-0.080033,-0.140599,-0.037549,-0.143937,0.041889,0.088258,-0.452346,-0.222142,-0.031346,0.166666,0.011652,0.036563,0.025746,-0.18286,0.115543,0.041674,-1.347203,0.106174,-0.150514,-1.648577,-0.209914,0.277391,0.070748,-0.350825,0.040086,-0.225869,-0.148438,0.709474,0.363167,-0.078032,-0.129384,-0.005857,-0.049696,0.378178,0.246915,-0.139201,-0.895788,0.569321,0.106974,0.157928,-0.076894,0.438288,-0.198724,-0.26145,0.426871,0.224075,0.160298,-0.086912,-0.044249,-0.061247,0.50042,-0.025592,-0.589634,-0.03239,-0.049212,-0.014153,0.011513,0.000451,-0.194376],[-0.00155,0.095717,-0.102703,-0.105368,-0.014477,0.002008,-0.074469,0.098671,-0.100526,-0.092531,-0.119047,0.006885,0.081214,-0.107691,0.119741,0.097099,0.116353,0.001035,0.022923,0.123283,0.1082,0.109861,-0.000744,0.005898,-0.017808,-0.088099,0.099041,0.029809,-0.049181,-0.029446,0.075032,0.019983,0.081158,0.071926,-0.120966,0.002024,-0.144631,-0.089859,0.033981,-0.079348,-0.086726,0.12405,-0.06778,0.09179,0.020962,0.124699,-0.096991,0.061001,0.019291,0.067517,0.088838,-0.091167,0.036279,-0.05899,-0.04354,-0.075509,-0.045149,0.089668,0.102243,-0.053272,0.017017,-0.025467,0.0537,0.029141],[-0.475121,-0.176195,-0.372872,-0.061644,-0.32186,-0.072693,-0.064069,-0.477671,-0.197894,-0.435756,-0.07609,-0.322227,-0.049829,0.22447,-0.502366,0.096353,0.468479,-0.262798,-0.384622,-0.070097,-0.299453,-0.735048,0.093205,-0.03068,-0.707016,-0.01582,0.257985,-0.144,-0.276366,-0.258352,0.027118,-0.073868,0.9387,-0.09327,0.022807,0.519736,-0.012735,0.075589,0.326428,0.412105,-0.467019,-1.678943,0.507209,-0.259188,-0.363129,-0.032621,0.504879,-0.302769,-0.101592,0.478118,-0.071062,-1.272573,0.070187,0.391661,0.09027,0.19516,0.214087,0.140583,-0.343594,-0.086908,-0.107493,-0.193561,-0.177935,-0.382865],[-0.060523,0.118183,-0.076908,0.008312,-0.111999,0.122785,0.01247,0.114429,0.031857,0.088775,-0.051371,0.019703,0.02827,-0.017901,0.048465,0.090697,-0.032529,-0.106817,0.062945,0.101579,0.071289,0.054896,-0.008727,0.016864,0.060453,-0.048409,-0.05845,-0.041207,-0.057861,-0.078011,-0.085765,0.065239,0.085281,0.069406,0.095637,0.009753,0.00659,-0.007306,-0.031242,0.093417,0.017361,-0.103803,0.052657,0.018485,-0.090176,0.093006,0.023035,0.030303,0.119417,0.119541,-0.012937,0.01329,0.063849,0.038477,-0.087114,-0.024243,0.002874,0.0695,0.016647,0.01482,-0.1212,-0.090662,0.063303,-0.018532],[-0.475854,-0.270553,0.576781,-0.312591,0.400382,0.036749,-0.041472,0.174506,0.119724,-0.5978,0.237342,0.334702,-0.762679,-0.560991,0.512655,0.115036,-0.036451,0.333412,0.255737,-0.947768,0.820109,-0.015544,-0.380825,-0.580236,-0.202752,-0.277855,-0.15701,0.036054,0.656135,0.225242,-0.138826,0.036598,-0.290779,0.495293,-0.012511,0.596772,0.252345,-0.150411,0.180969,-0.142586,-1.079111,-0.047444,-0.174424,0.512115,0.267818,-0.098016,0.222745,-0.014143,0.177284,-0.791069,-0.446339,0.427529,-0.017497,-0.334855,-0.126977,0.38609,0.094441,0.147481,0.361396,0.063003,-0.111427,0.287048,0.243362,0.042688],[0.050405,0.088386,-0.059883,-0.051417,0.061027,-0.069797,-0.059862,0.281078,0.394904,0.322459,0.29927,0.56864,-0.552006,0.130415,0.082838,-0.053976,0.118665,0.473066,0.094735,0.257516,0.11158,-0.494516,0.340704,-0.133587,0.065539,-1.081731,0.399405,-0.131415,0.080475,0.317768,0.359168,-0.044297,0.215337,-0.106574,-0.052103,-0.128912,0.1229,-0.050393,0.25893,0.081368,0.112093,-1.773223,-0.208512,0.318773,0.299973,-0.154769,-0.525316,0.232645,0.27648,-0.075236,0.133049,-0.023706,0.012882,0.065962,-0.105383,0.108557,0.264748,0.49149,0.158954,0.074449,-0.101727,0.276249,0.044898,0.227345],[-0.749065,-0.144654,-0.659202,0.517243,0.141166,-0.087431,-0.031276,0.204442,0.35464,-0.020412,0.480827,0.061368,-0.397747,-0.722846,0.433171,0.022694,0.020722,0.288796,0.40307,0.037777,-0.349274,-0.318885,0.215361,0.797686,0.573258,0.00391,0.060033,-0.076838,-0.151005,0.57729,0.456593,0.044295,0.791795,0.568784,-0.100489,-0.326804,0.262275,-0.128875,0.328125,-0.321547,0.130472,-0.228113,-0.209472,0.354565,0.291398,-0.101334,-0.384088,0.379925,0.388529,0.704705,0.026661,-0.829268,0.065401,0.233298,-0.032123,-0.041308,0.404577,0.542597,0.462445,-0.114239,-0.110627,0.479079,0.367925,0.205923],[0.129815,0.195469,0.528386,-0.682877,-0.060491,-0.025935,-0.065367,-0.281878,-0.121498,-0.467141,-0.033855,-0.199341,-0.007903,0.009483,-0.114968,-0.015714,0.105838,-0.238056,-0.407195,-1.006304,-0.695498,-1.18571,-0.321266,0.113658,-1.138893,-0.768195,0.25526,0.03282,-0.552886,-0.37761,-0.002946,-0.023477,0.361485,0.202472,-0.059629,-0.157993,0.283925,-0.078986,0.453225,-0.221211,0.111181,-1.709339,0.277492,-0.107928,-0.029088,0.065761,0.404864,-0.407325,-0.292299,0.094316,-0.085758,0.039614,-0.079507,-0.633736,-0.031233,0.52883,-0.042227,-0.232877,-0.268953,0.095216,-0.036279,-0.053095,-0.342541,-0.22421],[-0.239072,0.531241,0.12869,0.493227,0.488554,-0.078488,-0.106096,0.815537,0.976872,0.598575,0.966877,-0.16832,0.156614,-0.040476,0.299567,-0.13808,-1.065814,1.220493,0.727049,0.195016,-0.360594,0.767526,-0.258521,-2.388785,0.633765,-2.822435,0.129898,-0.081874,-0.19635,0.589635,0.663139,-0.087843,-1.113431,0.617652,-0.025082,0.220627,0.157666,-0.072015,-0.131626,-1.474137,0.027838,0.436302,-0.456785,0.571702,0.929433,-0.008336,-0.543356,0.930199,0.843933,-0.711746,0.002492,-0.452999,-0.146858,-0.120609,0.025155,0.387072,0.128794,0.654642,0.658242,0.062031,-0.007018,0.867015,0.488164,0.749357],[0.00505,0.037459,0.475346,0.023409,0.229649,-0.072401,-0.040068,0.180956,0.239911,0.257822,0.314278,0.719026,-0.005152,-0.082912,0.247395,0.051176,-0.202671,0.045565,0.223044,0.050553,0.070979,0.163755,0.007772,-0.717944,-0.199323,0.164415,0.022151,-0.12434,0.593447,0.424502,0.220409,-0.062519,-1.277215,0.165737,-0.095009,-0.159819,-0.094777,0.104402,0.424747,-0.84813,0.224269,0.055887,-0.779118,0.311799,0.326175,0.00705,-0.402881,0.333417,0.371442,-0.486723,0.145919,0.673714,-0.112883,-0.494236,-0.014782,-0.050533,-0.013582,0.317752,0.212882,0.115264,-0.12926,0.411267,0.264945,0.07069],[0.009615,-0.038921,0.087814,-0.089714,-0.084784,0.119898,-0.073781,-0.105235,0.066685,-0.07088,0.001446,0.051334,0.026875,-0.065739,0.10621,0.005245,-0.132542,0.058087,-0.08721,-0.104104,0.034943,0.000753,0.111758,-0.036208,-0.019682,-0.107175,0.102013,-0.03811,-0.08456,-0.082546,0.053813,-0.031113,0.05835,0.06824,-0.020663,-0.023812,-0.050771,0.023016,-0.019195,-0.094942,-0.040803,0.063341,-0.071763,-0.092301,0.068879,-0.070365,0.032057,0.001797,0.041012,0.043522,0.098415,-0.090427,0.001683,0.040982,0.003556,0.120644,0.038139,0.077303,0.140741,0.122272,0.079051,0.109357,-0.030639,0.029061],[-0.128743,-0.10839,0.204109,-0.134133,-0.30632,-0.116299,0.060004,-0.326408,-0.264893,0.122714,-0.457665,0.200772,0.005596,-0.047107,-0.293952,-0.015266,0.222242,-0.701434,-0.550272,0.375765,-0.504963,-2.19316,0.066446,0.400879,-1.495885,-0.537153,0.53891,-0.009673,-0.537779,-0.22212,-0.318396,0.056493,0.892418,-0.20145,-0.090747,0.236742,-0.365621,-0.102508,0.306757,0.396312,0.044906,-3.545372,0.517097,-0.385522,-0.377524,-0.010053,0.229044,-0.619293,-0.420283,0.855471,0.286591,-0.24618,-0.080968,0.59371,0.086133,0.57056,-0.195625,-0.84623,-0.421138,0.107097,0.091098,-0.363728,-0.427455,-0.444897],[0.376491,0.268315,-0.544566,0.25484,0.173272,0.010529,-0.128721,0.190604,0.100346,-0.177863,0.103274,0.079333,0.124002,0.514068,0.248848,-0.11305,0.154624,0.300765,0.229832,0.085951,-0.207136,-0.028411,0.220511,-0.321167,0.176338,0.286363,-0.080471,-0.063435,0.017701,0.107233,-0.089164,0.099064,0.287936,-0.284576,0.003213,-0.148558,0.130461,-0.083156,-0.487226,0.590019,0.445234,0.127856,0.201039,0.196563,0.16474,-0.16165,-0.36153,0.215596,-0.040419,0.514353,0.029233,0.266274,0.012619,0.006518,0.025005,-0.026215,-0.011589,0.027297,0.004638,0.051466,0.048368,0.238405,0.204805,0.095259],[0.634654,0.246077,-1.792906,-0.458865,-0.45123,-0.04623,0.013448,-0.492847,-0.580654,-0.071668,-0.727141,-0.169056,0.837208,0.479328,-0.264753,-0.101003,0.011812,-0.608702,-0.403199,0.164706,0.461618,0.856803,0.404708,9.8e-05,0.085776,0.600006,-1.848755,-0.089297,0.485627,-0.622026,-0.790971,0.030868,-0.947574,-0.168364,0.070974,-0.197626,-0.324628,0.045811,-1.059124,0.21714,0.928841,0.742905,0.5361,-0.208938,-0.566827,0.018549,0.149407,-0.433766,-0.583367,0.669202,0.218599,0.188829,0.092268,-0.009557,-0.064777,-0.823189,-0.542732,-0.955866,-0.411086,-0.021476,0.082083,-0.589116,-0.585418,-0.504371],[0.048558,0.744838,-0.141795,0.294686,0.733442,-0.013729,-0.068892,0.679372,0.961562,0.65544,0.945287,-2.555388,-0.076028,-0.11461,0.624922,0.156588,0.327091,1.49258,0.842381,-0.561085,-0.907023,-2.302022,-0.36436,0.183562,1.024248,-1.155274,0.141735,0.162334,-0.570206,0.689494,0.91543,0.048186,-1.448745,-0.225787,0.10094,-0.023596,0.684527,-0.048341,-0.32441,0.803914,-0.889705,-0.29812,-0.636899,0.555882,0.809691,-0.118259,-1.4273,0.694608,0.775362,-1.256744,-0.541079,-1.314864,0.05633,0.02353,0.024008,0.565604,0.492851,0.909144,0.729899,0.046523,0.082387,0.879165,0.488995,0.763943],[0.435823,-0.135301,-0.799532,0.506714,-0.291153,0.097711,0.069264,0.289321,-0.138422,-0.073859,-0.098079,0.060602,-0.058121,-0.499844,0.402299,0.093838,-0.053026,-0.071427,0.20144,0.276564,-0.507227,1.255526,-0.216574,0.409507,1.739176,-0.241356,-0.080111,-0.08088,-0.277271,0.26136,0.277332,-0.123421,-0.550595,-0.270573,-0.007447,-0.448175,0.264818,0.065812,-0.683532,0.087956,0.199972,0.687551,0.592227,0.207418,0.105107,-0.027502,0.203267,0.258478,0.189783,0.139962,0.080624,-0.333634,-0.05664,-1.066648,-0.008281,-0.333122,0.050605,-0.190177,0.152833,-0.085709,0.095999,0.16933,0.492261,0.283316],[0.245288,0.118826,-0.37024,-0.017809,0.085115,-0.043253,0.07321,-0.053329,0.026885,-0.11002,-0.063532,-0.426725,0.310129,-0.122813,0.01816,-0.030747,0.215091,0.467235,0.084527,0.213559,-0.288616,-0.184606,0.199821,-0.362457,-0.415394,-0.624066,0.295544,0.103452,-0.595064,-0.140564,0.051518,0.080522,0.516444,-0.268226,0.065913,0.360016,0.323308,0.041233,0.007637,0.304832,0.250619,-2.454913,0.320754,0.165317,0.168401,-0.149817,-0.303132,-0.002524,-0.176527,0.471101,-0.020626,-0.133418,0.05481,0.128299,-0.016049,0.327352,-0.228105,0.392966,0.056994,-0.107628,-0.066241,0.065782,0.056799,0.156859],[0.091217,0.003057,0.438853,0.304965,-0.187437,0.051455,-0.13806,-0.337632,-0.145681,0.074639,-0.33214,-0.130223,0.36456,0.061757,-0.184967,0.024455,-0.00089,-0.864439,-0.027094,-0.329506,0.55445,0.297732,-0.0167,0.223293,-0.74957,0.355956,0.519122,-0.158473,0.029066,-0.402598,-0.408213,-0.066336,0.147087,0.015285,-0.083729,-2.036605,-1.809211,-0.095493,0.286619,0.002537,0.074915,0.394834,0.025888,-0.154421,-0.36896,-0.008549,0.317951,-0.143199,-0.591983,0.226358,0.004267,0.369446,-0.010587,-0.581694,-0.024247,0.210454,-0.883952,-0.164972,-0.256868,-0.022846,0.033932,-0.236248,-0.333452,-0.289915],[-0.088203,-0.735527,-1.79827,1.29113,0.391106,-0.087308,-0.087291,0.777904,0.414142,0.265895,0.821509,-1.039302,-1.79281,0.577243,0.681802,-0.064575,-0.727721,1.821759,0.613074,0.077163,-0.57601,1.159998,-0.168767,-0.907433,1.616186,0.725417,-1.802195,0.005419,-0.813772,0.816065,0.877406,0.075491,-1.292968,-0.355553,-0.025507,-0.822091,1.215497,0.021514,-1.076965,-1.12367,-0.156119,1.433448,0.009797,0.72562,0.486185,-0.021106,-1.356603,0.955409,0.906365,0.458676,-0.825528,-0.796193,0.00421,0.302552,-0.121923,-0.938292,0.925797,2.225035,0.703037,-0.115882,-0.023812,0.780456,1.112672,0.549855],[0.155667,-0.164621,-1.758942,-0.642722,-0.124198,-0.087266,-0.090212,-0.212492,-0.233962,0.331988,-0.414314,-0.681067,1.722492,-1.040746,-0.140082,-0.024435,-0.278161,-0.593009,-0.221959,-0.006233,-0.663708,0.646158,-0.624496,0.533367,0.34257,0.434747,-0.024144,-0.003901,-0.986691,-0.667164,-0.578232,-0.094858,-0.547898,0.115072,-0.043047,-0.209641,-1.112071,-0.10878,-0.225656,-0.801116,0.874562,0.528462,-0.571881,-0.31371,-0.119447,0.038583,-1.04355,-0.538025,-0.719005,-0.475761,0.135468,-1.201704,-0.090666,-0.258879,-0.114219,-0.136361,-0.299572,-1.579045,-0.421578,0.006085,-0.099247,-0.424104,-0.105938,-0.376709],[0.078955,0.05617,0.083352,0.05545,-0.019099,0.012009,-0.040632,-0.10898,0.048702,0.003364,0.078575,-0.056388,-0.032961,-0.105465,-0.008093,0.023752,-0.069393,-0.064241,0.112837,0.065073,0.082385,-0.101191,-0.069319,-0.016943,-0.029961,0.039975,-0.204124,-0.076606,-0.092122,-0.11169,0.035609,0.06344,-0.095438,0.109378,0.028555,-0.018761,-0.124476,0.05905,-0.062133,0.099859,0.05145,-0.005044,-0.034726,-0.107013,-0.057261,-0.017234,-0.021829,-0.118077,-0.003389,-0.066386,-0.077906,0.028777,0.090323,-0.050849,-0.122584,0.109254,0.091801,-0.013283,-0.087118,-0.020014,-0.113434,0.062592,0.017883,0.015405],[0.152902,-0.034586,0.098117,-0.093331,-0.057105,0.084052,0.067304,0.19065,0.242231,0.184685,0.386595,0.152464,-0.244576,0.032125,0.261451,-0.016417,0.001874,-0.114534,0.261397,0.478356,0.269131,0.019817,-0.044324,0.198259,0.02231,0.138711,0.220681,-0.07606,0.358482,0.305504,0.323331,-0.118823,-0.539933,0.165899,0.03361,-0.035199,-0.270336,-0.024362,0.023887,-0.006277,0.018777,0.209009,-0.223271,0.284379,0.293338,-0.119291,0.246914,0.25477,0.292758,-0.445508,0.294629,0.400648,0.04436,-0.17395,-0.08931,-0.220468,0.148234,0.081738,0.35602,-0.11893,0.066029,0.303239,0.327525,0.11067],[-0.272754,0.218446,-0.044875,0.313922,0.013377,-0.12246,0.059757,0.131107,0.196458,-0.430368,0.336097,-0.124123,-0.697653,0.178682,-0.148102,0.084597,0.320604,0.286317,0.052834,0.096813,0.389795,-0.053543,-0.052382,0.470102,0.247397,0.121384,-0.17033,0.017119,0.067352,-0.103064,0.059134,-0.048097,0.050244,0.017036,-0.115869,0.118916,-0.063446,0.050985,-0.344235,0.276223,-0.520024,0.262759,0.314411,-0.029225,0.312822,-0.069851,0.131543,0.135586,0.182345,-0.221342,0.209849,0.191105,0.009342,0.518901,-0.144143,-0.174353,0.10727,-0.116857,0.154209,0.058388,0.018361,0.315001,-0.140285,0.137765],[0.027873,0.025519,-0.04524,0.027365,0.081878,0.110651,-0.048444,0.017551,0.099512,-0.042348,-0.158557,0.037734,0.031741,-0.041719,-0.000131,-0.029856,0.134316,0.047791,0.085131,-0.100253,0.035083,0.061562,0.058419,0.021991,-0.124583,-0.121942,0.083275,-0.056911,0.010034,0.023094,0.066778,-0.072725,-0.090998,0.115063,-0.064422,0.075586,0.010918,-0.111336,0.042971,0.028864,-0.119758,-0.112244,-0.047301,-0.119423,0.075414,0.075793,0.070944,0.025723,0.0769,0.002707,-0.018861,-0.019051,-0.010664,0.045034,0.120868,-0.02075,0.132341,0.033622,0.047001,0.101156,-0.073296,0.072205,0.072428,0.08377],[-0.575149,0.199424,-0.222317,0.000664,-0.039909,-0.082652,-0.078939,0.063587,0.310559,0.007025,0.231627,-0.16063,0.34492,-0.116366,0.139974,-0.139122,0.143653,0.300754,0.159672,-0.763838,-0.550558,0.461551,-0.458815,-0.301188,0.726016,0.231021,-0.618546,0.071319,-0.008951,0.270882,0.10915,-0.073924,-0.641167,-0.305986,-0.052207,-0.217657,0.086414,-0.033937,-0.299056,-0.007421,0.308413,0.449566,0.03872,0.178032,0.167545,-0.097405,-0.068938,0.158783,0.116617,-0.161396,-0.536418,-0.111512,-0.115102,-0.286557,-0.089455,-0.452019,0.123479,0.30973,0.150641,0.060735,-0.050649,0.196375,0.248211,0.238333],[-0.589383,-0.141048,-0.054107,0.013938,0.277429,-0.045234,-0.136736,0.036134,0.150307,-0.221421,0.082827,0.0443,-0.146449,-0.098236,0.09417,0.041048,0.061169,-0.105312,-0.188653,-0.614121,-0.378865,-2.351059,0.054034,-0.117295,-0.710934,-3.0344,0.474858,0.067491,-0.520369,-0.041435,-0.058187,-0.013336,-0.138401,0.388131,0.083954,-0.06632,-0.124215,0.112828,0.369164,-0.164398,-0.184423,-3.316325,-0.307807,0.324805,0.275167,-0.040717,-0.369076,-0.125279,-0.117253,0.210127,-0.146732,-0.497249,-0.137934,-0.335591,-0.025029,0.627516,0.03818,-0.109822,0.044431,0.002385,-0.025314,0.30984,-0.269737,0.120275],[-0.14242,0.10942,0.012144,0.022038,0.010643,0.007565,0.056722,-0.060912,-0.081523,0.003111,0.029062,-0.025401,-0.07285,-0.113768,-0.144906,0.005851,-0.096272,-0.088099,-0.115943,0.081599,0.073389,-0.078322,-0.026104,-0.064174,0.118938,-0.003377,0.039555,-0.072905,-0.002118,0.052272,0.014478,0.056775,-0.016093,-0.065479,-0.024804,-0.077031,-0.064984,0.122091,-0.117377,-0.07019,0.117332,0.043247,0.094621,-0.074488,0.092274,-0.056456,0.102813,-0.099451,-0.024189,0.025915,-0.086223,-0.055518,-0.086573,-0.05885,0.002339,-0.050715,-0.120049,-0.054009,-0.112097,0.013943,-0.081812,0.096861,0.050886,-0.09659],[-0.049175,0.101928,0.07241,-0.120443,0.00376,-0.051226,-0.02469,0.043717,0.115885,-0.009124,-0.025327,-0.02861,0.117674,-0.087639,0.049855,0.106019,-0.009758,-0.021409,0.083226,0.046047,-0.054791,-0.055288,0.024017,0.076649,0.097092,-0.099539,0.093333,-0.112573,0.097106,-0.033006,-0.038001,0.013119,0.019492,0.076324,-0.122728,0.000221,-0.093339,0.110186,-0.021726,-0.114332,-0.110179,-0.00137,-0.006149,-0.011929,0.096466,-0.059995,-0.018498,0.038555,-0.067254,-0.069732,0.005829,0.080796,0.051394,0.035506,0.065572,0.074389,0.013487,-0.092505,-0.031216,0.006429,-0.045998,0.040224,0.003883,-0.023957],[-0.314623,-0.625276,-1.92103,0.370468,0.399358,0.025077,-0.028454,0.359283,0.80525,0.278506,0.531359,-1.232352,-0.884201,0.028633,0.381599,-0.064579,-1.998576,0.648743,0.552288,0.306484,0.22749,0.581467,-0.874593,-0.949875,0.896814,-0.189408,-1.118847,-0.123753,-0.213448,0.318994,0.197908,-0.112525,0.349574,0.195642,0.030851,0.266777,0.54233,0.119447,-1.95052,-0.602872,-0.051598,1.116686,-1.377282,0.701919,0.600677,0.044675,-1.152722,0.430108,0.496789,-0.235896,0.085136,-1.353041,-0.016616,-0.070278,0.07691,-0.41463,-0.159571,0.440318,0.492042,0.064116,-0.116724,0.661628,0.171636,0.580571],[-0.066074,-0.584578,-0.261078,0.17701,0.136062,-0.065481,0.075489,0.236734,0.298308,0.270178,0.189903,-0.052908,0.182258,-0.250693,0.259984,0.01015,-0.097138,-0.081864,0.232253,0.00982,0.200166,0.163309,0.140293,0.223412,0.288581,0.354712,-0.166753,-0.045289,0.295757,0.100429,-0.053024,-0.025232,-0.523643,-0.175002,0.016571,-0.176202,-0.120425,0.09451,-0.212512,0.015763,0.060621,0.519438,0.07713,0.297637,0.440301,-0.063163,-0.08557,0.122259,0.186052,0.051612,0.170934,0.261365,-0.085904,0.077448,-0.032412,0.109085,-0.524357,-0.252889,0.367694,0.060533,-0.051115,0.388157,-0.21143,0.087865]],"biases":[0.143302,-0.00117,0.364663,-0.051409,0.242561,-0.048126,-0.112823,0.320804,0.295136,-0.25186,0.294903,-0.173703,-0.22173,-0.015249,0.213827,-0.077997,-0.03295,0.081105,0.245986,0.024339,-0.270458,-0.111873,-0.00181,0.077018,-0.046754,0.214786,0.436483,-0.055088,-0.020725,0.348176,0.268403,-0.020612,-0.025539,-0.004272,-0.076432,0.064998,0.212574,-0.099897,0.30446,-0.179376,-0.140831,-0.290487,-0.099734,0.289545,0.439145,0.030453,0.181896,0.279675,0.198919,-0.148989,0.055084,0.057115,-0.057881,-0.128156,0.018044,0.336194,0.216782,0.125821,0.196608,-0.068693,-0.083364,0.372515,0.342627,0.31565]},{"weights":[[-0.264659,-0.001992,-0.710136,-0.368887,-0.256427,-0.330678],[-0.059935,-0.154449,-1.564516,-1.045232,-0.804685,-1.044181],[1.047818,0.918647,0.57294,0.723271,0.651653,0.664044],[0.94087,0.892406,0.879434,0.727793,0.41451,0.142524],[0.04048,0.064554,0.356165,0.175664,0.104985,0.141931],[-0.058059,-0.003686,-0.093871,0.091044,0.08557,0.076844],[0.04949,-0.034113,0.072537,0.091688,-0.082134,-0.072156],[0.170608,0.105711,0.287106,0.347422,0.228837,0.318869],[0.202717,0.577229,0.346754,0.320321,0.610576,0.431728],[-0.560135,0.794222,-0.940481,-0.277832,-0.117581,-0.152428],[0.314855,0.37296,0.237377,0.326237,0.333653,0.381135],[-0.838438,-0.46159,-0.328624,-0.467132,-0.395089,-0.39015],[-1.805281,-0.684453,-0.180946,-0.797792,-1.100016,-0.705969],[-0.4053,0.062213,-1.728336,0.472004,0.578426,0.466684],[0.361027,0.038959,0.416205,0.204415,0.218455,0.199582],[0.012488,-0.035034,0.100681,0.029599,-0.124683,0.095023],[0.024719,-0.00349,-0.475937,-0.171004,-0.39887,-0.181556],[0.453523,0.785283,0.548283,0.59233,0.585983,0.542681],[0.420729,0.389285,0.408937,0.313877,0.504639,0.353864],[0.34588,-0.907048,0.991156,0.386381,0.298174,0.368329],[-1.084619,-0.845333,-0.895928,-1.320449,-1.101044,-0.857009],[1.36099,0.8498,1.799581,1.733076,2.198953,1.850507],[0.396639,0.097416,-0.31943,-0.32437,-0.026913,-0.414898],[0.703144,0.633489,0.566762,0.558986,0.622748,0.568495],[1.593404,1.450444,1.787567,1.621876,1.646935,1.502947],[0.708245,1.050422,0.93784,0.784913,0.656799,0.680314],[0.646989,0.445164,0.727684,0.707302,0.587167,0.69688],[-0.089136,-0.066125,-0.019018,-0.030631,-0.094699,0.077103],[-0.606527,-0.713499,-0.71821,-0.735775,-0.643622,-0.896872],[0.535727,0.397904,0.293777,0.265904,0.218455,0.301434],[0.342547,0.384318,0.082682,0.328761,0.359712,0.173601],[0.007959,-0.081509,0.029537,0.034806,0.01242,0.086041],[-0.998538,-1.207255,-1.047586,-1.026037,-0.978821,-1.010971],[0.426541,0.02892,0.143394,0.376716,0.600445,0.326215],[0.058118,-0.122604,0.025209,-0.06964,0.068995,-0.04999],[0.543032,0.543172,1.785921,0.310033,0.163862,0.156481],[0.788672,0.265905,0.551835,0.482831,0.882337,0.750771],[-0.069292,-0.080486,-0.017569,0.07977,0.057095,-0.0309],[0.448385,0.54167,0.383846,0.44644,0.455006,0.382985],[-0.79663,-0.570024,-0.729123,-0.641337,-0.439167,-0.638481],[-0.354815,-0.462335,0.375704,0.115141,-0.256883,0.097179],[1.78928,1.616629,3.144295,2.289495,2.647025,2.053972],[-0.632662,-0.75618,-0.867416,-0.562342,-0.468569,-0.619935],[0.351872,0.263639,0.438966,0.258342,0.315835,0.161381],[0.133422,0.365222,0.43289,0.390099,0.287303,0.416549],[-0.019339,-0.030662,-0.064293,-0.094026,-0.001096,-0.009051],[0.151517,0.697781,0.814256,0.486464,0.488347,0.475551],[0.373404,0.29015,0.293128,0.391535,0.198721,0.319325],[0.368475,0.351007,0.20982,0.377671,0.318886,0.400422],[-0.697469,-0.735502,-0.663808,-1.06939,-1.126859,-1.051358],[0.178047,0.420908,-0.361429,-0.053663,-0.147988,-0.117198],[-0.881255,-0.855179,-0.806448,-0.622153,-0.590266,-0.518773],[-0.040653,-0.022241,0.009284,-0.081001,0.008957,0.035352],[0.920542,0.091976,-0.550333,-0.32088,-0.884065,0.116494],[0.060036,0.006668,0.108323,0.115309,-0.113383,-0.082901],[-0.039152,0.019519,0.734816,0.330859,0.24692,0.409858],[0.458955,0.022952,-0.15075,0.386578,0.300494,0.453857],[0.728785,0.454782,0.38696,0.355415,0.388222,0.439071],[0.302943,0.227062,0.319874,0.296304,0.223209,0.215319],[-0.044625,0.031635,0.086795,-0.096917,0.025812,-0.070732],[0.079025,0.011606,-0.1113,0.051125,-0.04425,0.073386],[0.241348,0.425919,0.346917,0.331992,0.319831,0.32986],[0.438562,-0.011386,0.209645,0.266334,0.1898,0.313049],[0.078813,0.162319,0.236599,0.290268,0.328221,0.250348]],"biases":[0.422656,0.44709,0.249026,0.178528,0.066831,0.498311]}]},"round":426,"phase":118,"phaseIteration":4,"trained":"pilot","generation":425,"dominanceMetric":"pilotWinRate","dominanceThreshold":0.65,"dominanceReached":false,"candidateSpawns":2,"selectedCandidate":1,"pilotWinRate":0.0,"enemyWinRate":1.0,"averageScore":2855.0,"averageWave":2.3,"averageSteps":107.0,"waveClearRate":0.3,"averageClearSteps":152.0,"enemyDropRate":15.8773,"invalidDropRate":0.7183,"enemyFireRate":0.1381,"pilotFireRate":0.3844,"pilotShotAccuracy":0.674,"pilotHits":275,"pilotFires":408}
