{"id":11,"label":"Pilot v11","role":"pilot","model":"sb3-dqn-pilot-v11","actions":["left","right","fire","stay"],"features":["target_dx","abs_target_dx","threat_dx","threat_y","bullet_ready","alien_count","wave","drop_ready","enemy_shot_ready","fleet_y","lives"],"network":{"activation":"relu","layers":[{"weights":[[0.147095,-0.210566,0.488893,-0.289481,0.083666,-0.495377,-0.211068,-0.093049,-0.142967,-0.473348,0.143713,-0.168724,0.355612,0.081965,-0.088367,-0.62157,-0.154609,-0.358728,0.539917,0.258418,0.209015,0.126059,0.239812,0.63951,0.256118,-0.259344,-0.456827,-0.161706,-0.077054,-0.2038,-0.129645,0.52109,0.011019,-0.024211,0.231065,-0.007559,-0.079118,-0.49814,0.048245,0.114389,-0.023644,0.292084,-0.208687,-0.26804,-0.34374,-0.086483,0.148812,-0.256099,0.233566,-0.052138,0.097843,-0.192568,0.20419,0.154712,0.391517,-0.543347,0.019114,0.268021,0.03954,0.375144,0.479952,-0.314303,0.761095,-0.224498],[0.224345,0.290803,-0.63273,0.435777,0.391445,0.520269,-0.525285,-0.224843,-0.396215,0.117775,-0.847045,0.413326,-0.5484,-0.146985,0.223947,-0.078941,-0.284958,-0.521834,-0.599332,0.246345,-0.232903,-0.603963,-0.56956,0.462168,-0.387845,-0.224093,-0.289005,0.178387,0.232743,-0.148415,0.119767,0.494165,-0.239579,0.205016,0.394083,0.561327,-0.244236,-0.172028,0.275129,0.195989,0.189723,0.151073,0.570893,0.283703,-0.181664,-0.334837,-0.615672,-0.275559,0.274736,0.631578,-0.21912,-0.290483,-0.415665,0.09372,-0.166373,0.524385,-0.185287,-0.63382,0.393043,0.119335,0.346473,0.024222,0.125396,-0.293674],[-0.260904,0.171751,-0.033097,-0.27737,0.120295,0.147996,-0.009443,0.170831,0.115532,0.05532,-0.147063,-0.518777,0.072073,-0.188503,-0.158856,0.298154,-0.23094,-0.252392,-0.102997,-0.282173,-0.100032,0.141733,0.168107,-0.060087,-0.199084,0.191375,-0.005253,0.074629,0.220923,0.220012,-0.075417,0.026496,0.099524,-0.127294,0.022221,-0.191187,0.241192,0.018814,0.089246,0.032464,-0.042557,-0.375829,-0.171533,-0.306177,0.206176,-0.168018,0.283659,0.210937,0.112138,-0.147407,-0.110757,-0.108689,0.254293,-0.28083,-0.09653,-0.087108,0.293166,0.323586,0.208146,-0.27735,-0.108304,-0.252069,0.120986,0.173831],[-0.161586,0.075807,0.18655,0.132811,-0.262689,0.335741,0.019691,0.252375,-0.119985,-0.029755,0.138393,0.041506,-0.221037,-0.135421,0.050623,-0.231265,-0.237033,-0.010751,0.227617,-0.266881,-0.06867,-0.1186,0.104099,0.303803,0.071463,-0.291032,-0.104846,-0.069866,-0.231333,-0.074765,0.506438,-0.071558,-0.134612,-0.146453,0.091316,0.268273,-0.023343,-0.325273,-0.271698,-0.320897,-0.191947,0.064424,-0.080567,0.30103,0.252275,-0.193724,-0.120539,0.061134,0.162101,0.04522,-0.131295,-0.125945,0.15559,-0.193914,0.010475,0.148338,-0.259291,-0.097446,-0.207962,0.012229,-0.279788,0.154024,-0.173385,-0.232095],[0.233821,0.244661,-0.009631,-0.066883,0.237837,0.016047,0.119315,0.311843,0.180974,0.218485,0.041166,0.027828,0.079844,0.103222,0.233734,-0.149289,0.00827,0.02515,0.309162,0.061958,-0.115068,0.100611,-0.048261,0.155342,0.038267,0.08217,-0.19783,0.056313,-0.254369,-0.065017,0.2052,-0.164328,-0.027003,-0.09924,0.161532,0.029866,0.279693,-0.178426,-0.241574,0.171618,-0.264224,0.166506,0.187453,-0.083625,-0.127361,0.214075,-0.113294,-0.16615,0.169047,-0.120196,0.223282,0.033699,0.263359,-0.244232,-0.336093,-0.0253,-0.024875,-0.061852,0.020932,0.330166,-0.005984,0.242453,-0.052323,-0.026909],[0.336954,-0.259297,0.252205,-0.293007,-0.073862,0.170118,-0.027095,-0.254017,0.248158,0.005819,0.093078,0.122352,-0.139549,0.121622,0.027452,0.107529,-0.18545,0.344029,0.196066,-0.024938,0.248196,-0.085522,-0.042691,-0.294519,0.132997,-0.223603,0.343962,0.022509,0.177525,0.150605,0.022162,-0.188189,0.09563,-0.246886,0.306756,0.280221,0.003491,-0.0897,-0.014749,0.352895,0.081449,0.150951,-0.050413,-0.147375,0.027772,0.083262,0.170974,0.134873,0.190623,0.267589,0.307111,-0.228356,0.373001,0.06518,-0.182494,-0.205951,0.032942,0.172204,-0.265218,0.17851,0.31566,-0.232288,0.285608,-0.258336],[0.352594,0.075844,0.06761,-0.086019,-0.238036,0.029111,-0.031659,-0.070689,0.208433,-0.034979,0.057784,0.155892,0.08946,0.266615,-0.213518,0.000381,0.121683,0.289602,-0.215016,-0.21082,-0.272722,0.06466,-0.022012,0.28438,0.242986,0.175132,0.014756,0.297007,-0.293159,0.12402,0.244858,0.109651,-0.043426,-0.128338,0.229571,0.080189,0.070241,-0.053885,0.054226,0.038506,-0.064795,0.074479,0.246018,-0.261858,0.010337,-0.134364,0.04323,-0.225733,0.166988,0.162396,0.197244,-0.117088,-0.016945,-0.232809,-0.122076,-0.040998,-0.308606,0.096825,0.130026,0.163227,-0.284804,0.234462,-0.068249,0.10165],[-0.161811,-0.12701,0.225531,-0.024118,0.25373,0.040182,0.112557,0.080413,-0.37763,-0.541118,0.037548,-0.010338,-0.327525,-0.022949,-0.187141,-0.348433,0.106732,0.072775,-0.1953,-0.197845,-0.235582,0.209788,0.108605,0.271682,0.129777,-0.170345,-0.011156,0.27011,-0.070819,-0.2988,-0.041333,-0.445817,-0.013411,-0.231274,0.073648,-0.280174,0.127044,0.101054,0.269083,-0.142812,0.03529,0.296106,-0.023825,-0.160249,-0.088768,0.053867,-0.143747,-0.029185,0.089647,0.127958,0.032397,0.092688,0.091092,-0.140833,0.084102,-0.164309,-0.297924,0.074353,-0.01525,-0.191593,0.242573,0.012217,0.1629,0.084304],[0.116504,0.316663,0.127251,-0.049752,-0.251126,0.042808,0.08039,0.083156,-0.12646,0.174992,-0.125822,-0.10007,-0.057736,-0.124986,-0.280583,0.300133,-0.216054,-0.117936,0.104382,-0.132505,-0.12681,-0.070702,0.201594,-0.265513,0.328903,-0.278763,0.272618,0.277886,-0.108901,0.315911,-0.188723,-0.158904,0.18077,0.028721,0.045305,-0.186665,-0.062769,-0.137875,0.017175,0.007318,-0.09182,-0.103086,0.053493,-0.26845,0.141267,0.236636,0.211595,0.192364,0.330218,-0.14109,0.112695,-0.027228,-0.201869,-0.046892,0.115487,-0.167402,-0.180913,-0.201706,0.146253,-0.220522,0.229831,-0.040379,-0.176031,0.046389],[-0.048446,-0.097685,-0.269247,-0.100611,-0.089695,0.378383,0.194949,0.16619,0.060919,0.081304,-0.081555,0.104289,-0.210153,0.207535,0.180738,-0.198571,-0.032025,0.103307,0.035059,0.184224,-0.160248,0.155767,-0.142989,-0.007183,-0.297184,-0.130983,-0.233545,-0.165099,0.195156,-0.09383,0.287182,0.269686,-0.150906,0.053466,-0.257452,-0.107496,0.040258,0.172538,0.435137,-0.268264,0.155329,-0.124642,0.284557,0.230438,-0.16507,0.033118,-0.269145,0.109267,-0.096093,0.048342,0.288201,-0.070175,0.037186,0.074674,-0.091742,0.082633,0.044971,0.056791,0.277805,0.18323,0.031769,0.052585,0.279748,-0.155203],[-0.194864,-0.290147,0.044547,0.037453,-0.212665,-0.166057,-0.087714,-0.28498,0.054532,0.183051,0.200813,0.103186,0.355016,-0.195017,-0.33005,-0.027653,0.20557,0.119337,-0.123737,0.025864,-0.079476,0.146631,0.018478,0.228673,0.188713,-0.291707,0.310857,0.395026,-0.160945,0.129536,0.145659,0.052866,-0.098682,0.024827,0.007286,0.184368,-0.091172,0.230285,-0.311175,0.048083,-0.141932,-0.237956,0.106881,0.101543,0.340146,0.185712,-0.078378,0.199053,0.052282,0.301698,0.22404,-0.101163,-0.202931,-0.019444,-0.21012,0.051369,-0.296558,0.31487,-0.236232,-0.007411,-0.268125,-0.229706,-0.173971,-0.160629]],"biases":[-0.182415,-0.031819,0.085049,0.169131,0.127789,-0.274218,0.048975,-0.215076,-0.008394,-0.114462,0.250633,-0.080785,-0.003269,-0.005282,0.212704,-0.041663,-0.17792,0.287148,-0.086163,-0.057947,-0.009838,-0.040904,-0.090445,0.118792,0.190942,-0.298571,-0.125944,0.36778,0.216945,0.079906,-0.239816,0.026552,0.262264,-0.239053,0.31431,0.302844,0.214279,-0.057722,-0.269172,0.130322,-0.21171,-0.020725,-0.10004,0.212663,0.266789,-0.086,0.024091,0.264651,-0.017144,0.03773,-0.142951,0.315112,0.200097,-0.061153,0.215905,0.273726,0.242413,-0.143818,-0.177167,0.209157,-0.095789,0.152321,0.018224,-0.198063]},{"weights":[[-0.15304,-0.155038,0.132012,0.056345,-0.070072,-0.048284,0.036247,0.063527,-0.092356,-0.12176,-0.101101,0.057991,-0.050248,-0.042521,-0.0524,-0.072302,-0.116042,-0.118734,-0.002276,0.033862,-0.01474,0.033864,-0.021471,-0.082336,-0.066702,0.057774,-0.070836,-0.148087,-0.150522,-0.054424,-0.159165,-0.091401,-0.014293,0.00543,0.051639,-0.043566,-0.01806,-0.097666,-0.025931,-0.058197,-0.064072,-0.078226,-0.036623,0.077069,-0.15753,0.012292,0.116523,-0.058674,-0.047762,-0.101329,-0.054551,-0.13172,0.087958,0.084199,-0.033524,0.059399,-0.17312,-0.060187,0.022731,-0.047847,-0.168401,-0.00796,-0.037442,-0.152264],[-0.02944,-0.009056,0.186635,-0.084981,0.191926,-0.118425,0.131363,0.154066,0.009314,0.01197,0.060746,0.006564,-0.097538,0.090733,0.158174,0.077117,0.007891,-0.103021,0.12858,-0.032099,-0.093693,-0.109717,-0.036894,-0.135549,-0.072047,-0.037803,0.040008,-0.091006,-0.076518,-0.06752,0.104214,-0.091598,-0.157802,-0.095754,0.06374,-0.030318,0.018012,0.059851,0.07579,-0.161957,-0.097174,-0.011448,-0.029987,0.0711,0.000121,0.014879,-0.102306,-0.053026,0.003277,0.000592,-0.056659,0.092335,-0.080596,0.006052,-0.020684,-0.108994,-0.076799,0.028643,0.026651,0.034579,-0.008674,-0.082842,0.13062,0.102295],[0.169706,-0.05619,-0.13749,-0.06524,-0.106383,0.186403,-0.068846,-0.040209,-0.107107,-0.032041,0.202541,-0.034172,0.269091,0.15717,-0.18572,0.032279,0.231714,0.246762,-0.11025,-0.087875,0.163439,0.233424,0.174466,0.044786,0.040484,-0.096783,0.118146,0.030551,0.280479,0.208746,0.136195,0.071431,0.26767,0.253882,-0.040827,-0.015485,-0.009585,0.074682,0.00535,-0.137668,0.06538,0.121698,0.076102,-0.134728,0.0783,-0.050253,0.16517,0.105651,0.200882,-0.019968,0.009639,0.245286,0.092258,0.083265,0.001248,0.111791,0.24747,0.137477,-0.124872,-0.021632,0.11046,0.037483,0.024415,0.017701],[-0.335555,-0.031657,0.092142,0.046728,0.04937,-0.163321,0.014584,0.093832,-0.057681,-0.118537,-0.178843,-0.065805,-0.006567,-0.012613,0.073524,0.040258,-0.34072,-0.161491,0.218037,0.111942,-0.006844,-0.313577,-0.065413,-0.022293,0.086878,-0.008366,-0.187212,0.052136,-0.270731,-0.17535,0.129954,0.00954,-0.213544,-0.172009,0.07297,0.097471,-0.006067,0.065752,0.082858,0.064709,0.119194,-0.098703,0.055659,-0.067264,-0.199271,0.053019,-0.209069,0.113571,-0.16244,0.015567,-0.190902,-0.333947,-0.04286,-0.106485,0.058251,0.046349,-0.20127,0.019887,-0.061549,0.191538,-0.143902,-0.037339,-0.087882,-0.125359],[-0.14675,-0.068996,0.269922,-0.116679,0.096786,-0.075018,0.206881,0.022669,0.131064,-0.108647,-0.057925,-0.144649,-0.024225,0.075767,0.130067,-0.12264,0.065476,-0.083257,0.038466,-0.084111,-0.043645,0.029125,-0.002244,-0.00494,0.05537,0.003723,-0.192998,-0.138347,-0.086315,-0.010748,0.002648,0.076227,-0.159888,-0.108052,0.019827,0.040855,0.149981,-0.065384,-0.010247,-0.071152,0.010953,-0.109702,0.056349,0.003,-0.081661,0.071662,-0.146356,0.008018,0.0541,-0.124725,-0.249515,-0.0849,-0.095587,0.114326,-0.141466,0.009281,0.037785,-0.163535,-0.048585,-0.145516,0.208421,-0.09524,0.226638,0.13676],[-0.097258,-0.060009,0.181822,-0.04388,0.04962,-0.231568,0.093936,0.199772,0.047485,0.015523,-0.337896,-0.012891,-0.078912,-0.25264,0.146101,-0.106792,-0.204036,-0.270486,0.10757,-0.119967,-0.151333,-0.320399,-0.115978,-0.137797,-0.109919,0.050971,-0.291392,0.054584,-0.224873,-0.270005,0.0391,-0.039191,-0.373646,-0.106991,0.284812,0.028631,0.168703,-0.096718,-0.0086,0.131655,-0.019246,-0.323748,0.078622,-0.01993,-0.279283,0.028616,-0.175355,0.054442,-0.158739,-0.13032,0.032921,-0.265509,0.050142,0.070056,0.058529,0.015753,-0.248796,-0.219704,0.015913,0.175331,-0.047073,0.102449,0.068818,-0.112099],[-0.149513,0.087846,0.010644,-0.021083,-0.004071,0.195707,0.015185,0.03322,-0.045803,-0.126254,0.146505,0.06343,0.060693,-0.063606,0.087377,0.053381,-0.169518,-0.10376,-0.022807,0.044773,-0.056442,-0.107523,-0.007076,0.09082,0.008982,0.031121,0.155075,-0.025845,0.121705,0.013189,0.042616,-0.048656,0.100315,0.050383,-0.046295,0.052009,-0.114241,-0.062512,-0.116718,0.040466,0.071305,0.128181,0.038242,-0.170672,-0.011178,-0.087242,-0.091775,0.075845,-0.105948,-0.132882,0.109784,-0.043183,0.059601,0.002307,0.006417,-0.136395,0.166533,-0.031687,-0.086556,-0.013139,-0.264121,-0.007699,-0.180221,0.039541],[-0.124151,0.040282,0.105557,0.041788,-0.116667,0.14172,0.10846,-0.067353,-0.131471,-0.042828,-0.050049,-0.058142,0.014396,0.030395,0.035749,0.059825,-0.414405,-0.195752,-0.014802,-0.082207,-0.381276,-0.224622,0.004276,0.098295,0.12927,-0.174119,0.021188,-0.194004,0.105317,0.158811,0.059785,0.083732,0.036131,0.062747,0.066546,-0.108345,-0.064787,0.07947,-0.013332,-0.020158,0.117474,-0.055709,-0.016393,-0.10918,-0.102752,-0.152052,0.109305,-0.047698,-0.342769,0.032306,0.015093,-0.001035,-0.054022,0.104572,0.018533,-0.035791,0.033549,-0.069571,-0.088167,-0.061566,-0.482569,-0.042549,-0.071241,0.253629],[0.273384,-0.00076,-0.117452,-0.053912,0.044033,0.115677,-0.082417,-0.153687,0.045711,0.034769,0.039597,0.009837,0.183716,0.039912,-0.042379,0.051086,0.139915,0.09455,-0.156643,0.011373,0.164738,0.085111,0.21946,0.089343,-0.082768,-0.029881,0.20713,0.024898,0.222404,0.186141,0.096838,-0.124084,0.088885,0.209147,-0.090436,-0.049527,0.062011,0.120734,-0.06321,-0.150756,-0.063456,0.200083,0.081911,0.092115,0.121563,-0.115244,0.250683,-0.079014,0.068555,-0.035653,0.03046,0.154228,0.077897,0.009882,0.096001,0.010833,0.083265,0.23788,0.069492,0.000249,-0.097039,-0.065713,-0.047077,0.150989],[0.199135,-0.00281,0.036389,-0.025341,0.116198,-0.097609,0.023196,0.094943,0.068946,-0.027342,-0.113941,0.065046,-0.030751,-0.051187,-0.081156,-0.049613,0.053304,0.153737,0.023392,0.088401,0.079079,0.076246,-0.002764,0.06514,-0.03958,0.071091,0.117128,0.072719,0.187662,-0.061071,0.067184,0.047084,0.00195,0.022402,0.113994,0.057613,-0.034635,-0.087326,0.076803,-0.137244,0.001006,-0.052451,-0.037504,-0.016264,0.131498,0.096844,0.025744,-0.015591,0.018656,-0.120526,-0.011502,0.06598,0.066948,-0.049775,0.004081,-0.134871,-0.120959,0.124193,-0.015086,0.100693,0.018219,-0.062677,0.063336,0.116854],[0.32293,-0.108731,-0.025228,-0.102269,-0.10665,0.190558,-0.226067,-0.089761,0.074898,0.057079,0.3037,0.228859,0.191614,0.181959,-0.242215,-0.063855,0.034216,0.191719,-0.14174,-0.09873,0.219165,0.156963,0.32146,0.065163,-0.081519,-0.202663,0.090373,-0.252112,0.094985,0.23727,-0.154676,-0.007249,0.174315,0.123447,-0.055282,0.013626,0.064513,0.103075,-0.01358,-0.041776,0.023713,0.347562,0.066729,-0.101377,0.145651,-0.136039,0.282844,-0.084509,0.125772,0.065691,-0.025312,0.210195,-0.03154,-0.077124,0.042013,-0.170881,0.284142,0.280077,-0.108694,-0.190265,-0.062798,0.118062,-0.333052,0.153162],[-0.19782,-0.021468,-0.000902,0.086394,0.161396,0.072673,0.244284,-0.026354,0.082522,-0.010803,-0.061348,-0.00916,0.053004,-0.014004,0.085113,-0.011852,-0.314323,-0.199418,-0.035415,-0.029981,-0.034191,-0.123006,-0.068161,0.075372,0.036659,0.074118,-0.074142,-0.078338,-0.142076,-0.111927,-0.075489,-0.066901,-0.013251,0.022061,0.000277,0.142428,-0.143551,0.04849,-0.026069,0.004491,0.112676,-0.117635,0.063007,-0.099918,-0.156479,-0.114563,-0.066705,-0.090889,-0.101744,0.059593,-0.111455,-0.199969,0.09884,-0.088547,-0.125086,-0.112068,-0.04616,-0.170096,-0.115982,0.070004,-0.248786,0.053063,-0.108445,-0.08686],[0.091852,0.001778,-0.129289,0.097594,-0.022495,0.117,-0.112991,-0.234362,-0.005809,-0.088024,0.082831,-0.022346,0.20866,0.256897,-0.070899,0.026812,0.10345,0.178394,0.007673,-0.007782,0.266503,0.280008,0.079007,-0.013945,-0.107602,-0.004329,0.037174,0.005001,0.052779,0.055656,0.163395,-0.071269,0.088586,0.149094,-0.11938,-0.193825,0.091542,0.042903,-0.059195,-0.02095,0.064654,0.295947,0.114936,-0.021797,0.25548,0.047181,0.21886,0.010472,0.128554,0.050279,-0.147753,0.312933,-0.066267,0.10791,0.009577,-0.00151,0.120722,0.260195,-0.063612,-0.091317,0.147379,0.021275,0.074291,0.035176],[0.037232,-0.100548,0.048173,0.104012,-0.068234,-0.077133,-0.025726,-0.028471,0.081045,-0.031177,0.059229,-0.0511,-0.090579,-0.106232,0.065889,-0.074933,-0.085246,0.125643,0.043265,-0.023271,0.023127,-0.048772,0.011963,0.042982,0.087047,0.137335,-0.084098,-0.087399,-0.052833,0.110232,-0.080795,-0.116191,-0.08562,0.13286,0.104948,-0.106244,-0.0412,0.008253,-0.004193,0.068811,0.003598,-0.091679,-0.100419,0.011489,0.107587,0.024204,-0.094369,-0.097945,0.051821,-0.053101,-0.065499,-0.118295,0.083394,0.022347,0.111255,0.020731,-0.123673,0.055654,-0.114109,-0.071519,-0.04597,-0.005731,0.013972,-0.004977],[-0.198702,0.091774,0.144212,0.000516,0.131921,0.080124,-0.004761,-0.056321,0.01723,-0.054617,-0.001479,0.130128,-0.006002,0.050331,-0.132805,-0.093863,-0.240853,-0.10999,-0.197453,-0.122138,0.014173,-0.062312,0.203888,-0.099656,0.093124,0.131433,-0.003036,-0.061168,-0.056271,-0.073228,-0.182205,0.004751,0.002367,0.196239,0.024237,0.109471,0.04257,-0.069582,0.158573,-0.232924,0.079443,0.085292,-0.063596,-0.115648,-0.228236,-0.078894,0.001758,-0.036218,-0.19733,0.011724,-0.024599,-0.218134,0.053569,-0.01576,0.001847,-0.090012,-0.073587,-0.025171,0.069613,-0.055466,0.057948,-0.001049,0.206098,0.06108],[0.176787,-0.075579,0.04259,0.101276,0.073479,0.073979,-0.089443,0.123079,0.031997,-0.08446,0.044448,0.069624,-0.037157,0.138978,-0.075542,0.017833,0.01288,0.252194,0.031638,0.123842,0.120578,0.128565,0.203015,-0.047709,-0.042433,-0.097757,0.157939,0.032339,0.025069,-0.049336,-0.015467,-0.01408,-0.086113,0.054124,-0.060909,0.031363,-0.184312,0.056463,-0.053888,-0.165327,0.092454,-0.096501,-0.074875,0.081975,0.030602,-0.051014,0.172587,-0.057546,0.241824,-0.11208,0.027183,0.027087,0.054198,-0.093735,0.051278,-0.076742,-0.080311,-0.051922,-0.096327,-0.006986,-0.005619,-0.049017,0.072049,0.038748],[-0.04235,0.110922,-0.083996,0.044752,-0.058184,0.090777,0.066537,-0.04709,-0.001378,-0.107613,-0.042198,0.00398,-0.10914,0.057965,0.094059,-0.092463,-0.020281,0.083899,-0.099103,-0.02215,-0.022077,-0.060095,-0.021399,-0.000232,-0.107306,-0.116681,-0.035719,0.059531,0.047278,-0.039642,-0.092416,0.000767,0.03715,-0.104835,0.021815,-0.042865,0.013869,0.003353,0.064196,0.019437,0.119139,-0.023298,0.114349,0.011236,0.085439,-0.011171,0.000811,-0.087632,-0.082234,-0.066228,-0.092191,0.120141,0.09372,0.073899,-0.058768,-0.006892,-0.070766,0.058092,-0.025403,0.064553,-0.005783,-0.054627,0.11968,-0.042516],[0.141997,-0.053436,-0.039418,-0.1294,-0.053614,0.126685,-0.029755,0.026403,0.09492,0.076164,0.227474,0.030858,0.094567,0.07653,-0.100609,0.050432,0.063864,0.197776,-0.176584,0.06227,0.025232,0.074585,0.079834,-0.13592,-0.104538,-0.070793,0.018333,-0.155619,0.119034,0.05884,-0.142667,-0.086041,0.036542,0.200797,-0.036851,0.044309,-0.124166,-0.064934,-0.007097,-0.058636,-0.151634,0.023389,-0.123274,-0.040315,0.236774,-0.038817,0.239954,0.123865,0.031719,-0.115262,0.079254,0.086872,0.028752,0.000733,0.049438,-0.117508,0.165854,0.174648,-0.104629,-0.115562,0.048827,0.154736,-0.301047,0.040924],[0.019022,-0.127462,0.038491,0.091141,-0.100581,0.242526,-0.014186,-0.07407,-0.082917,-0.035166,0.196721,-0.102053,0.199601,0.265682,-0.165004,-0.137543,0.090696,0.032802,-0.00217,-0.036765,0.237872,0.015933,0.224044,0.101583,-0.08378,-0.242986,0.198012,-0.028875,0.037567,0.254817,-0.011025,-0.029319,0.255069,0.046929,-0.066708,-0.156251,-0.00543,-0.026963,0.097791,-0.045632,-0.021641,0.178605,0.076141,-0.09346,0.285911,-0.150493,0.083746,0.007181,-0.064138,0.114077,-0.140337,0.283269,0.085037,0.104602,-0.026133,-0.142087,0.179045,0.334251,-0.000453,-0.17607,0.168852,0.025364,0.061339,0.154754],[0.068307,-0.122331,-0.118141,-0.091406,-0.063359,-0.096397,-0.067905,0.051117,-0.113497,0.032248,-0.005729,-0.132463,0.0962,-0.046122,0.076692,-0.028588,-0.11016,0.004344,0.012602,-0.080512,-0.008146,0.021882,0.069882,0.008848,-0.009033,0.040958,0.126718,-0.098841,0.069639,-0.093558,-0.041141,-0.005889,-0.030056,0.03064,-0.081268,0.042387,0.106104,0.074585,0.003648,-0.119914,-0.098841,0.104912,0.013261,0.10339,0.032151,0.120028,-0.076054,-0.087026,-0.111693,-0.102556,-0.121402,-0.069709,-0.024479,0.05027,0.092126,0.02398,-0.108921,0.052613,-0.012783,-0.081427,0.087423,0.005509,-0.030717,0.008034],[0.0512,0.104197,0.078273,0.118159,-0.122881,0.007623,0.015871,-0.004951,0.000341,-0.071818,0.007105,-0.08478,0.077969,0.119624,-0.034552,-0.123852,0.017398,0.070694,-0.09898,-0.03361,-0.064451,-0.003014,0.072977,0.008698,0.052368,0.014771,0.100904,-0.081741,0.054958,-0.069022,0.085644,0.072732,0.067079,0.007542,-0.00285,-0.079237,-0.00586,-0.064588,0.063519,0.02042,-0.043958,-0.057201,-0.037337,-0.121975,-0.017194,-0.019008,0.124903,-0.067831,-0.005047,0.097389,-0.056723,0.088756,-0.016651,0.059965,-0.08797,-0.0417,-0.056467,-0.11931,-0.008017,-0.103304,-0.033404,-0.119717,0.105202,-0.052217],[0.11817,0.014133,-0.138116,0.022418,-0.164697,0.078911,-0.101233,0.050381,-0.054636,0.109063,0.195478,-0.07286,-0.038168,0.150894,-0.085192,-0.101587,-0.031588,-0.031302,0.044678,0.020297,0.018941,-0.086423,0.01099,0.051193,0.002259,-0.116875,0.143176,-0.156605,0.178656,0.132917,-0.040823,0.006689,0.000523,0.133186,0.025042,-0.165946,0.022307,-0.01729,0.024011,-0.189059,-0.132659,0.197188,-0.032761,-0.149528,0.189468,-0.113858,0.066882,0.011718,0.000166,-0.072548,-0.164913,0.024963,0.048155,0.059173,-0.097395,-0.012016,0.092215,0.065248,-0.052545,-0.020587,-0.145222,0.054926,-0.064206,0.121076],[0.128655,-0.130683,0.005602,0.009064,-0.115769,0.080219,-0.132484,-0.063463,-0.004005,0.039332,0.163192,0.024926,0.081469,0.235458,-0.116216,0.001631,0.088738,0.134788,0.002107,-0.013257,0.151533,0.26256,0.138628,0.079199,-0.110743,-0.136222,0.115317,-0.016069,0.160147,0.163873,-0.049608,0.105115,0.221263,0.222631,-0.03046,-0.190017,-0.005324,-0.007321,0.066755,0.002472,0.088242,0.267902,-0.042872,-0.058631,0.195364,-0.133898,0.107528,-0.042919,0.243404,-0.09679,0.085888,0.262677,-0.076151,0.063713,-0.010465,-0.069335,0.257721,0.266641,-0.00606,-0.022789,0.145194,-0.050943,-0.055108,0.139314],[-0.194741,-8.1e-05,-0.083653,-0.141508,0.091923,-0.205278,-0.142313,0.120613,-0.025591,0.105726,-0.09008,-0.235356,-0.143605,-0.089126,0.156988,0.005007,-0.010322,-0.192187,0.201025,0.063013,-0.006177,-0.091024,-0.119247,0.023224,-0.00046,0.110818,-0.083586,0.21877,-0.039407,0.007723,0.021389,-0.04678,-0.15711,-0.224209,0.028771,-0.036003,0.266239,-0.107766,0.121663,0.093198,-0.048812,-0.119349,0.020077,0.150725,-0.074034,0.040657,-0.116841,-0.026489,-0.203871,-0.078807,0.022287,-0.186591,-0.016064,-0.089299,-0.083703,0.22319,-0.104518,0.094865,-0.062539,0.043725,0.170254,-0.126723,0.322913,-0.37177],[0.037433,-0.074196,-0.114307,0.032857,0.103116,0.174374,-0.21511,-0.170116,-0.09733,-0.002742,0.100001,-0.054136,0.243869,0.190484,-0.081121,0.043193,0.12146,0.259757,-0.080046,-0.115297,0.15644,0.284624,0.006953,-0.096044,0.03412,0.057119,0.180338,-0.111275,0.236779,0.212669,-0.011658,-0.053721,0.151251,0.120598,-0.026653,-0.124445,-0.083043,0.064053,0.042639,0.08551,-0.000273,0.178377,-0.058273,-0.084924,0.033795,-0.021212,0.20306,-0.088902,0.081208,0.095937,0.110315,0.243392,0.084707,-0.030708,-0.083841,0.034981,0.143133,0.124747,-0.044897,0.025871,-0.003452,0.068292,0.077793,-0.009254],[0.045201,-0.121806,0.056925,0.035824,-0.039163,0.099112,0.077285,-0.042796,-0.056072,0.043306,0.004038,-0.094144,-0.052087,0.01404,-0.022892,-0.078305,0.093695,-0.100755,-0.081341,0.1233,0.080768,0.019052,0.098138,0.075027,-0.076039,-0.106744,0.059159,-0.123775,0.097206,-0.093433,-0.062161,-0.090945,0.082965,0.094912,0.107388,-0.012821,0.084203,-0.121325,0.004013,-0.054818,0.034707,-0.056147,-0.007078,0.109999,-0.094303,0.09949,0.036694,0.009333,-0.038562,0.06834,-0.057828,-0.025713,0.027306,-0.072276,-0.0567,0.093315,0.007957,-0.11895,-0.054048,0.016647,-0.032164,0.00731,-0.074138,0.09819],[0.258695,-0.062475,0.128824,-0.006524,-0.006954,0.077434,0.032413,0.064033,0.028234,0.097215,0.038778,0.225969,0.045793,0.029783,0.060605,0.059998,0.176003,0.167788,-0.051093,0.078425,0.172056,0.158352,0.234398,-0.001971,0.007857,-0.148494,0.108495,-0.091428,0.222705,0.037255,-0.069998,-0.129299,-0.063818,0.21407,-0.06539,0.085568,0.014751,0.09092,0.029104,-0.002779,-0.156984,-0.069254,-0.051587,-0.105046,0.192841,-0.007803,0.238553,-0.083793,0.232546,0.08702,0.054031,0.04915,-0.110647,-0.034298,-0.115731,0.004368,0.205826,0.061183,0.089268,-0.096697,0.036829,-0.10371,-0.20425,-0.062299],[0.195986,-0.145257,-0.081686,-0.064452,-0.037809,-0.073947,0.000772,0.018019,-0.098325,-0.033926,0.132297,0.127041,0.057385,0.168942,0.064299,0.063473,-0.047081,-0.012678,-0.011652,-0.075117,0.076448,0.205108,0.171647,-0.005293,0.093138,0.0364,-0.018396,0.110215,0.03128,-0.047539,0.110908,0.032038,0.046271,0.100985,0.103081,-0.006615,0.124381,-0.076525,-0.138212,0.089032,0.021743,-0.002637,-0.118379,0.023134,0.136992,0.044511,0.181391,-0.122956,0.149366,0.055065,0.107518,0.15827,-0.087372,0.101673,0.010364,-0.105528,0.027092,0.111165,0.082566,0.062275,0.053912,0.056278,-0.072368,0.028611],[-0.01094,0.019433,0.051402,-0.0072,0.082113,0.073489,-0.03736,-0.016157,-0.152838,-0.01885,-0.012375,-0.072604,0.12889,-0.009326,0.105167,-0.075953,-0.03786,-0.037483,0.103919,0.091852,-0.027775,0.118234,-0.009197,-0.074369,0.099193,0.083124,-0.036144,-0.07079,0.028761,-0.096221,-0.016993,-0.08689,-0.018404,-0.07461,-0.084727,0.012965,0.021222,0.056943,-0.143642,-0.141789,0.023045,0.043878,0.002872,-0.003766,0.02242,-0.022885,0.029377,0.02268,0.03636,-0.142996,-0.066679,0.019998,-0.067197,0.054529,-0.135132,0.082239,-0.063019,0.057791,-0.086115,-0.0333,-0.006589,-0.081043,0.097727,0.053789],[0.053147,-0.088782,-0.016903,0.02972,0.014275,-0.012351,-0.038444,-0.053551,0.028038,0.057869,-0.014278,0.165741,-0.034399,0.177327,-0.000678,-0.056263,0.105625,0.231245,-0.138086,-0.115375,0.115661,0.007393,0.136208,0.02015,-0.05102,0.048747,-0.057898,0.004967,0.168501,-0.011942,-0.083844,-0.014762,0.089591,0.084358,0.105767,0.124044,0.00239,-0.080072,-0.001246,0.005541,-0.108022,0.008438,-0.005533,-0.003671,0.174692,0.027813,0.03462,-0.040318,-0.016714,-0.08559,-0.143275,0.067454,-0.043759,0.012541,0.045166,-0.041345,-0.00335,0.077573,0.037993,0.06118,-0.011007,-0.131114,-0.010717,0.060909],[-0.222661,-0.018337,-0.083632,0.048894,0.116061,-0.081524,-0.009132,0.066588,0.003941,0.088382,-0.15383,-0.021452,-0.147234,-0.241119,0.127844,-0.126052,-0.093167,-0.074874,0.049645,-0.047788,-0.165986,-0.243292,-0.074257,0.079395,-0.015201,0.216049,-0.218057,0.061853,-0.068496,-0.343574,-0.122706,-0.118793,-0.259102,-0.125905,0.228194,0.132112,0.160402,-0.113626,0.128213,0.24032,0.013592,-0.284319,-0.074918,0.093228,-0.255241,0.134756,-0.047231,-0.100777,-0.279244,-0.052564,-0.13808,-0.148773,0.0888,-0.096371,0.078141,0.201684,-0.279994,-0.026649,0.113605,0.109955,-0.088899,-0.242689,-0.05088,-0.182896],[0.030658,-0.084394,-0.109046,-0.001386,-0.08754,-0.109815,-0.024457,0.080478,-0.051375,-0.113135,0.007975,-0.236439,-0.146528,0.09044,0.004242,0.110682,0.154991,-0.037419,0.281295,0.073112,0.156644,0.033436,0.009411,-0.060026,-0.035858,-0.121435,-0.338191,0.047158,-0.148216,-0.032465,0.158805,-0.091006,0.007352,-0.176559,-0.041425,-0.135625,0.092357,-0.085332,-0.021454,0.020708,-0.068834,0.046342,-0.014188,0.206052,0.114547,0.232536,-0.046446,0.084495,-0.113913,-0.054326,0.058693,-0.05827,-0.103136,0.116402,-0.082414,-0.052259,-0.132944,0.167034,-0.073134,0.067818,0.026837,-0.031706,0.282445,-0.103601],[0.199162,-0.058285,0.028127,-0.061474,-0.119629,0.085132,0.013738,0.090466,-0.029764,-0.109581,0.00371,-0.036072,0.187823,0.208129,-0.052489,-0.142491,0.19188,0.149993,0.086908,0.042266,0.012523,0.196696,0.11418,-0.101701,0.068743,-0.070896,0.149785,0.014273,0.17315,0.11867,-0.086286,-0.062866,-0.029504,0.184785,0.086496,0.105256,-0.037304,0.048697,-0.103147,-0.122438,0.070253,0.072736,-0.02044,-0.07926,0.089921,-0.068709,0.194788,-0.081903,0.068003,-0.105826,0.035397,-0.016544,-0.110719,-0.106725,-0.111451,-0.076982,-0.009392,-0.029957,-0.080632,-0.076194,0.081145,0.064969,-0.168793,0.125076],[0.053548,0.062924,0.096465,0.045143,-0.022749,0.103146,-0.048216,-0.052083,-0.094563,-0.016846,-0.097996,0.078358,-0.048577,-0.084614,0.019682,-0.048035,0.056484,0.061147,0.083592,-0.015757,-0.063911,-0.021719,0.057827,0.074652,0.005288,-0.07049,-0.064934,0.082896,-0.024262,0.079989,0.059475,0.004671,-0.100147,-0.115684,-0.085614,-0.096614,-0.04017,-0.069147,-0.03675,-0.085118,0.073599,-0.041281,0.054677,0.10928,0.108546,0.122204,0.005981,0.023816,-0.037969,0.098705,0.069745,-0.01744,0.085297,-0.02875,-0.025364,-0.004379,0.027247,-0.001699,-0.054455,0.11709,0.083156,-0.124592,-0.041534,0.070835],[0.016154,0.088576,0.079151,-0.09803,-0.064226,-0.049209,0.097618,0.043465,-0.095867,-0.042069,-0.072245,0.0588,0.138284,0.20118,0.057097,0.090218,0.119154,0.107484,0.108483,-0.111544,0.163525,0.222411,0.148931,-0.122564,-0.115775,0.043713,-0.002072,-0.081201,0.035021,0.141647,0.095182,-0.044834,-0.082331,-0.039491,-0.073473,-0.014508,0.096117,-0.093682,-0.03304,-0.126656,-0.035666,-0.096873,0.04876,0.019521,0.082947,0.128744,0.117543,-0.030952,-0.017691,-0.126412,-0.017684,0.077784,-0.09555,-0.075658,0.076442,0.068757,-0.042535,0.06415,0.016631,0.083715,-0.001704,-0.036955,0.161999,-0.083871],[0.164074,0.045068,0.168037,-0.069493,0.14326,-0.230814,0.108594,0.065873,0.073015,-0.037173,-0.118217,0.006616,0.080375,-0.026818,0.11818,-0.012101,0.114476,0.031263,0.050011,-0.041747,0.240849,0.199219,0.017088,-0.049802,-0.102552,0.154873,-0.023767,0.149523,-0.051077,-0.063459,0.020338,-0.072337,-0.112871,-0.047187,-0.015247,0.003837,0.062529,0.042505,0.083919,0.13165,-0.018771,-0.173024,0.088308,0.14734,0.085185,0.093238,0.117703,0.052217,0.203418,0.066104,-0.13214,0.202365,0.062889,0.072556,-0.008054,0.048128,-0.011578,0.131538,0.043065,0.105637,0.155004,-0.007313,-0.081937,0.08875],[0.138434,0.069811,0.06572,0.093014,-0.063773,-0.05163,0.052264,0.042152,-0.022314,-0.049994,0.080969,0.015006,0.156313,-0.047278,0.130472,0.009203,0.109644,0.014662,0.020156,-0.006783,0.105958,-0.054305,0.09842,-0.010357,-0.041996,-0.077882,-0.058044,-0.082221,0.176956,0.061698,-0.067752,-0.005855,0.105852,0.037523,0.083356,0.082781,-0.06408,-0.075355,-0.129658,-0.105238,0.089583,0.091757,-0.046153,-0.117915,-0.030582,-0.102037,0.095272,0.01794,0.106923,-0.145342,0.053415,-0.015497,-0.085514,-0.112028,-0.023647,-0.007994,0.066655,-0.042932,-0.031079,-0.089696,0.037393,-0.150394,-0.099141,0.00289],[0.183042,-0.008477,0.196491,-0.083508,-0.202138,0.12733,0.100527,-0.016599,0.03635,-0.10148,-0.010479,0.039538,0.042005,0.098858,0.004203,0.080477,-0.048454,0.171334,0.034656,-0.115069,0.123234,0.10652,0.160708,-0.037042,-0.013021,-0.160412,0.151946,-0.192054,0.153583,0.01275,-0.006064,-0.032282,0.080572,0.02572,-0.165174,-0.199683,0.019461,-0.060875,0.024,-0.030873,0.012719,-0.012989,-0.075196,-0.095963,-0.002759,-0.134882,0.139454,-0.084002,-0.142955,0.088867,-0.090202,0.165792,-0.059845,-0.105128,-0.049314,-0.045441,-0.026939,0.002911,-0.122333,-0.211343,-0.145109,0.003484,-0.05673,0.115818],[-0.272774,-0.007754,0.136969,0.01988,0.094352,-0.12179,0.070708,-0.031477,0.062377,0.068398,-0.125198,-0.229824,-0.095615,-0.139695,0.279334,-0.007496,0.15732,-0.311831,0.203827,-0.034897,-0.152862,-0.228109,-0.313254,0.000298,0.048418,0.071839,-0.195122,0.052869,-0.092678,-0.047536,0.295842,-0.021082,-0.118751,-0.301003,0.030056,-0.188039,0.23334,-0.01311,-0.18214,0.035795,0.038027,-0.124005,0.097613,0.249107,-0.244338,0.229466,-0.230603,-0.050962,-0.264521,0.062263,-0.053656,-0.082914,0.109932,0.054877,-0.058774,0.214918,-0.210556,-0.206217,-0.106966,0.195481,0.184958,-0.059649,-0.093565,-0.334458],[0.195787,0.059053,0.07704,-0.051494,-0.04292,-0.007606,-0.029658,-0.198762,0.011684,-0.027193,0.034861,0.016116,0.090275,0.064064,0.034087,-0.103037,0.226654,0.208622,0.042366,0.10837,0.218889,0.283831,0.179432,-0.046427,-0.119211,-0.027568,0.094642,0.081687,0.016517,-0.05223,0.055935,-0.052592,0.005949,-0.01428,-0.134477,-0.017157,0.044512,0.097294,-0.039682,-0.260225,0.020003,-0.072152,0.061086,0.166861,0.042949,0.164975,0.283403,-0.09981,0.02317,-0.099976,-0.122277,0.282677,-0.086214,-0.042932,-0.091266,0.015621,0.062564,0.144161,-0.10415,-0.143702,0.334795,-0.212961,0.186122,0.163536],[0.055418,-0.129606,0.089341,-0.069669,0.064181,0.030645,0.066624,0.0818,0.109678,-0.05782,0.121395,-0.006265,0.033094,0.032871,0.050741,-0.109322,-0.08047,-0.081607,-0.080896,0.115187,0.07535,0.063696,0.072913,0.115013,0.101667,-0.007746,-0.062121,0.027152,-0.009074,0.122403,0.070145,-0.081681,-0.092335,0.142568,-0.041199,-0.00711,-0.032383,0.001953,0.062544,0.010677,0.026459,0.072173,-0.054801,0.074212,-0.062148,-0.112661,-0.125502,0.055329,0.007552,0.052317,0.090342,-0.027074,0.092213,-0.116972,0.071057,0.003239,-0.091982,-0.069937,0.114203,0.006993,0.034413,0.067213,0.078738,0.120616],[0.014382,-0.09795,-0.02363,-0.069203,-0.048876,0.068845,0.000435,-0.211175,-0.104722,0.093363,0.016585,-0.001945,0.309231,0.239345,-0.242761,-0.059265,0.030707,0.002611,0.063173,-0.100769,0.26303,0.100495,0.092056,0.028005,-0.01647,-0.138951,0.06654,0.157605,0.136745,-0.069599,-0.032014,0.080974,0.176694,-0.033192,-0.212325,0.065485,0.11338,0.104996,0.110113,-0.220696,0.0115,0.039517,-0.056159,0.067675,-0.052097,0.008667,0.309008,0.022101,0.140468,-0.034187,0.005602,0.064225,-0.083141,0.030083,0.077509,0.066791,0.113261,0.187718,0.002381,-0.24154,0.109695,-0.17431,-0.054489,-0.104714],[-0.126854,0.057438,0.161222,0.006003,0.025359,-0.130423,-0.042808,0.16079,0.091089,-0.085924,-0.109601,-0.045892,0.040122,-0.062683,0.155541,0.047833,-0.062896,-0.044306,-0.075187,0.07981,-0.035698,0.048979,-0.142756,-0.023654,-0.063781,-0.036304,-0.1692,0.040229,-0.080191,-0.319064,0.027057,0.02272,-0.274589,-0.029392,0.029736,0.160566,-0.041648,0.029626,-0.076434,0.066167,-0.000842,-0.107349,0.057338,-0.077979,-0.138334,-0.059494,0.023399,0.072967,-0.118632,-0.083241,-0.202925,0.069217,-0.043709,-0.103978,0.036187,0.157894,-0.261831,0.029419,-0.124875,0.132886,0.07979,0.089469,0.111678,-0.121578],[-0.375806,0.00108,0.016627,0.100083,0.133334,-0.267943,0.248358,0.165319,-0.048245,-0.086598,-0.343059,-0.248598,-0.184422,-0.119252,0.302258,-0.039407,-0.440743,-0.316295,0.13174,-0.041073,-0.263418,-0.463236,-0.250211,0.008408,0.049394,0.145212,-0.175287,0.345804,-0.334063,-0.478408,0.099519,0.026917,-0.463428,-0.344176,0.40135,0.216056,0.274655,0.071534,0.16772,0.387468,-0.071096,-0.399201,0.010802,0.143493,-0.523672,0.213342,-0.268629,0.100945,-0.383077,0.014131,-0.105872,-0.487481,0.021303,0.068359,0.018498,0.20618,-0.463576,-0.164426,0.097686,0.292365,-0.038958,-0.101106,0.023957,0.065494],[0.204229,0.079505,-0.056737,-0.144408,0.11184,0.053918,0.00865,0.031297,0.004833,-0.085849,0.01998,0.133883,0.091441,0.027787,-0.051957,-0.090649,0.124404,0.078728,0.080796,-0.00221,0.119545,0.186521,-0.041623,0.065383,0.015072,0.094822,0.161015,0.113139,0.086885,-0.067752,-0.051921,0.08335,-0.016833,0.092925,0.03112,0.128667,-0.111681,-0.110818,0.069224,-0.015534,-0.118897,0.023795,-0.051351,0.09283,0.114881,0.106284,0.065802,-0.04846,0.039799,-0.121809,-0.016505,0.11148,0.017581,-0.097967,0.011261,-0.081587,-0.025669,-0.054815,-0.100041,-0.016689,-0.090268,0.007232,-0.135425,-0.131051],[-0.036183,0.0029,-0.127969,0.042663,0.052892,0.117173,-0.122982,-0.051114,-0.126766,-0.048884,0.105091,0.18945,0.153989,0.099506,-0.136717,-0.023233,0.036203,0.146111,-0.13629,-0.041205,0.060871,0.064005,0.182559,-0.067334,0.041761,-0.024008,0.029215,-0.133227,0.183931,0.04537,-0.006502,-0.057589,0.08602,0.082499,-0.001761,-0.063702,-0.078043,0.004194,0.02325,-0.052985,0.059014,0.027161,0.088822,-0.056062,0.021291,0.050653,0.112299,-0.018758,0.034064,-0.029108,-0.140709,-0.00876,-0.01491,-0.083988,0.098521,0.012689,0.002355,0.065866,0.022271,0.012217,-0.003535,-0.068222,-0.216531,0.049861],[0.130807,0.074182,-0.100485,0.095629,-0.088793,0.158482,-0.043388,-0.172814,0.019399,0.006884,0.075342,0.091951,0.061831,0.212471,-0.034968,-0.041148,0.191107,0.098802,-0.07633,-0.002825,0.163998,0.137187,0.120271,-0.047027,-0.032338,-0.100783,0.131328,-0.180859,0.234061,0.08993,0.020354,-0.11689,0.121834,0.172732,-0.145257,-0.056727,-0.004175,-0.093273,-0.070787,-0.11908,-0.092492,0.169606,-0.059468,-0.0189,0.215344,-0.045377,0.141527,0.103764,0.10256,-0.119195,-0.107407,0.178762,-0.012845,0.096059,0.066423,-0.152993,0.278834,0.108902,0.080133,-0.102612,0.118701,-0.099756,0.025776,0.245356],[0.107904,-0.132485,0.098407,0.014246,-0.044311,0.001613,0.007681,0.021671,-0.127227,0.008424,-0.047101,0.098862,0.096077,0.124694,-0.041564,-0.070167,0.066302,-0.025135,0.027193,0.036284,0.14714,0.018647,0.052703,0.022137,0.072884,-0.020008,-0.039576,0.13289,0.103162,0.131659,-0.03519,0.096099,0.096128,0.169062,0.059378,0.055002,-0.117764,-0.046137,0.030761,0.106822,-0.075127,-0.007203,0.034597,0.029161,0.17987,-0.126004,-0.007234,-0.070279,0.129731,-0.098779,-0.002682,-0.020073,-0.093502,-0.083947,0.101411,0.050338,-0.08872,0.077273,-0.105662,-0.073241,0.09562,-0.039431,-0.139217,-0.031371],[0.059825,-0.109889,0.005653,0.059889,-0.03871,-0.08672,0.001727,0.022946,-0.13709,-0.126208,0.102211,-0.0743,0.077886,0.026108,0.054135,-0.037432,0.137084,0.107656,-0.017718,-0.121431,0.174565,0.086838,0.065059,0.081999,-0.024905,-0.002048,-0.080977,0.062588,0.13074,0.087969,0.083134,0.095156,-0.09422,0.075592,0.084929,-0.057639,-0.007479,-0.118484,-0.086854,-0.035945,0.068114,0.041664,-0.020786,0.078837,0.134989,-0.00998,-0.021361,0.010619,0.070237,0.031683,0.090818,0.128197,0.035487,0.099531,-0.015088,0.048861,-0.076027,0.13465,-0.028834,0.110558,0.149704,0.028776,0.081517,-0.091263],[0.062759,0.066703,0.129115,0.1026,0.119677,-0.21897,0.048854,-0.112021,0.038971,-0.066282,-0.102616,0.033129,0.058317,0.132992,0.118819,-0.001642,0.160633,0.007736,0.058566,0.096858,0.222491,0.065797,-0.068369,0.042306,-0.106818,0.058778,-0.078285,0.119953,-0.060849,-0.023162,0.017066,-0.098005,0.112754,-0.031636,-0.000961,0.099672,-0.038593,-0.054466,-0.024897,0.113398,-0.005053,0.012663,0.035981,0.116701,0.11648,0.041552,0.139333,0.042314,-0.011362,0.023399,-0.017127,0.043958,-0.101898,-0.077149,-0.036358,0.087826,-0.157724,0.167323,-0.073032,-0.046132,0.046546,0.076645,0.144579,-0.141454],[0.203889,-0.090382,-0.015471,-0.024222,-0.083339,-0.033661,-0.132306,0.070213,0.092377,0.022263,0.107404,-0.02873,0.110944,0.171761,0.08643,-0.139206,0.118324,0.172637,-0.097563,-0.079534,-0.037548,0.049118,0.109863,0.105159,-0.09855,0.11259,0.12289,0.001823,0.02303,0.103094,-0.07787,0.05672,-0.018217,0.009817,-0.071397,-0.025067,0.07238,0.074886,-0.155113,-0.09776,-0.12072,-0.084124,-0.123733,-0.124941,0.004707,-0.05313,0.141994,-0.023094,-0.019071,0.089217,-0.134749,0.129603,0.031091,-0.045228,-0.101572,0.062389,-0.03827,-0.038987,0.088243,-0.080907,-0.025933,0.001163,-0.015011,-0.054868],[-0.01449,-0.165484,0.045387,-0.142894,0.067601,0.231547,0.123041,-0.011728,-0.062771,0.037524,0.190218,0.126832,0.033148,0.092375,-0.109259,0.062258,-0.257523,-0.032273,0.062373,-0.079019,-0.171828,0.011945,0.174516,-0.029764,0.004666,-0.146564,0.020671,-0.12514,0.011471,0.137749,-0.206618,-0.080894,-0.076614,0.126401,0.025728,0.185932,-0.158347,-0.057806,0.103162,0.009761,-0.007377,0.009335,-0.093942,-0.068641,0.202599,-0.051955,0.038193,-0.020083,0.135421,-0.049286,0.021561,0.037874,0.029984,-0.12221,-0.10473,-0.159863,0.132511,-0.043211,0.05197,-0.066446,-0.170207,0.047353,-0.160965,0.01155],[0.194163,0.038808,-0.070002,-0.049802,-0.105921,0.181145,-0.072244,-0.102634,0.068992,0.090139,0.217738,-0.066524,0.169396,0.129254,-0.065851,-0.086326,0.051686,-0.028825,-0.065198,-0.050739,-0.014727,-0.032467,0.087156,0.045999,-0.044992,0.043718,0.206085,-0.086084,0.193813,0.156811,0.127386,-0.096064,0.105453,0.198888,-0.059944,-0.019796,-0.07739,-0.104069,-0.151366,-0.12559,-0.077737,0.070454,0.094812,-0.154405,0.124851,-0.048776,0.1204,-0.056384,0.018236,0.115012,0.101164,0.017151,-0.088079,0.09458,-0.11923,0.061398,0.210469,0.104854,0.002206,-0.131923,-0.009946,-0.032217,-0.088075,0.125026],[0.09006,0.020951,0.106443,-0.119377,0.057114,0.109206,0.0785,-0.023633,-0.088419,-0.016578,0.096661,-0.053056,0.100556,-0.043119,-0.118155,0.102734,-0.052922,0.021828,0.007485,0.002663,0.106879,0.117678,0.110401,0.045272,0.084018,0.031799,0.02592,-0.011208,0.090122,0.05301,-0.096104,-0.046156,-0.017692,0.105397,-0.006923,-0.067317,0.008131,0.086653,0.035572,-0.079548,-0.079672,0.03941,-0.077049,-0.069775,-0.029469,-0.101362,0.088056,0.114493,-0.018161,0.004871,-0.044173,-0.017172,0.008346,-0.060293,0.00126,-0.088713,0.121751,-0.076233,-0.038025,0.019065,0.038184,0.026493,0.07085,-0.038697],[0.192032,0.088793,-0.157437,0.098304,0.069336,0.145404,-0.140788,-0.065763,-0.072565,0.093809,0.162859,0.129283,0.207023,0.099571,-0.056574,-0.053118,0.184749,0.017624,0.253031,0.058705,0.193547,0.147152,0.095053,0.11738,0.010967,-0.103339,0.029661,0.013385,0.084286,0.05289,0.213665,0.013245,0.135556,-0.032227,-0.127612,0.014414,0.067393,0.079217,0.149242,0.024588,-0.019005,0.147108,-0.020849,0.094728,0.100629,0.035438,0.158382,-0.089424,0.247516,-0.029915,0.112672,0.12857,-0.046223,-0.115975,-0.021196,-0.038299,0.131431,0.257903,-0.09187,-0.039266,0.18645,0.032751,-0.170365,-0.135601],[-0.226691,0.04265,0.148076,0.077868,0.02547,-0.384538,0.202357,0.119071,-0.069994,0.100349,-0.164549,-0.038496,-0.083264,-0.194577,0.070263,0.016557,-0.151413,-0.054822,0.012175,-0.118059,-0.072175,-0.156341,0.02988,0.03354,-0.090515,0.180719,-0.260454,0.039099,-0.005148,-0.581375,-0.005203,-0.087387,-0.46874,-0.023045,0.122395,0.058718,-0.019711,0.036271,0.069131,0.164001,-0.072958,-0.439353,0.054438,0.118431,-0.074617,0.050717,-0.199136,-0.096723,-0.038459,0.022064,-0.088064,-0.165301,-0.09272,-0.088069,-0.034774,0.086305,-0.312845,-0.010671,0.017139,0.164544,-0.12103,0.022964,-0.123087,-0.334677],[-0.232872,0.002764,-0.042202,0.100423,-0.17676,0.359701,0.128946,0.185659,-0.102628,-0.044876,0.186887,-0.122686,-0.196772,-0.176398,0.126437,-0.122094,-0.024609,-0.172106,-0.115425,0.056219,-0.376308,-0.040679,0.117494,-0.119075,0.093656,-0.005771,-0.039879,-0.076975,0.032683,0.040012,-0.168731,-0.107313,-0.225423,0.007563,0.054274,0.062791,-0.007294,-0.040408,-0.072256,-0.002246,0.071324,0.068382,-0.112882,-0.135729,0.040557,-0.136218,-0.172451,-0.103543,-0.040457,-0.043652,0.008334,-0.305697,0.077694,0.017701,-0.096866,-0.172807,0.200548,-0.201441,-0.023213,0.024807,-0.194692,-0.078534,-0.263347,0.140831],[0.115601,-0.070465,-0.225574,-0.067365,-0.107889,-0.007941,-0.24079,-0.125767,0.068033,0.006105,0.042983,-0.002998,0.06437,0.261196,-0.144885,-0.051455,0.196544,0.133231,0.049462,-0.017144,0.237711,0.163111,0.159023,-0.08603,-0.05202,-0.03903,0.1227,-0.159884,0.038511,0.182331,0.104307,-0.030332,-0.008484,0.198278,-0.046326,-0.022396,0.078352,0.049914,0.058237,-0.070075,0.054625,0.169165,-0.063433,0.002157,0.25702,0.023317,0.19202,-0.046335,0.22004,0.042859,0.061648,0.144707,-0.058339,-0.023105,-0.112483,-0.03438,0.210133,0.110887,-0.054198,0.034731,0.099391,-0.099253,0.153826,0.096736],[-0.233286,-0.132942,0.119771,-0.089131,-0.048465,-0.084884,0.161937,0.013515,0.038595,-0.021242,-0.196753,-0.202368,-0.082142,-0.201939,0.097507,-0.074499,0.034113,-0.11841,0.111421,0.049146,-0.260469,-0.198556,-0.005449,-0.015795,-0.016752,0.087413,-0.130633,0.16081,-0.183479,-0.17549,-0.043384,-0.071433,-0.24999,0.023875,0.147383,-0.078751,0.022975,0.013798,0.028946,0.016385,-0.060121,-0.223942,0.048352,-0.034026,-0.15919,-0.007376,-0.081649,-0.042417,-0.211573,0.062418,0.056892,-0.034992,0.044606,-0.120591,-0.072979,0.018349,-0.124617,-0.154291,-0.096861,0.055155,0.001824,-0.082755,0.161591,-0.064933],[0.134077,0.005092,0.105643,-0.054961,0.091907,-0.04677,-0.04504,0.098702,-0.122565,-0.0092,0.121578,-0.02295,-0.020838,0.049943,-0.045747,0.057471,-0.133052,0.047739,-0.066994,0.045827,-0.037188,0.085715,0.147894,-0.138916,0.050759,-0.002908,-0.041567,0.051031,0.020189,0.105953,0.034939,0.072325,-0.103588,-0.050772,-0.059828,-0.07208,-0.108056,0.010025,0.040144,-0.069481,0.073334,0.075119,0.104217,-0.088446,-0.088567,-0.097747,0.138246,-0.013696,0.08705,0.009187,-0.098224,-0.023,-0.095799,0.032189,-0.049221,0.057646,-0.025042,0.12327,-0.029857,-0.028756,-0.065141,0.008764,-0.014285,0.140475],[0.068038,-0.024093,0.018261,-0.021835,-0.136898,0.048436,-0.125287,-0.165089,0.100881,-0.083923,0.077361,0.072759,0.109163,0.014184,-0.109476,0.038949,0.084171,0.093689,0.167199,0.119378,0.070066,0.202014,0.102873,0.024009,0.06707,0.017986,0.081561,-0.038231,0.142762,0.081916,-0.045547,-0.066886,-0.053786,-0.085608,-0.150296,-0.249219,0.078205,-0.03597,-0.152442,-0.23242,-0.08887,0.015001,-0.079449,0.082181,0.069123,-0.03615,-0.025428,-0.016238,-0.037894,0.024846,0.062084,0.143001,-0.117865,0.111859,0.094231,0.079523,0.005064,0.085682,0.076485,0.033382,0.18793,0.102736,0.065372,0.032239],[-0.134411,0.05302,0.018785,-0.077459,0.039087,0.122912,0.170487,0.104705,-0.021673,0.050852,0.070044,0.212705,-0.214409,-0.050244,0.01959,-0.079491,-0.215843,-0.055312,0.03876,-0.008573,-0.14941,-0.248807,0.039606,-0.112023,-0.047852,0.137187,0.050844,-0.084984,-0.000772,-0.008056,-0.079999,0.040139,-0.175035,0.119495,0.045471,0.187296,0.096569,0.081525,0.153587,-0.120344,-0.12327,-0.09179,-0.093265,-0.092811,-0.231158,-0.204135,-0.087921,0.114879,-0.140655,0.033887,-0.090382,-0.294677,0.075949,0.018588,-0.132885,-0.10729,0.000105,-0.078367,-0.074627,0.115409,-0.328029,0.201615,0.077527,0.061181],[-0.302578,-0.096644,-0.095734,-0.075892,0.140732,-0.255457,0.002171,0.126294,-0.151106,0.049695,-0.258148,-0.413685,-0.168061,-0.061811,0.089488,-0.018305,0.03081,-0.318085,0.258082,0.065935,-0.08822,-0.115644,-0.305367,-0.00717,0.058007,0.217908,-0.258632,0.273343,-0.210256,-0.142859,0.288224,0.093491,-0.123429,-0.21417,0.131032,-0.12431,0.231012,-0.002589,0.049734,-0.236459,-0.002061,-0.27293,-0.000716,0.240212,-0.24586,0.309889,-0.09541,0.043887,-0.182227,0.113102,-0.01201,-0.19802,-0.045107,-0.038576,0.115751,0.211024,-0.274186,-0.236574,0.004251,0.192235,0.271155,-0.087391,0.321407,0.031098],[0.062724,-0.02749,0.115035,-0.123977,0.05427,-0.078266,-0.034116,0.012422,0.077096,-0.091795,-0.094825,-0.071207,0.012987,0.108529,-0.055221,0.079677,-0.037385,0.060141,0.089157,-0.003159,0.141897,0.014402,-0.069857,0.093635,0.09239,0.015744,-0.115346,0.113052,-0.093685,0.008163,0.002257,0.062236,0.017093,-0.067507,0.094778,0.052464,-0.036044,-0.11427,0.085293,0.009255,0.116949,-0.023927,-0.120349,0.029386,-0.080016,-0.100247,0.056985,-0.006829,-0.051387,0.062974,-0.021986,0.040206,0.112036,-0.060365,-0.107181,-0.001913,-0.10236,0.075667,0.098956,0.06201,0.073534,-0.038557,-0.026995,0.122322]],"biases":[0.17404,0.073489,-0.054556,-0.127429,0.090854,0.069868,0.104798,0.025738,-0.067209,-0.04534,0.129888,0.129879,0.186303,0.152066,0.087799,-0.136116,0.123228,0.196407,0.04973,-0.120216,0.038579,-0.014286,0.154593,-0.057123,-0.106654,-0.02863,0.112883,-0.10037,0.053925,-0.024217,-0.036728,-0.094209,0.140889,0.143315,-0.114549,0.017259,0.073167,0.081726,-0.059243,-0.001944,0.032843,0.103184,-0.063886,0.074139,0.144357,0.050469,0.177509,-0.025733,0.15397,-0.040941,-0.091565,0.111684,-0.072413,-0.081239,-0.103852,-0.032231,0.108582,0.189178,0.030731,0.064805,0.013072,-0.0664,0.027827,-0.104238]},{"weights":[[0.213587,0.124748,0.148027,0.167822],[-0.061425,0.102242,-0.014217,-0.096235],[-0.110911,0.090789,0.324167,0.20676],[-0.072052,-0.047902,-0.094079,-0.003988],[0.192116,-0.08453,-0.12811,-0.092333],[-0.033834,0.059443,0.236318,0.306764],[-0.274196,0.076233,0.061383,0.039599],[-0.049853,-0.159404,-0.051345,-0.063871],[0.017512,-0.114756,-0.077568,0.07222],[-0.054762,0.094464,-0.021169,-0.079288],[0.069026,0.042159,0.145443,0.138095],[0.238924,-0.053533,0.090509,0.072207],[0.128603,0.127121,0.139265,0.034579],[0.092616,0.218512,0.18263,0.067057],[-0.144871,-0.062944,-0.191898,-0.191854],[-0.103678,-0.094221,-0.101534,-0.024223],[0.023647,0.19997,0.032951,0.157752],[0.215331,0.121521,0.133558,0.258223],[-0.165568,0.135286,-0.100773,-0.047186],[-0.001832,-0.124927,0.088526,-0.001655],[0.158027,0.215092,0.07141,0.136562],[0.166188,0.155141,0.077467,0.203462],[0.129146,0.039987,0.168385,0.156666],[-0.109064,-0.121267,-0.101928,-0.054395],[0.001359,-0.04908,0.017898,-0.065382],[0.072125,-0.096457,-0.111329,-0.008581],[0.160867,0.130926,0.232793,0.187012],[0.10631,0.053962,-0.298241,-0.069657],[0.196226,0.066082,0.194753,0.065982],[-0.028884,0.215636,0.214605,0.170601],[-0.056761,0.165252,-0.028227,-0.107675],[0.094293,-0.078954,-0.00526,-0.058164],[0.035018,0.228547,0.131586,0.031944],[0.163229,-0.041676,0.206663,0.102491],[-0.078865,-0.131138,-0.10181,-0.122476],[0.14745,-0.148044,-0.064096,0.066194],[-0.012877,0.153037,-0.245127,-0.016195],[0.06618,0.088769,0.02022,0.114571],[0.074802,0.060564,0.013441,0.013006],[-0.167869,-0.090872,-0.190024,-0.061277],[-0.005006,0.042228,-0.043656,-0.105274],[-0.069186,0.181327,0.182143,0.255118],[0.096694,0.02038,0.035106,0.100151],[0.04495,0.138984,-0.119612,0.146559],[0.077841,0.099343,0.134266,0.178674],[0.015273,0.179373,-0.137084,0.063142],[0.165943,0.114797,0.1682,0.102761],[0.071566,-0.086001,-0.027727,-0.075971],[0.116911,0.060142,0.063556,0.20143],[0.067273,0.095337,-0.099827,0.005915],[0.049128,0.170484,0.0981,0.068059],[0.21694,0.236333,0.156176,0.056568],[-0.039913,-0.035401,0.101838,0.034222],[0.028862,-0.096737,-0.0191,-0.09017],[-0.011956,-0.028675,0.075169,-0.093178],[-0.068568,0.044547,-0.28478,0.150033],[0.021042,0.121333,0.195401,0.266972],[0.039185,0.217705,0.098526,0.082483],[-0.09998,-0.020491,-0.004031,0.10998],[-0.035572,-0.05731,-0.118814,-0.04254],[0.134561,0.324541,-0.034378,0.048919],[-0.104689,-0.022438,0.085433,0.120172],[0.346045,-0.130562,0.243273,0.378208],[-0.00723,0.192781,0.290014,0.18735]],"biases":[-0.010748,0.015812,0.067986,-0.01067]}]},"round":14,"phase":5,"phaseIteration":1,"trained":"pilot","generation":11,"dominanceMetric":"pilotWinRate","dominanceThreshold":0.6,"dominanceReached":false,"pilotWinRate":0.0,"enemyWinRate":1.0,"averageScore":200.0,"averageWave":1.0,"averageSteps":41.0,"enemyDropRate":0.0,"invalidDropRate":0.0,"enemyFireRate":1.0,"pilotFireRate":0.5122}
