{"id":469,"label":"Pilot v469","role":"pilot","model":"sb3-dqn-pilot-v469","actions":["left","right","fire","stay","up","down"],"features":["target_dx","abs_target_dx","threat_dx","threat_y","bullet_ready","alien_count","wave","drop_ready","enemy_shot_ready","fleet_y","lives","danger_shot_dx","danger_shot_y","danger_shot_lane","pilot_bullet_dx","pilot_bullet_y","bee_count","gunship_count","boss_count","ship_y","target_dy","enemy_ship_dx","enemy_ship_y","enemy_ship_role","enemy_ship_fire_ready","enemy_ship_bullet_lane","enemy_ship_bottom"],"network":{"activation":"relu","layers":[{"weights":[[0.019179,-0.427946,0.264819,-0.104704,-0.08426,-0.120036,-0.082901,-0.169282,-0.140325,0.461578,-0.190314,0.129234,-0.012604,-0.140042,-0.15508,-0.054216,-0.346925,0.022683,-0.085755,0.099329,-0.004835,-0.106707,1.618237,0.46286,0.945376,0.088502,-0.528292,0.52871,0.207265,0.648055,-0.018486,2.192051,-0.091472,-0.365965,0.165265,0.064483,0.153881,0.131822,-0.462262,0.286231,-0.038591,-0.578221,-0.025411,0.040943,0.087382,0.388601,0.029722,-0.032566,-0.187285,0.533671,0.791881,0.057494,0.232625,-0.803974,-0.062581,0.359008,-0.433102,-0.06964,-0.450719,-0.257923,0.151556,-0.030511,0.339829,0.432661],[-0.485908,-0.08561,0.142643,-0.010959,0.244593,-0.467115,-0.367204,-0.073303,-0.311865,-0.772014,-0.202814,0.216999,-0.021911,0.048568,0.412994,0.318999,-0.118513,-0.638391,-0.317594,-0.02257,-0.13006,0.164608,-2.295102,-0.20088,-0.865838,0.138742,-0.632618,-0.855128,-1.085245,0.423844,-0.146497,0.60562,0.001721,-0.34045,-0.180121,0.007812,-0.207796,0.000642,-1.919046,0.01862,-0.408617,0.017627,-0.005273,-0.356563,-0.117537,0.529427,-0.534732,-0.079456,-0.589383,0.472197,0.17445,-0.849949,0.065868,0.675387,-0.28913,0.30641,-0.45373,0.090934,-0.490379,-0.80993,-0.156442,0.124682,-0.215893,-1.179376],[0.003444,-0.076837,0.072052,-0.106557,-0.083096,0.055439,0.238752,-0.039675,0.162684,-0.415041,0.011954,-0.107341,-0.10159,0.045574,-0.274203,-0.034957,-0.198345,-0.450315,0.69983,-0.062159,0.279128,0.348243,0.12113,-0.0269,-0.054498,0.047328,-0.03496,0.116801,0.101914,0.156408,-0.076754,-0.009711,-0.711266,0.249211,-0.118874,0.067963,-0.210078,-0.145048,-0.038173,0.996319,-0.020843,-0.243579,-0.03708,0.032532,0.101545,-0.00172,0.201351,-0.030748,0.832672,-0.21805,0.591013,0.079517,-0.19272,-0.089506,0.073145,-0.036965,0.09542,-0.132025,-0.052919,0.766708,-0.042303,0.069172,0.037842,0.118016],[0.112273,-0.272027,0.234469,-0.154327,-0.052897,0.192515,0.037993,-0.054006,0.121075,0.149896,0.00625,0.562139,-0.030527,-0.029449,-0.01517,-0.808816,-0.065806,-0.045304,-0.202477,0.051789,0.083089,0.235808,-0.002075,0.026736,-0.249881,-0.092218,-0.234022,0.401879,0.259185,-0.573138,-0.049961,0.101955,-0.053149,0.261077,0.247876,-0.150645,0.223053,-0.188235,0.035521,0.255149,-0.088027,0.041421,-2.668968,-0.159866,0.083681,0.737079,0.023987,0.056335,0.700111,0.230352,-0.420057,-0.307198,0.243062,-0.177254,-0.118155,0.299716,0.260365,-0.092745,0.311878,0.333236,0.018326,0.168138,0.076178,0.145058],[-0.096686,0.135013,0.059133,0.036805,0.027948,0.075355,0.040517,0.026887,-0.009103,0.080372,-0.09783,-0.053151,0.072436,-0.127337,0.056597,0.048678,-0.000229,0.012481,-0.156725,-0.044326,-0.048214,-0.04311,0.055795,0.363473,-0.007744,0.092786,0.2411,-0.570815,-0.556098,-0.125022,0.067832,0.164874,-0.00214,0.038016,-0.054314,-0.058108,0.098368,-0.118692,0.203787,0.380721,-0.046125,0.096859,-0.007132,-0.03396,0.092483,0.023832,0.006365,-0.013845,-0.004271,0.11324,-0.326957,0.029689,0.020998,0.121585,-0.087521,-0.082577,-0.461729,0.083971,-0.18304,-0.111648,-0.155839,0.029368,-0.01116,-0.086013],[0.299409,0.427025,0.58791,-0.140177,0.308697,0.510013,0.522052,-0.068464,0.335146,-0.25518,0.543283,-0.044143,-0.0802,-0.192762,-0.560965,0.217051,-0.719147,-0.593343,0.418178,-0.052437,0.246077,0.520609,0.584684,0.021205,-0.346648,0.065473,0.396352,0.017164,0.467953,-0.409444,0.122873,-0.378475,0.677586,0.724731,-0.536775,-0.175807,-0.28406,-0.145567,-0.060853,-0.143407,0.384064,-0.788539,0.547216,-0.158716,-0.046241,-0.41453,0.47677,0.634255,-0.019949,0.305342,0.223108,-0.131225,0.694894,0.250288,0.107615,0.002554,0.312008,-0.228159,0.403622,-0.781445,-0.097413,0.082093,0.68851,0.618713],[0.289173,-0.469407,0.409864,-0.08436,-0.455251,0.411737,0.122968,0.184158,0.332531,-0.168307,0.233252,0.373794,-0.060251,-0.080321,0.097126,0.709088,-0.025047,0.161552,0.180966,0.088439,0.313345,-0.353743,-0.334177,0.314097,0.356449,0.108217,-0.054748,-0.350833,0.177846,-0.205615,-0.209289,0.078119,0.25419,-0.014439,0.384563,-0.209188,0.231123,-0.046399,0.655275,-0.202194,-0.37283,0.125305,0.638247,0.322385,0.110898,-0.127715,-0.088818,0.407643,0.400178,-0.324663,0.334623,0.096278,0.094133,0.238664,-0.220542,0.220265,-0.136674,0.071746,-0.076371,-0.037738,-0.137982,0.10603,-0.134083,0.154873],[0.263419,0.179588,0.065555,-0.032248,0.091774,-0.054577,0.261654,-0.18801,0.084522,0.354342,0.137513,0.037325,0.012547,-0.101137,0.377781,-0.408085,0.358392,0.419968,-0.049987,-0.070689,0.204422,0.162559,0.014024,0.166214,0.05993,0.079181,-0.126961,0.172848,-0.202743,-0.090918,-0.000276,0.089079,-0.040823,0.027381,0.183074,0.029233,0.156668,-0.156361,0.137556,0.279184,0.251715,0.069846,-0.045251,0.127526,-0.086643,-0.016687,0.034227,-0.049634,-0.302542,0.027628,0.117378,-0.018854,-0.005843,-0.392271,-0.181923,0.203638,0.004635,-0.231067,-0.080963,-0.045951,-0.196583,-0.023588,-0.145707,0.091603],[0.199395,0.121115,-0.094952,-0.186066,0.141602,0.102149,0.332224,0.010166,0.029688,0.099154,0.235757,-0.067185,-0.167241,0.053754,0.149965,-0.173438,0.341835,0.437908,0.02962,-0.216107,-0.044319,0.142041,-0.03104,0.204365,-0.178585,0.167615,0.011551,-0.121279,-0.087031,-0.093687,-0.196405,0.397267,0.031629,0.125791,0.180848,-0.196078,0.150956,-0.082223,0.234473,-0.013029,-0.028698,0.162542,0.104328,0.209009,-0.199448,0.1423,0.097132,-0.146595,-0.182295,0.023958,0.057339,-0.218479,-0.164093,-0.305875,0.047314,0.19919,0.099621,-0.064315,0.119726,0.134528,0.015018,-0.184822,0.03167,0.002146],[-0.718132,0.344641,-0.750417,-0.163728,-0.610846,-0.651598,-0.574753,0.105414,-0.592387,0.912785,-0.422981,0.186118,-0.105757,-0.008349,-0.338717,-0.399647,0.553234,0.633575,-0.588879,-0.181531,-0.629396,-0.558106,-0.106753,-0.355263,-0.139254,0.288464,-0.285617,-0.435438,-0.386571,0.821167,-0.076012,-0.253895,0.021925,0.065041,1.034001,-0.177832,0.924635,-0.175497,-0.4825,-0.34968,-0.157992,1.084875,-0.435958,-0.782177,-0.17792,1.036078,0.133351,-0.969157,-0.015376,-0.550725,0.568849,0.02113,-0.622107,-0.39885,0.041043,-0.79745,-0.16377,-0.040941,-0.29441,0.113774,-0.1197,-0.08012,-0.030576,-0.390208],[-0.025598,-0.00991,0.147444,-0.210212,0.433608,-0.004022,0.063255,-0.03954,0.091279,-0.446652,0.231026,-0.124205,-0.140058,-0.071122,0.270205,0.482344,-0.10206,-0.10926,0.096159,0.060637,0.067799,0.017833,0.281606,-0.313855,0.029438,-0.021364,0.310601,0.028811,-0.210462,0.049034,-0.000244,0.043143,-0.068905,0.110675,-0.68981,0.140334,-0.016227,-0.139334,-0.130405,-0.281299,0.283594,0.024244,-0.541794,0.284111,0.010582,-0.512987,-0.135202,0.595965,0.028042,0.455115,-0.676135,0.048377,0.6511,-0.509308,0.006146,0.231224,-0.150468,-0.071839,0.338887,-0.159088,0.038692,-0.203876,0.073417,0.043347],[0.009881,0.205873,0.070751,0.118689,-0.176877,0.228356,0.049798,-0.018799,-0.072351,-0.146276,0.188589,-0.139168,-0.032101,-0.094714,-0.12586,-0.026754,0.103223,-0.197579,0.381555,-0.148272,0.130872,0.342504,0.157047,0.007783,0.866578,-0.056078,0.262758,-0.127095,0.061546,0.309213,0.054316,-0.115243,-0.368495,0.049723,0.052962,-0.107687,0.235963,0.099929,-0.089188,0.503614,0.012749,-0.376685,0.150856,0.040944,-0.150958,-0.448698,0.296615,0.04895,0.173501,-0.209201,0.364059,0.160681,-0.115948,0.21098,-0.12606,-0.071555,0.11834,0.052507,-0.134032,0.917129,0.087705,-0.049237,0.079715,-0.108777],[-0.102997,-0.198232,-0.084526,-0.163374,-0.596097,-0.175418,-0.30037,-0.117491,0.120558,-0.133504,0.023849,0.4823,-0.164533,0.07203,0.120164,-0.885029,0.217424,0.30165,-0.280181,-0.096334,-0.145271,-0.707253,0.080768,0.092136,0.153881,-0.023563,-0.297216,-0.228158,-0.044741,0.227864,0.104597,0.085274,0.328645,0.154659,0.214211,0.068758,-0.101822,-0.113999,0.066739,-0.527667,-0.225201,-0.354906,-2.560215,-0.115894,-0.183804,-0.116141,-0.347603,-0.077509,0.28778,0.085298,-0.00059,-0.150117,0.195065,-0.311627,-0.000111,0.088306,0.164975,0.069463,0.197272,0.110143,0.021499,-0.129292,-0.258668,0.128951],[-0.306169,0.048932,0.195343,0.039937,0.478015,0.157585,-0.210749,0.130579,0.220187,0.428536,0.200688,0.22282,-0.056204,-0.16098,0.286744,-1.306364,0.731319,0.173398,-0.828615,0.162979,0.104801,-0.735292,-0.254667,-0.404906,-0.561293,-0.187153,-1.365363,0.280639,-0.590238,0.209608,-0.11794,0.044803,-0.187269,-0.224216,-0.093603,-0.002584,0.322643,-0.168353,-0.134521,0.042676,0.089019,0.07417,0.167483,-0.564454,0.045197,0.329342,-0.540325,-0.15172,-0.148064,0.570551,-1.041045,-0.111604,0.328805,0.064474,0.105194,-0.127841,0.08871,0.06167,0.31913,-0.508156,0.131677,0.188156,-0.270846,-0.221279],[0.151985,-0.129524,0.121399,-0.060113,0.045039,0.015144,0.022807,-0.075905,0.202396,-0.239696,-0.243789,-0.034969,-0.007322,-0.085549,-0.099027,-0.449148,-0.192143,0.048934,0.020123,-0.045319,-0.033244,0.082671,0.037936,-0.319276,0.099874,-0.368231,-0.496199,-0.201745,-0.374754,-0.023786,0.166554,0.025536,-0.197142,0.011459,0.07675,-0.070324,0.472693,-0.046381,0.159947,0.372524,-0.015504,-0.120661,0.053186,-0.007712,-0.081809,0.194487,0.121671,-0.045081,0.004149,0.298233,0.130983,1.44936,0.126455,-0.436067,0.010204,0.151566,0.319865,0.129213,0.057166,0.173576,-0.004749,-0.165094,0.043695,-0.104243],[0.08532,0.158124,-0.121585,0.131758,0.214597,-0.590227,0.226629,-0.038679,0.059451,-0.350408,-0.192195,-0.263446,0.188923,0.071507,-2.970892,0.169777,0.693894,0.007314,-0.28373,-0.022652,-0.635887,-0.123776,-0.684527,-1.345126,-0.142196,-6.857126,-0.042107,2.410744,1.240346,0.366441,0.009229,0.799758,0.468728,-0.176242,0.115992,0.090396,0.226029,0.175583,-1.147706,-0.029834,-0.543102,-0.088408,-0.217913,-0.624256,-0.109467,-0.484849,0.485156,-0.003376,-0.062169,0.339243,-0.576714,-2.012084,-0.129033,-0.464438,0.000966,0.374886,-0.063325,0.084844,-0.326874,-0.222811,0.15465,0.120054,0.105222,-0.527671],[0.283663,0.849839,0.488225,0.154129,0.329729,0.451494,0.264528,0.012363,0.421674,0.107719,0.471069,-0.247703,0.092543,-0.058834,-0.595181,0.202975,-0.762923,-0.529962,-0.016421,-0.074039,0.389252,0.581491,0.622796,0.360523,-0.32671,0.107391,0.279752,0.223106,0.420725,-0.35043,-0.167236,-0.692335,0.763644,0.898622,-0.531466,-0.073022,-0.205085,0.123291,-0.400294,-0.168108,0.853141,-0.745867,0.433907,-0.204771,0.013479,-0.241101,0.771741,0.077209,-0.152738,0.513662,0.345828,-0.050749,0.614498,0.125342,-0.040554,0.107975,0.651536,-0.111146,0.839974,-0.653077,-0.199271,0.087987,0.529287,0.70494],[0.575856,-0.492658,0.626818,-0.017191,0.333158,0.171221,0.258044,0.159322,0.372396,-0.815956,0.059912,0.650965,0.031253,-0.102587,-0.160111,0.785421,-0.790052,-0.432717,0.665104,-0.189922,0.311442,0.005763,0.270425,-0.232946,0.149534,0.08433,0.144039,-0.021256,0.581387,-0.568293,-0.027952,-0.228486,0.511882,0.106709,-0.069821,-0.178162,-0.400741,-0.165901,0.900744,-0.199263,-0.320984,-0.657846,1.073837,0.127623,-0.195108,-0.759138,0.097056,1.478225,0.049743,-0.160938,-0.836423,0.10167,0.557557,0.089529,-0.045313,0.609782,0.195033,0.033464,0.406128,-0.686232,-0.090773,0.003628,0.575513,0.440208],[1.278801,-3.238219,0.507165,0.144216,-0.497241,0.480083,0.553957,0.007269,1.086262,-1.844447,0.424304,1.280545,-0.091663,0.018802,0.318933,2.816138,0.614687,-0.473764,1.317163,-0.019141,1.160945,-2.70741,-0.37934,0.399994,0.640885,-0.26477,-0.253309,0.584427,0.480839,-0.84949,0.189148,0.324823,0.050498,-0.883859,0.982324,0.164008,-1.013247,-0.002875,3.306153,-0.726709,-2.269274,0.16591,0.269678,4.319127,-0.2083,-1.542161,-1.428011,3.151603,0.76469,-1.17248,-0.128303,-0.603627,0.128229,-0.276373,-0.203882,1.831076,0.028675,0.090807,-0.794573,-0.291306,0.166571,-0.141396,-1.982836,0.302662],[0.238593,-0.203848,-0.166419,-0.065313,0.00546,0.110124,0.123425,-0.08659,0.025798,0.03729,-0.103373,0.176002,0.061725,-0.145916,0.364262,-0.182675,-0.001659,0.115283,-0.0271,0.108309,0.229389,-0.266875,0.040139,-0.004853,-0.171339,0.060632,-0.11725,-0.137829,0.19626,-0.019012,-0.19122,0.31738,0.098312,-0.291461,0.274036,-0.042203,-0.228124,-0.190088,0.191802,0.013784,-0.274693,0.342729,0.155734,0.199844,-0.072263,-0.049619,-0.12163,0.103576,-0.245841,-0.350465,-0.005375,0.140634,-0.343103,-0.394023,-0.179258,0.386005,-0.339241,-0.15654,-0.099045,-0.011022,-0.138953,-0.156058,0.003592,-0.176189],[-0.276905,0.767769,-0.165985,-0.157953,0.110756,0.064507,-0.099274,0.052614,-0.425911,-0.03611,0.165393,-0.619238,-0.165851,0.100704,-0.647275,-0.19179,-0.003545,-0.816959,-0.235765,0.048111,0.043483,0.034651,-0.099025,-0.441935,0.004913,0.142429,-0.040855,0.292687,-0.040464,0.410969,0.048347,-0.207312,0.08801,0.331467,0.294603,0.141344,0.236412,-0.126527,-0.12292,-0.433188,-0.314684,0.065214,0.229708,-0.712504,0.118982,0.012326,0.164092,-0.092712,0.200779,0.433935,0.031758,-0.045245,0.340386,0.115838,0.162546,-0.303098,-0.007027,0.106002,0.03367,0.086945,0.20871,0.181336,-0.196656,0.081167],[-0.024374,-0.305373,0.349376,-0.074656,0.069172,-0.416999,-0.091945,0.199546,0.057983,0.476975,0.051144,0.160566,-0.071347,0.089081,0.06998,-0.193235,-0.320564,0.089086,0.054359,0.12057,-0.124544,-0.085114,1.504218,0.419144,1.08433,0.170719,-0.41648,0.688289,0.066507,0.709699,-0.079292,2.166994,0.027509,-0.379004,0.098181,-0.007519,0.170378,-0.187541,-0.551621,0.383607,-0.106951,-0.642619,0.196903,-0.122317,-0.062436,0.399868,0.305975,0.123676,-0.45848,0.479174,0.696865,0.297308,0.006759,-0.709913,0.04695,0.21054,-0.362176,0.120933,-0.546854,-0.13842,0.081384,0.072345,0.128217,0.382785],[0.091506,0.180972,0.163434,-0.184723,0.303519,0.181759,0.145761,-0.052127,0.046408,0.086352,-0.075764,-0.659058,-0.148304,-0.014081,-0.00296,-0.446737,0.032731,-0.478165,-0.258932,-0.213184,0.036635,-0.212648,-0.014629,-0.003518,0.025775,0.051138,-0.259436,-0.037164,-0.0157,0.308999,-0.196021,0.008197,-0.037922,0.089394,0.485934,0.13415,-0.242376,0.088797,0.228352,-0.055738,-0.434982,0.276738,-0.055742,0.140139,0.17056,0.163949,-0.039274,-0.145203,-0.117246,0.211273,0.165101,-0.083459,-0.123764,-0.257704,-0.078752,-0.185611,-0.612009,-0.021383,-7.9e-05,-0.115582,-0.188778,-0.142546,-1.00882,-0.034274],[0.192411,-0.09592,0.088492,0.100505,-0.149787,-0.026495,0.044352,-0.235079,0.206475,0.17625,0.057976,0.299537,0.13341,-0.173597,0.009229,0.466694,0.091209,-0.096614,0.041205,-0.167067,0.161209,-0.450798,0.020745,-0.128219,-0.586009,0.084447,-0.349415,0.058569,-0.601339,0.370853,-0.097448,-0.18009,-0.654696,-0.07418,0.260285,0.127028,-0.451072,0.020931,-0.056951,-0.41223,-0.115696,0.177116,0.302301,-1.61142,-0.1649,0.139874,-0.242222,-0.144686,-0.05711,0.503176,-0.182305,0.057356,0.195982,0.271348,0.068028,0.092373,0.420071,0.071284,-0.715354,-0.333262,0.073498,0.114758,0.186043,0.29025],[0.011366,0.175334,-0.001145,0.099232,0.064129,0.164768,0.088549,-0.032937,-0.072955,0.197421,0.202899,-0.033937,-0.090078,-0.027383,0.035169,0.221519,-0.40532,-0.081394,-0.189522,-0.004129,0.060946,-0.209141,-0.035624,-0.232735,0.257891,-0.050699,0.027614,0.053198,0.287721,0.026036,-0.110335,-0.194895,-0.299481,-0.168732,0.05447,-0.06273,-0.014586,0.085266,0.073763,0.024318,0.03277,0.115632,0.0007,-0.382133,-0.120002,0.034963,-0.04478,-0.057877,-0.04585,0.134588,-0.413239,0.002991,0.019227,0.097535,0.085236,0.012788,0.30746,0.019977,-0.12682,0.17297,0.048283,-0.142784,0.021249,0.025529],[0.134001,-0.047734,0.077155,-0.028333,0.042631,0.01444,0.17442,0.177495,0.201104,-0.124967,0.238607,-0.030746,-0.180396,-0.083869,0.020049,-0.034262,-0.122222,-0.008396,0.012541,-0.045023,-0.061091,-0.054137,-0.154708,-0.192935,0.25805,-0.083457,0.73347,0.330282,0.369612,0.365556,-0.169651,-0.117378,-0.17881,-0.008017,-0.207079,0.122728,0.57658,-0.108244,0.013285,-0.081483,0.105895,0.082595,-0.022223,-0.156268,-0.096766,0.231154,-0.355146,-0.013308,-0.072565,-0.022081,-0.348541,-0.246324,0.071211,-0.223864,-0.176361,-0.163379,0.08128,-0.169197,0.046871,0.036507,-0.069619,-0.169333,-0.083182,-0.152135],[-0.191126,-0.108204,0.103959,0.107145,0.033008,-0.058422,0.159724,-0.148223,-0.067655,0.22516,0.036614,-0.537441,0.028637,-0.196277,0.089349,-0.239321,-0.039615,-0.312764,-0.237518,-0.009191,0.190802,-0.356636,-0.075005,0.158993,-0.060417,0.060686,-0.284913,0.033496,-0.109205,0.304174,0.002832,0.137449,0.142148,-0.241479,0.340389,-0.201376,-0.173247,-0.033249,0.112895,-0.248852,-0.387514,0.137619,0.084072,-0.011874,-0.127394,0.193777,-0.177657,-0.081647,0.049305,-0.096276,0.25232,-0.022211,-0.272987,-0.448033,0.070406,0.030964,-0.261825,0.076028,0.180372,-0.124423,-0.054716,-0.146917,-0.738784,0.136131]],"biases":[0.102668,-0.134261,0.060344,-0.163036,-0.016901,0.070248,0.164453,-0.005503,0.158256,0.384669,0.206285,-0.122753,-0.180096,-0.086728,0.277568,-0.276667,0.413195,0.057779,-0.013724,-0.204915,0.238222,-0.193638,-0.027484,0.357344,-0.012942,-0.020462,-0.121247,-0.095469,-0.089461,-0.003492,0.085668,0.152561,0.261352,-0.139252,0.169306,-0.056858,0.074317,-0.102807,0.15779,0.273561,-0.035116,0.374813,-0.140929,-0.01471,0.034147,0.241605,-0.126228,-0.260681,-0.341986,0.191952,-0.157681,0.081022,-0.305664,-0.223953,-0.237933,0.151219,-0.056364,-0.138619,-0.074267,0.155826,0.137215,-0.096378,-0.112922,-0.015251]},{"weights":[[-0.056675,-0.301246,0.177474,-0.128021,0.111783,0.043303,-0.045401,0.296886,0.408415,0.032412,0.619864,0.202483,-0.630229,0.180203,0.237919,-0.093612,-0.043092,0.220405,0.459865,-0.23988,0.23868,0.254372,-0.153025,0.128379,0.056401,0.18908,0.031657,0.011521,0.415998,0.357392,0.257831,0.047825,-0.334268,0.104234,0.080787,0.164873,0.151575,-0.043583,-0.001755,-0.285458,-0.066844,0.209681,-0.488641,0.352229,0.506137,0.070066,0.087925,0.40733,0.47502,-0.029665,0.12177,0.402608,0.000709,-0.029975,0.056189,-0.017054,0.127277,-0.097382,0.264185,0.041359,0.015432,0.517484,0.252674,0.306978],[0.401417,0.260213,-0.54738,0.497923,0.121677,-0.043934,-0.0123,0.138433,0.107141,-0.602612,0.16167,-1.013729,0.261568,0.154898,0.028232,0.018017,0.332627,-0.068648,-0.121667,-0.76712,-0.968706,-0.457136,0.073886,0.515508,0.586431,0.133764,-0.170064,-0.023152,-0.757793,-0.193831,-0.012693,-0.033195,0.638639,-0.137016,-0.062183,-0.13017,0.12129,-0.003087,-0.256627,0.340243,0.062653,-0.425518,0.750169,-0.025028,0.230651,-0.015046,0.336407,0.008513,-0.004858,0.671675,-0.244926,-0.678189,-0.180758,-0.059799,-0.036283,0.176437,-0.039817,0.140337,-0.125866,0.105263,-0.114558,0.097333,0.136584,0.201378],[0.193655,0.164154,0.023023,0.09448,0.04838,-0.049328,0.050199,0.324061,0.209416,0.217933,0.334478,0.273708,0.075681,-0.05105,0.265333,0.092814,-0.036438,0.020661,0.396984,0.516216,0.109235,0.39569,0.190009,0.172847,0.079806,0.346844,0.146127,0.031822,0.376577,0.266605,0.153157,-0.023698,-0.946948,0.028402,-0.138033,0.165303,0.03225,-0.129971,-0.043588,-0.005227,0.285403,0.237234,0.088584,0.291578,0.267959,0.006939,-0.154751,0.329807,0.266692,-0.354635,0.199216,0.170478,-0.098799,0.128898,0.023646,-0.27519,0.126729,0.094791,0.207088,-0.091831,-0.014334,0.172624,0.356862,0.088517],[-0.077931,0.029825,0.05335,0.043379,-0.001632,-0.016655,-0.10973,-0.007131,0.038167,-0.007183,-0.043713,0.113237,0.073088,-0.102663,-0.094438,0.009261,-0.002136,0.118654,-0.034248,-0.044933,-0.02439,-0.10919,-0.006132,-0.02039,0.067173,0.043825,-0.086286,0.081504,-0.101206,0.005496,0.003318,-0.090429,-0.025855,0.02405,-0.052864,0.004752,-0.089644,-0.025478,0.103266,-0.05078,0.120486,-0.02237,-0.129323,-0.001172,0.113925,-0.001869,0.000815,-0.024108,0.049867,0.022158,0.049037,-0.041997,-0.111323,0.038678,0.050991,-0.06706,0.096201,0.038891,0.092621,-0.037934,-0.086058,-0.025778,-0.036131,0.025611],[-0.093203,0.102201,-0.057126,-0.200072,-0.259076,-0.030895,-0.150737,0.089388,0.370592,-0.503612,0.191921,0.466877,0.005065,0.048022,0.011457,0.0863,0.046352,-0.101026,0.17669,0.075912,0.036465,0.266984,0.121112,-0.14365,0.144194,-0.23631,-0.050637,0.019772,0.295581,0.314006,0.475692,0.070504,-1.193005,-0.238256,-0.169532,0.106932,-0.08548,0.069707,0.004102,-0.648991,-0.13787,-0.071385,-0.044267,0.233886,0.120669,-0.054768,-0.170125,0.166221,0.273218,0.064538,-0.195213,0.084048,-0.086445,0.257397,-0.087603,-0.414599,-0.056846,0.27689,0.219159,-0.031853,0.061863,0.229591,0.023948,0.241996],[0.149205,0.190432,-0.003651,0.174028,0.144806,-0.091565,-0.118912,0.355733,0.147022,-0.192904,0.123351,0.12056,0.242547,-0.216576,0.361796,-0.081299,-0.08636,0.34179,0.177262,-0.31259,0.109383,0.11335,-0.230456,0.000807,0.189526,0.299331,-0.049739,-0.013599,0.263472,0.175836,0.159069,-0.094599,-0.201092,0.002241,-0.130776,0.198079,0.20709,-0.016696,0.078167,0.095284,-0.012916,0.25056,0.249134,0.384375,0.231685,-0.148482,-0.146305,0.275269,0.213728,-0.0282,-0.178995,0.116933,-0.119969,0.036306,-0.042137,0.223273,0.117854,0.115253,0.215492,-0.06483,-0.034735,0.194688,0.195796,0.264601],[0.061082,0.173208,0.208163,0.052563,0.088978,-0.024581,-0.118437,0.167549,0.444132,-0.050365,0.48974,-0.089534,0.117467,0.146699,0.22049,-0.055442,0.002837,0.293689,0.413018,-0.180418,-0.001354,0.058803,-0.002771,-0.14211,-0.078191,-0.00844,0.249696,-0.108969,0.103196,0.415506,0.343546,-0.125801,-0.212726,0.017472,0.039891,0.09556,0.290085,0.023029,-0.050921,0.024911,0.012719,0.117564,-0.058096,0.331313,0.400255,-0.013479,-0.16134,0.35553,0.444955,-0.219909,-0.093963,0.023741,-0.137427,-0.082451,-0.072171,-0.06701,0.089152,0.315757,0.338468,-0.025084,-0.075545,0.363574,0.164857,0.233141],[0.021947,0.141806,0.089963,-0.091201,0.080987,-0.111962,0.040971,0.076458,0.017746,0.000566,0.059918,0.024544,0.123208,0.197622,0.047212,-0.105977,-0.078442,0.096043,0.113482,0.096617,-0.006626,0.015857,-0.038876,-0.041672,-0.03905,-0.044395,-0.080922,0.047472,0.063907,0.02665,-0.12233,0.013933,-0.071455,-0.029938,-0.095906,-0.070331,0.07542,0.116619,0.041904,-0.088837,0.055924,0.080604,-0.120089,0.095096,0.158828,-0.102867,-0.017203,0.011209,-0.038045,-0.016107,-0.054005,-0.040923,-0.050067,0.130995,-0.030578,0.130268,0.023517,-0.071559,0.100397,0.010767,-0.07817,0.070582,-0.082031,0.057826],[0.056506,-0.228325,0.11834,-0.199507,0.068876,-0.086867,-0.098791,0.230555,0.151704,0.159125,0.265659,0.359835,-0.671709,0.062774,0.27723,-0.05109,-0.135011,0.106963,0.349953,-0.168113,0.338211,0.191529,-0.108499,0.445029,0.075195,0.115213,0.039559,0.014469,0.503306,0.279768,0.296614,-0.060893,-0.178192,0.145117,-0.064617,0.019759,0.002237,-0.046074,0.249893,-0.013132,-0.104133,0.277289,-0.153125,0.388027,0.18428,-0.052266,-0.238342,0.203165,0.349559,0.085155,0.085247,0.194361,-0.051663,0.045453,-0.074679,-0.166128,0.174751,-0.071961,0.244627,-0.1112,-0.049507,0.385847,0.200887,0.2012],[0.074689,-0.411211,0.223762,0.033666,-0.011467,-0.082717,0.017368,-0.00672,0.128698,0.434041,-0.191587,0.022303,0.587865,-0.176973,0.011325,-0.102986,0.005792,-0.168172,-0.142736,0.237129,-0.529662,-1.606766,0.316711,0.344905,-0.190681,-0.237688,0.222485,-0.06662,-0.555794,0.022689,-0.243395,-0.124455,0.723759,-0.493089,-0.140777,-0.297469,-0.235922,-0.098871,-0.126702,0.232851,-0.001527,-1.407858,0.536072,-0.062717,0.081266,-0.126206,0.036688,-0.128027,-0.158505,0.142139,0.439749,0.126836,-0.063011,-0.085815,-0.00171,0.185904,-0.647825,-0.281364,0.079864,0.069724,-0.106407,0.060277,-0.364845,-0.092135],[0.144555,0.268848,0.037681,-0.04689,0.040012,0.092012,-0.164538,0.24995,0.128556,-0.11902,0.379221,-0.013619,0.21048,-0.079619,0.28335,0.058646,0.089612,0.122059,0.159376,0.016598,-0.163839,0.041291,-0.047928,0.213829,0.160236,0.213381,0.235955,-0.144334,0.225185,0.312122,0.244653,0.072573,-0.164989,-0.119535,0.012494,0.051303,0.013552,-0.137384,0.133928,0.012681,-0.067236,0.181296,0.145645,0.225286,0.226605,-0.014428,0.054583,0.227426,0.235623,0.212179,-0.218449,0.012588,-0.171656,0.068031,-0.111834,-0.023478,0.129317,0.136583,0.233355,-0.080497,-0.01009,0.35707,0.170747,0.163589],[0.280755,-0.185606,0.296103,-0.848372,-0.563775,-0.044497,-0.01066,-0.2351,-0.245641,-0.267986,-0.341615,-0.045241,-0.134672,0.048888,-0.069838,-0.094212,0.227471,-1.194,-0.282976,0.423257,-0.075073,-0.046498,0.292058,0.881204,-0.778272,0.140237,0.082639,-0.087081,0.402871,-0.151539,-0.067582,-0.021809,0.051291,0.154039,0.03617,0.383905,-2.143826,-0.015805,0.238986,0.42666,0.01747,-0.32207,-0.063746,-0.065566,-0.264949,-0.061523,0.510394,-0.299797,-0.359475,-1.559847,0.345804,0.251992,-0.022107,0.910077,0.06435,-0.090972,-0.280872,-1.673427,-0.17268,0.000687,0.015839,-0.291185,-0.413809,-0.403563],[0.027645,0.04938,0.092704,0.016558,0.109446,-0.000738,-0.080216,0.003253,-0.018606,-0.122521,-0.090393,0.035967,-0.124886,-0.079631,-0.117584,-0.063002,0.001953,0.032871,-0.083653,0.078852,0.016964,0.083742,0.044367,-0.004689,-0.122422,-0.043106,0.122642,0.051388,-0.007172,0.026097,0.018862,0.028097,0.049333,-0.11881,-0.060756,0.018004,0.014883,-0.087893,0.108907,0.013835,0.030537,0.112086,-0.090033,0.098982,0.004929,-0.002142,-0.121738,-0.107098,-0.032227,-0.115553,0.092701,-0.11144,0.103592,-0.033492,-0.091658,0.041997,-0.033325,-0.116185,-0.036216,-0.014865,-0.080763,-0.092663,0.115361,0.091379],[-0.05847,0.006457,0.018478,-0.112851,0.146148,-0.0667,-0.077327,0.044997,-0.014381,0.101882,0.01902,0.080182,0.091821,0.052886,0.069306,-0.03696,-0.064548,0.073081,0.123643,-0.076675,0.038352,0.124753,-0.108111,-0.017098,0.107824,0.062552,0.072182,0.082412,0.109063,-0.078354,-0.002813,-0.016545,-0.036186,0.098757,-0.098044,0.008935,0.085733,-0.101555,-0.017267,-0.020762,-0.123822,-0.023965,-0.090267,-0.040122,-0.028435,-0.04688,-0.001871,-0.047971,0.04155,-0.102171,-0.046178,-0.014475,0.007839,-0.113957,0.000635,0.117958,0.003007,-0.046882,0.096639,-0.09249,0.114746,0.148707,-0.056196,-0.049552],[-0.279108,0.479066,0.303037,-0.373035,0.207791,-0.061978,-0.017261,0.172031,0.066487,-0.111148,0.149534,0.363312,-0.29966,-1.268679,0.297662,-0.156216,0.137188,-0.229976,0.02024,0.335855,-0.090909,-0.307053,0.238961,-0.238609,0.096371,-0.178304,0.089768,-0.123065,0.37751,0.068202,-0.081216,0.087155,-0.107229,-0.106775,-0.045061,-0.059361,-0.377395,0.016551,0.013098,-0.302827,0.094829,-0.520866,-0.315059,0.308424,0.196732,0.048484,0.478203,-0.130541,0.155959,-0.685893,0.095777,0.611676,-0.163958,-0.526745,0.012488,0.148271,-0.630507,0.112008,0.256108,-0.13901,-0.142124,0.293368,-0.009705,0.112425],[0.458481,1.299054,-1.050071,-0.436781,-0.599617,-0.01921,-0.053987,-0.825084,-0.995791,0.002928,-1.163127,-1.111227,1.935912,0.397642,-0.843611,0.069601,-1.419926,-0.964113,-1.108163,-1.156296,-0.472578,-0.287135,0.073529,0.943221,-0.597655,-1.833323,-0.832127,0.038568,0.160187,-1.160084,-1.086953,0.050551,-2.102769,0.851913,-0.03262,-0.170156,-0.512693,-0.10306,-0.928086,-0.329798,1.049388,0.160205,-2.068437,-1.014883,-1.1027,0.051722,-0.086882,-1.389947,-1.219042,0.383075,-0.372199,-0.33977,-0.036902,-1.056304,0.069225,0.891354,0.006872,-0.890618,-1.193487,0.01176,0.022586,-1.204132,-0.723721,-0.823034],[-0.007026,0.375087,0.09701,-0.570568,-0.15265,0.067189,-0.022753,0.078089,0.069721,-0.665431,0.073606,0.06741,0.022136,0.514465,0.101894,-0.059058,-0.085311,-0.246911,-0.096892,-0.954237,-0.306718,-1.138449,-0.393497,-0.056206,-0.417129,0.119028,0.339675,-0.12215,-0.001373,-0.049639,0.118488,-0.121556,0.291364,-0.133067,-0.06708,-0.088281,-0.032169,-0.070722,0.412143,-0.111304,0.112263,-1.030145,-0.023902,-0.119219,0.049267,-0.180491,0.445359,-0.063792,0.054985,-0.035899,-0.394018,0.176366,-0.051528,-0.050184,-0.06091,0.495374,0.211245,-0.068418,-0.096595,-0.053624,0.099924,0.111394,0.017827,0.189723],[-0.210704,-0.033181,0.197438,-1.128088,-0.654641,-0.125441,-0.045602,-0.525592,-0.355926,-0.151169,-0.17689,0.311743,-1.020789,0.442374,-0.195883,0.075542,0.505118,-1.990975,-0.150125,-0.263429,-0.090681,-1.493585,-0.116168,0.265897,-1.03742,0.046855,0.515597,-0.111022,0.355516,0.039373,0.063756,-0.113701,0.584435,0.459267,0.069408,0.241864,-0.775939,0.093896,0.402025,-0.090928,-0.379678,-2.050868,0.046663,-0.323017,-0.567453,-0.008276,0.628763,-0.50016,-0.013111,-0.116947,0.172919,0.344165,-0.143878,0.100646,-0.099017,0.211236,0.461701,-0.374868,-0.31538,-0.110066,-0.113204,-0.372718,0.108373,-0.556299],[-0.162314,0.515647,-0.081622,0.052838,0.206302,-0.00595,0.029419,0.336331,0.608018,-0.087752,0.590321,0.212018,0.78778,0.032069,0.416583,-0.068341,-0.271177,0.426925,0.582299,-0.289835,0.420582,0.263558,-0.027688,-1.21079,0.440286,0.202128,0.190327,-0.12799,0.354477,0.479905,0.309816,-0.070649,-1.126364,0.189589,-0.177275,0.044884,0.173259,0.093429,-0.202087,-0.965754,0.328165,0.495929,-1.603933,0.346902,0.371837,-0.161924,-1.582028,0.338703,0.620572,-0.527642,-0.16776,-0.050346,-0.126392,0.027361,-0.063995,-0.058909,0.013658,0.387802,0.49239,-0.056398,-0.027468,0.560223,0.29836,0.402049],[-0.011442,-0.028954,0.021354,-0.110161,0.12772,-0.027309,-0.047155,0.055193,-0.058563,0.032908,-0.070514,-0.029374,-0.020531,0.055842,0.017045,0.075732,-0.062118,0.107793,0.014043,0.039056,0.095002,-0.065355,-0.110294,-0.090792,-0.024662,-0.118231,0.008095,0.033329,0.109131,0.041481,-0.076997,0.030552,0.040884,-0.071202,0.091451,-0.050348,-0.092425,-0.009399,0.012131,0.017551,0.02094,0.097504,0.111555,-0.121464,-0.044591,-0.007382,0.201726,0.091633,-0.047724,0.010343,-0.03845,-0.083192,-0.09768,0.071214,-0.112222,0.15482,-0.063063,0.00481,0.025214,-0.085423,-0.049222,-0.013763,-0.071227,-0.081563],[0.115428,0.237,0.279968,-0.011591,0.179624,-0.013975,0.040556,0.332048,0.331237,0.056444,0.268395,0.184263,0.182517,-0.143066,0.277307,-0.123224,-0.009014,0.375199,0.338452,0.061737,0.186226,0.049136,0.114989,0.082464,0.090858,0.18185,0.24667,0.07878,0.192178,0.225035,0.281391,-0.067253,-0.261152,-0.028204,-0.167462,0.052359,0.045117,-0.102464,0.213371,0.033327,0.003339,0.167596,-0.098124,0.22479,0.359831,0.018883,-0.141982,0.108061,0.179005,0.041072,-0.064528,0.232368,-0.166183,0.114909,-0.047479,0.239652,-0.028223,0.284248,0.142987,-0.135048,-0.066105,0.435471,0.216718,0.272582],[-0.019477,0.100595,-0.670316,0.539384,-0.044039,-0.107006,-0.065989,0.142311,0.54581,0.114002,0.345195,0.326997,0.383047,0.118187,-0.029935,-0.041488,0.34923,0.669299,0.335785,-0.028798,-0.338946,0.210179,-0.020553,-1.549536,0.616858,-0.996957,0.179568,-0.008405,-0.394917,0.486566,0.288943,-0.095172,-0.667062,-0.023396,-0.136927,0.071188,0.352565,-0.12363,-0.079147,-1.40298,0.3303,-0.847256,-1.367661,0.175198,0.434873,-0.062312,0.45645,0.328528,0.506706,0.210938,0.299878,-0.723518,-0.118775,0.573415,0.062339,-0.284413,-0.387595,0.216977,0.165179,-0.107278,-0.069669,0.512464,0.082195,0.222831],[-0.42442,-1.856493,-0.690733,-0.085153,0.045277,-0.020133,0.065974,0.071817,0.314309,0.474624,0.091907,-0.013109,-0.355086,-0.303455,0.137343,0.116267,-0.463006,-0.005276,0.29042,-0.000946,0.184891,0.203069,-0.06049,-0.231196,0.349215,0.406101,-0.525702,0.074879,0.219344,-0.113719,-0.419064,-0.106864,0.021494,-0.381065,-0.042174,0.12668,-0.064762,-0.135617,-0.683555,0.310687,-0.237254,0.858086,0.106077,0.384032,0.346498,-0.021186,-0.41513,0.115379,0.161487,0.339115,0.044969,0.219503,-0.155357,-0.016829,-0.036216,0.236465,-0.873292,-0.579234,0.139755,0.002907,-0.065864,0.29383,-0.239411,0.211678],[0.151818,0.025325,0.120141,0.045224,0.327045,-0.139576,-0.058922,0.093389,0.216728,0.289667,0.232425,0.213914,-0.364563,-0.520785,0.306266,0.097736,0.084058,-0.006776,0.362423,0.098402,0.001646,-0.159818,0.152281,-0.220535,-0.031134,0.193809,0.426404,0.100872,0.180812,0.382514,-0.164996,-0.035474,0.364304,0.008928,0.019538,-0.096535,0.001609,-0.050793,-0.005071,0.342664,0.04037,-0.201257,-0.148218,0.489868,0.386689,0.06722,0.014222,0.35767,0.178243,0.058789,0.043892,0.229499,0.05759,-0.249831,0.048606,0.240484,-0.481449,0.025185,0.290318,-0.06077,0.081904,0.295274,0.018121,0.024885],[-0.263022,-1.338764,-0.309908,0.226751,-0.195242,0.015894,-0.075469,-0.376456,-0.067827,0.449385,0.004375,-0.385632,0.521992,-0.202712,-0.593762,-0.004748,-0.24279,-0.038116,-0.231538,0.42317,0.067284,-1.985774,0.050685,-0.4723,-0.662048,0.175602,0.623795,-0.100525,-0.327718,-0.188282,0.007756,0.082002,-0.761985,-0.233117,-0.031446,0.3995,-0.981873,-0.053823,0.132249,-0.278866,0.11661,-2.491478,-0.555713,-0.260959,-0.154068,-0.026249,0.710275,-0.007336,-0.137858,-0.090011,0.296428,-0.485903,0.078367,0.212704,-0.030846,0.366028,0.028903,0.126189,-0.202242,0.054558,0.082657,-0.051757,-0.186669,-0.229089],[-0.290527,-0.184722,0.115236,0.910097,-0.109062,0.053046,-0.193154,-0.357715,-0.467309,0.142274,-0.2232,-0.45969,0.319647,1.136625,-0.274785,-0.124314,0.257476,-0.681182,-0.380833,-0.044997,-0.043021,-0.080343,-0.451226,-0.113393,-0.274542,-0.080296,-0.211323,0.078406,-0.401224,-0.425245,-0.187851,-0.132476,0.190811,0.40336,0.037273,-3.81574,-1.890973,-0.04848,-0.295064,-0.025882,0.362151,0.296241,-0.198952,-0.179567,-0.103014,0.025454,-0.389739,-0.429957,-0.317922,-0.126941,0.506317,-1.200584,0.029306,0.595428,0.095885,-0.306841,0.307609,0.047266,-0.370952,-0.095719,-0.065278,-0.309991,-0.182893,0.007154],[-0.295228,-0.237299,-0.734457,0.194704,0.01091,0.049043,0.004482,-0.021799,0.206612,-0.263866,0.26526,0.006952,1.171431,-0.303461,0.215647,0.029336,-0.092164,0.126141,0.141181,-0.655692,0.112078,0.352943,-0.36642,-1.217685,0.435326,-0.174512,-0.384406,0.071361,0.359011,0.214623,-0.100834,0.011866,-0.229904,0.081476,-0.139559,-0.308986,0.224474,-0.132179,-0.253082,-0.019883,-0.733045,0.343941,-0.945583,0.331499,0.321929,-0.053619,-0.576362,0.105041,0.265045,-0.042271,-0.384519,-0.437392,-0.038654,-0.165224,-0.052665,-0.564745,-0.193636,0.027324,0.173562,-0.024437,0.08805,0.38634,0.107816,-0.060889],[0.877139,-1.14061,0.790632,1.645227,-0.286339,0.013107,0.098563,-0.091383,-0.263939,-0.202685,-0.040993,0.747639,-0.145268,0.295117,-0.290813,-0.01028,0.392582,-0.764336,0.000215,0.15747,0.154594,0.575977,-2.100158,0.362796,0.570832,0.023639,0.710136,0.018482,0.653189,0.030274,0.337931,-0.106691,-0.540643,-0.930852,0.075072,-0.458515,-0.507414,0.01846,0.655708,0.33698,-1.896407,0.402566,0.610103,-0.109826,-0.194582,-0.011065,0.186386,0.116485,-0.058113,-1.308071,0.533911,0.809494,-0.139997,0.524436,-0.029071,-0.881643,0.287237,0.242349,-0.129747,-0.055704,0.013853,-0.083783,-0.052966,0.101665],[0.65413,-0.593894,0.087241,0.171112,-0.204017,0.027684,0.082121,-0.05682,0.412343,0.196223,0.402115,-0.195973,0.136482,0.823646,0.017482,-0.127276,-0.425574,0.465921,0.379759,-0.323622,0.719602,0.262856,-0.615376,-0.599639,0.095167,0.264082,-0.095563,-0.108506,0.239139,0.302855,0.475368,-0.12112,-0.433407,-0.013549,-0.072432,0.214978,0.257411,-0.145277,-0.401646,0.366962,-1.25606,0.378029,0.384236,0.131699,0.042881,-0.060729,0.176786,0.375117,0.468826,-0.446096,0.011493,0.685179,-0.035392,0.024768,-0.108898,-0.24698,0.751313,0.292367,0.080222,-0.098935,-0.138715,0.381063,0.079387,0.076207],[0.097706,-0.316481,0.360369,-0.285351,-0.158523,-0.117261,0.026233,-0.515377,-0.18604,0.414134,-0.040404,-0.473606,0.109223,0.470661,-0.564207,-0.038282,0.040965,-0.347309,-0.60974,0.614167,-0.027733,-1.785977,0.479971,0.066623,-0.571739,-1.196576,0.470904,-0.017658,-0.634426,-0.247299,0.028334,-0.099285,0.503258,0.08006,0.066216,0.091993,-0.223294,-0.144108,0.499986,0.058793,-0.14106,-1.384326,0.617281,-0.339481,-0.294226,-0.040254,-0.106881,-0.38945,-0.409631,0.186183,0.246532,-0.62961,-0.021532,0.358945,-0.115253,0.166326,0.477785,-0.045925,-0.512095,-0.04267,-0.016619,-0.213016,-0.080987,-0.385307],[-0.047616,0.139112,0.08806,0.092427,-0.051191,0.104985,0.008286,0.014074,0.059382,0.096872,0.055996,0.067961,-0.086523,0.099584,-0.112268,-0.078513,0.006293,0.005179,-0.042134,0.113359,0.094999,0.010863,-0.024219,-0.035007,0.024641,0.10987,0.018737,0.113496,-0.091947,-0.093163,-0.051385,-0.086609,0.038516,-0.093748,0.057916,-0.055564,-0.004782,0.112366,-0.046661,0.064802,0.072923,-0.132998,-0.019138,0.052313,-0.012315,0.042031,0.066815,0.057128,0.104122,0.080164,-0.101212,-0.028758,0.025178,0.037246,0.026812,0.025787,0.090244,-0.097601,-0.021592,-0.116095,-0.095145,-0.058705,0.074816,0.114314],[0.456245,-0.861943,0.416929,-0.173024,-0.067933,0.085326,-0.069,0.063674,0.338911,0.93025,0.224834,0.533606,0.322799,0.138273,-0.1618,-0.108155,-0.576807,-0.08456,0.173836,0.972664,0.041897,-0.346426,0.563188,0.116345,-0.519472,0.03126,0.592327,-0.045132,0.488492,0.302465,0.499183,0.035658,-0.14536,-0.82553,-0.155247,-0.042315,-0.49607,0.059823,-0.120905,-0.137213,0.232018,-0.47874,-0.370842,0.019846,-0.147814,-0.117522,-0.027117,0.044959,0.132192,-0.808094,0.765578,0.543711,0.067343,-0.105114,-0.067471,-0.292738,-0.284069,0.036027,-0.02775,0.023627,-0.037859,0.212346,-0.143844,0.053387],[-0.282492,0.037928,-0.013593,-0.409941,0.179896,-0.000147,0.111004,0.112664,0.200461,-0.130971,0.223993,0.05883,0.13237,0.155147,0.435761,-0.050999,-0.060453,-0.028149,0.550055,-0.348617,-1.669683,-0.111501,-0.156663,-0.001708,0.556944,0.235583,-0.160787,-0.054898,-0.394689,0.539844,0.224103,0.003494,-0.057379,0.710428,-0.158255,-0.187631,0.212259,0.03631,0.176159,-0.136386,0.374116,0.259173,0.150811,0.37661,0.025129,-0.109194,0.070607,0.271475,0.276179,-1.164813,0.081791,0.028498,0.077881,-2.168407,-0.0142,0.110058,0.206846,-0.350966,0.315043,-0.080551,-0.039849,0.163852,0.589866,0.008319],[0.016948,-0.121106,-0.580841,0.209019,0.029044,-0.023008,-0.001501,0.220513,-0.005647,-0.319701,0.177121,-0.149732,-0.01233,0.230153,0.204445,0.034872,0.265987,0.179747,0.206457,-0.264138,-0.240029,0.266195,0.023349,0.101428,0.503038,0.497867,-0.326241,-0.109053,0.045729,0.22361,-0.171408,0.020143,0.098164,-0.19511,-0.123338,0.029822,0.255324,-0.085383,-0.398558,0.622796,-0.527241,0.46117,0.34926,0.09863,0.078575,-0.06684,-0.222803,0.291382,0.042712,0.513175,-0.290755,-0.021422,-0.16103,0.22059,0.029282,-0.191058,-0.058574,-0.029207,0.214082,-0.021142,-0.129101,0.102928,0.271354,0.006171],[0.388257,0.194231,0.83202,0.047822,0.076631,-0.080033,-0.140599,-0.058399,-0.147191,0.056156,0.110591,-0.467048,-0.166512,-0.028657,0.188403,0.011652,0.004339,0.055726,-0.150762,0.198591,0.117255,-1.371886,0.083222,-0.077416,-1.700132,-0.126745,0.322792,0.070748,-0.44336,0.079511,-0.238725,-0.148438,0.760657,0.38735,-0.078032,-0.133212,0.055741,-0.049696,0.391072,0.242085,-0.121217,-0.872279,0.603149,0.13369,0.187755,-0.076894,0.428762,-0.14401,-0.237929,0.44549,0.168354,0.157766,-0.086912,-0.05292,-0.061247,0.525119,0.032296,-0.58788,-0.033384,-0.049212,-0.014153,0.029849,0.087764,-0.196031],[-0.00155,0.095717,-0.102703,-0.105368,-0.014477,0.002008,-0.074469,0.098671,-0.100526,-0.092531,-0.119047,0.006885,0.081214,-0.107691,0.119741,0.097099,0.116353,0.001035,0.022923,0.123283,0.1082,0.109861,-0.000744,0.005898,-0.017808,-0.088099,0.099041,0.029809,-0.049181,-0.029446,0.075032,0.019983,0.081158,0.071926,-0.120966,0.002024,-0.144631,-0.089859,0.033981,-0.079348,-0.086726,0.12405,-0.06778,0.09179,0.020962,0.124699,-0.096991,0.061001,0.019291,0.067517,0.088838,-0.091167,0.036279,-0.05899,-0.04354,-0.075509,-0.045149,0.089668,0.102243,-0.053272,0.017017,-0.025467,0.0537,0.029141],[-0.457667,-0.214656,-0.331203,-0.036842,-0.278852,-0.072693,-0.064069,-0.504821,-0.208693,-0.523258,-0.0706,-0.387795,0.077558,0.206223,-0.524699,0.096353,0.51544,-0.220815,-0.388866,0.02466,-0.481974,-0.757013,0.144361,-0.029015,-0.740707,0.039917,0.270226,-0.144,-0.318415,-0.230126,0.034729,-0.073868,0.939721,-0.044313,0.022807,0.568507,0.057064,0.075589,0.360082,0.460767,-0.505269,-1.656293,0.46783,-0.268498,-0.363042,-0.032621,0.549084,-0.327781,-0.098881,0.520249,-0.017924,-1.253801,0.070187,0.385427,0.09027,0.156282,0.205907,0.089873,-0.352574,-0.086908,-0.107493,-0.191572,-0.17928,-0.415582],[-0.060523,0.118183,-0.076908,0.008312,-0.111999,0.122785,0.01247,0.114429,0.031857,0.088775,-0.051371,0.019703,0.02827,-0.017901,0.048465,0.090697,-0.032529,-0.106817,0.062945,0.101579,0.071289,0.054896,-0.008727,0.016864,0.060453,-0.048409,-0.05845,-0.041207,-0.057861,-0.078011,-0.085765,0.065239,0.085281,0.069406,0.095637,0.009753,0.00659,-0.007306,-0.031242,0.093417,0.017361,-0.103803,0.052657,0.018485,-0.090176,0.093006,0.023035,0.030303,0.119417,0.119541,-0.012937,0.01329,0.063849,0.038477,-0.087114,-0.024243,0.002874,0.0695,0.016647,0.01482,-0.1212,-0.090662,0.063303,-0.018532],[-0.424408,-0.297785,0.621971,-0.348182,0.476919,0.036749,-0.041472,0.168259,0.090981,-0.674609,0.235031,0.336974,-0.396214,-0.539451,0.548209,0.115036,0.012518,0.375927,0.254241,-0.850152,0.880548,-0.043848,-0.33289,-0.606464,-0.211505,-0.285467,-0.125558,0.036054,0.682119,0.269982,-0.155722,0.036598,-0.319392,0.5316,-0.012511,0.669381,0.27418,-0.150411,0.241033,-0.184932,-1.081382,-0.043783,-0.206962,0.544221,0.271218,-0.098016,0.196148,-0.017513,0.196739,-0.843884,-0.493003,0.482747,-0.017497,-0.320281,-0.126977,0.381429,0.130335,0.117678,0.380054,0.063003,-0.111427,0.29534,0.300944,0.011746],[0.078178,0.074528,-0.073596,-0.018093,0.05814,-0.069797,-0.059862,0.265217,0.396324,0.362131,0.302861,0.599759,-0.586813,0.113371,0.076803,-0.053976,0.143617,0.470956,0.082987,0.253529,0.137448,-0.496652,0.350989,-0.127551,0.053788,-1.269582,0.414622,-0.131415,0.090729,0.321519,0.36581,-0.044297,0.223873,-0.085246,-0.052103,-0.114303,0.139075,-0.050393,0.256006,0.112513,0.160696,-1.800828,-0.250756,0.317497,0.304525,-0.154769,-0.504582,0.263285,0.287324,-0.097064,0.16261,-0.027788,0.012882,0.020389,-0.105383,0.114329,0.265023,0.516075,0.168232,0.074449,-0.101727,0.278818,0.042163,0.223014],[-0.712552,-0.007469,-0.590209,0.536568,0.165082,-0.087431,-0.031276,0.218847,0.378224,-0.023406,0.48602,0.059774,-0.389598,-0.731206,0.455387,0.022694,-0.05143,0.300997,0.422659,-0.091801,-0.440501,-0.312008,0.107964,0.662455,0.584824,-0.297549,0.076311,-0.076838,-0.148129,0.576333,0.443829,0.044295,0.587736,0.683571,-0.100489,-0.322011,0.29318,-0.128875,0.439555,-0.174213,0.147103,-0.190497,-0.34333,0.378729,0.315926,-0.101334,-0.238248,0.380013,0.384782,0.790215,0.104537,-1.016961,0.065401,0.270276,-0.032123,-0.016148,0.335214,0.581327,0.475212,-0.114239,-0.110627,0.497044,0.359208,0.231297],[0.129298,0.189184,0.533164,-0.870601,-0.084823,-0.025935,-0.065367,-0.382543,-0.12138,-0.532714,-0.035661,-0.217276,-0.047922,0.015228,-0.166986,-0.015714,0.095387,-0.209549,-0.424752,-0.982388,-0.500186,-1.273742,-0.349762,0.1231,-1.280428,-0.718841,0.239795,0.03282,-0.531337,-0.391818,-0.029921,-0.023477,0.399504,0.168936,-0.059629,-0.161329,0.364449,-0.078986,0.450734,-0.217535,0.156323,-1.833303,0.283473,-0.120028,0.0048,0.065761,0.442526,-0.430723,-0.313955,0.113824,-0.119837,0.004546,-0.079507,-0.717917,-0.031233,0.510363,-0.121787,-0.259413,-0.307265,0.095216,-0.036279,-0.045144,-0.430869,-0.227661],[-0.371505,0.370593,0.027751,0.561383,0.425464,-0.078488,-0.106096,0.78512,0.995457,0.686795,0.983369,-0.20061,0.210951,0.002046,0.268241,-0.13808,-1.040281,1.226831,0.745214,0.196034,-0.2386,0.805948,-0.07446,-2.012034,0.639554,-2.844794,0.077524,-0.081874,-0.168758,0.602299,0.756344,-0.087843,-1.058226,0.637406,-0.025082,0.150651,0.052591,-0.072015,-0.283163,-1.532082,0.141914,0.524853,-0.321121,0.564728,0.90107,-0.008336,-0.547317,0.94454,0.869688,-0.744188,-0.028957,-0.384765,-0.146858,0.014921,0.025155,0.251695,0.0925,0.701887,0.654478,0.062031,-0.007018,0.86653,0.520744,0.740938],[0.056563,0.010708,0.490811,-0.030186,0.212485,-0.072401,-0.040068,0.163896,0.183427,0.17673,0.291398,0.750699,0.042306,-0.111209,0.251832,0.051176,-0.127036,0.083739,0.174735,-0.009104,0.125214,0.166879,0.072486,-0.931791,-0.135813,0.205114,0.041976,-0.12434,0.682112,0.440318,0.214031,-0.062519,-1.353684,0.207457,-0.095009,-0.16903,-0.194355,0.104402,0.518664,-0.897131,0.294098,0.024064,-0.721581,0.304015,0.289475,0.00705,-0.502948,0.312607,0.3603,-0.606568,0.176658,0.695377,-0.112883,-0.448853,-0.014782,-0.084053,0.03358,0.334726,0.210915,0.115264,-0.12926,0.381899,0.264174,0.03356],[0.009615,-0.038921,0.087814,-0.089714,-0.084784,0.119898,-0.073781,-0.105235,0.066685,-0.07088,0.001446,0.051334,0.026875,-0.065739,0.10621,0.005245,-0.132542,0.058087,-0.08721,-0.104104,0.034943,0.000753,0.111758,-0.036208,-0.019682,-0.107175,0.102013,-0.03811,-0.08456,-0.082546,0.053813,-0.031113,0.05835,0.06824,-0.020663,-0.023812,-0.050771,0.023016,-0.019195,-0.094942,-0.040803,0.063341,-0.071763,-0.092301,0.068879,-0.070365,0.032057,0.001797,0.041012,0.043522,0.098415,-0.090427,0.001683,0.040982,0.003556,0.120644,0.038139,0.077303,0.140741,0.122272,0.079051,0.109357,-0.030639,0.029061],[-0.108186,-0.064088,0.206095,-0.383649,-0.360561,-0.116299,0.060004,-0.39826,-0.297253,0.068748,-0.471118,0.244416,0.064462,-0.072619,-0.369014,-0.015266,0.263023,-0.829806,-0.576068,0.42669,-0.715684,-2.079386,0.010658,0.494468,-1.592159,-0.505783,0.506331,-0.009673,-0.611142,-0.228518,-0.317432,0.056493,0.966913,-0.244319,-0.090747,0.22123,-0.421024,-0.102508,0.25869,0.403636,-0.026585,-3.724422,0.498907,-0.422712,-0.389441,-0.010053,0.250292,-0.651296,-0.424552,0.942355,0.310157,-0.265433,-0.080968,0.557668,0.086133,0.484591,-0.186241,-1.033838,-0.496611,0.107097,0.091098,-0.383742,-0.439145,-0.434073],[0.423692,0.264736,-0.676652,0.274874,0.178966,0.010529,-0.128721,0.198248,0.078679,-0.156158,0.077324,0.086162,0.106561,0.487851,0.254511,-0.11305,0.197218,0.281558,0.241299,0.025016,-0.220935,-0.026937,0.241153,-0.322083,0.161025,0.090765,-0.078583,-0.063435,0.023321,0.076763,-0.15427,0.099064,0.325766,-0.283065,0.003213,-0.1525,0.108451,-0.083156,-0.542675,0.686318,0.427043,0.174723,0.284634,0.184068,0.160936,-0.16165,-0.375294,0.245521,-0.049484,0.541967,0.008342,0.265102,0.012619,-0.055983,0.025005,0.005931,-0.08388,0.035996,-0.001652,0.051466,0.048368,0.219767,0.222518,0.086049],[0.654725,0.33726,-1.922845,-0.538368,-0.509374,-0.04623,0.013448,-0.554332,-0.644506,-0.115672,-0.783388,-0.198704,1.056491,0.49611,-0.311908,-0.101003,0.138694,-0.621524,-0.463464,0.351167,0.539336,0.88919,0.40601,-0.016332,0.118672,0.682025,-1.952021,-0.089297,0.51685,-0.658738,-0.863953,0.030868,-1.219678,-0.237985,0.070974,-0.205733,-0.420405,0.045811,-0.966661,0.178022,1.047069,0.772763,0.687175,-0.257056,-0.610712,0.018549,0.094484,-0.482968,-0.642519,0.819748,0.272449,0.137548,0.092268,-0.078894,-0.064777,-0.884958,-0.557011,-1.079552,-0.461374,-0.021476,0.082083,-0.637134,-0.646745,-0.568465],[0.101058,0.788792,-0.158604,0.45538,0.732281,-0.013729,-0.068892,0.616317,1.064081,0.723667,1.022174,-2.403231,-0.424626,-0.006605,0.610738,0.156588,0.347299,1.535902,0.885039,-0.622335,-0.735461,-2.532137,-0.222393,0.335759,1.072183,-1.306938,0.236501,0.162334,-0.589398,0.79695,1.044217,0.048186,-1.607678,-0.332211,0.10094,-0.047938,0.667191,-0.048341,-0.408796,0.680631,-1.301988,-0.376117,-0.743046,0.608033,0.84434,-0.118259,-1.787014,0.751683,0.81696,-1.129462,-0.287561,-1.395133,0.05633,-0.03986,0.024008,0.654742,0.528111,0.845392,0.770615,0.046523,0.082387,0.962773,0.38799,0.726274],[0.552783,-0.016898,-0.797724,0.54786,-0.417108,0.097711,0.069264,0.275788,-0.187911,-0.054772,-0.140075,0.148504,-0.273879,-0.541132,0.370058,0.093838,-0.0466,-0.246064,0.166819,0.223303,-0.684449,1.272291,-0.210078,0.433489,1.765524,-0.222225,-0.139752,-0.08088,-0.226459,0.227171,0.243808,-0.123421,-0.584294,-0.479952,-0.007447,-0.384421,0.378834,0.065812,-0.759322,0.094377,0.07817,0.690179,0.532417,0.191254,0.079943,-0.027502,0.228607,0.196978,0.139334,0.179336,0.183917,-0.309597,-0.05664,-1.049052,-0.008281,-0.378643,0.037343,-0.301205,0.110565,-0.085709,0.095999,0.145214,0.426144,0.310674],[0.180714,0.091812,-0.426282,0.035401,0.058261,-0.043253,0.07321,-0.080481,0.020063,-0.097521,-0.063615,-0.423884,0.331045,-0.171083,-0.006402,-0.030747,0.278479,0.462062,0.076095,0.213497,-0.347921,-0.157797,0.289108,-0.244085,-0.410243,-0.612949,0.295413,0.103452,-0.633613,-0.139296,0.075532,0.080522,0.558614,-0.285368,0.065913,0.37816,0.231736,0.041233,-0.058069,0.363657,0.241081,-2.765023,0.377557,0.157234,0.150715,-0.149817,-0.279811,0.045397,-0.169909,0.489094,-0.01666,-0.132032,0.05481,0.196428,-0.016049,0.273643,-0.233196,0.437287,0.047927,-0.107628,-0.066241,0.058969,0.089115,0.123671],[0.084612,0.061761,0.442868,0.174518,-0.121613,0.051455,-0.13806,-0.228244,-0.181496,0.016112,-0.355817,-0.24552,0.483251,0.054495,-0.172407,0.024455,0.062881,-0.76205,0.027951,-0.439894,0.316736,0.191015,-0.046325,0.065928,-1.038624,0.144081,0.522187,-0.158473,0.042805,-0.397946,-0.430033,-0.066336,0.15211,0.073627,-0.083729,-2.017327,-1.993454,-0.095493,0.303183,-0.027424,0.179009,0.242877,0.089523,-0.188941,-0.391127,-0.008549,0.297705,-0.034473,-0.477958,0.199436,-0.011981,0.298572,-0.010587,-0.3767,-0.024247,0.206183,-0.966711,-0.064144,-0.16696,-0.022846,0.033932,-0.270627,-0.147298,-0.230778],[-0.090739,-0.902687,-1.8456,1.261736,0.28612,-0.087308,-0.087291,0.729107,0.337791,0.232181,0.749575,-1.044195,-2.482449,0.535951,0.675583,-0.064575,-0.633287,1.836902,0.56309,0.020478,-0.737787,1.167124,-0.156504,-0.90207,1.669794,0.694579,-1.903981,0.005419,-0.737245,0.787244,0.795754,0.075491,-1.427073,-0.450051,-0.025507,-0.804807,1.292422,0.021514,-1.113932,-1.029219,-0.074583,1.447039,0.054068,0.717248,0.453108,-0.021106,-1.458949,0.914437,0.831335,0.687136,-0.829913,-0.763197,0.00421,0.487708,-0.121923,-0.929701,0.989205,2.11247,0.682473,-0.115882,-0.023812,0.740857,1.053672,0.529961],[0.085549,-0.24445,-1.718277,-0.62119,-0.060318,-0.087266,-0.090212,-0.197255,-0.160645,0.331988,-0.367396,-0.617006,1.540142,-0.941917,-0.064297,-0.024435,-0.430369,-0.445708,-0.174684,-0.006233,-0.626559,0.570228,-0.624496,0.636809,0.266671,0.494433,0.036845,-0.003901,-1.135883,-0.684134,-0.527321,-0.094858,-0.563261,0.306671,-0.043047,-0.076887,-0.991345,-0.10878,-0.182123,-0.827056,0.866456,0.452324,-0.622862,-0.245315,-0.076427,0.038583,-0.973222,-0.47711,-0.768103,-0.588474,0.182357,-1.33338,-0.090666,-0.181681,-0.114219,-0.062187,-0.153535,-1.616015,-0.350236,0.006085,-0.099247,-0.378242,-0.102473,-0.268854],[0.078955,0.05617,0.083352,0.05545,-0.019099,0.012009,-0.040632,-0.10898,0.048702,0.003364,0.078575,-0.056388,-0.032961,-0.105465,-0.008093,0.023752,-0.069393,-0.064241,0.112837,0.065073,0.082385,-0.101191,-0.069319,-0.016943,-0.029961,0.039975,-0.204124,-0.076606,-0.092122,-0.11169,0.035609,0.06344,-0.095438,0.109378,0.028555,-0.018761,-0.124476,0.05905,-0.062133,0.099859,0.05145,-0.005044,-0.034726,-0.107013,-0.057261,-0.017234,-0.021829,-0.118077,-0.003389,-0.066386,-0.077906,0.028777,0.090323,-0.050849,-0.122584,0.109254,0.091801,-0.013283,-0.087118,-0.020014,-0.113434,0.062592,0.017883,0.015405],[0.151695,-0.029666,0.142431,-0.125103,-0.068859,0.084052,0.067304,0.217849,0.247813,0.202371,0.398403,0.187566,-0.281198,0.056636,0.273665,-0.016417,-0.03443,-0.110342,0.27646,0.470415,0.289689,0.018426,-0.087697,0.207288,0.022683,0.169603,0.254943,-0.07606,0.402999,0.318732,0.3231,-0.118823,-0.57992,0.141961,0.03361,-0.043722,-0.2803,-0.024362,0.084295,-0.035896,0.003378,0.216602,-0.243512,0.29078,0.308279,-0.119291,0.238073,0.262887,0.325395,-0.556556,0.271295,0.405291,0.04436,-0.195135,-0.08931,-0.185268,0.172278,0.076501,0.365562,-0.11893,0.066029,0.312476,0.36181,0.142545],[-0.331128,0.331444,-0.07564,0.318521,-0.047459,-0.12246,0.059757,0.107241,0.233184,-0.641837,0.345971,0.006844,-0.70839,0.289268,-0.197052,0.084597,0.224969,0.246076,0.047958,0.217668,0.378048,-0.096883,-0.139852,0.542033,0.257206,0.084079,-0.196843,0.017119,0.145975,-0.113263,0.11425,-0.048097,0.103467,0.010263,-0.115869,0.09934,-0.114663,0.050985,-0.331765,0.186956,-0.600098,0.256339,0.258554,-0.050751,0.309154,-0.069851,0.195032,0.086818,0.207576,-0.165132,0.178759,0.112644,0.009342,0.580497,-0.144143,-0.220427,0.164215,-0.102998,0.148372,0.058388,0.018361,0.319233,-0.181641,0.149352],[0.027873,0.025519,-0.04524,0.027365,0.081878,0.110651,-0.048444,0.017551,0.099512,-0.042348,-0.158557,0.037734,0.031741,-0.041719,-0.000131,-0.029856,0.134316,0.047791,0.085131,-0.100253,0.035083,0.061562,0.058419,0.021991,-0.124583,-0.121942,0.083275,-0.056911,0.010034,0.023094,0.066778,-0.072725,-0.090998,0.115063,-0.064422,0.075586,0.010918,-0.111336,0.042971,0.028864,-0.119758,-0.112244,-0.047301,-0.119423,0.075414,0.075793,0.070944,0.025723,0.0769,0.002707,-0.018861,-0.019051,-0.010664,0.045034,0.120868,-0.02075,0.132341,0.033622,0.047001,0.101156,-0.073296,0.072205,0.072428,0.08377],[-0.638257,0.13252,-0.194549,-0.033993,-0.144672,-0.082652,-0.078939,0.041268,0.315203,-0.04431,0.248773,-0.240524,0.250685,-0.084177,0.076563,-0.139122,0.236981,0.310378,0.161156,-0.69901,-0.649884,0.450652,-0.401731,-0.288078,0.743653,0.201067,-0.593405,0.071319,0.069443,0.279506,0.143903,-0.073924,-0.791331,-0.224351,-0.052207,-0.275285,0.074363,-0.033937,-0.21865,0.028643,0.227778,0.446072,0.043499,0.129227,0.157045,-0.097405,-0.07557,0.091278,0.156604,-0.184265,-0.549165,-0.094296,-0.115102,-0.281391,-0.089455,-0.525682,0.183259,0.235547,0.120529,0.060735,-0.050649,0.184819,0.252049,0.233029],[-0.609094,-0.089222,-0.083618,0.095796,0.274098,-0.045234,-0.136736,0.007093,0.168043,-0.230413,0.097026,0.102063,-0.116942,-0.102414,0.08193,0.041048,0.079949,-0.057289,-0.192891,-0.628546,-0.327121,-2.358283,0.054083,-0.135634,-0.654942,-3.25888,0.496543,0.067491,-0.512835,-0.026923,-0.044145,-0.013336,-0.123293,0.385828,0.083954,-0.083913,-0.110049,0.112828,0.338822,-0.183,-0.171227,-3.260708,-0.309509,0.327205,0.290353,-0.040717,-0.390259,-0.103285,-0.106924,0.199433,-0.156738,-0.521348,-0.137934,-0.338721,-0.025029,0.636079,0.060872,-0.07133,0.059877,0.002385,-0.025314,0.322876,-0.286512,0.114091],[-0.14242,0.10942,0.012144,0.022038,0.010643,0.007565,0.056722,-0.060912,-0.081523,0.003111,0.029062,-0.025401,-0.07285,-0.113768,-0.144906,0.005851,-0.096272,-0.088099,-0.115943,0.081599,0.073389,-0.078322,-0.026104,-0.064174,0.118938,-0.003377,0.039555,-0.072905,-0.002118,0.052272,0.014478,0.056775,-0.016093,-0.065479,-0.024804,-0.077031,-0.064984,0.122091,-0.117377,-0.07019,0.117332,0.043247,0.094621,-0.074488,0.092274,-0.056456,0.102813,-0.099451,-0.024189,0.025915,-0.086223,-0.055518,-0.086573,-0.05885,0.002339,-0.050715,-0.120049,-0.054009,-0.112097,0.013943,-0.081812,0.096861,0.050886,-0.09659],[-0.049175,0.101928,0.07241,-0.120443,0.00376,-0.051226,-0.02469,0.043717,0.115885,-0.009124,-0.025327,-0.02861,0.117674,-0.087639,0.049855,0.106019,-0.009758,-0.021409,0.083226,0.046047,-0.054791,-0.055288,0.024017,0.076649,0.097092,-0.099539,0.093333,-0.112573,0.097106,-0.033006,-0.038001,0.013119,0.019492,0.076324,-0.122728,0.000221,-0.093339,0.110186,-0.021726,-0.114332,-0.110179,-0.00137,-0.006149,-0.011929,0.096466,-0.059995,-0.018498,0.038555,-0.067254,-0.069732,0.005829,0.080796,0.051394,0.035506,0.065572,0.074389,0.013487,-0.092505,-0.031216,0.006429,-0.045998,0.040224,0.003883,-0.023957],[-0.229881,-0.415813,-2.276223,0.40782,0.377159,0.025077,-0.028454,0.32743,0.814735,0.178414,0.516716,-1.132691,-0.853358,0.017489,0.322927,-0.064579,-2.085006,0.615699,0.526661,0.293498,0.208703,0.508294,-1.043554,-1.122301,0.895883,-0.507958,-1.168267,-0.123753,-0.205751,0.278158,0.195967,-0.112525,0.685238,0.347388,0.030851,0.310049,0.619666,0.119447,-1.673237,-0.569814,0.112231,1.092963,-1.609838,0.671102,0.598637,0.044675,-0.930763,0.395189,0.475121,-0.095111,0.188835,-1.4452,-0.016616,-0.070865,0.07691,-0.376137,-0.118674,0.449074,0.45922,0.064116,-0.116724,0.657705,0.078152,0.570587],[-0.157265,-0.583103,-0.292669,0.215915,0.08874,-0.065481,0.075489,0.206265,0.281902,0.247667,0.1547,-0.004699,0.162622,-0.292405,0.243329,0.01015,-0.141776,-0.124175,0.213854,0.014683,0.157471,0.163788,0.174422,0.235528,0.25498,0.33969,-0.147464,-0.045289,0.334881,0.075183,-0.082421,-0.025232,-0.532616,-0.249801,0.016571,-0.218279,-0.16834,0.09451,-0.279221,0.026088,0.027417,0.54456,0.084992,0.291295,0.422768,-0.063163,-0.103619,0.084779,0.149511,0.019479,0.180859,0.286767,-0.085904,0.168673,-0.032412,0.113907,-0.530358,-0.294221,0.349753,0.060533,-0.051115,0.371785,-0.266501,0.062818]],"biases":[0.134617,0.013889,0.380095,-0.042002,0.244394,-0.048126,-0.112823,0.316183,0.299848,-0.254489,0.305639,-0.184337,-0.243409,-0.021658,0.218694,-0.077997,-0.046545,0.096353,0.262249,0.018028,-0.261316,-0.122043,-0.016661,0.090994,-0.045381,0.259825,0.469284,-0.055088,-0.017067,0.361489,0.259385,-0.020612,-0.014063,-0.001271,-0.076432,0.069712,0.227408,-0.099897,0.31798,-0.175716,-0.148831,-0.284271,-0.099973,0.297878,0.458237,0.030453,0.185033,0.295988,0.21752,-0.163896,0.03266,0.047412,-0.057881,-0.146999,0.018044,0.352714,0.212718,0.130768,0.202641,-0.068693,-0.083364,0.383392,0.362183,0.325066]},{"weights":[[-0.188462,-0.088839,-0.6828,-0.397581,-0.352032,-0.379635],[-0.07382,-0.242116,-1.663547,-0.988498,-0.663845,-1.070249],[1.092828,0.953991,0.586492,0.753077,0.700733,0.694971],[0.887689,0.952023,0.962368,0.717504,0.623797,0.196795],[0.087352,0.098935,0.36354,0.129987,0.102019,0.134065],[-0.058059,-0.003686,-0.093871,0.091044,0.08557,0.076844],[0.04949,-0.034113,0.072537,0.091688,-0.082134,-0.072156],[0.179095,0.107981,0.287639,0.345609,0.25137,0.306015],[0.212351,0.596668,0.341669,0.336033,0.618434,0.434062],[-0.513185,0.856151,-1.08507,-0.256479,-0.148032,-0.119643],[0.319623,0.389275,0.241057,0.327417,0.333772,0.393057],[-0.837591,-0.54639,-0.318592,-0.457928,-0.316256,-0.482427],[-1.930917,-0.611562,-0.227863,-0.729623,-1.060781,-0.661929],[-0.382543,0.06686,-1.763708,0.462379,0.654606,0.537754],[0.375419,0.04148,0.427481,0.187115,0.21113,0.189025],[0.012488,-0.035034,0.100681,0.029599,-0.124683,0.095023],[-0.026175,-0.061813,-0.484209,-0.202004,-0.460564,-0.117439],[0.49764,0.758341,0.559841,0.569472,0.602953,0.499274],[0.43221,0.37833,0.416563,0.336508,0.522596,0.387283],[0.330209,-0.935124,1.047577,0.400306,0.27662,0.37898],[-1.189548,-0.948468,-1.116047,-1.172544,-1.191106,-1.110346],[1.606952,0.594843,1.806852,1.911872,2.208249,1.894037],[0.388674,0.096085,-0.321767,-0.360247,-0.110559,-0.381724],[0.777302,0.648668,0.63855,0.5902,0.720502,0.619952],[1.499106,1.475037,1.809994,1.687944,1.679418,1.570314],[0.747287,1.102786,0.93776,0.708283,0.710967,0.717098],[0.693996,0.457801,0.730495,0.743487,0.642907,0.696131],[-0.089136,-0.066125,-0.019018,-0.030631,-0.094699,0.077103],[-0.629236,-0.719446,-0.766903,-0.747226,-0.691606,-0.923714],[0.560021,0.407937,0.296843,0.263235,0.208899,0.314209],[0.333661,0.403282,0.07713,0.352917,0.377451,0.170163],[0.007959,-0.081509,0.029537,0.034806,0.01242,0.086041],[-1.058224,-1.28517,-1.129218,-1.098813,-1.085187,-1.064176],[0.386061,-0.048737,0.194889,0.401163,0.723434,0.384974],[0.058118,-0.122604,0.025209,-0.06964,0.068995,-0.04999],[0.688525,0.622337,1.861287,0.386189,0.190953,0.196738],[0.728156,0.343897,0.604339,0.650816,0.920051,0.832036],[-0.069292,-0.080486,-0.017569,0.07977,0.057095,-0.0309],[0.421472,0.559339,0.391844,0.488331,0.393509,0.400181],[-0.858867,-0.60964,-0.635581,-0.791604,-0.516164,-0.755347],[-0.299785,-0.453955,0.524294,0.130445,-0.235237,0.211202],[1.953768,1.753883,3.185288,2.446249,2.674584,1.963227],[-0.666201,-0.765443,-0.932025,-0.577903,-0.510015,-0.667633],[0.358547,0.275206,0.444598,0.258141,0.300535,0.168968],[0.136827,0.379261,0.436083,0.388129,0.293928,0.424584],[-0.019339,-0.030662,-0.064293,-0.094026,-0.001096,-0.009051],[0.140351,0.729291,0.840653,0.479112,0.503925,0.498475],[0.40512,0.280317,0.297648,0.381825,0.217438,0.332685],[0.374969,0.357804,0.21334,0.408883,0.327918,0.414865],[-0.986526,-0.758863,-0.736041,-1.138232,-1.480724,-1.101347],[0.134205,0.433633,-0.36578,-0.031028,-0.127957,-0.084898],[-0.873877,-0.904067,-0.794613,-0.611715,-0.686992,-0.54607],[-0.040653,-0.022241,0.009284,-0.081001,0.008957,0.035352],[1.013699,0.040423,-0.463596,-0.314851,-0.861051,0.032854],[0.060036,0.006668,0.108323,0.115309,-0.113383,-0.082901],[-0.025972,0.032294,0.739404,0.302862,0.303786,0.383962],[0.483861,0.006228,-0.131315,0.347445,0.287923,0.456218],[0.78002,0.519006,0.414135,0.393986,0.40709,0.474632],[0.330481,0.239666,0.324133,0.301882,0.229393,0.214555],[-0.044625,0.031635,0.086795,-0.096917,0.025812,-0.070732],[0.079025,0.011606,-0.1113,0.051125,-0.04425,0.073386],[0.24405,0.443067,0.35,0.338587,0.319147,0.334381],[0.450875,-0.040433,0.223245,0.277182,0.187036,0.331293],[0.081562,0.171711,0.230924,0.26912,0.360663,0.25403]],"biases":[0.428554,0.450263,0.265985,0.187932,0.06464,0.54149]}]},"round":470,"phase":129,"phaseIteration":4,"trained":"pilot","generation":469,"dominanceMetric":"pilotWinRate","dominanceThreshold":0.65,"dominanceReached":false,"candidateSpawns":2,"selectedCandidate":2,"pilotWinRate":0.0,"enemyWinRate":1.0,"averageScore":3390.0,"averageWave":2.4,"averageSteps":153.0,"waveClearRate":0.8,"averageClearSteps":158.75,"enemyDropRate":12.8878,"invalidDropRate":0.723,"enemyFireRate":0.1091,"pilotFireRate":0.375,"pilotShotAccuracy":0.5931,"pilotHits":344,"pilotFires":580}
