{"id":408,"label":"Pilot v408","role":"pilot","model":"sb3-dqn-pilot-v408","actions":["left","right","fire","stay","up","down"],"features":["target_dx","abs_target_dx","threat_dx","threat_y","bullet_ready","alien_count","wave","drop_ready","enemy_shot_ready","fleet_y","lives","danger_shot_dx","danger_shot_y","danger_shot_lane","pilot_bullet_dx","pilot_bullet_y","bee_count","gunship_count","boss_count","ship_y","target_dy","enemy_ship_dx","enemy_ship_y","enemy_ship_role","enemy_ship_fire_ready","enemy_ship_bullet_lane","enemy_ship_bottom"],"network":{"activation":"relu","layers":[{"weights":[[0.085776,-0.369978,0.279074,-0.104704,-0.111131,-0.17513,-0.08797,-0.169282,-0.057219,0.734843,-0.195904,0.149696,-0.012604,-0.140042,-0.116961,0.048064,-0.509703,0.081982,-0.116338,0.099329,0.012998,-0.056681,1.513121,0.342181,1.085916,0.024256,-0.425987,0.587906,0.166942,0.698814,-0.018486,2.114506,-0.009824,-0.305998,0.091692,0.064483,0.063379,0.131822,-0.514448,0.306407,-0.065211,-0.663228,-0.036086,0.08055,0.087382,0.417126,-0.065256,-0.070024,-0.174716,0.595329,0.691794,0.06641,0.248933,-0.803575,-0.062581,0.373838,-0.362937,-0.06964,-0.519539,-0.352381,0.151556,-0.030511,0.215167,0.551409],[-0.50024,-0.070461,0.138457,-0.010959,0.237223,-0.490629,-0.341745,-0.073303,-0.371221,-0.99242,-0.141209,0.191851,-0.021911,0.048568,0.341417,0.362137,-0.015927,-0.64586,-0.282404,-0.02257,-0.124039,0.136325,-2.197064,-0.230182,-0.745012,0.158785,-0.72586,-0.71529,-1.096071,0.409636,-0.146497,0.449149,0.011524,-0.353122,-0.199272,0.007812,-0.158636,0.000642,-1.993653,0.023362,-0.348341,0.099804,-0.007172,-0.365062,-0.117537,0.57228,-0.479846,-0.07811,-0.651196,0.786834,0.301284,-0.799003,0.241915,0.674988,-0.28913,0.282762,-0.513898,0.090934,-0.507261,-0.936753,-0.156442,0.124682,-0.233986,-0.973709],[-0.003382,-0.072781,0.044768,-0.106557,-0.052605,0.0808,0.235322,-0.039675,0.14637,-0.355103,0.026177,-0.092812,-0.10159,0.045574,-0.224977,-0.035408,-0.23234,-0.452194,0.679675,-0.062159,0.289078,0.302216,0.157166,-0.029316,-0.024078,0.083861,-0.007069,0.160218,0.055526,0.19803,-0.076754,0.020717,-0.678349,0.232753,-0.121721,0.067963,-0.197836,-0.145048,-0.02643,0.976299,0.005298,-0.216388,-0.05007,0.052819,0.101545,0.005451,0.159369,-0.024035,0.797201,-0.21085,0.583999,0.084483,-0.21856,-0.108538,0.073145,-0.05862,0.083697,-0.132025,-0.045859,0.735083,-0.042303,0.069172,0.051846,0.120193],[0.099328,-0.249927,0.19424,-0.154327,-0.024967,0.206307,0.027308,-0.054006,0.069332,0.164137,0.003952,0.490272,-0.030527,-0.029449,0.050242,-0.764232,-0.032724,-0.041387,-0.178988,0.051789,0.064327,0.150473,0.008027,0.062823,-0.13531,-0.050128,-0.195161,0.46932,0.21373,-0.508134,-0.049961,0.040902,-0.120402,0.298554,0.245778,-0.150645,0.250415,-0.188235,0.073743,0.145853,-0.038603,0.032596,-2.497805,-0.11393,0.083681,0.660104,0.140737,0.017574,0.671037,0.155527,-0.350669,-0.321284,0.212235,-0.235344,-0.118155,0.270984,0.262169,-0.092745,0.301465,0.23066,0.018326,0.168138,0.058802,0.11193],[-0.103794,0.145271,0.03571,0.036805,-0.015918,0.096622,0.041171,0.026887,-0.046911,0.040382,-0.085271,-0.084147,0.072436,-0.127337,0.08518,-0.052656,-0.051605,0.001151,-0.158898,-0.044326,-0.046311,-0.008711,0.019777,0.313793,0.032386,0.074797,0.290638,-0.528554,-0.444405,-0.187898,0.067832,0.111168,-0.024773,0.041325,-0.055821,-0.058108,0.115913,-0.118692,0.224154,0.313427,-0.031395,0.082162,0.013779,-0.011904,0.092483,-0.043364,0.029283,0.009579,-0.00235,0.010763,-0.233457,0.032802,0.011936,0.160115,-0.087521,-0.047916,-0.40952,0.083971,-0.123273,-0.155002,-0.155839,0.029368,-0.020084,-0.085812],[0.355817,0.394628,0.597628,-0.140177,0.316233,0.521684,0.569157,-0.068464,0.394022,-0.277727,0.579251,-0.059734,-0.0802,-0.192762,-0.597127,0.249365,-0.683339,-0.608936,0.477128,-0.052437,0.292734,0.544352,0.559354,0.049427,-0.331942,0.056981,0.403032,-0.033286,0.473412,-0.413816,0.122873,-0.356548,0.651322,0.695822,-0.539161,-0.175807,-0.302249,-0.145567,0.001935,-0.106525,0.36259,-0.758706,0.572087,-0.051947,-0.046241,-0.448761,0.44782,0.628474,0.030409,0.286353,0.169485,-0.150026,0.699882,0.370961,0.107615,0.079969,0.260338,-0.228159,0.369237,-0.758054,-0.097413,0.082093,0.678508,0.622598],[0.291885,-0.441396,0.354991,-0.08436,-0.370956,0.361091,0.104424,0.184158,0.345794,-0.176997,0.211965,0.403004,-0.060251,-0.080321,0.017584,0.637896,-0.050051,0.205706,0.152185,0.088439,0.274886,-0.237551,-0.296889,0.281024,0.264552,0.090842,-0.058708,-0.404693,0.1335,-0.177916,-0.209289,0.069242,0.238745,0.000346,0.333434,-0.209188,0.222631,-0.046399,0.589172,-0.190206,-0.341959,0.106659,0.602293,0.332624,0.110898,-0.078592,-0.017335,0.395246,0.354642,-0.322647,0.253588,0.095451,0.09149,0.240439,-0.220542,0.226505,-0.156027,0.071746,-0.068432,-0.047328,-0.137982,0.10603,-0.073497,0.127804],[0.264006,0.175466,0.052446,-0.032248,0.107194,-0.060638,0.265632,-0.18801,0.076472,0.356249,0.14753,0.053419,0.012547,-0.101137,0.373667,-0.362615,0.353345,0.422325,-0.05389,-0.070689,0.206421,0.174477,0.008627,0.152013,0.042816,0.060714,-0.133127,0.164491,-0.200729,-0.091716,-0.000276,0.081799,-0.042567,0.022474,0.180013,0.029233,0.155007,-0.156361,0.114153,0.283417,0.224695,0.073061,-0.05718,0.124384,-0.086643,-0.014986,0.055317,-0.038173,-0.286768,0.035637,0.125936,-0.018031,-0.003795,-0.390492,-0.181923,0.200628,0.019522,-0.231067,-0.092925,-0.031128,-0.196583,-0.023588,-0.16474,0.087551],[0.19998,0.116993,-0.108062,-0.186066,0.157022,0.096088,0.336202,0.010166,0.021638,0.101062,0.245774,-0.051091,-0.167241,0.053754,0.145851,-0.127969,0.336787,0.440265,0.025717,-0.216107,-0.04232,0.153959,-0.036437,0.190165,-0.1957,0.149148,0.005386,-0.129636,-0.085017,-0.094485,-0.196405,0.389987,0.029886,0.120883,0.177787,-0.196078,0.149295,-0.082223,0.211069,-0.008796,-0.055719,0.165757,0.092399,0.205868,-0.199448,0.144001,0.118222,-0.135133,-0.166521,0.031967,0.065897,-0.217656,-0.162046,-0.304096,0.047314,0.19618,0.114508,-0.064315,0.107765,0.149352,0.015018,-0.184822,0.012637,-0.001906],[-0.625269,0.256204,-0.683955,-0.163728,-0.491008,-0.597918,-0.503554,0.105414,-0.508971,0.818003,-0.356202,0.208455,-0.105757,-0.008349,-0.281969,-0.372541,0.552701,0.612299,-0.499405,-0.181531,-0.559109,-0.488238,-0.142772,-0.308622,-0.110488,0.194451,-0.256396,-0.360072,-0.325839,0.722185,-0.076012,-0.145696,0.056692,-0.012223,0.936901,-0.177832,0.833809,-0.175497,-0.405203,-0.26893,-0.142621,1.032587,-0.366822,-0.670076,-0.17792,0.94873,0.033372,-0.935532,-0.02747,-0.52414,0.516958,-0.036224,-0.613196,-0.364866,0.041043,-0.690042,-0.105689,-0.040941,-0.259442,0.174852,-0.1197,-0.08012,0.018435,-0.343498],[-0.01191,0.038401,0.131665,-0.210212,0.342482,-0.004025,0.060454,-0.03954,0.085201,-0.390603,0.232974,-0.09123,-0.140058,-0.071122,0.289257,0.446616,-0.125808,-0.099122,0.065255,0.060637,0.060363,-0.029123,0.298463,-0.287936,0.069781,0.032307,0.280163,-0.05055,-0.174984,0.066053,-0.000244,0.061283,-0.032761,0.156916,-0.63551,0.140334,-0.002838,-0.139334,-0.148442,-0.267003,0.23615,0.063906,-0.494082,0.330547,0.010582,-0.445334,-0.127721,0.502873,0.012915,0.439644,-0.653874,0.020648,0.615984,-0.46501,0.006146,0.206971,-0.109183,-0.071839,0.323232,-0.124997,0.038692,-0.203876,0.058483,0.049479],[0.021981,0.207965,0.047684,0.118689,-0.134839,0.23472,0.057113,-0.018799,-0.066054,-0.16038,0.206757,-0.131896,-0.032101,-0.094714,-0.124168,-0.0202,0.076879,-0.192493,0.345053,-0.148272,0.132936,0.31909,0.149441,-0.046769,0.82592,-0.0418,0.280706,-0.12999,-0.013515,0.314713,0.054316,-0.115112,-0.342591,0.049344,0.010018,-0.107687,0.219059,0.099929,-0.09833,0.511384,0.036519,-0.356381,0.137866,0.010759,-0.150958,-0.465957,0.280355,0.054929,0.133574,-0.190598,0.343699,0.152884,-0.093643,0.21712,-0.12606,-0.084181,0.134282,0.052507,-0.111867,0.925443,0.087705,-0.049237,0.100394,-0.112564],[-0.112493,-0.205538,-0.116379,-0.163374,-0.526252,-0.18108,-0.303383,-0.117491,0.087782,-0.160688,0.009844,0.411775,-0.164533,0.07203,0.040248,-0.791708,0.170288,0.292801,-0.259885,-0.096334,-0.175923,-0.66859,0.087352,0.093754,0.066624,0.044996,-0.286027,-0.140166,-0.03362,0.179786,0.104597,0.03362,0.235961,0.203891,0.206138,0.068758,-0.082459,-0.113999,0.017467,-0.544471,-0.156898,-0.332063,-2.389053,-0.090849,-0.183804,-0.088916,-0.269996,-0.104281,0.296159,0.030844,-0.015108,-0.188433,0.190907,-0.38231,-0.000111,0.061244,0.145818,0.069463,0.193184,0.069647,0.021499,-0.129292,-0.281253,0.097262],[-0.283333,-0.031918,0.149895,0.039937,0.273741,0.153383,-0.241637,0.130579,0.294993,0.493458,0.177433,0.295917,-0.056204,-0.16098,0.257988,-1.009134,0.632195,0.185221,-1.09692,0.162979,0.090168,-0.775105,-0.224176,-0.210788,-0.394279,-0.065386,-1.097516,0.239821,-0.517547,0.112067,-0.11794,0.246267,-0.18293,-0.201711,-0.058505,-0.002584,0.342687,-0.168353,-0.065698,0.234825,-0.090963,0.006291,0.342161,-0.298633,0.045197,0.250984,-0.297528,-0.249869,-0.118814,0.519547,-0.958704,-0.206468,0.204661,0.068173,0.105194,-0.122787,-0.009975,0.06167,0.306928,-0.393447,0.131677,0.188156,-0.628923,-0.177002],[0.114789,-0.186846,0.167684,-0.060113,-0.010326,0.057258,-0.02467,-0.075905,0.170012,-0.183884,-0.252195,-0.019701,-0.007322,-0.085549,-0.073365,-0.431495,-0.279284,-0.062761,0.010168,-0.045319,-0.012765,0.300466,-0.050421,-0.358351,0.028136,-0.290235,-0.436656,0.098192,-0.299905,0.006967,0.166554,-0.106984,-0.100612,0.060318,-0.032273,-0.070324,0.389747,-0.046381,0.143882,0.396019,-0.035339,-0.093377,0.042277,-0.021042,-0.081809,0.211394,0.145043,-0.027306,0.000765,0.079978,0.176067,1.438175,0.06396,-0.276777,0.010204,0.192109,0.418274,0.129213,0.092149,0.158216,-0.004749,-0.165094,0.076719,-0.051244],[0.069582,0.126044,-0.163564,0.131758,0.286229,-0.605297,0.248069,-0.038679,-0.003085,-0.316164,-0.193944,-0.291147,0.188923,0.071507,-2.745249,0.05209,0.755473,-0.056779,-0.188708,-0.022652,-0.651311,-0.080942,-0.680508,-1.536806,-0.189559,-6.63204,0.01588,2.215042,1.28116,0.486867,0.009229,0.669569,0.371407,-0.133627,0.319042,0.090396,0.353171,0.175583,-1.208507,-0.157948,-0.61075,0.157426,-0.17622,-0.851893,-0.109467,-0.438295,0.417277,-0.101944,-0.121356,0.391963,-0.641989,-1.790052,-0.003998,-0.285459,0.000966,0.27747,-0.038846,0.084844,-0.355303,-0.247395,0.15465,0.120054,0.179314,-0.549649],[0.36708,0.771819,0.522709,0.154129,0.358491,0.47379,0.329228,0.012363,0.497341,0.065457,0.523614,-0.274925,0.092543,-0.058834,-0.542061,0.273959,-0.70193,-0.544259,0.066623,-0.074039,0.460312,0.570029,0.560394,0.379979,-0.289195,0.137545,0.293046,0.152761,0.438542,-0.38076,-0.167236,-0.639249,0.745553,0.837772,-0.528981,-0.073022,-0.239889,0.123291,-0.302936,-0.13265,0.799336,-0.703294,0.479475,-0.076221,0.013479,-0.319357,0.725522,0.096176,-0.094637,0.499273,0.271009,-0.07854,0.62921,0.25024,-0.040554,0.236676,0.604149,-0.111146,0.797064,-0.63531,-0.199271,0.087987,0.484575,0.723383],[0.571558,-0.407807,0.583416,-0.017191,0.292684,0.158105,0.262297,0.159322,0.393971,-0.801726,0.057473,0.659118,0.031253,-0.102587,-0.373715,0.736255,-0.802674,-0.450781,0.667287,-0.189922,0.300752,0.129135,0.314773,-0.185615,0.118132,-0.008909,0.136636,-0.030375,0.558948,-0.51933,-0.027952,-0.273098,0.469353,0.144479,-0.081444,-0.178162,-0.385757,-0.165901,0.886306,-0.16089,-0.258565,-0.652084,1.053988,0.177742,-0.195108,-0.710616,0.107681,1.414525,0.082979,-0.188996,-0.841901,0.106728,0.543557,0.196936,-0.045313,0.576564,0.135385,0.033464,0.390521,-0.652381,-0.090773,0.003628,0.647262,0.415702],[1.037853,-2.844028,0.261869,0.144216,-0.422112,0.25386,0.265607,0.007269,0.823386,-1.774197,0.208058,1.369061,-0.091663,0.018802,0.315051,2.469402,0.52516,-0.281709,0.932735,-0.019141,0.820147,-1.987873,-0.244286,0.271322,0.468429,-0.210421,-0.281225,0.314918,0.272741,-0.768331,0.189148,0.134084,-0.005263,-0.744156,0.898931,0.164008,-0.892377,-0.002875,2.919721,-0.781283,-2.095992,0.13933,0.323202,3.572082,-0.2083,-1.253258,-1.026423,2.989464,0.595551,-1.156192,-0.173358,-0.384988,0.09546,-0.24928,-0.203882,1.471375,-0.052588,0.090807,-0.734663,-0.285662,0.166571,-0.141396,-1.818246,0.223369],[0.243807,-0.180256,-0.174405,-0.065313,0.009892,0.117082,0.136774,-0.08659,0.013207,0.017746,-0.076208,0.159141,0.061725,-0.145916,0.345326,-0.189712,0.001526,0.089933,-0.033647,0.108309,0.238984,-0.243096,0.029927,-0.018111,-0.18651,0.075863,-0.096139,-0.113298,0.189891,-0.016137,-0.19122,0.292005,0.107543,-0.280969,0.245106,-0.042203,-0.217723,-0.190088,0.176961,0.006279,-0.28035,0.311548,0.158866,0.169338,-0.072263,-0.056285,-0.093821,0.113542,-0.217032,-0.317746,0.021346,0.155383,-0.309328,-0.376962,-0.179258,0.380808,-0.313448,-0.15654,-0.088342,0.010289,-0.138953,-0.156058,-0.008749,-0.173813],[-0.300362,0.746056,-0.199787,-0.157953,0.04945,0.032527,-0.159743,0.052614,-0.439688,0.001496,0.101322,-0.587146,-0.165851,0.100704,-0.644467,-0.227252,-0.025779,-0.764999,-0.263295,0.048111,-0.012681,-0.013792,-0.086071,-0.412536,0.010991,0.171202,-0.055352,0.219702,-0.022357,0.399792,0.048347,-0.18169,0.092129,0.316239,0.311718,0.141344,0.24496,-0.126527,-0.129856,-0.420199,-0.283158,0.093023,0.156103,-0.793828,0.118982,0.048296,0.093709,-0.133084,0.157943,0.380351,0.005675,-0.049237,0.266535,0.09916,0.162546,-0.336014,-0.015391,0.106002,0.027943,0.028508,0.20871,0.181336,-0.152998,0.048802],[0.042223,-0.247405,0.363631,-0.074656,0.042301,-0.472094,-0.097014,0.199546,0.141089,0.75024,0.045553,0.181028,-0.071347,0.089081,0.108097,-0.090955,-0.483341,0.148385,0.023777,0.12057,-0.106711,-0.035088,1.399102,0.298464,1.22487,0.106474,-0.314178,0.747485,0.026183,0.760458,-0.079292,2.089449,0.109158,-0.319037,0.024609,-0.007519,0.079876,-0.187541,-0.603805,0.403783,-0.133571,-0.727626,0.186229,-0.082709,-0.062436,0.428393,0.210995,0.086218,-0.445915,0.540833,0.596779,0.306224,0.023067,-0.709514,0.04695,0.225371,-0.292011,0.120933,-0.615678,-0.232879,0.081384,0.072345,0.003557,0.501534],[0.078956,0.200854,0.113615,-0.184723,0.27011,0.159204,0.109055,-0.052127,0.010408,0.088867,-0.093397,-0.65003,-0.148304,-0.014081,-0.029784,-0.5461,0.011492,-0.459606,-0.29692,-0.213184,0.00092,-0.233442,-0.019733,-0.000337,0.002041,0.10125,-0.232679,-0.070166,-0.005638,0.301448,-0.196021,-0.01345,-0.010179,0.0927,0.443889,0.13415,-0.217192,0.088797,0.198501,-0.056089,-0.3944,0.245621,-0.126671,0.053092,0.17056,0.180023,-0.051203,-0.181843,-0.10795,0.20388,0.188016,-0.05664,-0.156284,-0.242017,-0.078752,-0.217685,-0.558644,-0.021383,0.016703,-0.142372,-0.188778,-0.142546,-0.93996,-0.067454],[0.197155,-0.070807,0.117461,0.100505,-0.383515,-0.01235,0.048858,-0.235079,0.245097,0.158098,0.082923,0.249124,0.13341,-0.173597,-0.024254,0.495234,0.288535,-0.055007,0.013781,-0.167067,0.154112,-0.375195,0.046001,-0.115374,-0.575003,0.111463,-0.304785,0.121494,-0.533819,0.308578,-0.097448,-0.230209,-0.738781,-0.048504,0.297008,0.127028,-0.486376,0.020931,-0.067029,-0.377788,-0.112539,0.187245,0.340901,-1.530795,-0.1649,0.154699,-0.149815,-0.163881,-0.122045,0.437629,-0.181393,0.007025,0.15877,0.218144,0.068028,0.125741,0.390187,0.071284,-0.734031,-0.274273,0.073498,0.114758,0.180886,0.23331],[0.013601,0.216066,-0.001199,0.099232,-0.099616,0.16089,0.080868,-0.032937,-0.057596,0.177002,0.229364,-0.090265,-0.090078,-0.027383,0.000748,0.237671,-0.469243,-0.08898,-0.21204,-0.004129,0.055256,-0.19393,0.027209,-0.246295,0.269448,-0.039689,0.03001,-0.01164,0.214636,0.060738,-0.110335,-0.164755,-0.359578,-0.174363,0.064708,-0.06273,0.003096,0.085266,0.078388,0.017743,0.035633,0.045508,0.006606,-0.507893,-0.120002,0.06401,-0.106098,-0.110412,-0.042602,0.12406,-0.400715,-0.01267,0.019562,0.136939,0.085236,0.027965,0.292765,0.019977,-0.178472,0.123319,0.048283,-0.142784,0.051372,0.05638],[0.118505,-0.010518,0.07935,-0.028333,0.180005,0.055581,0.177315,0.177495,0.212045,-0.136691,0.267245,-0.04034,-0.180396,-0.083869,-0.019463,-0.017337,-0.143664,-0.006117,0.026012,-0.045023,-0.061901,-0.155279,-0.181479,-0.159529,0.287565,-0.044447,0.689713,0.372859,0.375594,0.354361,-0.169651,-0.101528,-0.099122,0.071744,-0.257488,0.122728,0.610941,-0.108244,0.017229,-0.081682,0.160134,0.086417,0.015824,-0.167867,-0.096766,0.25088,-0.432384,0.003591,-0.033458,-0.090895,-0.293324,-0.256448,0.020784,-0.17907,-0.176361,-0.197936,0.136445,-0.169197,0.018343,-0.02219,-0.069619,-0.169333,-0.087231,-0.140143],[-0.20214,-0.090864,0.058434,0.107145,0.004318,-0.078914,0.127933,-0.148223,-0.100479,0.227671,0.022564,-0.527196,0.028637,-0.196277,0.06466,-0.311567,-0.058538,-0.296703,-0.271643,-0.009191,0.15947,-0.372168,-0.080238,0.160094,-0.083592,0.103283,-0.263004,0.003573,-0.100216,0.297424,0.002832,0.117512,0.165493,-0.239411,0.304227,-0.201376,-0.151078,-0.033249,0.083653,-0.248611,-0.358644,0.111706,0.019871,-0.091336,-0.127394,0.208311,-0.186106,-0.110901,0.059681,-0.101011,0.273666,0.001229,-0.29997,-0.433618,0.070406,0.00185,-0.214757,0.076028,0.192545,-0.145846,-0.054716,-0.146917,-0.688755,0.106777]],"biases":[0.103254,-0.138383,0.047234,-0.163036,-0.001481,0.064188,0.16843,-0.005503,0.150205,0.386577,0.216301,-0.106658,-0.180096,-0.086728,0.273453,-0.231198,0.408148,0.060136,-0.017627,-0.204915,0.240222,-0.18172,-0.032881,0.343143,-0.030056,-0.03893,-0.127413,-0.103826,-0.087446,-0.004289,0.085668,0.145281,0.259607,-0.144159,0.166245,-0.056858,0.072656,-0.102807,0.134387,0.277795,-0.062137,0.378029,-0.152857,-0.017852,0.034147,0.243306,-0.105138,-0.24922,-0.326213,0.199961,-0.149123,0.081845,-0.303615,-0.222174,-0.237933,0.148208,-0.041478,-0.138619,-0.086228,0.17065,0.137215,-0.096378,-0.131955,-0.019304]},{"weights":[[-0.052274,-0.280532,0.1563,-0.115517,0.115643,0.043303,-0.045401,0.294961,0.399447,-0.019803,0.616714,0.169859,-0.657148,0.185651,0.245283,-0.093612,-0.0145,0.215658,0.449098,-0.188166,0.199532,0.263243,-0.143594,0.108186,0.060458,0.170272,0.001911,0.011521,0.370936,0.355267,0.263647,0.047825,-0.302866,0.134324,0.080787,0.15536,0.171724,-0.043583,-0.052316,-0.256525,-0.054652,0.205209,-0.473466,0.356933,0.499938,0.070066,0.061457,0.419796,0.461743,0.00644,0.129671,0.367595,0.000709,-0.049985,0.056189,-0.012424,0.119342,-0.082931,0.26453,0.041359,0.015432,0.513694,0.233331,0.300624],[0.416365,0.314295,-0.510596,0.40842,0.104934,-0.043934,-0.0123,0.191654,0.083387,-0.516937,0.151171,-0.901982,0.308854,0.172817,0.009145,0.018017,0.319306,-0.02939,-0.144031,-0.640755,-0.831106,-0.296574,0.110697,0.276787,0.594961,0.337531,-0.221021,-0.023152,-0.645673,-0.144976,0.043728,-0.033195,0.590258,-0.276684,-0.062183,-0.194476,0.042159,-0.003087,-0.152848,0.325783,0.057775,-0.154078,0.736675,-0.039105,0.180465,-0.015046,0.261157,-0.045112,0.063349,0.58878,-0.125409,-0.530983,-0.180758,0.066101,-0.036283,0.118842,0.00355,0.171155,-0.108932,0.105263,-0.114558,0.08098,0.0806,0.205888],[0.177034,0.08933,0.012661,0.091092,0.063907,-0.049328,0.050199,0.327924,0.218094,0.186775,0.349158,0.212566,0.130697,-0.051641,0.285352,0.092814,-0.042853,0.032081,0.396272,0.474684,0.122577,0.381537,0.152945,0.196075,0.093563,0.340808,0.139507,0.031822,0.332947,0.278733,0.167384,-0.023698,-0.799858,0.046771,-0.138033,0.131647,0.057478,-0.129971,-0.043672,-0.018173,0.227939,0.223774,0.081785,0.309927,0.284911,0.006939,-0.125313,0.337216,0.269194,-0.229322,0.17254,0.117018,-0.098799,0.141459,0.023646,-0.240009,0.080648,0.118302,0.224484,-0.091831,-0.014334,0.187494,0.34822,0.073321],[-0.077931,0.029825,0.05335,0.043379,-0.001632,-0.016655,-0.10973,-0.007131,0.038167,-0.007183,-0.043713,0.113237,0.073088,-0.102663,-0.094438,0.009261,-0.002136,0.118654,-0.034248,-0.044933,-0.02439,-0.10919,-0.006132,-0.02039,0.067173,0.043825,-0.086286,0.081504,-0.101206,0.005496,0.003318,-0.090429,-0.025855,0.02405,-0.052864,0.004752,-0.089644,-0.025478,0.103266,-0.05078,0.120486,-0.02237,-0.129323,-0.001172,0.113925,-0.001869,0.000815,-0.024108,0.049867,0.022158,0.049037,-0.041997,-0.111323,0.038678,0.050991,-0.06706,0.096201,0.038891,0.092621,-0.037934,-0.086058,-0.025778,-0.036131,0.025611],[-0.00669,-0.115758,-0.091666,-0.155861,-0.299965,-0.030895,-0.150737,0.043699,0.333137,-0.273573,0.171875,0.394474,0.046195,-0.008294,0.01692,0.0863,0.121534,-0.134822,0.13405,0.196478,-0.015981,0.209885,0.144547,0.079873,0.1393,-0.150732,-0.07096,0.019772,0.269165,0.31672,0.462373,0.070504,-0.952308,-0.12385,-0.169532,0.135661,-0.053084,0.069707,-0.076369,-0.344705,-0.060878,-0.069605,-0.077914,0.220442,0.082557,-0.054768,-0.137379,0.118279,0.270679,0.166797,-0.037531,0.066153,-0.086445,0.26354,-0.087603,-0.405189,0.097991,0.25249,0.195614,-0.031853,0.061863,0.199868,0.01966,0.148101],[0.084489,0.165537,0.030387,0.14477,0.129904,-0.091565,-0.118912,0.381577,0.16391,-0.219505,0.153083,0.045829,0.264454,-0.231216,0.380099,-0.081299,-0.104736,0.334859,0.182396,-0.284393,0.059699,0.125227,-0.217415,0.096772,0.19343,0.308113,-0.053765,-0.013599,0.21083,0.210517,0.213696,-0.094599,-0.180004,-0.014504,-0.130776,0.147861,0.177628,-0.016696,0.084976,0.02701,-0.082258,0.248282,0.187681,0.404982,0.245329,-0.148482,-0.063133,0.26568,0.235816,-0.011783,-0.147189,0.057644,-0.119969,0.042694,-0.042137,0.224945,0.121071,0.122763,0.23527,-0.06483,-0.034735,0.217177,0.194907,0.260905],[0.054006,0.144492,0.199874,0.043748,0.09275,-0.024581,-0.118437,0.192022,0.442239,-0.057723,0.489677,-0.094585,0.096427,0.14699,0.233854,-0.055442,-0.002574,0.284129,0.403015,-0.153605,-0.046418,0.061039,0.00186,-0.148824,-0.076564,-0.041663,0.221165,-0.108969,0.073348,0.416197,0.351368,-0.125801,-0.203783,0.02623,0.039891,0.089643,0.289679,0.023029,-0.063082,0.023978,0.000688,0.113695,-0.06836,0.337102,0.398033,-0.013479,-0.142754,0.349234,0.440912,-0.221994,-0.091738,0.000879,-0.137427,-0.062537,-0.072171,-0.057394,0.087852,0.311969,0.343899,-0.025084,-0.075545,0.363682,0.154539,0.237129],[0.021947,0.141806,0.089963,-0.091201,0.080987,-0.111962,0.040971,0.076458,0.017746,0.000566,0.059918,0.024544,0.123208,0.197622,0.047212,-0.105977,-0.078442,0.096043,0.113482,0.096617,-0.006626,0.015857,-0.038876,-0.041672,-0.03905,-0.044395,-0.080922,0.047472,0.063907,0.02665,-0.12233,0.013933,-0.071455,-0.029938,-0.095906,-0.070331,0.07542,0.116619,0.041904,-0.088837,0.055924,0.080604,-0.120089,0.095096,0.158828,-0.102867,-0.017203,0.011209,-0.038045,-0.016107,-0.054005,-0.040923,-0.050067,0.130995,-0.030578,0.130268,0.023517,-0.071559,0.100397,0.010767,-0.07817,0.070582,-0.082031,0.057826],[0.046408,-0.276515,0.117741,-0.189547,0.096301,-0.086867,-0.098791,0.236222,0.151626,0.125714,0.273127,0.32405,-0.677546,0.057562,0.297064,-0.05109,-0.111977,0.106792,0.336287,-0.143266,0.319239,0.201296,-0.095374,0.4159,0.071439,0.133303,0.021397,0.014469,0.471796,0.293288,0.307897,-0.060893,-0.137203,0.19154,-0.064617,-0.006068,0.012368,-0.046074,0.21084,0.003534,-0.11542,0.277761,-0.136191,0.402035,0.185812,-0.052266,-0.257955,0.225891,0.343251,0.09342,0.084231,0.163158,-0.051663,0.036025,-0.074679,-0.145659,0.162037,-0.028589,0.255697,-0.1112,-0.049507,0.389893,0.202493,0.194992],[0.032213,-0.410932,0.178384,-0.033011,-0.020378,-0.082717,0.017368,-0.013047,0.128661,0.410408,-0.198909,0.023272,0.482504,-0.226685,0.017995,-0.102986,-0.01998,-0.054088,-0.163035,0.21255,-0.320079,-1.631873,0.349095,0.279951,-0.051548,-0.229928,0.199283,-0.06662,-0.474055,-0.002759,-0.235125,-0.124455,0.670845,-0.476491,-0.140777,-0.23553,-0.283374,-0.098871,-0.085814,0.207827,0.145629,-1.447948,0.54153,-0.07431,0.078035,-0.126206,0.01089,-0.090317,-0.162814,0.079388,0.438081,0.112014,-0.063011,-0.123969,-0.00171,0.225108,-0.726615,-0.281026,0.111694,0.069724,-0.106407,0.056748,-0.429632,-0.132573],[0.155901,0.233679,0.028532,-0.075804,0.043629,0.092012,-0.164538,0.263698,0.133936,-0.119426,0.388895,-0.039127,0.158946,-0.079074,0.295129,0.058646,0.118763,0.120496,0.156156,-0.001813,-0.190224,0.047343,-0.006148,0.214842,0.156957,0.181814,0.202754,-0.144334,0.194138,0.326933,0.283501,0.072573,-0.140766,-0.102381,0.012494,0.063661,0.016698,-0.137384,0.143605,0.009953,-0.082316,0.177748,0.121519,0.238199,0.224736,-0.014428,0.098506,0.244662,0.244617,0.194397,-0.187119,-0.008548,-0.171656,0.055834,-0.111834,-0.033261,0.143679,0.1536,0.247554,-0.080497,-0.01009,0.365056,0.153886,0.172214],[0.325141,-0.147893,0.254254,-0.72218,-0.393109,-0.044497,-0.01066,-0.244631,-0.293064,-0.33144,-0.377827,-0.133156,-0.396449,0.077878,-0.07537,-0.094212,0.339662,-1.143327,-0.321326,0.439165,0.009968,-0.059038,0.293245,0.812172,-0.738306,0.134984,0.067099,-0.087081,0.43598,-0.175797,-0.063566,-0.021809,-0.011168,0.286789,0.03617,0.366576,-2.009177,-0.015805,0.192878,0.464181,-0.104138,-0.350476,0.039224,-0.092686,-0.351806,-0.061523,0.401958,-0.320818,-0.411711,-1.185793,0.354467,0.285461,-0.022107,0.740849,0.06435,-0.155141,-0.421403,-1.526518,-0.191952,0.000687,0.015839,-0.350007,-0.390207,-0.469433],[0.027645,0.04938,0.092704,0.016558,0.109446,-0.000738,-0.080216,0.003253,-0.018606,-0.122521,-0.090393,0.035967,-0.124886,-0.079631,-0.117584,-0.063002,0.001953,0.032871,-0.083653,0.078852,0.016964,0.083742,0.044367,-0.004689,-0.122422,-0.043106,0.122642,0.051388,-0.007172,0.026097,0.018862,0.028097,0.049333,-0.11881,-0.060756,0.018004,0.014883,-0.087893,0.108907,0.013835,0.030537,0.112086,-0.090033,0.098982,0.004929,-0.002142,-0.121738,-0.107098,-0.032227,-0.115553,0.092701,-0.11144,0.103592,-0.033492,-0.091658,0.041997,-0.033325,-0.116185,-0.036216,-0.014865,-0.080763,-0.092663,0.115361,0.091379],[-0.05847,0.006457,0.018478,-0.112851,0.146148,-0.0667,-0.077327,0.044997,-0.014381,0.101882,0.01902,0.080182,0.091821,0.052886,0.069306,-0.03696,-0.064548,0.073081,0.123643,-0.076675,0.038352,0.124753,-0.108111,-0.017098,0.107824,0.062552,0.072182,0.082412,0.109063,-0.078354,-0.002813,-0.016545,-0.036186,0.098757,-0.098044,0.008935,0.085733,-0.101555,-0.017267,-0.020762,-0.123822,-0.023965,-0.090267,-0.040122,-0.028435,-0.04688,-0.001871,-0.047971,0.04155,-0.102171,-0.046178,-0.014475,0.007839,-0.113957,0.000635,0.117958,0.003007,-0.046882,0.096639,-0.09249,0.114746,0.148707,-0.056196,-0.049552],[-0.236983,0.438129,0.244425,-0.338423,0.221677,-0.061978,-0.017261,0.198364,0.059778,-0.095256,0.147083,0.318997,-0.216817,-1.202165,0.313239,-0.156216,0.126252,-0.301735,0.026651,0.409709,-0.012389,-0.287693,0.290735,-0.126424,0.066416,-0.150671,0.063936,-0.123065,0.292465,0.054657,-0.082599,0.087155,-0.080153,-0.131534,-0.045061,-0.075826,-0.406745,0.016551,0.025354,-0.260904,0.075972,-0.47208,-0.276636,0.300631,0.164619,0.048484,0.504194,-0.118258,0.115296,-0.564145,0.10363,0.632748,-0.163958,-0.552845,0.012488,0.155742,-0.511192,0.041435,0.239635,-0.13901,-0.142124,0.282184,0.043388,0.074867],[0.432334,0.816658,-0.805184,-0.543871,-0.632266,-0.01921,-0.053987,-0.858439,-0.905931,0.070152,-1.032828,-1.255221,1.898116,0.509159,-0.802704,0.069601,-1.030424,-0.834939,-1.020334,-1.094153,-0.589564,-0.439021,0.166021,1.278717,-0.645182,-1.474528,-0.396373,0.038568,0.102882,-0.928413,-0.931346,0.050551,-2.737878,0.846552,-0.03262,-0.02194,-0.508626,-0.10306,-0.73618,-0.487089,0.916096,0.02058,-1.685332,-0.936367,-1.074051,0.051722,-0.242122,-1.284944,-1.091737,0.268372,-0.185876,-0.55206,-0.036902,-0.889134,0.069225,0.692566,0.164955,-0.735293,-1.113983,0.01176,0.022586,-1.105436,-0.657257,-0.855038],[0.016666,0.273787,0.06308,-0.463327,-0.170172,0.067189,-0.022753,0.110008,0.049108,-0.620613,0.053875,0.104881,0.017602,0.53115,0.086206,-0.059058,-0.027251,-0.313342,-0.17112,-0.961064,-0.391716,-1.019321,-0.406507,-0.03597,-0.601937,0.098822,0.303854,-0.12215,0.086795,-0.065422,0.116458,-0.121556,0.286218,-0.129165,-0.06708,-0.096955,-0.086979,-0.070722,0.356904,-0.073571,0.058794,-1.026935,-0.059364,-0.158351,-0.013118,-0.180491,0.399102,-0.080392,0.022415,-0.062285,-0.346382,0.237152,-0.051528,0.015597,-0.06091,0.473094,0.247853,-0.082834,-0.124718,-0.053624,0.099924,0.079099,0.056265,0.175556],[-0.243824,-0.053442,0.208316,-1.176554,-0.600754,-0.125441,-0.045602,-0.571878,-0.341823,-0.139523,-0.169368,0.325701,-0.93892,0.504736,-0.236555,0.075542,0.555873,-2.000323,-0.179491,-0.239747,0.138511,-1.390117,-0.050044,0.238115,-1.208342,0.077045,0.484175,-0.111022,0.361738,0.019479,0.088118,-0.113701,0.478677,0.497999,0.069408,0.246136,-0.894056,0.093896,0.353933,-0.082478,-0.237668,-1.998708,0.094851,-0.350852,-0.600695,-0.008276,0.55504,-0.415533,-0.059727,-0.174744,0.237751,0.378159,-0.143878,-0.104665,-0.099017,0.223036,0.514903,-0.30322,-0.330319,-0.110066,-0.113204,-0.377006,0.107702,-0.603318],[-0.178266,0.453343,-0.006727,0.057561,0.21398,-0.00595,0.029419,0.333937,0.599775,-0.118033,0.588472,0.163371,0.767987,0.041108,0.440812,-0.068341,-0.28091,0.392994,0.580094,-0.272443,0.306183,0.229953,-0.029845,-1.126928,0.422284,0.24908,0.192822,-0.12799,0.30966,0.488285,0.316991,-0.070649,-1.008872,0.268978,-0.177275,0.04458,0.251243,0.093429,-0.204986,-0.912484,0.313425,0.455805,-1.504888,0.363612,0.363354,-0.161924,-1.696753,0.328746,0.606844,-0.479992,-0.166634,-0.04571,-0.126392,0.036471,-0.063995,-0.045606,0.052515,0.370811,0.495975,-0.056398,-0.027468,0.557105,0.316335,0.408255],[-0.011442,-0.028954,0.021354,-0.110161,0.12772,-0.027309,-0.047155,0.055193,-0.058563,0.032908,-0.070514,-0.029374,-0.020531,0.055842,0.017045,0.075732,-0.062118,0.107793,0.014043,0.039056,0.095002,-0.065355,-0.110294,-0.090792,-0.024662,-0.118231,0.008095,0.033329,0.109131,0.041481,-0.076997,0.030552,0.040884,-0.071202,0.091451,-0.050348,-0.092425,-0.009399,0.012131,0.017551,0.02094,0.097504,0.111555,-0.121464,-0.044591,-0.007382,0.201726,0.091633,-0.047724,0.010343,-0.03845,-0.083192,-0.09768,0.071214,-0.112222,0.15482,-0.063063,0.00481,0.025214,-0.085423,-0.049222,-0.013763,-0.071227,-0.081563],[0.126274,0.170725,0.264871,-0.018033,0.178452,-0.013975,0.040556,0.344395,0.318805,0.038987,0.263567,0.159129,0.160627,-0.148659,0.294077,-0.123224,-0.006193,0.35386,0.322238,0.084911,0.13524,0.040689,0.142854,0.104129,0.101852,0.13603,0.215216,0.07878,0.169555,0.229264,0.286587,-0.067253,-0.248219,-0.009218,-0.167462,0.042171,0.054185,-0.102464,0.207047,0.043595,-0.023981,0.15739,-0.125847,0.230741,0.349954,0.018883,-0.109746,0.087282,0.162249,0.053619,-0.052672,0.223892,-0.166183,0.119933,-0.047479,0.232186,-0.043905,0.267309,0.139929,-0.135048,-0.066105,0.429565,0.204796,0.257701],[0.049484,0.067449,-0.339439,0.495925,-0.011655,-0.107006,-0.065989,0.131078,0.514727,0.153735,0.314971,0.29959,0.407077,0.245538,0.002165,-0.041488,0.193124,0.652297,0.339799,-0.098409,-0.293478,0.164524,0.070808,-1.14056,0.53109,-0.315138,0.159024,-0.008405,-0.381356,0.483034,0.255095,-0.095172,-0.52676,-0.105428,-0.136927,0.061817,0.328048,-0.12363,-0.147885,-0.707113,0.232226,-0.974574,-1.075477,0.19591,0.418412,-0.062312,-0.260415,0.32461,0.457993,0.284541,0.228541,-0.576598,-0.118775,0.5159,0.062339,-0.227708,-0.380775,0.193694,0.163105,-0.107278,-0.069669,0.497165,0.071371,0.206656],[-0.374259,-1.67056,-0.725517,-0.146931,0.075213,-0.020133,0.065974,0.063408,0.317636,0.39936,0.104997,0.024218,-0.274082,-0.304765,0.147651,0.116267,-0.443716,-0.009916,0.278957,-0.007379,0.294662,0.174496,-0.096935,-0.269316,0.381743,0.357013,-0.583161,0.074879,0.235553,-0.09979,-0.39031,-0.106864,-0.049475,-0.385751,-0.042174,0.143114,-0.062504,-0.135617,-0.649055,0.227995,-0.174205,0.832249,0.069663,0.391124,0.34744,-0.021186,-0.355062,0.103574,0.175781,0.162968,0.006429,0.23638,-0.155357,-0.082889,-0.036216,0.224249,-0.831988,-0.583793,0.146223,0.002907,-0.065864,0.300374,-0.2663,0.215016],[0.049437,0.068558,0.096397,0.032654,0.303635,-0.139576,-0.058922,0.103862,0.232663,0.2882,0.240776,0.22154,-0.412483,-0.491833,0.270575,0.097736,0.023883,0.00109,0.358032,0.128689,0.052847,-0.138882,0.09885,-0.165051,-0.073722,0.229473,0.363785,0.100872,0.159745,0.349147,-0.136802,-0.035474,0.38309,-0.075045,0.019538,-0.092173,-0.064453,-0.050793,0.014162,0.223835,0.039654,-0.197917,-0.113268,0.456508,0.381968,0.06722,0.034219,0.313493,0.154639,0.111822,0.048526,0.202671,0.05759,-0.234091,0.048606,0.238825,-0.527973,-0.001472,0.281492,-0.06077,0.081904,0.288374,0.019184,0.028155],[-0.145551,-1.197342,-0.307854,0.092396,-0.273215,0.015894,-0.075469,-0.376016,-0.039507,0.504765,0.020808,-0.45901,0.475528,-0.200687,-0.59523,-0.004748,-0.194023,-0.183211,-0.214032,0.238364,0.079401,-1.820966,0.06475,-0.243018,-0.770823,0.288969,0.615095,-0.100525,-0.341104,-0.205343,0.052078,0.082002,-0.785309,-0.170818,-0.031446,0.395747,-0.958493,-0.053823,0.204873,-0.399275,0.062568,-2.106792,-0.55162,-0.270759,-0.149978,-0.026249,0.872363,-0.03875,-0.075272,-0.138576,0.354026,-0.517933,0.078367,0.153336,-0.030846,0.370144,0.037258,0.048817,-0.189513,0.054558,0.082657,-0.042283,-0.258594,-0.190432],[-0.249662,-0.20389,0.121308,0.98596,-0.127918,0.053046,-0.193154,-0.370541,-0.488204,0.175836,-0.226451,-0.534415,0.405048,0.946164,-0.258663,-0.124314,0.238252,-0.771088,-0.388346,0.006501,0.08045,-0.125711,-0.298826,-0.167553,-0.18177,-0.2187,-0.245848,0.078406,-0.39934,-0.381324,-0.131977,-0.132476,0.167233,0.367953,0.037273,-3.474069,-1.683978,-0.04848,-0.135406,0.049684,0.387219,0.235971,-0.12311,-0.175911,-0.147511,0.025454,-0.315244,-0.507565,-0.328875,-0.072225,0.508139,-1.193563,0.029306,0.705495,0.095885,-0.35665,0.335371,0.0581,-0.348079,-0.095719,-0.065278,-0.320368,-0.211088,-0.063622],[-0.406453,-0.067238,-0.761684,0.115713,-0.008081,0.049043,0.004482,0.008283,0.219234,-0.381847,0.270074,0.112449,1.083417,-0.351805,0.206477,0.029336,-0.045337,0.075239,0.133716,-0.579841,0.020995,0.405028,-0.364365,-1.039035,0.367312,-0.150182,-0.410857,0.071361,0.407179,0.182261,-0.045906,0.011866,-0.285625,0.097005,-0.139559,-0.229611,0.205327,-0.132179,-0.306993,-0.256022,-0.727256,0.379789,-0.768914,0.322302,0.311701,-0.053619,-0.578365,0.091114,0.28568,-0.062892,-0.434371,-0.47368,-0.038654,-0.096648,-0.052665,-0.495541,-0.114449,0.029594,0.169279,-0.024437,0.08805,0.377216,0.12415,-0.001253],[0.613689,-1.47352,0.900088,1.601015,-0.243611,0.013107,0.098563,-0.088911,-0.305441,-0.254896,-0.062994,0.637231,-0.202668,0.376654,-0.291035,-0.01028,0.609953,-0.831491,-0.059308,-0.057255,0.193901,0.626962,-1.887807,0.232356,0.398131,0.152835,0.706949,0.018482,0.613096,0.005161,0.293263,-0.106691,-0.337808,-0.875127,0.075072,-0.334065,-0.495508,0.01846,0.578702,0.663847,-2.006519,0.388954,0.607737,-0.129047,-0.182975,-0.011065,0.125098,0.180594,-0.078301,-1.225647,0.357335,0.701194,-0.139997,0.379341,-0.029071,-0.896267,0.293909,0.282186,-0.132048,-0.055704,0.013853,-0.097764,-0.069301,0.068005],[0.626324,-0.552571,0.083802,0.238243,-0.183033,0.027684,0.082121,-0.018071,0.343185,0.25025,0.360404,-0.111789,0.080575,0.75751,0.053912,-0.127276,-0.178073,0.414241,0.337717,-0.395692,0.595712,0.301693,-0.736823,-0.677772,0.105817,0.214884,-0.178903,-0.108506,0.272402,0.268427,0.378484,-0.12112,-0.455164,0.004564,-0.072432,0.264371,0.306571,-0.145277,-0.52404,0.391354,-1.504406,0.38873,0.277259,0.122642,0.045664,-0.060729,0.13172,0.381934,0.432928,-0.467381,-0.139546,0.570619,-0.035392,0.036135,-0.108898,-0.143793,0.691314,0.312445,0.078837,-0.098935,-0.138715,0.349559,0.11222,0.037758],[0.179202,-0.319564,0.311384,-0.295615,-0.166826,-0.117261,0.026233,-0.447827,-0.208151,0.424967,-0.061748,-0.480211,0.053308,0.445588,-0.506912,-0.038282,0.029793,-0.391286,-0.577753,0.515074,-0.040846,-1.612637,0.470421,-0.020861,-0.467645,-1.511421,0.453097,-0.017658,-0.56706,-0.271471,-0.002605,-0.099285,0.501468,0.151217,0.066216,0.106641,-0.157975,-0.144108,0.523708,0.03049,-0.130868,-1.228388,0.59381,-0.337112,-0.2996,-0.040254,-0.023309,-0.380046,-0.367404,0.174075,0.225166,-0.696259,-0.021532,0.329784,-0.115253,0.219866,0.433931,-0.086165,-0.463966,-0.04267,-0.016619,-0.228391,-0.086685,-0.343814],[-0.047616,0.139112,0.08806,0.092427,-0.051191,0.104985,0.008286,0.014074,0.059382,0.096872,0.055996,0.067961,-0.086523,0.099584,-0.112268,-0.078513,0.006293,0.005179,-0.042134,0.113359,0.094999,0.010863,-0.024219,-0.035007,0.024641,0.10987,0.018737,0.113496,-0.091947,-0.093163,-0.051385,-0.086609,0.038516,-0.093748,0.057916,-0.055564,-0.004782,0.112366,-0.046661,0.064802,0.072923,-0.132998,-0.019138,0.052313,-0.012315,0.042031,0.066815,0.057128,0.104122,0.080164,-0.101212,-0.028758,0.025178,0.037246,0.026812,0.025787,0.090244,-0.097601,-0.021592,-0.116095,-0.095145,-0.058705,0.074816,0.114314],[0.490293,-0.887432,0.349579,-0.135164,-0.093394,0.085326,-0.069,0.010186,0.31923,0.908224,0.211309,0.485543,0.386362,0.15219,-0.094419,-0.108155,-0.502207,-0.102855,0.17929,0.925053,0.166196,-0.464769,0.584264,0.111464,-0.427353,-0.096114,0.548298,-0.045132,0.531452,0.284667,0.475966,0.035658,-0.156372,-0.60671,-0.155247,0.057135,-0.437691,0.059823,-0.122807,-0.136258,0.242412,-0.411118,-0.343581,0.015686,-0.165549,-0.117522,-0.046065,0.013633,0.128238,-0.738833,0.712915,0.519901,0.067343,-0.114736,-0.067471,-0.311866,-0.214492,-0.001108,-0.010045,0.023627,-0.037859,0.192645,-0.116245,-0.008914],[-0.319106,0.092112,-0.043977,-0.033694,0.148869,-0.000147,0.111004,0.08541,0.239691,-0.053165,0.249268,0.123271,0.154574,0.193312,0.436902,-0.050999,-0.043932,-0.079318,0.515491,-0.261578,-1.383147,-0.043334,-0.216421,-0.008536,0.494334,0.253777,-0.158845,-0.054898,-0.472789,0.520869,0.297802,0.003494,-0.07028,0.61486,-0.158255,-0.13548,0.205071,0.03631,0.191793,-0.191563,0.363686,0.264144,0.118295,0.40025,0.011462,-0.109194,0.132598,0.321078,0.270124,-1.079371,0.185687,-0.004759,0.077881,-1.814386,-0.0142,0.154165,0.327637,-0.07472,0.349904,-0.080551,-0.039849,0.197595,0.540637,-0.03075],[-0.017322,-0.088954,-0.496545,0.173178,0.088615,-0.023008,-0.001501,0.277646,0.031878,-0.274943,0.213046,-0.150079,0.073291,0.253369,0.225013,0.034872,0.217041,0.199906,0.202106,-0.277549,-0.206432,0.288735,-0.033535,0.021345,0.485568,0.51446,-0.347718,-0.109053,0.007322,0.254835,-0.106624,0.020143,0.107821,-0.215081,-0.123338,0.023597,0.242665,-0.085383,-0.329465,0.516508,-0.507058,0.451602,0.350406,0.123931,0.103103,-0.06684,-0.18818,0.300017,0.090155,0.454746,-0.269583,-0.048947,-0.16103,0.232054,0.029282,-0.173674,-0.082755,0.048778,0.254757,-0.021142,-0.129101,0.135092,0.283962,0.056894],[0.383941,0.237948,0.769907,0.102701,-0.005028,-0.080033,-0.140599,-0.031941,-0.161908,0.020624,0.07699,-0.444815,-0.300777,-0.034052,0.159636,0.011652,0.035175,0.02588,-0.216792,0.105865,-0.004897,-1.344636,0.112392,-0.165654,-1.56427,-0.222197,0.260514,0.070748,-0.324208,0.023014,-0.235514,-0.148438,0.703304,0.343391,-0.078032,-0.106636,-0.018628,-0.049696,0.365796,0.243599,-0.139423,-0.897223,0.558829,0.094838,0.139137,-0.076894,0.431103,-0.207487,-0.26955,0.409378,0.220664,0.162534,-0.086912,-0.034694,-0.061247,0.495925,-0.053099,-0.60837,-0.03967,-0.049212,-0.014153,0.001282,-0.025572,-0.208011],[-0.00155,0.095717,-0.102703,-0.105368,-0.014477,0.002008,-0.074469,0.098671,-0.100526,-0.092531,-0.119047,0.006885,0.081214,-0.107691,0.119741,0.097099,0.116353,0.001035,0.022923,0.123283,0.1082,0.109861,-0.000744,0.005898,-0.017808,-0.088099,0.099041,0.029809,-0.049181,-0.029446,0.075032,0.019983,0.081158,0.071926,-0.120966,0.002024,-0.144631,-0.089859,0.033981,-0.079348,-0.086726,0.12405,-0.06778,0.09179,0.020962,0.124699,-0.096991,0.061001,0.019291,0.067517,0.088838,-0.091167,0.036279,-0.05899,-0.04354,-0.075509,-0.045149,0.089668,0.102243,-0.053272,0.017017,-0.025467,0.0537,0.029141],[-0.47097,-0.192698,-0.398651,-0.125102,-0.337016,-0.072693,-0.064069,-0.462057,-0.200703,-0.411205,-0.076213,-0.286625,-0.047091,0.221824,-0.495105,0.096353,0.45884,-0.26936,-0.39998,-0.098762,-0.243604,-0.748314,0.075219,-0.07809,-0.690001,0.006954,0.250754,-0.144,-0.2286,-0.269086,0.030888,-0.073868,0.947244,-0.091653,0.022807,0.497872,-0.004394,0.075589,0.32095,0.402653,-0.440532,-1.668759,0.498654,-0.260119,-0.369147,-0.032621,0.498809,-0.307035,-0.090698,0.443016,-0.048565,-1.255705,0.070187,0.388612,0.09027,0.20384,0.2178,0.160227,-0.33175,-0.086908,-0.107493,-0.19641,-0.180628,-0.374488],[-0.060523,0.118183,-0.076908,0.008312,-0.111999,0.122785,0.01247,0.114429,0.031857,0.088775,-0.051371,0.019703,0.02827,-0.017901,0.048465,0.090697,-0.032529,-0.106817,0.062945,0.101579,0.071289,0.054896,-0.008727,0.016864,0.060453,-0.048409,-0.05845,-0.041207,-0.057861,-0.078011,-0.085765,0.065239,0.085281,0.069406,0.095637,0.009753,0.00659,-0.007306,-0.031242,0.093417,0.017361,-0.103803,0.052657,0.018485,-0.090176,0.093006,0.023035,0.030303,0.119417,0.119541,-0.012937,0.01329,0.063849,0.038477,-0.087114,-0.024243,0.002874,0.0695,0.016647,0.01482,-0.1212,-0.090662,0.063303,-0.018532],[-0.497014,-0.25706,0.532109,-0.304659,0.381981,0.036749,-0.041472,0.175019,0.128113,-0.537848,0.238282,0.276078,-0.862228,-0.58884,0.48757,0.115036,-0.036634,0.341991,0.26086,-1.044628,0.825467,-0.017739,-0.389194,-0.609639,-0.168785,-0.244174,-0.181251,0.036054,0.643086,0.204455,-0.117674,0.036598,-0.246217,0.465743,-0.012511,0.59822,0.296637,-0.150411,0.16164,-0.092912,-1.088639,-0.039878,-0.140593,0.492863,0.260902,-0.098016,0.199092,0.009158,0.191942,-0.765416,-0.413986,0.439079,-0.017497,-0.327696,-0.126977,0.368852,0.095828,0.160552,0.355974,0.063003,-0.111427,0.281223,0.232569,0.065466],[0.043238,0.110117,-0.055247,-0.059744,0.054471,-0.069797,-0.059862,0.291968,0.399775,0.335672,0.303509,0.57809,-0.549242,0.133049,0.083168,-0.053976,0.099272,0.469703,0.100207,0.247924,0.110664,-0.501352,0.339332,-0.102723,0.054586,-1.123984,0.394083,-0.131415,0.065204,0.319372,0.366445,-0.044297,0.237915,-0.122387,-0.052103,-0.129767,0.130414,-0.050393,0.254068,0.072862,0.099664,-1.748537,-0.198773,0.318032,0.302332,-0.154769,-0.526792,0.228502,0.277359,-0.083019,0.139353,-0.018045,0.012882,0.087343,-0.105383,0.105175,0.226214,0.474426,0.159171,0.074449,-0.101727,0.279145,0.055256,0.229185],[-0.690212,-0.128841,-0.610874,0.469754,0.120468,-0.087431,-0.031276,0.188497,0.33045,-0.036082,0.454149,0.082114,-0.374689,-0.649655,0.409474,0.022694,0.046967,0.265091,0.377392,0.067968,-0.314431,-0.310401,0.250922,0.771858,0.521587,0.057749,0.0272,-0.076838,-0.121191,0.540989,0.443072,0.044295,0.780836,0.495617,-0.100489,-0.316713,0.228555,-0.128875,0.310457,-0.321348,0.0797,-0.227748,-0.031112,0.329633,0.265559,-0.101334,-0.498643,0.353064,0.363345,0.732776,0.01906,-0.760447,0.065401,0.229001,-0.032123,-0.049554,0.388207,0.498448,0.438185,-0.114239,-0.110627,0.451277,0.34843,0.193857],[0.138481,0.184434,0.514186,-0.619405,-0.065377,-0.025935,-0.065367,-0.259222,-0.143083,-0.430147,-0.040627,-0.205355,-0.027967,-0.008675,-0.103025,-0.015714,0.08919,-0.255985,-0.430981,-0.984323,-0.699579,-1.203841,-0.305643,0.137224,-1.085249,-0.701305,0.254575,0.03282,-0.551427,-0.380311,-0.021743,-0.023477,0.357728,0.205006,-0.059629,-0.153991,0.261715,-0.078986,0.450017,-0.210105,0.08925,-1.716421,0.263369,-0.107638,-0.046911,0.065761,0.414346,-0.421073,-0.305399,0.079056,-0.077933,0.046811,-0.079507,-0.608949,-0.031233,0.54282,-0.025672,-0.261239,-0.276504,0.095216,-0.036279,-0.058696,-0.344916,-0.22724],[-0.2351,0.59861,0.166035,0.477163,0.507524,-0.078488,-0.106096,0.822545,0.973959,0.56885,0.967457,-0.210328,0.116381,-0.064998,0.322368,-0.13808,-1.125745,1.214883,0.734195,0.21585,-0.378679,0.744383,-0.30611,-2.267845,0.617269,-2.736162,0.148911,-0.081874,-0.203934,0.600069,0.63725,-0.087843,-1.099924,0.587308,-0.025082,0.250836,0.219243,-0.072015,-0.106206,-1.450636,-0.069426,0.395715,-0.50044,0.581363,0.93633,-0.008336,-0.54701,0.939334,0.841482,-0.680022,-0.02168,-0.459092,-0.146858,-0.148865,0.025155,0.419464,0.089694,0.648472,0.663728,0.062031,-0.007018,0.869658,0.500988,0.744783],[-0.001767,0.038511,0.410671,0.04616,0.215413,-0.072401,-0.040068,0.17936,0.2421,0.284521,0.309342,0.700078,0.025464,-0.079234,0.240006,0.051176,-0.163987,0.001136,0.229948,0.093406,0.050534,0.178752,0.034199,-0.63165,-0.213948,0.171461,-0.010255,-0.12434,0.559446,0.408452,0.210646,-0.062519,-1.203939,0.147151,-0.095009,-0.131396,-0.06735,0.104402,0.363399,-0.752522,0.236094,0.095587,-0.762321,0.302448,0.321218,0.00705,-0.369188,0.330995,0.363673,-0.409058,0.174026,0.690985,-0.112883,-0.474652,-0.014782,-0.067161,-0.028797,0.291672,0.204875,0.115264,-0.12926,0.404123,0.275396,0.071294],[0.009615,-0.038921,0.087814,-0.089714,-0.084784,0.119898,-0.073781,-0.105235,0.066685,-0.07088,0.001446,0.051334,0.026875,-0.065739,0.10621,0.005245,-0.132542,0.058087,-0.08721,-0.104104,0.034943,0.000753,0.111758,-0.036208,-0.019682,-0.107175,0.102013,-0.03811,-0.08456,-0.082546,0.053813,-0.031113,0.05835,0.06824,-0.020663,-0.023812,-0.050771,0.023016,-0.019195,-0.094942,-0.040803,0.063341,-0.071763,-0.092301,0.068879,-0.070365,0.032057,0.001797,0.041012,0.043522,0.098415,-0.090427,0.001683,0.040982,0.003556,0.120644,0.038139,0.077303,0.140741,0.122272,0.079051,0.109357,-0.030639,0.029061],[-0.145438,-0.097596,0.208924,-0.117688,-0.282436,-0.116299,0.060004,-0.290411,-0.271633,0.073164,-0.453253,0.197824,-0.003974,-0.047809,-0.255018,-0.015266,0.190968,-0.678305,-0.558936,0.372225,-0.530473,-2.214778,0.096869,0.384139,-1.424295,-0.465354,0.545027,-0.009673,-0.500657,-0.234207,-0.32636,0.056493,0.86621,-0.183567,-0.090747,0.288723,-0.313106,-0.102508,0.328213,0.382384,0.028543,-3.354428,0.514558,-0.370179,-0.3836,-0.010053,0.226796,-0.590494,-0.409071,0.827234,0.260302,-0.260303,-0.080968,0.5928,0.086133,0.590803,-0.210807,-0.801177,-0.401137,0.107097,0.091098,-0.355838,-0.432921,-0.444914],[0.338565,0.289221,-0.456595,0.253854,0.186375,0.010529,-0.128721,0.217164,0.127373,-0.174014,0.138024,0.084969,0.122896,0.540395,0.267617,-0.11305,0.092756,0.325031,0.241869,0.082976,-0.20452,-0.009791,0.214585,-0.291329,0.157722,0.228215,-0.056644,-0.063435,-0.004369,0.14182,-0.04265,0.099064,0.272425,-0.295361,0.003213,-0.14212,0.139751,-0.083156,-0.447993,0.542135,0.451709,0.130754,0.173191,0.219098,0.186241,-0.16165,-0.340498,0.228965,-0.016083,0.467141,0.022647,0.266549,0.012619,0.0481,0.025005,-0.020191,0.004461,0.042971,0.028349,0.051466,0.048368,0.265076,0.232858,0.119873],[0.643726,0.156584,-1.803012,-0.474825,-0.430101,-0.04623,0.013448,-0.468289,-0.569049,-0.065407,-0.714721,-0.174912,0.813654,0.479743,-0.246499,-0.101003,0.007116,-0.611042,-0.390451,0.123947,0.46194,0.838062,0.356295,-0.030838,0.061682,0.546384,-1.833349,-0.089297,0.479282,-0.616311,-0.784334,0.030868,-0.768248,-0.172728,0.070974,-0.148772,-0.287518,0.045811,-1.041776,0.288549,0.909109,0.733511,0.497638,-0.19546,-0.550275,0.018549,0.161383,-0.420314,-0.570305,0.650322,0.179838,0.208982,0.092268,-0.038798,-0.064777,-0.782024,-0.547461,-0.926803,-0.395706,-0.021476,0.082083,-0.576975,-0.563089,-0.481797],[0.02434,0.791785,-0.126209,0.276197,0.737334,-0.013729,-0.068892,0.704775,0.959141,0.563329,0.973191,-2.536068,0.116678,-0.091982,0.65958,0.156588,0.34632,1.503416,0.869971,-0.572782,-1.033687,-2.219314,-0.358177,0.199525,1.079192,-1.164672,0.144145,0.162334,-0.599961,0.735505,0.95891,0.048186,-1.352411,-0.128893,0.10094,0.01623,0.707246,-0.048341,-0.314594,0.751575,-0.868324,-0.247009,-0.63966,0.581049,0.812535,-0.118259,-1.364336,0.729365,0.818777,-1.318877,-0.593358,-1.284501,0.05633,0.030135,0.024008,0.544465,0.499035,0.946908,0.762169,0.046523,0.082387,0.892373,0.568132,0.775957],[0.398895,-0.23267,-0.794346,0.465016,-0.265636,0.097711,0.069264,0.278875,-0.131586,-0.060122,-0.107015,0.031833,-0.014055,-0.397249,0.383045,0.093838,-0.066117,-0.067525,0.186987,0.273039,-0.438917,1.226399,-0.145979,0.383063,1.706119,-0.2315,-0.093823,-0.08088,-0.275535,0.238863,0.264315,-0.123421,-0.546883,-0.282695,-0.007447,-0.501309,0.190598,0.065812,-0.635537,0.112005,0.186834,0.675522,0.625732,0.180028,0.094976,-0.027502,0.177894,0.260829,0.191248,0.216717,0.076547,-0.349426,-0.05664,-1.173119,-0.008281,-0.322808,0.059439,-0.220728,0.144876,-0.085709,0.095999,0.160202,0.45044,0.264713],[0.266998,0.152687,-0.361338,0.018989,0.080456,-0.043253,0.07321,-0.03156,0.025633,-0.087969,-0.059026,-0.412695,0.297376,-0.131719,0.038174,-0.030747,0.182782,0.452283,0.072639,0.219662,-0.292132,-0.148113,0.182922,-0.470008,-0.427009,-0.777445,0.294264,0.103452,-0.595215,-0.1379,0.051546,0.080522,0.52678,-0.25503,0.065913,0.35648,0.346262,0.041233,0.015389,0.288286,0.263579,-2.227607,0.31272,0.166108,0.169881,-0.149817,-0.298995,-0.020709,-0.177738,0.435445,-0.021932,-0.137518,0.05481,0.126376,-0.016049,0.32964,-0.232755,0.392245,0.065659,-0.107628,-0.066241,0.066121,0.069322,0.161175],[0.040136,-0.054892,0.493937,0.261196,-0.138638,0.051455,-0.13806,-0.313454,-0.125281,0.074757,-0.297923,-0.109592,0.347046,0.03243,-0.146281,0.024455,-0.048583,-0.936012,-0.013634,-0.289641,0.472998,0.409487,-0.041352,0.241543,-0.705338,0.371603,0.56525,-0.158473,0.047094,-0.397242,-0.372209,-0.066336,0.11082,0.131699,-0.083729,-1.957635,-1.627058,-0.095493,0.288473,0.040494,0.078684,0.539177,0.040462,-0.115393,-0.340022,-0.008549,0.356035,-0.146146,-0.598601,0.205195,-0.007822,0.393909,-0.010587,-0.529732,-0.024247,0.233159,-0.861213,-0.177124,-0.253752,-0.022846,0.033932,-0.210134,-0.34821,-0.254705],[-0.118375,-0.776278,-1.746674,1.2965,0.414992,-0.087308,-0.087291,0.794109,0.465883,0.359717,0.857447,-1.070544,-1.577359,0.607048,0.66157,-0.064575,-0.796493,1.791435,0.628649,0.068325,-0.524169,1.146026,-0.102649,-0.902066,1.591729,0.753339,-1.746874,0.005419,-0.856679,0.821427,0.909637,0.075491,-1.236801,-0.34644,-0.025507,-0.775252,1.189862,0.021514,-0.964797,-1.123715,-0.236068,1.418973,-0.023847,0.720776,0.516056,-0.021106,-1.268978,0.966478,0.93818,0.391706,-0.778423,-0.809698,0.00421,0.139868,-0.121923,-0.870824,0.952725,2.196914,0.705373,-0.115882,-0.023812,0.809935,1.095473,0.565877],[0.147367,-0.123473,-1.72946,-0.516008,-0.117705,-0.087266,-0.090212,-0.205481,-0.207442,0.331988,-0.384301,-0.668993,1.729297,-1.001548,-0.109041,-0.024435,-0.192698,-0.559741,-0.172935,-0.006233,-0.748414,0.80846,-0.624496,0.534627,0.504273,0.378958,-0.006565,-0.003901,-0.9895,-0.549574,-0.526381,-0.094858,-0.550313,0.137458,-0.043047,-0.272069,-1.059306,-0.10878,-0.191569,-0.775495,0.799913,0.690818,-0.601812,-0.265066,-0.103313,0.038583,-1.036833,-0.439399,-0.626699,-0.495023,-0.02248,-1.054555,-0.090666,-0.424682,-0.114219,-0.184363,-0.301894,-1.507993,-0.356887,0.006085,-0.099247,-0.39332,-0.0484,-0.364259],[0.078955,0.05617,0.083352,0.05545,-0.019099,0.012009,-0.040632,-0.10898,0.048702,0.003364,0.078575,-0.056388,-0.032961,-0.105465,-0.008093,0.023752,-0.069393,-0.064241,0.112837,0.065073,0.082385,-0.101191,-0.069319,-0.016943,-0.029961,0.039975,-0.204124,-0.076606,-0.092122,-0.11169,0.035609,0.06344,-0.095438,0.109378,0.028555,-0.018761,-0.124476,0.05905,-0.062133,0.099859,0.05145,-0.005044,-0.034726,-0.107013,-0.057261,-0.017234,-0.021829,-0.118077,-0.003389,-0.066386,-0.077906,0.028777,0.090323,-0.050849,-0.122584,0.109254,0.091801,-0.013283,-0.087118,-0.020014,-0.113434,0.062592,0.017883,0.015405],[0.137095,-0.051006,0.075354,-0.084002,-0.049397,0.084052,0.067304,0.191932,0.230713,0.165773,0.377394,0.138739,-0.242841,0.048875,0.266419,-0.016417,0.000781,-0.118845,0.256444,0.491289,0.26887,0.015913,-0.006983,0.192642,0.017371,0.126434,0.205639,-0.07606,0.337613,0.296237,0.313033,-0.118823,-0.522754,0.164995,0.03361,-0.024517,-0.260662,-0.024362,0.014301,0.008132,0.013287,0.213236,-0.201227,0.282717,0.284886,-0.119291,0.228657,0.265013,0.285252,-0.394729,0.288435,0.396933,0.04436,-0.183075,-0.08931,-0.213473,0.138732,0.063117,0.353822,-0.11893,0.066029,0.294953,0.32989,0.099575],[-0.290866,0.141762,0.02439,0.296316,0.010995,-0.12246,0.059757,0.128215,0.164053,-0.387472,0.327266,-0.142708,-0.684849,0.205672,-0.125717,0.084597,0.31245,0.302215,0.043186,0.067486,0.38457,-0.033479,0.052286,0.465942,0.22863,0.109243,-0.160104,0.017119,0.078504,-0.088828,0.052106,-0.048097,0.053257,0.046732,-0.115869,0.093485,-0.037901,0.050985,-0.329287,0.274736,-0.698591,0.265047,0.328899,-0.023889,0.28846,-0.069851,0.083893,0.151244,0.177977,-0.157343,0.215736,0.214508,0.009342,0.488848,-0.144143,-0.167096,0.138944,-0.142928,0.15403,0.058388,0.018361,0.297713,-0.104804,0.108191],[0.027873,0.025519,-0.04524,0.027365,0.081878,0.110651,-0.048444,0.017551,0.099512,-0.042348,-0.158557,0.037734,0.031741,-0.041719,-0.000131,-0.029856,0.134316,0.047791,0.085131,-0.100253,0.035083,0.061562,0.058419,0.021991,-0.124583,-0.121942,0.083275,-0.056911,0.010034,0.023094,0.066778,-0.072725,-0.090998,0.115063,-0.064422,0.075586,0.010918,-0.111336,0.042971,0.028864,-0.119758,-0.112244,-0.047301,-0.119423,0.075414,0.075793,0.070944,0.025723,0.0769,0.002707,-0.018861,-0.019051,-0.010664,0.045034,0.120868,-0.02075,0.132341,0.033622,0.047001,0.101156,-0.073296,0.072205,0.072428,0.08377],[-0.537107,0.225612,-0.257138,-0.00775,-0.005917,-0.082652,-0.078939,0.07582,0.294252,-0.021654,0.227447,-0.146462,0.423375,-0.073956,0.171981,-0.139122,0.134651,0.277838,0.156862,-0.750235,-0.529402,0.482138,-0.470027,-0.319198,0.727581,0.260525,-0.626426,0.071319,-0.018171,0.267079,0.089113,-0.073924,-0.577351,-0.335959,-0.052207,-0.183927,0.082062,-0.033937,-0.309172,0.029705,0.286881,0.467056,0.027612,0.201308,0.166382,-0.097405,-0.056561,0.179583,0.101293,-0.150146,-0.521558,-0.102634,-0.115102,-0.296647,-0.089455,-0.411681,0.121373,0.329469,0.159406,0.060735,-0.050649,0.202632,0.241807,0.249832],[-0.571017,-0.135161,-0.056759,-0.004042,0.265322,-0.045234,-0.136736,0.038933,0.144008,-0.198477,0.078855,0.050013,-0.188632,-0.106715,0.095155,0.041048,0.052419,-0.115823,-0.186654,-0.615606,-0.390937,-2.343396,0.073123,-0.116908,-0.708584,-3.03098,0.464596,0.067491,-0.529319,-0.040908,-0.056772,-0.013336,-0.108483,0.388233,0.083954,-0.05982,-0.116972,0.112828,0.361217,-0.157124,-0.186161,-3.315325,-0.292855,0.324963,0.26684,-0.040717,-0.366525,-0.13319,-0.123495,0.19828,-0.125458,-0.484102,-0.137934,-0.334781,-0.025029,0.621599,-0.006162,-0.12613,0.038515,0.002385,-0.025314,0.304892,-0.264411,0.114386],[-0.14242,0.10942,0.012144,0.022038,0.010643,0.007565,0.056722,-0.060912,-0.081523,0.003111,0.029062,-0.025401,-0.07285,-0.113768,-0.144906,0.005851,-0.096272,-0.088099,-0.115943,0.081599,0.073389,-0.078322,-0.026104,-0.064174,0.118938,-0.003377,0.039555,-0.072905,-0.002118,0.052272,0.014478,0.056775,-0.016093,-0.065479,-0.024804,-0.077031,-0.064984,0.122091,-0.117377,-0.07019,0.117332,0.043247,0.094621,-0.074488,0.092274,-0.056456,0.102813,-0.099451,-0.024189,0.025915,-0.086223,-0.055518,-0.086573,-0.05885,0.002339,-0.050715,-0.120049,-0.054009,-0.112097,0.013943,-0.081812,0.096861,0.050886,-0.09659],[-0.049175,0.101928,0.07241,-0.120443,0.00376,-0.051226,-0.02469,0.043717,0.115885,-0.009124,-0.025327,-0.02861,0.117674,-0.087639,0.049855,0.106019,-0.009758,-0.021409,0.083226,0.046047,-0.054791,-0.055288,0.024017,0.076649,0.097092,-0.099539,0.093333,-0.112573,0.097106,-0.033006,-0.038001,0.013119,0.019492,0.076324,-0.122728,0.000221,-0.093339,0.110186,-0.021726,-0.114332,-0.110179,-0.00137,-0.006149,-0.011929,0.096466,-0.059995,-0.018498,0.038555,-0.067254,-0.069732,0.005829,0.080796,0.051394,0.035506,0.065572,0.074389,0.013487,-0.092505,-0.031216,0.006429,-0.045998,0.040224,0.003883,-0.023957],[-0.310205,-0.731329,-1.618089,0.365965,0.389911,0.025077,-0.028454,0.368906,0.802643,0.259314,0.539108,-1.247161,-0.860737,0.081969,0.39025,-0.064579,-1.966717,0.661421,0.558102,0.291609,0.219102,0.617933,-0.821754,-0.896891,0.873432,-0.109795,-1.115291,-0.123753,-0.210494,0.326919,0.216692,-0.112525,0.402251,0.133755,0.030851,0.201499,0.535935,0.119447,-1.981532,-0.722736,-0.159211,1.120152,-1.209303,0.703329,0.593294,0.044675,-1.318698,0.43923,0.51069,-0.173117,0.03346,-1.378028,-0.016616,-0.075299,0.07691,-0.442397,-0.134837,0.436791,0.497607,0.064116,-0.116724,0.658257,0.206061,0.587273],[-0.039994,-0.564618,-0.232588,0.163867,0.151522,-0.065481,0.075489,0.243782,0.309564,0.26748,0.207869,-0.06126,0.186559,-0.200132,0.269577,0.01015,-0.095519,-0.062328,0.241768,0.00285,0.216586,0.150872,0.132064,0.214135,0.289479,0.342496,-0.17416,-0.045289,0.27786,0.121985,-0.033778,-0.025232,-0.531815,-0.151182,0.016571,-0.153272,-0.111623,0.09451,-0.139824,0.00583,0.071677,0.517478,0.080836,0.307955,0.450529,-0.063163,-0.110013,0.145765,0.206067,0.055187,0.162012,0.239487,-0.085904,0.050629,-0.032412,0.12654,-0.519534,-0.247952,0.382606,0.060533,-0.051115,0.40186,-0.192618,0.091239]],"biases":[0.143274,-0.01048,0.351253,-0.054789,0.241232,-0.048126,-0.112823,0.32765,0.292597,-0.243273,0.292795,-0.170195,-0.237317,-0.01009,0.216356,-0.077997,-0.044615,0.077003,0.236401,0.026622,-0.256064,-0.113864,0.007248,0.073668,-0.0535,0.207261,0.424528,-0.055088,-0.025465,0.343655,0.265252,-0.020612,-0.022799,-0.012565,-0.076432,0.071196,0.212825,-0.099897,0.30738,-0.173436,-0.14255,-0.284014,-0.104598,0.289817,0.43626,0.030453,0.185287,0.277038,0.194202,-0.159297,0.061704,0.0555,-0.057881,-0.134058,0.018044,0.344325,0.202185,0.111767,0.19632,-0.068693,-0.083364,0.372391,0.333559,0.312475]},{"weights":[[-0.244198,0.023159,-0.697458,-0.392313,-0.296054,-0.240544],[-0.051861,-0.136755,-1.490559,-1.037888,-0.818722,-1.014813],[1.027748,0.863519,0.551596,0.704948,0.672761,0.631519],[0.948775,0.872625,0.832777,0.689784,0.402586,0.139384],[0.055952,0.080133,0.350216,0.184597,0.116831,0.16424],[-0.058059,-0.003686,-0.093871,0.091044,0.08557,0.076844],[0.04949,-0.034113,0.072537,0.091688,-0.082134,-0.072156],[0.17936,0.119086,0.291737,0.345342,0.222365,0.321546],[0.214351,0.570601,0.351581,0.322687,0.614393,0.433096],[-0.567683,0.775117,-0.887323,-0.254263,-0.150554,-0.164434],[0.320988,0.368425,0.240442,0.328576,0.336986,0.380226],[-0.828449,-0.450226,-0.330836,-0.421968,-0.374002,-0.364224],[-1.863918,-0.616615,-0.080494,-0.776044,-1.066532,-0.777397],[-0.355215,0.059258,-1.721268,0.482609,0.523979,0.497476],[0.355684,0.04381,0.418365,0.210782,0.224309,0.200504],[0.012488,-0.035034,0.100681,0.029599,-0.124683,0.095023],[0.016502,0.034726,-0.451574,-0.175099,-0.398298,-0.221411],[0.489582,0.815561,0.546422,0.588639,0.575995,0.568607],[0.438349,0.401502,0.41016,0.319511,0.499491,0.352361],[0.358101,-0.90399,0.948833,0.432417,0.271537,0.352783],[-1.072523,-0.836145,-0.844847,-1.2198,-1.077092,-0.701592],[1.27768,1.039679,1.791233,1.800106,2.151912,1.869388],[0.396673,0.088058,-0.332591,-0.329415,-0.010145,-0.392382],[0.687659,0.629301,0.560627,0.493542,0.664805,0.557683],[1.624936,1.407847,1.715786,1.623126,1.646447,1.515403],[0.681497,1.041536,0.928013,0.783294,0.614248,0.731824],[0.644088,0.438842,0.716596,0.698913,0.577124,0.70262],[-0.089136,-0.066125,-0.019018,-0.030631,-0.094699,0.077103],[-0.582472,-0.723516,-0.693361,-0.694935,-0.643855,-0.875732],[0.531053,0.393768,0.295648,0.270974,0.229251,0.30456],[0.350384,0.377175,0.084639,0.322127,0.364333,0.179801],[0.007959,-0.081509,0.029537,0.034806,0.01242,0.086041],[-1.011053,-1.149756,-1.025865,-0.973815,-0.996171,-0.962825],[0.412145,0.088776,0.130018,0.366885,0.588514,0.289002],[0.058118,-0.122604,0.025209,-0.06964,0.068995,-0.04999],[0.581538,0.555609,1.754617,0.246864,0.119996,0.116468],[0.784035,0.332071,0.490494,0.472952,0.85351,0.716548],[-0.069292,-0.080486,-0.017569,0.07977,0.057095,-0.0309],[0.442985,0.524524,0.358522,0.431132,0.472583,0.367398],[-0.720166,-0.473521,-0.7372,-0.601181,-0.437642,-0.67077],[-0.311516,-0.493489,0.441063,0.11602,-0.206741,0.108427],[1.731661,1.775004,3.089452,2.346584,2.576602,2.123749],[-0.632885,-0.731217,-0.865951,-0.546768,-0.447026,-0.578925],[0.35219,0.263331,0.440277,0.267247,0.324585,0.162647],[0.138621,0.365998,0.435796,0.39423,0.286982,0.414432],[-0.019339,-0.030662,-0.064293,-0.094026,-0.001096,-0.009051],[0.158912,0.671538,0.819951,0.461886,0.495779,0.463625],[0.38707,0.312929,0.291124,0.400532,0.189854,0.316138],[0.377795,0.353455,0.211509,0.369047,0.320198,0.407072],[-0.6471,-0.670232,-0.563552,-0.984619,-1.1097,-1.001429],[0.198905,0.404143,-0.360817,-0.057028,-0.128852,-0.110587],[-0.838495,-0.867556,-0.807641,-0.632192,-0.571061,-0.512753],[-0.040653,-0.022241,0.009284,-0.081001,0.008957,0.035352],[0.882066,0.245869,-0.535214,-0.264867,-0.772527,0.056068],[0.060036,0.006668,0.108323,0.115309,-0.113383,-0.082901],[-0.037908,0.020586,0.735371,0.322076,0.215903,0.411675],[0.489412,0.006892,-0.146096,0.379936,0.296147,0.45476],[0.725395,0.432334,0.371296,0.34618,0.403716,0.449416],[0.307412,0.228479,0.321781,0.296356,0.226698,0.220068],[-0.044625,0.031635,0.086795,-0.096917,0.025812,-0.070732],[0.079025,0.011606,-0.1113,0.051125,-0.04425,0.073386],[0.247054,0.421414,0.349486,0.333627,0.323723,0.329998],[0.438296,0.006307,0.206466,0.272758,0.194124,0.318016],[0.094089,0.174009,0.237982,0.283721,0.319128,0.252399]],"biases":[0.406149,0.44571,0.252307,0.169291,0.071533,0.488156]}]},"round":409,"phase":113,"phaseIteration":4,"trained":"pilot","generation":408,"dominanceMetric":"pilotWinRate","dominanceThreshold":0.65,"dominanceReached":false,"candidateSpawns":2,"selectedCandidate":2,"pilotWinRate":0.0,"enemyWinRate":1.0,"averageScore":2245.0,"averageWave":2.5,"averageSteps":85.0,"waveClearRate":0.2,"averageClearSteps":164.0,"enemyDropRate":13.2786,"invalidDropRate":0.6753,"enemyFireRate":0.4821,"pilotFireRate":0.3748,"pilotShotAccuracy":0.6603,"pilotHits":208,"pilotFires":315}
