{"id":111,"label":"Pilot v111","role":"pilot","model":"sb3-dqn-pilot-v111","actions":["left","right","fire","stay","up","down"],"features":["target_dx","abs_target_dx","threat_dx","threat_y","bullet_ready","alien_count","wave","drop_ready","enemy_shot_ready","fleet_y","lives","danger_shot_dx","danger_shot_y","danger_shot_lane","pilot_bullet_dx","pilot_bullet_y","bee_count","gunship_count","boss_count","ship_y","target_dy","enemy_ship_dx","enemy_ship_y","enemy_ship_role","enemy_ship_fire_ready","enemy_ship_bullet_lane","enemy_ship_bottom"],"network":{"activation":"relu","layers":[{"weights":[[0.074586,-0.656546,0.258172,-0.104704,0.067066,-0.180855,-0.108487,-0.169282,0.008,0.893154,-0.26543,0.414271,-0.012604,-0.165442,-0.057147,-0.091288,-0.956669,-0.184166,-0.023694,0.099329,0.165215,-0.195201,0.596558,0.29588,1.040398,-0.200379,-0.418591,0.261913,0.282205,0.616753,-0.018486,1.4847,-0.359449,-0.301352,-0.034982,0.064483,-0.112816,0.131822,-0.426187,0.287693,0.059117,-0.627347,-0.048766,0.167736,0.087382,0.698642,-0.308112,-0.297302,-0.023617,0.660129,0.091687,0.000758,0.198314,-0.526001,-0.087957,0.289896,-0.38542,-0.06964,-0.678732,0.018669,0.151556,-0.030511,-0.284228,0.400326],[-0.545386,-0.101683,0.093289,-0.010959,0.091107,-0.649725,-0.324624,-0.073303,-0.560136,-1.590681,-0.084786,-0.048168,-0.021911,0.073968,0.296693,0.619369,0.047671,-0.584453,-0.086118,-0.02257,-0.272438,0.075265,-1.279152,-0.283988,0.039601,0.283852,-0.809904,-0.523044,-0.307667,0.623329,-0.146497,0.565169,0.088756,-0.525356,0.02106,0.007812,0.047486,0.000642,-1.357487,-0.013296,-0.34712,0.332737,0.057907,-0.163594,-0.117537,0.264987,-0.408497,0.236085,-0.51832,0.870742,0.519003,0.151381,0.035521,0.384218,-0.263754,0.165261,-0.061269,0.090934,-0.382753,-1.233333,-0.156442,0.124682,-1.035171,-0.927341],[-0.057409,-0.08644,0.060124,-0.106557,0.021589,0.083665,0.172918,-0.039675,0.09241,-0.021553,0.009484,-0.101653,-0.10159,0.070972,0.022033,-0.056216,-0.101823,-0.478837,0.494505,-0.062159,0.279448,0.234665,-0.008349,0.007155,0.05395,0.142695,0.004354,-0.077686,0.044511,0.160498,-0.076754,0.049616,-0.466473,0.203546,-0.105167,0.067963,0.029735,-0.145048,-0.138803,0.620219,0.113191,0.171902,-0.132707,-0.100872,0.101545,0.09633,0.138402,-0.107147,0.548366,-0.205443,0.545609,0.11361,-0.24162,-0.103878,0.098552,-0.117774,-0.058652,-0.132025,-0.023864,0.55956,-0.042303,0.069172,0.105369,0.123509],[-0.018743,-0.17812,0.193819,-0.154327,-0.006256,0.232983,-0.096667,-0.054006,-0.016301,-0.013199,-0.055225,0.244044,-0.030527,-0.004047,-0.13487,-0.620774,-0.004273,-0.078272,-0.268366,0.051789,-0.022928,-0.249413,0.103497,-0.008588,-0.035937,0.005786,0.02274,0.195013,0.110798,-0.218634,-0.049961,-0.00964,-0.004662,0.240811,0.086981,-0.150645,0.057692,-0.188235,0.092787,-0.080165,-0.104511,-0.055451,-0.721245,0.040773,0.083681,0.145705,0.154849,0.264707,0.562297,-0.022673,-0.180432,-0.682405,0.064188,0.10027,-0.092753,0.246352,0.166056,-0.092745,0.282185,0.115802,0.018326,0.168138,0.111099,0.064672],[-0.135764,-0.106032,0.057026,0.036805,-0.147524,0.104998,0.059192,0.026887,0.010377,0.2736,0.032148,0.088943,0.072436,-0.127337,0.148487,0.002854,-0.098935,0.054524,0.016647,-0.044326,0.03601,-0.038548,0.018475,0.190398,-0.1395,0.232075,0.297674,-0.545568,-0.376414,-0.193966,0.067832,-0.069467,0.170601,-0.226242,-0.040971,-0.058108,0.100598,-0.118692,0.178088,0.033069,0.098894,-0.224908,-0.078045,-0.013147,0.092483,0.068657,-0.146184,-0.033429,0.003692,0.115882,-0.141662,-0.310607,-0.049661,0.150036,-0.087521,-0.159941,-0.477296,0.083971,-0.135367,-0.125721,-0.155839,0.029368,-0.07788,0.014812],[0.305249,0.190756,0.485807,-0.140177,0.31442,0.447896,0.495668,-0.068464,0.362022,-0.372501,0.527032,-0.065636,-0.0802,-0.16739,-0.410259,0.176301,-0.492764,-0.42903,0.46107,-0.052437,0.236598,0.448599,0.51004,0.093806,-0.300082,-0.008183,0.392206,-0.1894,0.402169,-0.350429,0.122873,-0.230113,0.50826,0.546253,-0.411511,-0.175807,-0.295953,-0.145567,0.118553,-0.140569,0.156335,-0.565772,0.395688,0.242714,-0.046241,-0.397742,0.315619,0.597782,-0.127956,0.135348,-0.186687,-0.112016,0.582103,0.26014,0.133018,0.183446,0.117999,-0.228159,0.221601,-0.575017,-0.097413,0.082093,0.525178,0.480386],[-0.00022,-0.177771,0.093859,-0.08436,-0.27962,0.118546,-0.223176,0.184158,0.068916,-0.259395,-0.031966,0.264446,-0.060251,-0.054958,-0.361464,0.284488,-0.18839,0.352667,-0.141879,0.088439,-0.084992,-0.102823,-0.114053,-0.023373,0.002125,0.143008,0.042604,-0.175181,0.053645,0.08092,-0.209289,-0.048576,0.144784,0.092231,0.180776,-0.209188,0.219219,-0.046399,-0.002187,-0.528909,-0.146208,0.045406,0.257719,0.135934,0.110898,0.207597,0.060739,0.230548,-0.240879,-0.113565,-0.202765,0.152968,0.225036,-0.06951,-0.195151,-0.030199,0.043249,0.071746,-0.021118,-0.186605,-0.137982,0.10603,0.227736,-0.036917],[0.242578,0.216059,0.094036,-0.032248,0.101363,-0.041257,0.237514,-0.18801,0.057707,0.316643,0.150991,0.089409,0.012547,-0.075734,0.320492,-0.270287,0.289844,0.349639,-0.034573,-0.070689,0.18779,0.18889,0.010932,0.181686,0.038464,-0.082648,-0.085444,0.205322,-0.077788,-0.074299,-0.000276,0.038541,-0.070436,0.0396,0.197762,0.029233,0.076895,-0.156361,0.086008,0.218414,0.247828,0.018497,-0.036375,0.135619,-0.086643,-0.08004,0.115658,0.066512,-0.23001,0.025573,0.212809,0.029645,0.040718,-0.246458,-0.156515,0.184989,0.037481,-0.231067,-0.065976,-0.015815,-0.196583,-0.023588,-0.200984,0.114731],[0.178549,0.157587,-0.066472,-0.186066,0.151192,0.115469,0.308083,0.010166,0.002872,0.061456,0.249234,-0.015101,-0.167241,0.079156,0.092683,-0.035642,0.273286,0.367579,0.045034,-0.216107,-0.060951,0.168372,-0.034132,0.219837,-0.200052,0.005787,0.053069,-0.088805,0.037924,-0.077068,-0.196405,0.346727,0.002016,0.138011,0.195536,-0.196078,0.071183,-0.082223,0.182924,-0.073798,-0.032583,0.111193,0.113203,0.217105,-0.199448,0.078947,0.178564,-0.030447,-0.109763,0.021904,0.152769,-0.169979,-0.117534,-0.160063,0.072722,0.180541,0.132467,-0.064315,0.134714,0.164663,0.015018,-0.184822,-0.023608,0.025273],[-0.281847,-0.157419,-0.347069,-0.163728,-0.194357,-0.354667,-0.289316,0.105414,-0.146944,0.378674,-0.115593,0.320247,-0.105757,0.017052,0.152043,-0.208913,0.483167,0.527449,-0.096752,-0.181531,-0.280398,-0.295342,-0.01298,-0.024168,0.137826,-0.026387,-0.132796,-0.02943,-0.204416,0.336932,-0.076012,0.02098,0.034148,-0.042509,0.464267,-0.177832,0.367982,-0.175497,-0.04335,-0.10906,0.004586,0.76963,-0.113659,-0.069481,-0.17792,0.421835,-0.017307,-0.383384,-0.053159,-0.346728,0.139658,-0.156808,-0.433508,-0.268477,0.066449,-0.17407,-0.065571,-0.040941,-0.286779,0.219564,-0.1197,-0.08012,-0.137893,-0.137641],[0.113499,0.23961,0.334437,-0.210212,0.369287,0.117195,0.197381,-0.03954,0.245408,-0.081321,0.357241,-0.112639,-0.140058,-0.045725,0.278745,0.281996,-0.040732,-0.028745,0.197834,0.060637,0.218241,0.078874,0.196905,0.015178,0.159474,0.045001,0.264868,-0.008543,0.107541,0.008881,-0.000244,0.212756,-0.125885,0.226405,-0.331094,0.140334,0.182037,-0.139334,-0.063308,0.205374,0.257172,0.099201,0.08643,0.112053,0.010582,-0.164566,0.035277,0.115755,-0.117668,0.203851,-0.175138,0.022805,0.313335,-0.112851,0.031555,0.231788,-0.206659,-0.071839,0.276657,0.058241,0.038692,-0.203876,0.157021,0.201057],[0.042741,0.1406,0.072329,0.118689,-0.081492,0.193098,-0.013616,-0.018799,-0.00981,-0.049187,0.191681,-0.188915,-0.032101,-0.120116,-0.010605,0.033157,0.099638,-0.228559,0.164384,-0.148272,0.139833,0.302467,0.026099,-0.05489,0.487834,-0.06588,0.21578,-0.124606,-0.081122,0.131194,0.054316,-0.071485,-0.488131,-0.031793,-0.082784,-0.107687,0.079094,0.099929,-0.013234,0.423249,0.090936,-0.200056,0.07336,-0.058974,-0.150958,-0.256482,0.249069,0.018275,0.268563,-0.187087,0.301358,0.10727,0.062746,-0.07338,-0.151468,-0.094095,0.102379,0.052507,-0.181702,0.448972,0.087705,-0.049237,-0.013828,-0.085763],[-0.084745,0.078795,0.040061,-0.163374,-0.21024,-0.051892,-0.186109,-0.117491,0.118006,-0.181527,0.161361,0.084823,-0.164533,0.097433,-0.023845,-0.531972,0.298221,0.331484,-0.306935,-0.096334,-0.073504,-0.683846,-0.013754,0.280876,-0.168259,-0.000645,-0.250189,-0.089814,-0.058954,-0.060137,0.104597,0.007156,0.264077,0.2009,0.163975,0.068758,-0.118295,-0.113999,-0.12996,-0.305858,-0.033545,-0.267388,-0.643018,0.042442,-0.183804,0.04418,-0.194416,-0.195164,0.294801,-0.076869,-0.001471,-0.436185,-0.026359,0.086929,0.025296,0.191964,-0.006497,0.069463,0.178879,0.040451,0.021499,-0.129292,-0.247648,0.071182],[-0.245897,-0.058444,0.154295,0.039937,-0.040029,0.075956,-0.25631,0.130579,0.287666,0.787762,0.146683,0.432664,-0.056204,-0.16098,0.175089,-0.42617,0.998346,0.409108,-1.141106,0.162979,0.024757,-0.303228,-0.549111,-0.043529,0.400654,0.0373,-0.787318,0.170702,-0.541797,0.013524,-0.11794,0.529853,-0.221999,-0.285426,0.188574,-0.002584,0.210689,-0.168353,-0.397091,0.000529,0.22336,0.213923,-0.060208,-0.261678,0.045197,0.461994,-0.345065,-0.371868,0.031249,0.237061,-1.058855,-0.053004,-0.00712,0.395564,0.105194,-0.193155,-0.389196,0.06167,0.099289,-0.204677,0.131677,0.188156,-0.834801,-0.135329],[0.018342,0.060044,0.184637,-0.060113,0.016728,0.13527,-0.113778,-0.075905,0.042309,0.047296,-0.289262,-0.103062,-0.007322,-0.110949,0.121283,-0.138712,-0.208836,0.212747,-0.076252,-0.045319,-0.030522,0.058984,-0.020361,-0.072452,-0.608576,-0.428421,-0.027189,0.415665,0.05977,-0.153972,0.166554,-0.016794,-0.101048,0.075395,0.038359,-0.070324,0.302958,-0.046381,0.06992,0.347029,0.019476,0.051516,0.407359,0.031781,-0.081809,0.149947,0.152285,-0.061284,-0.059175,-0.058473,-0.018696,0.910121,-0.032485,-0.235527,0.035607,0.115396,0.26882,0.129213,0.090379,-0.050136,-0.004749,-0.165094,0.068718,-0.155477],[-0.131189,0.375666,-0.342625,0.131758,-0.03292,-0.332175,0.169486,-0.038679,-0.297334,0.060089,-0.085055,-0.208324,0.188923,0.096534,-1.369925,0.27148,0.590304,-0.224841,-0.019807,-0.022652,-0.516966,-0.075513,-0.164266,-0.83063,0.417085,-3.91005,-0.028883,1.331365,0.640706,0.707496,0.009229,0.249264,0.256234,0.009086,0.392051,0.090396,0.165904,0.175583,-0.307478,-0.3152,-0.495172,0.462661,-0.09752,-0.665406,-0.109467,-0.591594,0.351603,-0.072031,-0.065381,0.622084,-0.482963,-2.077966,-0.019656,0.62023,0.025789,-0.225049,-0.041659,0.084844,-0.120823,-0.226657,0.15465,0.120054,0.125989,-0.323152],[0.36432,0.303166,0.45161,0.154129,0.370933,0.386022,0.27209,0.012363,0.512043,-0.155067,0.458749,-0.136312,0.092543,-0.033477,-0.178936,0.243604,-0.49162,-0.335841,0.162019,-0.074039,0.449189,0.430908,0.482821,0.389596,-0.160692,0.074986,0.298412,-0.105449,0.348241,-0.37358,-0.167236,-0.346987,0.500561,0.586208,-0.353149,-0.073022,-0.322987,0.123291,0.089812,-0.120623,0.39579,-0.529817,0.378747,0.343032,0.013479,-0.434527,0.542489,0.370373,-0.138844,0.244238,-0.160747,-0.028626,0.445863,0.117686,-0.015156,0.487769,0.358267,-0.111146,0.53709,-0.424739,-0.199271,0.087987,0.241459,0.558002],[0.417182,0.041547,0.386919,-0.017191,0.261568,0.119615,0.154255,0.159322,0.262133,-0.654541,0.039474,0.367934,0.031253,-0.077322,-0.551505,0.565074,-0.653259,-0.334948,0.390811,-0.189922,0.142105,0.159298,0.327455,-0.061551,-0.055031,-0.07056,0.097325,0.052247,0.534314,-0.337444,-0.027952,-0.502182,0.539208,0.222479,-0.048945,-0.178162,-0.203892,-0.165901,0.326155,-0.301179,0.027594,-0.42591,0.686345,0.139846,-0.195108,-0.35197,0.10559,0.673335,-0.314787,-0.127852,-0.984153,0.113636,0.556426,0.121379,-0.019928,0.357193,0.212885,0.033464,0.496124,-0.527016,-0.090773,0.003628,0.702023,0.334419],[-0.261485,-0.99023,-0.616775,0.144216,-0.469339,-0.468352,-0.832148,0.007269,-0.526807,-1.138951,-0.473016,0.822086,-0.091663,0.018802,-0.372603,1.024919,0.435696,0.27226,-0.400002,-0.019141,-0.462585,-0.671687,-0.119117,-0.846425,-0.080657,-0.079479,-0.443288,0.156213,-0.277762,0.092827,0.189148,-0.362852,-0.038082,-0.351289,0.833034,0.164008,-0.246028,-0.002875,0.19687,-1.205667,-0.865514,0.373664,0.103882,0.022921,-0.2083,-0.020974,-0.637177,0.680622,-0.595574,-0.604356,-0.37297,0.279431,0.123837,-0.267242,-0.203882,-0.374621,0.593687,0.090807,-0.459986,-0.334447,0.166571,-0.141396,-0.348586,-0.241118],[0.221547,0.087327,-0.114552,-0.065313,0.003585,0.164912,0.144715,-0.08659,-0.023549,0.033745,-0.018432,0.049305,0.061725,-0.120517,0.173044,-0.187194,-0.051008,-0.022222,-0.02896,0.108309,0.240189,-0.125244,-0.001055,0.015111,-0.143181,0.127211,-0.090493,-0.06468,0.106744,0.111723,-0.19122,0.141742,0.151306,-0.171439,0.178152,-0.042203,-0.144652,-0.190088,0.02951,-0.027233,-0.108178,0.266017,0.196674,-0.033081,-0.072263,-0.058007,0.04017,0.037718,-0.047936,-0.153307,0.125463,0.051495,-0.213328,-0.198986,-0.153851,0.316155,-0.225155,-0.15654,-0.050287,0.030727,-0.138953,-0.156058,0.001548,-0.120482],[-0.270956,0.471441,-0.304038,-0.157953,-0.126743,-0.073134,-0.218778,0.052614,-0.421108,-0.053812,0.008194,-0.331983,-0.165851,0.12599,-0.391225,-0.206783,0.041799,-0.549887,-0.35876,0.048111,-0.054772,-0.139126,-0.040886,-0.436026,-0.088726,0.287326,-0.08104,0.118665,0.008464,0.209451,0.048347,-0.084143,0.059805,0.173629,0.270272,0.141344,0.16807,-0.126527,-0.168458,-0.385554,-0.281881,0.229532,0.043969,-0.376527,0.118982,0.127013,-0.074263,-0.143472,-0.11374,0.170545,-0.098867,0.109921,0.045011,0.033372,0.137146,-0.317953,0.03,0.106002,-0.022263,0.075671,0.20871,0.181336,-0.049163,-0.053394],[0.031033,-0.533974,0.342731,-0.074656,0.220499,-0.477813,-0.117531,0.199546,0.206306,0.908546,-0.023972,0.445602,-0.071347,0.063681,0.16791,-0.230309,-0.930306,-0.117762,0.11642,0.12057,0.045507,-0.173608,0.482542,0.252165,1.179351,-0.118162,-0.306784,0.421496,0.141446,0.678398,-0.079292,1.459636,-0.240465,-0.31439,-0.102067,-0.007519,-0.09632,-0.187541,-0.515541,0.385067,-0.009245,-0.691741,0.173549,0.004477,-0.062436,0.709911,-0.031863,-0.141059,-0.294817,0.605633,-0.003331,0.240574,-0.027554,-0.431934,0.021574,0.141426,-0.314494,0.120933,-0.77487,0.138171,0.081384,0.072345,-0.495837,0.350457],[0.072555,0.390721,0.117542,-0.184723,0.110523,0.133729,0.06004,-0.052127,-0.036986,0.051696,-0.081409,-0.536011,-0.148304,0.01132,-0.065878,-0.495207,0.003684,-0.369165,-0.390122,-0.213184,-0.03758,-0.149098,-0.033184,0.041692,-0.070717,0.325566,-0.263737,-0.10506,-0.195584,0.331453,-0.196021,-0.188642,0.042955,0.131248,0.238276,0.13415,-0.181453,0.088797,-0.081572,-0.090919,0.03285,0.356698,-0.236212,0.0197,0.17056,0.224525,0.018343,-0.378699,-0.085025,0.267874,0.248397,-0.063993,-0.291335,0.019135,-0.05335,-0.30111,-0.254008,-0.021383,0.027255,0.009456,-0.188778,-0.142546,-0.629019,-0.082442],[0.15504,-0.079934,0.169232,0.100505,-0.292636,-0.01188,-0.034896,-0.235079,0.188293,0.137744,0.064854,0.373303,0.13341,-0.173597,0.193748,0.443035,0.268704,0.005155,0.171002,-0.167067,0.084877,-0.250497,0.039904,-0.032278,-0.444212,0.18451,-0.330342,-0.05335,-0.321057,0.227942,-0.097448,-0.151297,-0.283614,0.014852,0.178668,0.127028,-0.45848,0.020931,-0.17823,-0.664852,0.089794,0.335555,0.273482,-0.656355,-0.1649,0.245742,-0.186115,-0.015398,0.140505,0.387629,-0.325481,0.011811,0.066477,0.463975,0.093432,0.161125,0.343941,0.071284,-0.562253,-0.187881,0.073498,0.114758,0.33265,0.243286],[0.056278,0.06549,0.043877,0.099232,-0.139077,0.140765,0.04255,-0.032937,0.036391,0.023089,0.22244,0.090519,-0.090078,-0.027383,0.089428,0.241717,-0.39231,-0.148593,-0.009625,-0.004129,0.102355,0.012784,-0.059105,-0.206995,0.255716,-0.103774,0.014005,0.097821,0.075993,0.156028,-0.110335,-0.123942,-0.245603,-0.199593,0.170867,-0.06273,-0.017207,0.085266,0.022241,0.043534,0.161297,0.139491,0.234161,-0.407431,-0.120002,0.044361,-0.122357,-0.134268,-0.103375,-0.086137,-0.558162,0.032464,-0.042232,0.134585,0.110644,0.152919,0.306446,0.019977,-0.117318,0.132619,0.048283,-0.142784,0.068058,0.03652],[0.114845,0.35983,0.078573,-0.028333,0.157368,0.135082,0.186819,0.177495,0.205044,-0.108973,0.316691,0.144028,-0.180396,-0.083869,-0.191567,-0.308039,-0.068111,-0.011529,-0.000933,-0.045023,-0.052472,0.156584,0.20167,-0.070602,0.346121,0.295343,0.390572,0.423004,0.178939,0.348428,-0.169651,-0.102297,-0.151977,0.226787,-0.70752,0.122728,0.692787,-0.108244,0.107986,0.086764,0.207142,-0.066591,0.145384,-0.287653,-0.096766,0.545462,-0.189796,-0.063288,-0.003698,-0.174035,-0.340071,0.048369,0.033838,0.178579,-0.176361,-0.073922,0.195871,-0.169197,-0.10798,-0.033951,-0.069619,-0.169333,0.031296,0.167021],[-0.210726,0.080317,0.0673,0.107145,-0.139306,-0.098533,0.081344,-0.148223,-0.144673,0.190045,0.033657,-0.424368,0.028637,-0.170875,0.025513,-0.250932,-0.075387,-0.233402,-0.351199,-0.009191,0.123258,-0.295549,-0.091201,0.200923,-0.145447,0.283656,-0.282409,-0.0203,-0.238791,0.325741,0.002832,-0.040938,0.207624,-0.204351,0.129971,-0.201376,-0.131777,-0.033249,-0.17006,-0.286506,0.006216,0.195953,-0.070062,-0.120776,-0.127394,0.239373,-0.117634,-0.263305,0.08785,-0.048246,0.339064,0.001587,-0.40564,-0.183136,0.09581,-0.074627,0.04329,0.076028,0.205249,-0.014682,-0.054716,-0.146917,-0.449486,0.097719]],"biases":[0.081826,-0.09779,0.088824,-0.163036,-0.007311,0.083568,0.140311,-0.005503,0.131439,0.34697,0.219762,-0.070669,-0.180096,-0.061325,0.220282,-0.13887,0.344647,-0.012549,0.001689,-0.204915,0.221591,-0.167307,-0.030576,0.372816,-0.034408,-0.182292,-0.07973,-0.062997,0.035495,0.013127,0.085668,0.102024,0.231738,-0.127033,0.183994,-0.056858,-0.005456,-0.102807,0.106242,0.21279,-0.039002,0.323461,-0.132053,-0.006616,0.034147,0.178253,-0.044797,-0.144535,-0.269453,0.189897,-0.06225,0.129522,-0.2591,-0.07814,-0.212525,0.13257,-0.023519,-0.138619,-0.059279,0.185962,0.137215,-0.096378,-0.168199,0.007876]},{"weights":[[-0.026561,-0.352849,-0.006353,-0.015869,0.134853,0.043303,-0.045401,0.230425,0.292368,0.091279,0.494286,0.010835,-0.830258,0.100866,0.185884,-0.093612,0.040558,0.162228,0.367074,-0.164415,0.083188,0.233631,-0.148585,-0.040338,0.107584,0.089664,-0.125909,0.011521,0.218108,0.218127,0.115623,0.047825,0.147201,-0.014716,0.103458,0.010053,0.161558,-0.032112,-0.221089,-0.083181,0.011819,0.204476,-0.220389,0.282343,0.431268,0.095005,0.049074,0.365058,0.330094,0.089097,0.122519,0.299966,0.000709,-0.118831,0.056189,-0.019394,-0.084359,-0.133249,0.202907,0.041359,0.015432,0.426071,0.093381,0.26485],[0.013877,0.370446,-0.155207,0.022676,0.179733,-0.043934,-0.0123,0.312052,0.133755,-0.40006,0.224254,-0.450215,0.137411,0.241851,0.104997,0.018017,0.073034,0.129937,0.018779,-0.300421,-0.461632,0.206972,-0.106681,-0.055058,0.315184,0.132413,-0.204529,-0.023152,-0.22671,-0.069605,0.223973,-0.033195,0.153598,-0.18936,-0.062183,-0.042672,-0.019373,0.028395,0.076937,0.24226,0.011219,-0.020055,0.196698,0.028127,0.177485,0.010215,0.242015,0.050092,0.209533,0.089851,-0.079579,-0.292936,-0.180758,0.106165,-0.036283,0.189366,0.216619,0.101332,0.043798,0.105263,-0.114558,0.125942,0.282831,0.337559],[0.189648,0.085805,-0.048812,0.035598,0.027778,-0.049328,0.050199,0.244479,0.143089,0.147201,0.270567,0.237068,0.018515,-0.013422,0.183898,0.092814,0.071666,-0.032334,0.309275,0.369661,0.093254,0.365258,0.199828,0.192004,0.017151,0.236938,0.097518,0.031822,0.211142,0.19084,0.122699,-0.023698,-0.100026,-0.003176,-0.118043,0.059559,0.110347,-0.118971,-0.051233,-0.042976,0.040708,0.130931,0.146584,0.250928,0.221018,0.031807,-0.055473,0.258673,0.157927,0.171615,0.173978,0.006786,-0.078133,0.238184,0.023646,-0.257173,-0.029094,0.033863,0.154509,-0.091831,-0.014334,0.122179,0.205944,0.021794],[-0.077931,0.029825,0.05335,0.043379,-0.001632,-0.016655,-0.10973,-0.007131,0.038167,-0.007183,-0.043713,0.113237,0.073088,-0.102663,-0.094438,0.009261,-0.002136,0.118654,-0.034248,-0.044933,-0.02439,-0.10919,-0.006132,-0.02039,0.067173,0.043825,-0.086286,0.081504,-0.101206,0.005496,0.003318,-0.090429,-0.025855,0.02405,-0.052864,0.004752,-0.089644,-0.025478,0.103266,-0.05078,0.120486,-0.02237,-0.129323,-0.001172,0.113925,-0.001869,0.000815,-0.024108,0.049867,0.022158,0.049037,-0.041997,-0.111323,0.038678,0.050991,-0.06706,0.096201,0.038891,0.092621,-0.037934,-0.086058,-0.025778,-0.036131,0.025611],[-0.061184,0.051956,0.026743,-0.049822,-0.158803,-0.030895,-0.150737,0.172472,0.282793,0.102202,0.137635,0.227117,0.041904,0.049387,0.076192,0.0863,0.170532,0.076741,0.094187,0.111377,0.105738,0.245978,0.179419,-0.022107,-0.051222,-0.230575,-0.106255,0.019772,0.074804,0.214769,0.298806,0.070504,-0.234369,-0.115175,-0.169532,0.087978,0.04447,0.080652,-0.235711,0.047019,-0.006602,0.109046,0.059,0.222436,0.161749,-0.054768,-0.234537,0.099258,0.246268,0.111278,0.049505,-0.171739,-0.065508,0.184989,-0.087603,-0.251891,0.184056,0.169302,0.247419,-0.031853,0.061863,0.200662,0.058052,0.237816],[0.067179,0.112998,0.017396,0.046273,0.044374,-0.091565,-0.118912,0.29001,0.068338,-0.123379,0.084461,0.031109,0.021422,-0.102577,0.301299,-0.081299,-0.095258,0.164963,0.110231,-0.148693,0.029326,0.099998,-0.093535,0.127357,0.213234,0.213706,-0.14617,-0.013599,0.150466,0.151527,0.254365,-0.094599,0.033478,-0.002231,-0.108758,0.007829,0.09741,-0.002667,0.089389,-0.071951,-0.081789,0.216023,0.172188,0.320291,0.120042,-0.12329,-0.046268,0.189881,0.169392,0.065523,-0.060966,0.003085,-0.119969,0.105466,-0.042137,0.121495,0.164293,0.036401,0.172058,-0.06483,-0.034735,0.122634,0.132678,0.202341],[-0.061917,0.074779,0.151772,0.048037,0.093396,-0.024581,-0.118437,0.150293,0.308243,-0.036674,0.396183,-0.110968,-0.163218,0.070833,0.211567,-0.055442,0.030063,0.232937,0.354529,-0.062516,-0.059795,0.010954,0.003065,-0.229935,-0.059961,-0.180978,0.096277,-0.108969,-0.007602,0.334027,0.266873,-0.125801,-0.072341,-0.045573,0.063244,0.049694,0.234162,0.034986,-0.163823,0.104445,0.041787,0.102023,-0.006327,0.278628,0.309008,0.011783,-0.213454,0.312834,0.355523,-0.212115,-0.129821,-0.039206,-0.115271,-0.034321,-0.072171,-0.096911,0.030522,0.236091,0.313326,-0.025084,-0.075545,0.272415,0.138065,0.18803],[0.021947,0.141806,0.089963,-0.091201,0.080987,-0.111962,0.040971,0.076458,0.017746,0.000566,0.059918,0.024544,0.123208,0.197622,0.047212,-0.105977,-0.078442,0.096043,0.113482,0.096617,-0.006626,0.015857,-0.038876,-0.041672,-0.03905,-0.044395,-0.080922,0.047472,0.063907,0.02665,-0.12233,0.013933,-0.071455,-0.029938,-0.095906,-0.070331,0.07542,0.116619,0.041904,-0.088837,0.055924,0.080604,-0.120089,0.095096,0.158828,-0.102867,-0.017203,0.011209,-0.038045,-0.016107,-0.054005,-0.040923,-0.050067,0.130995,-0.030578,0.130268,0.023517,-0.071559,0.100397,0.010767,-0.07817,0.070582,-0.082031,0.057826],[0.110548,-0.360561,0.081169,-0.125357,0.14638,-0.086867,-0.098791,0.209911,0.091053,0.20105,0.21832,0.229595,-0.721227,0.017197,0.276591,-0.05109,-0.042356,0.054138,0.290794,-0.133716,0.25192,0.171845,-0.070908,0.321572,0.038318,0.092753,-0.025376,0.014469,0.315731,0.233425,0.249617,-0.060893,0.170593,0.137128,-0.042789,-0.109369,0.009328,-0.034284,0.132777,0.033973,-0.016901,0.248856,-0.000718,0.370006,0.156683,-0.052266,-0.222777,0.221019,0.27962,0.202601,0.093081,0.069224,-0.051663,-0.009632,-0.074679,-0.103033,0.052887,-0.045025,0.235425,-0.1112,-0.049507,0.352227,0.124485,0.1978],[-0.197803,-0.314641,0.27036,0.081388,0.171777,-0.082717,0.017368,0.096885,0.230616,0.291702,-0.080439,-0.082369,0.166307,-0.267696,0.119629,-0.102986,-0.225426,0.167163,0.098455,-0.088058,0.033272,-1.208859,0.024496,0.07591,-0.439328,-0.046712,0.254184,-0.06662,-0.115206,0.086602,-0.125983,-0.124455,0.090824,-0.342932,-0.123009,-0.088495,-0.153913,-0.086996,0.099927,0.060955,-0.055263,-1.27893,0.136817,0.076247,0.211776,-0.104938,-0.162607,0.190754,-0.027221,-0.187832,0.167836,0.145135,-0.043203,-0.107651,-0.00171,0.312491,-0.592957,-0.268906,0.257641,0.069724,-0.106407,0.186116,-0.317845,0.034956],[0.10887,0.121156,0.025323,-0.110357,0.012318,0.092012,-0.164538,0.21711,0.043412,-0.022861,0.331112,-0.017425,-0.109287,-0.078775,0.236674,0.058646,0.152208,0.120585,0.123933,-0.008958,-0.129572,0.060443,0.050891,0.144126,0.152195,-0.005803,0.154056,-0.144334,0.163787,0.258563,0.284461,0.072573,-0.009918,-0.099771,0.036323,0.026063,-0.032218,-0.124977,0.121879,0.024138,-0.089723,0.101446,0.137479,0.172783,0.14273,0.010855,0.116965,0.238392,0.20689,0.147102,-0.141718,0.017389,-0.149491,0.100672,-0.111834,-0.0935,0.146285,0.156961,0.21688,-0.080497,-0.01009,0.295787,0.122444,0.147155],[0.183313,0.263261,-0.219575,-0.097924,-0.197256,-0.044497,-0.01066,-0.271417,-0.323653,0.021417,-0.448836,0.096943,-0.017598,-0.263707,-0.061545,-0.094212,0.142449,-0.947751,-0.334041,0.411615,0.013334,-0.285503,0.192469,0.472625,-0.550322,0.020248,0.375712,-0.087081,0.188428,-0.242744,-0.20679,-0.021809,0.279238,0.219654,0.057679,0.078164,-0.866325,-0.00506,0.187335,0.22425,-0.140669,-0.397032,0.255603,-0.07666,-0.356998,-0.061523,0.209153,-0.299462,-0.496227,0.116201,0.217214,0.271317,-0.022107,0.292018,0.06435,-0.026971,-0.382667,-0.950977,-0.204081,0.000687,0.015839,-0.369024,-0.470899,-0.441012],[0.027645,0.04938,0.092704,0.016558,0.109446,-0.000738,-0.080216,0.003253,-0.018606,-0.122521,-0.090393,0.035967,-0.124886,-0.079631,-0.117584,-0.063002,0.001953,0.032871,-0.083653,0.078852,0.016964,0.083742,0.044367,-0.004689,-0.122422,-0.043106,0.122642,0.051388,-0.007172,0.026097,0.018862,0.028097,0.049333,-0.11881,-0.060756,0.018004,0.014883,-0.087893,0.108907,0.013835,0.030537,0.112086,-0.090033,0.098982,0.004929,-0.002142,-0.121738,-0.107098,-0.032227,-0.115553,0.092701,-0.11144,0.103592,-0.033492,-0.091658,0.041997,-0.033325,-0.116185,-0.036216,-0.014865,-0.080763,-0.092663,0.115361,0.091379],[-0.05847,0.031782,-0.006922,-0.112851,0.120811,-0.0667,-0.077327,0.019629,-0.014381,0.101882,-0.006378,0.080182,0.117215,0.027505,0.043961,-0.03696,-0.089935,0.073081,0.098242,-0.076675,0.038352,0.124753,-0.108111,-0.017098,0.107824,0.062552,0.046785,0.082412,0.109063,-0.103754,-0.02821,-0.016545,-0.010782,0.124155,-0.098044,0.008935,0.085733,-0.101555,-0.042668,-0.020762,-0.098423,-0.023965,-0.064873,-0.065515,-0.053833,-0.04688,-0.027277,-0.073371,0.016151,-0.102171,-0.046178,-0.014475,0.007839,-0.113957,0.000635,0.143284,-0.022266,-0.046882,0.071248,-0.09249,0.114746,0.123307,-0.08144,-0.074936],[0.03916,0.296219,0.095499,-0.07309,0.166191,-0.061978,-0.017261,0.197887,-0.013706,0.101454,0.226806,0.193032,-0.11845,-0.338429,0.204969,-0.156216,0.170757,-0.163755,0.0958,0.187128,0.095191,-0.292906,0.301719,-0.107403,-0.141084,-0.050351,0.065305,-0.123065,0.131123,0.047578,0.09346,0.087155,0.006827,0.032602,-0.022105,0.058454,-0.015788,0.028192,0.040039,-0.038103,-0.053982,-0.458059,-0.071726,0.241411,0.11011,0.073782,0.349982,-0.000209,0.204598,-0.256232,0.089162,0.380442,-0.143785,0.054564,0.012488,0.02417,0.049326,0.128722,0.213985,-0.13901,-0.142124,0.285286,0.212362,0.108204],[0.641788,0.448521,0.08855,0.05661,-0.544888,-0.01921,-0.053987,-0.619292,-0.557595,0.269051,-0.612576,-0.429603,1.488096,0.508179,-0.635645,0.069601,0.102259,-0.458189,-0.64234,-1.066685,-0.343674,-0.61264,-0.150688,0.587074,-0.828115,-0.305977,0.369287,0.038568,-0.255801,-0.261315,-0.448084,0.050551,-1.389851,0.571827,-0.03262,0.002962,-0.630812,-0.10306,-0.324699,-0.424795,0.07999,-0.708238,0.04596,-0.674354,-0.785691,0.051722,-0.755991,-0.590745,-0.587518,0.289645,0.532636,-0.545763,-0.036902,-0.163858,0.069225,0.437423,0.040005,-0.423558,-0.713584,0.01176,0.022586,-0.713271,-0.41685,-0.682804],[-0.069925,0.205181,-0.126239,-0.000443,-0.143917,0.067189,-0.022753,0.144196,-0.15273,-0.442466,0.083601,-0.072912,0.161682,0.280475,0.089262,-0.059058,0.079152,-0.086074,-0.144576,-0.582028,-0.332082,-0.684749,-0.217491,0.161781,-0.560867,0.088819,0.283243,-0.12215,-0.063863,-0.054925,0.197061,-0.121556,0.160201,-0.118692,-0.044086,0.091259,-0.226942,-0.03865,0.322822,-0.03695,0.042433,-0.887193,0.075105,-0.174861,-0.068887,-0.155167,0.322099,0.106448,0.108482,-0.133299,-0.089177,0.169293,-0.051528,-0.003635,-0.06091,0.396167,0.235707,-0.039857,-0.041773,-0.053624,0.099924,0.107057,0.180284,0.155731],[-0.125798,-0.259071,0.118286,-0.061539,-0.331659,-0.125441,-0.045602,-0.492107,-0.261832,0.316766,-0.0863,0.137371,-0.676971,0.173655,-0.222297,0.075542,0.433935,-1.776293,-0.032331,-0.129845,0.298102,-1.19397,-0.072225,0.010291,-1.162193,0.116735,0.542969,-0.111022,0.271033,-0.032802,0.075714,-0.113701,0.188632,0.284394,0.089208,-0.048949,-0.978123,0.105974,0.283911,0.149771,-0.136176,-1.387125,0.343377,-0.277569,-0.459901,-0.008276,0.418299,-0.1933,0.013845,-0.185109,0.188169,0.416622,-0.143878,-0.095392,-0.099017,0.370846,0.338902,-0.107128,-0.247922,-0.110066,-0.113204,-0.228932,0.022259,-0.39035],[-0.016477,0.048855,0.203827,0.061029,0.224964,-0.00595,0.029419,0.33906,0.520066,-0.053447,0.59247,-0.244103,0.323841,-0.140003,0.483252,-0.068341,-0.169788,0.307273,0.581569,-0.319322,0.229403,0.17538,-0.018306,-0.853094,0.286717,0.182752,0.122802,-0.12799,0.08203,0.550611,0.397802,-0.070649,-0.526463,0.186217,-0.158822,0.038852,0.327645,0.093429,-0.197359,-0.489298,-0.006713,0.289769,-0.769102,0.3843,0.315349,-0.139002,-0.326685,0.360786,0.607043,-0.49384,0.016057,-0.150114,-0.110318,-0.108217,-0.063995,-0.108998,-0.017645,0.372878,0.526887,-0.056398,-0.027468,0.533357,0.363982,0.404745],[-0.011442,-0.028954,0.021354,-0.110161,0.12772,-0.027309,-0.047155,0.055193,-0.058563,0.032908,-0.070514,-0.029374,-0.020531,0.055842,0.017045,0.075732,-0.062118,0.107793,0.014043,0.039056,0.095002,-0.065355,-0.110294,-0.090792,-0.024662,-0.118231,0.008095,0.033329,0.109131,0.041481,-0.076997,0.030552,0.040884,-0.071202,0.091451,-0.050348,-0.092425,-0.009399,0.012131,0.017551,0.02094,0.097504,0.111555,-0.121464,-0.044591,-0.007382,0.201726,0.091633,-0.047724,0.010343,-0.03845,-0.083192,-0.09768,0.071214,-0.112222,0.15482,-0.063063,0.00481,0.025214,-0.085423,-0.049222,-0.013763,-0.071227,-0.081563],[0.150923,-0.000399,0.171027,-0.061912,0.112393,-0.013975,0.040556,0.268857,0.172683,0.075957,0.175574,0.15465,-0.165396,-0.07596,0.235938,-0.123224,0.053137,0.266019,0.257452,0.044647,0.147013,0.000523,0.203827,0.089908,0.100121,0.047104,0.094647,0.07878,0.134036,0.171206,0.274643,-0.067253,-0.118477,0.035948,-0.144443,0.031731,0.058064,-0.090881,0.130329,0.073037,-0.095793,0.041268,-0.06959,0.15354,0.224362,0.044142,-0.095755,0.042544,0.078966,0.059162,-0.027603,0.157838,-0.145338,0.216492,-0.047479,0.137682,0.026203,0.224359,0.086172,-0.135048,-0.066105,0.31958,0.195928,0.180259],[-0.01076,0.246748,0.156561,0.111672,0.147416,-0.107006,-0.065989,0.27234,0.356799,-0.037917,0.289541,0.029197,0.375983,0.061481,0.244334,-0.041488,-0.040524,0.509719,0.347235,-0.091433,-0.057472,0.249916,-0.139812,-0.388258,0.219261,-0.041807,0.071907,-0.008405,-0.357198,0.538988,0.29101,-0.095172,-0.521436,0.14502,-0.136927,-0.117739,0.431596,-0.12363,0.057269,-0.243841,0.010833,-0.191527,-0.473186,0.359052,0.391322,-0.062312,-0.510506,0.310559,0.376299,0.078074,-0.045041,-0.418729,-0.118775,0.204685,0.062339,-0.051345,-0.055124,0.291773,0.271562,-0.107278,-0.069669,0.458916,0.295431,0.289554],[-0.560978,-0.78208,-0.44528,-0.042618,0.147546,-0.020133,0.065974,0.15143,0.387784,0.00247,0.235771,0.088971,-0.209303,-0.027093,0.186583,0.116267,-0.341519,0.040024,0.334685,-0.072901,0.281523,0.251616,-0.178908,-0.359774,0.416562,0.118614,-0.459643,0.074879,0.109333,-0.004543,-0.216041,-0.106864,0.113098,-0.095713,-0.024209,-0.135636,0.087903,-0.12406,-0.500674,-0.077465,-0.108181,0.630274,-0.064579,0.437641,0.403803,-0.021186,-0.130329,0.134885,0.298623,-0.075443,-0.218316,-0.015745,-0.155357,-0.150853,-0.036216,0.178357,-0.373845,-0.436011,0.196667,0.002907,-0.065864,0.369467,-0.143839,0.329533],[-0.040477,-0.073245,0.056255,-0.024219,0.194597,-0.139576,-0.058922,0.035809,0.226508,0.268391,0.272453,0.315947,-0.59502,-0.242079,0.093681,0.097736,0.043087,-0.038546,0.32508,0.139885,0.23164,-0.086516,0.12222,-0.053119,-0.133507,0.135978,0.254541,0.100872,0.067569,0.291617,0.026459,-0.035474,0.212254,-0.055245,0.042262,-0.119266,-0.07546,-0.039069,0.058991,0.087683,0.08712,-0.142733,-0.124008,0.354778,0.321904,0.092368,0.053352,0.283797,0.168917,-0.035535,-0.02319,0.047207,0.077877,-0.019085,0.048606,0.039709,-0.185111,-0.060678,0.199007,-0.06077,0.081904,0.26445,-0.01739,0.033749],[0.075206,-0.473119,-0.394893,0.038563,-0.353638,0.015894,-0.075469,-0.452929,-0.200083,0.038924,-0.094534,-0.451259,0.306363,0.155603,-0.662817,-0.004748,-0.016216,-0.195914,-0.208966,0.164454,0.11214,-0.666,0.048803,-0.236236,-1.308704,-1.254067,0.572671,-0.100525,-0.243721,-0.36182,-0.074278,0.082002,-0.670091,0.190611,-0.015322,0.080154,-0.732619,-0.053823,0.117614,-0.277886,0.118048,-1.586582,-0.169854,-0.324498,-0.252801,-0.026249,0.735005,-0.157921,-0.167629,0.02747,0.174817,-0.313279,0.095537,0.04973,-0.030846,0.346753,0.126762,0.034671,-0.279627,0.054558,0.082657,-0.179016,-0.307254,-0.221389],[-0.084021,-0.011119,0.138768,0.103921,-0.122857,0.053046,-0.193154,-0.48605,-0.622015,-0.134216,-0.281778,-0.552615,0.152232,0.230288,-0.266361,-0.124314,-0.106836,-0.602809,-0.324389,-0.412414,0.114468,-1.117592,0.085677,0.103695,-0.828674,-0.910402,-0.079194,0.078406,0.017203,-0.360099,-0.196445,-0.132476,-0.147486,0.035188,0.060012,0.018701,-0.258398,-0.031913,0.093455,-0.136176,-0.047079,-0.822591,-0.329384,-0.160564,-0.223496,0.050698,-0.307574,-0.547274,-0.393469,0.344429,0.254033,-1.137041,0.046286,0.569469,0.095885,-0.327432,-0.079056,-0.14225,-0.334901,-0.095719,-0.065278,-0.345259,-0.274709,-0.215541],[-0.562273,-0.115094,-0.462947,0.031332,0.162173,0.049043,0.004482,0.166854,0.255674,-0.410917,0.340079,0.244934,0.180104,-0.319154,0.353252,0.029336,-0.185975,0.133997,0.220627,-0.106687,0.047035,0.493422,-0.395316,-0.484977,0.318597,-0.30204,-0.323526,0.071361,0.33427,0.210018,0.019397,0.011866,0.306029,-0.028658,-0.139559,-0.005883,0.184544,-0.107543,-0.330537,-0.128016,-0.029736,0.299499,-0.348403,0.412853,0.403456,-0.053619,-0.68661,0.158134,0.356452,-0.109746,-0.391528,-0.036722,-0.038654,-0.206144,-0.052665,-0.297265,-0.015829,0.038301,0.276778,-0.024437,0.08805,0.435692,0.277833,0.169777],[0.151974,-0.544733,0.634937,-0.100515,-0.317143,0.013107,0.098563,-0.30324,-0.550277,-0.263105,-0.328256,-0.368157,0.138505,0.326817,-0.455115,-0.01028,0.521598,-0.890181,-0.312578,0.513936,-0.127598,-0.209792,-0.396543,0.508547,-0.591815,0.31046,0.638536,0.018482,0.041405,-0.313497,-0.053521,-0.106691,0.100744,-0.704452,0.075072,0.002375,-0.719801,0.04385,0.37149,0.537302,-0.037267,-0.19723,0.331057,-0.377899,-0.369967,-0.011065,0.258297,-0.060878,-0.386806,-0.020795,0.535837,-0.010129,-0.139997,0.523107,-0.029071,-0.661367,-0.250729,-0.306169,-0.385232,-0.055704,0.013853,-0.335574,-0.393721,-0.142862],[-0.14763,-0.119937,-0.088428,-0.097682,0.01058,0.027684,0.082121,-0.010939,0.23329,-0.049122,0.199187,0.036919,0.114643,0.378418,0.049542,-0.127276,-0.005555,0.326383,0.190674,0.478194,0.046568,0.346409,-0.126782,-0.302789,0.047136,-0.245465,-0.267815,-0.108506,0.065409,0.095316,-0.053784,-0.12112,0.113278,-0.238105,-0.072432,0.073557,0.125047,-0.119888,-0.471381,0.14313,-0.084378,0.3717,-0.039782,0.065648,0.118294,-0.060729,-0.483281,0.282447,0.249469,0.11583,0.149156,0.032399,-0.035392,-0.150565,-0.108898,-0.164861,-0.105197,-0.096489,0.043609,-0.098935,-0.138715,0.312849,-0.092851,-0.016559],[0.275166,-0.289161,0.020268,-0.030108,-0.199087,-0.117261,0.026233,-0.464805,-0.268331,0.426989,-0.12358,-0.390875,-0.11381,0.448769,-0.54144,-0.038282,0.136208,-0.352285,-0.437589,0.278142,0.071378,-1.101612,0.239876,0.058815,-0.494312,-0.50786,0.368978,-0.017658,-0.286881,-0.343424,-0.086013,-0.099285,0.250501,0.162406,0.083224,0.038172,-0.244839,-0.118745,0.361009,0.082761,-0.084128,-1.175439,0.466379,-0.354566,-0.316433,-0.01498,0.037721,-0.271507,-0.34857,0.070521,0.224317,-0.455565,-0.004822,0.258879,-0.115253,0.289189,0.274086,-0.024415,-0.407732,-0.04267,-0.016619,-0.272346,-0.103334,-0.361823],[-0.047616,0.139112,0.08806,0.092427,-0.051191,0.104985,0.008286,0.014074,0.059382,0.096872,0.055996,0.067961,-0.086523,0.099584,-0.112268,-0.078513,0.006293,0.005179,-0.042134,0.113359,0.094999,0.010863,-0.024219,-0.035007,0.024641,0.10987,0.018737,0.113496,-0.091947,-0.093163,-0.051385,-0.086609,0.038516,-0.093748,0.057916,-0.055564,-0.004782,0.112366,-0.046661,0.064802,0.072923,-0.132998,-0.019138,0.052313,-0.012315,0.042031,0.066815,0.057128,0.104122,0.080164,-0.101212,-0.028758,0.025178,0.037246,0.026812,0.025787,0.090244,-0.097601,-0.021592,-0.116095,-0.095145,-0.058705,0.074816,0.114314],[0.223874,-0.316646,0.109929,0.071947,-0.130478,0.085326,-0.069,-0.086035,0.209196,0.517446,0.121517,0.498782,0.369618,0.066107,-0.220069,-0.108155,-0.080869,0.067932,0.170314,0.750746,0.203922,-0.43696,0.448325,0.079454,-0.953538,-0.462399,0.502805,-0.045132,0.388082,0.18536,0.307397,0.035658,0.066108,-0.172146,-0.137023,-0.048086,-0.044961,0.069534,-0.163294,-0.013001,0.132648,-0.528989,-0.000908,0.025252,-0.162017,-0.117522,-0.181401,-0.034167,0.029053,-0.201843,0.399689,0.281644,0.084864,0.091851,-0.067471,-0.302871,-0.111149,-0.066984,-0.077715,0.023627,-0.037859,0.137799,-0.219873,-0.111741],[-0.40743,0.25914,-0.015814,-0.09481,0.262797,-0.000147,0.111004,0.079122,0.205901,-0.012868,0.238723,-0.025491,0.130211,-0.167241,0.27615,-0.050999,0.046432,-0.366411,0.3822,-0.52331,-0.558748,0.138655,-0.266632,-0.142158,0.248329,0.117262,-0.152561,-0.054898,-0.582798,0.289662,0.149697,0.003494,-0.143679,0.26482,-0.158255,-0.083034,0.082848,0.048313,0.229796,-0.086318,0.059303,0.305619,0.088612,0.293084,0.073466,-0.109194,0.147631,0.229245,0.223574,-0.505466,0.075684,-0.02453,0.077881,-1.055769,-0.0142,0.166191,0.062501,-0.049528,0.269292,-0.080551,-0.039849,0.246593,0.298553,0.01735],[-0.084397,-0.067909,-0.306672,-0.045021,0.137311,-0.023008,-0.001501,0.332727,0.118037,-0.17922,0.294316,0.112272,0.102286,0.238142,0.194915,0.034872,0.050466,0.161941,0.193849,-0.00308,-0.059196,0.380517,-0.085075,0.047829,0.385791,0.291265,-0.258208,-0.109053,-0.059535,0.251427,0.023498,0.020143,0.11362,-0.121329,-0.1043,-0.094546,0.118424,-0.056532,-0.118625,0.186261,-0.065454,0.384588,0.232675,0.108633,0.156113,-0.06684,0.007073,0.292923,0.166494,0.181428,-0.17193,-0.051208,-0.16103,0.098789,0.029282,-0.092452,-0.000474,0.096248,0.286423,-0.021142,-0.129101,0.194152,0.252326,0.180594],[0.217238,0.109412,0.367824,-0.104877,-0.038749,-0.080033,-0.140599,-0.120169,-0.197189,-0.017771,0.076568,-0.166837,-0.369317,-0.081187,0.016861,0.011652,0.135433,-0.162645,-0.18052,-0.132997,0.026568,-1.116258,0.231932,-0.232894,-0.817499,-0.161635,0.158841,0.070748,-0.131277,-0.062755,-0.153284,-0.148438,0.287754,0.251501,-0.055152,-0.073247,-0.218256,-0.037949,0.285328,0.153585,-0.150843,-0.822364,0.322435,0.043436,0.080837,-0.051575,0.285007,-0.19818,-0.237071,-0.107278,0.163066,0.366365,-0.06862,-0.123258,-0.061247,0.406577,-0.10882,-0.299071,-0.040279,-0.049212,-0.014153,0.012388,-0.176395,-0.208352],[-0.00155,0.095717,-0.102703,-0.105368,-0.014477,0.002008,-0.074469,0.098671,-0.100526,-0.092531,-0.119047,0.006885,0.081214,-0.107691,0.119741,0.097099,0.116353,0.001035,0.022923,0.123283,0.1082,0.109861,-0.000744,0.005898,-0.017808,-0.088099,0.099041,0.029809,-0.049181,-0.029446,0.075032,0.019983,0.081158,0.071926,-0.120966,0.002024,-0.144631,-0.089859,0.033981,-0.079348,-0.086726,0.12405,-0.06778,0.09179,0.020962,0.124699,-0.096991,0.061001,0.019291,0.067517,0.088838,-0.091167,0.036279,-0.05899,-0.04354,-0.075509,-0.045149,0.089668,0.102243,-0.053272,0.017017,-0.025467,0.0537,0.029141],[-0.520316,-0.092992,-0.354242,-0.082995,-0.123924,-0.072693,-0.064069,-0.265841,-0.040185,-0.219744,0.040409,-0.077417,0.072827,0.283114,-0.337592,0.096353,-0.0057,-0.235843,-0.141709,-0.282169,0.184502,-0.758636,-0.189911,0.300269,-0.964496,-0.405313,0.46096,-0.144,0.020975,-0.305557,0.146662,-0.073868,0.656068,-0.122265,0.022807,-0.029029,-0.067991,0.075589,0.430296,0.200919,-0.136676,-1.490803,0.279481,-0.129334,-0.21882,-0.032621,0.297555,-0.152279,0.047667,0.333228,0.001533,-0.857639,0.091128,0.198919,0.09027,0.414024,0.32934,0.082699,-0.127013,-0.086908,-0.107493,-0.070342,-0.084111,-0.073713],[-0.060523,0.118183,-0.076908,0.008312,-0.111999,0.122785,0.01247,0.114429,0.031857,0.088775,-0.051371,0.019703,0.02827,-0.017901,0.048465,0.090697,-0.032529,-0.106817,0.062945,0.101579,0.071289,0.054896,-0.008727,0.016864,0.060453,-0.048409,-0.05845,-0.041207,-0.057861,-0.078011,-0.085765,0.065239,0.085281,0.069406,0.095637,0.009753,0.00659,-0.007306,-0.031242,0.093417,0.017361,-0.103803,0.052657,0.018485,-0.090176,0.093006,0.023035,0.030303,0.119417,0.119541,-0.012937,0.01329,0.063849,0.038477,-0.087114,-0.024243,0.002874,0.0695,0.016647,0.01482,-0.1212,-0.090662,0.063303,-0.018532],[-0.381055,-0.316589,-0.069207,-0.004571,0.277881,0.036749,-0.041472,0.023676,0.134073,-0.364569,0.18045,0.026531,-1.137118,-0.18415,0.27529,0.115036,-0.235969,-0.013308,0.223716,-0.674359,0.263659,-0.217101,-0.136471,-0.568569,0.242568,-0.109982,-0.364551,0.036054,0.205161,0.038554,-0.064541,0.036598,0.255558,0.131853,0.00902,-0.037887,0.243623,-0.131916,-0.018871,-0.055101,-0.145882,0.024206,0.050737,0.331882,0.144952,-0.098016,-0.106247,-0.071531,0.137746,-0.438518,-0.349849,0.36729,-0.017497,-0.203297,-0.126977,0.115173,0.067442,-0.021914,0.208598,0.063003,-0.111427,0.198222,0.003528,0.087895],[0.107552,-0.012345,-0.011985,-0.107459,0.063685,-0.069797,-0.059862,0.301822,0.309134,0.287209,0.277223,0.344556,-0.430441,0.018438,0.118728,-0.053976,-0.005479,0.411963,0.148986,0.186804,0.235327,-0.390105,0.149723,-0.051668,-0.169019,-0.711143,0.266701,-0.131415,0.081536,0.331073,0.363653,-0.044297,0.080762,-0.210717,-0.04027,-0.097691,0.296706,-0.050393,0.300774,-0.032519,0.019613,-0.788798,-0.111952,0.343322,0.268194,-0.129992,-0.324262,0.270388,0.233664,-0.102564,0.124597,-0.01518,0.032293,0.050977,-0.105383,0.075703,0.164018,0.319277,0.186038,0.074449,-0.101727,0.247809,0.134773,0.226331],[0.051995,0.082527,0.160369,-0.070409,0.019321,-0.087431,-0.031276,0.058086,0.190465,-0.035148,0.239131,0.141008,-0.020388,-0.042642,0.204774,0.022694,0.003308,0.022011,0.156294,0.075694,0.052013,-0.003028,0.166504,0.114297,0.124631,-0.053152,-0.145952,-0.076838,0.291073,0.202894,0.232817,0.044295,0.112625,0.201271,-0.100489,-0.119193,0.042721,-0.116166,0.134898,0.111203,0.016207,-0.091354,-0.026203,0.132989,0.130711,-0.076448,-0.164435,0.111405,0.134193,0.162462,0.007535,0.006332,0.088322,0.058492,-0.032123,0.089187,0.185984,0.050647,0.24984,-0.114239,-0.110627,0.2715,0.07316,0.130735],[-0.031191,0.163442,0.456394,-0.112552,0.087851,-0.025935,-0.065367,-0.109826,-0.33607,-0.237003,0.03593,-0.305529,0.033549,-0.004091,0.068557,-0.015714,0.088536,-0.266423,-0.280544,-0.309376,-0.565241,-1.636748,-0.253105,0.124019,-0.52356,-0.437363,0.193263,0.03282,-0.470445,-0.294882,0.080034,-0.023477,0.096776,0.244961,-0.037243,-0.099028,0.100617,-0.049955,0.388578,-0.185334,-0.007596,-1.308858,0.102637,-0.050404,-0.119273,0.091123,0.136553,-0.231444,-0.162201,-0.092932,-0.000369,-0.10006,-0.059387,-0.399675,-0.031233,0.508965,0.162482,-0.072261,-0.112683,0.095216,-0.036279,-0.036031,0.026675,-0.185156],[0.047354,0.369103,-0.222589,0.08856,0.258047,-0.078488,-0.106096,0.46885,0.445491,0.082119,0.496031,-0.336861,0.035338,0.214599,0.122157,-0.13808,-0.420649,0.488918,0.333665,-0.175901,-0.308103,0.772391,-0.390411,-0.73997,0.450346,-0.854374,-0.420816,-0.081874,-0.151857,0.249238,0.188778,-0.087843,-0.482047,0.457695,-0.025082,-0.003574,0.190981,-0.046637,-0.392669,-0.478899,-0.196147,0.463022,-0.497835,0.299685,0.494105,0.016507,-0.621916,0.521867,0.308823,-0.129929,-0.053696,-0.270204,-0.148255,-0.169587,0.025155,-0.000535,-0.2763,0.112695,0.320868,0.062031,-0.007018,0.416957,0.213009,0.317769],[-0.024747,-0.190318,0.163924,0.086412,0.166964,-0.072401,-0.040068,0.10833,0.145532,0.007928,0.177146,0.390281,-0.103932,-0.129206,0.106982,0.051176,0.099325,-0.097048,0.133928,0.01092,0.034965,0.141624,0.015892,-0.265598,-0.106696,0.010135,-0.071159,-0.12434,0.247355,0.196764,0.024404,-0.062519,-0.106711,-0.005437,-0.095009,-0.030134,0.068981,0.115956,0.062741,-0.249971,0.084337,0.130499,0.033849,0.16687,0.24101,0.00705,-0.057158,0.211081,0.215192,-0.161765,-0.024327,0.300824,-0.09126,-0.260086,-0.014782,-0.170335,0.009955,0.091145,0.082339,0.115264,-0.12926,0.284697,0.141226,0.023905],[0.009615,-0.038921,0.087814,-0.089714,-0.084784,0.119898,-0.073781,-0.105235,0.066685,-0.07088,0.001446,0.051334,0.026875,-0.065739,0.10621,0.005245,-0.132542,0.058087,-0.08721,-0.104104,0.034943,0.000753,0.111758,-0.036208,-0.019682,-0.107175,0.102013,-0.03811,-0.08456,-0.082546,0.053813,-0.031113,0.05835,0.06824,-0.020663,-0.023812,-0.050771,0.023016,-0.019195,-0.094942,-0.040803,0.063341,-0.071763,-0.092301,0.068879,-0.070365,0.032057,0.001797,0.041012,0.043522,0.098415,-0.090427,0.001683,0.040982,0.003556,0.120644,0.038139,0.077303,0.140741,0.122272,0.079051,0.109357,-0.030639,0.029061],[0.031788,-0.281095,0.15338,0.040212,-0.133558,-0.116299,0.060004,-0.189384,-0.221221,0.31118,-0.319207,-0.152851,0.089576,0.264576,-0.283657,-0.015266,0.228017,-0.718914,-0.373797,0.321195,0.214463,-1.613151,0.126672,0.323768,-0.99899,-0.072061,0.505768,-0.009673,-0.232869,-0.199412,-0.211222,0.056493,0.379691,-0.093877,-0.074332,0.03999,-0.661467,-0.092171,0.303942,0.21426,-0.046533,-1.643539,0.277859,-0.320033,-0.284218,0.01507,0.065342,-0.382903,-0.253537,0.342994,0.219638,-0.045668,-0.064052,0.447264,0.086133,0.538799,-0.108286,-0.37748,-0.288126,0.107097,0.091098,-0.235535,-0.282426,-0.28986],[0.160067,0.227047,-0.056595,0.073412,0.169103,0.010529,-0.128721,0.226229,0.172203,-0.240933,0.224151,0.108414,-0.03122,0.197747,0.255586,-0.11305,-0.036223,0.317212,0.260973,-0.132234,-0.14363,0.079506,0.182294,-0.260522,0.055235,-0.130048,-0.167874,-0.063435,-0.006201,0.23225,0.177368,0.099064,-0.008916,-0.17022,0.003213,-0.138837,0.138836,-0.05606,-0.165241,0.238661,0.101321,0.194846,0.090955,0.259348,0.193741,-0.140073,-0.103353,0.236027,0.008918,-0.030105,0.142779,0.286253,0.012619,-0.042211,0.025005,-0.102592,0.120687,0.060035,0.056782,0.051466,0.048368,0.318813,0.184244,0.182895],[0.204211,0.284973,-0.552547,-0.10885,-0.08462,-0.04623,0.013448,-0.062759,-0.175399,-0.178588,-0.260812,0.024742,0.558057,0.178455,0.084984,-0.101003,0.183323,-0.012607,-0.005473,-0.232526,-0.098476,0.514213,0.066012,-0.187402,0.083229,-0.081988,-0.708256,-0.089297,0.122565,-0.157165,-0.338434,0.030868,0.242235,0.042398,0.085781,-0.006219,0.097183,0.056558,-0.363755,-0.038212,0.110079,0.432565,0.154266,0.141207,-0.157435,0.018549,-0.102812,0.083354,-0.080491,0.07846,0.061107,0.154559,0.092268,-0.044971,-0.064777,-0.374807,-0.364621,-0.275361,0.009665,-0.021476,0.082083,-0.160056,-0.114049,-0.085848],[0.094674,0.6797,0.273368,0.053787,0.845141,-0.013729,-0.068892,0.894518,1.255736,-0.203269,1.328152,-1.558806,0.489554,-0.142799,0.796943,0.156588,-0.173167,1.2385,1.108112,0.366485,-0.569776,-0.221301,-0.201878,0.684372,0.940728,-0.53714,0.606092,0.162334,-0.580134,1.045287,1.277471,0.048186,-0.929593,0.18069,0.122481,-0.066521,1.103123,-0.048341,0.552601,-0.435719,-0.071613,0.031062,-0.635984,0.696559,0.998291,-0.09569,-0.135243,0.948479,1.204675,-0.846798,-0.602007,-1.026065,0.05633,-0.495954,0.024008,0.546044,0.438346,1.101516,0.946776,0.046523,0.082387,1.133778,0.887583,0.974031],[-0.187965,-0.259826,-0.330988,-0.11583,-0.126736,0.097711,0.069264,0.412225,0.126006,-0.200631,0.154207,-0.059036,0.306561,0.138993,0.253823,0.093838,0.002811,0.521557,0.35235,0.516141,-0.583547,1.056533,-0.444606,0.251633,0.19286,-0.161258,0.308022,-0.08088,-0.266318,0.325555,0.412133,-0.123421,-0.632644,0.091194,-0.000779,-0.083446,0.019504,0.076177,-0.154134,0.096828,-0.131981,0.462185,0.25271,0.301642,0.381543,-0.027502,0.268556,0.430976,0.480374,-0.404402,-0.203853,-0.311397,-0.037684,-0.746737,-0.008281,0.050646,0.046882,-0.11147,0.26415,-0.085709,0.095999,0.422789,0.470725,0.479178],[0.048201,0.257176,-0.285312,0.004805,-0.080347,-0.043253,0.07321,-0.06542,0.00175,0.013251,0.016976,-0.481951,0.190055,-0.131241,-0.096766,-0.030747,0.12814,0.306124,0.095031,0.037813,-0.224815,-0.792105,0.186515,-0.395838,-0.809727,-1.057313,0.235098,0.103452,-0.621199,-0.102316,0.234826,0.080522,-0.171035,-0.127306,0.065913,-0.053847,0.044899,0.041233,0.074488,0.020782,-0.049092,-1.252786,-0.037546,0.107209,0.155235,-0.124655,-0.117947,-0.026671,-0.07324,0.093466,0.226678,-0.177638,0.071547,0.089802,-0.016049,0.14722,-0.060342,0.160809,0.099451,-0.107628,-0.066241,0.086478,0.023973,0.190337],[-0.115939,-0.150803,0.223084,-0.109937,-0.28294,0.051455,-0.13806,-0.412709,-0.408588,0.314302,-0.397986,-0.096633,0.224784,0.226787,-0.220843,0.024455,-0.033382,-0.871732,-0.253026,-0.349409,0.181257,-1.109315,-0.217624,0.50637,-0.758961,0.659995,0.624799,-0.158473,0.411898,-0.477847,-0.344552,-0.066336,-0.107414,0.33338,-0.083729,0.001075,-0.409034,-0.070099,0.238675,-0.136209,-0.111218,-0.740347,-0.291615,-0.248995,-0.532412,-0.008549,0.010648,-0.340312,-0.964974,0.613398,0.205818,-0.285955,-0.005131,-0.098594,-0.024247,0.125002,-0.493907,-0.295937,-0.46322,-0.022846,0.033932,-0.402374,-0.491244,-0.316503],[0.225475,0.045717,-0.29655,0.09756,0.268541,-0.087308,-0.087291,0.629516,0.561616,-0.15907,0.791108,-0.605947,-0.282175,0.479987,0.372064,-0.064575,-0.410703,0.94659,0.538142,0.320678,-0.29662,1.003357,-0.382166,-0.308102,0.692277,0.414754,-0.683178,0.005419,-0.597393,0.592725,0.821807,0.075491,-0.826664,0.016717,-0.025507,-0.126057,0.842774,0.03203,-0.082903,-0.730148,-0.138464,0.962091,-0.497066,0.547043,0.477513,-0.021106,-0.069475,0.762551,0.85551,0.128079,-0.237211,-0.563168,0.00421,-0.049667,-0.121923,-0.673051,0.618311,1.052921,0.526495,-0.115882,-0.023812,0.763788,0.707415,0.531489],[-0.586727,-0.13942,-0.95939,-0.057724,0.078938,-0.087266,-0.090212,-0.04686,0.264345,0.045254,-0.07791,-0.300985,0.554379,-0.935426,0.070089,-0.024435,-0.016628,-0.266055,0.137796,0.081249,-0.615032,0.836975,-0.649082,-0.037976,0.215394,-0.268699,0.288711,-0.003901,-0.748127,-0.288232,-0.314706,-0.094858,-0.415842,-0.117214,-0.043047,0.067892,-0.530526,-0.10878,-0.010011,-0.333736,-0.012927,0.609314,-0.140573,0.014617,0.06471,0.038583,-0.458654,-0.17707,-0.124651,-0.279023,-0.383257,-0.101959,-0.090666,-0.574778,-0.114219,0.087871,-0.305786,-0.370647,-0.009379,0.006085,-0.099247,0.001594,0.070507,-0.155549],[0.054755,0.031109,0.10765,0.05545,0.004764,0.012009,-0.040632,-0.085454,0.072659,0.003364,0.10167,-0.056388,-0.032961,-0.105465,0.016039,0.023752,-0.093499,-0.064241,0.136935,0.065073,0.082385,-0.101191,-0.069319,0.007602,-0.029961,0.064918,-0.179478,-0.076606,-0.116085,-0.088073,0.054425,0.06344,-0.119735,0.085841,0.028555,-0.018761,-0.124476,0.05905,-0.03844,0.075313,0.05145,-0.005044,-0.059214,-0.082822,-0.033081,-0.017234,0.002819,-0.094601,0.019579,-0.066386,-0.101642,0.00403,0.090323,-0.050849,-0.122584,0.133948,0.073117,-0.013283,-0.063345,-0.020014,-0.113434,0.086468,0.04051,0.038452],[0.175769,-0.109118,-0.052684,0.080591,-0.045379,0.084052,0.067304,0.100131,0.114543,0.2577,0.288334,0.122022,-0.279197,-0.073793,0.173902,-0.016417,0.082792,-0.115631,0.173117,0.414469,0.182884,-0.006405,0.063709,0.052856,-0.008933,0.020244,0.123988,-0.07606,0.146652,0.201994,0.219652,-0.118823,-0.089421,0.102353,0.056557,-0.083779,-0.156218,-0.013134,-0.028487,0.083111,-0.013871,0.173785,0.065206,0.222702,0.209565,-0.094477,0.185261,0.206777,0.165347,0.038322,0.235415,0.307301,0.064077,0.001718,-0.08931,-0.227953,0.023573,0.096654,0.272453,-0.11893,0.066029,0.223031,0.212038,0.034186],[-0.061427,-0.055388,0.305327,0.104239,0.174392,-0.12246,0.059757,0.184997,-0.060601,-0.202101,0.232077,-0.36528,0.161397,0.101971,0.067567,0.084597,0.123752,-0.044017,-0.021784,0.17775,0.010745,0.099224,-0.099376,0.315612,0.159176,0.296937,-0.017908,0.017119,0.075313,-0.116163,-0.127009,-0.048097,0.229563,0.07375,-0.101053,-0.000485,-0.045225,0.076378,-0.140616,0.267316,-0.072635,0.28214,0.185047,0.024808,0.205041,-0.044794,0.270002,0.067083,0.057329,0.059937,0.034448,0.26256,0.009342,0.113666,-0.144143,0.261391,0.001348,-0.255234,0.168073,0.058388,0.018361,0.185671,0.111295,0.096248],[0.027873,0.025519,-0.04524,0.027365,0.081878,0.110651,-0.048444,0.017551,0.099512,-0.042348,-0.158557,0.037734,0.031741,-0.041719,-0.000131,-0.029856,0.134316,0.047791,0.085131,-0.100253,0.035083,0.061562,0.058419,0.021991,-0.124583,-0.121942,0.083275,-0.056911,0.010034,0.023094,0.066778,-0.072725,-0.090998,0.115063,-0.064422,0.075586,0.010918,-0.111336,0.042971,0.028864,-0.119758,-0.112244,-0.047301,-0.119423,0.075414,0.075793,0.070944,0.025723,0.0769,0.002707,-0.018861,-0.019051,-0.010664,0.045034,0.120868,-0.02075,0.132341,0.033622,0.047001,0.101156,-0.073296,0.072205,0.072428,0.08377],[-0.127579,0.387766,0.004721,0.040942,0.238872,-0.082652,-0.078939,0.226094,0.294209,-0.23189,0.33978,0.002661,0.464092,-0.08465,0.312295,-0.139122,-0.052317,0.264186,0.22969,-0.593607,-0.395573,0.562687,-0.265164,-0.204871,0.490336,0.112388,-0.271948,0.071319,-0.274533,0.317479,0.073801,-0.073924,-0.372182,-0.411254,-0.043018,-0.101034,0.032045,-0.019259,-0.025419,-0.152164,-0.037031,0.394013,0.034561,0.308459,0.317976,-0.097405,-0.049999,0.31106,0.18112,0.007636,-0.273846,-0.222458,-0.115102,-0.373079,-0.089455,-0.062837,-0.112594,0.322719,0.2871,0.060735,-0.050649,0.354068,0.320563,0.386907],[-0.312138,-0.31536,-0.245403,0.07802,0.203882,-0.045234,-0.136736,-0.022176,0.088272,0.011938,0.012404,-0.023809,0.035671,-0.164028,0.031413,0.041048,-0.123498,-0.000341,-0.124259,-0.338359,-0.194828,-1.662923,-0.070447,-0.233326,-0.77547,-1.885875,0.306395,0.067491,-0.305448,-0.104615,-0.070963,-0.013336,-0.20803,0.198432,0.107422,0.064325,0.067537,0.112828,0.263251,-0.085627,-0.032854,-2.241909,-0.05826,0.248656,0.190616,-0.015457,-0.295014,-0.062753,-0.162766,0.081707,0.131976,-0.321624,-0.125231,-0.411378,-0.025029,0.524179,-0.295311,-0.241995,0.031548,0.002385,-0.025314,0.244241,-0.303194,0.064268],[-0.14242,0.10942,0.012144,0.022038,0.010643,0.007565,0.056722,-0.060912,-0.081523,0.003111,0.029062,-0.025401,-0.07285,-0.113768,-0.144906,0.005851,-0.096272,-0.088099,-0.115943,0.081599,0.073389,-0.078322,-0.026104,-0.064174,0.118938,-0.003377,0.039555,-0.072905,-0.002118,0.052272,0.014478,0.056775,-0.016093,-0.065479,-0.024804,-0.077031,-0.064984,0.122091,-0.117377,-0.07019,0.117332,0.043247,0.094621,-0.074488,0.092274,-0.056456,0.102813,-0.099451,-0.024189,0.025915,-0.086223,-0.055518,-0.086573,-0.05885,0.002339,-0.050715,-0.120049,-0.054009,-0.112097,0.013943,-0.081812,0.096861,0.050886,-0.09659],[-0.049175,0.101928,0.07241,-0.120443,0.00376,-0.051226,-0.02469,0.043717,0.115885,-0.009124,-0.025327,-0.02861,0.117674,-0.087639,0.049855,0.106019,-0.009758,-0.021409,0.083226,0.046047,-0.054791,-0.055288,0.024017,0.076649,0.097092,-0.099539,0.093333,-0.112573,0.097106,-0.033006,-0.038001,0.013119,0.019492,0.076324,-0.122728,0.000221,-0.093339,0.110186,-0.021726,-0.114332,-0.110179,-0.00137,-0.006149,-0.011929,0.096466,-0.059995,-0.018498,0.038555,-0.067254,-0.069732,0.005829,0.080796,0.051394,0.035506,0.065572,0.074389,0.013487,-0.092505,-0.031216,0.006429,-0.045998,0.040224,0.003883,-0.023957],[-0.104296,0.001107,-0.07032,0.062581,0.359998,0.025077,-0.028454,0.387658,0.68931,0.1663,0.554975,-1.295452,-0.610595,0.155699,0.442235,-0.064579,-0.991909,0.56596,0.555653,0.051738,0.024491,0.923757,-0.630698,-0.528182,0.651756,0.2618,-1.475525,-0.123753,-0.285406,0.459146,0.319677,-0.112525,-0.363113,-0.122521,0.030851,0.026108,0.415549,0.119447,-1.373782,-0.815742,0.048828,1.177708,-1.350759,0.709024,0.529593,0.044675,-0.453284,0.564217,0.551561,-0.225219,-0.198654,-0.943907,-0.016616,-0.297697,0.07691,-0.602619,-0.427128,0.288381,0.535733,0.064116,-0.116724,0.626175,0.384241,0.535047],[-0.090017,-0.371077,-0.056244,0.099501,0.183709,-0.065481,0.075489,0.286933,0.323529,0.081068,0.270228,-0.019111,0.28502,0.013275,0.237424,0.01015,-0.112049,-0.06214,0.239382,0.006056,0.190527,0.190614,-0.051578,0.130767,0.281598,0.273214,-0.15999,-0.045289,0.128824,0.148482,0.083362,-0.025232,0.016758,-0.042099,0.036003,-0.117206,-0.043513,0.106382,0.014727,-0.09433,0.086376,0.333257,0.050955,0.281654,0.456753,-0.063163,-0.064779,0.208419,0.28021,0.101311,-0.033919,0.09541,-0.066313,-0.056026,-0.032412,0.081368,-0.226586,-0.136559,0.390526,0.060533,-0.051115,0.419125,-0.069799,0.153721]],"biases":[0.066624,-0.048646,0.087085,-0.058328,0.175249,-0.048126,-0.112823,0.21028,0.10259,-0.137717,0.139263,-0.081312,-0.29411,-0.053642,0.095236,-0.077997,-0.018363,-0.004307,0.133184,0.037438,-0.162945,-0.103074,0.053921,-0.020061,-0.048115,0.109959,0.229032,-0.055088,-0.023894,0.165562,0.137819,-0.020612,0.084739,-0.037324,-0.053689,0.014684,0.146135,-0.088334,0.150524,-0.054705,-0.075855,-0.251197,0.006679,0.164959,0.286199,0.055721,0.032709,0.177432,0.045237,-0.124286,0.061912,0.087901,-0.03825,-0.05114,0.018044,0.238382,0.118598,-0.001038,0.096245,-0.068693,-0.083364,0.229165,0.217811,0.212085]},{"weights":[[0.445956,0.250426,-0.370908,-0.195005,-0.111591,-0.071348],[-0.20309,0.099279,-1.04431,-0.55477,-0.191785,-0.585017],[0.607901,0.304917,0.399101,0.265005,0.202031,0.279342],[0.13474,-0.070699,0.008485,0.090624,-0.093719,-0.041437],[0.103095,0.068771,0.304534,0.088565,0.148216,0.217686],[-0.058059,-0.003686,-0.093871,0.091044,0.08557,0.076844],[0.04949,-0.034113,0.072537,0.091688,-0.082134,-0.072156],[0.182621,0.090294,0.236663,0.305206,0.156623,0.242084],[0.136069,0.480035,0.325036,0.284504,0.571053,0.390004],[-0.636393,0.628955,-0.461941,-0.046456,-0.074425,-0.039799],[0.265941,0.275432,0.187475,0.244332,0.301631,0.329508],[-0.101188,-0.575898,-0.123941,-0.30989,-0.231373,-0.274609],[-0.927328,-0.213321,0.765244,-0.69044,-0.746487,-0.568499],[-0.211132,0.218254,-0.496102,0.13371,0.09827,0.065402],[0.303689,0.091948,0.366988,0.16927,0.143697,0.200755],[0.012488,-0.035034,0.100681,0.029599,-0.124683,0.095023],[0.131437,0.147782,-0.359132,-0.203001,-0.127507,-0.094612],[0.326785,0.526924,0.372078,0.442992,0.363768,0.389565],[0.331925,0.394346,0.36033,0.226038,0.424024,0.249529],[0.395843,-0.661404,0.717511,0.342922,0.234056,0.376651],[-0.578463,-0.106178,-0.695785,-0.49628,-0.363915,-0.339869],[1.228134,0.978392,1.457552,1.770918,1.717299,1.570587],[0.155884,0.1134,-0.388997,-0.210695,-0.090612,-0.252777],[0.428479,0.511704,0.540784,0.308887,0.248074,0.225117],[0.98784,0.56958,1.552818,1.245109,1.302432,1.563572],[0.029871,0.208194,0.842006,0.506736,0.316059,0.432749],[0.524329,0.26804,0.653931,0.634379,0.483624,0.641189],[-0.089136,-0.066125,-0.019018,-0.030631,-0.094699,0.077103],[-0.401302,-0.537208,-0.266159,-0.322837,-0.615026,-0.689897],[0.417941,0.33253,0.259149,0.231671,0.167791,0.2508],[0.304274,0.278969,0.048245,0.259919,0.305477,0.129267],[0.007959,-0.081509,0.029537,0.034806,0.01242,0.086041],[-0.395283,-0.432144,-0.356849,-0.315022,-0.279587,-0.309426],[0.427503,-0.101402,-0.237616,0.131526,0.292544,0.002051],[0.058118,-0.122604,-0.000173,-0.06964,0.068995,-0.04999],[0.076314,0.051915,0.088221,-0.070835,0.007084,0.010341],[0.429888,0.165272,0.380902,0.289635,0.319742,0.352164],[-0.094691,-0.105891,-0.042943,0.07977,0.032079,-0.0309],[0.475879,0.316345,0.312419,0.349063,0.188106,0.209746],[-0.143598,-0.052543,-0.414759,-0.010691,0.106257,-0.110551],[-0.138622,-0.087658,-0.029336,0.055525,-0.039879,0.023547],[1.14911,0.70792,2.113217,1.807804,1.676983,1.992779],[-0.124424,-0.154018,-0.522886,-0.27483,-0.170187,-0.267833],[0.300744,0.217856,0.387848,0.204856,0.297993,0.116006],[0.134438,0.282888,0.378687,0.315913,0.257264,0.33673],[-0.036069,-0.030662,-0.064293,-0.094026,-0.001096,-0.009051],[-0.1036,0.534687,0.495911,0.286851,0.283131,0.11695],[0.245912,0.331099,0.236263,0.339361,0.09912,0.179164],[0.275045,0.2994,0.180805,0.298605,0.285857,0.387688],[0.235662,-0.026892,-0.336523,-0.452997,-0.440362,-0.449351],[-0.011638,0.390839,-0.256912,-0.14594,-0.12023,-0.251928],[-0.510475,-0.542012,-0.634355,-0.476411,-0.282231,-0.280017],[-0.040653,-0.022241,0.007136,-0.104574,0.008957,0.035352],[0.405422,0.087987,-0.610974,-0.459947,-0.093202,-0.33765],[0.060036,0.006668,0.108323,0.115309,-0.113383,-0.082901],[-0.097945,-0.046438,0.658585,0.326525,0.209836,0.400023],[0.242254,0.012824,-0.060371,0.182494,0.215034,0.29136],[0.381696,0.156163,0.090054,0.274889,0.294327,0.255897],[0.218132,0.1995,0.279564,0.242412,0.187693,0.186817],[-0.044625,0.031635,0.086795,-0.096917,0.025812,-0.070732],[0.079025,0.011606,-0.1113,0.051125,-0.04425,0.073386],[0.197726,0.336388,0.299487,0.264602,0.285051,0.286758],[0.349032,0.0457,0.150434,0.249334,0.127298,0.340082],[0.131221,0.147033,0.185947,0.243644,0.253404,0.203539]],"biases":[0.201331,0.292958,0.14453,0.023625,0.060929,0.290232]}]},"round":112,"phase":33,"phaseIteration":1,"trained":"pilot","generation":111,"dominanceMetric":"pilotWinRate","dominanceThreshold":0.65,"dominanceReached":false,"candidateSpawns":2,"selectedCandidate":2,"pilotWinRate":0.0,"enemyWinRate":1.0,"averageScore":3100.0,"averageWave":2.4,"averageSteps":147.7,"waveClearRate":0.7,"averageClearSteps":156.14,"enemyDropRate":12.1545,"invalidDropRate":0.6627,"enemyFireRate":0.2756,"pilotFireRate":0.3943,"pilotShotAccuracy":0.5609,"pilotHits":327,"pilotFires":583}
