{"id":56,"label":"Pilot v56","role":"pilot","model":"sb3-dqn-pilot-v56","actions":["left","right","fire","stay"],"features":["target_dx","abs_target_dx","threat_dx","threat_y","bullet_ready","alien_count","wave","drop_ready","enemy_shot_ready","fleet_y","lives"],"network":{"activation":"relu","layers":[{"weights":[[0.207226,-0.382292,0.286309,0.303082,-0.21549,-0.646618,0.08471,-0.029349,-0.124066,-0.40281,-0.154766,0.511126,-0.005823,0.255863,0.274009,-0.094514,-0.128068,-0.353539,0.191016,0.236953,0.209015,0.29573,-0.082529,0.01189,0.292733,-0.259344,-0.714396,-0.28653,-0.147838,-0.521332,-0.234505,0.146359,-0.273497,-0.024211,0.366312,0.185419,-0.030025,-0.426146,0.110618,0.292146,-0.144433,0.445379,-0.435851,-0.630924,-0.683353,0.181245,0.14621,-0.549625,0.160019,0.205347,0.258624,0.107526,0.229503,0.154712,0.071048,-0.881584,0.198805,0.196315,0.065963,0.379802,0.583794,-0.209885,0.151233,-0.655349],[0.296597,0.104661,-0.095879,-0.187947,0.119677,0.684752,-0.52017,-0.101816,-0.221376,-0.415554,-0.705528,-0.024044,-0.148271,-0.378881,-0.102468,-0.19115,-0.324905,-0.498231,-1.170947,0.22488,-0.232903,-0.840871,-0.165054,0.282639,-0.294909,-0.224093,0.086511,0.166199,0.011125,0.133951,0.235452,0.485462,-0.174494,0.205016,0.406641,0.097005,-0.117341,-0.417087,0.247505,0.40016,0.283343,0.151449,-0.089727,-0.060018,-0.092881,-0.141404,0.065305,-0.623808,0.250084,0.127218,-0.545592,-0.324178,-0.295553,0.09372,0.384786,-0.139172,-0.225963,-1.037675,0.231324,0.106085,0.217671,-0.182845,-0.377275,-0.182685],[-0.165315,0.156722,-0.001674,-0.697589,0.209412,0.184503,-0.006274,0.198771,0.030601,-0.052431,-0.23878,-0.618127,-0.017547,-0.78403,-0.661941,0.247532,-0.201716,-0.253026,-0.163106,-0.284441,-0.100032,0.196785,0.340879,0.005548,-0.198791,0.191375,-0.288546,0.062982,0.30672,0.31063,0.04852,0.007502,0.10325,-0.127294,-0.029322,-0.486004,0.229807,-0.161027,0.005477,0.070549,-0.014095,-0.761546,-0.878698,-0.092358,0.17133,-0.454665,0.307553,0.209822,0.102866,-0.111778,-0.447163,-0.194961,0.273308,-0.28083,-0.235602,-0.07557,0.239018,0.234394,0.189091,-0.681592,-0.075251,-0.865122,0.141923,0.249117],[-0.143369,0.12735,0.246906,-0.116689,-0.19976,0.395151,-0.093619,0.459687,-0.145142,0.137038,0.016055,-0.121085,-0.221037,-0.260502,0.16145,-0.078778,-0.265259,-0.105933,0.109056,-0.286546,-0.06867,-0.257671,0.153985,0.49079,0.015233,-0.291032,-0.241513,-0.128173,-0.191353,0.090066,0.445739,0.060052,-0.153345,-0.146453,0.142727,0.308532,-0.054157,-0.310996,-0.046185,-0.139024,-0.242283,-0.115077,-0.127203,0.335649,0.308254,-0.189142,-0.138432,-0.021801,0.182844,0.006281,-0.173218,-0.224998,0.114954,-0.193914,0.22582,0.041005,-0.300674,-0.093884,-0.295923,0.088685,-0.278454,-0.019997,-0.10634,-0.232095],[0.228048,0.375544,-0.048096,-0.078941,0.204731,0.007493,0.11148,0.178556,0.089602,0.299611,0.055218,0.026497,0.058675,-0.022999,0.140631,-0.065483,-0.000387,0.021871,0.271268,0.037726,-0.115068,0.153384,-0.030498,0.091218,-0.008709,0.08217,-0.273126,0.070622,-0.415726,-0.539912,0.222955,-0.244255,0.005963,-0.09924,0.145718,-0.084619,0.258939,-0.097268,0.010529,0.212135,-0.345433,0.010422,-0.002074,-0.087202,-0.090929,0.06134,-0.118127,-0.197564,0.18497,-0.418873,0.099796,-0.163343,0.277737,-0.244232,-0.348935,-0.0436,-0.052653,-0.039477,0.101167,0.201114,0.023029,0.096837,-0.019547,-0.044148],[0.288664,0.113989,0.491648,0.018821,0.098888,0.209509,0.261478,-0.357974,0.078702,0.247287,0.324194,0.449114,-0.280045,0.378594,0.02796,-0.118282,-0.214522,0.591927,0.237371,-0.047987,0.248196,0.092108,0.28066,-0.527575,0.394119,-0.223603,0.135944,0.207702,0.537048,-0.048358,-0.116338,-0.296844,0.356286,-0.246886,0.437021,0.661497,0.235348,0.114186,-0.0708,0.516923,0.126721,0.126524,0.216987,0.167196,0.127134,0.227576,0.14642,0.40751,0.340506,0.535984,0.409741,0.04634,0.635868,0.06518,-0.306516,0.250133,-0.010853,0.2755,-0.256464,0.332724,0.566915,0.191101,0.575327,-0.106626],[0.300134,0.167061,0.128373,-0.02113,-0.151312,-0.027176,-0.006958,-0.02944,0.129791,-0.097111,0.060871,0.238616,0.019937,0.325983,-0.296131,-0.111646,0.09,0.357504,-0.095796,-0.233967,-0.272722,0.08003,0.04243,0.195881,0.307022,0.175132,-0.061727,0.319595,-0.133182,0.044282,0.101526,0.158411,0.040674,-0.128338,0.290218,0.130907,0.125952,-0.071213,-0.111616,0.144253,0.052976,0.046008,0.267732,-0.281127,-0.053652,-0.190076,0.123623,-0.203764,0.178488,0.214076,0.147049,-0.044951,0.047327,-0.232809,-0.096343,0.052131,-0.301917,0.083198,0.05126,0.22878,-0.16521,0.273625,0.069563,0.226732],[-0.187514,-0.120086,0.216268,0.020634,0.194553,0.007635,0.062082,0.103014,-0.170774,-0.30039,-0.011358,0.026726,-0.263924,0.00188,-0.207587,-0.443578,0.074874,0.091778,-0.120448,-0.230325,-0.235582,0.180552,0.085081,0.231035,0.112941,-0.170345,0.023477,0.339857,-0.035803,-0.290178,-0.066705,-0.173254,0.025298,-0.231274,0.149125,-0.188963,0.150862,0.147636,0.220024,0.094557,0.133809,0.243306,0.012733,-0.167274,-0.060974,-0.012078,-0.109478,-0.014343,0.171402,0.213063,0.006012,0.124643,0.064505,-0.140833,0.099694,0.000647,-0.372492,0.098078,-0.024847,-0.23084,0.325405,-0.055509,0.245659,0.160085],[0.09449,0.314444,0.062994,0.089882,-0.327536,-0.060896,0.070138,0.137387,-0.186852,0.163798,-0.253963,0.000946,-0.147357,0.025043,0.02479,0.286492,-0.216054,-0.147365,0.209205,-0.137627,-0.12681,-0.001189,0.101238,-0.288933,0.25932,-0.278763,0.149883,0.195567,-0.02325,0.234802,-0.08841,-0.204322,0.118979,0.028721,0.037746,-0.003566,-0.10385,-0.150471,-0.015913,-0.001783,-0.290082,-0.601968,0.099003,-0.066538,0.0799,0.286576,0.17073,0.135125,0.277855,-0.104195,0.0013,-0.045525,-0.293636,-0.046892,0.128847,-0.110856,-0.109011,-0.359732,0.110663,-0.2245,0.28387,-0.10837,-0.189506,0.025233],[-0.062249,-0.410912,-0.441541,-0.05506,-0.324833,0.457051,0.156913,0.464027,0.038526,-0.110345,-0.1472,0.145405,-0.244253,0.185417,0.450575,-0.169696,-0.063842,0.028772,0.128648,0.160001,-0.160248,0.213016,-0.325672,-0.310349,-0.370907,-0.130983,-0.247142,-0.24188,0.160506,0.056028,0.437542,0.427774,-0.240643,0.053466,-0.325142,-0.254847,0.005543,0.180704,0.829974,-0.391058,0.175102,-0.156384,0.243388,0.440735,-0.494527,-0.004455,-0.283314,-0.002626,-0.140193,-0.082528,0.378439,-0.133145,-0.070567,0.074674,-0.053404,-0.168285,-0.122213,0.086653,0.676218,0.182379,0.053208,-0.049429,0.172488,-0.244941],[-0.223549,-0.314308,-0.023128,-0.003536,-0.260052,-0.139704,-0.08411,-0.191498,-0.062232,0.071182,0.172509,0.136341,0.266897,-0.11516,-0.205776,-0.219652,0.173713,0.102635,-0.021715,0.001728,-0.079476,0.166804,-0.040469,0.098886,0.140612,-0.291707,0.298635,0.284459,-0.112594,0.024931,0.119832,0.126926,-0.126561,0.024827,-0.116595,0.124512,-0.124515,0.200826,-0.262123,0.020158,-0.01873,-0.160427,0.110822,-0.01148,0.19604,0.070156,-0.291921,0.115428,-0.076975,0.223121,0.184579,-0.106567,-0.186883,-0.019444,-0.245465,0.017943,-0.303523,0.234002,-0.308277,0.012784,-0.208188,-0.227024,-0.162446,-0.222143]],"biases":[-0.187951,0.036453,0.114083,0.231727,0.200812,-0.306199,0.044994,-0.18883,-0.109308,-0.153872,0.235819,-0.006741,-0.09289,0.050594,0.146712,-0.112328,-0.209777,0.328862,-0.072676,-0.082178,-0.009838,-0.031622,-0.072788,0.052612,0.226835,-0.298571,-0.19734,0.378131,0.329156,-0.005988,-0.240677,0.055052,0.318931,-0.239053,0.34246,0.35251,0.240885,-0.026164,-0.379459,0.199859,-0.11319,-0.073525,-0.055924,0.180513,0.206539,-0.124564,0.051492,0.277693,-0.006613,0.065329,-0.184622,0.361874,0.227934,-0.061153,0.239607,0.3417,0.184171,-0.182966,-0.205168,0.199539,0.011098,0.180508,0.102156,-0.122777]},{"weights":[[-0.129237,-0.053481,0.046761,0.050534,-0.11323,0.003571,0.080993,0.044978,-0.092356,-0.093109,-0.079042,-0.061717,-0.073687,-0.052733,0.137231,-0.072302,-0.041364,-0.106992,0.02398,0.033862,-0.048121,0.030943,-0.121857,-0.082336,-0.127241,-0.007392,-0.082526,-0.042436,-0.132721,0.002532,-0.126057,-0.091401,0.039443,-0.081374,0.049045,-0.126669,0.080523,-0.097666,-0.079859,-0.005701,-0.041739,-0.058993,-0.036623,0.059676,-0.120361,0.058615,0.055297,-0.058674,-0.064816,-0.101329,-0.047908,-0.098767,0.087958,0.084199,-0.033524,0.150593,-0.151019,-0.061947,0.076884,0.008199,-0.10603,-0.088574,-0.127788,-0.132749],[0.202077,0.009614,0.079365,-0.203186,0.047213,-0.052354,0.005642,0.071173,-0.005576,0.030277,0.326677,0.059406,0.085556,0.260447,-0.0278,0.088351,0.04219,-0.30524,0.007609,-0.032099,0.110453,0.090321,0.17136,-0.150491,0.043908,0.069803,0.117757,-0.045522,0.125976,0.198563,0.225868,-0.097398,-0.085888,0.066382,-0.222252,-0.022343,-0.07537,0.059851,0.237076,-0.456863,-0.037963,0.170262,-0.023199,0.177114,0.224013,0.102306,0.109336,-0.053026,0.246621,0.021913,0.208362,0.276347,-0.100293,-0.024837,-0.007538,-0.390845,0.205661,0.192129,-0.256288,-0.214962,-0.048113,0.123036,0.365795,0.28657],[0.184133,-0.06633,0.110114,-0.142898,0.141843,-0.026344,0.133187,0.081419,-0.068125,-0.034128,0.220507,-0.064695,0.267491,0.135965,-0.17071,0.031295,0.171426,0.072464,-0.127046,-0.087875,0.127987,0.19229,0.197403,0.041512,-0.030508,0.011591,0.010151,0.256751,0.293861,0.198937,0.136572,0.070911,0.231597,0.266535,-0.052368,0.139408,-0.200736,0.05934,0.099276,-0.061119,0.112423,0.069651,0.058421,-0.026439,0.083663,0.03546,0.153029,0.105651,0.225224,-0.025772,0.146426,0.236576,0.072256,0.057267,-0.017543,0.198672,0.273055,0.102395,-0.130455,0.013774,-0.009047,0.190796,0.173539,0.104835],[-0.020105,0.033405,0.085221,0.158851,0.015243,-0.058528,-0.099268,0.095331,-0.099931,-0.126468,0.000664,-0.051615,0.154488,0.14984,-0.012798,0.001235,0.036828,0.214661,0.042524,0.111942,0.202429,0.040953,0.058495,-0.048848,-0.046651,-0.297964,-0.416214,-0.432063,-0.048443,0.117554,0.157498,0.00954,0.063637,-0.081649,-0.082878,0.019844,-0.081053,0.05041,-0.067886,0.054642,0.052618,0.097657,0.040069,-0.086541,0.136951,0.056376,-0.065905,0.113571,0.139732,0.025063,-0.057942,-0.008381,-0.062863,-0.11665,0.059117,-0.084064,0.028881,0.197426,0.209929,0.04958,0.007815,-0.004761,-0.437412,0.012853],[0.169736,-0.240216,0.153893,-0.406302,0.044481,0.02184,0.329186,-0.029942,0.083354,-0.102157,0.173945,0.177506,0.241663,0.258872,0.008175,-0.118859,0.156369,-0.171356,-0.051469,-0.084111,0.250524,0.253941,0.217044,-0.00699,0.00878,0.386088,-0.180961,-0.049151,0.157028,0.196158,0.2065,0.079328,0.121799,0.059353,-0.118498,0.089057,-0.265095,-0.065384,0.149993,0.118671,0.038641,0.097006,0.04764,0.171008,0.135512,0.17568,0.065999,0.008018,0.304893,-0.113085,0.098367,0.243776,-0.095587,0.133495,-0.107655,-0.097428,0.301737,0.078765,-0.286206,-0.26062,0.090417,0.114762,0.302323,0.284933],[-0.103617,0.180871,-0.333773,0.288448,0.240135,0.012259,0.167156,0.411327,0.04871,0.018278,-0.290931,0.296962,-0.132794,-0.398665,0.344052,-0.121548,-0.432674,-0.454631,0.006135,-0.119967,-0.233228,-0.44631,-0.137084,-0.175018,-0.168519,0.154988,0.139732,0.156533,-0.208885,-0.230219,0.01173,-0.034408,-0.353428,-0.070842,0.54607,0.062114,0.519977,-0.111076,0.379516,0.345026,0.012397,-0.604407,0.067201,-0.076351,-0.407106,-0.057487,-0.231995,0.054442,-0.222834,-0.119603,-0.14843,-0.284276,0.030201,0.044229,0.053457,0.075263,-0.227145,-0.409709,0.122864,0.336677,-0.052893,-0.208627,0.30168,-0.172391],[-0.059635,0.131536,0.114833,0.227881,-0.140395,0.081571,-0.209293,-0.059936,-0.02487,-0.125746,0.181831,-0.014489,0.110473,0.001049,0.088114,0.035576,0.064813,-0.007341,-0.039287,0.044773,0.123728,0.05231,0.0249,0.088593,0.220784,-0.09965,0.098642,0.07122,0.145281,0.062413,0.06414,-0.051482,0.125206,0.025058,-0.025662,-0.059564,0.129749,-0.077831,-0.169522,-0.020019,-0.056908,0.18366,0.028985,-0.083284,0.070129,-0.001752,-0.043415,0.075845,0.009732,-0.132253,0.126606,0.040598,0.039618,-0.023864,-0.00782,-0.145852,0.183838,0.07974,0.035672,-0.096982,-0.112048,0.059282,-0.166029,0.160767],[-0.309574,0.276343,-0.437232,0.38534,0.007845,-0.027329,-0.237836,-0.027188,-0.12041,-0.023548,-0.371721,-0.092414,-0.352247,-0.300137,0.154668,0.049177,-0.432953,-0.661985,0.096211,-0.082207,-0.401346,-0.352021,-0.280214,0.045601,0.393997,-0.190574,0.016991,0.129628,-0.221469,-0.237278,-0.035756,0.068808,-0.506308,-0.239843,0.22883,0.012493,0.377258,0.07947,-0.215474,-0.029654,0.270063,-0.566437,-0.039438,-0.072426,-0.314624,-0.0606,-0.194418,-0.047698,-0.515377,0.038807,-0.247054,-0.301207,-0.073986,0.078653,0.057645,0.091543,-0.451568,-0.306822,0.109295,-0.121903,-0.102658,-0.197344,0.189054,-0.248837],[0.064481,0.047346,-0.113962,-0.02897,-0.007005,-0.003109,-0.036355,-0.076285,0.065693,0.034769,-0.143843,-0.05039,0.004174,-0.139911,0.013796,0.051086,0.065264,-0.105352,-0.073416,0.011373,-0.022734,-0.129209,0.02295,0.113319,-0.071696,-0.055376,0.095615,0.100956,0.039136,0.032956,0.11889,-0.119302,-0.033687,0.04649,0.001763,0.014332,0.098067,0.120734,-0.006395,-0.047972,0.004619,0.035825,0.086938,0.139068,-0.083137,-0.029513,0.055063,-0.079014,-0.104723,-0.035653,0.054612,-0.03301,0.077897,0.02157,0.092123,-0.019627,-0.075148,0.079835,0.046348,0.062584,-0.11594,-0.076345,0.077775,0.025898],[0.264083,-0.191905,0.008889,-0.011829,0.130447,-0.052802,-0.08482,0.110373,0.078335,-0.027342,0.092213,0.185483,-0.086769,-0.090376,-0.048623,-0.094464,0.030483,-0.080066,-0.083827,0.088401,0.071553,0.136486,0.131821,0.058536,0.104495,0.207772,0.234432,0.156007,0.239423,0.091288,-0.090636,0.042067,-0.103214,0.197554,0.067907,0.195554,0.104922,-0.087326,0.217445,-0.117329,-0.154995,0.100634,-0.028453,0.059309,0.25362,0.104283,0.078733,-0.015591,0.175575,-0.100943,0.078041,-0.014264,0.046954,-0.075855,0.031965,-0.227312,0.122095,0.084569,-0.205276,-0.097622,-0.023384,0.20393,0.218888,0.250449],[0.259576,-0.188711,0.257024,-0.114546,0.070385,-0.026461,0.005279,0.061721,0.110631,0.055179,0.232439,0.166288,0.116133,0.08905,-0.187405,-0.054904,-0.027184,0.04878,-0.357099,-0.09873,0.105081,0.033927,0.259368,0.067445,-0.167838,-0.098517,-0.142399,-0.103169,0.041902,0.142916,-0.161946,-0.009923,0.084232,0.088114,0.031969,0.120166,-0.004383,0.087755,0.01048,0.040306,-0.132533,0.24742,0.059614,-0.065542,0.060879,-0.108162,0.201817,-0.084509,0.079056,0.066673,0.074182,0.121962,-0.05154,-0.083423,0.029527,-0.182969,0.220563,0.163973,-0.125599,-0.116157,-0.06776,0.199068,-0.218421,0.200627],[0.151746,0.072897,0.136339,0.188363,0.021416,0.061441,0.025687,-0.151547,0.050957,-0.004701,0.154068,-0.173448,0.287058,0.245873,0.091873,-0.007905,0.060166,0.201682,-0.335463,-0.029981,0.222812,0.251822,0.092774,0.059443,-0.275114,-0.066289,-0.223643,-0.365234,0.102001,0.233178,0.034919,-0.066901,0.293311,0.033161,-0.037553,-0.010506,0.026411,0.033153,-0.236321,-0.036291,0.126727,0.099848,0.049916,-0.059749,0.184715,-0.038685,0.147348,-0.090889,0.221936,0.050367,0.10471,0.162531,0.078836,-0.082797,-0.089653,-0.238541,0.188998,0.104147,0.196542,-0.091308,0.003075,0.151621,-0.482091,0.149163],[-0.098428,0.00931,0.017712,0.097594,0.044205,0.006908,0.043106,-0.107377,0.018796,-0.088024,-0.05258,-0.065223,0.055757,0.085924,-0.026445,0.026812,-0.091954,-0.047329,-0.03461,-0.007782,0.022567,0.055347,-0.063471,0.005183,-0.067325,0.128786,-0.062489,0.100402,-0.072675,-0.077218,0.088947,-0.066478,-0.053947,0.1048,0.003526,-0.120605,0.011786,0.042903,-0.05906,0.003223,0.08584,0.118942,0.114936,-0.094363,0.063007,-0.007153,0.058263,0.010472,-0.02151,0.050279,-0.091176,0.129967,-0.066267,0.10791,0.02535,-0.014168,0.027411,0.056232,-0.063612,0.014746,0.046937,0.085199,0.048542,-0.024515],[0.382937,-0.196318,0.3419,0.054859,-0.086433,-0.093468,-0.066009,-0.095829,0.081045,-0.042187,0.336965,0.066007,0.217587,0.17006,0.022126,-0.09564,0.166018,0.517499,-0.156045,-0.023271,0.405465,0.345938,0.290996,0.042982,-0.008237,0.224095,-0.350633,-0.480175,0.231743,0.364822,0.018309,-0.116191,0.237745,0.323085,0.154804,-0.051175,0.011534,-0.007082,0.050311,0.020497,-0.082037,0.17824,-0.100419,0.121588,0.395077,0.105927,0.187129,-0.097945,0.403267,-0.079394,0.210162,0.223204,0.063393,0.012273,0.117557,-0.20612,0.254731,0.354407,-0.115413,-0.343931,-0.04597,0.256128,-0.292511,0.295062],[-0.060006,0.324517,0.034429,0.239633,0.018821,0.045324,-0.064677,-0.028179,-0.01608,-0.054617,0.001254,-0.230766,0.009213,0.064641,0.02403,-0.068197,-0.154889,0.193691,-0.085209,-0.122138,-0.032351,-0.040874,0.103284,-0.099656,-0.284093,-0.043702,-0.17696,-0.290864,0.079049,-0.020888,-0.083805,0.004751,-0.118352,0.170025,0.24564,-0.045625,0.319347,-0.069582,0.109785,0.016892,0.123014,0.042469,-0.086161,-0.197032,-0.047773,-0.102526,-0.023713,-0.036218,-0.150323,0.031417,0.00771,-0.096826,0.033622,-0.011682,0.036829,-0.146996,-0.186088,0.020927,0.310251,-0.192971,0.122452,0.05879,-0.175229,0.028383],[-0.126137,-0.08499,-0.187555,0.396879,-0.117013,0.052703,-0.127404,0.197751,0.058345,-0.078137,-0.20993,-0.070603,-0.307048,-0.161315,0.054313,0.017833,-0.232691,0.24927,0.150625,0.123842,-0.178824,-0.2095,-0.100778,-0.034791,0.06565,-0.215525,-0.031962,-0.064676,-0.255763,-0.318109,0.070255,-0.00798,-0.291811,-0.212961,0.221847,-0.106164,0.194404,0.056463,-0.049354,-0.110773,0.081119,-0.285045,-0.065952,-0.006644,-0.297607,-0.112363,-0.134923,-0.057546,-0.065581,-0.11208,-0.173083,-0.247217,0.054198,-0.093735,0.065236,-0.024901,-0.292603,-0.318746,-0.122367,-0.107728,-0.022126,-0.233334,-0.129167,-0.199707],[-0.020956,0.094871,-0.060798,0.044752,-0.016525,0.090777,0.072244,-0.024805,-0.001378,-0.107613,-0.021713,0.027923,-0.090408,0.068269,0.08456,-0.092463,-0.031551,0.110308,-0.099103,-0.02215,-0.010709,-0.035611,-0.001262,-0.000232,-0.107306,-0.092624,-0.035719,0.059531,0.067124,-0.028757,-0.086856,0.000767,0.059302,-0.082969,0.021815,-0.001603,0.013869,0.003353,0.077762,0.014987,0.110672,-0.01713,0.114349,0.009875,0.102094,-0.020629,0.020002,-0.087632,-0.052541,-0.066228,-0.076287,0.139629,0.09372,0.073899,-0.058768,0.011946,-0.041794,0.065437,-0.025403,0.05667,-0.005783,-0.039046,0.11968,-0.026588],[0.19996,-0.071503,0.154203,-0.119233,-0.051606,0.01827,0.0092,0.030863,0.124579,0.074447,0.285229,-0.048084,0.148076,0.131457,-0.12086,0.024332,0.174321,0.192385,-0.297922,0.06227,0.085697,0.122351,0.115939,-0.139263,0.015495,-0.064196,-0.089809,-0.0946,0.163095,0.11913,-0.055778,-0.086929,0.097388,0.215712,-0.025873,0.008051,-0.115892,-0.080276,0.033976,-0.013675,-0.293301,0.085258,-0.119086,0.028934,0.286729,0.023215,0.278959,0.123865,0.091272,-0.112308,0.176906,0.140487,0.008748,-0.024736,0.040664,-0.087793,0.24032,0.243781,-0.129216,-0.118868,0.096793,0.256145,-0.105687,0.22588],[-0.080679,-0.096554,0.034292,0.276646,0.023692,0.068326,-0.371703,0.080839,-0.091122,-0.015108,0.147994,0.074382,0.029903,0.111675,-0.039291,-0.16113,-0.095366,-0.150307,-0.019732,-0.036765,0.030743,-0.148081,0.189777,0.056566,0.015276,9.8e-05,0.136813,0.229913,-0.035026,0.143392,-0.224447,-0.024103,-0.063631,0.099348,0.206125,0.076073,0.286381,-0.026963,-0.010751,-0.118252,-0.058449,0.055824,0.063658,-0.203421,0.219886,-0.256855,-0.006367,0.007181,-0.060189,0.120641,-0.017339,0.083376,0.065037,0.078018,-0.002149,-0.26059,0.051544,0.091458,0.165879,-0.265341,0.094985,0.142123,-0.043795,0.097251],[0.060197,-0.088027,-0.09313,-0.115014,-0.056181,-0.096397,-0.034887,0.029488,-0.113497,0.032248,-0.011286,-0.144267,0.091874,-0.046355,0.091326,-0.028588,-0.087997,0.004075,0.017582,-0.080512,-0.01028,0.020981,0.059436,0.008848,-0.009033,0.033626,0.113296,-0.086425,0.058567,-0.091999,-0.031794,-0.005889,-0.069003,0.036185,-0.07902,0.042387,0.105047,0.074585,-0.001795,-0.150797,-0.066729,0.091154,0.013261,0.114954,0.032158,0.142322,-0.082989,-0.087026,-0.125142,-0.102556,-0.11347,-0.074095,-0.024479,0.05027,0.092126,0.026771,-0.1109,0.059557,-0.009032,-0.077264,0.087423,0.037261,-0.035674,0.016699],[0.0512,0.104197,0.078273,0.118159,-0.122881,0.007623,0.015871,-0.004951,0.000341,-0.071818,0.007105,-0.08478,0.077969,0.119624,-0.034552,-0.123852,0.017398,0.070694,-0.09898,-0.03361,-0.064451,-0.003014,0.072977,0.008698,0.052368,0.014771,0.100904,-0.081741,0.054958,-0.069022,0.085644,0.072732,0.067079,0.007542,-0.00285,-0.079237,-0.00586,-0.064588,0.063519,0.02042,-0.043958,-0.057201,-0.037337,-0.121975,-0.017194,-0.019008,0.124903,-0.067831,-0.005047,0.097389,-0.056723,0.088756,-0.016651,0.059965,-0.08797,-0.0417,-0.056467,-0.11931,-0.008017,-0.103304,-0.033404,-0.119717,0.105202,-0.052217],[0.087467,0.038264,-0.028385,0.245058,-0.326528,-0.012056,-0.279229,0.024051,-0.028842,0.108812,0.149738,-0.122455,-0.099465,0.104066,-0.080218,-0.104597,0.017605,-0.064771,0.076551,0.020297,0.010532,-0.075225,-0.033394,0.050226,0.17584,-0.175538,0.070408,-0.099965,0.119197,0.088856,-0.166206,0.005154,-0.016721,0.078531,0.145579,-0.190826,0.165868,-0.032253,-0.136021,-0.274079,-0.220638,0.195564,-0.056685,-0.14302,0.161635,-0.103279,0.013439,0.011718,0.022734,-0.071445,-0.114912,-0.030955,0.028226,0.050515,-0.093224,-0.058702,0.056529,0.022708,0.06712,-0.014017,-0.091861,0.116655,-0.207864,0.158664],[0.164767,-0.487275,0.176067,-0.231299,0.192927,-0.102248,0.022843,-0.031765,0.036071,0.050453,0.179738,0.020444,0.073079,0.178499,-0.264407,0.017571,0.069381,-0.270732,0.040447,-0.013257,0.16705,0.292498,0.16349,0.071611,-0.002354,0.025367,0.021396,0.215285,0.177647,0.132512,-0.046839,0.106709,0.202838,0.262538,0.035886,0.117118,-0.173126,-0.007321,0.30781,0.054634,0.034355,0.218649,-0.042872,0.079872,0.195402,-0.039243,0.095733,-0.042919,0.339789,-0.077503,0.194812,0.265649,-0.095839,0.053769,-0.004461,-0.005431,0.31886,0.220867,-0.530989,-0.061605,0.115534,0.108891,0.323622,0.218213],[-0.097543,0.038857,-0.078771,-0.218557,0.178583,-0.118671,0.010011,0.183189,-0.027533,0.104575,0.006558,0.009314,-0.066373,-0.055613,-0.019297,-0.002548,-0.183709,-0.232907,0.085271,0.063013,-0.031648,-0.118651,-0.015202,0.014198,-0.080318,0.006787,0.113446,0.166606,0.099705,0.093377,-0.137544,-0.054251,-0.268035,-0.097891,-0.178546,-0.003117,-0.056632,-0.123014,0.147506,0.216432,0.101238,-0.2065,0.000946,0.046259,-0.024379,-0.136622,-0.014571,-0.026489,-0.183438,-0.071391,0.073058,-0.112554,-0.036066,-0.084899,-0.082391,0.23387,-0.040739,0.038134,-0.090783,-0.078107,-0.016075,-0.125111,0.38244,-0.074352],[0.038173,-0.10153,0.098788,0.023909,0.117839,0.070615,-0.140432,-0.137991,-0.065793,-0.004262,0.112546,-0.11421,0.221833,0.171096,-0.115176,0.053418,0.148886,0.159766,-0.115195,-0.115297,0.146865,0.281562,0.006977,-0.098491,0.056798,0.07257,0.075152,-0.047016,0.216756,0.212165,-0.000727,-0.055057,0.130849,0.100239,-0.0803,-0.06355,-0.202024,0.048707,0.102818,0.084501,0.020437,0.179486,-0.058456,0.009846,0.044113,0.058987,0.174261,-0.088902,0.120641,0.090456,0.186473,0.216462,0.0647,-0.062306,-0.097225,0.048073,0.197506,0.123259,-0.058081,-0.00055,-0.068302,0.191787,0.018596,0.080343],[0.045201,-0.121806,0.056925,0.035824,-0.039163,0.099112,0.077285,-0.042796,-0.056072,0.043306,0.004038,-0.094144,-0.052087,0.01404,-0.022892,-0.078305,0.093695,-0.100755,-0.081341,0.1233,0.080768,0.019052,0.098138,0.075027,-0.076039,-0.106744,0.059159,-0.123775,0.097206,-0.093433,-0.062161,-0.090945,0.082965,0.094912,0.107388,-0.012821,0.084203,-0.121325,0.004013,-0.054818,0.034707,-0.056147,-0.007078,0.109999,-0.094303,0.09949,0.036694,0.009333,-0.038562,0.06834,-0.057828,-0.025713,0.027306,-0.072276,-0.0567,0.093315,0.007957,-0.11895,-0.054048,0.016647,-0.032164,0.00731,-0.074138,0.09819],[0.054712,-0.732454,0.027487,0.108481,0.057454,0.021333,0.224048,0.039724,0.060789,0.094529,-0.179252,0.240781,-0.09434,-0.155998,-0.100311,0.068956,0.102466,-0.035212,0.083417,0.078425,-0.047596,-0.073618,-0.003685,-0.002144,-0.259583,0.084589,-0.053249,-0.102368,0.044401,-0.196347,0.206532,-0.132727,-0.156101,-0.043579,0.111693,0.200943,0.049555,0.09092,0.419808,-0.056725,-0.233571,-0.283632,-0.051587,0.111513,-0.084319,0.173875,0.029271,-0.083793,-0.004754,0.103976,-0.071611,-0.088223,-0.110647,-0.034298,-0.0891,0.210522,-0.012206,-0.070062,-0.013753,0.087734,0.02815,-0.334048,0.267266,-0.275653],[0.219215,-0.136562,-0.02311,-0.047098,-0.096778,-0.079486,0.011036,0.030337,-0.077265,-0.035696,0.183365,0.107662,0.075605,0.183794,0.013359,0.064951,-0.020925,-0.087257,-0.019554,-0.075117,0.096028,0.21983,0.185631,-0.00671,0.132592,0.045209,-0.052249,0.080938,0.043192,0.016804,0.113117,0.031015,0.070723,0.088348,0.054048,-0.001955,0.073757,-0.091872,-0.079532,0.084845,0.040788,0.049024,-0.125684,0.097946,0.157347,0.102603,0.186386,-0.122956,0.189705,0.055325,0.170695,0.172204,-0.107381,0.078358,0.001231,-0.09018,0.120133,0.134943,0.057966,0.036975,-0.000161,0.147609,-0.010165,0.156147],[0.135555,-0.11616,0.191015,0.050387,0.179591,0.07185,0.010748,0.010396,-0.121311,-0.017107,0.146464,-0.080288,0.297184,0.134946,0.145587,-0.107631,0.083606,0.088263,0.203756,0.091852,0.133485,0.23203,0.109858,-0.072043,0.06485,0.134524,-0.149199,0.045651,0.173331,0.074508,0.035828,-0.087958,0.195172,0.025042,0.054304,-0.084589,0.165462,0.041622,-0.091494,-0.113428,0.002562,0.241353,0.004041,0.000212,0.136933,-0.011716,0.164143,0.02268,0.158579,-0.142497,0.070888,0.191455,-0.067197,0.04416,-0.145761,0.203905,0.131674,0.217044,-0.084529,-0.031252,-0.026186,0.095188,0.026762,0.287799],[0.031607,-0.383747,0.075658,0.226925,0.256204,-0.025835,0.095724,0.171503,0.053876,0.067767,-0.002311,0.318131,-0.061438,0.087753,-0.014959,-0.038103,-0.07863,0.070528,-0.091563,-0.115375,0.008224,-0.120222,0.13343,0.023405,-0.069492,0.412092,-0.20107,0.266119,0.19793,-0.063094,-0.267946,-0.017604,0.018749,0.168113,0.277878,0.38531,0.145856,-0.080072,0.24858,0.085638,0.021029,-0.102486,0.003658,-0.053094,0.1024,-0.099265,0.020726,-0.040318,-0.060847,-0.061431,-0.041525,0.01086,-0.043759,0.009511,0.052902,0.036789,0.020584,-0.059658,0.135564,0.101758,-0.029929,-0.122312,0.110865,0.067119],[-0.118529,0.176301,-0.171663,0.267144,-0.021209,0.093544,-0.041465,-0.014622,0.002871,0.068295,-0.023967,0.045968,-0.044734,-0.122638,0.097539,-0.134695,-0.092787,-0.031979,-0.213208,-0.047788,-0.168037,-0.143356,0.027744,0.057208,0.24345,0.066997,0.075233,-0.001412,0.086344,-0.116154,-0.180292,-0.124551,-0.174053,0.017746,0.271387,-0.024711,0.194367,-0.113626,0.121616,0.158763,0.089894,-0.289598,-0.085783,-0.162163,-0.127347,-0.077159,0.07849,-0.100777,-0.245834,-0.043871,0.067899,-0.014128,0.068798,-0.095317,0.094674,-0.023265,-0.180243,0.019056,0.243106,0.016331,-0.016464,-0.141926,0.209289,-0.124498],[0.06486,-0.275988,-0.726484,-0.049613,-0.209334,0.027993,-0.15523,-0.000142,-0.023992,-0.113135,0.035634,0.144608,-0.154975,-0.072994,0.044917,0.082975,0.048738,-0.176954,0.38816,0.073112,0.030152,-0.132069,0.053734,-0.054866,-0.317424,-0.183112,0.08039,-0.130676,-0.06134,-0.215824,-0.033979,-0.083438,0.071283,-0.6305,0.009329,-0.60994,0.233842,-0.085332,-0.393506,-0.144247,0.018438,-0.059009,-0.014188,0.170263,-0.074895,0.118792,-0.041974,0.084495,-0.466408,-0.054326,-0.12151,-0.065114,-0.103136,0.116402,-0.082414,0.455057,-0.167844,-0.088451,-0.181099,-0.222554,-0.06376,-0.332349,0.069544,-0.33572],[0.332868,-0.267948,0.199496,-0.243855,-0.186651,-0.006448,0.064637,0.055213,-0.000968,-0.096402,0.117251,-0.051776,0.32427,0.306968,-0.164968,-0.16162,0.307789,0.052729,0.076047,0.042266,0.162549,0.308822,0.208298,-0.10367,0.101362,0.060184,0.034133,0.074527,0.281926,0.203352,0.006729,-0.064457,0.112763,0.244144,0.010237,0.168697,-0.184931,0.033396,0.076686,-0.223398,0.030713,0.171729,-0.019181,0.078756,0.182419,0.060994,0.292989,-0.081903,0.206322,-0.105063,0.175173,0.129619,-0.130649,-0.121638,-0.125294,-0.056043,0.137398,0.099753,-0.388553,-0.131155,0.037513,0.245967,-0.017473,0.316148],[0.053548,0.062924,0.096465,0.045143,-0.022749,0.103146,-0.048216,-0.052083,-0.094563,-0.016846,-0.097996,0.078358,-0.048577,-0.084614,0.019682,-0.048035,0.056484,0.061147,0.083592,-0.015757,-0.063911,-0.021719,0.057827,0.074652,0.005288,-0.07049,-0.064934,0.082896,-0.024262,0.079989,0.059475,0.004671,-0.100147,-0.115684,-0.085614,-0.096614,-0.04017,-0.069147,-0.03675,-0.085118,0.073599,-0.041281,0.054677,0.10928,0.108546,0.122204,0.005981,0.023816,-0.037969,0.098705,0.069745,-0.01744,0.085297,-0.02875,-0.025364,-0.004379,0.027247,-0.001699,-0.054455,0.11709,0.083156,-0.124592,-0.041534,0.070835],[0.094964,0.120498,0.146136,-0.145443,-0.049668,-0.057122,0.150391,0.036409,-0.078645,-0.042997,0.039833,0.06755,0.209601,0.267684,0.015374,0.090938,0.159604,0.046064,0.060961,-0.111544,0.219299,0.269176,0.22328,-0.126598,-0.122413,0.082702,0.001451,-0.046306,0.104984,0.264837,0.144768,-0.047273,-0.015006,-0.001635,-0.166845,-0.008724,-0.037953,-0.109027,0.061209,-0.106584,0.06675,-0.015772,0.038973,0.112847,0.159378,0.197164,0.177015,-0.030952,0.06719,-0.122297,0.122281,0.142547,-0.115556,-0.09557,0.065258,0.093511,0.099517,0.130074,-0.009027,0.041151,-0.136128,0.104257,0.261005,0.068448],[0.218334,0.099229,0.224325,-0.039533,0.160344,-0.043975,0.176067,0.141709,0.087322,-0.044487,0.109428,-0.041783,0.162961,0.05372,0.052369,-0.023625,0.024295,0.062518,-0.034181,-0.041747,0.155657,0.160079,0.136595,-0.095388,-0.468957,0.211839,0.029278,0.079958,0.07694,0.199195,0.079009,-0.067542,0.017612,0.105339,-0.026114,-0.003986,-0.005074,0.027164,0.158049,0.193954,0.025899,0.028255,0.085782,0.006532,0.189074,-0.047425,0.209495,0.052217,0.207262,0.072514,0.050187,0.244738,0.042881,0.078735,-0.014916,0.004565,0.227455,0.152883,0.099309,0.056254,-0.030386,0.132211,-0.199681,0.244194],[0.197633,0.108032,0.092339,0.133661,-0.142519,-0.086531,0.043437,0.002239,-0.008561,-0.049446,0.141254,0.008275,0.203298,-0.005354,0.093261,0.011386,0.183439,-0.061119,0.016583,-0.006783,0.178126,-0.002576,0.137415,-0.012388,0.067421,-0.04566,-0.073782,-0.003451,0.215835,0.132564,-0.036197,-0.00816,0.158217,0.049718,0.064194,0.026072,-0.059948,-0.090642,-0.052632,-0.094635,0.099376,0.138287,-0.059907,-0.042233,0.014886,-0.042375,0.134263,0.01794,0.180664,-0.137696,0.157897,0.034868,-0.105491,-0.129763,-0.035619,-0.004044,0.13937,0.010451,-0.077191,-0.141948,0.019461,-0.038254,0.01132,0.112974],[0.158236,-0.053871,0.190978,-0.165435,-0.238455,0.069695,-0.037562,0.062944,0.062079,-0.10382,-0.004215,-0.066545,-0.03439,0.02507,0.036788,0.085264,0.008482,0.26262,0.114397,-0.115069,0.119488,0.168483,0.123585,-0.03768,0.000576,-0.151395,0.108101,-0.429689,0.08678,-0.004178,-0.081315,-0.034297,0.014159,-0.033931,-0.075972,-0.15755,0.035758,-0.060875,-0.096689,-0.066118,-0.095892,0.057269,-0.07568,0.010855,-0.027752,-0.051538,0.072514,-0.084002,-0.034453,0.08305,-0.031989,0.093756,-0.079098,-0.121773,-0.034392,-0.059958,0.052251,-0.064201,-0.069485,-0.134808,-0.105782,0.071321,-0.281369,0.200935],[-0.951151,0.149054,-0.556279,1.023815,-0.378997,0.072696,-0.324294,0.344563,0.062377,0.083438,-0.761681,0.053038,-0.802159,-0.784905,0.73935,-0.026546,-0.376993,-0.374218,0.405637,-0.034897,-0.939897,-1.000002,-0.92598,0.005078,0.298585,-0.659581,-0.132086,-0.348959,-0.70536,-0.651081,-0.387668,-0.01631,-0.727283,-0.757548,0.664018,-0.665269,1.016037,-0.01311,-0.5272,-0.125033,-0.083563,-0.660768,0.097613,-0.180307,-0.914194,-0.133399,-0.870512,-0.050962,-0.906368,0.081944,-0.814313,-0.829609,0.109932,0.024749,-0.058774,0.299468,-0.954653,-0.950386,0.537006,0.316878,-0.010568,-0.800476,-0.461818,-0.940588],[0.299859,-0.212578,0.241815,-0.477464,-0.113348,0.022094,0.139291,-0.292296,0.024785,-0.011124,0.15955,0.214682,0.201371,0.124094,0.005423,-0.088072,0.260546,0.136266,-0.107415,0.10837,0.298222,0.335516,0.276292,-0.065892,-0.097233,0.204058,0.067078,0.118338,0.113555,0.075842,0.20569,-0.054157,0.194531,0.026559,-0.337926,0.055627,-0.379448,0.097294,0.194385,-0.215147,0.126705,0.032572,0.060162,0.39604,0.093932,0.310856,0.350043,-0.09981,0.125461,-0.114543,0.318092,0.398055,-0.092053,-0.030744,-0.084906,-0.087615,0.273503,0.222615,-0.49806,-0.209038,0.10301,0.028743,0.260842,0.234454],[0.09453,0.009078,-0.116337,-0.141112,-0.169431,0.030645,0.444065,0.313098,0.109678,-0.05782,0.00705,0.160027,0.102305,0.012705,0.297449,-0.109322,0.061689,-0.025376,0.463846,0.115187,0.208681,0.134122,0.002737,0.115013,-0.215184,0.141449,-0.018427,0.150268,-0.055603,-0.03517,0.2601,-0.081681,0.049282,-0.038385,0.225774,-0.247796,0.14191,0.001953,0.145366,0.024299,0.069735,-0.074759,-0.054801,0.48525,-0.161495,0.310918,-0.153357,0.055329,-0.005126,0.071915,0.044438,0.099147,0.092213,-0.116972,0.071057,0.307583,-0.115198,0.010128,-0.150091,-0.05588,0.034413,-0.155498,0.015037,0.009013],[0.439861,0.281622,0.37969,-0.153426,0.097258,0.033381,0.189715,-0.01774,-0.104722,0.110339,0.440609,-0.416414,0.644449,0.586308,-0.032262,-0.059265,0.271383,0.418697,0.248831,-0.100769,0.659486,0.524267,0.346558,0.028005,-0.073626,-0.151107,-0.091893,0.273952,0.510137,0.408674,-0.002342,0.080974,0.482078,0.198728,0.004797,0.161303,0.079024,0.104996,0.123417,0.284908,-0.130501,0.449861,-0.069035,0.033946,0.407993,-0.040492,0.582186,0.022101,0.489016,-0.014445,0.388032,0.520812,-0.1031,0.030083,0.098648,0.326661,0.593164,0.616722,0.297373,-0.093712,-0.027846,0.441258,0.057913,0.377835],[-0.046442,0.098731,0.061313,0.157288,-0.294798,0.086387,-0.216759,0.164415,0.090586,-0.082091,0.036597,-0.003332,0.10256,0.011292,0.206559,0.024246,0.00657,0.164086,-0.262828,0.07981,0.026261,0.132765,-0.09355,-0.02231,-0.168547,-0.095903,-0.315146,-0.659033,-0.01773,-0.054946,0.011809,0.019162,-0.110421,-0.015665,0.070008,0.137481,0.08471,0.014301,-0.148854,0.132518,-0.028599,0.114109,0.05396,-0.065828,-0.049364,-0.034493,0.086191,0.072967,-0.032751,-0.068035,-0.060898,0.144102,-0.063709,-0.118407,0.051794,-0.256893,-0.020268,0.100828,0.034798,0.112274,0.067441,0.126442,-0.495045,-0.015921],[0.09219,0.089427,0.064456,0.255601,0.05077,-0.009772,0.113075,0.03499,-0.090524,-0.132203,0.022079,-0.027023,0.133772,0.175102,0.081076,-0.070353,-0.06938,0.171333,0.01118,-0.041073,0.006806,-0.009633,0.081858,-0.049026,0.003296,-0.048465,0.203793,0.185811,0.080539,-0.059671,0.078178,0.026917,-0.08485,-0.000177,0.220606,0.088055,0.142454,0.056197,0.111826,0.182785,-0.073314,-0.109649,-0.008075,-0.000702,-0.072841,0.053736,0.066387,0.100945,0.064762,0.007698,0.148411,-0.037626,0.001298,0.051941,0.03265,0.028353,-0.097373,0.068139,0.241823,0.07984,0.041677,0.035913,0.097709,0.120879],[0.235229,-0.030173,0.046784,-0.117368,0.141118,0.035582,0.031428,0.066609,0.030686,-0.089906,0.104557,0.145213,0.108404,0.035904,-0.210755,-0.129498,0.088282,-0.089877,-0.022065,-0.00221,0.113963,0.179346,0.00787,0.064319,0.053584,0.168324,0.173888,0.185443,0.130558,0.003125,-0.116469,0.082019,-0.037883,0.161781,-0.082993,0.18076,-0.28367,-0.126158,0.175877,0.001575,-0.23903,0.067414,-0.053113,0.099631,0.156071,0.088767,0.09127,-0.04846,0.091924,-0.125319,0.07814,0.107915,-0.002421,-0.126531,0.003148,-0.047461,0.08301,-0.060407,-0.186962,-0.034014,-0.124667,0.150105,0.143752,0.026015],[-0.036755,-0.17216,0.064209,0.086354,-0.155609,0.070777,-0.353483,-0.04363,-0.113239,-0.046457,0.149746,0.155431,0.121403,0.096171,-0.055412,-0.050522,0.099922,0.24196,-0.147455,-0.041205,0.076863,0.10378,0.194848,-0.065068,-0.103806,-0.059365,-0.275067,-0.449457,0.151172,0.099606,-0.032509,-0.060037,0.066202,0.051942,0.026542,-0.039237,0.011091,-0.011125,-0.042942,-0.143505,0.017848,0.088044,0.099055,0.050911,0.05764,0.142317,0.105452,-0.018758,0.091248,-0.031208,-0.052549,-0.043061,-0.034907,-0.092606,0.089389,-0.205874,0.08425,0.083006,0.05229,-0.135056,0.049916,0.049117,-0.54737,0.125876],[0.290844,0.124518,0.05386,-0.136187,0.13389,-0.021299,-0.075191,-0.203331,0.058369,0.017728,0.203159,-0.146085,0.299208,0.428044,-0.167136,-0.062395,0.191531,-0.5335,-0.067437,-0.002825,0.391933,0.340188,0.231218,-0.034049,-0.069164,0.04564,-0.278551,-0.275535,0.387674,0.230724,0.051855,-0.105053,0.498229,0.238821,-0.226943,0.117461,-0.153847,-0.093273,-0.047766,-0.010737,0.117358,0.365501,-0.059468,-0.114178,0.354452,-0.047537,0.288143,0.103764,0.308789,-0.119195,0.200529,0.422585,-0.012845,0.087638,0.071175,-0.334983,0.473842,0.370134,0.030551,-0.27216,0.100542,0.285924,0.188563,0.455499],[0.132356,-0.215265,0.209204,0.161244,-0.062659,-0.033953,-0.048225,0.033763,-0.099591,0.004799,0.007543,0.067264,0.116853,0.141674,-0.081346,-0.117345,0.103328,-0.086909,0.017959,0.036284,0.170027,0.02735,0.075796,0.021864,0.143992,-0.025958,-0.068908,0.181977,0.125939,0.189814,-0.080332,0.094908,0.135914,0.190703,0.096606,0.040156,-0.070292,-0.061479,0.047017,0.075774,-0.183778,0.065861,0.036287,0.036425,0.206867,-0.120068,0.005649,-0.070279,0.170207,-0.105513,0.054713,-0.008324,-0.113497,-0.106211,0.091622,0.08471,-0.007947,0.098407,-0.093838,-0.084099,0.073127,0.078828,-0.138657,0.106562],[0.088935,-0.039522,0.007937,0.147202,-0.070911,-0.092244,-0.020651,0.001301,-0.118433,-0.12754,0.157651,-0.082101,0.089302,0.041454,0.050491,-0.034725,0.153704,-0.019171,-0.064499,-0.121431,0.202517,0.106594,0.085984,0.078003,0.039141,0.000491,-0.065677,0.087421,0.14016,0.156979,0.08721,0.093069,-0.088719,0.062022,0.041608,-0.03692,0.010565,-0.133828,0.013326,-0.05454,0.114767,0.076013,-0.031978,0.153824,0.167096,0.053159,-0.018222,0.010619,0.123698,0.030871,0.157535,0.13985,0.015481,0.072334,-0.026603,0.056246,0.009749,0.160838,0.002618,0.06635,0.058599,0.136726,0.139833,-0.002199],[0.14626,0.042177,0.164886,0.11342,0.193933,-0.083163,0.038085,-0.039564,0.064746,-0.070302,0.076771,-0.036236,0.108461,0.187228,0.078324,-0.018722,0.181876,0.137943,0.200671,0.096858,0.223296,0.121621,0.026614,0.047249,-0.379869,0.04981,-0.057841,0.045159,0.021858,0.162897,0.056079,-0.100454,0.206204,0.042385,0.032165,0.114402,-0.118917,-0.069806,-0.045412,0.208542,0.117573,0.223748,0.038603,0.110729,0.218377,0.022501,0.198027,0.042314,0.084632,0.022556,0.076451,0.071856,-0.12189,-0.039983,-0.045951,0.185023,0.031609,0.1888,-0.001496,-0.021203,-0.076713,0.193832,-0.049852,0.156515],[0.22277,0.018305,0.145016,0.196342,-0.37157,-0.05584,-0.278205,-0.020644,0.113246,0.022604,0.16561,-0.126238,0.131677,0.234146,0.155814,-0.132186,0.233635,0.281237,-0.176187,-0.079534,-0.020618,0.076315,0.139573,0.107998,-0.330614,0.061525,-0.050304,-0.237232,0.036814,0.226121,-0.119161,0.05144,0.0718,0.00539,0.029691,-0.089994,0.263465,0.059577,-0.307212,-0.142175,-0.13764,0.048276,-0.124815,-0.111419,0.060327,-0.020138,0.178912,-0.023094,0.022486,0.090169,0.018219,0.130054,0.01109,-0.051858,-0.109266,-0.266001,0.038729,0.010777,0.385953,-0.210931,-0.041225,0.131748,-0.562996,0.027326],[0.12987,-0.341511,0.180315,-0.28413,0.098221,0.088008,0.017933,-0.071553,-0.062771,0.039345,0.243598,-0.239285,0.119588,0.211912,-0.244027,0.025718,0.145584,0.109347,0.049521,-0.079019,0.133485,0.319962,0.210363,-0.038806,-0.08912,-0.438868,-0.308583,-0.302751,0.023902,0.23852,0.003509,-0.090996,0.06606,0.02365,-0.308616,0.006032,-0.482541,-0.073134,-0.115095,0.007009,-0.076915,0.156061,-0.101,0.165415,0.332316,0.179819,0.090462,-0.020083,0.294602,-0.054658,0.064054,0.191279,0.010044,-0.1457,-0.079555,-0.052187,0.241162,0.164054,0.147494,-0.134705,-0.007012,0.149011,-0.117925,0.296215],[0.339105,0.019288,0.069252,-0.077829,0.057342,0.052706,-0.090495,-0.148247,0.090873,0.090761,0.345466,0.001472,0.299752,0.242465,-0.074907,-0.092538,0.13608,-0.076397,-0.121474,-0.050739,0.094441,0.057968,0.22326,0.039346,0.084314,0.226122,0.196547,0.247877,0.341869,0.276298,0.132668,-0.100558,0.21745,0.335967,-0.024652,-0.04239,-0.134682,-0.104069,-0.035455,-0.048317,-0.060539,0.132697,0.071892,-0.126804,0.239736,-0.058941,0.261595,-0.056384,0.152127,0.105583,0.305683,0.138239,-0.107577,0.082257,-0.13041,0.017003,0.302547,0.18249,-0.102009,-0.184316,-0.05361,0.153898,0.138575,0.290348],[0.09006,0.020951,0.106443,-0.119377,0.057114,0.109206,0.0785,-0.023633,-0.088419,-0.016578,0.096661,-0.053056,0.100556,-0.043119,-0.118155,0.102734,-0.052922,0.021828,0.007485,0.002663,0.106879,0.117678,0.110401,0.045272,0.084018,0.031799,0.02592,-0.011208,0.090122,0.05301,-0.096104,-0.046156,-0.017692,0.105397,-0.006923,-0.067317,0.008131,0.086653,0.035572,-0.079548,-0.079672,0.03941,-0.077049,-0.069775,-0.029469,-0.101362,0.088056,0.114493,-0.018161,0.004871,-0.044173,-0.017172,0.008346,-0.060293,0.00126,-0.088713,0.121751,-0.076233,-0.038025,0.019065,0.038184,0.026493,0.07085,-0.038697],[0.108894,0.013815,-0.050574,0.14628,0.321708,0.037155,0.120581,0.284854,-0.072565,0.10151,0.003048,0.211585,0.081591,-0.085062,-0.109781,-0.066331,-0.00151,-0.098949,0.016977,0.058705,0.073439,0.066719,-0.044753,0.083152,-0.399914,-0.124565,-0.116413,0.057085,-0.047837,-0.152347,0.218795,0.013245,-0.053717,-0.195796,-0.179457,0.139277,-0.140944,0.063874,0.319822,0.357698,-0.104472,-0.11561,-0.027913,0.271839,-0.072449,0.121144,-0.008524,-0.089424,0.127504,-0.044114,-0.092753,0.030575,-0.066211,-0.16486,-0.042247,0.227134,0.037595,0.088142,-0.066873,0.094328,0.017774,-0.132249,0.385164,-0.127481],[0.047186,-0.04552,0.101445,0.062434,-0.026338,-0.047016,0.149666,0.10773,-0.100579,0.0578,0.195157,0.114761,0.133142,-0.020918,-0.143106,0.009884,-0.070752,0.125964,-0.257921,-0.118059,0.106387,0.02977,0.242695,0.018935,-0.126735,0.219644,0.009083,-0.069264,0.245854,-0.040097,0.014432,-0.083271,-0.055677,0.173442,0.018343,0.022711,-0.205055,0.020947,0.174124,0.108404,-0.354158,-0.060223,0.055995,0.126488,0.158901,0.016883,0.006722,-0.096723,0.161183,0.033573,0.162299,0.084452,-0.112708,-0.104046,-0.036928,-0.015347,0.201199,0.130963,-0.052877,0.090375,-0.065783,0.096957,-0.089505,0.072653],[-0.128075,0.093596,-0.028485,0.309149,-0.300208,0.09093,-0.048166,-0.037093,-0.064375,-0.044876,0.072167,-0.233026,-0.046543,-0.045463,0.129225,-0.122094,0.035044,-0.096557,-0.166438,0.056219,-0.161963,-0.009212,0.054339,-0.119075,0.254164,-0.163361,-0.35035,-0.100356,0.092694,-0.001515,-0.068824,-0.107313,-0.069575,-0.068192,-0.024578,-0.060716,0.100112,-0.040408,-0.112123,0.013228,-0.022916,-0.004238,-0.112882,-0.229381,-0.005946,-0.204183,-0.097537,-0.103543,-0.09588,-0.043652,-0.024248,-0.132252,0.077694,0.017701,-0.096866,-0.2559,-0.018362,-0.072341,-0.085644,-0.007077,0.044888,-0.062008,-0.119844,0.140763],[0.010631,-0.214271,0.020824,-0.152165,-0.109907,-0.109235,-0.40108,-0.252112,0.104713,0.001279,0.004169,-0.112944,-0.048603,0.175337,-0.117555,-0.07099,0.013176,0.020822,0.108806,-0.017144,0.064925,0.01943,0.109989,-0.081863,-0.051667,-0.144587,-0.021275,-0.157892,-0.027419,0.178372,-0.197191,-0.029186,-0.132715,0.219941,0.073311,-0.099632,0.019473,0.049914,-0.264962,-0.219442,-0.082943,0.147053,-0.080277,-0.210359,0.205399,-0.160913,0.11039,-0.046335,0.159571,0.049065,0.173993,-0.013779,-0.058339,-0.021719,-0.112483,-0.056006,0.188593,-0.009084,-0.044152,0.05069,0.074994,0.075956,-0.149631,0.167683],[-0.51701,0.003638,-0.171903,0.699734,0.066744,0.025084,0.105837,0.355458,0.036864,-0.004741,-0.503296,0.050167,-0.353148,-0.482095,0.399325,-0.082639,-0.294058,0.033968,0.184176,0.049146,-0.506003,-0.509657,-0.328186,-0.013203,0.136113,0.039659,-0.056147,0.036523,-0.451181,-0.407308,-0.125594,-0.073236,-0.273551,-0.181019,0.624378,0.171784,0.681103,0.013798,0.060806,-0.324143,-0.182428,-0.380373,0.050419,-0.284095,-0.525325,-0.21293,-0.367265,-0.042417,-0.473656,0.082093,-0.321045,-0.288155,0.044606,-0.123591,-0.064773,0.076084,-0.455602,-0.445333,0.260976,0.248266,0.025792,-0.501797,-0.316665,-0.328171],[0.17516,0.127274,0.149149,0.004983,-0.020607,-0.060304,0.058643,0.14854,-0.120726,-0.002762,0.1427,-0.115111,0.023877,0.097108,0.034471,0.040925,-0.06243,0.147458,-0.052976,0.045827,-0.006643,0.091807,0.158838,-0.140889,-0.32137,-0.000294,-0.183216,-0.134125,0.051536,0.17596,0.159923,0.069682,-0.032328,-0.04278,0.066791,-0.050501,-0.023669,-0.00527,0.130564,0.175416,0.243389,0.060774,0.090145,-0.106332,-0.067297,-0.074765,0.159748,-0.013696,0.082873,-0.000241,0.059494,0.03644,-0.115802,0.06088,-0.018204,0.043169,0.006689,0.168419,0.125792,-0.091392,-0.079858,0.058025,-0.221236,0.210241],[0.187873,0.084605,0.096198,0.063852,-0.174113,-0.064266,-0.186655,-0.215282,0.100881,-0.067583,0.146751,0.038277,0.215344,0.120343,0.027928,0.058479,0.151012,0.196483,0.170032,0.119378,0.217959,0.324334,0.160749,0.012197,0.082595,-0.043635,0.045144,-0.06318,0.196676,0.179941,0.040094,-0.070714,0.098324,-0.13424,-0.09454,-0.206545,0.127912,-0.051314,-0.172555,-0.209517,0.007888,0.123648,-0.102386,0.255566,0.15385,0.1333,0.033895,-0.016238,0.067112,0.017975,0.069893,0.278218,-0.13786,0.085668,0.084274,0.077234,0.115268,0.215247,0.224088,0.007396,-0.030223,0.210878,-0.167672,0.170889],[0.204327,0.047775,0.143961,-0.040497,-0.00497,-0.023322,0.207935,0.124802,-0.061906,0.056092,0.151916,0.190727,0.020958,0.129984,0.094469,-0.100168,-0.020541,0.270817,0.043231,-0.008573,0.101551,-0.015786,0.130777,-0.131584,-0.298368,0.086346,-0.415099,-0.547257,0.2358,0.097897,0.139563,0.040139,-0.073963,0.16073,0.099096,0.233856,0.203559,0.066197,0.263628,0.122891,-0.239322,-0.139049,-0.102732,0.021304,0.015269,-0.089503,0.103809,0.114879,0.048898,0.042707,0.024534,0.070565,0.055944,-0.008264,-0.085667,-0.136299,-0.028397,0.151662,-0.10304,-0.125167,-0.121466,0.13732,-0.206597,0.13839],[0.143585,-0.12571,0.069017,0.06522,0.089437,-0.014726,-0.047803,-0.053817,-0.115335,0.063335,0.177022,-0.197167,0.251831,0.347739,-0.099885,-0.029644,0.035334,0.075644,-0.024173,0.065935,0.295027,0.328428,0.122282,-0.032372,0.16896,0.09434,-0.031745,0.171511,0.217725,0.269623,0.059016,0.093491,0.390338,0.221586,0.004313,-0.314007,0.144481,-0.002589,-0.039004,-0.174842,-0.072636,0.206149,-0.013774,-0.109418,0.182893,-0.034478,0.32474,0.043887,0.264252,0.086014,0.253441,0.218329,-0.045107,-0.031133,0.123004,-0.030337,0.212007,0.130046,0.164408,-0.065006,-0.021451,0.349257,-0.049244,0.351618],[0.222577,0.095508,0.465698,-0.400623,0.316163,-0.090554,0.05763,0.247934,0.077096,-0.091795,0.091129,0.089207,0.101158,0.164912,-0.386381,0.079677,-0.1157,-0.019605,-0.135458,-0.003159,0.20551,0.145041,0.119231,0.084297,0.110413,0.214173,-0.146933,0.169486,0.06891,0.122505,-0.256024,0.051108,0.068982,0.162646,0.1509,0.277966,-0.253144,-0.11427,0.176427,-0.049707,-0.173044,0.081483,-0.120349,-0.06579,0.0809,-0.26591,0.204211,-0.006829,0.143661,0.062974,0.124089,0.107783,0.112036,-0.069328,-0.107181,0.014543,0.117398,0.096957,0.259496,0.01535,0.083319,0.156047,0.031615,0.339462]],"biases":[0.221997,0.077634,0.030044,-0.134068,0.08976,0.02522,0.147403,0.0266,-0.044052,-0.047001,0.186265,0.10056,0.236591,0.193274,0.0371,-0.137533,0.184508,0.150754,0.076722,-0.120216,0.09657,0.017165,0.181209,-0.058317,-0.084818,-0.037956,0.055524,-0.068132,0.08791,0.042571,0.0019,-0.095805,0.197299,0.137294,-0.174931,-0.006357,-0.003441,0.066378,-0.005273,0.018869,0.106898,0.153712,-0.073282,0.15368,0.179266,0.125019,0.20284,-0.025733,0.206033,-0.039793,-0.018899,0.164039,-0.092422,-0.103329,-0.115584,0.019629,0.195872,0.246225,0.018071,0.021893,-0.034263,0.044003,0.15559,0.03952]},{"weights":[[0.262693,0.172998,0.18767,0.202353],[-0.264701,0.03931,-0.289749,-0.262427],[0.240821,0.141823,0.226513,0.244828],[-0.596874,-0.478477,-0.3012,-0.300644],[0.362424,-0.238522,-0.228713,0.101008],[-0.037388,-0.050279,0.008249,0.031785],[0.198929,0.255519,-0.289418,-0.004057],[0.083793,-0.257943,-0.177456,-0.160771],[0.039339,-0.108671,-0.114451,0.091374],[-0.071775,0.114787,-0.033855,-0.088678],[0.139655,0.104955,0.167826,0.17882],[0.274168,-0.073781,-0.030556,0.059096],[0.191242,0.197179,0.18014,0.079974],[0.108584,0.255644,0.223899,0.103031],[-0.247389,-0.127861,-0.352699,-0.213027],[-0.043641,-0.145819,-0.097703,-0.016232],[0.058527,0.263416,0.073279,0.220184],[0.225558,0.2811,0.239655,0.200482],[-0.028869,0.212473,-0.217955,-0.273698],[-0.001832,-0.124927,0.088526,-0.001655],[0.169367,0.227698,0.125135,0.188858],[0.161419,0.190756,0.124875,0.244594],[0.190876,0.109996,0.18949,0.184649],[-0.105828,-0.114582,-0.103196,-0.05143],[-0.244136,-0.093051,0.051621,-0.260361],[0.401863,0.132337,0.14869,0.046437],[-0.019714,0.071485,0.321486,0.264103],[0.628673,-0.100601,0.111792,0.153128],[0.22816,0.115253,0.214176,0.102666],[0.079432,0.181408,0.223847,0.168837],[0.149667,0.213106,0.013955,-0.034668],[0.096005,-0.079919,-0.004816,-0.054643],[0.131296,0.334674,0.183519,0.112483],[0.230399,0.008297,0.237618,0.137203],[-0.138882,-0.488093,-0.219613,-0.467127],[0.23428,-0.188075,-0.04032,0.066856],[-0.447563,-0.519066,-0.536251,-0.408965],[0.06618,0.073504,0.02022,0.114571],[0.318504,0.031944,-0.011147,-0.025628],[0.024202,-0.239322,-0.38199,-0.175523],[-0.026511,0.421031,-0.034696,0.176354],[-0.001349,0.251276,0.199114,0.308426],[0.074429,0.034122,0.02801,0.100151],[0.133539,0.173072,-0.038007,0.231564],[0.126378,0.141954,0.182568,0.239218],[0.055673,0.207736,-0.025942,0.159162],[0.185323,0.141631,0.202442,0.112842],[0.071566,-0.086001,-0.027727,-0.075971],[0.178873,0.139129,0.135523,0.266304],[0.069173,0.100829,-0.104968,0.018392],[0.184134,0.152567,0.224033,0.070207],[0.233522,0.246567,0.163418,0.107879],[-0.039913,-0.035401,0.082215,0.034222],[0.084439,-0.07619,0.002251,-0.089042],[-0.015446,-0.031968,0.054211,-0.098697],[0.14612,-0.160364,-0.338373,0.162143],[0.192308,0.140964,0.154145,0.244964],[0.095301,0.255012,0.144508,0.117386],[-0.483999,-0.095675,0.041912,-0.101748],[-0.14607,-0.045294,-0.133162,0.013285],[0.05685,0.049383,-0.035706,-0.031123],[0.067392,0.109804,0.16351,0.228645],[0.315637,0.469144,0.533227,0.578172],[0.219434,0.20335,0.31018,0.227549]],"biases":[0.03532,0.089574,0.088288,0.021581]}]},"round":70,"phase":27,"phaseIteration":5,"trained":"pilot","generation":56,"dominanceMetric":"pilotWinRate","dominanceThreshold":0.6,"dominanceReached":false,"pilotWinRate":0.0,"enemyWinRate":1.0,"averageScore":850.0,"averageWave":1.0,"averageSteps":144.0,"enemyDropRate":0.0347,"invalidDropRate":0.0,"enemyFireRate":0.0764,"pilotFireRate":0.2917}
