{"id":12,"label":"Pilot v12","role":"pilot","model":"sb3-dqn-pilot-v12","actions":["left","right","fire","stay","up","down"],"features":["target_dx","abs_target_dx","threat_dx","threat_y","bullet_ready","alien_count","wave","drop_ready","enemy_shot_ready","fleet_y","lives","danger_shot_dx","danger_shot_y","danger_shot_lane","pilot_bullet_dx","pilot_bullet_y","bee_count","gunship_count","boss_count","ship_y","target_dy"],"network":{"activation":"relu","layers":[{"weights":[[-0.038187,-0.050674,-0.211421,-0.470856,-0.146592,0.601966,0.763153,-0.010529,-0.341271,-0.135908,0.292869,-0.146898,0.152389,-0.530925,0.205432,0.462143,-0.186562,-0.463705,-0.221184,0.440319,-0.092013,0.109835,-0.642713,-0.197306,0.032411,-0.341714,0.443305,-0.127814,-0.023851,-0.047747,-0.842918,-0.412649,-0.114867,-0.014083,-0.12504,-0.406127,0.154925,-0.220388,0.073566,-0.154126,-0.203698,0.557316,0.333967,0.475825,0.140494,0.29297,0.07497,0.640217,-0.198994,0.115723,0.766359,-0.288567,0.410117,-0.13026,0.01703,0.364712,0.020515,-0.181942,0.111321,-0.112978,-0.373377,-0.787506,-0.150996,0.008061],[-0.656485,0.184842,-0.391599,0.228507,0.041732,0.27859,0.365215,-0.263807,0.404702,0.359848,-0.437996,-0.226331,0.012585,-0.185083,-0.206044,0.179135,-0.063729,0.602557,0.713397,0.344233,0.521467,-0.002962,-0.143491,-0.605217,-0.090716,-0.296784,0.546619,-0.145866,0.264298,-0.320853,-0.481064,-0.277114,-0.309567,0.149339,-0.178998,0.80277,-0.365467,-0.463175,-0.620796,-0.078412,0.182163,0.514012,0.401876,-0.269164,0.531273,0.184721,-0.068858,-0.135085,-0.15799,0.501374,0.252506,-0.504773,0.131099,0.01125,0.575855,-0.334789,0.102702,0.031846,0.027607,0.910797,0.168387,-0.432493,-0.165358,0.163313],[-0.100303,0.163664,0.112594,-0.082798,-0.130387,0.191034,-0.055719,0.1094,0.281948,0.136331,-0.198741,-0.202341,-0.167422,0.142877,0.042698,0.103189,-0.008302,0.13756,-0.126293,0.12289,0.072183,-0.027242,-0.313694,0.048155,-0.091114,-0.140291,-0.083806,0.019145,0.040243,-0.086123,-0.339918,-0.38506,0.043069,0.094699,-0.064695,-0.120551,0.059435,-0.225534,-0.240784,0.059071,0.201507,-0.084875,0.128165,0.062414,0.236375,0.150903,0.14405,-0.013179,0.113309,-0.135364,0.021195,-0.116137,-0.01086,-0.108485,-0.02526,0.172779,-0.067688,-0.191083,-0.119947,0.10322,-0.099787,0.126231,-0.029008,-0.029519],[-0.165912,-0.007591,-0.183034,0.030833,-0.067349,0.085819,0.202864,-0.343383,-0.212866,0.0645,-0.071288,-0.17536,-0.154272,0.015351,0.118559,0.288155,0.214218,0.163296,0.100784,0.029884,0.138965,0.200284,0.135915,-0.202964,-0.012971,-0.020268,-0.038983,0.022025,-0.03772,0.165228,0.163992,0.055673,-0.156805,-0.066992,0.010441,-0.104926,-0.126907,0.123019,0.035373,0.186037,0.244959,-0.033472,0.304505,0.002318,0.290171,-0.100975,-0.076961,0.240802,-0.129262,0.061223,0.184817,0.210419,-0.140799,0.311701,-0.214103,0.132196,0.155378,-0.188689,0.185292,-0.069963,0.194091,0.122882,-0.160025,-0.062138],[-0.171929,-0.004174,0.147541,-0.011757,-0.007905,0.257939,0.14398,0.077597,0.211009,0.102495,0.202757,-0.200115,0.062956,0.008059,-0.0174,-0.097831,0.104934,-0.008964,0.136066,-0.224411,-0.165053,-0.105664,0.221344,0.174138,-0.161452,-0.29319,0.042235,0.093895,-0.128672,-0.115102,-0.179269,0.066114,0.061331,0.112287,-0.02336,-0.082769,-0.078478,0.150524,0.048269,-0.087724,-0.163775,0.081228,0.040363,0.213939,-0.130329,0.060884,0.166111,-0.102115,-0.190894,-0.092589,0.06899,0.112265,0.061353,0.186014,-0.095337,0.053431,-0.205053,0.051249,-0.180302,-0.265405,0.079195,-0.081633,-0.159054,-0.165878],[0.118102,-0.171047,0.357197,0.410529,-0.182319,-0.138386,-0.078138,-0.150664,0.047397,-0.024489,0.042668,-0.026978,0.10423,0.332643,0.29433,0.165005,0.035438,-0.16934,-0.090446,0.204072,0.010087,-0.187299,0.355727,0.323508,0.14751,-0.00769,0.087727,0.410681,-0.01638,0.285712,0.033444,-0.029541,0.432071,-0.062313,-0.185725,-0.174604,0.16252,-0.007443,0.225343,0.318402,0.491571,-0.038278,-0.12934,-0.159201,-0.050994,-0.207356,0.058355,0.194439,-0.052592,0.237879,0.081936,0.05895,0.197396,-0.187225,-0.088549,0.298119,-0.201824,-0.112654,-2.8e-05,-0.04384,-0.079427,0.040736,0.189615,-0.076044],[0.056961,-0.21554,-0.003695,0.129581,-0.157112,-0.036212,0.074833,-0.084994,-0.175518,0.292492,0.102944,0.30853,0.321397,0.117804,0.141169,0.034582,-0.103936,0.173353,-0.063439,0.209105,-0.097512,0.209977,0.278973,-0.003552,0.006059,0.079502,-0.014009,0.219733,0.210385,0.115848,-0.047574,0.206006,-0.074072,-0.024725,-0.112944,-0.202702,0.170262,0.143852,0.196494,0.070624,0.122138,-0.006522,0.039786,-0.036857,0.080519,-0.171496,0.015976,-0.028068,0.199092,0.102481,0.009269,0.296849,0.11172,-0.078771,0.216554,0.134882,-0.158079,-0.142943,0.024314,0.07504,-0.169657,0.09851,-0.031453,0.117753],[0.2728,-0.140211,0.256863,0.125074,-0.209774,-0.008715,0.093014,0.239866,-0.136448,-0.257829,0.096606,0.143157,-0.016515,0.204354,0.241106,0.16269,0.06999,-0.214662,0.206125,0.244906,-0.089144,-0.166943,0.124563,0.177984,-0.166613,0.171916,0.039689,0.304525,-0.163359,0.073809,0.265751,0.189764,0.276251,-0.214199,-0.127563,-0.169632,0.057431,0.133064,0.189722,-0.177281,0.131426,0.102942,0.024906,-0.166182,-0.234252,0.102423,0.204173,-0.169085,0.139799,-0.088569,0.145325,0.119437,-0.148508,-0.020443,-0.100206,0.161428,-0.047251,0.035049,-0.104606,-0.17911,-0.235639,0.141084,-0.123744,-0.00025],[0.188186,-0.186964,-0.059095,0.140022,0.163241,0.043594,-0.151693,-0.154449,-0.125572,0.070963,0.086149,0.199038,0.05553,0.186524,0.130118,-0.167949,-0.188058,-0.066962,-0.079501,-0.036299,0.200036,-0.105216,-0.053765,0.223581,-0.159173,0.012713,0.02778,0.278366,-0.011576,0.137255,0.150256,0.230943,0.154974,0.098941,-0.017519,0.036425,0.203644,0.138753,0.027701,0.033331,0.019101,0.158273,0.148415,0.148886,-0.128494,-0.155929,0.043072,-0.141517,-0.188114,0.046848,-0.022239,-0.084014,-0.110544,0.202229,0.106509,-0.137844,0.011556,-0.201711,-0.145412,-0.042457,-0.163735,-0.031784,0.101227,-0.004411],[-0.047634,-0.147633,0.003252,-0.117692,-0.156781,-0.094003,0.150218,-0.209177,0.211208,0.163142,-0.059169,0.071461,0.295872,0.179752,0.043096,-0.02577,-0.080899,0.139013,0.160547,-0.076922,0.160504,0.119031,0.277419,0.013137,0.132845,0.202557,-0.020899,0.081949,-0.001209,-0.048755,0.040344,-0.089664,0.193774,-0.182057,-0.055279,0.118087,0.286076,-0.128191,0.241847,0.285177,-0.042812,0.015157,-0.20681,-0.19742,0.117682,-0.14009,0.070182,0.077438,-0.00326,-0.183798,-0.173397,0.237948,0.132841,0.169491,0.050513,0.174368,0.064525,-0.217941,-0.128281,0.114234,-0.112423,0.098928,-0.181029,-0.04113],[0.044013,-0.183745,0.166906,-0.197468,0.045285,0.097222,-0.118886,0.181815,-0.020663,0.063108,0.156922,0.094959,-0.082108,0.026742,0.02687,-0.004214,-0.16816,-0.002579,0.023294,-0.068607,0.058989,-0.060642,-0.102691,-0.022582,-0.005376,-0.237821,0.152322,0.000821,-0.008531,0.180997,-0.157511,-0.020262,0.002088,-0.193709,-0.170886,0.034232,0.011082,0.069964,0.133086,-0.194456,-0.04279,-0.06252,-0.240667,0.166838,0.121042,0.220336,-0.018868,0.125549,-0.215539,-0.110405,0.06502,-0.07515,0.114433,-0.184629,-0.069411,0.267319,-0.173101,-0.062045,0.103303,0.05103,0.137723,-0.136503,-0.089821,0.0119],[0.090024,-0.043102,-0.124951,-0.246945,-0.068162,0.113873,-0.028818,0.07279,0.074389,0.156329,-0.021497,-0.09704,0.236516,-0.213377,-0.102056,-0.012115,0.151272,-0.065374,-0.057999,-0.19726,0.154768,0.077839,-0.201644,0.047247,-0.073793,-0.237547,0.128108,0.115194,0.182506,-0.092926,-0.340831,-0.348932,0.097447,-0.180346,-0.144162,0.180289,0.120204,-0.145646,0.173938,0.097242,0.259468,0.009299,0.135068,0.17464,0.136088,-0.134266,-0.091817,-0.116085,-0.143468,-0.326148,-0.024743,0.032755,0.220572,-0.011032,0.109396,0.039684,-0.316494,0.115238,0.008226,0.087939,-0.150536,-0.046271,-0.151125,-0.130707],[-0.169539,0.063355,-0.011891,0.258004,0.1494,0.287175,0.290388,0.256949,-0.126723,-0.048937,-0.053778,0.117943,0.261889,-0.002603,-0.097839,0.108281,-0.102139,-0.025182,-0.076935,0.212,-0.134297,-0.18678,-0.022882,0.128583,0.098535,-0.086091,0.256832,-0.237773,-0.153688,-0.007406,-0.121284,0.180555,-0.159442,0.053465,-0.038116,0.179113,-0.018387,-0.00518,-0.143448,-0.090395,0.026448,0.246087,0.361193,-0.131466,0.208441,0.102016,0.170825,0.190405,-0.212652,0.059145,0.171307,-0.006793,0.121102,0.220365,0.002314,0.084286,0.101297,-0.080513,0.020087,0.195274,0.18685,-0.249716,-0.028376,-0.058748],[-0.285478,0.210501,0.121142,0.275264,0.203175,0.413865,0.344291,-0.010128,0.000986,0.161245,-0.1568,-0.172584,-0.037458,-0.002179,-0.242959,0.313007,-0.20455,-0.077939,-0.126649,-0.202021,0.311636,0.097524,-0.121708,0.106817,-0.059733,-0.063845,0.368807,0.044497,0.030471,0.107518,-0.001686,-0.067566,-0.05595,0.172031,0.182016,-0.136157,-0.180432,-0.214732,-0.296973,-0.106723,-0.132596,-0.16763,0.035102,0.011808,0.478135,0.021553,-0.021521,0.220745,0.100687,-0.279486,0.432076,0.143865,-0.070773,0.166376,0.157692,-0.082591,-0.190396,0.213197,-0.132112,-0.238399,0.183697,0.039207,0.021511,0.178155],[0.025478,0.131855,-0.090651,0.328944,0.00864,-0.184784,0.163928,-0.216285,-0.153711,-0.283801,-0.160675,-0.256636,0.144985,-0.201142,-0.252186,-0.614261,0.032472,0.41265,-0.086562,0.343292,-0.08374,0.043453,0.000615,-0.038354,-0.025083,0.058334,-0.005874,0.068716,0.061037,-0.261369,0.308653,0.314641,0.021428,0.091445,-0.215134,0.447204,0.269708,-0.016653,-0.161263,-0.343402,0.188506,-0.457145,0.178601,-0.28113,0.011734,-0.304022,-0.046633,-0.615008,0.023734,0.419104,-0.493358,-0.053746,-0.048633,0.58754,0.071416,0.103294,0.194023,-0.186979,-0.156556,0.184201,0.128716,-0.094102,-0.187487,-0.183424],[-0.153983,-0.087237,-0.04786,-0.061702,0.190183,-1.036002,0.441407,0.02232,0.105046,-0.16606,-0.040811,-0.139108,0.03653,-0.055778,-0.139301,0.185885,-0.216195,-0.106855,-1.545093,0.419119,0.436315,-0.149662,-0.579287,0.033474,0.135972,0.356978,0.667668,0.008911,-0.12954,-0.221962,-0.606031,-0.29231,-0.306224,0.128754,-0.100889,-0.073235,0.100674,-0.319518,-0.19263,-0.09156,-0.378141,0.434242,0.276276,-0.013793,-0.374431,0.033441,-0.054456,-0.255769,0.096683,0.591746,0.05504,-0.116006,-0.336027,-0.554109,-0.689713,-0.046435,0.122575,-0.13607,0.032266,-0.877534,-0.200005,0.125821,-0.112402,0.203351],[0.169366,0.195204,0.302319,0.193171,-0.04542,-0.091126,-0.035599,-0.1461,0.21424,0.054171,0.331244,0.363155,0.11296,0.030815,0.16326,-0.045045,0.112473,0.032859,0.013857,0.261407,-0.211109,0.09766,-0.032039,-0.066527,-0.038701,0.073541,-0.034311,0.329701,0.21541,0.266785,0.084761,0.006407,0.234463,-0.098216,0.154072,0.088292,0.10493,0.075868,0.192742,-0.106002,0.212946,-0.170072,0.071441,-0.120753,-0.039197,-0.090575,0.433229,-0.14961,-0.122737,0.061266,0.115488,0.365601,0.075072,0.045893,-0.041229,0.088057,0.12909,-0.109723,-0.064292,-0.237186,0.154631,0.043392,-0.006489,-0.098823],[0.274324,0.118777,0.282357,0.518215,-0.207655,0.17774,0.177463,0.011285,-0.171595,0.265281,0.105626,0.116264,0.456256,0.34984,0.011468,-0.211755,0.076136,-0.14633,0.176101,0.126347,-0.231224,-0.037031,0.005435,0.163555,-0.20359,0.36883,0.182519,0.232012,0.416282,0.235814,0.371162,0.189568,0.198426,0.058843,-0.168914,-0.180666,0.292977,0.209548,0.269557,0.187086,0.569418,0.179477,0.305684,0.08046,0.161748,-0.15748,0.274085,-0.122559,-0.037701,-0.004126,0.009661,0.107942,0.382593,0.210715,0.112838,0.081306,-0.0371,-0.124627,0.091732,-0.156548,0.041976,0.245466,0.168331,-0.020677],[-0.010252,0.129567,-0.077515,0.01863,-0.11315,0.069128,0.043729,-0.408073,0.137457,0.431152,-0.186053,-0.139243,-0.139783,0.084289,-0.372172,0.02828,0.025093,0.155443,0.18516,0.301398,-0.273292,-0.193461,-0.333029,-0.203761,-0.166716,0.066098,0.341122,-0.209189,0.152195,0.068234,-0.183571,-0.164913,-0.004378,0.073787,0.033813,0.071169,-0.244867,-0.386579,-0.471818,0.13834,0.447062,0.201369,0.642068,-0.298571,0.771019,0.186416,-0.325173,0.112375,0.037181,0.186935,-0.021378,0.079309,0.205566,-0.072899,0.562493,-0.075402,0.170657,0.158513,0.17129,0.380061,0.019227,0.193565,-0.19832,0.114018],[0.200518,-0.153721,0.069346,0.049103,-0.181156,0.099787,0.066874,-0.023431,0.085711,-0.029404,0.259438,0.115107,0.040582,-0.082384,0.190734,-0.164998,-0.115904,-0.076181,0.043215,-0.16635,0.159468,-0.195205,0.0298,-0.144509,0.118134,0.132101,-0.130813,-0.064727,-0.210483,0.000953,0.273778,0.171228,0.238419,0.154036,-0.129397,0.286576,0.162679,-0.181741,0.02049,0.00976,-0.140648,0.157238,0.08352,-0.04258,-0.076696,-0.000325,0.1809,-0.163688,-0.217335,-0.044414,-0.131619,0.251049,-0.089906,-0.176107,0.209594,0.114002,-0.092703,0.065594,0.115685,0.234453,-0.216014,0.067188,0.134415,-0.175622],[-0.237776,0.053438,-0.219926,-0.256543,0.14247,0.094071,0.213383,0.21044,0.024877,0.017836,-0.150902,-0.297822,-0.255036,0.07764,0.080163,0.039001,-0.161546,-0.19474,0.021719,0.136077,0.167378,-0.194384,-0.332802,0.030816,-0.195742,-0.096279,0.15736,-0.169738,-0.0438,-0.134239,-0.285572,-0.304577,-0.194733,0.07101,-0.096,0.167947,-0.043068,-0.102917,-0.288971,-0.258991,-0.092999,0.237539,-0.023101,0.010375,-0.123222,0.125395,-0.000502,-0.041858,-0.13393,-0.01862,0.193432,-0.082496,-0.359035,-0.149102,0.181797,-0.167195,-0.199241,0.050897,0.140298,-0.140314,0.066047,-0.157947,0.191427,0.066969]],"biases":[0.039339,0.155316,0.170546,-0.126013,-0.169986,-0.100998,-0.065115,0.124284,0.156496,-0.1566,0.057082,0.170627,0.008517,0.136237,0.118496,0.009238,-0.207295,0.120592,-0.049447,-0.141543,-0.227705,-0.072395,0.075825,-0.090332,-0.216809,0.100988,-0.164031,-0.110757,0.138689,0.005389,-0.048165,-0.034354,0.310961,-0.193567,0.008466,0.031473,-0.114831,0.184115,-0.137559,-0.02395,0.187418,-0.113525,-0.117045,-0.066365,-0.09017,-0.017789,0.242273,0.176573,-0.052482,0.001181,-0.056076,0.119365,0.104211,0.181521,0.079021,-0.026404,-0.138757,0.007571,-0.126862,-0.029224,0.025585,0.090092,-0.130878,-0.130601]},{"weights":[[0.052295,0.169962,0.041136,-0.166184,-0.036219,-0.0225,0.041422,0.038264,-0.259724,-0.060448,0.152798,0.040768,-0.037874,0.054824,-0.010776,0.000859,0.254894,-0.033448,0.155827,0.014852,-0.106446,-0.091706,0.067256,-0.034495,0.235269,0.040961,-0.135794,0.231335,-0.079484,-0.078835,0.183806,0.249937,0.103324,0.130665,0.080576,0.204163,-0.216919,0.022215,0.002961,-0.212509,0.101751,0.00945,0.006005,-0.015812,0.26601,0.134515,0.009163,-0.050367,0.004312,0.089323,0.073649,0.124517,0.205488,0.157143,0.080887,0.267907,0.231196,0.188318,0.220421,-0.017563,0.056,-0.058293,-0.048392,-0.157719],[0.009894,0.030578,-0.017111,0.022714,-0.07921,-0.083272,0.122524,0.052892,-0.075983,0.040485,0.107381,-0.017846,-0.020464,0.106673,0.097397,-0.009663,-0.013225,-0.080178,-0.038695,0.037048,-0.003322,0.053724,0.060168,0.075297,-0.03804,-0.071597,-0.115739,0.070344,-0.085443,-0.017052,0.10872,-0.078536,0.023512,-0.00999,-0.056399,-0.097315,0.066215,-0.009209,0.112502,-0.073976,-0.060923,-0.032518,-0.096616,0.038792,0.040712,0.102678,0.033937,-0.108193,0.092135,-0.092611,0.006304,0.038561,0.007379,-0.067246,0.042068,-0.018039,-0.059198,-0.082353,-0.120755,0.014201,-0.028846,0.089239,0.114241,-0.12132],[0.099634,0.115213,0.054914,-0.079427,-0.076889,0.012433,0.009889,0.190762,-0.197441,0.038425,0.056362,-0.04037,0.07298,0.11107,0.048378,-0.039014,0.169571,0.08702,0.025443,-0.013936,-0.052494,0.104695,-0.034451,-0.100078,0.23801,0.097061,-0.079094,0.192324,-0.05556,0.008103,0.037368,0.181554,0.152486,0.108456,0.075008,0.096321,-0.119833,-0.03221,-0.054403,-0.064683,-0.098229,0.059988,0.05419,-0.118109,0.090853,0.066783,0.023423,-0.035158,0.162545,0.135273,0.048094,0.05987,0.010744,0.081707,0.018929,0.146714,0.214372,0.108831,0.009323,0.001616,0.029893,-0.043258,0.017792,-0.074999],[0.120836,0.095361,0.007071,0.101536,0.159464,-0.089478,-0.116176,0.156137,0.081327,0.144281,0.025169,-0.035837,-0.114534,-0.00614,0.126902,0.054669,0.003456,0.061888,0.076131,-0.087429,0.064604,-0.005896,-0.029047,0.270895,0.00257,-0.030484,-0.000391,-0.094379,-0.015113,0.072126,0.103464,0.122274,0.030277,0.206493,-0.203275,0.050436,0.116361,-0.061438,0.042081,0.110594,-0.067905,-0.000148,-0.121261,-0.025478,0.198299,0.011012,0.105474,-0.069169,-0.057078,-0.001948,0.09228,-0.001869,0.102273,0.049328,0.105354,0.074193,0.209021,0.114606,-0.064696,0.038678,0.037573,-0.080796,0.076532,0.013363],[0.018049,-0.11054,0.101338,0.036213,0.059699,-0.030904,-0.085508,-0.051452,0.111107,-0.0348,-0.112435,-0.006021,-0.108954,0.079888,0.108166,0.018766,-0.121606,0.123447,0.117913,-0.093794,0.019798,0.120822,0.101386,-0.070013,-0.056396,0.07122,0.06778,0.114636,0.045609,0.102199,-0.040588,-0.066444,-0.036709,0.057605,0.036523,0.065265,0.053016,0.090687,-0.076381,-0.092239,-0.113351,0.105216,-0.073476,0.093125,-0.0821,-0.019662,-0.003071,0.038907,0.032932,0.087573,-0.00225,-0.023942,-0.106005,-0.105146,-0.031366,0.044769,-0.08856,-0.067859,-0.049746,0.056917,-0.082498,-0.11435,0.057478,0.008439],[0.087095,-0.561264,0.006195,0.188653,0.149975,0.035914,0.145505,-0.148001,0.122884,0.166415,-0.097347,-0.06614,-0.113924,0.205475,-0.197948,0.195022,-0.216785,-0.05211,-0.117231,-0.041607,0.007593,-0.064817,-0.112702,0.229763,-0.198588,-0.079997,0.223651,-0.104798,-0.139071,0.161799,-0.188357,-0.066687,-0.362099,-0.249253,0.089021,-0.19449,0.354283,-0.006931,0.003887,0.142373,-0.094391,0.0179,-0.06951,0.007108,-0.138167,-0.194422,-0.093115,0.030027,0.061486,0.106883,-0.079773,-0.102752,-0.230456,-0.185063,-0.073769,-0.15646,-0.164291,-0.238633,-0.346064,-0.004121,-0.017295,0.086203,0.011335,-0.096614],[0.048257,-0.294223,-0.010346,-0.142134,0.292004,0.010936,0.050821,-0.154787,0.427061,0.263691,-0.118739,0.001058,-0.070133,-0.001649,-0.159654,0.213697,-0.056068,-0.243429,-0.269236,0.014672,-0.09319,-0.039428,0.036341,0.26589,0.102189,-0.005617,0.399779,-0.190288,-0.017325,0.106984,-0.406663,-0.282373,-0.211895,-0.414057,0.096133,-0.084746,0.183951,-0.02029,0.100385,0.127619,0.09324,0.065652,0.112269,0.068176,-0.210263,0.090208,0.040804,0.068137,-0.041754,-0.062087,0.050013,0.041732,-0.313913,-0.199025,-0.147676,-0.269856,-0.219051,-0.283688,-0.352459,-0.107154,-0.047589,-0.129091,-0.112219,0.082953],[0.075957,0.007356,-0.058347,-0.207327,-0.189186,-0.012502,0.12968,0.174628,-0.180495,-0.402863,0.098159,-0.111962,0.034558,0.055643,-0.079279,-0.268771,0.042757,0.210281,0.151482,0.101716,0.023746,-0.105977,-0.075256,-0.14569,0.139435,0.038345,-0.026322,-0.059972,-0.109425,-0.229396,-0.11627,-0.005256,-0.142804,-0.003006,0.10713,0.02026,-0.166236,-0.046137,0.068513,-0.076749,-0.105838,-0.076675,0.087778,0.116619,0.087132,-0.13803,0.055924,-0.036252,-0.066169,0.096187,0.111772,-0.102867,-0.045257,0.001555,0.013955,-0.147615,0.007405,0.092576,-0.036856,0.099742,-0.030578,0.078132,-0.010479,-0.087527],[-0.003767,0.011058,-0.119401,-0.074089,-0.134256,0.00603,0.090215,-0.038936,0.187049,-0.308976,-0.021954,-0.066563,-0.085809,-0.053772,-0.231495,-0.149936,-0.071749,0.217375,-0.0447,0.047974,0.136172,-0.048862,-0.055303,-0.011536,0.143876,-0.117139,0.163177,0.06967,-0.110198,0.051824,0.024537,-0.012397,-0.163805,-0.017776,0.093873,0.074268,0.055256,-0.037271,0.281207,0.178601,-0.026669,-0.102251,-0.027615,-0.01209,0.111121,0.268537,-0.010023,0.179815,0.066187,0.051925,-0.106404,-0.022081,-0.122621,-0.058132,-0.05796,0.107891,0.08882,-0.029498,-0.043088,-0.043151,-0.055916,-0.034778,0.172077,-0.057399],[0.099036,-0.024788,0.199853,-0.010837,-0.18915,0.066369,0.340121,-0.009597,0.29735,0.176574,-0.113541,-0.065052,0.05509,-0.070666,-0.018203,0.030129,-0.172756,0.1553,-0.182416,-0.025885,0.070844,-0.077415,-0.077463,-0.005458,0.05796,-0.124239,0.289849,0.006807,0.000498,0.041033,0.132849,-0.167926,0.178233,-0.099363,-0.021213,0.100177,-0.170602,0.034733,0.170033,-0.004948,-0.114982,-0.072559,0.005182,-0.064341,0.103584,0.231471,-0.030814,-0.043924,0.063337,-0.231547,-0.034305,-0.074575,-0.089759,-0.043817,-0.079256,0.053766,0.12683,0.07796,-0.18658,0.050966,0.027011,-0.090919,0.085031,-0.028253],[-0.120234,0.091361,-0.174311,-0.04353,0.02024,0.060435,0.063209,0.21845,-0.041947,-0.121997,0.046943,0.097418,-0.126793,0.131546,0.021542,-0.009298,0.268114,-0.097655,-0.000887,-0.115023,-0.054799,0.070133,0.087585,0.002814,0.116785,-0.136161,-0.128361,0.044167,0.011444,0.02009,0.160598,0.059583,0.162443,-0.067352,0.14781,0.207613,0.148538,0.047361,-0.124049,-0.181337,0.040827,0.032186,-0.075661,-0.11265,0.210898,0.134215,-0.097289,0.037218,0.218257,0.119346,-0.052425,0.040956,0.092274,0.1105,0.140173,0.194558,0.055624,0.127371,0.003511,-0.022812,-0.094107,-0.135502,0.038667,0.035135],[-0.105683,0.027697,-0.020114,0.057984,-0.091702,-0.13239,-0.024238,0.26622,-0.142631,-0.144825,-0.042379,-0.064184,-0.010208,0.017224,0.129439,-0.061559,0.069154,-0.100899,0.074432,-0.136512,-0.024381,-0.115779,-0.02024,0.002957,0.027225,-0.054518,-0.17909,0.067027,0.030166,-0.091129,0.184499,0.038334,0.14005,0.007845,-0.145722,0.130697,0.0362,-0.049476,-0.05784,-0.001901,0.053919,0.06668,-0.073508,-0.001273,0.051535,0.170363,-0.133147,-0.009922,0.161903,0.150216,-0.096101,-0.038833,0.191612,0.018238,-0.013015,0.187031,0.243025,0.224618,0.068337,0.034577,0.071206,-0.112997,-0.01817,0.04193],[-0.052615,0.124165,-0.009565,0.002657,0.08465,-0.131058,-0.06496,0.160564,0.250133,0.044589,0.150603,-0.021495,-0.086855,0.026986,0.023024,-0.126509,0.008387,-0.04712,-0.08256,-0.093202,-0.169808,-0.078426,-0.010364,0.052056,0.044418,0.054332,0.117307,0.17536,0.032285,0.025926,-0.091384,0.034767,0.162661,0.101534,-0.011175,0.135242,0.077712,0.034418,0.063716,-0.069339,-0.080149,0.006344,0.001684,-0.087893,0.238943,0.162334,0.015546,0.188089,-0.015253,0.183866,0.004929,-0.002142,-0.065964,-0.055466,0.032247,-0.041018,0.209002,-0.040615,0.157263,-0.033492,-0.105075,0.014791,0.048205,-0.134158],[-0.04776,0.172291,-0.033238,0.083079,0.135951,-0.038257,0.017729,0.154224,-0.060946,-0.130788,0.118366,-0.084233,-0.084786,-0.01182,-0.002796,0.088669,0.054613,0.202694,0.133567,0.014446,0.021817,-0.051854,-0.075137,0.086291,0.17399,-0.083117,-0.0197,0.189595,-0.093298,0.013099,0.114785,0.115043,0.132291,0.119742,0.116422,-0.025741,0.002206,-0.031527,0.035346,0.114703,-0.11373,-0.002553,0.106929,-0.101555,0.095932,0.085653,-0.113396,-0.009642,-0.004762,-0.019032,-0.072647,-0.04688,0.035095,-0.050754,0.064467,-0.018969,0.072793,0.029279,0.071409,-0.077961,-0.012783,0.090917,0.01728,-0.074962],[-0.069842,0.179288,0.00549,-0.005302,-0.070024,-0.005634,0.080413,0.22298,-0.234168,-0.074625,0.158837,-0.056361,0.009085,0.125655,-0.023729,0.035677,0.202532,-0.02552,-0.022783,0.052381,-0.004089,-0.136202,0.09951,-0.128357,0.133187,-0.096622,-0.022417,0.089569,0.114187,-0.128099,0.081812,0.006597,0.035106,-0.069911,0.093338,0.048629,-0.02348,0.073394,-0.096963,-0.124256,-0.026988,0.058503,0.012418,0.032729,0.14847,0.157837,-0.0777,-0.076052,-0.000357,0.218186,-0.030599,0.104753,0.155727,-0.067723,0.159889,0.141108,0.233793,0.220379,-0.022424,0.031251,0.030358,-0.133427,0.098652,0.113981],[-0.077533,-0.4088,0.109912,0.019988,0.203476,-0.035832,0.396278,-0.225131,0.381074,0.205906,-0.107556,-0.01921,-0.053987,0.034313,-0.254085,0.144173,-0.226628,-0.041418,-0.300488,-0.029964,-0.074333,0.095335,-0.05733,0.286244,-0.279596,0.111996,0.304054,-0.050264,0.050334,0.150533,-0.124301,-0.195339,-0.185223,-0.2675,0.300493,-0.055368,0.151629,-0.037614,0.118307,0.168588,-0.047416,-0.000779,0.063348,-0.094589,-0.216939,-0.231369,0.07999,-0.093673,-0.131881,-0.184562,-0.050293,0.051722,-0.334687,-0.44303,-0.272171,-0.061951,-0.27981,-0.252542,-0.355845,-0.040984,0.072668,0.002506,-0.137559,-0.108128],[0.009271,0.046375,0.035401,-0.056885,0.099535,0.11746,-0.063577,-0.096882,0.003327,0.012218,-0.098851,0.093185,-0.005855,0.095585,-0.016552,-0.069775,-0.024181,0.0138,0.095921,0.045672,0.108818,-0.031604,-0.071727,-0.023757,-0.052877,-0.102824,0.016434,0.004323,-0.085603,0.004363,0.029573,0.06933,-0.042927,-0.107493,-0.039027,-0.026926,0.119107,-0.098325,-0.026955,-0.050177,-0.041723,0.10009,0.035289,-0.033013,0.041588,-0.070262,0.058145,-0.066961,0.050866,-0.117195,-0.114098,-0.123905,0.048909,0.067112,0.054898,-0.033215,-0.079274,0.043456,0.009316,0.086272,-0.032108,0.098245,0.006236,-0.109078],[-0.118507,-0.358353,0.029008,0.038971,-0.011886,-0.12389,-0.130575,-0.124843,0.350123,-0.059379,-0.335515,-0.10538,-0.057617,-0.23802,-0.177887,0.22191,-0.260686,0.254231,-0.434768,0.039292,0.193197,0.08042,0.071849,-0.014201,-0.015564,-0.005057,0.424024,0.088908,-0.149198,-0.04718,-0.106999,-0.199237,-0.323305,-0.300035,0.189887,0.027526,0.147633,-0.1441,0.160302,0.201767,0.077411,-0.048949,-0.033343,0.106368,-0.067399,-0.039677,-0.116797,0.056549,0.015544,-0.355677,-0.118625,0.021863,-0.479889,-0.259955,-0.291811,-0.179091,-0.154058,-0.082548,-0.422998,0.049299,-0.079916,-0.010934,0.082951,-0.061141],[-0.036798,-0.611897,0.282135,0.647779,0.625393,-0.034942,-0.090276,-0.50998,0.132377,0.209354,-0.543542,0.010339,0.071563,-0.435811,-0.424431,0.354807,-0.552244,0.422106,-0.591924,-0.026577,0.319594,-0.061609,-0.036311,0.547398,-0.358665,0.103983,0.298919,-0.200929,-0.022152,0.500265,-0.183038,-0.50729,-0.633651,-0.559207,-0.349077,-0.450263,0.626323,0.256625,0.636632,0.623,-0.125736,0.043977,-0.043641,0.10066,-0.581669,-0.236786,-0.016005,0.275875,-0.477419,-0.568578,-0.095343,-0.111304,-0.607704,-0.633613,-0.450807,-0.646793,-0.390681,-0.571958,-0.704974,-0.109298,-0.045429,-0.127818,0.109783,0.082552],[0.113872,-0.170744,-0.049431,-0.04976,0.308708,-0.109352,-0.115266,-0.061096,0.363502,0.034743,0.063167,-0.042106,-0.047155,0.012413,-0.179154,0.259924,-0.052167,-0.044013,-0.148903,0.028916,-0.003601,0.075732,0.002376,0.326009,0.100166,0.040974,0.396557,0.036556,-0.062079,0.190475,-0.079494,-0.177369,-0.057764,-0.131644,0.013103,0.081355,0.149653,0.015931,0.131051,0.145349,0.076206,-0.050348,-0.050333,-0.009399,0.084745,0.159819,0.02094,0.335923,0.112532,-0.108647,-0.030538,-0.007382,0.017261,-0.014149,-0.124805,0.016543,-0.015642,-0.137577,-0.202547,0.114916,-0.112222,0.100127,0.042119,0.020554],[0.027617,-0.12042,-0.013381,0.03362,0.152454,0.064599,0.036157,-0.263811,0.210298,-0.070599,-0.164234,0.011973,0.086412,0.075823,-0.194645,0.193962,-0.155063,0.159341,-0.304494,-0.00638,0.145801,-0.110544,0.044273,0.224891,0.005141,0.097004,0.223842,-0.061401,0.089363,0.172558,-0.005711,-0.133554,-0.119945,-0.09551,0.081461,-0.063246,0.176479,-0.059234,-0.075533,0.038545,-0.124687,0.045606,-0.084485,-0.059076,0.011389,-0.004985,-0.103171,0.019052,-0.235684,-0.218672,0.012725,0.071713,-0.201161,-0.299818,-0.288949,0.061512,-0.175194,-0.098716,-0.304528,0.104963,-0.019582,0.091425,-0.047432,0.09957],[0.01439,0.044879,0.089869,-0.085444,-0.006473,-0.107769,-0.022598,0.016163,0.000818,0.124902,-0.058055,-0.085106,-0.023617,-0.00642,0.025895,0.090735,-0.086073,0.050833,-0.121961,0.113736,-0.081093,0.016982,0.073829,0.105042,-0.038645,0.085891,-0.019737,0.06853,-0.100288,-0.034932,0.106594,-0.104923,-0.101199,0.032591,-0.115262,0.086387,-0.011412,-0.083411,-0.042642,0.079825,-0.062175,-0.106441,0.080118,-0.114047,0.012471,-0.002116,0.013669,-0.033575,-0.09077,0.024307,0.049043,-0.042292,0.066474,-0.09451,-0.002067,-0.0605,-0.031621,-0.033127,-0.051514,0.113882,0.070619,-0.088626,-0.064742,0.065357],[-0.120287,0.207592,-0.045114,0.023268,-0.127008,-0.046574,-0.053346,0.161473,-0.217686,0.019152,0.133579,-0.020545,0.09088,0.000391,0.308401,-0.04344,0.167927,0.031279,0.032681,-0.021918,-0.025831,0.105012,-0.094821,-0.036493,0.207524,-0.088584,-0.057584,-0.007593,-0.114227,-0.069192,0.231938,0.268561,0.202448,0.302737,-0.140403,0.080273,-0.058581,-0.111547,-0.031194,0.148511,0.000313,-0.11248,0.011967,-0.12406,0.22122,-0.030954,-0.120868,0.044279,0.15488,0.227286,0.02247,0.001473,0.319452,0.103861,0.319712,0.127177,0.137449,0.154728,0.061175,-0.09708,-0.041874,0.115396,-0.007253,-0.10672],[-0.090837,0.064924,-0.033934,-0.022931,-0.008612,0.089874,0.066107,0.181803,-0.102596,0.008365,0.174973,-0.141359,-0.03239,0.009341,0.112138,0.142007,0.095968,0.237466,0.099646,-0.116554,-0.223742,0.103575,0.003914,-0.053426,0.17937,-0.080871,-0.014271,-0.048122,-0.007424,-0.061442,-0.069588,0.220788,0.080071,0.18366,0.170462,0.052817,-0.06174,-0.118177,0.19394,-0.076764,0.053174,-0.106017,-0.109672,-0.041847,0.127185,0.154366,0.063665,-0.112022,-0.020173,0.166333,0.116694,0.123452,0.109288,0.13411,0.055134,0.02158,0.038669,0.010418,0.156965,-0.030279,0.055423,-0.053418,-0.103565,-0.051139],[-0.029108,-0.022219,0.069277,-0.101221,-0.024056,-0.009321,-0.047999,0.01396,-0.045432,0.046776,0.049863,0.015894,0.028532,-0.052713,0.021629,-0.025031,0.039768,0.007187,0.072923,-0.041209,-0.124458,0.022553,0.02311,0.0267,0.101965,0.036184,0.042625,-0.021667,0.101948,-0.09466,-0.025812,-0.123619,-0.005431,-0.081622,-0.046673,-0.006655,-0.099444,0.106314,-0.119601,-0.098816,-0.025303,0.094291,-0.100531,-0.053823,-0.057378,-0.098495,0.119714,0.064699,0.090926,-0.04149,0.040137,-0.00403,-0.033144,0.105533,0.002265,0.081184,-0.021339,-0.103249,0.101411,0.041009,-0.02078,0.05424,0.094421,0.077933],[-0.086301,0.229068,0.075613,-0.101961,0.133199,-0.105657,-0.324585,0.170739,-0.085011,0.16046,0.164958,0.03307,-0.103403,-0.120732,0.026407,0.064206,0.06365,-0.02539,0.129207,0.034882,-0.131591,-0.081723,0.033093,0.055356,-0.051587,0.199562,-0.019254,0.14939,0.053593,0.057385,0.175964,-0.062116,0.179523,0.244983,-0.439745,0.158527,-0.026925,-0.144518,0.012419,-0.124432,0.052881,0.029428,0.063656,-0.009215,-0.032763,0.085133,-0.039236,-0.062931,0.049999,-0.051694,0.096703,0.050698,-0.042448,-0.051534,0.185542,0.039837,0.1409,0.130362,0.192855,0.065556,0.092952,-0.026539,-0.013281,0.063201],[0.01708,-0.347824,0.222407,-0.183652,0.09313,-0.052549,-0.474365,-0.252788,0.250843,0.17147,-0.18563,0.036087,-0.000319,-0.127052,-0.124452,0.078452,-0.151678,-0.464223,-0.278466,-0.031541,0.071773,0.017578,0.107723,0.12919,-0.152185,0.084385,0.362472,0.069216,-0.016309,0.307874,-0.095932,-0.272396,0.010838,-0.056361,-0.274529,-0.054905,0.165394,0.114385,0.203764,0.081701,-0.138172,-0.008375,-0.070841,-0.085228,-0.085126,-0.05354,-0.026977,0.064592,-0.185126,-0.145712,0.069111,-0.030992,-0.149093,-0.18892,-0.077807,-0.052179,-0.061082,-0.032839,-0.258738,-0.110642,-0.066071,-0.13844,0.087479,-0.058454],[0.02483,0.195078,0.023542,-0.118542,0.025985,-0.071652,-0.111045,0.072326,-0.000416,-0.091845,0.101257,-0.004001,0.04785,-0.038335,-0.060428,0.000459,0.169672,0.041551,0.123213,0.027108,-0.084294,-0.030695,-0.005325,0.009972,0.187255,0.058553,-0.068031,0.177988,-0.041408,0.038716,-0.033388,0.171914,0.185465,0.094265,-0.112838,0.154362,-0.070077,-0.106843,-0.049585,-0.067485,0.079362,-0.009609,-0.127824,0.031296,0.239216,0.276518,-0.007909,0.141637,0.177158,-0.036374,-0.063138,0.011616,0.167651,0.163603,0.049198,0.024435,0.269606,0.175096,-0.014225,0.019164,-0.031895,0.023823,0.114692,-0.087347],[0.055501,0.049587,-0.013853,0.054725,-0.054375,0.055494,-0.076519,0.084382,0.178941,-0.111444,-0.070843,0.052901,0.067455,-0.134722,-0.033406,-0.245548,0.064797,-0.10438,-0.156154,0.112419,0.152134,-0.108135,0.087361,0.146932,0.163096,0.010695,0.082882,0.221583,-0.04723,-0.120476,0.026373,-0.023651,0.004005,-0.140429,-0.091877,0.190632,-0.058581,-0.102578,-0.161468,-0.145842,-0.026427,0.087868,-0.085163,-0.119888,0.092901,0.216939,-0.085242,0.191367,-0.083544,-0.139677,-0.073393,-0.02968,0.058797,0.141374,0.049468,0.268665,0.140256,0.037271,-0.011621,-0.120132,-0.108898,-0.152117,0.166727,-0.040104],[-0.05768,0.190152,0.201556,-0.094522,0.069191,-0.030881,0.237106,0.013911,-0.086882,0.025327,0.138937,-0.139279,0.053721,-0.05236,0.021366,0.099592,0.222164,-0.108684,0.054836,0.090791,-0.145788,-0.012733,-0.069201,-0.04366,0.097397,0.113973,-0.0454,0.061551,0.068223,0.064099,0.077031,0.070723,0.259429,0.076018,-0.05458,0.192684,-0.058049,-0.12378,0.065023,0.031401,0.09994,0.049015,-0.061286,-0.118745,0.242072,0.022542,-0.100238,-0.034977,0.044142,0.028112,-0.035229,0.006955,0.222032,0.149986,0.072747,0.089184,0.24253,0.124527,0.070947,-0.002571,-0.100719,-0.009737,0.131415,-0.004989],[-0.097982,0.322445,0.015258,0.10064,0.047819,0.067226,-0.493016,0.319947,-0.210578,0.166841,0.045588,0.086291,0.008286,0.061043,0.182835,0.133816,0.214254,-0.033514,-0.000894,0.099584,-0.142035,-0.078513,-0.021496,0.077587,0.144478,0.122089,-0.136592,0.104127,-0.034,0.046676,0.111082,0.262439,0.182739,0.313354,-0.60891,0.06992,-0.025996,-0.138802,0.012453,-0.019146,0.029947,-0.044009,0.020831,0.112366,0.152918,0.183116,0.057962,-0.189654,0.106494,0.143626,-0.028681,0.042031,0.209505,0.229933,0.238062,0.211023,0.086102,0.176633,0.238355,0.037246,0.013402,0.025787,0.177789,-0.085348],[-0.041868,0.164687,-0.017025,0.064747,-0.061408,-0.040121,0.122988,0.121289,-0.148859,0.112453,0.192017,0.065436,-0.040745,0.158908,0.266587,0.115511,0.228869,-0.074928,0.142729,-0.132209,-0.143357,-0.114292,-0.129865,0.016133,0.084332,0.067295,-0.125917,-0.083241,0.095831,0.081072,0.017261,-0.009499,0.199965,0.122487,0.099553,0.206573,0.176463,0.040269,0.055415,0.077319,-0.118377,-0.051587,0.024873,0.061497,0.183408,-0.146756,0.096797,-0.11099,0.031613,0.133549,-0.082216,-0.094867,0.223641,-0.004545,0.113826,0.038487,0.133966,0.041766,0.173999,-0.003316,-0.062198,-0.090808,0.060867,-0.022558],[-0.058865,0.206029,0.042369,0.016532,-0.120058,0.096576,-0.067427,0.228878,-0.001475,-0.119077,0.140052,0.007621,0.101879,-0.046178,0.054081,-0.067821,0.156138,0.019306,-0.053674,-0.085739,-0.017553,-0.052872,0.076508,-0.056782,0.231968,-0.078891,-0.112229,0.066646,-0.013144,-0.045078,-0.022459,0.207778,0.12686,0.02227,-0.080555,0.208119,-0.056334,-0.009484,0.076813,0.08732,-0.101445,-0.098048,0.110925,0.049131,0.201846,0.275223,0.056543,0.05295,0.136335,0.144697,-0.116977,-0.078783,0.094684,0.001017,0.138755,0.078649,0.235311,0.210228,0.202018,-0.079949,-0.000921,0.012949,0.158278,-0.127855],[0.046784,0.002276,0.106824,0.101919,0.085263,-0.087242,-0.082056,-0.108508,-0.123395,-0.030393,-0.012597,0.003042,-0.046894,0.108322,0.056008,0.100288,0.109825,0.113052,-0.080076,0.108735,-0.017463,0.048738,0.017909,0.072538,0.099598,0.075967,0.019608,0.052055,-0.087199,-0.022321,0.12327,0.122692,-0.02702,-0.078321,-0.04947,0.103414,-0.031082,0.045158,0.017043,0.002335,-0.088437,-0.087089,0.083924,-0.053778,-0.117464,0.061826,-0.058639,0.030309,0.1074,-0.056083,-0.036616,-0.036948,-0.073795,0.112668,-0.01388,-0.054175,-0.101615,-0.037054,-0.122671,-0.052907,0.04851,-0.103187,-0.036474,0.05474],[0.036633,0.01241,-0.019279,-0.019444,-0.02347,0.079055,0.112274,0.079017,-0.074386,-0.092815,-0.007367,-0.059603,-0.117671,-0.000942,-0.01051,-0.031793,0.109262,-0.11714,-0.063444,-0.059023,-0.022748,0.059314,0.027216,0.119175,-0.114964,-0.037321,-0.007788,-0.037801,0.079718,-0.064338,-0.081402,-0.020944,0.075848,0.096198,0.076045,-0.051513,-0.077928,-0.123713,0.018493,0.050777,-0.049676,-0.061696,0.107978,-0.014205,0.112432,0.017509,-0.092336,-0.062579,-0.009593,0.007765,0.114208,-0.022281,0.076817,-0.110742,-0.072339,-0.077233,0.08624,0.023658,-0.02822,0.073215,-0.029268,0.077544,0.073166,-0.013292],[-0.097049,-0.362526,-0.249146,0.080966,0.043073,-0.015459,-0.098379,0.034081,0.222387,-0.15051,-0.193054,0.002379,-0.071492,0.088495,-0.267809,-0.068379,-0.360249,0.208846,-0.15396,-0.122698,0.27954,0.081717,0.131363,0.043295,-0.035407,0.066359,0.424272,-0.00108,-0.032295,-0.017982,-0.208183,-0.247442,-0.222477,-0.131123,0.072961,-0.165346,0.171516,0.025265,0.248527,0.177989,-0.1361,0.006813,-0.085857,-0.089859,-0.011887,-0.119653,-0.094094,0.057057,-0.047114,-0.102884,0.017263,0.124699,-0.4023,-0.048491,-0.210745,-0.195549,0.039891,-0.239141,-0.194985,-0.05899,-0.04354,-0.081197,-0.069108,0.082645],[0.02158,0.033081,-0.048323,-0.166076,-0.056217,-0.040261,-0.203067,0.143559,0.110032,-0.065279,0.094475,-0.071901,-0.017095,-0.066154,0.101457,-0.125888,0.150036,-0.002781,-0.047597,0.109232,-0.150778,0.08223,-0.112425,-0.128463,0.19857,-0.020833,0.119555,0.172377,-0.003217,-0.021272,-0.078504,0.084465,0.025849,-0.079175,0.128859,0.09457,0.08264,-0.140649,0.020014,-0.087968,0.044815,-0.01783,0.100857,0.086626,0.067294,0.279548,-0.081544,0.040972,0.120008,0.160737,-0.106405,-0.032621,0.103898,0.127342,0.102824,0.115733,0.062052,-0.035279,0.202496,0.089238,0.084306,-0.094496,0.152505,-0.080392],[-0.055269,0.127909,-0.066595,-0.063529,0.008902,-0.078157,0.020579,0.344819,-0.079827,0.007443,0.100121,0.103767,0.007792,0.232047,0.248247,0.053463,0.173011,0.087205,0.186698,-0.017901,-0.038021,0.076441,-0.040547,-0.124449,0.189994,0.050285,0.066231,0.103237,-0.007069,-0.063443,0.16786,0.147016,0.137484,0.144038,-0.073998,0.096172,-0.085267,0.010332,-0.074024,0.015775,0.089838,0.018606,-0.000939,-0.007306,0.183256,0.091899,0.002421,-0.267228,0.194017,0.217013,-0.090176,0.093006,0.251704,0.183111,0.349012,0.244452,0.21021,0.244954,0.264253,0.038477,-0.100522,-0.024243,-0.090483,0.068368],[0.093401,0.149501,0.082986,0.048386,-0.174651,0.02341,0.135963,0.106376,-0.180097,-0.05616,0.20571,0.038416,-0.048967,-0.092663,0.013332,-0.225778,0.205911,-0.058408,0.134653,0.008897,-0.04977,0.109721,-0.084248,-0.125037,0.205327,-0.055657,0.046335,0.060758,0.104822,-0.193096,0.233853,0.079493,0.114884,0.140265,-0.029684,0.142383,-0.185632,-0.005424,-0.171837,-0.077152,0.003349,-0.049472,0.10673,-0.109981,0.233094,0.145762,-0.134065,0.010616,0.189319,0.25437,-0.070083,-0.067994,0.151849,-0.010051,0.215002,0.078984,0.12831,0.217289,0.204071,0.039829,-0.126617,-0.066048,0.119752,-0.02508],[-0.042274,0.259962,-0.027277,0.023592,0.06576,0.089936,0.501839,0.233056,0.08948,-0.073159,0.113001,-0.04765,-0.009608,-0.099241,0.141225,0.073473,0.171448,-0.009976,0.110383,0.114377,-0.11667,-0.040419,-0.057074,-0.101824,0.027232,0.02929,0.203165,0.105424,0.054544,0.040026,0.316767,0.166389,0.120944,0.011453,-0.117711,0.292103,-0.018758,0.03083,0.102192,-0.038229,0.026231,-0.081977,0.061652,-0.050393,0.277743,0.121276,-0.011824,0.058272,0.023728,0.150927,0.026327,-0.122215,0.062787,0.059047,0.161064,0.00074,0.194308,0.313177,0.103883,-0.042133,-0.086157,-0.014318,0.400017,-0.019478],[-0.017624,0.022374,0.090106,0.15067,-0.031417,-0.086961,-0.068616,0.160705,0.217066,0.027271,-0.027267,-0.079515,0.024772,-0.122007,0.116722,-0.097982,0.194204,0.033761,0.080479,0.013136,0.077001,0.040535,-0.096337,0.018869,0.23557,-0.027436,0.081992,0.115234,0.088175,0.053562,0.148881,-0.03906,-0.045115,-0.013575,0.102713,0.213973,0.092063,0.082853,0.050421,0.170234,-0.08786,-0.109952,0.009096,-0.106089,0.249906,0.341553,0.005488,0.038078,-0.030332,0.014824,-0.021641,-0.049027,0.019185,0.058203,0.028233,0.243879,0.197198,-0.022801,0.191651,-0.093127,-0.019306,0.048154,0.252437,-0.04702],[-0.116391,-0.407524,-0.165371,0.080848,0.215644,0.081626,0.131393,-0.168583,0.534078,-0.124908,0.030968,-0.061587,-0.068309,0.095943,-0.234204,-0.029919,-0.125303,0.070338,-0.010772,0.033374,0.107636,0.033438,0.079949,0.114996,-0.107776,0.010656,0.334466,-0.102656,-0.022774,0.19537,-0.237425,-0.214854,-0.187723,-0.261518,-0.286986,-0.22628,0.299362,0.028949,-0.093497,0.099484,-0.061871,-0.09034,0.129469,-0.039321,0.004832,-0.165749,0.016562,0.061788,-0.10388,0.009994,-0.072872,0.091123,-0.117897,-0.272137,-0.08096,-0.214282,-0.135114,-0.250398,-0.253545,-0.024622,-0.014503,-0.005623,0.017721,-0.05453],[-0.052096,-0.042255,0.060228,-0.127531,0.074481,-0.098667,-0.217569,0.077913,0.320383,0.181161,-0.071131,-0.06529,-0.069162,0.034728,0.074533,0.083399,0.11952,-0.133001,-0.161915,0.100888,-0.086785,-0.110341,-0.043176,0.052544,0.141091,-0.173304,0.224845,0.131308,-0.104273,0.12486,-0.014188,-0.101691,-0.090706,-0.072357,-0.093807,0.044205,0.019492,0.004452,0.105161,0.174906,-0.007704,0.014432,-0.069631,-0.024397,0.116456,0.02124,-0.09777,0.102363,0.08041,-0.047242,0.071745,0.039168,0.03451,0.06419,-0.159403,-0.060577,-0.043448,0.110941,-0.198134,0.059057,0.025646,0.019381,0.083478,0.031852],[-0.064357,0.000265,0.029384,-0.026861,-0.092228,-0.102268,-0.020885,-0.032421,0.144498,0.010302,0.076974,-0.054573,-0.030058,0.012621,-0.003866,-0.216793,0.053547,-0.028935,0.074457,-0.015588,-0.222109,0.056334,0.07543,-0.224915,-0.020637,-0.02419,0.02079,-0.025131,-0.13684,-0.216498,-0.125502,0.159479,-0.178453,-0.199305,-0.014887,0.013729,-0.108218,-0.086357,0.109397,-0.146289,-0.072007,-0.036609,0.018332,0.115316,0.053172,-0.066473,0.077668,0.031753,0.104821,0.010611,0.106958,0.038172,-0.139227,-0.055157,0.054419,0.004702,0.077349,0.055152,-0.074261,-0.067527,0.005054,-0.016793,-0.020218,-0.078848],[-0.029739,-0.276778,0.321528,0.136887,0.115749,0.033586,-0.211419,-0.166264,0.449203,0.189366,-0.363515,0.119898,-0.085184,-0.379571,-0.18384,0.145186,-0.12503,-0.235553,-0.3418,-0.079715,0.15299,-0.010094,-0.127092,0.18736,-0.089709,-0.137116,0.385115,0.150475,0.085504,0.1202,-0.003295,-0.409547,0.025253,-0.237126,-0.261268,0.015702,0.085906,0.065757,0.255035,0.293004,-0.038865,-0.01901,-0.042092,0.023016,-0.044695,0.16262,-0.055666,0.23646,-0.159837,-0.351338,0.051383,-0.070365,-0.105412,-0.210736,-0.304169,0.162803,0.089852,-0.232713,-0.227855,0.040982,0.003556,0.089169,0.232638,0.07708],[0.074021,0.050672,0.116524,-0.384085,-0.317345,0.064485,-0.069063,0.179252,0.094633,-0.071511,0.042376,-0.098487,0.087577,0.007424,0.001506,-0.342173,0.077404,0.176246,0.071966,-0.024634,0.158262,0.017865,-0.044117,-0.226562,-0.131978,0.078684,0.133744,-0.191681,-0.062336,-0.091442,0.096718,0.006619,0.103188,-0.028669,-0.107215,0.120908,-0.074689,0.136527,0.048005,-0.19152,-0.041196,0.05593,-0.049299,-0.103163,-0.107719,-0.023848,-0.027874,-0.050525,-0.03718,0.031612,-0.091315,0.037754,0.028166,-0.104541,0.164429,0.196098,0.059554,0.192656,0.049699,0.020528,0.116876,0.015126,-0.139356,0.038676],[-0.034928,-0.009732,0.040671,-0.005536,0.051501,-0.07837,0.069375,0.212228,-0.069555,0.059623,0.101717,0.010404,-0.120355,0.10754,0.021617,-0.07275,0.129502,-0.069205,-0.088397,0.049941,0.038313,-0.127583,-0.108963,0.055228,0.204988,0.023271,-0.08409,0.044513,0.096776,0.032908,-0.058956,0.088941,0.01946,-0.027458,-0.044559,0.130296,0.124799,0.128716,-0.099528,-0.062935,-0.007796,-0.13462,-0.087982,-0.040751,0.00657,0.234065,0.080521,0.138522,-0.027364,0.137023,0.014611,-0.117401,0.043484,0.126535,-0.07759,-0.026825,0.158642,0.11138,0.121229,-0.098721,0.019237,-0.123363,0.163322,-0.054692],[-0.075815,-0.094763,0.260923,0.016009,0.10793,-0.033496,0.378043,-0.126527,0.452117,0.034548,-0.213855,-0.052052,0.006233,-0.074831,-0.083297,-0.047566,-0.184231,-0.027866,-0.160853,0.013001,0.031825,-0.073759,0.088895,0.122795,-0.044867,-0.117497,0.301844,0.104928,0.052819,0.02052,-0.102556,-0.296213,0.031604,-0.171398,0.176356,-0.114388,-0.033807,0.048921,0.201226,0.207734,0.0919,0.003369,0.105845,0.05955,-0.122639,-0.159409,0.117672,0.046627,-0.23046,-0.043785,-0.085402,0.049699,-0.039685,-0.054331,-0.060376,-0.109925,-0.143825,-0.001724,-0.092202,-0.032955,-0.043423,0.095997,-0.074043,0.063347],[0.05945,0.123247,-0.097274,0.093693,-0.051193,-0.120338,-0.069358,-0.00941,-0.037607,0.053787,0.121003,-0.013729,-0.068892,0.081744,-0.019871,-0.111656,0.10419,-0.103554,0.084663,0.115698,0.050277,0.108346,-0.018574,0.013487,0.012544,-0.017662,-0.06793,-0.077858,0.014742,0.045364,0.121339,0.047658,0.036038,0.124564,0.082957,-0.054569,0.11764,0.048186,0.022268,-0.063565,0.086477,-0.066521,0.02286,-0.048341,-0.005573,-0.013351,-0.08963,0.112293,0.090956,-0.061121,0.071787,-0.09569,-0.094078,0.006279,-0.008627,-0.064828,-0.106572,-0.103595,0.05633,-0.093243,0.024008,0.112476,-0.060251,-4e-05],[-0.057609,-0.27742,0.035366,0.175557,0.301959,0.106588,0.169896,-0.377285,0.09886,-0.003918,-0.33024,0.11553,0.103071,-0.01706,-0.356514,0.255843,-0.348854,0.179295,-0.319678,0.106613,0.102711,0.117392,0.097111,0.388433,-0.11531,0.170319,0.057572,-0.04199,0.029029,0.144436,-0.185293,-0.179636,-0.187232,-0.339881,0.005381,-0.230885,0.332426,-0.195552,-0.009426,0.189486,0.035044,-0.067556,-0.092865,0.076177,-0.272414,-0.32711,-0.117209,-0.022981,-0.113844,-0.083161,0.024151,-0.004812,-0.165226,-0.356429,-0.129934,-0.34489,-0.165434,-0.317801,-0.344804,0.022093,-0.007479,-0.039503,-0.018634,0.046073],[-0.042745,-0.422099,-0.014164,0.172852,0.212621,-0.114065,0.287667,-0.199945,0.362523,0.194216,-0.14512,-0.055441,0.095712,-0.04867,-0.250407,0.284122,-0.259991,-0.282952,-0.144543,-0.059352,-0.17014,-0.023523,0.062966,0.202653,0.006765,-0.02094,0.392934,-0.199872,0.083409,0.164648,-0.303998,-0.162994,-0.182391,-0.187015,0.081035,-0.253572,0.320637,0.174319,0.054941,0.129471,0.057189,-0.047116,-0.097852,0.063861,-0.208095,-0.063214,-0.069239,0.023422,-0.015259,-0.076259,0.044334,-0.097867,-0.255852,-0.314931,-0.265021,-0.048154,-0.03774,-0.239471,-0.189381,0.085972,-0.003157,0.0428,-0.06701,0.097957],[-0.109711,0.067654,-0.018976,0.022636,-0.10341,0.106918,0.027948,0.17295,-0.047655,-0.043746,0.163657,0.030518,-0.117748,0.026901,0.169467,0.064614,0.207933,0.110389,-0.083925,-0.056835,-0.044029,0.022698,0.113685,-0.000131,0.087224,0.016169,-0.153303,0.088482,-0.110415,0.108912,0.104401,0.19113,0.199559,-0.048462,-0.002035,-0.02327,0.005628,-0.10947,0.1377,0.100787,-0.069055,-0.003585,-0.115833,-0.070099,0.159633,0.070775,-0.088129,-0.027884,0.126876,-0.026906,-0.093187,-0.008549,0.125018,0.160058,0.043796,0.061972,0.133729,0.241563,0.132239,-0.024761,-0.037665,-0.097736,-0.052912,0.092056],[0.062001,-0.032009,-0.008538,0.142331,-0.069023,-0.088091,-0.028892,0.07821,0.265111,0.125787,-0.079885,-0.079493,-0.115298,0.089561,-0.088531,-0.046648,0.076387,-0.234833,-0.000251,-0.019028,-0.161259,-0.046034,-0.030442,0.087166,0.07239,0.000905,0.085905,0.212671,-0.050292,-0.046867,0.054804,0.063923,0.040226,0.018369,0.080571,0.06542,-0.101272,0.163293,0.012478,-0.070052,-0.048186,-0.120042,0.027636,0.040833,0.156244,0.167134,-0.100574,0.253325,0.161486,0.064714,-0.083908,0.009637,0.115793,0.107908,0.038683,0.237917,0.042411,0.068516,0.050341,-0.078617,-0.1198,0.010003,0.24045,-0.008106],[-0.051588,-0.111599,-0.197129,0.188718,0.126474,0.011343,-0.024078,0.017639,0.370592,0.001601,-0.016632,-0.102177,-0.095327,0.022899,0.247818,0.137942,0.121074,0.065569,0.141562,-0.080598,-0.044632,-0.032423,0.069774,0.144406,0.175467,-0.226217,0.139061,-0.009787,-0.08491,0.021118,-0.182162,0.0032,-0.030983,0.12795,0.05696,-0.012178,0.048235,-0.057905,0.078465,0.16291,-0.036976,0.063699,-0.089242,-0.10878,0.115276,0.09151,-0.027931,-0.104431,0.146538,0.034001,0.061843,0.038583,-0.074644,0.004575,0.137194,-0.134341,0.094051,0.193339,-0.052306,-0.095545,-0.127568,0.047976,-0.130607,0.030142],[-0.054767,0.023125,0.192148,0.169625,0.019392,-0.117708,-0.117925,-0.054873,0.244876,0.099922,-0.21312,0.015304,-0.046503,-0.186983,-0.006529,0.065627,-0.01076,0.014272,-0.21784,-0.085837,0.139285,0.008905,-0.131896,0.043747,0.080819,0.0044,0.220477,-0.025487,-0.079193,0.050957,0.007983,-0.065163,-0.160789,-0.110691,-0.162841,-0.065269,0.054702,0.107373,-0.080754,0.120823,0.012079,-0.030291,-0.113262,0.05905,-0.06542,0.149681,0.036614,0.077786,-0.115626,-0.256001,-0.035964,-0.017234,-0.118829,-0.217902,-0.1664,-0.006377,-0.13426,-0.06449,-0.049191,-0.116513,-0.135866,0.069568,0.080128,-0.054673],[0.117132,-0.066944,-0.096299,-0.150398,0.09898,-0.000545,-0.000982,-0.007191,-0.065314,0.100611,-0.038795,0.089805,0.082018,-0.005694,-0.00815,0.044147,0.178425,-0.073537,-0.058775,-0.115805,-0.065523,-0.017378,-0.060637,-0.061725,0.116188,0.07293,0.091041,-0.023901,-0.124516,-0.048951,0.070431,0.003707,0.038001,-0.042698,0.037966,0.087042,0.004884,-0.126653,-0.11513,0.075078,0.064503,-0.074343,-0.132581,-0.010996,0.126411,0.209123,-0.039766,0.080842,0.095734,0.14089,0.036775,-0.063835,0.08762,-0.009577,-0.006242,0.162436,0.240123,0.160638,0.138305,-0.092308,-0.08257,-0.125196,0.081555,0.085706],[-0.096776,0.163285,0.075053,-0.122997,-0.1969,0.021931,-0.041479,0.086883,0.141125,0.110609,0.07055,-0.095542,0.076742,0.074219,0.00119,-0.148075,0.18852,0.16439,0.100332,0.088167,-0.071875,0.117271,0.085276,0.047327,-0.021953,-0.070036,0.095062,0.177328,-0.053569,-0.017647,0.144275,0.025963,0.12375,0.098739,0.078583,0.050534,-0.106902,-0.026962,-0.056394,0.040221,-0.092451,0.018022,-0.122094,0.086452,-0.01434,0.108456,-0.066604,0.128518,0.005165,-0.03861,0.080606,-0.022115,-0.0009,0.110664,0.063384,0.044254,0.133388,0.132942,0.07225,0.037781,-0.117554,0.095542,0.09601,-0.039272],[-0.071611,-0.101897,-0.071132,-0.119721,0.041553,-0.043882,0.005797,0.026864,-0.020013,0.031601,0.096142,0.110651,-0.048444,0.032748,0.12214,-0.067651,-0.110655,0.010651,0.057074,-0.068776,0.01562,-0.029856,0.106078,0.043777,0.110806,-0.070774,-0.003225,0.071728,0.021617,0.047296,-0.113826,-0.114635,0.108603,-0.056911,-0.025805,0.038737,0.084942,-0.072725,-0.124829,0.086397,-0.064422,0.075586,0.007471,-0.111336,0.065609,-0.011986,-0.119758,-0.123902,-0.077714,-0.086464,0.11723,0.075793,0.115179,0.043336,0.070285,-0.013656,-0.05553,-0.038728,-0.010664,0.028244,0.120868,-0.001217,0.098056,0.021755],[0.077283,0.010923,-0.012996,-0.01926,0.00988,-0.016349,0.099525,0.107778,0.011325,0.054966,0.022385,-0.05704,-0.086766,-0.093697,0.051301,-0.086245,0.054803,0.052313,-0.032945,-0.004386,-0.012915,-0.107891,0.033733,0.088855,-0.044528,-0.034459,-0.009126,0.07099,-0.053315,-0.035928,0.067903,0.104023,0.044057,0.099997,-0.073339,0.031691,-0.087618,-0.067839,-0.081153,0.06043,0.015226,-0.090628,-0.04646,-0.011912,-0.098275,-0.018734,-0.032842,-0.087999,0.05006,0.023918,0.024661,-0.083801,-0.116161,0.006416,-0.081751,-0.12265,-0.051123,-0.060876,-0.083808,-0.112926,-0.086423,-0.123454,-0.101445,0.111744],[0.071024,-0.324529,0.110845,-0.013525,0.047178,0.023961,-0.270757,-0.154833,0.240769,0.126003,-0.166386,-0.057057,-0.100505,-0.050369,-0.291322,0.061917,-0.139904,0.064666,-0.367993,0.080411,0.220813,0.042686,0.084516,0.054722,-0.067691,-0.137201,0.237487,-0.025965,-0.099579,0.009112,-0.068575,-0.337355,-0.168275,-0.141249,-0.102297,0.033419,-5.6e-05,0.068047,0.038696,0.085988,0.051998,0.056866,-0.015176,0.112828,-0.104938,0.040449,-0.038626,0.124588,-0.074291,-0.122074,0.024984,-0.015457,-0.331602,-0.19293,-0.306872,-0.102328,-0.072566,-0.119605,-0.337829,-0.09654,-0.025029,0.083145,0.095939,-0.026569],[0.052624,-0.157717,0.075282,0.247279,0.219907,0.105517,0.004447,-0.027135,-0.02557,0.015989,-0.076715,0.007565,0.056722,-0.114946,-0.143747,0.086369,-0.104386,0.270466,-0.235498,-0.113768,0.103227,0.005851,-0.07261,0.058723,-0.302424,0.275141,0.071147,-0.058589,-0.041759,0.072682,0.113551,-0.125529,-0.155475,-0.174989,0.022707,-0.135393,0.207566,-0.112268,0.109031,0.098803,-0.024804,-0.077031,-0.064984,0.122091,-0.259215,-0.248332,0.117332,-0.23292,0.00418,-0.169373,0.116882,-0.056456,-0.081624,-0.187911,-0.121856,-0.134117,-0.277932,-0.182342,-0.22212,-0.033672,0.002339,-0.050715,-0.073916,-0.028858],[-0.086009,0.121818,-0.078994,-0.098835,-0.000783,-0.063198,0.041522,0.165508,-0.507247,-0.035693,-0.046276,-0.073535,-0.022912,-0.088299,0.111893,0.050904,0.018167,0.219675,0.120679,-0.103124,0.092494,0.106019,-0.000696,-0.003901,0.133854,0.129973,-0.390341,0.038321,0.026028,0.152686,0.192531,-0.031186,0.156804,-0.044609,0.068409,0.047976,-0.002435,0.021216,0.134606,0.151752,-0.140536,-0.010127,-0.105834,0.110186,0.035721,0.003929,-0.125063,0.021393,-0.009977,-0.042876,0.084276,-0.059995,0.013188,0.07397,-0.047928,-0.004973,0.081987,0.159837,0.136093,0.016813,0.052156,0.069406,0.159386,-0.127493],[0.024551,-0.12221,-0.089753,0.065349,0.040053,-0.04235,0.07528,0.070421,-0.010379,0.067809,-0.023693,0.045976,-0.028454,-0.095466,0.089765,0.093621,-0.078672,0.007877,-0.065597,-0.034627,-0.066891,-0.076822,-0.124171,-0.018761,-0.008593,-0.11577,0.073698,-0.059481,-0.069342,-0.020294,-0.040971,-0.021262,0.003403,-0.098889,-0.04585,-0.065585,-0.074674,-0.110171,-0.039658,-0.03695,0.044084,0.035287,0.032139,0.119447,-0.037229,-0.081588,0.111845,0.119614,-0.106658,0.117542,-0.094013,0.053871,0.024448,-0.029314,-0.025312,-0.032437,-0.096828,-0.010853,-0.016616,-0.11049,0.07691,-0.050385,-0.061988,0.103542],[0.092567,0.104784,-0.050095,0.069858,0.080431,-0.040911,0.046971,0.091893,0.069104,0.104915,0.019717,-0.047066,0.094328,0.073378,0.091306,-0.049845,0.00664,-0.005606,-0.029736,0.097833,-0.032833,0.021487,0.000168,-0.090784,-0.022005,-0.063359,0.051624,-0.032209,-0.02314,0.04049,0.119034,0.110228,-0.101935,-0.027767,0.046605,-0.018854,0.031992,-0.005821,-0.006277,0.064973,0.060559,-0.095356,0.007036,0.106382,0.10571,-0.052932,0.09293,-0.042796,0.11737,-0.044058,0.10496,-0.033139,-0.009856,-0.036529,0.071567,-0.006186,0.009059,0.113129,-0.026746,-0.069228,-0.012678,-0.001579,-0.011486,0.037837]],"biases":[-0.078248,-0.064738,-0.081905,0.032555,0.071878,-0.051532,0.045949,0.193134,0.135621,0.048595,0.065641,-0.00951,-0.044001,0.066892,0.11487,-0.027994,0.04393,0.071191,0.126325,0.028461,-0.137903,-0.108163,-0.111408,-0.026479,0.149506,-0.105008,0.031052,0.011914,-0.127998,-0.013624,0.031543,0.03916,0.162636,0.124629,0.010958,0.213209,0.039231,-0.00545,-0.004749,-0.086748,0.103301,-0.00183,-0.073546,-0.097327,0.240714,0.135667,-0.137819,0.079578,0.129784,-0.015018,0.007661,-0.018787,-0.010726,0.023753,0.015706,0.214252,0.175591,0.153202,0.052231,0.006732,-0.100499,-0.071253,-0.006898,0.082093]},{"weights":[[0.05677,0.033588,0.016842,-0.054728,0.030751,0.052193],[0.265371,0.037714,0.131061,0.285391,0.230365,0.249305],[0.062668,0.078805,-0.145897,0.139631,-0.103237,-0.052172],[-0.041797,-0.160882,-0.202522,-0.236441,0.063184,0.020436],[-0.035883,-0.028686,-0.1716,-0.29665,0.104784,-0.016355],[-0.048078,-0.01632,-0.090992,-0.034615,0.051167,-0.022529],[-0.007605,-0.185469,0.225887,-0.187431,0.09062,-0.042152],[0.12214,0.017536,0.143228,0.112455,0.144637,0.1707],[0.08629,0.306177,0.474897,0.55969,0.346613,0.386189],[0.2712,-0.06444,-0.10085,-0.108549,-0.067161,-0.141261],[0.019679,0.106299,0.21521,0.094985,0.077026,0.061317],[0.000687,0.023081,-0.085487,-0.017588,-0.106552,-0.087851],[-0.005805,-0.067694,-0.078086,0.126303,0.104088,-0.048756],[-0.198479,0.136685,0.22035,-0.077695,0.004071,-0.031922],[-0.013168,-0.108212,0.274611,0.258467,0.008513,0.035099],[0.068597,0.08255,-0.223172,-0.261082,0.012149,-0.154561],[0.08812,0.257211,0.187072,0.227939,0.222223,0.097398],[0.15871,-0.423957,-0.019345,0.037634,0.02574,-0.045514],[-0.00845,0.002013,0.233825,0.145098,0.141571,0.236739],[-0.074528,-0.0377,0.012397,-0.052219,-0.082872,0.040569],[-0.336283,-0.029062,0.209974,0.159165,-0.044922,0.013166],[-0.09085,-0.069669,0.070462,-0.025358,0.007375,0.051853],[0.031613,-0.023746,0.021842,-0.058653,0.101659,0.061482],[-0.008874,0.005596,-0.182218,-0.279541,-0.019645,-0.114622],[0.19052,0.198356,0.111961,0.03491,0.08841,0.19927],[-0.132039,-0.133282,-0.054486,0.009803,0.104591,0.208192],[0.163616,0.318287,0.486832,0.593817,0.104358,0.350354],[0.064674,0.140806,-0.008634,0.156223,0.241496,0.079773],[-0.13347,-0.124335,0.121304,-0.043638,-0.056019,-0.005166],[0.058775,-0.075899,-0.236937,-0.238621,-0.039443,-0.059666],[0.083647,0.046649,0.043409,0.277865,0.178109,0.136481],[0.173864,0.082852,0.279748,0.097548,0.064122,0.180967],[0.059417,0.071777,0.104658,0.251988,0.01138,0.173752],[0.094476,-0.056506,0.170044,0.214619,0.059083,0.099953],[0.151418,-0.020596,0.082536,-0.159549,0.005344,0.074985],[0.073785,0.148528,0.058151,0.179219,0.177041,0.142596],[-0.114418,-0.130098,-0.123617,-0.362007,0.034804,-0.011362],[0.107676,-0.115055,-0.153148,0.084342,-0.142649,-0.010789],[0.240571,-0.243058,-0.093763,-0.05375,-0.005942,-0.087844],[0.257152,-0.187088,-0.194289,-0.210138,-0.004437,-0.163953],[-0.087062,-0.076563,0.11849,-0.055588,0.047573,-0.054599],[0.119771,-0.027366,-0.081929,-0.100442,-0.115092,-0.086669],[0.08261,0.004456,-0.0345,-0.041922,-0.016978,-0.016272],[0.115264,-0.110938,0.100392,0.052008,-0.027097,-0.036501],[0.24984,0.202053,0.193012,0.110754,0.153024,0.20876],[0.27096,0.25429,0.03968,0.054209,0.170324,0.199861],[0.068428,0.066775,0.10952,0.097696,0.054325,-0.071839],[0.152106,0.237464,-0.132696,0.069795,0.172148,0.06561],[0.145053,0.21212,0.209074,0.033475,0.144045,-0.025274],[-0.009681,0.239731,0.262257,0.074465,0.188471,0.08401],[-0.082378,-0.047833,-0.061707,0.023472,0.082882,0.074087],[-0.007748,0.033932,-0.067003,0.029147,0.11314,-0.029853],[0.049408,0.161382,0.214646,0.286976,-0.009939,0.259744],[0.229624,0.104132,0.242493,0.197252,0.092114,0.132695],[0.027482,0.011771,0.273701,0.203519,0.098859,0.245599],[0.032757,0.248243,0.045599,0.193391,0.087993,0.189864],[0.195868,0.15869,0.157305,0.118055,0.098242,0.143105],[0.206347,0.039981,0.227725,0.214306,0.183025,0.015665],[0.185769,0.124034,0.205092,0.21021,0.235802,0.12618],[-0.007237,-0.025314,0.059445,0.045752,-0.001739,-0.052227],[0.013943,-0.081812,0.108512,0.076049,-0.071749,-0.064937],[0.02413,-0.029164,-0.000489,0.009185,-0.022324,0.012572],[0.184771,0.056668,-0.028141,0.080906,0.169292,0.139254],[0.082635,-0.023658,0.058723,-0.048615,-0.027266,0.058591]],"biases":[0.1351,0.044097,0.178503,0.207332,0.084306,0.022757]}]},"round":15,"phase":4,"phaseIteration":4,"trained":"pilot","generation":12,"dominanceMetric":"pilotWinRate","dominanceThreshold":0.65,"dominanceReached":false,"candidateSpawns":2,"selectedCandidate":1,"pilotWinRate":0.0,"enemyWinRate":0.6,"averageScore":1680.0,"averageWave":2.0,"averageSteps":203.4,"waveClearRate":0.0,"averageClearSteps":0.0,"enemyDropRate":0.0,"invalidDropRate":0.0,"enemyFireRate":0.5353,"pilotFireRate":0.208,"pilotShotAccuracy":0.5203,"pilotHits":154,"pilotFires":296}
