{"id":47,"label":"Pilot v47","role":"pilot","model":"sb3-dqn-pilot-v47","actions":["left","right","fire","stay","up","down"],"features":["target_dx","abs_target_dx","threat_dx","threat_y","bullet_ready","alien_count","wave","drop_ready","enemy_shot_ready","fleet_y","lives","danger_shot_dx","danger_shot_y","danger_shot_lane","pilot_bullet_dx","pilot_bullet_y","bee_count","gunship_count","boss_count","ship_y","target_dy"],"network":{"activation":"relu","layers":[{"weights":[[0.06059,-0.526186,-0.115537,-0.252146,-0.146592,0.178062,-0.817473,0.948656,-0.459184,-0.227441,0.294873,-0.100602,0.12012,-1.091025,0.292895,0.23125,-0.186562,-0.037435,-0.261107,0.085492,0.474549,0.109835,-0.440153,-0.08278,0.052822,-0.722643,-0.098046,-0.117887,0.872467,0.059524,-0.632633,-0.29016,-0.118006,0.274157,-0.105139,-1.272787,0.454274,0.66257,0.074152,-0.304647,-0.149687,-0.199438,1.027443,0.4839,-0.069622,-0.002908,0.219965,0.303432,-0.198994,-0.065677,0.021837,-0.59454,0.248604,-0.506341,-0.467599,0.555732,0.209713,-0.356674,0.088887,-0.053606,-0.09887,-0.807556,0.805631,0.03438],[-0.833339,0.680599,-0.359343,-0.743742,0.041732,0.680529,0.598782,-0.01972,0.40642,-0.025383,-0.425856,-0.324607,-0.182574,-0.197819,-0.162673,0.424191,-0.063729,0.270226,0.522249,0.045962,0.381395,-0.002962,-0.89292,-0.937141,-0.111127,-0.385781,-0.008584,0.008034,-0.000356,-0.31274,-0.757599,-0.628483,-0.103109,0.123326,-0.198899,0.752002,-0.513223,-0.393896,-0.765694,-0.628116,0.249196,-0.105636,0.309722,0.1872,0.904434,0.025173,0.476695,0.397567,-0.15799,0.464185,-0.170703,-0.732325,-0.088609,-0.269897,1.224151,-0.186964,0.771345,0.187826,0.004706,0.82106,-0.305981,-0.399222,0.398445,0.135504],[-0.074215,0.318299,0.149635,-0.088874,-0.130387,0.093201,-0.371793,0.199486,0.264289,-0.006719,-0.148848,-0.163697,-0.087787,0.114,0.053181,-0.662544,-0.008302,0.221594,-0.16445,0.17841,0.054873,-0.027242,-0.380271,0.071293,-0.070665,-0.454393,-0.061689,0.04713,0.07591,-0.048077,-0.473397,-0.463121,0.076703,0.172858,-0.042488,-0.114713,0.103351,-0.083455,-0.218213,0.052521,0.225783,-0.143922,0.160544,0.116958,0.253668,0.09993,0.194664,-0.117828,0.113309,-0.074871,-0.150391,-0.273713,0.046085,-0.046242,-0.08886,0.190222,0.309834,-0.303838,-0.104134,0.223951,0.105924,0.114261,-0.15577,-0.055903],[-0.233526,-0.098308,-0.244934,-0.106668,-0.067349,0.116646,0.208518,-0.177353,-0.203039,-0.041584,-0.132458,-0.235476,-0.330976,0.0079,0.036902,0.419296,0.214218,0.250106,0.069368,-0.081077,0.008449,0.200284,0.103177,-0.149638,-0.033587,-0.106471,-0.074074,-0.034353,-0.673148,0.099672,0.141491,-0.008695,-0.225399,-0.154661,-0.013075,0.021197,-0.207878,0.142551,-0.008718,-0.063754,0.142263,0.066876,0.112844,0.171464,0.286809,-0.159035,-0.243537,0.035925,-0.129262,-0.070239,0.025539,0.130633,-0.24006,0.206135,-0.069273,0.054697,0.135118,-0.144051,0.167097,-0.148988,0.151606,0.119128,-0.186361,-0.057133],[-0.21547,-0.018536,0.123731,0.06642,-0.007905,0.295397,0.109704,0.255868,-0.0167,-0.037955,0.1589,-0.165189,0.061538,-0.243596,-0.099773,-0.088683,0.104934,0.012261,0.240644,-0.065766,-0.269456,-0.105664,0.14397,0.075941,-0.161452,-0.233935,-0.005893,0.080373,-0.18122,-0.123708,-0.141739,-0.027029,0.068438,0.065188,-0.02336,-0.037289,-0.098205,0.091495,0.035217,-0.338159,-0.171025,0.069595,0.008021,0.134049,-0.198668,-0.063603,0.227347,-0.054746,-0.190894,0.132175,-0.055688,0.025885,0.064926,0.148048,-0.142989,0.052671,-0.161604,0.083229,-0.180302,-0.366875,-0.028877,-0.201787,-0.002912,-0.165878],[0.191156,-0.134928,0.457408,0.574345,-0.182319,-0.050747,-0.218369,-0.021982,0.355855,-0.11043,0.128658,0.029042,0.1359,0.459247,0.424102,0.060957,0.035438,-0.254399,-0.072564,0.105227,0.064251,-0.187299,0.485056,0.208347,0.126854,0.163673,0.01719,0.504398,0.000985,0.358758,0.153643,0.087567,0.525937,-0.200174,-0.209082,-0.21124,0.229701,-0.111318,0.293964,0.376076,0.542207,-0.016842,-0.154093,-0.321548,-0.081266,-0.186324,0.23675,0.178258,-0.052592,0.109858,-0.125584,0.235003,0.27296,0.021473,-0.069982,0.389316,-0.23512,-0.228513,-0.015915,0.023943,0.053152,0.175527,0.176297,-0.049642],[0.008163,-0.17705,-0.05391,-0.03789,-0.157112,-0.006859,0.162551,-0.059785,-0.09114,0.14069,0.062562,0.243076,0.221987,-0.08384,0.075627,0.011707,-0.103936,0.029747,-0.093222,0.119523,-0.042618,0.209977,0.186775,0.1876,-0.014565,-0.034101,-0.033518,0.161292,0.100181,0.026581,-0.078919,0.143683,-0.133691,0.105247,-0.134721,-0.112207,0.13078,0.020611,0.137849,-0.026747,-0.030005,-0.002226,0.108166,-0.054449,-0.000418,-0.222118,-0.072716,0.028802,0.199092,0.086264,-0.044594,0.146448,0.045955,-0.065144,0.204878,0.079853,0.002838,-0.066094,0.008001,0.045546,-0.32497,0.013149,-0.066001,0.126428],[0.223619,-0.259655,0.180578,0.027998,-0.209774,-0.015808,0.204792,0.190551,-0.141715,-0.203841,0.040066,0.076069,-0.070873,0.079977,0.140618,0.149036,0.06999,-0.250477,0.149858,0.199204,-0.027304,-0.166943,0.049832,0.156406,-0.166613,0.165234,0.059298,0.258704,-0.16082,0.028437,0.220253,0.121063,0.212381,-0.26506,-0.127563,-0.054644,0.021197,-0.051391,0.136499,-0.419808,0.074579,-0.011281,0.058097,-0.214694,-0.120901,0.045314,0.053864,-0.050126,0.139799,-0.081721,0.163075,-0.052116,-0.174069,-0.01463,-0.016947,0.078155,0.041607,0.111959,-0.120771,-0.033192,-0.34847,0.032844,-0.030389,0.004462],[0.187992,-0.083035,-0.058791,0.126462,0.163241,0.006143,-0.083261,-0.163296,-0.077889,0.001324,0.082638,0.205324,0.032677,0.1173,0.108484,-0.15618,-0.188058,-0.041219,-0.065033,-0.081523,0.22072,-0.105216,-0.120693,0.235788,-0.179833,0.009621,0.060875,0.281647,0.003216,0.151634,0.117102,0.186987,0.160857,0.19722,-0.041421,0.027031,0.198283,0.018747,0.009538,-0.029284,0.008597,0.128958,0.198024,0.206739,-0.097949,-0.210164,0.033012,-0.108308,-0.188114,0.087477,-0.045881,-0.218693,-0.084588,0.247796,0.150179,-0.152331,0.116026,-0.139269,-0.161577,-0.031364,-0.118627,-0.052992,0.141357,-0.006018],[-0.047757,0.014318,0.003704,-0.168037,-0.156781,-0.100564,0.247441,-0.08667,0.302604,0.108715,-0.066365,0.07661,0.252993,0.052864,0.03171,-0.002617,-0.080899,0.231905,0.162026,-0.128871,0.17841,0.119031,0.16461,0.110033,0.112204,0.134844,-0.015364,0.082148,0.077792,-0.049716,-0.034358,-0.165809,0.198152,-0.112181,-0.078523,0.084853,0.286662,-0.212097,0.210406,0.152523,-0.053509,0.001784,-0.058591,-0.063855,0.143793,-0.18769,0.071689,0.152048,-0.00326,-0.152039,-0.191514,0.055398,0.145208,0.246339,0.073115,0.179686,0.191389,-0.187893,-0.144534,0.085944,-0.073387,0.037398,-0.130438,-0.042168],[0.077033,-0.068862,0.205898,-0.108415,0.045285,0.041,-0.040561,-0.047342,0.041345,0.000233,0.200739,0.153518,-0.048603,0.125323,0.032891,-0.015024,-0.16816,0.074704,0.042849,-0.071949,0.031155,-0.060642,-0.174387,-0.006376,-0.026029,-0.10005,0.139363,0.060606,0.063223,0.25473,-0.086659,-0.022687,0.053292,-0.18316,-0.193676,0.053416,0.019855,0.059481,0.153574,-0.073937,-0.009188,-0.12927,-0.312716,0.216848,0.168642,0.168258,-0.0128,0.032203,-0.215539,-0.156503,0.116246,-0.157749,0.193086,-0.078087,0.002075,0.295184,-0.061329,0.038144,0.087677,0.113872,0.205174,-0.003022,-0.094558,0.015505],[0.145616,0.10887,-0.066097,-0.17961,-0.068162,0.033274,-0.442292,0.068023,0.064446,0.016085,0.045643,-0.040706,0.341207,-0.220424,-0.084511,-0.094927,0.151272,0.03316,-0.151094,-0.071316,0.121388,0.077839,-0.135299,0.083363,-0.053316,-0.288536,0.124173,0.157643,0.222633,-0.014049,-0.270896,-0.222359,0.139399,-0.048479,-0.121955,0.10479,0.188282,0.141515,0.233294,0.048583,0.298044,-0.221375,0.033467,0.221754,0.10961,-0.134217,-0.091779,-0.222993,-0.143468,-0.679567,-0.148368,0.10936,0.301312,0.040699,-0.064967,0.062884,-0.729304,0.07728,0.04387,0.07739,0.183428,-0.022038,-0.220677,-0.199146],[-0.159238,0.100509,-0.003189,0.152459,0.1494,0.284132,0.312505,0.319532,-0.185576,-0.109072,-0.065926,0.149875,0.066983,0.020503,-0.088073,0.207187,-0.102139,0.108657,-0.091379,0.053966,-0.091968,-0.18678,-0.036867,0.22138,0.077887,-0.034742,0.119481,-0.232161,-0.751194,0.041558,-0.054492,0.181463,-0.174669,-0.071618,-0.061632,0.177638,-0.079614,0.213569,-0.144374,-0.227212,0.060853,0.09394,0.244627,-0.099213,0.252978,0.088434,0.084149,0.063389,-0.212652,0.088893,0.046717,-0.071156,0.119592,-0.008739,-0.065249,0.086094,0.141239,-0.077683,0.003912,0.005108,0.321169,-0.152857,-0.102967,-0.064654],[-0.222069,0.288054,0.203096,0.281136,0.203175,0.358526,0.115086,0.170789,0.209883,0.127074,-0.086774,-0.08639,0.007924,0.130023,-0.168833,0.118214,-0.20455,-0.507184,-0.224872,-0.211567,-0.041143,0.097524,-0.030721,0.227345,-0.080363,-0.062882,0.302857,0.144604,-0.000396,0.150901,-0.00132,-0.049599,0.029445,0.516893,0.182016,-0.151246,-0.072329,-0.371962,-0.185144,-0.134708,-0.069243,0.050918,-0.040556,-0.231299,0.327219,-0.00293,-0.025646,0.075186,0.100687,-0.140785,0.568442,0.325292,-0.034784,0.26942,0.143036,0.037491,-0.24903,0.355105,-0.132112,0.067116,0.151023,0.014294,-0.08728,0.188784],[-0.022393,0.380868,-0.166513,0.21929,0.00864,-0.418406,0.495601,-0.035969,-0.115737,-0.145413,-0.164071,-0.230508,-0.011049,-0.355039,-0.325512,-0.289218,0.032472,0.203961,-0.513652,0.040927,-0.420562,0.043453,0.060643,-0.447864,-0.045495,0.312221,-0.117313,0.038142,-0.245371,-0.29406,0.212393,0.215082,0.009048,0.099448,-0.191232,0.81904,0.147354,-0.290049,-0.072143,0.411158,-0.047942,-0.682555,-0.014327,-0.237088,0.192474,-0.082832,-0.091644,-0.329973,0.023734,0.204556,-0.007652,0.024764,-0.088416,0.514504,-0.214587,0.091262,0.228724,-0.099617,-0.16109,0.237598,0.031836,-0.37185,-0.807282,-0.233872],[-0.241846,0.022685,-0.101415,0.319054,0.190183,-0.867283,0.123973,-1.14301,0.409723,-0.020597,0.077936,-0.017478,0.172275,0.228649,-0.134417,-0.263865,-0.216195,-0.077817,-1.614056,0.024141,1.103461,-0.149662,-0.350172,-1.552815,0.116117,0.076956,1.237293,0.015788,0.20399,-0.262144,-0.428623,-0.022427,-0.268065,-0.047896,-0.091304,0.231572,0.127571,0.469002,-0.241682,-0.049836,-0.422476,0.59151,0.705385,-0.126786,-0.832426,0.096619,-0.007327,-2.267314,0.096683,0.045274,0.167696,-0.017728,-0.198206,-0.080482,-0.653852,0.181008,0.346511,-0.195472,0.01853,-2.383081,-0.0429,0.615622,0.027175,0.191478],[0.261498,0.246146,0.424614,0.447441,-0.04542,-0.010822,-0.202323,0.041806,0.495351,0.002567,0.428886,0.443583,0.173339,0.226983,0.31864,-0.158911,0.112473,0.024402,0.029614,0.167607,-0.139663,0.09766,0.110787,-0.230696,-0.059347,0.288836,-0.081523,0.449895,0.32493,0.382627,0.196168,0.118189,0.355332,-0.277646,0.131093,0.015012,0.178104,0.00595,0.275025,-0.03424,0.341712,-0.131983,0.063932,-0.228887,-0.010373,-0.069192,0.671185,-0.152017,-0.122737,-0.051074,-0.091731,0.571202,0.18463,0.261212,0.018387,0.197544,0.060858,-0.263034,-0.080274,-0.117688,0.39634,0.208054,0.005938,-0.062503],[0.30967,0.05113,0.340241,0.408107,-0.207655,0.16922,0.098462,-0.052651,0.246474,0.103328,0.165299,0.11773,0.409867,0.244462,0.085344,-0.291981,0.076136,-0.513726,0.157741,0.041463,-0.245472,-0.037031,0.088394,0.229463,-0.224209,0.439238,0.053278,0.266471,-0.025946,0.20049,0.508904,0.320833,0.231612,0.006805,-0.189544,-0.146615,0.356951,0.025905,0.32333,0.206558,0.375071,0.160447,0.167602,-0.327853,-0.066124,-0.18666,0.251052,-0.174085,-0.037701,-0.158767,-0.194558,0.217986,0.353924,0.386461,0.01471,0.136423,0.008835,-0.156523,0.075751,-0.211127,-0.134391,0.282066,0.104575,-0.007726],[0.095991,-0.04458,0.1017,-0.051676,-0.11315,-0.070244,0.026614,-0.160636,0.261479,-0.186497,0.10408,-0.089482,0.060109,0.176291,-0.180078,-0.055537,0.025093,-0.63559,-0.153758,0.112161,-0.161219,-0.193461,-0.201544,0.343824,-0.187165,-0.016261,0.132488,-0.075151,-0.384494,0.016829,-0.071633,0.089484,0.111173,0.034809,0.033813,0.158758,-0.049085,-0.074981,-0.348004,0.285798,0.342712,0.033289,0.230105,-0.830167,0.126578,0.206032,-0.094363,0.037373,0.037181,-0.311183,-0.162017,0.271599,0.250395,0.039938,0.077052,0.151897,0.374529,0.096891,0.154395,0.021783,-0.788673,0.451171,-0.379501,0.150543],[0.077792,-0.253464,-0.052435,-0.088349,-0.181156,0.193345,0.128272,-0.102456,-0.063064,-0.106985,0.129428,-0.002788,-0.092335,-0.314632,0.049552,-0.13676,-0.115904,-0.283616,0.175197,-0.220204,0.223711,-0.195205,-0.08459,-0.132579,0.097475,0.120643,-0.024704,-0.187475,-0.392437,-0.117999,0.215177,0.114045,0.121835,0.297417,-0.153213,0.339717,0.037524,-0.336511,-0.114743,-0.112463,-0.289417,0.100316,0.123061,-0.224117,0.032713,-0.034037,0.047029,-0.044278,-0.217335,-0.038188,-0.146667,0.106221,-0.188471,-0.293654,0.329233,-0.039337,0.002698,0.138433,0.099859,0.318006,-0.325284,-0.116987,0.188284,-0.177686],[-0.370899,-0.028054,-0.351983,-0.342249,0.14247,0.131925,0.372625,0.349506,-0.169161,0.07257,-0.281742,-0.410681,-0.389986,0.084444,0.001403,0.188076,-0.161546,-0.256359,0.134639,0.130606,0.316828,-0.194384,-0.456336,0.189656,-0.175086,-0.281758,0.309909,-0.285125,-0.088934,-0.248351,-0.424459,-0.458542,-0.298858,-0.138296,-0.07246,0.408866,-0.16881,-0.187987,-0.423143,-0.201065,-0.149329,0.235172,0.052057,-0.048253,0.113567,0.152113,-0.023863,0.017989,-0.13393,-0.043091,0.238575,-0.13174,-0.516118,-0.354885,0.358148,-0.257288,-0.10253,-0.057498,0.155816,0.096205,-0.165167,-0.238666,0.07774,0.065669]],"biases":[0.039146,0.259244,0.17085,-0.139574,-0.169986,-0.138449,0.003317,0.115437,0.204179,-0.226239,0.05357,0.176913,-0.014336,0.067014,0.096862,0.021008,-0.207295,0.146335,-0.034979,-0.186767,-0.207021,-0.072395,0.008896,-0.078124,-0.237469,0.097896,-0.130935,-0.107474,0.153481,0.019769,-0.081319,-0.07831,0.316844,-0.095288,-0.015436,0.022078,-0.120191,0.064109,-0.155722,-0.086564,0.176914,-0.142839,-0.067435,-0.008511,-0.059625,-0.072025,0.232214,0.209781,-0.052482,0.04181,-0.079718,-0.015314,0.130168,0.227089,0.12269,-0.040891,-0.034288,0.070014,-0.143026,-0.018132,0.070694,0.068885,-0.090747,-0.132208]},{"weights":[[0.052295,0.191664,0.115366,-0.123953,-0.003923,-0.008338,0.017351,0.031939,-0.095673,-0.083457,0.183914,0.041525,-0.039035,-0.01121,0.070011,0.028992,0.276894,0.062077,0.206039,-0.123084,-0.134329,-0.120944,0.064042,-0.039489,0.193065,0.036577,-0.053803,0.238328,-0.08385,-0.038733,0.197292,0.262693,0.119985,0.169221,0.106881,0.23298,-0.152506,0.056381,0.277092,-0.248528,0.297523,0.009357,0.006016,-0.244731,0.242107,0.102749,0.024109,-0.12536,0.005785,0.113889,0.095273,0.105991,0.262282,0.036377,0.142482,0.2983,0.198822,0.195779,0.034465,-0.017563,0.069418,-0.085938,-0.055882,-0.19006],[0.009894,0.149312,-0.250303,-0.010773,-0.091839,-0.083272,0.066245,0.466353,-0.090684,0.326244,0.438204,0.011636,-0.020464,0.018607,0.406988,-0.47848,0.397845,-0.190701,0.125279,0.449128,0.193575,0.061748,0.04094,-0.224838,0.445844,-0.071597,0.290904,0.320533,-0.085443,-0.676118,-0.030423,0.322709,0.510765,0.256892,-0.108804,0.263912,0.050524,-0.011186,0.367979,-0.416722,-0.014186,-0.032518,-0.096616,0.295351,0.555413,0.486151,0.033937,0.111665,0.532684,0.252462,-0.074881,0.008186,0.312634,-0.093223,0.417221,0.417772,0.499077,0.317231,-0.116812,0.014201,-0.028846,0.399745,0.340587,-0.539237],[0.099634,0.200461,0.050822,-0.072679,-0.108028,0.026771,-0.018991,0.220303,-0.10711,0.005545,0.114161,-0.054499,0.072331,0.070086,0.100667,-0.034448,0.233851,0.115568,0.087245,-0.062939,-0.0097,0.095877,-0.06784,-0.105599,0.28335,0.086119,-0.022208,0.227071,-0.055292,0.016618,0.045204,0.228279,0.197971,0.145458,0.018959,0.151372,-0.141626,0.021105,0.104215,-0.043194,0.007436,0.060087,0.054669,-0.246462,0.142797,0.124082,0.038428,-0.01991,0.225853,0.18578,0.054737,0.052516,0.058713,-0.000258,0.079761,0.209966,0.262569,0.162861,-0.11308,0.001616,0.043312,-0.047367,0.067992,-0.036367],[0.120836,0.284607,-0.194445,0.066528,0.105088,-0.089478,-0.122889,0.275672,0.026367,0.072132,0.162843,-0.050357,-0.114534,-0.097801,0.180756,-0.066721,0.159286,0.212001,0.198884,-0.122719,-0.382537,-0.042008,-0.037819,0.12402,0.23506,-0.068628,-0.093719,-0.059018,-0.00722,-0.069184,0.263094,0.270779,0.234521,0.36346,-0.414541,0.19897,-0.020511,-0.199638,0.313589,0.065771,0.087143,-9.3e-05,-0.121258,-0.092829,0.386342,0.271304,0.120486,0.037613,0.119003,0.128628,0.140464,-0.023492,0.251109,-0.09156,0.219607,0.28316,0.401312,0.259044,-0.1413,0.038678,0.050991,-0.258318,0.23794,0.071511],[0.018049,-0.11054,0.101338,0.036213,0.059699,-0.030904,-0.085508,-0.051452,0.111107,-0.0348,-0.112435,-0.006021,-0.108954,0.079888,0.108166,0.018766,-0.121606,0.123447,0.117913,-0.093794,0.019798,0.120822,0.101386,-0.070013,-0.056396,0.07122,0.06778,0.114636,0.045609,0.102199,-0.040588,-0.066444,-0.036709,0.057605,0.036523,0.065265,0.053016,0.090687,-0.076381,-0.092239,-0.113351,0.105216,-0.073476,0.093125,-0.0821,-0.019662,-0.003071,0.038907,0.032932,0.087573,-0.00225,-0.023942,-0.106005,-0.105146,-0.031366,0.044769,-0.08856,-0.067859,-0.049746,0.056917,-0.082498,-0.11435,0.057478,0.008439],[0.087095,-0.478434,0.158844,-0.095289,-0.079879,0.049855,0.025013,-0.194149,-0.067346,0.155399,-0.184064,-0.068833,-0.113917,0.176785,-0.229303,0.073994,-0.285738,-0.165245,-0.199604,-0.01715,0.358491,-0.072202,-0.114735,0.362018,-0.120243,-0.037358,0.114162,-0.319389,-0.110879,0.18283,-0.627252,0.034356,-0.328615,-0.417096,-0.227781,-0.314915,0.086696,-0.104997,-0.340846,0.365165,-0.292075,0.0179,-0.068152,0.068299,-0.094695,-0.202173,-0.078292,-0.044916,0.10888,0.010155,-0.188598,-0.073322,-0.211429,-0.004315,-0.165058,-0.164478,-0.106918,-0.260618,-0.058848,-0.004121,-0.017295,0.260648,-0.136067,-0.054292],[0.048257,-0.474481,0.068442,-0.11165,0.074538,0.010936,-0.064279,-0.469775,0.059854,-0.054241,-0.342769,0.000459,-0.070133,0.041239,-0.318647,0.149377,-0.177852,-0.906419,-0.568382,0.002189,0.668626,-0.008829,0.003292,0.454381,-0.164695,-0.054328,0.048676,-0.218677,-0.014921,0.018991,-1.083673,-0.48625,-0.392672,-0.657069,0.132924,-0.232082,0.034108,-0.213121,-0.59286,0.141257,-0.351011,0.065652,0.112269,-0.135119,-0.50519,-0.209922,0.055301,0.109354,-0.241353,-0.190285,0.139133,0.016902,-0.453395,0.058496,-0.365279,-0.334597,-0.499983,-0.551657,-0.090028,-0.107154,-0.047589,-0.157202,-0.482662,0.360471],[0.075957,0.021164,0.404669,-0.082776,-0.092741,0.001777,0.045681,0.176823,0.077911,-0.006486,0.140811,-0.138719,0.033978,0.061417,0.054758,-0.476678,0.13351,0.283816,0.056155,0.124311,0.164892,-0.167974,-0.085391,-0.185024,0.213465,0.09018,-0.003405,0.06432,-0.106515,-0.281677,-0.146785,0.005307,-0.161091,-0.429381,0.301746,0.124667,-0.151772,-0.204676,-0.168631,-0.188314,-0.051594,-0.07675,0.088829,0.304037,0.111824,-0.051537,0.055924,-0.015273,-0.048228,0.186374,0.043357,-0.068089,0.033011,0.007247,0.039625,-0.005654,0.008691,0.041942,-0.066198,0.099742,-0.030578,0.072693,-0.041311,-0.643891],[-0.003767,0.162713,-0.1866,-0.126767,-0.129496,0.020238,0.030785,0.094128,0.036149,-0.095642,0.111431,-0.093418,-0.087448,-0.112356,-0.115356,0.102373,0.123545,0.064413,0.052496,0.185656,0.140941,-0.048062,-0.07933,0.045501,0.248327,-0.115488,0.217411,0.195598,-0.082745,0.11708,-0.003037,0.080464,-0.027861,0.0646,0.105176,0.208797,0.012875,-0.023167,0.218068,0.207938,0.003504,-0.102361,-0.025499,-0.027186,0.255862,0.37212,-0.010023,0.277106,0.181776,0.219089,-0.139789,-0.058775,-0.015947,-0.07432,0.103715,0.229081,0.252846,0.139011,-0.045485,-0.043151,-0.055916,0.059327,0.234081,-0.057588],[0.099036,0.083742,0.069378,-0.036963,-0.082715,0.080467,0.022835,-0.036948,0.013683,0.086772,0.032337,-0.065052,0.05509,0.043812,0.095886,0.013586,-0.074809,0.051441,-0.009519,-0.025885,-0.048624,-0.063584,-0.090232,0.125984,0.00124,-0.083901,0.031358,0.010344,0.026436,0.035166,0.096522,-0.085412,0.06925,-0.059382,-0.066344,0.046429,-0.088814,-0.085342,-0.047882,-0.071772,-0.099465,-0.072559,0.005182,-0.064341,0.054879,0.104949,-0.030814,-0.033001,0.099181,-0.063285,-0.034305,-0.074575,-0.080301,0.044963,0.082809,0.003507,0.066713,0.09663,-0.044691,0.050966,0.027011,-0.065474,-0.069481,-0.006732],[-0.120234,0.170375,-0.116021,-0.028131,0.048019,0.074699,0.003997,0.213212,-0.053139,-0.059769,0.040707,0.090533,-0.126782,0.04897,0.048768,-0.021226,0.290483,-0.032708,-0.003194,-0.216024,-0.117271,0.036793,0.080955,-0.011664,0.121362,-0.136931,-0.220216,0.073634,0.006325,0.042074,0.165462,0.068006,0.212424,-0.072914,0.08475,0.242835,0.124271,0.074828,0.045548,-0.135973,0.135935,0.032264,-0.075219,-0.161504,0.22363,0.166224,-0.082328,0.073829,0.222044,0.103313,-0.024314,0.041003,0.12907,0.049539,0.150247,0.256689,0.071485,0.152399,-0.116108,-0.022812,-0.08069,-0.119942,0.092011,0.011062],[-0.105683,0.08695,-0.013149,0.07367,-0.123262,-0.118191,-0.077154,0.281342,-0.073377,-0.2009,-0.013214,-0.072423,-0.011128,0.025986,0.182604,0.02323,0.10482,-0.041252,0.129858,-0.239252,-0.020359,-0.130384,-0.055476,0.033066,0.038884,-0.079148,-0.146066,0.0938,0.021773,-0.040794,0.180846,0.060091,0.168528,0.0283,-0.078489,0.175556,0.036986,0.005072,0.171537,0.041115,0.179878,0.066708,-0.073082,-0.22258,0.066289,0.203431,-0.118221,-0.020637,0.193517,0.166278,-0.061517,-0.046333,0.231613,-0.078941,0.042881,0.236551,0.251723,0.247502,-0.075145,0.034577,0.084626,-0.119526,0.016828,0.076823],[-0.052615,0.243867,-0.101055,-0.032028,0.030834,-0.116976,-0.013367,0.208337,0.065913,0.119945,0.222174,-0.038861,-0.08738,-0.124534,0.105935,-0.229121,0.110525,0.087068,-0.053201,0.027512,-0.245362,-0.085865,-0.042751,-0.019424,0.066471,0.055098,0.009337,0.237638,0.032526,-0.112833,-0.076015,0.101605,0.265297,0.09621,-0.02231,0.216323,-0.01377,-0.012823,0.165177,-0.156154,0.034395,0.007063,0.002531,0.00209,0.281469,0.179907,0.030537,0.19126,0.038668,0.26161,0.00013,-0.019713,0.026427,-0.136208,0.11824,0.063652,0.262212,0.060634,0.085971,-0.033492,-0.091658,0.03857,0.054573,-0.201157],[-0.04776,0.28416,-0.08544,0.068586,0.070501,-0.023938,-0.045728,0.191827,-0.033781,-0.154755,0.144241,-0.098501,-0.085428,-0.133846,0.004792,0.265413,0.083815,0.163041,0.18908,0.25175,0.009636,-0.037701,-0.117157,0.166539,0.224531,-0.100408,0.040594,0.227234,-0.088752,0.186149,0.150595,0.142614,0.143519,0.209793,0.282995,-0.002164,-0.073897,0.137118,0.171685,0.222644,-0.051079,-0.002508,0.107533,-0.246014,0.142065,0.175293,-0.098423,0.065808,0.027179,-0.003363,-0.129603,-0.050604,0.029351,-0.118234,0.110119,-0.016324,0.108335,0.065274,-0.010737,-0.077961,0.000635,0.160626,0.150051,0.081995],[-0.069842,0.200815,0.179863,-0.010909,-0.060705,0.008646,0.024198,0.171248,-0.099741,-0.158586,0.114324,-0.057362,0.009048,0.112389,-0.025819,0.166164,0.191099,-0.00358,-0.063108,-0.020809,0.016519,-0.174722,0.083158,-0.086599,0.10185,-0.101846,0.017434,0.116108,0.106489,0.005401,0.019637,-0.031521,0.023826,-0.142927,0.110405,0.071743,-0.000949,0.125548,0.013566,-0.035992,0.009103,0.058831,0.013196,-0.064673,0.110281,0.151416,-0.062794,-0.029594,-0.04162,0.177949,-0.091807,0.10112,0.150982,-0.12625,0.139646,0.181123,0.189333,0.173226,-0.151678,0.031251,0.043777,-0.182047,0.11347,0.17528],[-0.077533,-0.396613,0.200836,0.022128,0.046897,-0.035832,-0.012516,-0.354554,-0.063756,-0.12225,-0.15932,-0.007165,-0.053987,0.177079,-0.198737,0.156239,-0.293334,-0.458601,-0.233438,-0.078387,0.314253,0.094123,-0.044498,0.306373,-0.475681,0.004045,-0.00916,0.09188,0.038556,0.120036,-0.389484,-0.226365,-0.259657,-0.26649,0.190494,-0.101472,-0.088102,0.325585,-0.379315,0.131797,-0.258946,-0.000754,0.06337,-0.240709,-0.359144,-0.466168,0.07999,0.191597,-0.271684,-0.250461,-0.132312,0.040849,-0.370762,-0.103725,-0.269078,-0.102382,-0.42973,-0.371435,-0.012632,-0.040984,0.072668,0.310076,-0.147054,-0.152207],[0.009271,0.046375,0.035401,-0.056885,0.099535,0.11746,-0.063577,-0.096882,0.003327,0.012218,-0.098851,0.093185,-0.005855,0.095585,-0.016552,-0.069775,-0.024181,0.0138,0.095921,0.045672,0.108818,-0.031604,-0.071727,-0.023757,-0.052877,-0.102824,0.016434,0.004323,-0.085603,0.004363,0.029573,0.06933,-0.042927,-0.107493,-0.039027,-0.026926,0.119107,-0.098325,-0.026955,-0.050177,-0.041723,0.10009,0.035289,-0.033013,0.041588,-0.070262,0.058145,-0.066961,0.050866,-0.117195,-0.114098,-0.123905,0.048909,0.067112,0.054898,-0.033215,-0.079274,0.043456,0.009316,0.086272,-0.032108,0.098245,0.006236,-0.109078],[-0.118507,0.326949,-0.261831,-0.056459,-0.082708,-0.12389,-0.112077,0.338708,-0.114246,0.192771,0.243566,-0.077197,-0.057617,-0.114316,0.327322,-0.546618,0.392095,0.08333,0.275798,0.139972,-0.0408,0.088614,0.026444,-0.433209,0.408767,-0.062273,0.225099,0.387487,-0.118868,-0.555067,0.150845,0.371465,0.331617,0.078424,0.0312,0.473339,-0.024498,-0.007915,0.295961,-0.064904,0.317109,-0.048949,-0.03014,0.23207,0.370297,0.338762,-0.103364,0.216025,0.407648,0.272593,-0.140166,0.044422,0.262135,-0.078955,0.468146,0.335643,0.254849,0.434662,-0.151023,0.049299,-0.079916,0.419759,0.375815,-0.603422],[-0.036798,-0.050988,0.36485,-0.044222,0.032105,-0.021258,-0.097909,-0.201665,0.003277,-0.119334,-0.29205,-0.017382,0.071563,0.113519,-0.246406,-0.026048,-0.035609,-1.417652,-0.349676,-0.07326,0.822219,-0.089765,-0.018561,0.197661,-0.079202,-0.033623,0.595825,0.246391,0.039375,0.105564,-0.283977,-0.311006,-0.140464,-0.259548,-0.298605,0.078733,0.001302,0.06891,0.020403,0.426651,-0.534575,0.043977,-0.043642,-0.115441,-0.291292,0.022141,-0.016005,0.508317,-0.330624,-0.283487,-0.227417,-0.066599,-0.258445,-0.120098,-0.148077,-0.20168,-0.090012,-0.255508,-0.081022,-0.109298,-0.045429,-0.032579,0.324626,-0.055572],[0.113872,-0.004219,-0.065425,-0.000798,0.100226,-0.109352,0.055526,-0.016401,0.046734,-0.110161,0.123243,-0.027309,-0.047155,0.063987,-0.044579,0.042131,-0.037684,0.020589,-0.020531,0.028916,0.030118,0.075732,0.002376,0.125538,0.041646,0.024195,0.097613,-0.002459,-0.043386,-0.031701,0.01366,-0.058296,0.021074,0.041228,0.090225,0.074526,-0.036177,0.042621,0.037466,-0.016398,0.104623,-0.050348,-0.050333,-0.009399,0.068245,0.015769,0.02094,0.136345,0.110848,-0.090345,-0.030538,-0.007382,0.097499,0.113263,-0.014614,0.041501,-0.013805,-0.069113,-0.09768,0.114916,-0.112222,0.122563,-0.040742,0.020707],[0.027617,0.057584,-0.478832,0.100212,0.053895,0.078017,0.060639,-0.279308,0.043056,0.0593,-0.266816,0.040623,0.085532,0.127776,-0.230352,0.775619,-0.089675,-1.304152,-0.466175,-0.094368,0.535958,-0.085904,0.014855,0.216866,-0.131137,-0.076058,0.270918,0.194344,0.108392,0.364464,-0.270846,-0.292152,-0.10652,-0.233503,0.586012,0.026952,0.071741,-0.138755,-0.346368,0.373481,-0.429159,0.045497,-0.083916,0.05588,-0.076426,0.005118,-0.103171,0.35152,-0.432631,-0.308517,0.114549,0.057647,-0.276117,-0.174674,-0.29863,0.067526,-0.263536,-0.063236,-0.13402,0.104963,-0.019582,0.067132,0.134566,0.414764],[0.01439,0.044879,0.089869,-0.085444,-0.006473,-0.107769,-0.022598,0.016163,0.000818,0.124902,-0.058055,-0.085106,-0.023617,-0.00642,0.025895,0.090735,-0.086073,0.050833,-0.121961,0.113736,-0.081093,0.016982,0.073829,0.105042,-0.038645,0.085891,-0.019737,0.06853,-0.100288,-0.034932,0.106594,-0.104923,-0.101199,0.032591,-0.115262,0.086387,-0.011412,-0.083411,-0.042642,0.079825,-0.062175,-0.106441,0.080118,-0.114047,0.012471,-0.002116,0.013669,-0.033575,-0.09077,0.024307,0.049043,-0.042292,0.066474,-0.09451,-0.002067,-0.0605,-0.031621,-0.033127,-0.051514,0.113882,0.070619,-0.088626,-0.064742,0.065357],[-0.120287,0.29814,-0.128469,-0.040282,-0.105129,-0.046574,-0.116457,0.228902,-0.096678,-0.091702,0.222216,-0.031873,0.09088,-0.180557,0.384948,-0.271153,0.235296,0.216974,0.157601,-0.145065,-0.118929,0.078012,-0.081944,-0.101047,0.355142,-0.071791,-0.01967,-0.072791,-0.105059,-0.219201,0.40398,0.359441,0.352765,0.442776,-0.038021,0.148417,-0.098954,-0.126596,0.365106,0.078785,0.257708,-0.112397,0.011964,-0.222049,0.330329,0.101404,-0.105881,-0.010439,0.271914,0.310122,0.066056,-0.003988,0.425777,-0.066963,0.406836,0.286377,0.241868,0.225178,-0.112426,-0.09708,-0.028464,0.063027,0.065137,-0.145643],[-0.090837,-0.152249,0.228435,0.022461,0.009941,0.104008,-0.043277,0.16436,0.070937,-0.306394,0.235387,-0.14567,-0.03239,-0.073094,0.432422,-0.11764,-0.055478,0.514772,0.165201,-0.084198,-0.081231,0.045026,0.00558,-0.2151,-0.118637,-0.066124,0.25025,-0.398724,0.029172,-0.4289,0.179213,0.275808,0.076699,0.268767,-0.297519,-0.228135,-0.116577,-0.094436,0.21366,-0.207386,0.263222,-0.106017,-0.109672,-0.236137,-0.086575,-0.338746,0.07863,-0.711006,-0.098181,0.172603,0.056155,0.156553,0.232418,0.055546,0.226689,-0.180262,-0.17186,-0.030399,0.089605,-0.030279,0.068832,0.31171,-0.541872,-0.034001],[-0.029108,-0.002243,0.048825,-0.101221,-0.024056,-0.009321,-0.047999,0.034234,-0.045432,0.046776,0.070317,0.015894,0.028532,-0.052713,0.042134,-0.045551,0.060149,0.027386,0.093415,-0.041209,-0.124458,0.022553,0.02311,0.006236,0.122173,0.036184,0.042625,-0.040911,0.101948,-0.115172,-0.005611,-0.103107,0.014711,-0.061395,-0.046673,0.012872,-0.099444,0.106314,-0.099302,-0.119342,-0.00476,0.094291,-0.100531,-0.053823,-0.036958,-0.078822,0.119714,0.044341,0.111392,-0.021008,0.040137,-0.00403,-0.012674,0.105533,0.022729,0.101067,-0.00098,-0.082814,0.101411,0.041009,-0.02078,0.05424,0.075286,0.057616],[-0.086301,0.30186,0.093023,-0.062754,0.055629,-0.105657,-0.073595,0.265957,-0.003529,0.063841,0.234438,0.023967,-0.103403,-0.234144,0.075256,0.135968,0.099921,0.030029,0.214937,0.012404,0.152991,-0.064333,0.015077,0.132105,0.130613,0.08673,0.054396,-0.025705,0.072204,0.104345,0.182793,0.038428,0.252227,0.32118,-0.04619,0.209673,-0.101478,-0.327075,0.321099,-0.02554,0.19868,0.029619,0.063669,-0.109794,0.083303,0.274215,-0.024354,-0.159359,0.148545,0.009977,0.186977,0.029177,0.031218,-0.113098,0.278681,0.0874,0.240404,0.168339,0.087285,0.065556,0.106369,-0.022998,0.017622,0.243888],[0.01708,-0.21724,-0.476756,-0.082097,-0.075231,-0.052549,-0.118123,-0.379329,0.001132,0.0333,-0.348158,0.091071,-0.000319,-0.008943,-0.270192,0.077537,-0.23624,-0.649274,-0.464276,-0.138194,0.598313,0.069342,0.063147,-0.022034,-0.212679,-0.037339,-0.575304,0.266344,-0.039089,0.346929,-0.563711,-0.415512,0.221657,-0.090553,0.90537,0.012134,-0.036157,-0.241782,-0.042786,0.217318,-0.492693,-0.008344,-0.070841,0.022039,-0.16411,-0.103518,-0.012106,0.427195,-0.432098,-0.420127,0.159987,-0.015888,-0.116116,-0.032207,-0.189312,0.100288,-0.142737,-0.140826,-0.055722,-0.110642,-0.052665,-0.386489,0.206475,-0.135623],[0.02483,0.267895,-0.003338,-0.128632,-0.006765,-0.057375,-0.111856,0.104478,0.037351,-0.136181,0.168247,-0.015634,0.046978,-0.132213,-0.005146,-0.002824,0.231768,0.075988,0.182708,0.047297,-0.025254,-0.034814,-0.037324,0.015782,0.234244,0.036841,-0.011077,0.197361,-0.038019,0.041529,-0.067546,0.231066,0.217788,0.114064,-0.162229,0.195788,-0.10674,-0.097307,0.103831,-0.060629,0.193045,-0.009477,-0.127436,-0.006575,0.288192,0.322766,0.007094,0.141349,0.246174,0.027366,-0.055298,-0.007386,0.21111,0.081719,0.118127,0.072635,0.312199,0.229416,-0.135399,0.019164,-0.018476,0.056231,0.146659,-0.031267],[0.055501,0.190529,-0.107741,0.023783,-0.04671,0.069129,-0.132393,0.155843,0.023441,0.180837,0.135473,0.052901,0.066579,-0.143743,0.128359,0.240429,0.408351,-0.484312,-0.081206,0.127746,-0.181761,-0.129315,0.070723,-0.299315,0.169342,0.058984,0.195378,0.525506,-0.024121,-0.06329,0.086006,0.019358,0.025461,-0.437702,0.172072,0.395857,-0.115564,-0.007342,-0.227094,-0.376669,0.146752,0.087868,-0.085163,-0.018163,0.150478,0.263052,-0.085242,0.474323,0.058253,0.18193,-0.067999,-0.02291,0.135637,0.086033,0.179329,0.410253,0.174727,0.220463,-0.007216,-0.120132,-0.108898,0.013985,0.179365,-0.141749],[-0.05768,0.30633,0.199431,-0.077654,0.053805,-0.016817,0.093575,0.070094,-0.050709,-0.146154,0.221271,-0.140641,0.052366,-0.035573,0.059368,0.15477,0.276315,0.120188,0.181667,-0.083411,-0.316482,-0.065555,-0.090418,-0.112173,0.152413,0.101777,-0.067947,0.099925,0.057211,0.108166,0.167073,0.158455,0.287835,0.137946,-0.04336,0.251869,-0.047154,0.098098,0.290819,0.078176,0.236606,0.049039,-0.061133,-0.435593,0.29405,0.104428,-0.085319,-0.023134,0.153894,0.103907,-0.050456,0.004159,0.239748,0.090514,0.150923,0.126738,0.274741,0.194409,-0.018837,-0.002571,-0.087302,-0.00093,0.232984,0.061179],[-0.097982,0.26556,0.070024,0.032165,0.007823,0.067226,-0.028204,0.367513,0.061224,0.02018,0.156684,0.090517,0.008286,-0.040939,0.294761,0.108763,0.250305,0.213801,0.128511,-0.100247,0.103826,-0.087559,-0.03041,0.10423,0.217529,0.096065,-0.020132,-0.168012,-0.030239,-0.038135,0.165227,0.33301,0.281271,0.375309,-0.118318,0.058773,-0.033697,-0.136392,0.336909,-0.061181,0.270832,-0.043976,0.02082,0.002431,0.193388,0.223235,0.072923,-0.334382,0.150631,0.242481,0.050628,0.021914,0.28727,0.074793,0.367532,0.271882,0.118785,0.183436,0.042117,0.037246,0.026812,0.055414,0.090375,0.008149],[-0.041868,0.198817,-0.036589,0.0459,-0.107358,-0.040121,0.003313,0.17672,-0.003339,-0.088287,0.245002,0.056182,-0.040745,0.133744,0.307949,0.086372,0.272408,0.051754,0.212332,-0.466184,-0.040281,-0.105416,-0.143882,0.063181,0.1994,0.043459,-0.117264,-0.121259,0.096773,0.068715,0.118256,0.051057,0.297406,0.158446,0.070899,0.277216,0.06338,0.006591,0.294345,0.073948,0.060743,-0.051632,0.024891,-0.247217,0.248345,-0.041148,0.111799,-0.087707,0.080921,0.191831,0.009635,-0.111081,0.307184,-0.124421,0.176468,0.181099,0.184087,0.048329,0.06184,-0.003316,-0.04878,-0.13523,0.076408,0.074605],[-0.058865,0.248832,0.090734,0.013575,-0.136709,0.110967,-0.075621,0.235762,-0.051813,-0.112903,0.17719,-0.003617,0.101008,-0.128168,0.09933,-0.0425,0.19387,0.015579,-0.022325,-0.073538,0.082313,-0.057099,0.046246,-0.023326,0.238793,-0.086167,-0.086025,0.078585,-0.015131,-0.024892,-0.084911,0.23623,0.14429,0.00766,-0.112894,0.233966,-0.068632,-0.017315,0.227596,0.106863,-0.00298,-0.098062,0.111311,0.015382,0.213319,0.283412,0.071555,0.032557,0.166274,0.179257,-0.10079,-0.096364,0.126146,-0.080052,0.193081,0.118303,0.240167,0.236338,0.082511,-0.079949,0.012499,0.052562,0.163137,-0.093848],[0.046784,-0.428893,0.263069,0.101919,0.085263,-0.087242,-0.151217,-0.390441,-0.123395,0.373721,-0.197251,0.003042,-0.046894,0.245255,0.001357,-0.208403,-0.036223,-0.026064,-0.390668,0.262395,-0.129488,0.039899,0.017909,0.364028,-0.094339,0.075967,-0.212177,-0.111097,-0.087199,-0.324654,-0.312342,-0.129855,-0.312239,-0.64871,0.095827,-0.03696,-0.031082,-0.064413,-0.407677,-0.212077,-0.210814,-0.087089,0.083924,0.222958,-0.403606,-0.217892,-0.058639,-0.170429,-0.124056,-0.090088,0.017314,-0.036948,-0.142418,0.112668,-0.223266,-0.010228,-0.404564,-0.419558,-0.122671,-0.052907,0.04851,-0.640938,-0.487284,-0.215091],[0.036633,-0.011609,-0.042869,-0.019444,-0.02347,0.079055,0.112274,0.055551,-0.074386,-0.092815,-0.030997,-0.059603,-0.117671,-0.000942,-0.034613,-0.007761,0.085267,-0.11714,-0.087219,-0.059023,-0.022748,0.059314,0.027216,0.143223,-0.135907,-0.037321,-0.007788,-0.061539,0.079718,-0.040372,-0.105564,-0.044362,0.051768,0.072192,0.099007,-0.0754,-0.077928,-0.145044,-0.005458,0.074679,-0.073653,-0.061696,0.107978,-0.014205,0.088937,-0.003886,-0.092336,-0.085997,-0.031857,-0.015496,0.114208,-0.045075,0.05269,-0.110742,-0.096174,-0.1012,0.062686,-0.000316,-0.02822,0.073215,-0.029268,0.077544,0.050376,0.010727],[-0.097049,-0.264057,-0.253564,0.085066,0.047738,-0.015459,-0.031192,-0.164615,-0.137393,-0.268859,-0.412589,-0.018018,-0.076428,-0.076891,-0.579451,0.292084,-0.504132,-1.272479,-0.356508,0.105733,0.695401,0.097934,0.083395,0.412932,-0.148344,0.116832,0.243564,-0.166918,-0.036306,0.30611,-1.236733,-0.366884,-0.229305,-0.046075,0.065522,-0.35778,0.052843,-0.464203,-0.063924,0.631369,-0.724191,0.007393,-0.085907,-0.172942,-0.1561,-0.148844,-0.086726,0.123993,-0.299424,-0.338559,0.076834,0.089204,-0.559279,0.014332,-0.270817,-0.370109,-0.108692,-0.382124,0.007659,-0.05899,-0.04354,0.16769,0.10147,0.420874],[0.02158,0.072458,-0.020136,-0.130643,-0.057901,-0.026759,-0.150152,0.160018,-0.020906,0.027402,0.128013,-0.068989,-0.018395,-0.213104,0.172859,-0.064793,0.204501,0.004454,-0.047117,0.146499,-0.189964,0.053004,-0.111036,-0.147527,0.173436,-0.039064,0.063484,0.203325,-0.003598,-0.010005,-0.10352,0.104398,0.072116,-0.12927,0.167032,0.141503,0.083253,-0.141744,0.147622,-0.132422,0.144593,-0.017921,0.100749,0.149925,0.056774,0.252371,-0.066586,0.03045,0.127723,0.210785,-0.089245,-0.06319,0.167205,0.045555,0.168017,0.183213,0.060443,0.01325,0.095533,0.089238,0.097721,-0.06454,0.115387,-0.076206],[-0.055269,0.22095,-0.494174,-0.058297,0.042271,-0.066775,-0.082305,0.442967,-0.076908,0.061431,0.196694,0.136291,0.007792,0.30604,0.441802,-0.682956,0.369413,0.000205,0.282961,-0.053792,-0.415343,0.067192,-0.032529,-0.552531,0.343028,0.101579,-0.588004,0.479234,-0.024536,-0.532627,0.343263,0.19549,0.379066,0.127952,0.183598,0.43086,-0.085765,-0.077226,0.272908,-0.412582,0.436294,0.018608,-0.000944,0.096448,0.257827,0.282858,0.017361,-0.029172,0.138111,0.356047,-0.096186,0.134106,0.513456,0.030303,0.486833,0.730456,0.281696,0.205844,0.063849,0.038477,-0.087114,-0.19812,0.111196,-0.456545],[0.093401,0.242209,0.082734,0.092072,-0.103846,0.037589,0.092151,0.158492,-0.075645,-0.087242,0.293646,0.028406,-0.049476,-0.149144,0.137012,-0.274263,0.286696,0.126046,0.238344,-0.048952,-0.267527,0.070829,-0.090606,-0.221189,0.214625,-0.035441,0.033501,0.099226,0.097495,-0.215312,0.363998,0.154364,0.195926,0.22808,-0.136361,0.214925,-0.075564,0.091522,0.164826,-0.153167,0.227392,-0.049442,0.107162,-0.546232,0.276574,0.13847,-0.119164,-0.047113,0.263439,0.329503,-0.094504,-0.069829,0.254192,-0.132124,0.312357,0.162322,0.172529,0.300104,-0.002874,0.039829,-0.1132,-0.091764,0.137184,-0.141724],[-0.042274,0.129943,0.20107,-0.075775,0.061501,0.089936,0.082143,0.03316,-0.114548,0.102043,0.174627,-0.04765,-0.009608,0.063498,0.134851,-0.057245,0.111582,-0.049608,0.289332,0.430522,-1.028536,-0.041579,-0.083257,0.042514,-0.149371,0.000119,-0.156561,0.060227,0.054544,-0.349902,0.336868,0.062957,-0.386479,-0.19883,0.137934,0.169764,-0.025676,0.322844,0.012595,-0.13027,0.218301,-0.081977,0.061652,-0.010937,0.137103,-0.015398,-0.011824,-0.000945,0.113543,0.278605,-0.016819,-0.122215,-0.177158,-0.025717,0.065212,-0.14096,0.023707,0.219309,0.048819,-0.042133,-0.086157,0.163153,0.118568,-0.060514],[-0.017624,0.122245,0.136913,0.103186,-0.050385,-0.072802,-0.050152,0.236514,0.056361,-0.049217,0.085866,-0.066679,0.0236,-0.190104,0.187801,-0.084681,0.294789,0.121107,0.192469,0.087074,0.05536,0.03685,-0.118937,-0.020521,0.288727,0.021586,0.077962,0.166232,0.078487,0.114995,0.14605,0.058734,-0.001421,0.015654,0.024509,0.277547,0.082144,0.10724,0.149974,0.106633,0.047431,-0.109788,0.009181,-0.128491,0.30843,0.385795,0.020437,0.02841,0.063099,0.143461,-0.132845,-0.068859,0.071248,-0.037719,0.169954,0.313567,0.262405,0.071587,0.102022,-0.093127,-0.005895,0.18117,0.299663,-0.020295],[-0.116391,0.172099,-0.483141,0.069801,0.032818,0.095228,-0.06192,0.077008,0.070475,-0.040469,0.098201,-0.062939,-0.068309,0.01199,0.223928,-0.385649,-0.127435,-0.358544,0.316655,0.138227,0.414464,0.05406,0.068985,-0.363372,-0.316454,-0.059908,-0.368538,-0.175637,-0.00495,-0.393662,-0.120558,-0.046493,0.096324,0.375044,-0.006004,-0.222705,0.051964,0.330634,0.139659,0.113953,0.153556,-0.090332,0.129466,0.005636,-0.024954,-0.343779,0.016562,-0.312236,-0.214933,-0.160146,-0.178584,0.117438,0.05552,-0.010104,0.263499,-0.322664,-0.147442,0.040694,0.001614,-0.024622,-0.001104,0.378286,0.146299,-0.264756],[-0.052096,0.051943,-0.156463,-0.120287,0.04486,-0.098667,-0.087424,0.073324,-0.050944,0.117354,-0.049025,-0.055525,-0.069892,0.144653,0.112474,0.025294,0.239205,-0.121012,-0.222045,0.135576,-0.082951,-0.114288,-0.04943,0.058595,0.169667,-0.093776,-0.30152,0.271894,-0.116429,-0.011237,-0.228701,-0.06569,0.048114,-0.288573,0.142069,0.184891,-0.010337,-0.353627,-0.203698,0.001874,-0.071197,0.01432,-0.069032,0.106467,0.088325,-0.008444,-0.09777,0.165779,0.016616,0.053272,0.063998,0.014821,0.205823,0.054015,-0.074039,0.220956,-0.05614,0.063369,-0.130659,0.059057,0.025646,-0.175935,-0.068251,-6.2e-05],[-0.064357,0.255897,-0.068048,0.049569,-0.050554,-0.087973,-0.044853,0.135191,-0.011534,0.323819,0.160679,-0.054573,-0.030464,-0.013305,0.134305,-0.384439,0.155007,-0.174173,0.232105,-0.115143,-0.165962,0.018745,0.074089,-0.609627,0.052373,0.014622,-0.112019,0.153744,-0.119973,-0.238523,-0.069004,0.245128,-0.139873,-0.250612,0.036711,0.13911,-0.119268,-0.121475,0.129104,0.09071,-0.003695,-0.036711,0.019265,0.235097,0.15184,0.058476,0.077668,0.061955,0.141823,0.080571,0.087976,0.046191,-0.106797,-0.024815,0.204278,0.036962,0.146586,0.178974,-0.077808,-0.067527,0.005054,0.122319,0.20575,-0.564404],[-0.029739,-0.209543,0.214562,0.040661,0.008986,0.033586,-0.028693,-0.216452,0.051154,0.077997,-0.258961,0.149137,-0.069403,-0.255927,-0.193336,0.295468,-0.112965,-0.339568,-0.199118,0.024577,0.340654,-0.007051,-0.148049,0.340777,-0.153368,-0.121383,0.476781,0.068957,0.09429,0.372915,-0.289728,-0.238028,-0.157691,-0.400023,-0.617756,-0.114133,0.031856,0.015372,-0.141551,0.312842,-0.235051,-0.01901,-0.042088,0.124236,-0.118074,0.017238,-0.040803,0.172768,-0.105358,-0.211344,-0.00989,-0.109044,-0.197599,-0.069497,-0.154085,-0.040607,-0.015699,-0.242856,-0.024658,0.040982,0.003556,0.402422,0.147892,0.313041],[0.074021,-0.058154,0.105527,-0.045219,-0.029611,0.064485,-0.001189,0.112304,0.112136,0.066871,0.020129,-0.098487,0.087577,0.111644,0.023698,-0.027303,0.010227,0.042557,-0.001359,-0.024634,0.042724,0.017865,-0.044117,-0.036097,-0.060962,0.061152,0.123571,-0.072402,-0.062336,0.060283,-0.022375,-0.043579,0.028238,0.005311,-0.05036,0.118099,0.07041,0.076114,-0.003646,-0.080173,-0.01607,0.05593,-0.049299,-0.103163,-0.066808,0.070694,-0.027874,0.030979,-0.002493,0.032512,-0.091315,0.037754,-0.030164,-0.090014,0.120717,0.138232,0.053774,0.112866,-0.055818,0.020528,0.116876,0.038473,-0.053434,0.038676],[-0.034928,0.054715,0.118342,-0.0363,-0.009863,-0.064016,0.047971,0.205926,-0.138484,0.084195,0.10525,0.001081,-0.12118,0.051566,0.027667,-0.022558,0.169556,-0.145757,-0.116619,0.066173,0.165527,-0.133347,-0.140549,0.109544,0.243099,0.020539,-0.082204,0.073711,0.094625,0.079614,-0.160486,0.099945,0.05122,-0.084336,-0.100955,0.169297,0.032218,0.091593,-0.063026,0.010043,0.014571,-0.134626,-0.087356,-0.028209,0.030992,0.287745,0.095517,0.18741,-0.014276,0.149346,-0.009822,-0.129771,0.064573,0.077359,-0.057762,0.043923,0.182436,0.126549,0.059545,-0.098721,0.032655,-0.088854,0.198542,0.0076],[-0.075815,-0.107102,0.593093,-0.016606,0.080349,-0.033496,0.052599,-0.223188,-0.083525,-0.171618,-0.260083,-0.020472,0.006233,0.325647,-0.011539,0.035091,-0.284467,-1.219105,-0.051621,-0.083877,0.625957,-0.084302,0.064974,0.044938,-0.380832,-0.014739,0.336112,0.227702,-0.001178,0.062139,0.123084,-0.34725,0.046021,-0.110842,0.137837,-0.144301,-0.112674,0.20469,-0.189282,0.116029,-0.061991,0.003367,0.105801,-0.045389,-0.327609,-0.597965,0.117672,0.188207,-0.510172,-0.163807,-0.252336,0.04071,-0.057081,0.133779,-0.029283,-0.105845,-0.379085,-0.117026,0.123277,-0.032955,-0.043423,0.754791,-0.13664,-0.101799],[0.05945,0.123247,-0.097274,0.093693,-0.051193,-0.120338,-0.069358,-0.00941,-0.037607,0.053787,0.121003,-0.013729,-0.068892,0.081744,-0.019871,-0.111656,0.10419,-0.103554,0.084663,0.115698,0.050277,0.108346,-0.018574,0.013487,0.012544,-0.017662,-0.06793,-0.077858,0.014742,0.045364,0.121339,0.047658,0.036038,0.124564,0.082957,-0.054569,0.11764,0.048186,0.022268,-0.063565,0.086477,-0.066521,0.02286,-0.048341,-0.005573,-0.013351,-0.08963,0.112293,0.090956,-0.061121,0.071787,-0.09569,-0.094078,0.006279,-0.008627,-0.064828,-0.106572,-0.103595,0.05633,-0.093243,0.024008,0.112476,-0.060251,-4e-05],[-0.057609,0.229862,-0.203261,0.057649,0.003697,0.106588,0.084373,0.152504,-0.05529,-0.298103,-0.134028,0.11553,0.103071,0.261361,-0.241913,-0.18516,0.149342,-0.349131,0.012104,-0.101075,0.444618,0.121586,0.097111,0.15199,0.414336,0.065651,0.174674,0.313179,0.029029,-0.220444,-0.141419,0.141672,0.326371,0.171884,0.060313,0.239531,0.019874,-0.298183,0.13649,0.09026,-0.050937,-0.067556,-0.092865,-0.120349,0.296121,0.218842,-0.117209,0.127036,0.375626,0.290155,0.048499,-0.004812,0.228526,-0.051393,0.225659,0.052749,0.419198,0.21231,-0.057278,0.022093,-0.007479,0.08963,0.548185,-0.034082],[-0.042745,-0.322111,0.008131,0.108098,0.022799,-0.114065,0.109311,-0.407753,-0.074925,-0.087409,-0.245172,-0.072633,0.095712,-0.064494,-0.46009,0.411714,-0.292817,-0.261541,-0.240137,-0.17791,-0.2941,-0.023523,0.065922,0.47629,-0.081959,-0.068208,-0.299334,-0.204367,0.080483,0.411457,-0.316028,-0.219636,-0.351587,-0.219884,-0.044115,-0.360712,0.112151,0.350014,-0.404798,0.294731,-0.209398,-0.047095,-0.09786,-0.027674,-0.292697,-0.10669,-0.055282,0.241568,0.015865,-0.099296,0.003109,-0.107368,-0.398981,-0.070138,-0.499117,-0.12931,-0.114956,-0.290466,0.102407,0.085972,-0.003157,-0.229566,-0.084158,0.448918],[-0.109711,0.252992,-0.109595,0.01349,-0.115279,0.121038,-0.071935,0.274302,0.010923,-0.149661,0.271668,0.021987,-0.117748,-0.097728,0.204447,-0.012124,0.322024,0.278053,0.048612,-0.112611,0.103081,-0.005559,0.122963,-0.029263,0.284072,0.002339,-0.134002,0.16103,-0.105446,0.067327,0.328828,0.313464,0.364336,0.131652,-0.236214,0.101254,-0.034003,-0.135466,0.395538,0.204799,0.057493,-0.003538,-0.115831,-0.133363,0.323931,0.26887,-0.073133,0.10835,0.305956,0.069322,-0.075947,-0.01925,0.227778,0.085419,0.141327,0.223444,0.303861,0.373402,0.023266,-0.024761,-0.024247,-0.262794,0.131169,0.185099],[0.062001,0.191263,-0.097183,0.049551,-0.100499,-0.073902,-0.027419,0.240673,0.051657,0.258853,0.07004,-0.08759,-0.116291,0.015527,0.057418,-0.233447,0.258645,0.033905,0.159088,0.024601,-0.220189,-0.058696,-0.05375,-0.074823,0.156522,0.094812,0.002675,0.306703,-0.050254,-0.131346,0.15618,0.222377,0.183872,0.100017,-0.008604,0.18282,-0.142078,0.16942,0.101639,-0.17761,0.116462,-0.124171,0.028981,0.107835,0.297199,0.225129,-0.085841,0.244017,0.297295,0.225605,-0.147499,0.009771,0.237857,0.058295,0.222815,0.332233,0.204353,0.280563,0.022845,-0.078617,-0.1198,0.124707,0.308274,-0.239239],[-0.051588,0.020471,-0.168914,0.061569,0.093407,0.011343,-0.04223,0.071974,0.081409,-0.246581,0.056087,-0.113922,-0.095312,-0.125517,0.299609,-0.005613,0.2539,0.006277,0.192888,-0.089099,-0.019,-0.031261,0.03522,0.148467,0.283153,-0.147204,-0.002069,0.06168,-0.064988,-0.087639,-0.056959,0.073746,0.142495,0.140774,-0.094006,0.1427,-0.11785,-0.143323,0.173145,0.057593,0.109284,0.063732,-0.089019,-0.600291,0.192974,0.218933,-0.012927,-0.069011,0.188812,0.138608,0.136925,0.012646,0.06407,-0.118645,0.222891,0.121031,0.169005,0.253681,-0.106349,-0.095545,-0.114219,0.17898,-0.107101,0.103386],[-0.054767,-0.012374,0.293781,-0.022564,-0.03288,-0.10799,0.037402,-0.054143,0.067094,0.034435,-0.170077,-0.026201,-0.04771,-0.11382,-0.116553,0.222769,-0.015059,-0.172881,-0.181558,0.078453,0.441009,0.019942,-0.163519,0.275633,0.189942,0.001283,0.592061,-0.203621,-0.059561,0.226841,-0.505837,0.040381,-0.318247,-0.208379,-0.34119,-0.236958,-0.00672,-0.070645,-0.10236,0.319724,-0.132872,-0.030007,-0.112781,0.075057,0.005042,0.230753,0.05145,0.0219,-0.02217,-0.17356,-0.166468,-0.056214,-0.213146,-0.161134,-0.068183,-0.199006,-0.099546,-0.073536,0.06762,-0.116513,-0.122584,0.108076,0.095697,0.202569],[0.117132,0.011097,-0.115461,-0.123661,0.077593,0.013721,0.013846,-0.000888,-0.113688,0.128302,-0.008431,0.091377,0.081104,-0.060779,0.051876,0.076192,0.23064,-0.057989,-0.036661,-0.200584,-0.071413,-0.03915,-0.085682,-0.057368,0.129814,0.095328,0.023322,0.015914,-0.127439,-0.001201,0.065537,0.032808,0.087159,-0.068477,0.026839,0.140235,-0.008339,-0.138996,-0.066225,0.079719,0.12289,-0.074444,-0.132215,0.005768,0.146077,0.216968,-0.024805,0.094431,0.116277,0.170986,0.056717,-0.076393,0.139285,-0.064469,0.039482,0.239274,0.257048,0.192283,0.048326,-0.092308,-0.069156,-0.104497,0.088011,0.110563],[-0.096776,-0.238329,-0.043591,-0.039328,-0.124738,0.021931,-0.110079,-0.073297,0.045808,0.107637,-0.112731,-0.095541,0.076742,0.283012,-0.059678,-0.065607,0.115098,-0.329095,-0.162619,0.078971,0.157361,0.158096,0.059929,0.29372,-0.14201,-0.034449,0.188356,0.211927,-0.053569,0.094841,-0.333633,-0.152774,0.035795,-0.24317,0.039201,-0.00359,-0.035354,-0.403319,-0.279693,-0.034324,-0.181364,0.018022,-0.122094,0.179854,-0.211225,-0.121386,-0.066604,0.182898,-0.199591,-0.09732,0.137882,-0.060681,-0.033007,0.036521,-0.06619,0.122386,-0.076426,-0.164306,0.026509,0.037781,-0.117554,0.219528,-0.161859,-0.069749],[-0.071611,-0.387311,0.164514,-0.119721,0.041553,-0.043882,0.013053,-0.186134,-0.020013,0.097306,-0.043554,0.110651,-0.048444,0.087173,0.146438,-0.037316,-0.303581,-0.164639,-0.005266,0.310143,-0.176396,0.007068,0.080756,0.231982,-0.127111,-0.070774,0.022806,-0.136907,0.021617,-0.195403,-0.2087,-0.337242,-0.108284,-0.157877,-0.069334,-0.151828,0.084942,-0.106401,-0.362438,-0.170167,-0.091359,0.075586,0.007471,-0.130145,-0.182116,-0.272809,-0.119758,-0.336528,-0.321656,-0.229345,0.127302,0.075793,0.030348,0.043336,-0.076802,-0.151815,-0.313009,-0.321432,-0.010664,0.028244,0.120868,-0.061195,-0.191159,0.042726],[0.077283,0.011996,-0.048704,-0.01926,0.00988,-0.016349,0.099525,0.11837,0.011325,0.046896,0.0339,-0.05704,-0.086766,-0.093697,0.060852,-0.097094,0.062541,0.077785,-0.021237,-0.004386,0.006007,-0.107891,0.033733,0.079377,-0.029729,-0.034459,-0.004548,0.043422,-0.053315,-0.046966,0.069455,0.116759,0.046466,0.106269,-0.06436,0.033326,-0.087618,-0.07636,-0.073292,0.049199,0.026493,-0.090628,-0.04646,-0.023635,-0.086635,-0.006193,-0.032842,-0.122406,0.064583,0.036767,0.024661,-0.083801,-0.107931,0.006416,-0.070912,-0.120315,-0.040415,-0.05181,-0.083808,-0.112926,-0.086423,-0.111908,-0.128535,0.102114],[0.071024,-0.225562,0.584665,-0.086155,-0.043867,0.023961,-0.114192,-0.302094,-0.08319,0.261365,-0.29713,-0.088796,-0.101269,-0.09337,-0.408464,0.415662,-0.198338,-1.70276,-0.521968,0.188127,0.714208,0.024481,0.04397,0.173417,-0.397186,-0.147931,0.614079,-0.005916,-0.101709,0.19786,-0.383089,-0.460921,-0.256455,-0.249212,-0.78763,-0.078617,-0.068934,-0.069966,-0.292644,0.145744,-0.381414,0.056752,-0.014713,0.274439,-0.331679,-0.182642,-0.038626,0.175645,-0.327152,-0.253949,-0.084774,-0.05276,-0.443904,-0.009652,-0.317601,-0.302993,-0.288201,-0.158819,-0.111396,-0.09654,-0.025029,0.351022,0.11103,0.256582],[0.052624,0.59342,-0.284645,0.122211,0.106007,0.105517,-0.10786,0.852012,0.012144,0.121149,0.722528,0.053926,0.056722,-0.127982,0.612668,-0.360828,0.779822,0.58237,0.604096,-0.089493,-0.547881,0.01043,-0.07261,-0.445144,0.630871,0.106727,0.120921,0.310033,-0.003991,-0.243174,0.862779,0.671126,0.731436,0.486453,-0.009176,0.75817,0.039608,0.488465,0.59398,-0.347865,0.641672,-0.077031,-0.064984,-0.018211,0.631668,0.564317,0.117332,0.070303,0.774555,0.666889,0.069926,-0.042345,0.794428,-0.074375,0.72922,0.791107,0.602213,0.593789,-0.086573,-0.033672,0.002339,0.486232,0.283159,-0.483704],[-0.086009,0.232713,-0.308857,-0.139975,-0.085459,-0.049879,-0.100868,0.205746,0.047542,-0.174918,0.003813,-0.075931,-0.024541,-0.07663,0.14959,0.087942,0.055114,-0.011203,0.166663,0.167632,-0.113214,0.118941,-0.048606,-0.050292,0.145454,0.022377,-0.189014,0.077411,0.045973,0.117887,0.180024,-0.024023,0.193356,0.084093,0.332099,0.083024,-0.073981,0.129338,0.240067,0.117935,-0.079228,-0.010507,-0.103809,0.032244,0.071375,0.059276,-0.110179,0.109696,0.031326,-0.019917,0.097761,-0.072711,0.022581,-0.018364,0.003498,-0.019575,0.119179,0.233165,0.030696,0.016813,0.065572,-0.005938,0.263514,-0.074035],[0.024551,-0.29022,-0.327556,0.065349,0.040053,-0.04235,0.078501,-0.212782,-0.010379,-0.086236,-0.439974,0.045976,-0.028454,0.193843,-0.277866,0.530165,-0.444275,-0.786326,-0.387412,-0.163034,0.17531,-0.076822,-0.124171,0.096707,-0.199884,-0.11577,0.262443,-0.378889,-0.069342,0.346791,-0.843066,-0.332772,-0.360167,-0.220161,0.099916,-0.42097,-0.074674,0.277793,-0.156556,0.352063,-0.350742,0.035287,0.032139,-0.007342,-0.284605,-0.197026,0.111845,-0.06475,-0.38733,-0.273406,-0.24597,-0.002153,-0.398195,-0.029314,-0.353215,-0.426696,-0.358809,-0.313701,-0.016616,-0.11049,0.07691,0.118777,-0.085934,0.549218],[0.092567,0.114919,-0.099103,0.069858,0.080431,-0.040911,0.046971,0.098087,0.069104,0.076735,0.021657,-0.047066,0.094328,0.037229,0.067713,-0.106046,-0.014619,0.01969,-0.014104,0.035813,-0.006745,0.021487,0.000168,-0.124904,-0.042344,-0.063359,-0.024659,-0.044292,-0.02314,0.036073,0.144554,0.097151,-0.1237,-0.003158,0.042058,-0.039609,0.031992,0.093623,0.006135,0.102272,0.032339,-0.095356,0.007036,0.080836,0.098668,-0.063696,0.09293,-0.052215,0.096154,-0.096061,0.134912,-0.033139,-0.072193,-0.036529,0.062457,-0.046208,-0.006445,0.116281,-0.026746,-0.069228,-0.012678,0.089662,0.005248,0.01006]],"biases":[-0.078248,-0.019626,-0.054744,0.053184,0.048837,-0.037157,0.053994,0.214175,-0.036856,0.042711,0.090826,-0.018628,-0.044806,0.036683,0.162397,0.043618,0.084085,-0.019292,0.156037,-0.002558,0.017834,-0.108083,-0.141045,0.075017,0.164057,-0.124666,-0.01248,0.05485,-0.128728,0.032095,-0.053872,0.059707,0.174476,0.071361,0.073731,0.252984,0.010606,-0.024665,0.120507,-0.027753,0.187609,-0.001853,-0.073082,-0.161175,0.247331,0.16382,-0.12281,0.079774,0.134888,0.01771,0.052046,-0.033469,0.016255,-0.043654,0.080233,0.267387,0.168699,0.167751,-0.033887,0.006732,-0.087079,0.021737,0.013697,0.151908]},{"weights":[[0.05677,0.033588,0.016842,-0.054728,0.030751,0.052193],[0.341954,0.056699,0.134845,0.274321,0.313996,0.189523],[-0.394813,-0.011183,-0.573015,0.200858,-0.449964,0.085589],[-0.025869,-0.073964,-0.035708,-0.046679,0.012364,-0.031664],[-0.014577,0.061863,-0.024389,-0.103202,0.078799,0.072691],[-0.048078,-0.01632,-0.099666,-0.034615,0.051167,-0.022529],[0.0067,-0.040029,-0.006835,-0.044864,-0.016272,-0.063385],[0.181649,0.09122,0.183475,0.147451,0.182296,0.243633],[-0.103446,-0.061789,0.027145,-0.005564,0.033902,-0.011543],[0.318009,-0.222774,-0.180732,0.050297,-0.099678,0.120679],[0.130253,0.16682,0.284358,0.169769,0.187045,0.123329],[-0.023008,0.023105,-0.071576,-0.016498,-0.106305,-0.087851],[-0.005825,-0.067068,-0.078183,0.126293,0.104131,-0.048779],[-0.082369,0.423271,0.143125,0.035732,0.080952,0.006221],[-0.002146,0.003628,0.372668,0.316911,0.163338,0.263296],[-0.102718,0.087071,-0.646336,-0.266452,-0.362982,-0.289714],[0.128516,0.34856,0.218202,0.256038,0.288947,0.143855],[0.756902,0.334042,1.146166,0.655052,0.180076,0.531233],[0.237999,0.000865,0.386016,0.179471,0.367542,0.261441],[-0.283935,-0.061916,-0.132901,0.175076,-0.051495,0.215699],[0.454125,0.027019,1.01249,0.608345,0.668951,0.478038],[-0.07959,-0.062494,0.018244,-0.070727,-0.010444,0.053765],[0.014482,-0.066029,-0.006532,-0.04616,0.108142,0.030302],[-0.240594,0.323488,-0.352877,-0.297915,0.036178,-0.295986],[0.236313,0.291351,0.157629,0.074506,0.111823,0.25209],[-0.071812,-0.065278,-0.10615,-0.017138,0.01496,0.118383],[0.04952,0.329619,0.64768,0.367382,0.067039,0.46481],[0.065866,0.240842,0.017307,0.200551,0.322458,0.093819],[-0.110389,-0.085067,0.071099,-0.06915,-0.121875,-0.014705],[0.050811,0.275264,-0.568066,-0.23953,-0.037049,-0.202803],[0.389378,0.266586,0.384661,0.623992,0.886692,0.413799],[0.281624,0.140738,0.363093,0.1338,0.160147,0.213575],[0.144969,0.107855,0.157906,0.326727,0.074206,0.240868],[0.325866,-0.13669,0.220649,0.334238,0.123601,0.182862],[-0.4785,-0.539102,0.366493,0.054565,-0.8677,0.155688],[0.092945,0.23937,0.103045,0.229273,0.235384,0.195917],[-0.069534,-0.098913,-0.004106,-0.099035,-0.008181,0.114841],[0.205898,-0.068975,-0.019947,0.220191,0.365061,0.098783],[0.377938,-0.041156,0.211604,0.255421,0.149641,0.295123],[0.313032,-0.066122,-0.41625,-0.197561,0.064052,-0.205931],[0.068092,0.13247,0.447332,0.24579,0.374712,0.24856],[0.119796,-0.027304,-0.084166,-0.100536,-0.114869,-0.086692],[0.083161,0.004512,-0.03527,-0.041843,-0.016959,-0.016184],[0.151144,-0.383657,-0.014973,-0.141544,-0.132035,0.115693],[0.327655,0.277864,0.244924,0.163802,0.178842,0.255467],[0.310182,0.337667,0.102258,0.082329,0.201484,0.240667],[0.068428,0.066775,0.124292,0.097696,0.054325,-0.071839],[0.151773,0.356443,-0.139392,0.160698,0.250891,0.002103],[0.271963,0.321568,0.299636,0.088363,0.169515,0.036147],[0.083819,0.32535,0.303017,0.139574,0.230409,0.125027],[-0.104993,-0.234232,0.050874,0.093128,0.041047,0.036654],[-0.021497,0.058316,-0.051259,0.025448,0.088679,-0.029853],[0.070264,0.200445,0.307434,0.34683,0.09703,0.284962],[0.023689,-0.093077,0.057991,0.062846,-0.077278,-0.030805],[0.159751,0.044477,0.299566,0.216029,0.198738,0.311756],[0.06171,0.323906,0.127527,0.254589,0.146973,0.256365],[0.2826,0.241994,0.201557,0.163994,0.124521,0.182576],[0.274084,0.113598,0.248617,0.260071,0.246901,0.053781],[0.061536,-0.020124,0.041098,0.044252,0.136163,-0.078728],[-0.007237,-0.025314,0.059445,0.045752,-0.001739,-0.052227],[0.013943,-0.081812,0.121838,0.076049,-0.071749,-0.064937],[0.189984,-0.054521,0.410291,0.308264,0.197977,0.156233],[0.302979,0.11122,0.018297,0.116315,0.213855,0.155637],[-0.035237,-0.093667,-0.392319,-0.297609,-0.50577,-0.081082]],"biases":[0.065227,0.056736,0.193474,0.199771,0.183847,0.177958]}]},"round":54,"phase":17,"phaseIteration":2,"trained":"pilot","generation":47,"dominanceMetric":"pilotWinRate","dominanceThreshold":0.65,"dominanceReached":false,"candidateSpawns":2,"selectedCandidate":1,"pilotWinRate":0.0,"enemyWinRate":0.9,"averageScore":1950.0,"averageWave":2.3,"averageSteps":107.6,"waveClearRate":0.0,"averageClearSteps":0.0,"enemyDropRate":0.0,"invalidDropRate":0.0,"enemyFireRate":0.7166,"pilotFireRate":0.3868,"pilotShotAccuracy":0.4154,"pilotHits":167,"pilotFires":402}
