{"id":50,"label":"Pilot v50","role":"pilot","model":"sb3-dqn-pilot-v50","actions":["left","right","fire","stay","up","down"],"features":["target_dx","abs_target_dx","threat_dx","threat_y","bullet_ready","alien_count","wave","drop_ready","enemy_shot_ready","fleet_y","lives","danger_shot_dx","danger_shot_y","danger_shot_lane","pilot_bullet_dx","pilot_bullet_y","bee_count","gunship_count","boss_count","ship_y","target_dy"],"network":{"activation":"relu","layers":[{"weights":[[-0.067907,-0.025619,-0.27252,-0.167238,-0.146592,0.664003,1.255328,-0.20526,-0.43607,-0.118324,0.278595,-0.175232,0.192454,-0.585258,0.188814,0.606449,-0.622544,-0.989706,0.092221,0.614017,-0.221927,0.109835,-0.606782,-0.274389,0.020035,-0.603091,0.394302,-0.174047,0.049912,-0.089842,-1.133037,-0.622482,-0.194388,0.416056,-0.099826,-0.785859,0.172904,-0.18015,0.119827,-0.005898,-0.242951,0.690028,0.553118,0.485069,0.198705,0.467174,0.103166,1.274211,-0.198994,0.253356,0.765287,-0.343754,0.478924,-0.135125,0.297152,0.359488,-0.13001,-0.156597,0.086045,0.134028,-0.473866,-1.635806,0.359368,-0.081392],[-0.571263,0.159787,-0.314385,0.310398,0.041732,0.204751,0.503507,-0.554574,0.546542,0.343967,-0.276854,-0.12376,0.080505,0.014396,-0.081336,0.10997,-0.010979,1.38255,0.575287,0.295177,0.490375,-0.002962,-0.201436,-0.506715,-0.103092,-0.877313,0.76203,-0.050504,0.461627,-0.180694,-0.942093,-0.390174,-0.224758,0.445913,-0.204212,1.060998,-0.299085,-0.504147,-0.573635,-0.03041,0.261957,0.424021,0.373463,-0.383813,0.472604,0.168988,0.099161,-0.526802,-0.15799,0.396952,0.289877,-0.372765,0.241138,0.230663,0.58627,-0.208707,0.132429,0.006502,0.002331,1.1979,-0.080759,-0.874132,-0.552173,0.064942],[-0.084205,0.164005,0.114877,-0.147468,-0.130387,0.26128,-0.111153,0.280062,0.288202,0.264861,-0.180154,-0.186933,-0.151987,0.132911,0.059195,-0.097672,-0.095523,-0.091176,-0.1056,0.105681,0.053922,-0.027242,-0.346121,0.041017,-0.076336,-0.1943,-0.160973,0.023496,0.064342,-0.091729,-0.365166,-0.423031,0.056313,0.317006,-0.041287,-0.090959,0.084187,-0.216612,-0.227967,-0.038113,0.203832,-0.129101,0.125727,0.113415,0.32608,0.178471,0.126076,-0.338071,0.113309,-0.380263,0.123538,-0.117195,0.006619,-0.069435,-0.063262,0.186007,-0.142684,-0.166213,-0.145215,-0.045593,-0.332104,-0.079959,0.143571,-0.044247],[-0.219655,-0.032327,-0.207758,0.04518,-0.067349,0.02276,0.26335,-0.638202,-0.102178,0.053361,-0.070857,-0.190309,-0.164093,-0.004018,0.140489,0.366929,0.194566,0.11201,0.113217,0.25232,-0.120007,0.200284,0.093681,-0.264572,-0.027399,-0.142449,-0.021611,0.01064,0.071346,0.15527,0.033824,0.014846,-0.151482,-0.24779,-0.014834,-0.165959,-0.131984,0.061975,-0.005552,0.16428,0.259431,-0.0424,0.444724,0.159796,0.220813,-0.015549,-0.044871,0.378746,-0.129262,0.179893,0.234782,0.212596,-0.158453,0.386686,-0.112332,0.134686,0.218069,-0.214049,0.160004,0.178406,0.144693,0.122889,0.182494,0.062712],[-0.218999,-0.029248,0.126645,-0.030909,-0.007905,0.287965,0.085283,-0.03198,0.278008,0.034218,0.154872,-0.254322,0.03676,-0.01861,-0.041612,-0.223714,0.139041,-0.036156,0.028516,-0.179971,-0.093528,-0.105664,0.075892,0.175336,-0.161452,-0.269633,0.195646,0.063023,-0.038745,-0.138322,-0.161658,0.026115,0.0553,0.071873,-0.02336,-0.176463,-0.108433,0.113084,0.024206,-0.091909,-0.196318,0.117131,0.185002,0.117025,-0.145776,0.076696,0.1267,0.11663,-0.190894,-0.127667,0.08191,0.119951,0.034836,0.085282,-0.11741,0.047389,-0.046052,0.051249,-0.180302,-0.027475,0.146958,-0.143506,-0.58253,-0.314774],[0.263555,-0.195373,0.52709,0.826837,-0.182319,-0.306227,-0.237933,-0.134531,0.20355,0.162382,0.193833,0.12395,0.291093,0.521132,0.434906,0.044183,0.054663,-0.187893,-0.148562,0.449584,-0.147796,-0.187299,0.602716,0.478966,0.133742,0.315299,0.069715,0.601748,0.200373,0.495619,0.328955,0.246395,0.600682,-0.00771,-0.210969,-0.263057,0.304111,0.151757,0.38105,0.624674,0.712137,-0.10643,0.049568,-0.25929,-0.099541,-0.310422,0.276525,0.115378,-0.052592,0.210547,0.021017,0.228085,0.415844,-0.089258,-0.246152,0.501507,-0.152041,-0.138006,-0.02531,-0.056772,0.089186,0.242299,0.150664,-0.221556],[0.106514,-0.240197,0.048085,0.188906,-0.157112,-0.09886,0.079061,-0.072979,-0.15844,0.342498,0.179761,0.378021,0.342813,0.168181,0.212206,-0.010498,0.139043,0.166736,-0.073377,0.193183,-0.190286,0.209977,0.333272,0.052912,-0.008372,0.102088,-0.060648,0.26247,0.282826,0.162696,-0.00791,0.308169,-0.027286,0.054978,-0.138236,-0.22515,0.19883,0.194731,0.239676,0.116911,0.150023,-0.006345,0.000495,-0.030327,-0.040786,-0.105388,0.07524,-0.108198,0.199092,0.115897,-0.007072,0.369061,0.133245,0.074781,0.187734,0.17001,-0.191631,-0.168307,-0.00096,0.109005,-0.090047,0.175236,-0.024275,0.151807],[0.238801,-0.165405,0.21612,0.031914,-0.209774,0.005182,0.171465,0.261181,-0.185899,-0.323561,0.08816,0.120839,-0.058024,0.170369,0.243027,0.23542,0.088126,-0.224638,0.248886,0.195118,-0.018585,-0.166943,0.058013,0.127986,-0.181027,0.086557,0.054629,0.264802,-0.230043,0.029876,0.181511,0.12993,0.253307,-0.283799,-0.152922,-0.12979,0.03345,0.099397,0.156817,-0.26033,0.087224,0.175703,-0.077517,-0.08411,-0.263753,0.171157,0.162134,-0.071013,0.139799,-0.037606,0.21108,0.096002,-0.20537,-0.007609,0.0119,0.126098,-0.102042,0.009668,-0.129895,-0.124988,-0.231141,0.033637,-0.019872,0.087115],[0.154954,-0.211772,-0.097873,0.042852,0.163241,0.058753,-0.070388,-0.159654,-0.147146,0.029271,0.081115,0.180286,0.022274,0.154047,0.133612,-0.092931,-0.180003,-0.07413,-0.035705,-0.092321,0.274091,-0.105216,-0.1238,0.172217,-0.173586,-0.074613,0.039478,0.24277,-0.065438,0.09516,0.06364,0.171041,0.135071,0.15299,-0.042878,0.073624,0.183758,0.098974,-0.00667,-0.047371,-0.015912,0.231644,0.066868,0.235451,-0.152469,-0.095709,0.007305,-0.043373,-0.188114,0.09691,0.045766,-0.106419,-0.157303,0.218619,0.223512,-0.16663,-0.043292,-0.227092,-0.170701,0.009906,-0.165754,-0.136549,0.206932,0.076543],[-0.063971,-0.172246,-0.014,-0.164491,-0.156781,-0.095174,0.232653,-0.228709,0.180512,0.109843,-0.036128,0.072793,0.283817,0.161046,0.070415,0.058735,-0.061655,0.115739,0.169226,-0.11149,0.223571,0.119031,0.244195,-0.019014,0.118425,0.141226,-0.021941,0.062772,-0.03816,-0.067892,-0.006112,-0.090585,0.189676,-0.098965,-0.080598,0.119446,0.279739,-0.132008,0.223855,0.240579,-0.061167,0.106007,-0.30941,-0.081102,0.055046,-0.072518,0.07149,0.190177,-0.00326,-0.136841,-0.09561,0.236425,0.111679,0.261034,0.153122,0.167483,0.029353,-0.243312,-0.153561,0.137779,-0.101225,-0.011569,-0.069054,0.036138],[0.128602,-0.205665,0.251753,-0.078836,0.045285,-0.011321,-0.262597,0.276886,0.109968,0.22164,0.249565,0.1792,0.012941,0.13889,0.105616,-0.129035,-0.195256,0.032297,-0.005531,0.013833,-0.000439,-0.060642,-0.03694,0.06182,-0.017244,-0.135287,0.050325,0.104919,0.112642,0.284855,-0.082103,0.043469,0.097856,-0.14454,-0.196187,0.093304,0.094874,0.146184,0.216032,-0.063414,0.071985,-0.115298,-0.117327,0.027907,0.137522,0.182644,0.081434,-0.102223,-0.215539,-0.128302,-0.03125,0.012752,0.22125,-0.133363,-0.214066,0.372431,-0.036901,-0.087411,0.078017,-0.001614,0.239902,-0.023565,-0.179434,-0.010598],[0.12233,-0.042761,-0.104379,-0.28596,-0.068162,0.160327,-0.159429,0.060067,0.077415,0.242367,-0.009429,-0.063081,0.219677,-0.19249,-0.091492,-0.235195,0.301902,0.0755,-0.019108,-0.468053,0.138015,0.077839,-0.208748,0.071618,-0.064881,-0.24191,0.122629,0.128844,0.186769,-0.078555,-0.338406,-0.350762,0.110152,-0.136156,-0.120754,0.244297,0.112138,-0.137548,0.190295,-0.008883,0.255367,-0.093357,0.060283,0.182888,0.209067,-0.113544,-0.109102,-0.699527,-0.143468,-0.84406,-0.074689,0.061092,0.213023,-0.045097,0.019444,0.049371,-0.724624,0.140108,-0.017057,-0.065728,0.012999,0.034619,-0.044702,-0.281766],[-0.153736,0.038619,0.017124,0.290772,0.1494,0.06691,0.215751,0.38897,-0.103748,-0.243095,-0.027855,0.163283,0.238914,0.028583,-0.059717,0.191458,-0.031637,-0.049604,-0.162376,0.208643,-0.337718,-0.18678,-0.008767,0.156167,0.084122,-0.111248,0.182314,-0.212418,-0.235474,0.014304,-0.16627,0.220217,-0.135138,-0.226115,-0.063391,0.055849,-0.015513,-0.01115,-0.131472,-0.067031,0.031764,0.123848,0.335057,-0.027103,0.108579,0.253535,0.177548,0.082819,-0.212652,-0.043414,0.170121,0.036937,0.098425,0.288181,0.013594,0.091845,0.098488,-0.105873,-0.005202,0.208167,0.221613,-0.043268,0.037938,-0.058528],[-0.23861,0.185312,0.176651,0.326246,0.203175,0.484218,0.500642,-0.177075,0.054437,0.298633,-0.068308,-0.12325,0.037359,0.010231,-0.151985,0.253611,-0.593368,0.003465,-0.061492,-0.19118,0.585878,0.097524,-0.075954,0.153444,-0.059733,-0.070392,0.478667,0.091886,0.11937,0.15312,0.032133,-0.001003,0.004907,0.180015,0.156661,0.069755,-0.110527,-0.149404,-0.239433,-0.053752,-0.08462,-0.153996,0.049547,-0.187977,0.688665,-0.353278,0.095815,0.193172,0.100687,-0.695027,0.367882,0.197149,-0.003937,0.331995,0.175434,-0.016627,-0.210722,0.187817,-0.132112,-0.998867,0.253274,-0.073882,-0.000908,0.282098],[0.077035,0.106966,-0.035618,0.099408,0.00864,-0.160764,0.169005,0.014462,-0.202995,-0.228084,-0.091575,-0.204432,0.219493,-0.233694,-0.170414,-0.899349,-0.085458,0.962727,-0.230485,0.257866,-0.084688,0.043453,-0.01753,0.031082,-0.012708,0.032028,-0.145851,0.099442,0.091751,-0.219523,0.273066,0.29463,0.082948,0.088738,-0.189775,0.413768,0.335427,-0.071877,-0.073253,-0.4341,0.184556,-1.223548,0.243621,-0.721006,0.099559,-0.621797,0.007974,-1.532842,0.023734,0.392749,-0.893047,0.00672,-0.005765,0.443201,0.105333,0.119321,0.173884,-0.161599,-0.131267,-0.01993,-0.009493,-0.119177,-0.423464,-0.21742],[-0.199884,-0.0788,-0.103159,-0.05116,0.190183,-1.115048,0.236587,-0.294667,0.286138,0.032701,-0.076188,-0.19156,0.082855,-0.001279,-0.20132,0.19589,-0.037869,0.084773,-2.584451,0.833149,0.220004,-0.149662,-0.646919,0.009985,0.149546,0.27365,0.96647,0.038714,-0.290377,-0.230098,-0.617952,-0.479432,-0.28259,0.050039,-0.078485,0.093464,0.129629,-0.388694,-0.256247,-0.180287,-0.29229,0.45578,0.960404,-1.063164,0.036424,-0.309271,-0.088498,-0.010826,0.096683,0.372245,-0.054383,-0.106089,-0.316247,-0.83674,-0.423873,-0.035117,0.344027,-0.111488,0.057107,-0.683201,-0.124544,0.134337,-0.077693,-0.03115],[0.271018,0.172112,0.423934,0.578907,-0.04542,-0.187573,-0.191927,-0.131467,0.328717,0.17578,0.429633,0.462951,0.256183,0.145873,0.262862,-0.146743,0.009295,0.032161,-0.010148,0.539181,-0.272299,0.09766,0.189868,0.027924,-0.05236,0.393889,-0.038729,0.469465,0.348333,0.420388,0.366234,0.249259,0.35594,-0.050608,0.129006,0.060124,0.210975,0.193965,0.307321,0.1817,0.37931,-0.222289,0.215769,-0.152972,-0.056586,-0.208741,0.590197,-0.188667,-0.122737,0.024312,0.087033,0.468243,0.251412,0.074101,-0.131397,0.244635,0.204007,-0.13503,-0.089563,-0.234879,0.284315,0.134162,-0.043539,-0.266019],[0.518617,0.095202,0.560307,0.974016,-0.207655,-0.15843,0.01765,0.025466,0.064278,0.585189,0.386951,0.389749,0.739452,0.729204,0.249058,-0.367944,0.349886,-0.197566,0.0447,0.299203,-0.635336,-0.037031,0.294859,0.461671,-0.217618,0.680832,0.136581,0.539661,0.828916,0.573857,0.681446,0.523965,0.476638,0.134667,-0.194044,-0.440025,0.514171,0.457772,0.516084,0.517951,0.910785,0.083713,0.551068,-0.160306,0.051809,-0.188883,0.640008,-0.283131,-0.037701,-0.009288,-0.120427,0.443882,0.684849,0.483707,-0.190618,0.385678,-0.044985,-0.149951,0.066464,-0.207999,0.285163,0.693042,0.127819,-0.130358],[0.236486,0.111282,0.211619,0.335668,-0.11315,-0.130398,-0.267429,-0.059782,0.521212,1.006855,0.053299,0.092935,0.093079,0.300978,-0.182948,-0.514629,0.713993,0.170783,0.031126,0.425179,-0.927196,-0.193461,-0.020529,0.158901,-0.166716,0.331811,0.220046,0.055076,0.573925,0.340601,0.107179,0.171095,0.236587,0.29462,0.009061,0.315979,-0.035561,-0.087324,-0.205299,0.477471,0.682446,-0.098091,1.021576,-0.41131,0.666944,0.210366,-0.052638,-0.680469,0.037181,0.031164,-0.339176,0.380231,0.486639,0.35224,0.021769,0.195754,0.342331,0.133284,0.146143,0.507461,0.440598,0.55776,-0.600136,-0.068674],[0.115421,-0.178658,-0.021518,-0.059933,-0.181156,0.217102,0.149493,-0.024055,0.020523,-0.124784,0.193687,0.037627,-0.058105,-0.19316,0.13988,-0.084122,-0.073883,-0.117752,0.147099,-0.225673,0.292749,-0.195205,-0.056683,-0.25373,0.10372,0.058081,-0.075076,-0.161008,-0.352969,-0.102449,0.191491,0.09441,0.160787,0.19591,-0.154748,0.366814,0.083473,-0.295841,-0.065901,-0.109876,-0.243208,0.242042,0.019098,0.038391,-0.093772,-0.029787,0.084137,-0.038323,-0.217335,0.005981,-0.047662,0.16985,-0.195997,-0.263031,0.375571,0.025138,-0.174132,0.040215,0.090399,0.351099,-0.205605,-0.067524,0.238345,-0.119876],[-0.321646,0.078388,-0.300824,-0.350082,0.14247,0.116882,0.294939,0.122546,0.052074,0.026703,-0.235726,-0.390259,-0.300176,0.026545,-0.014232,0.151257,-0.202363,-0.11687,0.056094,0.297867,0.190477,-0.194384,-0.414458,-0.033828,-0.181327,-0.197774,0.185343,-0.237372,-0.045552,-0.194488,-0.38796,-0.381848,-0.272434,0.024472,-0.070655,0.240184,-0.111947,-0.146873,-0.369226,-0.300816,-0.141875,0.349332,-0.002268,0.03143,-0.05566,0.112383,-0.052451,0.038364,-0.13393,0.084682,0.326633,-0.159181,-0.408861,-0.118161,0.227701,-0.229452,-0.171377,0.076274,0.165583,-0.096664,0.014933,-0.211968,0.34564,0.017571]],"biases":[0.006106,0.130507,0.131767,-0.223184,-0.169986,-0.085839,0.01619,0.119079,0.134922,-0.198293,0.052047,0.151875,-0.024739,0.10376,0.12199,0.084256,-0.19924,0.113424,-0.005651,-0.197566,-0.15365,-0.072395,0.005789,-0.141696,-0.231222,0.013662,-0.152332,-0.146354,0.084827,-0.036706,-0.134781,-0.094256,0.291057,-0.139518,-0.016893,0.068671,-0.134717,0.144336,-0.17193,-0.104652,0.152405,-0.040153,-0.198591,0.0202,-0.114145,0.042431,0.206506,0.274715,-0.052482,0.051243,0.011929,0.09696,0.057453,0.197912,0.196024,-0.055189,-0.193606,-0.01781,-0.152151,0.023138,0.023567,-0.014673,-0.025173,-0.049646]},{"weights":[[0.052295,0.138648,0.07053,-0.134281,-0.023972,-0.0225,-0.008915,0.077843,-0.285904,-0.107332,0.184627,0.040768,-0.037874,0.075997,0.007853,0.012274,0.312598,0.07695,0.172978,0.014852,-0.291918,-0.112999,0.067153,-0.033241,0.245803,0.148298,-0.171346,0.293628,-0.0839,-0.074977,0.229928,0.264421,0.164015,0.105424,0.078683,0.2654,-0.206317,-0.045566,-0.097637,-0.257861,0.090935,0.00945,-0.018891,-0.041183,0.295628,0.146452,0.009163,-0.0481,0.014638,0.124845,0.073649,0.108364,0.258892,0.100622,0.130771,0.332321,0.262328,0.231853,0.219389,-0.017563,0.056,-0.058293,-0.029486,-0.157719],[0.009894,0.030578,-0.017111,-0.000713,-0.100566,-0.083272,0.122524,0.076453,-0.051438,0.019014,0.107381,-0.017846,-0.020464,0.106673,0.097397,-0.033404,0.009495,-0.098704,-0.038695,0.037048,-0.003521,0.053724,0.060168,0.051653,-0.014266,-0.071597,-0.091225,0.092922,-0.085443,-0.037364,0.10872,-0.055072,0.047087,-0.00999,-0.056399,-0.073942,0.043924,-0.009209,0.135423,-0.095779,-0.060923,-0.032518,-0.096616,0.038792,0.064454,0.126449,0.033937,-0.085986,0.108075,-0.092611,0.006304,0.038561,0.007379,-0.067246,0.042068,0.005668,-0.035886,-0.062808,-0.120755,0.014201,-0.028846,0.089239,0.137588,-0.12132],[0.099634,0.116212,0.100208,-0.085086,-0.088151,0.012433,0.026395,0.278088,-0.190502,0.089826,0.126126,-0.04037,0.07298,0.116368,0.077999,-0.057114,0.259396,0.086128,0.059386,-0.013936,-0.012273,0.089367,-0.035261,-0.11896,0.344435,0.112659,-0.067604,0.27068,-0.059974,-0.007244,0.068347,0.249275,0.227674,0.146412,0.076463,0.182675,-0.145825,-0.087116,-0.041763,-0.077329,-0.108332,0.059988,0.038268,-0.143509,0.195624,0.184373,0.023423,0.007366,0.253973,0.213605,0.048094,0.040987,0.083391,0.095029,0.090605,0.232825,0.313725,0.196717,0.035086,0.001616,0.029893,-0.043258,0.107762,-0.099249],[0.120836,0.253857,0.161454,0.088809,0.124854,-0.089478,-0.027685,0.386778,0.128567,0.250887,0.210315,-0.035837,-0.114534,0.016499,0.283039,0.016527,0.218276,-0.030512,0.253582,-0.087429,0.166584,-0.017826,-0.029047,0.245181,0.277315,-0.100478,0.076708,0.086358,-0.018919,0.032986,0.204187,0.314057,0.225929,0.404226,-0.301843,0.265183,0.121552,-0.358357,0.169301,0.1208,-0.073952,-0.000148,-0.146465,-0.050883,0.458158,0.279033,0.105474,0.009461,0.17307,0.187915,0.09228,-0.021736,0.301954,0.248626,0.291583,0.290923,0.463584,0.327472,0.077279,0.038678,0.037573,-0.080796,0.290917,-0.011962],[0.018049,-0.11054,0.101338,0.036213,0.059699,-0.030904,-0.085508,-0.051452,0.111107,-0.0348,-0.112435,-0.006021,-0.108954,0.079888,0.108166,0.018766,-0.121606,0.123447,0.117913,-0.093794,0.019798,0.120822,0.101386,-0.070013,-0.056396,0.07122,0.06778,0.114636,0.045609,0.102199,-0.040588,-0.066444,-0.036709,0.057605,0.036523,0.065265,0.053016,0.090687,-0.076381,-0.092239,-0.113351,0.105216,-0.073476,0.093125,-0.0821,-0.019662,-0.003071,0.038907,0.032932,0.087573,-0.00225,-0.023942,-0.106005,-0.105146,-0.031366,0.044769,-0.08856,-0.067859,-0.049746,0.056917,-0.082498,-0.11435,0.057478,0.008439],[0.087095,-0.845781,-0.216016,0.183683,0.129569,0.035914,0.323787,-0.122002,0.185846,0.022121,-0.041113,-0.06614,-0.113924,0.302448,-0.202049,0.115233,-0.198074,-0.113143,-0.228968,-0.041607,0.058061,-0.082171,-0.135806,0.177728,-0.256426,0.210565,0.281784,-0.145205,-0.146033,0.048654,-0.337352,-0.091032,-0.354224,-0.524415,0.214366,-0.230661,0.262735,0.038037,-0.126882,-0.009468,-0.11298,0.0179,-0.06951,0.007108,-0.152736,-0.26455,-0.093115,-0.08027,0.103824,0.188609,-0.079773,-0.134214,-0.244662,-0.47038,-0.04298,-0.237827,-0.189959,-0.203985,-0.485565,-0.004121,-0.017295,0.086203,-0.061116,-0.121946],[0.048257,-0.829994,-0.200952,-0.046013,0.359058,0.010936,0.371224,-0.256139,0.572814,0.269925,-0.168192,0.001058,-0.070133,0.182149,-0.209902,0.30018,-0.173474,-0.31624,-0.847034,0.014672,0.006984,-0.031196,0.011273,0.36558,-0.065252,0.062636,0.580996,-0.399161,-0.021457,0.131757,-0.998731,-0.511473,-0.234018,-0.799184,0.200229,-0.274372,0.300718,-0.002742,0.062517,0.131011,0.08775,0.065652,0.088348,0.068176,-0.340698,-0.079351,0.040804,-0.120919,-0.120522,-0.092547,0.050013,0.022856,-0.355188,-0.600874,-0.240152,-0.480811,-0.354068,-0.377848,-0.850089,-0.107154,-0.047589,-0.129091,-0.282953,0.057604],[0.075957,-0.025217,-0.390124,-0.757975,-0.492287,-0.012502,0.012474,0.263243,-0.039447,-0.975954,0.095186,-0.111962,0.034558,-0.123435,-0.096688,-0.558534,0.084312,0.512855,0.214123,0.101716,-0.346155,-0.143186,-0.077634,-0.596135,0.160026,0.167774,0.05532,0.039227,-0.109425,-0.593873,-0.00996,0.027564,-0.110749,-0.235691,0.103215,0.088313,-0.656342,-0.351426,0.065911,-0.341528,-0.127591,-0.076675,0.079257,0.116619,0.135601,-0.091771,0.055924,0.020179,-0.060001,0.100757,0.111772,-0.118841,-0.042501,-0.13704,0.061928,-0.133895,0.046928,0.16946,-0.014559,0.099742,-0.030578,0.078132,0.117257,-0.087527],[-0.003767,-0.023892,-0.07323,-0.194353,-0.128436,0.00603,0.058863,-0.003003,0.184356,-0.151544,0.010251,-0.066563,-0.085809,-0.14256,-0.272796,-0.079366,-0.031262,0.11966,-0.043762,0.047974,0.28317,-0.0511,-0.075253,-0.022429,0.226322,-0.342963,0.131594,0.096375,-0.110198,0.138016,0.049358,0.042279,-0.126515,0.006809,0.101295,0.108587,-0.189801,0.136257,0.261026,0.209694,-0.03388,-0.102251,-0.027615,-0.03747,0.184779,0.382124,-0.010023,0.257823,0.136207,0.087165,-0.106404,-0.03879,-0.097525,-0.061688,-0.04017,0.153222,0.154908,0.025724,-0.031929,-0.043151,-0.055916,-0.034778,0.24086,-0.07443],[0.099036,0.145867,0.591691,-0.60277,-0.690435,0.066369,0.411352,0.219237,0.325798,0.571453,0.068798,-0.065052,0.05509,-0.209018,0.121328,-0.443332,0.025412,-0.049664,0.177353,-0.025885,0.134022,-0.091381,-0.102469,-0.50318,0.346979,-0.544226,0.305726,0.179885,-0.008576,-0.178934,0.32349,0.073751,0.3818,0.317149,0.111239,0.291597,-0.881606,0.312258,0.360958,-0.025299,-0.126109,-0.072559,0.005182,-0.064341,0.384778,0.558376,-0.030814,0.198003,0.326398,-0.063051,-0.034305,-0.086565,0.077766,0.342693,0.081135,0.235325,0.399063,0.333982,0.016598,0.050966,0.027011,-0.090919,0.380488,-0.028253],[-0.120234,0.042572,-0.162106,-0.012178,0.040929,0.060435,0.043128,0.260084,-0.078703,-0.069733,0.069247,0.097418,-0.126793,0.108757,0.015777,0.010769,0.317121,-0.08112,-0.024076,-0.115023,-0.082798,0.057799,0.083253,0.014264,0.16575,-0.076275,-0.159687,0.09784,0.005309,0.043489,0.156129,0.067986,0.217527,-0.083332,0.153733,0.259768,0.139478,0.091139,-0.101631,-0.174869,0.032715,0.032186,-0.100812,-0.138045,0.263195,0.205761,-0.097289,0.080543,0.249802,0.147887,-0.052425,0.022781,0.133447,0.054787,0.169444,0.249408,0.104402,0.170676,-0.02687,-0.022812,-0.094107,-0.135502,0.101785,0.009809],[-0.105683,-0.01092,-0.01723,0.091274,-0.071623,-0.13239,-0.042719,0.319257,-0.182091,-0.177982,-0.007964,-0.064184,-0.010208,0.036587,0.158076,-0.039094,0.135357,-0.013839,0.112314,-0.136512,-0.141596,-0.135006,-0.023514,0.013799,0.067121,0.008003,-0.212812,0.140852,0.023836,-0.085062,0.206805,0.04918,0.202071,-0.018237,-0.130463,0.201748,0.064451,-0.047096,-0.106366,-0.040263,0.046278,0.06668,-0.097541,-0.026675,0.102377,0.219153,-0.133147,0.007823,0.193849,0.193406,-0.096101,-0.054015,0.245926,-0.03273,0.035021,0.261059,0.292721,0.276513,0.050176,0.034577,0.071206,-0.112997,0.028783,0.017662],[-0.052615,0.101691,0.036014,-0.024806,0.068212,-0.131058,-0.11213,0.259351,0.180195,0.138196,0.232722,-0.021495,-0.086855,0.065858,0.074451,-0.138254,0.105252,-0.0318,0.021277,-0.093202,-0.183017,-0.092322,-0.013922,0.031799,0.140621,0.019221,0.044724,0.242999,0.026984,0.012443,-0.094479,0.092762,0.259707,0.15319,-0.010329,0.221706,0.060219,-0.046487,0.092265,-0.060158,-0.087151,0.006344,-0.022311,-0.113292,0.344392,0.254964,0.015546,0.192527,0.080231,0.271877,0.004929,-0.022452,0.024325,-0.028814,0.115225,0.041588,0.311485,0.059123,0.156145,-0.033492,-0.105075,0.014791,0.117822,-0.158848],[-0.04776,0.15943,-0.004439,0.114455,0.164417,-0.038257,0.070904,0.240589,-0.071312,-0.10501,0.171506,-0.084233,-0.084786,-0.036329,0.022949,0.108707,0.132979,0.229646,0.167059,0.014446,0.080665,-0.066717,-0.075137,0.103665,0.281299,-0.090126,-0.01865,0.266581,-0.098997,0.028477,0.130438,0.16733,0.19682,0.138555,0.160128,0.058858,0.027338,-0.127534,0.074599,0.114619,-0.123189,-0.002553,0.086115,-0.126957,0.198988,0.204853,-0.113396,0.032621,0.073944,0.041513,-0.072647,-0.06646,0.098015,-0.052557,0.127228,0.065466,0.169491,0.10786,0.072984,-0.077961,-0.012783,0.090917,0.115,-0.0991],[-0.069842,0.103688,0.012778,0.065815,-0.015233,-0.005634,0.05767,0.254407,-0.252123,-0.097212,0.168021,-0.056361,0.009085,0.107642,-0.037357,0.083301,0.246776,-0.024808,-0.077701,0.052381,0.048906,-0.152683,0.09308,-0.088457,0.156581,-0.020393,-0.039908,0.147542,0.107128,-0.08331,0.071985,-0.011001,0.087272,-0.128623,0.106235,0.100588,0.01518,0.081517,-0.14072,-0.133607,-0.035831,0.058503,-0.012598,0.007339,0.179465,0.200828,-0.0777,-0.037641,0.005489,0.237364,-0.030599,0.086294,0.194097,-0.163585,0.183402,0.199615,0.262068,0.246409,-0.078286,0.031251,0.030358,-0.133427,0.140784,0.088676],[-0.077533,-0.783294,0.046042,0.008179,0.226104,-0.035832,0.459659,-0.240802,0.544799,0.099217,-0.158721,-0.01921,-0.053987,0.151984,-0.209078,0.201294,-0.164219,-0.287282,-0.835029,-0.029964,-0.075534,0.101413,-0.082375,0.292002,-0.368744,0.145396,0.453943,0.015621,0.026911,0.172561,-0.302916,-0.409166,-0.091028,-0.731493,0.324122,-0.022543,0.143754,0.213558,0.055626,0.036027,-0.038242,-0.000779,0.038052,-0.094589,-0.278632,-0.26462,0.07999,-0.029449,-0.19037,-0.194852,-0.050293,0.05541,-0.291891,-0.828497,-0.290495,-0.014671,-0.342621,-0.270351,-0.691634,-0.040984,0.072668,0.002506,-0.144097,-0.133419],[0.009271,-0.18459,-0.189534,0.406855,0.633532,0.11746,0.404546,-0.227547,-0.158015,-0.090542,-0.36238,0.093185,-0.005855,-0.357117,-0.229134,0.31347,-0.174298,-0.032578,-0.079896,0.045672,0.332299,-0.023672,-0.071727,0.400583,-0.161058,-0.438696,-0.166956,0.073437,-0.085603,0.417276,0.012308,-0.217567,-0.207015,-0.345858,0.115415,-0.024408,0.410148,0.047757,-0.109654,0.079522,-0.058952,0.10009,0.035289,-0.058397,-0.085972,-0.11276,0.058145,-0.024957,-0.157028,-0.339349,-0.114098,-0.147693,-0.145752,-0.328102,-0.139296,0.014565,-0.20823,-0.128234,-0.311866,0.086272,-0.032108,0.098245,0.004497,-0.109078],[-0.118507,-0.833763,-0.767392,0.225983,0.163795,-0.12389,-0.773884,-0.275763,0.730165,-0.159466,-0.59864,-0.10538,-0.057617,-0.539473,-0.871256,0.438654,-0.520565,0.223179,-2.094764,0.039292,0.298358,0.081001,0.071849,0.189775,-0.017595,-0.223014,0.748218,-0.035481,-0.149198,0.118837,-0.302952,-0.341524,-0.668006,-1.140273,0.205859,-0.137124,0.280088,-0.160813,0.184884,0.151968,0.078292,-0.048949,-0.033343,0.08096,-0.123666,-0.00179,-0.116797,0.135964,-0.051939,-0.609644,-0.118625,-0.015469,-0.847433,-0.8052,-0.577661,-0.332014,-0.239174,-0.261686,-0.833469,0.049299,-0.079916,-0.010934,0.07746,-0.065243],[-0.036798,-1.007582,0.3465,0.817846,0.716627,-0.034942,-0.35885,-0.57064,0.588869,0.212995,-0.756877,0.010339,0.071563,-0.837768,-0.800252,0.374235,-0.582312,0.327453,-1.59844,-0.026577,0.562581,-0.054369,-0.036311,0.569943,-0.386744,0.320334,0.847953,-0.034501,-0.022152,0.576981,-0.258107,-0.781423,-0.643315,-1.144996,-0.869957,-0.379408,0.595071,0.033912,0.682288,0.668178,-0.124,0.043977,-0.068684,0.075265,-0.619351,-0.147363,-0.016005,0.519915,-0.581559,-0.72912,-0.095343,-0.150132,-0.746978,-1.339347,-0.65401,-0.551584,-0.438491,-0.65336,-1.151549,-0.109298,-0.045429,-0.127818,0.257156,0.057232],[0.113872,0.017743,0.199712,-0.040386,0.368879,-0.109352,-0.260267,0.231867,0.818808,0.263309,0.085264,-0.042106,-0.047155,-0.209762,-0.178237,0.296538,0.124382,-0.325828,-0.217773,0.028916,-0.131113,0.068664,-0.02227,0.334721,0.481534,-0.147429,0.751596,0.380216,-0.064137,0.285137,-0.003351,-0.088019,0.144897,0.055567,-0.006085,0.381293,0.189174,-0.466762,0.540538,0.312816,0.085655,-0.050348,-0.050333,-0.034784,0.398793,0.641332,0.02094,0.756885,0.244996,-0.070981,-0.030538,-0.02556,0.157619,0.168882,-0.030221,0.286758,0.273649,0.034052,-0.15983,0.114916,-0.112222,0.100127,0.563697,-0.004792],[0.027617,-0.350906,-0.494009,0.550129,0.581846,0.064599,0.240606,-0.415038,0.540959,-0.472824,-0.332556,0.011973,0.086412,0.13636,-0.342223,0.711212,-0.275002,0.276533,-1.044036,-0.00638,0.148616,-0.117312,0.019385,0.68046,-0.119009,0.424202,0.421745,-0.136787,0.082389,0.563361,-0.049469,-0.282251,-0.219479,-0.907955,0.146114,-0.160672,0.493212,0.316655,-0.359461,-0.138342,-0.173947,0.045606,-0.084485,-0.059076,-0.13439,-0.082009,-0.103171,0.059771,-0.422126,-0.347137,0.012725,0.079292,-0.313369,-0.832912,-0.418763,0.003967,-0.336039,-0.279298,-0.474093,0.104963,-0.019582,0.091425,-0.144728,0.09957],[0.01439,0.044879,0.089869,-0.085444,-0.006473,-0.107769,-0.022598,0.016163,0.000818,0.124902,-0.058055,-0.085106,-0.023617,-0.00642,0.025895,0.090735,-0.086073,0.050833,-0.121961,0.113736,-0.081093,0.016982,0.073829,0.105042,-0.038645,0.085891,-0.019737,0.06853,-0.100288,-0.034932,0.106594,-0.104923,-0.101199,0.032591,-0.115262,0.086387,-0.011412,-0.083411,-0.042642,0.079825,-0.062175,-0.106441,0.080118,-0.114047,0.012471,-0.002116,0.013669,-0.033575,-0.09077,0.024307,0.049043,-0.042292,0.066474,-0.09451,-0.002067,-0.0605,-0.031621,-0.033127,-0.051514,0.113882,0.070619,-0.088626,-0.064742,0.065357],[-0.120287,0.279247,0.005085,0.059299,-0.127566,-0.046574,0.046273,0.270196,-0.335303,0.08696,0.230821,-0.020545,0.09088,-0.023629,0.407066,-0.047328,0.276187,0.116541,0.102017,-0.021918,0.309405,0.095443,-0.094821,-0.025257,0.318575,-0.093027,-0.112849,0.068193,-0.118705,-0.077347,0.298435,0.36317,0.319023,0.412793,-0.307877,0.185042,-0.024432,-0.103603,0.05311,0.145488,-0.006109,-0.11248,-0.013232,-0.149466,0.339545,0.072398,-0.120868,0.01381,0.257291,0.31341,0.02247,-0.019115,0.431945,0.160359,0.422039,0.234647,0.258388,0.273228,0.114303,-0.09708,-0.041874,0.115396,0.075509,-0.132002],[-0.090837,0.096761,0.0422,-0.054213,-0.016648,0.089874,0.105714,0.271802,-0.176309,0.156381,0.245057,-0.141359,-0.03239,-0.028239,0.147846,0.131197,0.166933,0.364561,0.187172,-0.116554,-0.34814,0.094753,0.003914,-0.06832,0.273122,-0.075442,-0.074811,-0.013175,-0.011409,-0.070998,-0.030124,0.307563,0.149567,0.284362,0.174043,0.114812,-0.091282,-0.233402,0.301388,-0.02126,0.041192,-0.106017,-0.134231,-0.067214,0.226769,0.24396,0.063665,-0.126995,0.06258,0.231883,0.116694,0.103524,0.180825,0.191289,0.134541,0.072167,0.13365,0.102497,0.198664,-0.030279,0.055423,-0.053418,-0.030271,-0.051139],[-0.029108,-0.008639,0.069277,-0.114899,-0.037699,-0.009321,-0.047999,0.027531,-0.020182,0.0336,0.063498,0.015894,0.028532,-0.039103,0.0353,-0.038686,0.053383,0.026224,0.047916,-0.041209,-0.124458,0.022553,0.02311,0.013069,0.115479,0.023076,0.067875,-0.009481,0.101948,-0.108318,-0.012455,-0.109949,0.008085,-0.067975,-0.046673,0.006718,-0.11304,0.106314,-0.13293,-0.112407,-0.025303,0.094291,-0.100531,-0.053823,-0.04376,-0.085239,0.119714,0.051272,0.104554,-0.027832,0.040137,-0.00403,-0.019506,0.1192,0.015933,0.094509,-0.007754,-0.089607,0.115049,0.041009,-0.02078,0.05424,0.103608,0.077933],[-0.086301,0.356728,0.268202,-0.063399,0.169082,-0.105657,-0.474371,0.29864,-0.029329,0.190588,0.262879,0.03307,-0.103403,-0.127314,0.13728,0.105284,0.206597,0.133325,0.215584,0.034882,-0.499985,-0.106386,0.033093,0.089623,0.064734,0.258763,0.019158,0.318826,0.047675,0.085277,0.340802,0.032697,0.351241,0.350498,-0.608583,0.331265,0.037155,-0.218402,0.072946,-0.11649,0.041431,0.029428,0.038583,-0.034602,0.089704,0.212117,-0.039236,0.021584,0.11826,0.03499,0.096703,0.041453,0.116604,0.029196,0.311075,0.231103,0.270217,0.249168,0.299218,0.065556,0.092952,-0.026539,0.122185,0.063201],[0.01708,-0.243446,0.29961,-0.26891,0.146815,-0.052549,-0.631069,-0.050854,0.413038,0.414349,-0.138519,0.036087,-0.000319,-0.309714,-0.128075,0.146168,-0.055295,-0.444805,-0.301224,-0.031541,0.230309,0.032602,0.095955,0.169303,0.091002,-0.13115,0.558836,0.179929,-0.023238,0.409713,-0.136807,-0.178719,0.157865,-0.03484,-0.460945,0.06014,0.152641,0.335772,0.492611,0.266401,-0.140702,-0.008375,-0.095327,-0.110606,0.132181,0.222188,-0.026977,0.306623,-0.026451,-0.085934,0.069111,-0.04838,-0.051025,-0.022111,-0.009804,0.026337,0.132134,0.116488,-0.231225,-0.110642,-0.066071,-0.13844,0.353923,-0.083727],[0.02483,0.190011,0.07967,-0.109913,0.025667,-0.071652,-0.112226,0.16062,0.00621,-0.045545,0.176514,-0.004001,0.04785,-0.023268,-0.031411,-0.008903,0.26432,0.030772,0.149642,0.027108,0.016423,-0.047009,-0.007481,0.000524,0.289298,0.073124,-0.059444,0.258039,-0.046073,0.035421,-0.002426,0.237922,0.273074,0.127575,-0.125726,0.244854,-0.086367,-0.176066,-0.061035,-0.075918,0.066968,-0.009609,-0.144938,0.005897,0.342007,0.385881,-0.007909,0.181672,0.266522,0.04662,-0.063138,-0.011483,0.251871,0.172674,0.126712,0.118873,0.36808,0.263602,0.006701,0.019164,-0.031895,0.023823,0.19422,-0.112014],[0.055501,0.397471,0.615282,-0.293623,-0.406789,0.055494,-0.042493,0.495088,0.201101,0.295067,0.339943,0.052901,0.067455,-0.168222,0.16503,-0.533562,0.480244,-0.535949,0.449691,0.112419,0.280609,-0.131055,0.062673,-0.171994,0.676041,-0.347422,0.14324,0.566566,-0.04723,-0.334913,0.329038,0.426657,0.341471,0.461699,-0.046133,0.553404,-0.445977,0.043631,-0.101076,-0.110828,-0.039026,0.087868,-0.085163,-0.119888,0.580988,0.736263,-0.085242,0.596447,0.46274,0.320675,-0.073393,-0.067883,0.396184,0.75429,0.37462,0.636235,0.607458,0.467442,0.383118,-0.120132,-0.108898,-0.152117,0.577446,-0.040104],[-0.05768,0.228974,0.318935,-0.081097,0.069708,-0.030881,0.282632,0.133927,-0.117102,0.09607,0.211318,-0.139279,0.053721,-0.059796,0.064971,0.092176,0.341976,-0.229278,0.142922,0.090791,-0.330595,-0.027711,-0.070351,-0.057072,0.253727,0.120229,-0.042362,0.204215,0.060362,0.058448,0.117163,0.137396,0.350683,0.171837,-0.022058,0.323805,-0.052996,-0.209129,0.142464,0.039319,0.09264,0.049015,-0.086525,-0.144138,0.386083,0.209618,-0.100238,0.087681,0.160281,0.118538,-0.035229,-0.012363,0.306984,0.237807,0.150454,0.216901,0.377957,0.230365,0.108585,-0.002571,-0.100719,-0.009737,0.297045,-0.03017],[-0.097982,0.411975,0.130479,0.182313,0.071041,0.067226,-0.503007,0.423267,-0.235687,0.149149,0.152438,0.086291,0.008286,0.106635,0.286318,0.141592,0.334827,0.075248,0.03991,0.099584,0.003292,-0.090442,-0.021496,0.106038,0.236844,0.204458,-0.141783,0.199928,-0.036181,0.036895,0.215842,0.361061,0.301354,0.383827,-1.052863,0.186264,0.054003,-0.288389,0.011142,-0.045617,0.01767,-0.044009,-0.004341,0.08696,0.25432,0.259163,0.057962,-0.213908,0.19709,0.2502,-0.028681,0.026033,0.333119,0.285396,0.351055,0.3373,0.190328,0.280201,0.324546,0.037246,0.013402,0.025787,0.230566,-0.085348],[-0.041868,0.173812,-0.032485,0.125681,-0.038777,-0.040121,0.226351,0.177202,-0.24276,0.096053,0.255309,0.065436,-0.040745,0.186191,0.32556,0.127066,0.278779,0.015642,0.181326,-0.132209,0.094869,-0.120478,-0.129865,0.043097,0.126638,0.126389,-0.190827,-0.085581,0.093158,0.072054,0.020811,0.044576,0.263748,0.159007,0.131869,0.244557,0.252148,0.008743,0.068759,0.044245,-0.125641,-0.051587,-0.000367,0.03609,0.233376,-0.137489,0.096797,-0.213775,0.071074,0.190867,-0.082216,-0.113295,0.297596,0.003637,0.18776,0.084671,0.18355,0.091372,0.176726,-0.003316,-0.062198,-0.090808,0.046394,-0.047855],[-0.058865,0.151325,0.040554,0.045306,-0.107259,0.096576,-0.070836,0.279651,-0.005204,-0.134716,0.187523,0.007621,0.101879,-0.022025,0.065662,-0.059582,0.21809,0.062263,-0.067373,-0.085739,0.010784,-0.069205,0.073994,-0.051334,0.275401,-0.02553,-0.121225,0.114219,-0.017344,-0.04411,-0.012631,0.237076,0.185857,-0.014926,-0.081594,0.263964,-0.056821,-0.043024,0.008279,0.054907,-0.113234,-0.098048,0.091948,0.023728,0.255806,0.319255,0.056543,0.050223,0.182789,0.199241,-0.116977,-0.098541,0.149093,-0.065306,0.190713,0.137675,0.286876,0.265331,0.185986,-0.079949,-0.000921,0.012949,0.184021,-0.151159],[0.046784,0.08924,-0.135621,0.17843,0.428326,-0.087242,-0.090506,-0.376689,-0.485231,-0.114881,0.163577,0.003042,-0.046894,0.087879,-0.239493,0.306685,-0.278968,-0.165786,-0.294083,0.108735,0.063815,0.042388,0.017909,0.377106,-0.217443,-0.072829,-0.335243,-0.281359,-0.087199,0.193059,0.365141,0.077399,-0.142544,-0.223279,-0.32376,-0.21721,0.312515,0.208292,-0.111617,-0.006827,-0.113484,-0.087089,0.083924,-0.053778,-0.392948,-0.247214,-0.058639,-0.293875,-0.19406,-0.221182,-0.036616,-0.036948,0.012555,0.052845,0.126499,-0.449817,-0.393894,-0.415699,0.009455,-0.052907,0.04851,-0.103187,-0.316677,0.05474],[0.036633,0.01241,-0.04407,-0.044595,0.001557,0.079055,0.137016,0.104318,-0.049032,-0.117985,0.017831,-0.059603,-0.117671,-0.000942,-0.01051,-0.056982,0.13459,-0.142338,-0.063444,-0.059023,-0.022748,0.059314,0.027216,0.093972,-0.089691,-0.012005,0.017531,-0.012465,0.079718,-0.089541,-0.056074,0.004284,0.100533,0.096198,0.076045,-0.026195,-0.099561,-0.123713,0.043407,0.073382,-0.049676,-0.061696,0.107978,-0.014205,0.137741,0.04283,-0.092336,-0.037252,0.01571,0.033077,0.114208,-0.022281,0.099173,-0.110742,-0.047092,-0.051954,0.111521,0.048975,-0.02822,0.073215,-0.029268,0.077544,0.098488,-0.013292],[-0.097049,-0.639966,-0.812424,0.086494,0.191124,-0.015459,-0.150822,0.00817,0.348924,-0.243015,-0.318777,0.002379,-0.071492,-0.14559,-0.642715,0.123639,-0.481388,0.243913,-0.636984,-0.122698,0.348588,0.079226,0.121191,0.159163,0.013439,-0.164833,0.522544,-0.068817,-0.032295,0.157421,-0.291508,-0.283501,-0.338433,-0.815825,0.065564,-0.230527,0.229204,-0.066668,0.251043,0.198104,-0.165376,0.006813,-0.085857,-0.115264,0.004443,-0.059726,-0.094094,0.076539,-0.070452,-0.224649,0.017263,0.089817,-0.540032,-0.50479,-0.32126,-0.261189,0.030615,-0.306112,-0.402006,-0.05899,-0.04354,-0.081197,-0.044043,0.082645],[0.02158,-0.000678,-0.002574,-0.142601,-0.036828,-0.040261,-0.281712,0.201002,0.102189,-0.06261,0.13978,-0.071901,-0.017095,-0.02959,0.106303,-0.118392,0.212018,0.013436,-0.02815,0.109232,-0.221856,0.0652,-0.116544,-0.128485,0.24223,0.066498,0.083658,0.230665,-0.006941,-0.006413,-0.05563,0.112832,0.098651,-0.082953,0.119957,0.160721,0.094878,-0.314347,-0.052099,-0.10082,0.034208,-0.01783,0.079083,0.06127,0.119478,0.321714,-0.081544,0.050578,0.14487,0.212836,-0.106405,-0.052752,0.171786,0.101903,0.16399,0.187704,0.111275,0.010966,0.196253,0.089238,0.084306,-0.094496,0.186612,-0.103014],[-0.055269,0.186799,-0.024883,-0.004265,0.045722,-0.078157,0.129182,0.429714,-0.201443,0.061338,0.143131,0.103767,0.007792,0.150297,0.288096,0.07528,0.243062,0.226692,0.228184,-0.017901,0.017437,0.074568,-0.040547,-0.096954,0.266073,0.122424,-0.001143,0.195096,-0.011628,-0.044288,0.230321,0.193634,0.222382,0.233355,-0.110015,0.186867,-0.037625,-0.086983,0.058006,0.040752,0.083101,0.018606,-0.026057,-0.032701,0.26628,0.186547,0.002421,-0.257926,0.239446,0.252084,-0.090176,0.070622,0.322516,0.217057,0.413176,0.324345,0.292942,0.325716,0.285377,0.038477,-0.100522,-0.024243,0.029751,0.043145],[0.093401,0.177717,0.202339,0.04263,-0.182918,0.02341,0.11248,0.203842,-0.245063,0.067769,0.264302,0.038416,-0.048967,-0.124699,0.054968,-0.231689,0.309353,-0.04161,0.21589,0.008897,-0.273816,0.072924,-0.084248,-0.147292,0.308302,-0.022228,-0.006663,0.187873,0.098683,-0.185338,0.296748,0.130604,0.207466,0.231592,-0.009639,0.256272,-0.224211,-0.063892,-0.107895,-0.049348,-0.004061,-0.049472,0.091781,-0.1346,0.341718,0.281798,-0.134065,0.107714,0.270806,0.319128,-0.070083,-0.088471,0.228321,0.031208,0.284795,0.183484,0.234435,0.319162,0.240222,0.039829,-0.126617,-0.066048,0.261289,-0.034611],[-0.042274,0.644479,0.487094,-0.189019,-0.124245,0.089936,0.439709,0.631417,0.084061,0.158756,0.464739,-0.04765,-0.009608,-0.162389,0.505184,-0.078047,0.606971,-0.231613,0.525131,0.114377,0.330823,-0.077397,-0.057074,-0.253594,0.475892,-0.290048,0.277909,0.522589,0.029552,-0.071365,0.656702,0.516587,0.52068,0.484105,0.010203,0.720483,-0.189341,0.154326,0.277818,-0.081547,0.030416,-0.081977,0.03655,-0.050393,0.737161,0.604305,-0.011824,0.358018,0.46135,0.48928,0.026327,-0.135673,0.438254,0.525037,0.48926,0.426832,0.665679,0.755116,0.481624,-0.042133,-0.086157,-0.014318,0.836202,-0.019478],[-0.017624,0.039334,0.209617,0.109338,-0.051305,-0.086961,-0.115845,0.301834,0.196116,0.116624,0.076072,-0.079515,0.024772,-0.110731,0.169567,-0.131341,0.325043,-0.037331,0.199445,0.013136,0.156508,0.023597,-0.103273,-0.017868,0.385555,-0.128421,0.066864,0.237879,0.082216,0.030995,0.192236,0.052303,0.066141,0.082294,0.099053,0.343154,0.07017,-0.128854,0.075668,0.17821,-0.096068,-0.109952,-0.012155,-0.131486,0.402099,0.499431,0.005488,0.11268,0.106414,0.131259,-0.021641,-0.076745,0.12453,0.140368,0.135321,0.363231,0.341661,0.109701,0.230515,-0.093127,-0.019306,0.048154,0.388257,-0.068153],[-0.116391,-0.811198,-0.544748,0.17198,0.459717,0.081626,-0.137951,-0.244961,0.578278,-0.143535,-0.137456,-0.061587,-0.068309,-0.10405,-0.316446,0.237566,-0.212042,0.243947,-0.533841,0.033374,0.241224,0.033746,0.054824,0.338983,-0.216848,0.087422,0.376005,-0.125375,-0.039112,0.467192,-0.461968,-0.457192,-0.177337,-0.875843,-0.361005,-0.29628,0.462827,0.287271,-0.04005,0.142564,-0.044522,-0.09034,0.104142,-0.039321,-0.094772,-0.195502,0.016562,0.152305,-0.245185,-0.132498,-0.072872,0.085947,-0.19858,-0.915095,-0.208122,-0.285611,-0.248594,-0.353733,-0.627867,-0.024622,-0.014503,-0.005623,0.037786,-0.079877],[-0.052096,-0.08147,0.070847,-0.216237,0.049664,-0.098667,-0.517493,0.276508,0.362184,0.317393,0.02966,-0.06529,-0.069162,-0.006885,0.181577,0.049562,0.246791,-0.099901,-0.132947,0.100888,0.061426,-0.111063,-0.068225,0.008981,0.276121,-0.574134,0.247932,0.223998,-0.120596,0.112065,-0.153392,-0.061997,0.124025,-0.037299,-0.289582,0.179217,-0.012025,-0.055935,0.249179,0.220605,0.002055,0.014432,-0.069631,-0.049778,0.270728,0.139896,-0.09777,0.113058,0.181883,0.045761,0.071745,0.015786,0.20452,0.12786,-0.017644,0.040705,0.106827,0.2689,-0.275979,0.059057,0.025646,0.019381,0.220624,0.007301],[-0.064357,-0.12777,-0.213354,-0.804032,-0.27876,-0.102268,-0.069816,-0.001148,0.197514,0.044423,0.075478,-0.054573,-0.030058,-0.152355,0.094959,-0.41547,0.063466,0.00253,0.001812,-0.015588,-0.14818,0.064466,0.059793,-0.456056,-0.039357,-0.111414,0.013765,-0.027154,-0.139157,-0.265447,-0.119777,0.156839,-0.158561,-0.397365,0.093477,-0.004395,-0.496098,0.134479,0.136006,-0.311427,-0.01925,-0.036609,-0.002586,0.115316,0.06386,-0.041691,0.077668,0.079277,0.132737,0.021594,0.106958,0.006327,-0.172527,-0.210158,0.05682,-0.057805,0.0754,0.116247,-0.109531,-0.067527,0.005054,-0.016793,0.033191,-0.096276],[-0.029739,-0.21973,0.535598,0.140622,0.019494,0.033586,-0.068747,0.064297,0.593637,0.398251,-0.265861,0.119898,-0.085184,-0.480752,-0.153676,0.088732,0.056659,-0.649446,-0.288516,-0.079715,0.161497,-0.025579,-0.143256,0.109856,0.155255,-0.463262,0.535772,0.354676,0.077339,0.121973,0.026182,-0.303191,0.142636,-0.193161,-0.246475,0.18512,-0.015132,0.197848,0.433493,0.416386,-0.056932,-0.01901,-0.042092,0.023016,0.203171,0.44304,-0.055666,0.520808,0.122405,-0.204278,0.051383,-0.06311,-0.040914,0.015857,-0.243859,0.27216,0.317382,-0.010929,-0.179693,0.040982,0.003556,0.089169,0.504713,0.065929],[0.074021,0.092901,-0.053036,-0.971628,-0.308344,0.064485,-0.297269,0.336494,0.089454,-0.140045,0.109307,-0.098487,0.087577,-0.329916,0.164291,-0.346168,0.229982,0.078759,0.237641,-0.024634,0.398335,0.053823,-0.069227,-0.230702,-0.052063,0.128399,0.045565,-0.067906,-0.08729,-0.064959,0.324399,0.073558,0.360231,-0.465867,0.145945,0.209589,-0.304844,0.339878,0.137268,-0.365603,-0.005456,0.05593,-0.074513,-0.103163,-0.003293,0.128831,-0.027874,0.173791,0.064049,0.138073,-0.091315,0.031386,0.127266,-0.428667,0.253838,0.242912,0.143321,0.388467,0.127111,0.020528,0.116876,0.015126,0.047872,0.013325],[-0.034928,-0.071931,0.040216,0.022652,0.072293,-0.07837,0.059492,0.264591,-0.080637,0.072195,0.139977,0.010404,-0.120355,0.112928,0.023215,-0.059474,0.186199,-0.071953,-0.111712,0.049941,0.122679,-0.140992,-0.112812,0.065448,0.257951,0.053717,-0.095885,0.089103,0.09172,0.041241,-0.077757,0.106809,0.079244,-0.054296,-0.048373,0.18431,0.130773,0.086261,-0.11824,-0.075994,-0.016682,-0.13462,-0.110773,-0.066154,0.064615,0.29293,0.080521,0.144912,0.015655,0.183565,0.014611,-0.136603,0.095905,0.068723,-0.033737,0.031387,0.212691,0.160646,0.083556,-0.098721,0.019237,-0.123363,0.203349,-0.079783],[-0.075815,-0.405899,0.254135,0.010346,0.088383,-0.033496,0.56956,-0.155111,0.699585,0.024813,-0.331484,-0.052052,0.006233,-0.127448,-0.047349,-0.013815,-0.164535,-0.05113,-0.885614,0.013001,-0.206058,-0.0548,0.063795,0.114675,-0.142818,-0.109723,0.55922,0.174852,0.029993,0.070718,-0.255665,-0.542198,0.126494,-0.546822,0.074225,-0.083169,-0.107131,0.415227,0.247235,0.1607,0.103164,0.003369,0.080505,0.05955,-0.188831,-0.182188,0.117672,0.102478,-0.346456,-0.166773,-0.085402,0.056429,-0.024985,-0.488432,-0.113729,-0.065471,-0.199494,-0.021118,-0.433184,-0.032955,-0.043423,0.095997,-0.028777,0.037995],[0.05945,0.123247,-0.097274,0.093693,-0.051193,-0.120338,-0.069358,-0.00941,-0.037607,0.053787,0.121003,-0.013729,-0.068892,0.081744,-0.019871,-0.111656,0.10419,-0.103554,0.084663,0.115698,0.050277,0.108346,-0.018574,0.013487,0.012544,-0.017662,-0.06793,-0.077858,0.014742,0.045364,0.121339,0.047658,0.036038,0.124564,0.082957,-0.054569,0.11764,0.048186,0.022268,-0.063565,0.086477,-0.066521,0.02286,-0.048341,-0.005573,-0.013351,-0.08963,0.112293,0.090956,-0.061121,0.071787,-0.09569,-0.094078,0.006279,-0.008627,-0.064828,-0.106572,-0.103595,0.05633,-0.093243,0.024008,0.112476,-0.060251,-4e-05],[-0.057609,-0.533658,-0.024231,0.436718,0.50902,0.106588,0.497401,-0.609677,0.468824,0.124569,-0.533196,0.11553,0.103071,-0.10612,-0.573734,0.486666,-0.572792,0.18712,-0.983966,0.106613,-0.154328,0.12262,0.097111,0.63359,-0.277857,0.037387,0.336197,-0.249364,0.029029,0.368687,-0.439842,-0.375481,-0.390237,-0.647909,-0.231911,-0.463155,0.550201,-0.0894,0.038884,0.372657,0.045197,-0.067556,-0.116591,0.050771,-0.459151,-0.452243,-0.117209,-0.108813,-0.299952,-0.286119,0.024151,-0.020125,-0.355029,-0.680955,-0.348794,-0.530289,-0.35807,-0.55243,-0.63864,0.022093,-0.007479,-0.039503,-0.141463,0.020726],[-0.042745,-0.604678,0.011354,0.112003,0.233455,-0.114065,0.352331,-0.122579,0.464285,0.217572,-0.143879,-0.055441,0.095712,-0.10186,-0.26352,0.306545,-0.197324,-0.675801,-0.355476,-0.059352,-0.010903,-0.01751,0.047741,0.208125,0.095406,-0.059464,0.509426,-0.146271,0.064348,0.185237,-0.502078,-0.220127,-0.128861,-0.338914,0.503448,-0.220982,0.305983,0.346464,0.150626,0.101572,0.056944,-0.047116,-0.12311,0.063861,-0.121224,0.068763,-0.069239,0.185207,0.082468,-0.023629,0.044334,-0.10334,-0.249699,-0.390684,-0.278962,-0.039653,0.028177,-0.185342,-0.369092,0.085972,-0.003157,0.0428,0.050209,0.072644],[-0.109711,-0.000435,-0.007494,0.063441,-0.090928,0.106918,0.087173,0.218378,-0.109131,-0.00441,0.198086,0.030518,-0.117748,0.038192,0.179632,0.075272,0.254182,0.156757,-0.10228,-0.056835,-0.15058,0.010076,0.113685,0.007847,0.13407,0.034237,-0.193682,0.110239,-0.116249,0.110633,0.062571,0.207937,0.239734,-0.057863,0.040676,0.014941,0.020823,-0.238186,0.156998,0.101197,-0.07888,-0.003585,-0.141065,-0.095501,0.213394,0.114449,-0.088129,-0.053397,0.171623,0.010546,-0.093187,-0.027728,0.164759,0.11844,0.082482,0.099116,0.184984,0.290592,0.087819,-0.024761,-0.037665,-0.097736,-0.029456,0.066772],[0.062001,0.041823,0.179895,-0.001083,-0.156566,-0.088091,-0.096043,0.254803,0.210241,0.326539,0.069667,-0.079493,-0.115298,0.131029,0.007519,-0.134338,0.256088,-0.424223,0.243657,-0.019028,-0.147506,-0.069722,-0.045101,-0.006863,0.271606,-0.161821,0.034807,0.373971,-0.058226,-0.106963,0.127765,0.196823,0.188623,0.226318,0.081678,0.227019,-0.223747,0.224466,0.083762,-0.052056,-0.049614,-0.120042,0.006455,0.015763,0.358001,0.389905,-0.100574,0.393144,0.368894,0.237104,-0.083908,-0.016388,0.249573,0.288808,0.16855,0.384778,0.23528,0.252866,0.147654,-0.078617,-0.1198,0.010003,0.429094,-0.031065],[-0.051588,-0.261422,-0.308185,0.234532,0.124461,0.011343,0.091654,0.082974,0.284256,-0.04864,0.059966,-0.102177,-0.095327,0.136964,0.299279,0.109307,0.17457,0.117671,0.129702,-0.080598,-0.007181,-0.031403,0.069774,0.141593,0.193693,-0.179603,0.046944,-0.038064,-0.08491,-0.029455,-0.343906,0.020035,0.002664,0.080038,-0.01107,0.004332,0.102068,-0.44666,0.051143,0.09132,-0.047625,0.063699,-0.113302,-0.134185,0.157508,0.056943,-0.027931,-0.26868,0.213133,0.122487,0.061843,0.004377,-0.027062,-0.054334,0.208891,-0.138994,0.133079,0.250879,-0.157183,-0.095545,-0.127568,0.047976,-0.191098,0.004867],[-0.054767,-0.473295,-0.053513,0.426697,0.122502,-0.117708,0.042051,-0.212551,0.200879,-0.2741,-0.223475,0.015304,-0.046503,0.190365,-0.138559,0.210472,-0.074778,0.00046,-0.6466,-0.085837,0.226472,-0.001451,-0.150608,0.207221,-0.140144,0.256809,0.173681,-0.168635,-0.079564,0.022955,-0.208495,-0.238033,-0.234954,-0.801559,-0.032154,-0.202557,0.251551,0.165872,-0.572862,-0.144357,-0.008523,-0.030291,-0.13796,0.033661,-0.248585,-0.086712,0.036614,-0.120457,-0.193735,-0.19797,-0.035964,-0.051994,-0.189019,-0.887777,-0.245025,-0.104155,-0.320862,-0.193122,-0.370357,-0.116513,-0.135866,0.069568,-0.205148,-0.071921],[0.117132,-0.071639,-0.038159,-0.175506,0.09406,-0.000545,-0.04899,0.093705,-0.064064,0.172605,0.02619,0.089805,0.082018,-0.007434,0.015805,0.023268,0.27075,-0.138901,-0.01251,-0.115805,-0.023128,-0.029399,-0.066414,-0.088683,0.221468,0.06466,0.079759,0.071485,-0.130237,-0.054727,0.092828,0.058159,0.125157,0.00021,0.033248,0.182599,-0.025322,-0.163859,-0.087418,0.077875,0.058208,-0.074343,-0.150275,-0.036373,0.232912,0.332016,-0.039766,0.146605,0.178097,0.218169,0.036775,-0.086011,0.163618,0.020324,0.068412,0.249472,0.338645,0.249582,0.153081,-0.092308,-0.08257,-0.125196,0.19469,0.060582],[-0.096776,0.537938,0.155377,-0.539023,-0.639381,0.021931,-0.099529,0.349931,0.572288,0.02154,0.415847,-0.095542,0.076742,0.284836,0.33,-0.463755,0.616768,0.193921,0.429927,0.088167,-0.421483,0.128471,0.085276,-0.318066,0.226519,-0.405143,0.472241,0.558149,-0.053569,-0.421971,0.601231,0.31563,0.497829,0.442475,0.078583,0.454538,-0.591603,0.158382,-0.250631,-0.258068,-0.085075,0.018022,-0.122094,0.061051,0.271988,0.332404,-0.066604,-0.102989,0.36581,0.315446,0.080606,0.019676,0.354552,0.443601,0.351018,0.471947,0.444052,0.485926,0.454373,0.037781,-0.117554,0.095542,0.257126,-0.064592],[-0.071611,-0.101897,-0.09419,-0.144143,0.065494,-0.043882,0.028679,0.051892,0.005238,0.007102,0.120751,0.110651,-0.048444,0.032748,0.12214,-0.092222,-0.085517,-0.013961,0.057074,-0.068776,0.01562,-0.029856,0.106078,0.019145,0.135717,-0.045684,0.021874,0.096898,0.021617,0.022668,-0.08869,-0.089905,0.131282,-0.056911,-0.025805,0.063836,0.070252,-0.072725,-0.101319,0.103137,-0.064422,0.075586,0.007471,-0.111336,0.090668,0.01312,-0.119758,-0.098767,-0.05268,-0.061393,0.11723,0.075793,0.13136,0.043336,0.095093,0.011283,-0.030582,-0.013636,-0.010664,0.028244,0.120868,-0.001217,0.123168,0.021755],[0.077283,0.010923,0.011661,-0.044101,-0.013756,-0.016349,0.075258,0.132392,0.035959,0.079976,0.022385,-0.05704,-0.086766,-0.093697,0.051301,-0.062997,0.079216,0.052313,-0.032945,-0.004386,-0.012915,-0.107891,0.033733,0.068061,-0.019672,-0.034459,0.015756,0.095329,-0.053315,-0.011778,0.067903,0.104023,0.068186,0.099997,-0.073339,0.056036,-0.112327,-0.067839,-0.056138,0.085385,0.015226,-0.090628,-0.04646,-0.011912,-0.073321,0.006252,-0.032842,-0.063101,0.074797,0.003701,0.024661,-0.083801,-0.092557,0.006416,-0.081751,-0.098851,-0.026249,-0.036002,-0.083808,-0.112926,-0.086423,-0.123454,-0.076553,0.111744],[0.071024,-0.497775,0.266143,-0.149403,0.074977,0.023961,-0.352939,-0.05324,0.380985,0.362527,-0.208772,-0.057057,-0.100505,-0.323113,-0.433238,0.192698,-0.107262,0.066714,-0.514954,0.080411,0.366285,0.039498,0.059765,0.112419,0.022808,-0.617496,0.388133,0.0452,-0.099579,0.073529,-0.141921,-0.386323,-0.167182,-0.364502,0.020299,0.073661,-0.041959,0.135148,0.137276,0.230718,0.068765,0.056866,-0.03657,0.087424,0.003817,0.178189,-0.038626,0.278081,0.049074,-0.125985,0.024984,-0.034546,-0.41484,-0.399383,-0.36713,-0.123015,0.015489,-0.0008,-0.498343,-0.09654,-0.025029,0.083145,0.251692,-0.046051],[0.052624,0.439895,0.455667,-0.026918,0.055685,0.105517,-0.248813,0.318142,-0.063226,0.371952,0.038287,0.007565,0.056722,-0.457371,-0.057337,-0.022374,0.206569,0.48424,0.085868,-0.113768,0.216152,0.03455,-0.07261,-0.102547,0.058718,-0.012829,0.118528,0.427187,-0.041759,0.044507,0.579594,0.122163,0.139753,0.323468,-0.153761,0.282075,-0.106863,0.084805,0.525888,0.271926,-0.037504,-0.077031,-0.064984,0.096691,0.095445,0.187344,0.117332,0.036598,0.273902,-0.057977,0.116882,-0.056456,0.09705,0.286429,0.032734,0.216381,0.077726,0.173826,0.198999,-0.033672,0.002339,-0.050715,0.42133,-0.028858],[-0.086009,0.212915,0.033132,-0.165718,0.012886,-0.063198,0.07166,0.291206,-0.62722,0.165233,0.016057,-0.073535,-0.022912,-0.229548,0.195827,0.063032,0.08702,0.557455,0.233271,-0.103124,0.297002,0.088481,-0.000696,0.000863,0.21805,-0.000123,-0.481533,0.100947,0.018413,0.18728,0.308949,0.068403,0.242856,0.06659,0.147093,0.130433,0.000955,0.021217,0.344827,0.244769,-0.153989,-0.010127,-0.130618,0.084789,0.145273,0.08526,-0.125063,0.010442,0.063978,-0.013798,0.084276,-0.071567,0.086399,0.160014,0.047874,0.039674,0.189914,0.29453,0.219021,0.016813,0.052156,0.069406,0.273871,-0.127493],[0.024551,-0.629183,-0.141895,0.172299,0.258511,-0.04235,0.165361,-0.116274,0.139185,0.120643,-0.267712,0.045976,-0.028454,-0.292854,-0.194973,0.321538,-0.2846,0.021327,-1.064104,-0.034627,-0.192377,-0.092493,-0.124171,0.190679,-0.138007,-0.033595,0.238328,-0.153224,-0.069342,0.230399,-0.330421,-0.315825,-0.19154,-0.902329,0.095554,-0.216908,0.107149,-0.304727,0.072147,0.170679,0.074398,0.035287,0.00702,0.119447,-0.194949,-0.149279,0.111845,0.200795,-0.273521,-0.103781,-0.094013,0.079115,-0.190042,-0.853652,-0.258242,-0.171705,-0.268188,-0.22152,-0.481498,-0.11049,0.07691,-0.050385,-0.120187,0.103542],[0.092567,-0.102175,-0.219038,0.053028,0.25709,-0.040911,0.403659,0.218252,0.269645,-0.061666,0.253272,-0.047066,0.094328,0.174329,0.036129,-0.229467,0.150939,-0.045604,-0.218882,0.097833,-0.110449,0.021487,0.000168,-0.244196,0.021996,0.210726,0.177467,0.056017,-0.02314,-0.225373,0.080394,0.074602,-0.088478,-0.262144,-0.015249,0.093081,0.118026,-0.030727,-0.017095,-0.011986,0.112065,-0.095356,-0.017854,0.106382,0.167165,-0.017215,0.09293,-0.023724,0.217926,0.184542,0.10496,-0.033139,0.00238,-0.217242,0.302225,0.105774,0.061722,0.21142,-0.175695,-0.069228,-0.012678,-0.001579,0.033364,0.037837]],"biases":[-0.078248,-0.173782,-0.207946,0.106445,0.132478,-0.051532,0.031762,0.214496,0.154218,-0.071578,0.082463,-0.00951,-0.044001,0.093182,0.111812,0.027388,0.071497,0.216173,0.043464,0.028461,-0.137139,-0.122676,-0.115125,0.023015,0.137285,-0.003404,0.027137,0.031253,-0.131723,0.014754,0.016771,0.027074,0.20511,-0.035598,-0.010859,0.240731,0.092456,0.013968,-0.122518,-0.146531,0.090339,-0.00183,-0.08775,-0.122728,0.24654,0.118106,-0.137819,0.031527,0.12002,0.005557,0.007661,-0.037489,0.023802,-0.145312,0.04858,0.24542,0.180025,0.170819,-0.010589,0.006732,-0.100499,-0.071253,-0.025227,0.062601]},{"weights":[[0.05677,0.033588,0.016842,-0.054728,0.030751,0.052193],[0.487202,0.231368,0.269385,0.40524,0.396242,0.362573],[0.671549,0.705722,0.211623,0.508487,0.286786,0.211669],[-0.489396,-0.01993,-0.472863,-0.393837,-0.271445,-0.245094],[-0.168768,-0.105735,-0.373557,-0.350268,-0.029035,-0.089051],[-0.048078,-0.01632,-0.090992,-0.034615,0.051167,-0.022529],[-0.312799,-0.03201,0.408034,-0.242235,-0.163236,-0.087644],[0.184557,0.075609,0.222738,0.193525,0.209246,0.248185],[0.216843,0.440517,0.762103,0.706813,0.523744,0.539222],[0.504873,-0.242713,0.136804,-0.026008,0.068942,-0.068804],[0.032981,0.14361,0.298829,0.184407,0.106156,0.123282],[0.000687,0.023081,-0.085487,-0.017588,-0.106552,-0.087851],[-0.005805,-0.067694,-0.078086,0.126303,0.104088,-0.048756],[-0.583841,0.163667,0.230515,-0.012356,-0.03072,-0.128655],[0.040513,0.010738,0.407216,0.348421,0.179779,0.124247],[-0.108122,0.050728,-0.359935,-0.324936,-0.184283,-0.275785],[0.142134,0.316759,0.266232,0.308548,0.291046,0.169131],[0.314394,-0.723017,-0.048058,0.204425,-0.058652,-0.061274],[0.4615,0.456689,0.973887,0.57055,0.976373,1.039562],[-0.074528,-0.0377,0.012397,-0.052219,-0.082872,0.040569],[-0.576931,0.099308,0.162516,0.292533,-0.210935,-0.040115],[-0.108103,-0.102683,0.026654,-0.064341,0.020643,0.051853],[0.031613,-0.023746,0.021842,-0.058653,0.101659,0.038988],[-0.103932,-0.004428,-0.264621,-0.316532,-0.163243,-0.258331],[0.26448,0.26302,0.184865,0.104489,0.162945,0.278724],[-0.599031,0.177265,-0.173623,0.093531,0.382338,0.358027],[0.323466,0.428831,0.771921,0.814725,0.29808,0.521744],[0.162812,0.235406,0.065182,0.229236,0.330344,0.160227],[-0.13347,-0.12268,0.121304,-0.043638,-0.056019,-0.005166],[0.073628,-0.110865,-0.3561,-0.312052,-0.087073,-0.065432],[0.250349,0.148672,0.145955,0.380767,0.352749,0.207354],[0.207362,0.144648,0.384633,0.178849,0.143344,0.223547],[0.123866,0.146447,0.191145,0.335767,0.051695,0.247628],[0.658471,0.244402,0.465718,0.394698,0.466896,0.524309],[0.034243,-0.195864,0.040412,-0.239604,0.001517,-0.048799],[0.153357,0.225836,0.139032,0.258572,0.25612,0.223251],[-0.342648,-0.192239,-0.300683,-0.433209,-0.143841,-0.140221],[-0.077195,-0.255742,-0.532118,-0.373098,-0.304464,-0.331308],[0.514126,-0.198989,0.02157,-0.040522,0.241198,0.211178],[0.315948,-0.261971,-0.141577,-0.215068,0.085948,-0.096267],[-0.067374,-0.075498,0.0993,-0.060042,0.059536,-0.127722],[0.119771,-0.027366,-0.081929,-0.100442,-0.115092,-0.086669],[0.08261,-0.005031,-0.0345,-0.041922,-0.016978,-0.016272],[0.090065,-0.110938,0.100392,0.052008,-0.027097,-0.036501],[0.334825,0.270715,0.274668,0.186816,0.229915,0.292244],[0.362558,0.342866,0.115458,0.123472,0.263036,0.278059],[0.068428,0.066775,0.10952,0.097696,0.054325,-0.071839],[0.378313,0.343268,-0.077417,0.088366,0.318896,0.164633],[0.222258,0.27254,0.294001,0.108268,0.219446,0.046612],[0.019961,0.285131,0.337745,0.158958,0.234319,0.136367],[-0.082378,-0.047833,-0.061707,0.023472,0.082882,0.074087],[0.021868,0.033932,-0.060042,0.046086,0.087865,-0.048317],[0.076474,0.22491,0.307109,0.383875,0.038907,0.333189],[0.705387,0.438282,0.595574,0.401832,0.423939,0.48796],[0.050966,0.069493,0.37187,0.306535,0.144668,0.295496],[0.117309,0.343387,0.12825,0.272041,0.183957,0.268046],[0.280643,0.236847,0.235847,0.19263,0.181825,0.225621],[0.272761,0.102809,0.310913,0.298699,0.255713,0.087328],[0.307085,0.23023,0.323602,0.32251,0.372222,0.191177],[-0.007237,-0.025314,0.059445,0.045752,-0.001739,-0.052227],[0.013943,-0.081812,0.108512,0.076049,-0.071749,-0.064937],[0.02413,-0.029164,-0.000489,0.009185,-0.022324,0.012572],[0.329449,0.16776,0.057813,0.149769,0.288535,0.225069],[0.057415,-0.023658,0.058723,-0.048615,-0.027266,0.058591]],"biases":[0.076797,0.043285,0.188504,0.271441,0.132325,0.080187]}]},"round":53,"phase":15,"phaseIteration":2,"trained":"pilot","generation":50,"dominanceMetric":"pilotWinRate","dominanceThreshold":0.65,"dominanceReached":false,"candidateSpawns":2,"selectedCandidate":2,"pilotWinRate":0.0,"enemyWinRate":0.6,"averageScore":1495.0,"averageWave":1.9,"averageSteps":212.4,"waveClearRate":0.0,"averageClearSteps":0.0,"enemyDropRate":0.0,"invalidDropRate":0.0,"enemyFireRate":0.5558,"pilotFireRate":0.3534,"pilotShotAccuracy":0.1964,"pilotHits":143,"pilotFires":728}
