{"id":178,"label":"Pilot v178","role":"pilot","model":"sb3-dqn-pilot-v178","actions":["left","right","fire","stay","up","down"],"features":["target_dx","abs_target_dx","threat_dx","threat_y","bullet_ready","alien_count","wave","drop_ready","enemy_shot_ready","fleet_y","lives","danger_shot_dx","danger_shot_y","danger_shot_lane","pilot_bullet_dx","pilot_bullet_y","bee_count","gunship_count","boss_count","ship_y","target_dy","enemy_ship_dx","enemy_ship_y","enemy_ship_role","enemy_ship_fire_ready","enemy_ship_bullet_lane","enemy_ship_bottom"],"network":{"activation":"relu","layers":[{"weights":[[0.023142,-0.556586,0.19378,-0.104704,0.128761,-0.154498,-0.126076,-0.169282,-0.040494,1.018097,-0.251031,0.394617,-0.012604,-0.165442,-0.040609,-0.104106,-0.812566,-0.134849,-0.121338,0.099329,0.085989,-0.040862,0.911695,0.274156,1.005763,-0.035257,-0.655031,0.157039,0.08998,0.673594,-0.018486,1.790648,-0.279614,-0.229608,0.107528,0.064483,-0.247048,0.131822,-0.343113,0.24756,-0.039289,-0.851575,-0.001442,0.160312,0.087382,0.695513,-0.154968,-0.242588,-0.097938,0.48085,0.40538,0.108419,0.169853,-0.587465,-0.062581,0.336955,-0.27301,-0.06964,-0.652183,-0.189983,0.151556,-0.030511,0.012895,0.511702],[-0.465927,-0.017537,0.142871,-0.010959,0.185646,-0.605627,-0.321675,-0.073303,-0.511198,-1.595859,-0.125613,-0.158252,-0.021911,0.073968,0.307679,0.470986,0.155145,-0.627916,-0.043271,-0.02257,-0.197692,0.139964,-1.518148,-0.264599,-0.147815,0.175254,-0.793371,-0.690854,-0.52227,0.621942,-0.146497,0.459181,-0.015119,-0.43587,-0.080553,0.007812,-0.203673,0.000642,-1.624701,0.081062,-0.31484,0.277223,0.085282,-0.139203,-0.117537,0.315909,-0.351117,0.107328,-0.508837,0.831042,0.525194,-0.033022,0.209862,0.453514,-0.28913,0.197067,-0.063021,0.090934,-0.575847,-1.083959,-0.156442,0.124682,-0.619109,-1.013036],[-0.061656,-0.074781,0.07677,-0.106557,0.004189,0.089647,0.17879,-0.039675,0.072938,-0.132269,0.01134,-0.086786,-0.10159,0.070972,-0.037323,-0.087494,-0.099726,-0.440449,0.535551,-0.062159,0.280898,0.278301,0.028234,0.011695,0.007053,0.071551,0.017476,-0.016811,0.032878,0.198092,-0.076754,0.048501,-0.532205,0.227475,-0.088376,0.067963,-0.008466,-0.145048,-0.146782,0.738569,0.073008,0.075277,-0.053305,-0.077692,0.101545,0.163684,0.139815,-0.115817,0.647481,-0.239436,0.568291,0.13893,-0.253047,-0.125188,0.073145,-0.12004,-0.005664,-0.132025,-0.043522,0.685071,-0.042303,0.069172,0.194532,0.139027],[0.03358,-0.153258,0.180565,-0.154327,0.06341,0.252393,-0.032894,-0.054006,0.00933,-0.021295,-0.031142,0.32939,-0.030527,-0.004047,-0.117914,-0.945124,-0.02404,-0.165804,-0.189516,0.051789,0.020757,-0.192715,0.116277,-0.011918,-0.114906,0.006061,0.030087,0.325495,0.159561,-0.230247,-0.049961,0.00752,0.029262,0.286687,0.221037,-0.150645,0.116823,-0.188235,0.129446,-0.082198,-0.090534,-0.016325,-0.856179,-0.035182,0.083681,0.196865,0.232066,0.195811,0.568774,0.049329,-0.184418,-0.557794,0.116291,0.233272,-0.118155,0.228925,0.165738,-0.092745,0.3212,0.163314,0.018326,0.168138,0.169889,0.074604],[-0.184947,-0.114721,0.026327,0.036805,-0.135171,0.142627,0.057702,0.026887,-0.040041,0.202447,-0.005254,-0.026509,0.072436,-0.127337,0.219594,-0.019832,-0.075622,0.001308,-0.05844,-0.044326,-0.003429,0.03603,0.031672,0.175939,-0.051574,0.171372,0.252674,-0.491367,-0.415149,-0.173196,0.067832,-0.035049,0.201254,-0.168788,-0.019795,-0.058108,0.069187,-0.118692,0.222183,0.091413,0.016303,-0.095989,-0.020909,-0.064169,0.092483,-0.066338,-0.143066,-0.065555,-0.021644,0.064345,-0.073739,-0.054061,-0.02738,0.21774,-0.087521,-0.12653,-0.60875,0.083971,-0.214092,-0.154982,-0.155839,0.029368,-0.063843,0.011274],[0.356472,0.253427,0.530748,-0.140177,0.360394,0.514791,0.575108,-0.068464,0.41413,-0.342886,0.583616,-0.029352,-0.0802,-0.16739,-0.463896,0.148635,-0.527977,-0.489992,0.517484,-0.052437,0.303228,0.4658,0.54216,0.119906,-0.309289,-0.034807,0.429797,-0.201285,0.455871,-0.396096,0.122873,-0.232324,0.515809,0.612381,-0.484514,-0.175807,-0.322856,-0.145567,0.154855,-0.071724,0.193914,-0.619601,0.462579,0.20338,-0.046241,-0.443372,0.402544,0.618463,-0.029851,0.168553,-0.159012,-0.196546,0.633893,0.314323,0.107615,0.168264,0.169522,-0.228159,0.248685,-0.630784,-0.097413,0.082093,0.566464,0.529962],[0.027381,-0.225904,0.088219,-0.08436,-0.305071,0.158172,-0.174375,0.184158,0.112842,-0.183733,-0.015748,0.432793,-0.060251,-0.054958,-0.260508,0.316694,-0.09648,0.395247,-0.095742,0.088439,-0.027559,-0.090749,-0.110212,0.025219,0.052178,0.133818,0.018733,-0.251932,0.025582,0.016692,-0.209289,0.010456,0.106875,0.071958,0.215402,-0.209188,0.267794,-0.046399,0.140346,-0.44486,-0.132543,0.073336,0.312455,0.184721,0.110898,0.169283,0.08203,0.375548,-0.085865,-0.199431,-0.100378,0.14045,0.186336,-0.048859,-0.220542,-0.038698,-0.01296,0.071746,-0.032079,-0.1509,-0.137982,0.10603,0.137393,-0.022354],[0.249842,0.20339,0.090409,-0.032248,0.114314,-0.04159,0.249562,-0.18801,0.070267,0.351833,0.153695,0.093084,0.012547,-0.075734,0.348763,-0.311561,0.326508,0.387752,-0.045163,-0.070689,0.203277,0.166968,0.000604,0.186104,0.034623,-0.052583,-0.105136,0.195492,-0.131813,-0.071934,-0.000276,0.072282,-0.06616,0.029762,0.203028,0.029233,0.096283,-0.156361,0.092244,0.228963,0.242163,0.035951,-0.063492,0.133659,-0.086643,-0.049367,0.101752,0.051405,-0.263347,0.041242,0.139404,0.039516,0.018452,-0.286547,-0.181923,0.189236,0.018993,-0.231067,-0.086862,-0.01456,-0.196583,-0.023588,-0.199531,0.119006],[0.185813,0.144918,-0.070099,-0.186066,0.164144,0.115135,0.320132,0.010166,0.015433,0.096645,0.25194,-0.011426,-0.167241,0.079156,0.120953,-0.076916,0.309951,0.405692,0.034444,-0.216107,-0.045463,0.146449,-0.04446,0.224256,-0.203892,0.035852,0.033377,-0.098635,-0.016101,-0.074703,-0.196405,0.380468,0.006293,0.128173,0.200802,-0.196078,0.090571,-0.082223,0.18916,-0.063248,-0.03825,0.128647,0.086086,0.215145,-0.199448,0.10962,0.164658,-0.045554,-0.143101,0.037572,0.079364,-0.160108,-0.1398,-0.200153,0.047314,0.184789,0.113979,-0.064315,0.113828,0.165919,0.015018,-0.184822,-0.022155,0.029549],[-0.314147,-0.107711,-0.399501,-0.163728,-0.239899,-0.369719,-0.292122,0.105414,-0.194323,0.440552,-0.134176,0.306558,-0.105757,0.017052,0.092837,-0.240894,0.552038,0.568846,-0.146777,-0.181531,-0.305827,-0.318659,-0.025502,-0.061648,0.107836,0.030244,-0.148383,-0.119081,-0.253304,0.365445,-0.076012,-0.009938,0.052644,-0.039645,0.571342,-0.177832,0.429751,-0.175497,-0.05011,-0.131761,-0.035477,0.847425,-0.126233,-0.12965,-0.17792,0.49521,-0.036853,-0.50435,-0.067555,-0.388244,0.179081,-0.156189,-0.505808,-0.339759,0.041043,-0.259022,-0.060942,-0.040941,-0.22309,0.272412,-0.1197,-0.08012,-0.075503,-0.150892],[0.076781,0.162273,0.259279,-0.210212,0.298028,0.051046,0.125717,-0.03954,0.175423,-0.173156,0.28642,-0.037469,-0.140058,-0.045725,0.299765,0.472815,-0.053663,-0.021083,0.12011,0.060637,0.135876,-0.05436,0.170709,-0.062909,0.168873,0.040218,0.265747,0.042954,0.032282,0.017294,-0.000244,0.190926,-0.030311,0.180118,-0.329529,0.140334,0.15561,-0.139334,-0.076951,0.004883,0.137111,0.088574,-0.106778,0.246929,0.010582,-0.16779,-0.078299,0.254449,-0.100844,0.294181,-0.428694,0.005895,0.361291,-0.145289,0.006146,0.195855,-0.232808,-0.071839,0.283334,0.006913,0.038692,-0.203876,0.048559,0.16102],[0.033745,0.187236,0.078821,0.118689,-0.07836,0.195118,0.013492,-0.018799,-0.042641,-0.106078,0.203663,-0.177465,-0.032101,-0.120116,-0.052594,-0.014886,0.048459,-0.221311,0.212149,-0.148272,0.139232,0.327206,0.071941,-0.052766,0.552148,-0.040284,0.249592,-0.11538,-0.104522,0.194063,0.054316,-0.088524,-0.427765,-0.017763,-0.085989,-0.107687,0.096682,0.099929,-0.038894,0.462797,0.032342,-0.237847,0.125154,-0.051508,-0.150958,-0.344762,0.264986,-0.020426,0.266139,-0.192471,0.273833,0.164757,-0.004182,-0.11905,-0.12606,-0.087118,0.12186,0.052507,-0.178102,0.60202,0.087705,-0.049237,0.090804,-0.072665],[-0.074216,0.016743,5.3e-05,-0.163374,-0.227421,-0.073983,-0.206391,-0.117491,0.119982,-0.162187,0.121164,0.225417,-0.164533,0.097433,0.002083,-0.796589,0.284277,0.295716,-0.329619,-0.096334,-0.089288,-0.758431,-0.017331,0.240678,-0.155898,0.082075,-0.292914,-0.126346,-0.063185,-0.021362,0.104597,0.051229,0.274281,0.197123,0.279584,0.068758,-0.128592,-0.113999,-0.121277,-0.44997,-0.104872,-0.266686,-0.875955,0.003561,-0.183804,0.009198,-0.200555,-0.169521,0.260369,-0.007204,0.018278,-0.359211,0.049745,0.159096,-0.000111,0.181536,-0.006591,0.069463,0.162459,0.087604,0.021499,-0.129292,-0.32781,0.064497],[-0.305351,-0.034348,0.154676,0.039937,-0.042494,0.106311,-0.248656,0.130579,0.25145,0.766006,0.139453,0.409787,-0.056204,-0.16098,0.120317,-0.307659,1.087162,0.410629,-1.61319,0.162979,0.023594,-0.437984,-0.46534,-0.054983,-0.163906,0.032743,-1.199409,0.13099,-0.799125,0.116956,-0.11794,0.492111,-0.22493,-0.222897,0.13823,-0.002584,0.130788,-0.168353,-0.392548,0.174923,0.240312,0.33716,-0.04769,-0.48124,0.045197,0.524543,-0.459495,-0.349994,0.016739,0.268527,-1.422754,-0.142962,0.119572,0.454774,0.105194,-0.236446,-0.259051,0.06167,0.116173,-0.172176,0.131677,0.188156,-0.874923,-0.176043],[0.103135,-0.00374,0.133313,-0.060113,0.077695,0.110258,-0.101552,-0.075905,0.073314,-0.003082,-0.330268,0.014533,-0.007322,-0.110949,-0.053512,-0.262597,-0.447409,0.201469,-0.049463,-0.045319,0.017645,0.185865,-0.058898,-0.126534,-0.541481,-0.508117,-0.153075,0.560063,-0.051295,-0.231611,0.166554,-0.158344,-0.178761,0.134247,0.129465,-0.070324,0.454897,-0.046381,0.164086,0.383864,-0.054874,-0.002245,0.312718,-0.122903,-0.081809,0.018414,0.191153,-0.063976,-0.072557,-0.023302,-0.012985,1.109018,-0.013483,-0.192903,0.010204,0.183393,0.342075,0.129213,0.215927,-0.056793,-0.004749,-0.165094,0.049932,-0.152405],[-0.143916,0.287407,-0.4032,0.131758,0.019688,-0.411019,0.168106,-0.038679,-0.277628,-0.117082,-0.135861,-0.211414,0.188923,0.096534,-1.438843,0.075636,0.604065,-0.175669,-0.036393,-0.022652,-0.548017,-0.179833,-0.322969,-0.991675,0.306861,-4.687827,-0.167004,1.283124,0.805585,0.488602,0.009229,0.348159,0.455798,-0.055759,0.367717,0.090396,0.212278,0.175583,-0.426238,-0.097157,-0.661451,0.451078,-0.229548,-0.995802,-0.109467,-0.643337,0.346715,-0.12029,-0.176024,0.804609,-0.426553,-1.957642,0.024963,0.7866,0.000966,-0.245318,-0.114997,0.084844,-0.248312,-0.202788,0.15465,0.120054,0.09509,-0.469273],[0.409177,0.393902,0.500046,0.154129,0.411195,0.454375,0.340124,0.012363,0.553104,-0.129656,0.517877,-0.161143,0.092543,-0.033477,-0.267242,0.224774,-0.544593,-0.418979,0.195849,-0.074039,0.503479,0.402529,0.519325,0.408425,-0.183869,0.051692,0.345927,-0.083298,0.392558,-0.411359,-0.167236,-0.372863,0.545807,0.666743,-0.471741,-0.073022,-0.358112,0.123291,0.06748,-0.095161,0.428245,-0.599259,0.4156,0.274697,0.013479,-0.470208,0.609752,0.313616,-0.093087,0.334142,-0.185902,-0.070928,0.525592,0.188092,-0.040554,0.457113,0.421315,-0.111146,0.588785,-0.502003,-0.199271,0.087987,0.300735,0.618335],[0.481959,0.032686,0.423245,-0.017191,0.318783,0.181023,0.259067,0.159322,0.33816,-0.617362,0.087425,0.525405,0.031253,-0.077322,-0.534007,0.517549,-0.652857,-0.348515,0.500232,-0.189922,0.236006,0.311736,0.349513,-0.019036,-0.034011,-0.10481,0.111251,-0.03441,0.606835,-0.399473,-0.027952,-0.453114,0.470503,0.255151,-0.034304,-0.178162,-0.214041,-0.165901,0.517304,-0.130833,0.076224,-0.448503,0.829368,0.176193,-0.195108,-0.416444,0.238516,0.873662,-0.098628,-0.208905,-0.83637,-0.085574,0.554014,0.144414,-0.045313,0.375524,0.238994,0.033464,0.465931,-0.539873,-0.090773,0.003628,0.702562,0.358241],[-0.210393,-1.545337,-0.674515,0.144216,-0.586794,-0.48374,-0.904716,0.007269,-0.373208,-1.131769,-0.606512,1.389133,-0.091663,0.018802,-0.071574,1.161725,0.531253,0.413877,-0.276495,-0.019141,-0.412056,-0.597369,-0.06697,-0.734595,0.069881,-0.358898,-0.416875,0.124539,-0.374279,-0.103128,0.189148,-0.127354,-0.182839,-0.530874,0.86607,0.164008,-0.238405,-0.002875,0.989851,-1.070875,-0.949331,0.332365,0.002669,0.779612,-0.2083,-0.186496,-0.69458,1.761129,-0.564317,-0.885684,-0.213387,0.020433,0.072252,-0.230887,-0.203882,-0.247065,0.208129,0.090807,-0.647397,-0.318982,0.166571,-0.141396,-0.852512,-0.253659],[0.215969,0.030032,-0.117438,-0.065313,0.006354,0.151716,0.137225,-0.08659,-0.022967,0.029166,-0.035614,0.066329,0.061725,-0.120517,0.209143,-0.190046,-0.071562,0.005434,-0.038733,0.108309,0.239936,-0.171196,-0.011004,-0.000919,-0.138226,0.129037,-0.098692,-0.112306,0.079905,0.101282,-0.19122,0.195823,0.122562,-0.193595,0.141384,-0.042203,-0.18355,-0.190088,0.042421,-0.034905,-0.132248,0.247863,0.148966,-0.001802,-0.072263,-0.067224,0.017313,0.092442,-0.082341,-0.173863,0.051132,0.062711,-0.217473,-0.232781,-0.179258,0.335352,-0.246584,-0.15654,-0.067713,0.009951,-0.138953,-0.156058,0.003926,-0.128678],[-0.280989,0.556253,-0.294878,-0.157953,-0.133072,-0.050518,-0.20136,0.052614,-0.43103,-0.083236,0.018081,-0.354618,-0.165851,0.12599,-0.536051,-0.189113,0.022729,-0.616663,-0.333912,0.048111,-0.066843,-0.101949,-0.016431,-0.443461,-0.072542,0.250019,-0.043959,0.20883,0.084014,0.206971,0.048347,-0.17007,0.085025,0.21562,0.315877,0.141344,0.215133,-0.126527,-0.157891,-0.445822,-0.273735,0.225659,0.151646,-0.45146,0.118982,0.167062,-0.021576,-0.188527,-0.076345,0.193497,0.035359,0.060531,0.073323,0.049209,0.162546,-0.366508,0.065205,0.106002,0.040155,0.019215,0.20871,0.181336,-0.090892,-0.026997],[-0.020411,-0.434014,0.278338,-0.074656,0.282194,-0.451458,-0.13512,0.199546,0.157814,1.033491,-0.009574,0.425948,-0.071347,0.063681,0.184448,-0.243127,-0.786203,-0.068446,0.018776,0.12057,-0.033719,-0.019269,0.797678,0.230439,1.144714,0.046959,-0.543222,0.316621,-0.05078,0.735239,-0.079292,1.765583,-0.160632,-0.242646,0.040443,-0.007519,-0.230551,-0.187541,-0.432467,0.344933,-0.10765,-0.915969,0.220873,-0.002947,-0.062436,0.706782,0.121282,-0.086346,-0.369139,0.426355,0.310362,0.348234,-0.056014,-0.493404,0.04695,0.188487,-0.202084,0.120933,-0.748321,-0.070482,0.081384,0.072345,-0.198715,0.461833],[0.049018,0.385893,0.123125,-0.184723,0.109661,0.134809,0.065563,-0.052127,-0.046638,-0.008414,-0.105282,-0.52911,-0.148304,0.01132,-0.152714,-0.46301,-0.086187,-0.421084,-0.380142,-0.213184,-0.050094,-0.199981,-0.018568,0.005095,-0.020162,0.286038,-0.222586,-0.078687,-0.119298,0.301174,-0.196021,-0.203389,0.013881,0.146685,0.221294,0.13415,-0.197924,0.088797,-0.044823,-0.167099,-0.00584,0.296073,-0.17472,0.012335,0.17056,0.264968,0.039444,-0.315811,-0.112061,0.25466,0.266021,-0.109933,-0.248091,-0.044197,-0.078752,-0.311044,-0.246076,-0.021383,0.086439,-0.148907,-0.188778,-0.142546,-0.745822,-0.06402],[0.198459,-0.08889,0.179689,0.100505,-0.340184,0.015742,-0.044731,-0.235079,0.232362,0.13449,0.08597,0.329813,0.13341,-0.173597,0.190238,0.487168,0.342853,0.032869,0.081469,-0.167067,0.102355,-0.341269,0.067312,-0.008335,-0.473372,0.137781,-0.354206,-0.061994,-0.37156,0.211835,-0.097448,-0.149482,-0.377147,0.011134,0.225167,0.127028,-0.482064,0.020931,-0.130589,-0.644996,0.056587,0.307479,0.329407,-0.951412,-0.1649,0.208299,-0.170117,0.01231,0.137482,0.338744,-0.357806,0.018793,0.093996,0.454753,0.068028,0.206083,0.411872,0.071284,-0.622096,-0.216469,0.073498,0.114758,0.322217,0.263373],[0.05262,0.147398,0.044646,0.099232,-0.182064,0.145839,0.023496,-0.032937,0.016862,0.03891,0.230418,-0.067885,-0.090078,-0.027383,0.001108,0.271109,-0.453729,-0.137333,-0.113778,-0.004129,0.063554,-0.095761,-0.021393,-0.219365,0.192505,-0.073393,-0.004422,0.051814,0.177746,0.212406,-0.110335,-0.145477,-0.31857,-0.164799,0.251579,-0.06273,-0.03536,0.085266,-0.02035,0.098887,0.077943,0.087498,0.23432,-0.472417,-0.120002,0.001398,-0.145357,-0.208979,-0.106814,-0.041919,-0.555722,0.026569,-0.06923,0.016473,0.085236,0.146421,0.480161,0.019977,-0.119907,0.105063,0.048283,-0.142784,0.161632,0.039304],[0.060417,0.298223,0.057697,-0.028333,0.193346,0.091835,0.149387,0.177495,0.158828,-0.139644,0.277887,0.011447,-0.180396,-0.083869,-0.135047,-0.045132,-0.173143,0.006556,0.033222,-0.045023,-0.080019,0.067248,0.124903,-0.096449,0.363322,0.293782,0.412865,0.503272,0.224603,0.319136,-0.169651,-0.08462,-0.251389,0.175266,-0.599133,0.122728,0.701536,-0.108244,0.04852,0.082647,0.197555,0.004012,0.003132,-0.253354,-0.096766,0.509565,-0.273935,-0.069839,0.002646,-0.222525,-0.345869,0.05105,-0.054854,0.187454,-0.176361,-0.170068,0.134164,-0.169197,-0.043363,-0.030736,-0.069619,-0.169333,0.025785,0.089864],[-0.230464,0.074209,0.071679,0.107145,-0.138479,-0.097665,0.087689,-0.148223,-0.15164,0.143515,0.013056,-0.417966,0.028637,-0.170875,-0.048646,-0.232674,-0.145737,-0.270542,-0.343836,-0.009191,0.114044,-0.343095,-0.080195,0.168908,-0.104119,0.252606,-0.250189,0.000861,-0.184352,0.300005,0.002832,-0.047665,0.182913,-0.192821,0.116249,-0.201376,-0.142554,-0.033249,-0.136781,-0.352868,-0.02865,0.148105,-0.021662,-0.12764,-0.127394,0.278672,-0.101267,-0.211109,0.059901,-0.057169,0.344202,-0.037074,-0.373247,-0.244434,0.070406,-0.08303,0.046873,0.076028,0.252592,-0.149151,-0.054716,-0.146917,-0.541532,0.114287]],"biases":[0.08909,-0.110459,0.085197,-0.163036,0.00564,0.083235,0.152359,-0.005503,0.143999,0.382161,0.222467,-0.066994,-0.180096,-0.061325,0.248551,-0.180143,0.381311,0.025565,-0.0089,-0.204915,0.237078,-0.189229,-0.040904,0.377234,-0.038249,-0.152227,-0.099421,-0.072827,-0.01853,0.015492,0.085668,0.135766,0.236014,-0.13687,0.18926,-0.056858,0.013932,-0.102807,0.112478,0.22334,-0.044668,0.340917,-0.15917,-0.008576,0.034147,0.208926,-0.058702,-0.159642,-0.302791,0.205566,-0.135656,0.139392,-0.281365,-0.118229,-0.237933,0.136817,-0.042007,-0.138619,-0.080166,0.187217,0.137215,-0.096378,-0.166746,0.012152]},{"weights":[[0.003147,-0.35658,0.039091,0.008735,0.135767,0.043303,-0.045401,0.24448,0.317195,0.078314,0.523755,-0.004978,-0.725083,0.111715,0.202308,-0.093612,0.064365,0.157256,0.396098,-0.183237,0.095069,0.224411,-0.117612,0.017925,0.116244,0.109962,-0.089222,0.011521,0.226706,0.25595,0.156715,0.047825,0.106366,0.029547,0.103458,0.010053,0.16288,-0.043583,-0.180037,-0.131471,-0.059604,0.21807,-0.290445,0.301763,0.447413,0.070066,0.046985,0.393981,0.365825,0.132502,0.137839,0.31317,0.000709,-0.088218,0.056189,-0.013778,-0.035182,-0.122251,0.220792,0.041359,0.015432,0.448001,0.125943,0.275755],[-0.005079,0.49484,-0.20485,0.016408,0.175151,-0.043934,-0.0123,0.290726,0.137783,-0.401286,0.191916,-0.50173,0.192194,0.284876,0.101714,0.018017,0.093818,0.125636,0.013227,-0.35267,-0.461996,0.230851,-0.079285,-0.120059,0.324063,0.121444,-0.234614,-0.023152,-0.309779,-0.063317,0.157674,-0.033195,0.16186,-0.183064,-0.062183,-0.042672,0.003942,-0.003087,0.069336,0.221241,0.000971,0.001251,0.186212,0.022527,0.165944,-0.015046,0.238946,0.027543,0.177004,0.15981,-0.06092,-0.406332,-0.180758,0.133572,-0.036283,0.1821,0.166268,0.092477,0.026419,0.105263,-0.114558,0.107051,0.254959,0.302041],[0.208265,0.086667,-0.069071,0.085503,0.050473,-0.049328,0.050199,0.25974,0.163187,0.143754,0.285971,0.179762,0.155344,-0.046068,0.213602,0.092814,0.053464,-0.017294,0.331751,0.395707,0.074078,0.373502,0.177069,0.216152,0.025353,0.27677,0.112347,0.031822,0.172109,0.211763,0.119085,-0.023698,-0.114966,0.002168,-0.118043,0.059559,0.135663,-0.129971,-0.042557,-0.022489,0.12153,0.182423,0.120301,0.27152,0.240953,0.006939,-0.067083,0.273112,0.177128,0.139507,0.168516,0.050119,-0.098799,0.222825,0.023646,-0.241814,-0.043969,0.053737,0.170303,-0.091831,-0.014334,0.14111,0.234154,0.037172],[-0.077931,0.029825,0.05335,0.043379,-0.001632,-0.016655,-0.10973,-0.007131,0.038167,-0.007183,-0.043713,0.113237,0.073088,-0.102663,-0.094438,0.009261,-0.002136,0.118654,-0.034248,-0.044933,-0.02439,-0.10919,-0.006132,-0.02039,0.067173,0.043825,-0.086286,0.081504,-0.101206,0.005496,0.003318,-0.090429,-0.025855,0.02405,-0.052864,0.004752,-0.089644,-0.025478,0.103266,-0.05078,0.120486,-0.02237,-0.129323,-0.001172,0.113925,-0.001869,0.000815,-0.024108,0.049867,0.022158,0.049037,-0.041997,-0.111323,0.038678,0.050991,-0.06706,0.096201,0.038891,0.092621,-0.037934,-0.086058,-0.025778,-0.036131,0.025611],[-0.080246,0.064653,0.09243,-0.169068,-0.163739,-0.030895,-0.150737,0.175794,0.289389,0.074961,0.158565,0.29422,0.013619,0.08999,0.088099,0.0863,0.107889,0.042029,0.109283,0.10031,0.109634,0.269417,0.16834,-0.018146,-0.030711,-0.229685,-0.112568,0.019772,0.104911,0.242429,0.340641,0.070504,-0.422913,-0.045305,-0.169532,0.087978,-0.020313,0.069707,-0.209914,-0.054272,0.007131,0.066042,-0.110822,0.229552,0.157907,-0.054768,-0.321863,0.104544,0.267245,0.190567,0.034945,-0.134387,-0.086445,0.168576,-0.087603,-0.236561,0.221948,0.252878,0.249569,-0.031853,0.061863,0.204711,0.092318,0.239903],[0.078978,0.134098,-0.00592,0.15053,0.07104,-0.091565,-0.118912,0.310889,0.089694,-0.147532,0.10008,-0.017495,0.160985,-0.155903,0.334592,-0.081299,-0.09495,0.201428,0.137421,-0.079473,0.006717,0.110015,-0.113238,0.110491,0.220402,0.229101,-0.10931,-0.013599,0.109949,0.179309,0.243772,-0.094599,0.048061,0.01877,-0.108758,0.007829,0.158063,-0.016696,0.10989,-0.057665,-0.088492,0.264474,0.157677,0.349184,0.143218,-0.148482,-0.053364,0.201294,0.189355,0.043335,-0.087561,-0.011732,-0.119969,0.128269,-0.042137,0.152485,0.169799,0.077583,0.192889,-0.06483,-0.034735,0.141917,0.161191,0.213441],[-0.03912,0.113726,0.146742,0.091969,0.101345,-0.024581,-0.118437,0.168561,0.336141,-0.038801,0.416381,-0.119057,-0.044275,0.076194,0.228373,-0.055442,0.02734,0.240277,0.380186,-0.049723,-0.064667,0.01726,0.013287,-0.19551,-0.048608,-0.178142,0.132765,-0.108969,-0.005773,0.364369,0.286239,-0.125801,-0.095098,0.005257,0.063244,0.049694,0.247712,0.023029,-0.139227,0.081463,0.061036,0.115696,-0.035221,0.29727,0.327391,-0.013479,-0.221876,0.334355,0.380938,-0.194009,-0.137498,-0.051547,-0.137427,-0.018438,-0.072171,-0.070452,0.054632,0.260844,0.329197,-0.025084,-0.075545,0.291258,0.162679,0.201704],[0.021947,0.141806,0.089963,-0.091201,0.080987,-0.111962,0.040971,0.076458,0.017746,0.000566,0.059918,0.024544,0.123208,0.197622,0.047212,-0.105977,-0.078442,0.096043,0.113482,0.096617,-0.006626,0.015857,-0.038876,-0.041672,-0.03905,-0.044395,-0.080922,0.047472,0.063907,0.02665,-0.12233,0.013933,-0.071455,-0.029938,-0.095906,-0.070331,0.07542,0.116619,0.041904,-0.088837,0.055924,0.080604,-0.120089,0.095096,0.158828,-0.102867,-0.017203,0.011209,-0.038045,-0.016107,-0.054005,-0.040923,-0.050067,0.130995,-0.030578,0.130268,0.023517,-0.071559,0.100397,0.010767,-0.07817,0.070582,-0.082031,0.057826],[0.116367,-0.364856,0.076593,-0.097553,0.151358,-0.086867,-0.098791,0.218637,0.105063,0.160662,0.230437,0.22616,-0.471472,0.003667,0.291721,-0.05109,-0.036033,0.030874,0.307289,-0.101202,0.237369,0.174787,-0.079877,0.367683,0.043245,0.142737,0.002577,0.014469,0.326995,0.246943,0.255907,-0.060893,0.157592,0.154228,-0.042789,-0.109369,-0.003442,-0.046074,0.150029,0.023844,-0.043951,0.270074,-0.063002,0.383907,0.167192,-0.052266,-0.236579,0.227076,0.294672,0.214728,0.072471,0.098905,-0.051663,0.013491,-0.074679,-0.083031,0.065511,-0.053497,0.244131,-0.1112,-0.049507,0.362539,0.147617,0.205706],[-0.116375,-0.427676,0.167431,0.114834,0.122649,-0.082717,0.017368,0.059991,0.211564,0.323455,-0.109399,-0.106312,0.292561,-0.318346,0.072673,-0.102986,-0.18906,0.166732,0.065746,0.032486,0.049954,-1.275019,0.061876,0.165959,-0.268197,-0.118041,0.228948,-0.06662,-0.232226,0.059627,-0.136049,-0.124455,0.269598,-0.541177,-0.123009,-0.088495,-0.12654,-0.098871,0.038394,0.107931,0.106516,-1.295175,0.360445,0.027599,0.175156,-0.126206,-0.097022,0.176727,-0.042481,-0.259942,0.241685,0.18155,-0.063011,-0.09025,-0.00171,0.266986,-0.640515,-0.247227,0.212362,0.069724,-0.106407,0.155701,-0.332531,0.006061],[0.098699,0.173247,0.012771,-0.088603,0.04261,0.092012,-0.164538,0.238545,0.07201,-0.044491,0.343299,-0.056844,0.024682,-0.079504,0.268601,0.058646,0.15097,0.102611,0.149084,0.013438,-0.159711,0.061333,0.02735,0.183767,0.158696,0.02178,0.189924,-0.144334,0.153579,0.28171,0.262077,0.072573,-0.022905,-0.088542,0.036323,0.026063,-0.031362,-0.137384,0.137775,0.018082,-0.06563,0.133244,0.097143,0.199307,0.171248,-0.014428,0.134368,0.252328,0.220497,0.147498,-0.170684,-0.003979,-0.171656,0.101252,-0.111834,-0.058918,0.113544,0.133424,0.237473,-0.080497,-0.01009,0.317728,0.140788,0.161331],[0.356368,0.227828,-0.156215,0.017703,-0.236187,-0.044497,-0.01066,-0.297913,-0.322222,-0.28233,-0.450225,0.133204,-0.032133,-0.206381,-0.079622,-0.094212,0.268629,-0.899679,-0.334693,0.45256,-0.105101,-0.32817,0.21937,0.577685,-0.591002,0.133276,0.381573,-0.087081,0.32365,-0.241545,-0.179116,-0.021809,0.28901,0.200262,0.057679,0.078164,-0.995083,-0.015805,0.168961,0.386677,-0.093477,-0.400941,0.294578,-0.091082,-0.37708,-0.061523,0.216064,-0.300541,-0.50015,0.186817,0.288005,0.398258,-0.022107,0.369249,0.06435,-0.157315,-0.625596,-1.262585,-0.221221,0.000687,0.015839,-0.375562,-0.45332,-0.436135],[0.027645,0.04938,0.092704,0.016558,0.109446,-0.000738,-0.080216,0.003253,-0.018606,-0.122521,-0.090393,0.035967,-0.124886,-0.079631,-0.117584,-0.063002,0.001953,0.032871,-0.083653,0.078852,0.016964,0.083742,0.044367,-0.004689,-0.122422,-0.043106,0.122642,0.051388,-0.007172,0.026097,0.018862,0.028097,0.049333,-0.11881,-0.060756,0.018004,0.014883,-0.087893,0.108907,0.013835,0.030537,0.112086,-0.090033,0.098982,0.004929,-0.002142,-0.121738,-0.107098,-0.032227,-0.115553,0.092701,-0.11144,0.103592,-0.033492,-0.091658,0.041997,-0.033325,-0.116185,-0.036216,-0.014865,-0.080763,-0.092663,0.115361,0.091379],[-0.05847,0.031782,-0.006922,-0.112851,0.120811,-0.0667,-0.077327,0.019629,-0.014381,0.101882,-0.006378,0.080182,0.117215,0.027505,0.043961,-0.03696,-0.089935,0.073081,0.098242,-0.076675,0.038352,0.124753,-0.108111,-0.017098,0.107824,0.062552,0.046785,0.082412,0.109063,-0.103754,-0.02821,-0.016545,-0.010782,0.124155,-0.098044,0.008935,0.085733,-0.101555,-0.042668,-0.020762,-0.098423,-0.023965,-0.064873,-0.065515,-0.053833,-0.04688,-0.027277,-0.073371,0.016151,-0.102171,-0.046178,-0.014475,0.007839,-0.113957,0.000635,0.143284,-0.022266,-0.046882,0.071248,-0.09249,0.114746,0.123307,-0.08144,-0.074936],[0.00213,0.310849,0.050107,-0.093886,0.173991,-0.061978,-0.017261,0.17717,0.005521,0.08196,0.18815,0.150266,-0.080268,-0.485743,0.202618,-0.156216,0.197524,-0.313929,0.090172,0.326679,0.104461,-0.297541,0.291954,-0.027849,-0.063007,0.000441,0.040228,-0.123065,0.19536,0.032742,0.020561,0.087155,-0.02209,0.025375,-0.022105,0.058454,-0.177128,0.016551,0.001037,-0.099055,0.077614,-0.444319,-0.092973,0.236587,0.108028,0.048484,0.535163,-0.019983,0.164695,-0.374275,0.125795,0.46755,-0.163958,-0.01608,0.012488,0.053314,-0.127657,0.01914,0.197167,-0.13901,-0.142124,0.273747,0.163546,0.089752],[0.845694,0.43904,-0.01121,0.227246,-0.704374,-0.01921,-0.053987,-0.814003,-0.80325,0.151877,-0.805971,-1.003828,1.757729,0.544114,-0.730691,0.069601,-0.121769,-0.562925,-0.790287,-1.963001,-0.279222,-0.610962,0.202836,0.976801,-0.897688,-0.918824,0.194842,0.038568,-0.113628,-0.37729,-0.531224,0.050551,-2.150137,0.781992,-0.03262,0.002962,-0.665377,-0.10306,-0.479952,-0.295437,0.51677,-0.488471,-0.493114,-0.772378,-1.006412,0.051722,-1.007663,-0.765355,-0.801436,0.363499,0.636729,-0.822985,-0.036902,0.162209,0.069225,0.279439,-0.165434,-0.56366,-0.870074,0.01176,0.022586,-0.912849,-0.54997,-0.901766],[-0.079811,0.249267,-0.126902,-0.225073,-0.146553,0.067189,-0.022753,0.144077,-0.094117,-0.487272,0.061796,-0.028695,0.143056,0.334481,0.076559,-0.059058,0.078405,-0.154219,-0.153362,-0.774992,-0.257547,-0.855412,-0.295816,0.142944,-0.708705,0.07442,0.290498,-0.12215,0.07671,-0.054199,0.144776,-0.121556,0.104042,-0.095827,-0.044086,0.091259,-0.32555,-0.070722,0.323636,-0.025587,0.101225,-1.031964,-0.050059,-0.196509,-0.082794,-0.180491,0.363863,0.05839,0.084041,-0.153882,-0.154037,0.157444,-0.051528,-0.01057,-0.06091,0.411803,0.222974,-0.123361,-0.07106,-0.053624,0.099924,0.078313,0.190635,0.1499],[-0.213905,-0.308458,0.238772,-0.566924,-0.381109,-0.125441,-0.045602,-0.486107,-0.197867,0.214514,-0.06009,0.081231,-0.791353,0.21256,-0.261523,0.075542,0.431625,-2.058161,-0.029532,-0.24524,0.394651,-1.376601,-0.215056,0.133439,-1.260041,0.121707,0.533331,-0.111022,0.361828,-0.023644,0.138492,-0.113701,0.13416,0.256926,0.089208,-0.048949,-1.336783,0.093896,0.332328,0.029474,-0.312384,-1.559469,0.221938,-0.304873,-0.461935,-0.008276,0.515815,-0.172089,0.053573,-0.297067,0.255499,0.412924,-0.143878,-0.13815,-0.099017,0.32507,0.4245,-0.187515,-0.260954,-0.110066,-0.113204,-0.223204,0.04527,-0.366767],[-0.039652,0.128312,0.16802,0.158071,0.221283,-0.00595,0.029419,0.349941,0.545553,-0.054202,0.603384,-0.152857,0.509928,-0.077092,0.481093,-0.068341,-0.147882,0.283385,0.593015,-0.365171,0.22442,0.189223,0.004951,-0.842753,0.317807,0.259649,0.190024,-0.12799,0.134861,0.554108,0.405701,-0.070649,-0.621883,0.245743,-0.158822,0.038852,0.292716,0.093429,-0.194418,-0.586184,0.048446,0.293724,-0.877598,0.389375,0.335575,-0.161924,-0.45377,0.381135,0.623306,-0.449122,-0.000625,-0.149829,-0.126392,-0.051675,-0.063995,-0.009251,0.036326,0.350717,0.53715,-0.056398,-0.027468,0.550859,0.354659,0.417945],[-0.011442,-0.028954,0.021354,-0.110161,0.12772,-0.027309,-0.047155,0.055193,-0.058563,0.032908,-0.070514,-0.029374,-0.020531,0.055842,0.017045,0.075732,-0.062118,0.107793,0.014043,0.039056,0.095002,-0.065355,-0.110294,-0.090792,-0.024662,-0.118231,0.008095,0.033329,0.109131,0.041481,-0.076997,0.030552,0.040884,-0.071202,0.091451,-0.050348,-0.092425,-0.009399,0.012131,0.017551,0.02094,0.097504,0.111555,-0.121464,-0.044591,-0.007382,0.201726,0.091633,-0.047724,0.010343,-0.03845,-0.083192,-0.09768,0.071214,-0.112222,0.15482,-0.063063,0.00481,0.025214,-0.085423,-0.049222,-0.013763,-0.071227,-0.081563],[0.169473,0.036848,0.143725,0.009932,0.134882,-0.013975,0.040556,0.28261,0.195897,0.072315,0.18644,0.117031,-0.012059,-0.112213,0.261423,-0.123224,0.053675,0.269017,0.281375,0.097426,0.129217,0.013313,0.208383,0.10799,0.121617,0.084591,0.124096,0.07878,0.103322,0.193472,0.260998,-0.067253,-0.126427,0.051486,-0.144443,0.031731,0.069513,-0.102464,0.139614,0.091316,-0.012372,0.092833,-0.067847,0.176361,0.246159,0.018883,-0.093021,0.055876,0.092955,0.057172,-0.03489,0.177902,-0.166183,0.210914,-0.047479,0.173714,-0.012718,0.221421,0.102336,-0.135048,-0.066105,0.338389,0.209921,0.189428],[-0.065965,0.348845,0.163984,0.283129,0.089038,-0.107006,-0.065989,0.228349,0.410534,0.061774,0.291454,0.12335,0.489186,0.175447,0.168717,-0.041488,-0.043852,0.510241,0.345588,-0.21857,-0.104947,0.256252,-0.091109,-0.55067,0.286466,-0.696843,0.070986,-0.008405,-0.357052,0.525309,0.310141,-0.095172,-0.705478,-0.047879,-0.136927,-0.117739,0.339399,-0.12363,-0.021991,-0.570016,0.209571,-0.616101,-0.602672,0.312375,0.392934,-0.062312,-0.243078,0.327598,0.391282,0.139851,0.0824,-0.578282,-0.118775,0.27086,0.062339,0.045492,-0.021889,0.243853,0.244113,-0.107278,-0.069669,0.469128,0.202259,0.271713],[-0.440063,-1.081995,-0.472333,0.022322,0.157637,-0.020133,0.065974,0.150352,0.398146,0.019011,0.246773,0.065594,-0.10786,-0.121341,0.207114,0.116267,-0.38843,0.106658,0.357607,-0.061015,0.247806,0.279134,-0.167644,-0.314563,0.40817,0.097918,-0.463814,0.074879,0.097148,0.034589,-0.221068,-0.106864,0.082584,-0.244966,-0.024209,-0.135636,0.127776,-0.135617,-0.480775,0.024155,-0.220386,0.675158,-0.028286,0.455388,0.419918,-0.021186,-0.206291,0.166007,0.3111,-0.111569,-0.158793,0.058648,-0.155357,-0.070858,-0.036216,0.182875,-0.489826,-0.42305,0.211651,0.002907,-0.065864,0.389008,-0.144051,0.318959],[0.000715,-0.049034,0.043359,0.061939,0.217396,-0.139576,-0.058922,0.057646,0.242226,0.26699,0.283178,0.313162,-0.429036,-0.302841,0.124956,0.097736,0.019349,-0.035272,0.346188,0.209278,0.190307,-0.105432,0.105719,-0.026717,-0.123167,0.116413,0.266816,0.100872,0.082126,0.317797,0.020622,-0.035474,0.222531,-0.039764,0.042262,-0.119266,-0.071302,-0.050793,0.070625,0.138883,0.145134,-0.134966,-0.116931,0.376028,0.339035,0.06722,0.04905,0.302899,0.184717,-0.080432,-0.025757,0.071811,0.05759,-0.04087,0.048606,0.062196,-0.239641,-0.028977,0.214545,-0.06077,0.081904,0.278741,0.017158,0.047371],[0.08618,-0.70209,-0.40018,-0.052282,-0.277727,0.015894,-0.075469,-0.393004,-0.127861,0.100678,-0.041381,-0.440037,0.306512,0.025462,-0.601311,-0.004748,0.003022,-0.265248,-0.148209,0.111918,0.061799,-0.567251,0.075458,-0.18759,-1.195971,-1.151897,0.632009,-0.100525,-0.280122,-0.307754,-0.025601,0.082002,-0.672682,0.001208,-0.015322,0.080154,-0.914132,-0.053823,0.159657,-0.306299,0.054514,-1.488709,-0.240688,-0.271227,-0.190113,-0.026249,0.670518,-0.094326,-0.122876,0.014586,0.204459,-0.260431,0.078367,0.125559,-0.030846,0.406164,0.065093,0.052064,-0.224343,0.054558,0.082657,-0.114858,-0.297027,-0.154723],[-0.012375,-0.047466,0.113097,0.388141,-0.172741,0.053046,-0.193154,-0.468041,-0.553711,-0.010402,-0.250783,-0.704484,0.372126,0.620021,-0.317869,-0.124314,-0.033085,-0.831942,-0.322005,-0.347208,0.037392,-0.737807,0.033557,-0.103941,-1.162602,-0.713755,-0.141354,0.078406,-0.029358,-0.341979,-0.131166,-0.132476,-0.06014,0.13402,0.060012,0.018701,-0.660477,-0.04848,0.136359,0.055159,0.067687,-0.104437,-0.203374,-0.193503,-0.218079,0.025454,-0.241944,-0.521861,-0.342581,0.04039,0.383153,-1.234544,0.029306,0.681225,0.095885,-0.511772,-0.015384,-0.043598,-0.350633,-0.095719,-0.065278,-0.333275,-0.256986,-0.180481],[-0.700576,0.0431,-0.608046,0.080599,0.148331,0.049043,0.004482,0.149814,0.242486,-0.374343,0.296663,0.332452,0.739661,-0.282192,0.326876,0.029336,-0.219634,0.052862,0.189697,-0.032348,0.036588,0.553628,-0.455741,-0.847197,0.299531,-0.256275,-0.321681,0.071361,0.453454,0.150448,-0.074796,0.011866,0.229697,-0.093465,-0.139559,-0.005883,0.109656,-0.132179,-0.375781,-0.295469,-0.192092,0.281005,-0.561204,0.391272,0.400595,-0.053619,-0.938075,0.126463,0.312874,-0.089738,-0.445098,-0.273592,-0.038654,-0.138235,-0.052665,-0.212641,-0.037597,0.03975,0.254762,-0.024437,0.08805,0.417574,0.214476,0.15132],[0.380479,-0.522618,1.038957,-0.188894,-0.425357,0.013107,0.098563,-0.281162,-0.629642,-0.704928,-0.390042,-0.035853,-0.182731,0.394137,-0.488565,-0.01028,0.497717,-0.901531,-0.370316,0.320762,-0.20759,-0.055202,-0.500703,0.566587,-0.746396,0.364582,0.604744,0.018482,0.10829,-0.379746,0.003162,-0.106691,0.074537,-0.537453,0.075072,0.002375,-0.549238,0.01846,0.38876,0.72871,-0.571374,0.041462,0.36723,-0.380693,-0.440347,-0.011065,0.180631,-0.084664,-0.429096,0.029484,0.322003,0.048454,-0.139997,0.324264,-0.029071,-0.857627,-0.140093,-0.246853,-0.408953,-0.055704,0.013853,-0.410542,-0.383924,-0.132633],[-0.116402,-0.542078,0.208386,-0.347093,-0.030353,0.027684,0.082121,0.026328,0.274809,-0.029601,0.252209,-0.000643,-0.188335,0.581463,0.015803,-0.127276,-0.166934,0.447417,0.19354,0.41151,0.121324,0.345784,-0.302976,-0.495588,0.074699,-0.033625,-0.182,-0.108506,0.080297,0.097422,0.065647,-0.12112,0.003247,-0.380886,-0.072432,0.073557,0.228854,-0.145277,-0.535863,0.216181,-0.771898,0.360938,-0.118261,0.044851,0.132816,-0.060729,-0.724305,0.314558,0.320827,0.019554,0.046041,0.188884,-0.035392,-0.262827,-0.108898,-0.154305,0.177319,0.105806,0.048961,-0.098935,-0.138715,0.332313,-0.035875,0.034911],[0.269819,-0.19432,0.014989,-0.122733,-0.149938,-0.117261,0.026233,-0.445436,-0.238798,0.410442,-0.113174,-0.464617,-0.16919,0.395612,-0.507217,-0.038282,0.16141,-0.362949,-0.413331,0.241094,0.058382,-1.116977,0.292633,0.034932,-0.437668,-0.619516,0.406761,-0.017658,-0.454519,-0.320721,-0.108117,-0.099285,0.305803,0.10829,0.083224,0.038172,-0.236099,-0.144108,0.38389,0.081334,-0.037187,-0.995642,0.543111,-0.332487,-0.285446,-0.040254,0.043503,-0.249914,-0.335501,0.147012,0.224292,-0.503074,-0.021532,0.244145,-0.115253,0.318972,0.273002,-0.064987,-0.391996,-0.04267,-0.016619,-0.244773,-0.097483,-0.341648],[-0.047616,0.139112,0.08806,0.092427,-0.051191,0.104985,0.008286,0.014074,0.059382,0.096872,0.055996,0.067961,-0.086523,0.099584,-0.112268,-0.078513,0.006293,0.005179,-0.042134,0.113359,0.094999,0.010863,-0.024219,-0.035007,0.024641,0.10987,0.018737,0.113496,-0.091947,-0.093163,-0.051385,-0.086609,0.038516,-0.093748,0.057916,-0.055564,-0.004782,0.112366,-0.046661,0.064802,0.072923,-0.132998,-0.019138,0.052313,-0.012315,0.042031,0.066815,0.057128,0.104122,0.080164,-0.101212,-0.028758,0.025178,0.037246,0.026812,0.025787,0.090244,-0.097601,-0.021592,-0.116095,-0.095145,-0.058705,0.074816,0.114314],[0.345548,-0.674842,0.115711,-0.092806,-0.135008,0.085326,-0.069,-0.081589,0.228403,0.61337,0.148802,0.534293,0.336674,0.046637,-0.223543,-0.108155,-0.11893,0.065587,0.162271,0.733151,0.266834,-0.486043,0.479317,0.195067,-0.865608,-0.426782,0.487278,-0.045132,0.393403,0.195434,0.353572,0.035658,-0.038307,-0.305331,-0.137023,-0.048086,-0.203351,0.059823,-0.208287,0.040996,0.336162,-0.505517,-0.016848,-0.015692,-0.179607,-0.117522,-0.258347,-0.035193,0.06057,-0.365253,0.44476,0.535483,0.067343,0.081977,-0.067471,-0.370366,-0.083003,-0.029389,-0.104037,0.023627,-0.037859,0.136885,-0.148009,-0.074933],[-0.36121,0.284694,-0.042959,-0.15217,0.242312,-0.000147,0.111004,0.100451,0.187515,-0.011423,0.206853,0.005914,0.173583,-0.1991,0.301329,-0.050999,-0.075345,-0.232524,0.373694,-0.598279,-0.622356,0.084303,-0.25108,-0.130368,0.341314,-0.001647,-0.232957,-0.054898,-0.488053,0.316261,0.155812,0.003494,-0.061869,0.271841,-0.158255,-0.083034,0.237701,0.03631,0.215881,-0.127963,0.062259,0.297955,0.065819,0.30512,0.047993,-0.109194,0.094731,0.254236,0.191487,-0.61691,0.094797,0.001956,0.077881,-1.516772,-0.0142,0.078506,0.067524,0.062426,0.26939,-0.080551,-0.039849,0.21606,0.332355,0.008799],[-0.119964,-0.065161,-0.303472,-0.027578,0.166379,-0.023008,-0.001501,0.353683,0.121263,-0.277118,0.300269,0.083132,0.117556,0.28666,0.234539,0.034872,0.021442,0.219277,0.211311,-0.021118,-0.121423,0.403138,-0.103072,0.009203,0.385715,0.341647,-0.251145,-0.109053,-0.115681,0.268378,-0.00158,0.020143,0.070015,-0.090913,-0.1043,-0.094546,0.176524,-0.085383,-0.088916,0.25285,-0.128381,0.39988,0.131248,0.136716,0.170097,-0.06684,-0.068564,0.289224,0.172171,0.270774,-0.238575,-0.08799,-0.16103,0.130481,0.029282,-0.05699,-0.00141,0.129447,0.302704,-0.021142,-0.129101,0.201403,0.287812,0.186528],[0.356567,0.131585,0.369772,-0.099873,-0.093994,-0.080033,-0.140599,-0.172183,-0.267457,0.016648,-0.027868,-0.327701,-0.421758,0.011961,-0.019712,0.011652,0.132616,-0.132805,-0.267838,-0.177764,0.213068,-1.23312,0.206776,-0.125904,-0.946411,-0.164025,0.084565,0.070748,-0.191462,-0.117007,-0.270539,-0.148438,0.452506,0.220705,-0.055152,-0.073247,-0.022051,-0.049696,0.247503,0.221487,-0.026561,-0.979456,0.470633,-0.025906,-0.006759,-0.076894,0.419288,-0.283969,-0.335235,-0.014014,0.154064,0.31739,-0.086912,-0.15682,-0.061247,0.344995,-0.113386,-0.481123,-0.126711,-0.049212,-0.014153,-0.088877,-0.189324,-0.292166],[-0.00155,0.095717,-0.102703,-0.105368,-0.014477,0.002008,-0.074469,0.098671,-0.100526,-0.092531,-0.119047,0.006885,0.081214,-0.107691,0.119741,0.097099,0.116353,0.001035,0.022923,0.123283,0.1082,0.109861,-0.000744,0.005898,-0.017808,-0.088099,0.099041,0.029809,-0.049181,-0.029446,0.075032,0.019983,0.081158,0.071926,-0.120966,0.002024,-0.144631,-0.089859,0.033981,-0.079348,-0.086726,0.12405,-0.06778,0.09179,0.020962,0.124699,-0.096991,0.061001,0.019291,0.067517,0.088838,-0.091167,0.036279,-0.05899,-0.04354,-0.075509,-0.045149,0.089668,0.102243,-0.053272,0.017017,-0.025467,0.0537,0.029141],[-0.626728,-0.021162,-0.393819,-0.203727,-0.198279,-0.072693,-0.064069,-0.309979,-0.062106,-0.350321,0.019372,-0.117742,-0.173523,0.267189,-0.398787,0.096353,0.186173,-0.302226,-0.177234,-0.16363,0.15745,-0.555308,-0.138064,0.149596,-0.907777,-0.36942,0.399606,-0.144,-0.164789,-0.309736,0.150375,-0.073868,0.604113,0.053873,0.022807,-0.029029,-0.197517,0.075589,0.41746,0.08178,-0.321746,-1.587092,0.24347,-0.195571,-0.278037,-0.032621,0.347835,-0.192397,0.04591,0.421252,0.057461,-1.265563,0.070187,0.298971,0.09027,0.354968,0.379391,0.195199,-0.185119,-0.086908,-0.107493,-0.121218,-0.075921,-0.123666],[-0.060523,0.118183,-0.076908,0.008312,-0.111999,0.122785,0.01247,0.114429,0.031857,0.088775,-0.051371,0.019703,0.02827,-0.017901,0.048465,0.090697,-0.032529,-0.106817,0.062945,0.101579,0.071289,0.054896,-0.008727,0.016864,0.060453,-0.048409,-0.05845,-0.041207,-0.057861,-0.078011,-0.085765,0.065239,0.085281,0.069406,0.095637,0.009753,0.00659,-0.007306,-0.031242,0.093417,0.017361,-0.103803,0.052657,0.018485,-0.090176,0.093006,0.023035,0.030303,0.119417,0.119541,-0.012937,0.01329,0.063849,0.038477,-0.087114,-0.024243,0.002874,0.0695,0.016647,0.01482,-0.1212,-0.090662,0.063303,-0.018532],[-0.324936,-0.376979,-0.000861,0.186449,0.265397,0.036749,-0.041472,0.029521,0.132518,-0.364648,0.194847,0.072314,-0.913735,-0.314575,0.284997,0.115036,-0.218665,0.034708,0.239868,-0.711632,0.379015,-0.228911,-0.171391,-0.62589,0.170656,-0.220079,-0.341996,0.036054,0.387118,0.063459,-0.006155,0.036598,0.267162,0.259658,0.00902,-0.037887,0.295103,-0.150411,0.062965,-0.106964,-0.971235,-0.013866,0.007174,0.346028,0.137969,-0.098016,-0.053911,-0.063377,0.154776,-0.466337,-0.335683,0.348393,-0.017497,-0.127056,-0.126977,0.104087,0.225858,0.147207,0.213675,0.063003,-0.111427,0.198426,0.034913,0.083649],[0.103326,0.033558,-0.022018,-0.10973,0.037092,-0.069797,-0.059862,0.288707,0.329471,0.316828,0.281738,0.45064,-0.528974,0.048175,0.090947,-0.053976,0.064237,0.401143,0.153051,0.239437,0.237052,-0.440509,0.235283,0.015407,-0.123559,-0.965897,0.298362,-0.131415,0.082907,0.332754,0.393768,-0.044297,0.079594,-0.233119,-0.04027,-0.097691,0.231839,-0.050393,0.272031,-0.028531,0.058367,-1.295046,-0.089649,0.326698,0.259487,-0.154769,-0.404038,0.271673,0.248257,-0.056227,0.144844,-0.033605,0.012882,0.10399,-0.105383,0.133862,0.214151,0.368845,0.17118,0.074449,-0.101727,0.245681,0.11619,0.221978],[0.011922,0.149087,0.093837,-0.00247,0.02361,-0.087431,-0.031276,0.048237,0.190495,-0.067263,0.222106,0.136849,0.192154,-0.069987,0.209577,0.022694,0.033155,-0.037916,0.158718,0.188731,0.014351,0.014727,0.169126,0.135672,0.159535,0.00444,-0.137343,-0.076838,0.275133,0.194272,0.187338,0.044295,0.135331,0.210789,-0.100489,-0.119193,0.007461,-0.128875,0.11581,0.085449,0.059931,-0.080628,-0.016714,0.138952,0.133847,-0.101334,-0.149365,0.101417,0.118936,0.181833,0.004928,-0.016962,0.065401,0.076823,-0.032123,0.124909,0.111597,0.017931,0.246564,-0.114239,-0.110627,0.269278,0.051262,0.117715],[-0.060244,0.219156,0.425631,-0.199117,0.070971,-0.025935,-0.065367,-0.124557,-0.308264,-0.315864,-0.006205,-0.405029,0.011634,0.010323,0.052712,-0.015714,0.125091,-0.29116,-0.292613,-0.379476,-0.486177,-1.674599,-0.258153,0.134442,-0.549244,-0.445806,0.194726,0.03282,-0.472217,-0.29503,0.019806,-0.023477,0.100103,0.317427,-0.037243,-0.099028,0.102083,-0.078986,0.386966,-0.260057,0.089997,-1.442554,0.102071,-0.062422,-0.133431,0.065761,0.274002,-0.256114,-0.203966,-0.058465,-0.00715,-0.097731,-0.079507,-0.43408,-0.031233,0.526425,0.125372,-0.15981,-0.138072,0.095216,-0.036279,-0.062862,-0.003828,-0.211975],[0.13362,0.594912,-0.224144,0.359318,0.252563,-0.078488,-0.106096,0.495941,0.539629,0.164234,0.579148,-0.468416,-0.037228,0.24456,0.126614,-0.13808,-0.557075,0.658859,0.401676,-0.359087,-0.327998,0.751586,-0.37196,-1.443189,0.484511,-1.290869,-0.309401,-0.081874,-0.293864,0.324806,0.318786,-0.087843,-0.462539,0.375809,-0.025082,-0.003574,0.334603,-0.072015,-0.314972,-0.660509,-0.18342,0.364921,-0.310602,0.328606,0.550693,-0.008336,-0.58542,0.619918,0.412148,-0.239642,0.011339,-0.285657,-0.146858,-0.201369,0.025155,0.111792,-0.010256,0.183318,0.367812,0.062031,-0.007018,0.493111,0.23792,0.367747],[0.068988,-0.100885,0.272577,0.01673,0.184377,-0.072401,-0.040068,0.132598,0.185515,0.158295,0.232362,0.472311,0.122566,-0.16224,0.143116,0.051176,-0.053778,-0.135671,0.18424,-0.044499,0.062739,0.150769,0.018728,-0.226773,-0.119123,-0.073524,-0.13357,-0.12434,0.34173,0.265371,0.100524,-0.062519,-0.455674,0.03559,-0.095009,-0.030134,-0.003334,0.104402,0.142297,-0.303929,0.154234,0.119845,-0.16251,0.20094,0.26884,0.00705,-0.055839,0.262584,0.273551,-0.204674,0.043292,0.365362,-0.112883,-0.370096,-0.014782,-0.166261,0.017866,0.156493,0.115513,0.115264,-0.12926,0.325367,0.190102,0.048187],[0.009615,-0.038921,0.087814,-0.089714,-0.084784,0.119898,-0.073781,-0.105235,0.066685,-0.07088,0.001446,0.051334,0.026875,-0.065739,0.10621,0.005245,-0.132542,0.058087,-0.08721,-0.104104,0.034943,0.000753,0.111758,-0.036208,-0.019682,-0.107175,0.102013,-0.03811,-0.08456,-0.082546,0.053813,-0.031113,0.05835,0.06824,-0.020663,-0.023812,-0.050771,0.023016,-0.019195,-0.094942,-0.040803,0.063341,-0.071763,-0.092301,0.068879,-0.070365,0.032057,0.001797,0.041012,0.043522,0.098415,-0.090427,0.001683,0.040982,0.003556,0.120644,0.038139,0.077303,0.140741,0.122272,0.079051,0.109357,-0.030639,0.029061],[-0.0178,-0.200494,0.131697,0.003013,-0.092465,-0.116299,0.060004,-0.166723,-0.245061,0.100726,-0.337134,0.02728,0.090582,0.227856,-0.227682,-0.015266,0.260753,-0.686088,-0.372124,0.417568,0.053566,-2.077961,0.022454,0.261386,-1.148651,-0.135086,0.537331,-0.009673,-0.275381,-0.178661,-0.244461,0.056493,0.438874,-0.091778,-0.074332,0.03999,-0.642945,-0.102508,0.340285,0.225611,0.030049,-2.188108,0.36961,-0.301697,-0.284915,-0.010053,0.089097,-0.363217,-0.260609,0.325738,0.182407,-0.112669,-0.080968,0.428909,0.086133,0.582074,-0.114215,-0.347533,-0.284204,0.107097,0.091098,-0.239499,-0.231417,-0.283936],[0.187673,0.240826,-0.061502,0.143709,0.173839,0.010529,-0.128721,0.248841,0.214585,-0.181637,0.262482,0.026487,0.10069,0.270615,0.263549,-0.11305,-0.056517,0.418514,0.288859,-0.2128,-0.172804,0.072692,0.2137,-0.247465,0.086947,-0.129204,-0.127104,-0.063435,-0.107839,0.269649,0.207808,0.099064,-0.034321,-0.198268,0.003213,-0.138837,0.2312,-0.083156,-0.158748,0.317152,0.187417,0.211106,0.095277,0.266673,0.218792,-0.16165,-0.199877,0.264088,0.058046,0.02471,0.13518,0.237737,0.012619,-0.013944,0.025005,-0.063697,0.208755,0.137664,0.072688,0.051466,0.048368,0.345387,0.225364,0.202509],[0.439188,0.187861,-0.701518,-0.186316,-0.169726,-0.04623,0.013448,-0.15229,-0.317642,-0.26708,-0.382829,-0.06571,0.567827,0.254643,0.015767,-0.101003,0.093279,-0.116452,-0.117656,-0.389155,-0.096482,0.552025,0.063427,-0.192096,0.041413,-0.009835,-0.964648,-0.089297,0.255308,-0.25539,-0.457904,0.030868,0.335591,0.025205,0.085781,-0.006219,0.059673,0.045811,-0.490388,0.049346,-0.001936,0.481327,0.250118,0.054982,-0.269959,0.018549,-0.17548,-0.035771,-0.206393,0.160888,0.054589,0.217868,0.092268,-0.007186,-0.064777,-0.500096,-0.392923,-0.434239,-0.090872,-0.021476,0.082083,-0.282228,-0.176701,-0.203576],[0.200119,0.769863,0.065496,0.175543,0.836855,-0.013729,-0.068892,0.865768,1.206765,-0.21759,1.266326,-1.806491,0.941358,-0.122203,0.785572,0.156588,0.088353,1.460585,1.063906,0.12098,-0.993758,-0.818298,-0.110995,0.416985,0.963297,-0.837844,0.60943,0.162334,-0.847321,0.980018,1.187562,0.048186,-0.97491,0.125728,0.122481,-0.066521,1.259218,-0.048341,0.428792,0.126852,-0.329873,-0.359341,-0.557945,0.675267,0.962085,-0.118259,-0.550063,0.86612,1.134975,-1.100766,-0.793377,-1.025896,0.05633,-0.261228,0.024008,0.586909,0.36098,1.088511,0.908251,0.046523,0.082387,1.08076,0.864961,0.940557],[-0.148171,-0.268963,-0.377498,-0.187106,-0.076497,0.097711,0.069264,0.424049,0.104853,-0.228771,0.134343,-0.066741,0.216616,0.045408,0.344544,0.093838,-0.025241,0.61787,0.350867,0.446978,-0.612245,1.244094,-0.497796,0.396569,0.726246,-0.11708,0.197116,-0.08088,-0.287394,0.342911,0.422525,-0.123421,-0.642934,0.145324,-0.000779,-0.083446,0.275754,0.065812,-0.240754,0.073671,0.031333,0.637493,0.310011,0.313505,0.343504,-0.027502,0.248071,0.423704,0.446742,-0.429103,-0.186818,-0.307342,-0.05664,-0.925335,-0.008281,-0.090784,-0.003224,-0.246692,0.25024,-0.085709,0.095999,0.400311,0.543235,0.519014],[0.097624,0.313174,-0.314393,0.12642,-0.05368,-0.043253,0.07321,-0.087848,-0.006032,-0.025385,-0.030691,-0.395255,0.153013,-0.156282,-0.085771,-0.030747,0.089005,0.401025,0.090743,0.067402,-0.203714,-0.60151,0.200093,-0.799484,-0.885465,-1.236379,0.194336,0.103452,-0.5428,-0.099558,0.143932,0.080522,-0.196539,-0.268442,0.065913,-0.053847,0.055096,0.041233,0.050742,0.176139,0.11011,-1.190902,0.040118,0.105911,0.137616,-0.149817,-0.327386,-0.065359,-0.126666,0.135789,0.200823,-0.124961,0.05481,0.06534,-0.016049,0.191343,-0.240394,0.197143,0.075411,-0.107628,-0.066241,0.058433,-0.018358,0.144309],[-0.143769,-0.297278,0.296746,0.001759,-0.262058,0.051455,-0.13806,-0.474334,-0.343969,0.100813,-0.418043,-0.167907,0.178322,0.198261,-0.256951,0.024455,-0.25179,-0.935865,-0.23385,-0.267172,0.26443,-0.631042,-0.22961,0.289857,-0.773396,0.90672,0.522862,-0.158473,0.178551,-0.51376,-0.399689,-0.066336,-0.084419,0.130544,-0.083729,0.001075,-0.632795,-0.095493,0.291117,-0.270599,0.060314,-0.277453,-0.100437,-0.246818,-0.508998,-0.008549,0.559122,-0.365748,-0.951648,0.641587,0.268908,-0.057127,-0.010587,-0.400144,-0.024247,0.142724,-0.590865,-0.268144,-0.476991,-0.022846,0.033932,-0.381498,-0.622064,-0.327911],[0.192219,-0.100559,-0.388305,0.424505,0.281371,-0.087308,-0.087291,0.641635,0.590258,-0.134324,0.862401,-0.890631,-0.852037,0.621564,0.388289,-0.064575,-0.734862,1.342549,0.571086,0.304123,-0.309945,1.110657,-0.6337,-0.607555,0.868863,0.546184,-0.936503,0.005419,-0.693856,0.672086,0.920306,0.075491,-0.94998,-0.129279,-0.025507,-0.126057,1.116225,0.021514,-0.236973,-1.175561,-0.455307,1.095687,-0.540672,0.551712,0.492842,-0.021106,-0.490091,0.808572,0.936082,0.092671,-0.375509,-0.571883,0.00421,0.059774,-0.121923,-0.984152,0.667043,1.388737,0.544278,-0.115882,-0.023812,0.797625,0.787598,0.537216],[-0.561777,-0.169304,-1.423044,-0.074837,0.010562,-0.087266,-0.090212,-0.096578,0.264569,0.107371,-0.190491,-0.391865,0.77062,-0.976406,0.022152,-0.024435,-0.155844,-0.495014,0.023192,0.069566,-0.824793,0.960781,-0.572463,0.100194,0.254952,-0.052618,0.187487,-0.003901,-0.871846,-0.361947,-0.406956,-0.094858,-0.332134,-0.168337,-0.043047,0.067892,-0.634704,-0.10878,-0.101027,-0.400624,0.356756,0.730744,-0.284624,-0.051322,-0.037059,0.038583,-0.635502,-0.270053,-0.243349,-0.45384,-0.376923,-0.301613,-0.090666,-0.348052,-0.114219,0.000689,-0.362998,-0.813798,-0.097343,0.006085,-0.099247,-0.114406,0.020763,-0.205581],[0.078955,0.05617,0.083352,0.05545,-0.019099,0.012009,-0.040632,-0.10898,0.048702,0.003364,0.078575,-0.056388,-0.032961,-0.105465,-0.008093,0.023752,-0.069393,-0.064241,0.112837,0.065073,0.082385,-0.101191,-0.069319,-0.016943,-0.029961,0.039975,-0.204124,-0.076606,-0.092122,-0.11169,0.035609,0.06344,-0.095438,0.109378,0.028555,-0.018761,-0.124476,0.05905,-0.062133,0.099859,0.05145,-0.005044,-0.034726,-0.107013,-0.057261,-0.017234,-0.021829,-0.118077,-0.003389,-0.066386,-0.077906,0.028777,0.090323,-0.050849,-0.122584,0.109254,0.091801,-0.013283,-0.087118,-0.020014,-0.113434,0.062592,0.017883,0.015405],[0.178211,-0.156499,-0.029947,0.038553,-0.040927,0.084052,0.067304,0.113375,0.146846,0.25254,0.30563,0.055997,-0.269759,-0.053903,0.187121,-0.016417,0.094925,-0.122304,0.191645,0.397024,0.178359,-0.031991,0.063913,0.142544,0.005448,0.066118,0.142421,-0.07606,0.144949,0.221215,0.234684,-0.118823,-0.112115,0.102768,0.056557,-0.083779,-0.16466,-0.024362,-0.027797,0.076517,0.028059,0.201595,-0.001698,0.23316,0.227363,-0.119291,0.235975,0.229477,0.188532,0.011811,0.258988,0.365725,0.04436,-0.007247,-0.08931,-0.23681,0.032776,0.063621,0.284581,-0.11893,0.066029,0.241603,0.232268,0.052772],[-0.107917,0.082905,0.37803,0.16613,0.163881,-0.12246,0.059757,0.163398,0.033176,-0.252079,0.23808,-0.529078,0.033026,0.197868,0.034403,0.084597,0.342266,0.101547,0.002645,0.195589,0.077483,0.008691,0.002496,0.289466,0.208421,0.413205,0.042326,0.017119,0.085256,-0.118825,-0.129568,-0.048097,0.347821,0.088654,-0.101053,-0.000485,0.123432,0.050985,-0.148384,0.439589,-0.542748,0.323147,0.293243,0.023814,0.238284,-0.069851,0.293085,0.093716,0.069831,0.014332,0.140471,0.24676,0.009342,0.158017,-0.144143,0.20948,0.037957,-0.336613,0.172384,0.058388,0.018361,0.221291,0.022809,0.100071],[0.027873,0.025519,-0.04524,0.027365,0.081878,0.110651,-0.048444,0.017551,0.099512,-0.042348,-0.158557,0.037734,0.031741,-0.041719,-0.000131,-0.029856,0.134316,0.047791,0.085131,-0.100253,0.035083,0.061562,0.058419,0.021991,-0.124583,-0.121942,0.083275,-0.056911,0.010034,0.023094,0.066778,-0.072725,-0.090998,0.115063,-0.064422,0.075586,0.010918,-0.111336,0.042971,0.028864,-0.119758,-0.112244,-0.047301,-0.119423,0.075414,0.075793,0.070944,0.025723,0.0769,0.002707,-0.018861,-0.019051,-0.010664,0.045034,0.120868,-0.02075,0.132341,0.033622,0.047001,0.101156,-0.073296,0.072205,0.072428,0.08377],[-0.186318,0.426381,-0.113654,-0.11976,0.198755,-0.082652,-0.078939,0.185622,0.298151,-0.16304,0.283379,-0.024606,0.353223,0.006304,0.284892,-0.139122,-0.105177,0.326333,0.207416,-0.673345,-0.409591,0.620393,-0.23958,-0.312552,0.555852,0.107324,-0.444984,0.071319,-0.358313,0.298602,0.032241,-0.073924,-0.345802,-0.470904,-0.043018,-0.101034,0.055987,-0.033937,-0.124249,-0.164826,0.07782,0.409642,-0.071691,0.282973,0.265391,-0.097405,-0.068948,0.257229,0.121088,0.024431,-0.25007,-0.188622,-0.115102,-0.45482,-0.089455,-0.152453,-0.150515,0.381789,0.242214,0.060735,-0.050649,0.297302,0.282194,0.345723],[-0.308756,-0.300158,-0.262374,0.015403,0.185089,-0.045234,-0.136736,-0.04045,0.048045,-0.025176,-0.025853,-0.008334,-0.129827,-0.158085,0.014997,0.041048,0.009966,-0.089407,-0.156144,-0.487548,-0.189339,-1.814258,0.011847,-0.430488,-0.757151,-2.669916,0.331169,0.067491,-0.302651,-0.13048,-0.13693,-0.013336,-0.147678,0.250931,0.107422,0.064325,-0.017237,0.112828,0.244909,0.012908,-0.105947,-2.886605,-0.013651,0.223858,0.164493,-0.040717,-0.391412,-0.098344,-0.194248,0.130073,0.075062,-0.331573,-0.137934,-0.386622,-0.025029,0.573538,-0.286429,-0.245704,0.001099,0.002385,-0.025314,0.208575,-0.309155,0.027392],[-0.14242,0.10942,0.012144,0.022038,0.010643,0.007565,0.056722,-0.060912,-0.081523,0.003111,0.029062,-0.025401,-0.07285,-0.113768,-0.144906,0.005851,-0.096272,-0.088099,-0.115943,0.081599,0.073389,-0.078322,-0.026104,-0.064174,0.118938,-0.003377,0.039555,-0.072905,-0.002118,0.052272,0.014478,0.056775,-0.016093,-0.065479,-0.024804,-0.077031,-0.064984,0.122091,-0.117377,-0.07019,0.117332,0.043247,0.094621,-0.074488,0.092274,-0.056456,0.102813,-0.099451,-0.024189,0.025915,-0.086223,-0.055518,-0.086573,-0.05885,0.002339,-0.050715,-0.120049,-0.054009,-0.112097,0.013943,-0.081812,0.096861,0.050886,-0.09659],[-0.049175,0.101928,0.07241,-0.120443,0.00376,-0.051226,-0.02469,0.043717,0.115885,-0.009124,-0.025327,-0.02861,0.117674,-0.087639,0.049855,0.106019,-0.009758,-0.021409,0.083226,0.046047,-0.054791,-0.055288,0.024017,0.076649,0.097092,-0.099539,0.093333,-0.112573,0.097106,-0.033006,-0.038001,0.013119,0.019492,0.076324,-0.122728,0.000221,-0.093339,0.110186,-0.021726,-0.114332,-0.110179,-0.00137,-0.006149,-0.011929,0.096466,-0.059995,-0.018498,0.038555,-0.067254,-0.069732,0.005829,0.080796,0.051394,0.035506,0.065572,0.074389,0.013487,-0.092505,-0.031216,0.006429,-0.045998,0.040224,0.003883,-0.023957],[-0.124554,-0.176861,-0.145845,0.22798,0.401234,0.025077,-0.028454,0.447169,0.745468,-0.099207,0.587228,-1.54519,-0.702751,0.319294,0.475163,-0.064579,-1.265966,0.663671,0.588639,0.087606,0.037416,0.886052,-0.993917,-0.922327,0.713191,0.35144,-1.200904,-0.123753,-0.251259,0.457499,0.327926,-0.112525,-0.403089,-0.136105,0.030851,0.026108,0.554338,0.119447,-1.474399,-0.63907,-0.363201,1.236031,-1.380847,0.748816,0.584624,0.044675,-0.999282,0.589481,0.584093,-0.406362,-0.345032,-0.92603,-0.016616,-0.374006,0.07691,-0.402994,-0.118831,0.441858,0.577092,0.064116,-0.116724,0.668387,0.412115,0.603012],[-0.050621,-0.4451,-0.107582,0.188819,0.211595,-0.065481,0.075489,0.294288,0.341685,0.048165,0.269589,-0.036752,0.484093,-0.033544,0.268705,0.01015,-0.144084,-0.037365,0.265315,0.038698,0.14031,0.211956,-0.074125,0.155903,0.285207,0.30972,-0.142129,-0.045289,0.118277,0.16868,0.045563,-0.025232,0.055566,-0.132718,0.036003,-0.117206,-0.017033,0.09451,0.01968,-0.029104,0.055778,0.386843,0.062854,0.312867,0.484304,-0.063163,-0.052006,0.230888,0.276591,0.103572,-0.020739,0.12995,-0.085904,-0.019357,-0.032412,0.112732,-0.38508,-0.162858,0.412392,0.060533,-0.051115,0.441659,-0.082882,0.156088]],"biases":[0.094243,-0.045334,0.136168,-0.043607,0.204293,-0.048126,-0.112823,0.248691,0.154148,-0.14017,0.178393,-0.128993,-0.26031,-0.050173,0.133951,-0.077997,-0.023786,0.026345,0.176709,0.009075,-0.161332,-0.138732,0.041342,0.033326,-0.045464,0.102184,0.279714,-0.055088,-0.046161,0.222435,0.16846,-0.020612,0.051629,-0.009305,-0.053689,0.014684,0.170534,-0.099897,0.198784,-0.085623,-0.059073,-0.266972,-0.030619,0.198871,0.32154,0.030453,0.072283,0.219186,0.090716,-0.124276,0.055781,0.073678,-0.057881,-0.063452,0.018044,0.269273,0.148872,0.038768,0.128351,-0.068693,-0.083364,0.265323,0.271934,0.24424]},{"weights":[[0.434871,0.169136,-0.396472,-0.313109,-0.004281,-0.288245],[-0.074536,-0.050626,-1.447902,-0.893775,-0.55968,-0.90481],[0.535553,0.347629,0.438578,0.373252,0.439622,0.283013],[0.356751,0.302545,0.075489,0.023029,-0.121102,-0.087656],[0.118908,0.062584,0.305367,0.083683,0.123643,0.198499],[-0.058059,-0.003686,-0.093871,0.091044,0.08557,0.076844],[0.04949,-0.034113,0.072537,0.091688,-0.082134,-0.072156],[0.202043,0.098741,0.251289,0.289854,0.16614,0.254174],[0.166361,0.504474,0.327868,0.303678,0.573175,0.408328],[-0.585884,0.637309,-0.41923,-0.174391,-0.128557,-0.013412],[0.269855,0.288453,0.201019,0.26946,0.311666,0.343632],[-0.258762,-0.590325,-0.198213,-0.430239,-0.416788,-0.402231],[-1.139712,-0.21809,0.66427,-0.653789,-0.548494,-0.67274],[-0.361545,0.116194,-0.755853,0.300051,0.216891,0.083977],[0.324041,0.068834,0.377687,0.170232,0.167867,0.19823],[0.012488,-0.035034,0.100681,0.029599,-0.124683,0.095023],[0.160916,0.156168,-0.368406,-0.172988,-0.101501,-0.140405],[0.450755,0.647657,0.46997,0.466442,0.446048,0.468522],[0.357921,0.41582,0.36687,0.255852,0.440422,0.269799],[0.356694,-0.76093,0.879319,0.500905,0.277455,0.418738],[-0.494171,-0.027786,-0.619737,-0.493151,-0.439112,-0.346898],[1.667129,1.384548,1.525108,1.918162,1.902228,1.753441],[0.16835,0.086432,-0.404512,-0.244287,-0.095941,-0.254988],[0.585588,0.627205,0.57165,0.33753,0.446782,0.322571],[1.337484,1.02709,1.601457,1.286306,1.486403,1.448756],[0.168362,0.39393,1.056753,0.503928,0.511664,0.477073],[0.520654,0.28065,0.637564,0.653187,0.539351,0.635993],[-0.089136,-0.066125,-0.019018,-0.030631,-0.094699,0.077103],[-0.414015,-0.604008,-0.333255,-0.396862,-0.637353,-0.611658],[0.438336,0.347423,0.262542,0.269226,0.196832,0.273667],[0.303408,0.278389,0.057676,0.277944,0.337814,0.153593],[0.007959,-0.081509,0.029537,0.034806,0.01242,0.086041],[-0.477769,-0.507768,-0.447282,-0.403397,-0.324903,-0.332255],[0.334557,-0.282621,-0.251062,0.279358,0.310304,0.123596],[0.058118,-0.122604,-0.000173,-0.06964,0.068995,-0.04999],[0.076314,0.051915,0.088221,-0.070835,0.007084,0.010341],[0.556754,0.212257,0.511801,0.40726,0.452455,0.384183],[-0.069292,-0.080486,-0.017569,0.07977,0.057095,-0.0309],[0.474492,0.34724,0.26656,0.329895,0.237695,0.191076],[-0.292678,-0.116096,-0.597379,-0.170893,-0.026618,-0.194721],[-0.320236,-0.312638,0.019589,0.108749,0.067534,0.159642],[1.687863,0.89132,2.483174,1.791232,1.870262,2.178835],[-0.147607,-0.237656,-0.546423,-0.341042,-0.298101,-0.298117],[0.319138,0.228643,0.396441,0.224001,0.297619,0.126371],[0.148289,0.3055,0.392572,0.324464,0.245467,0.346272],[-0.019339,-0.030662,-0.064293,-0.094026,-0.001096,-0.009051],[-0.031546,0.629989,0.65591,0.383954,0.36297,0.332539],[0.27055,0.3473,0.243623,0.364898,0.125184,0.202238],[0.289541,0.313556,0.188382,0.329965,0.304762,0.402489],[0.234569,-0.163102,-0.227206,-0.707309,-0.791082,-0.493701],[0.012305,0.406234,-0.282572,-0.049243,-0.142705,-0.221461],[-0.599509,-0.617991,-0.759813,-0.554824,-0.45212,-0.410479],[-0.040653,-0.022241,0.009284,-0.081001,0.008957,0.035352],[0.45929,0.244919,-0.572352,-0.393837,-0.382586,-0.460739],[0.060036,0.006668,0.108323,0.115309,-0.113383,-0.082901],[-0.101314,-0.059413,0.683477,0.286979,0.104747,0.40571],[0.206291,0.00484,-0.05068,0.269862,0.409796,0.30332],[0.399007,0.214151,0.174673,0.334651,0.369996,0.28643],[0.228402,0.208328,0.290655,0.256422,0.193288,0.191137],[-0.044625,0.031635,0.086795,-0.096917,0.025812,-0.070732],[0.079025,0.011606,-0.1113,0.051125,-0.04425,0.073386],[0.205089,0.350419,0.311475,0.285785,0.288056,0.300721],[0.343385,0.024872,0.165792,0.25674,0.16827,0.340512],[0.139463,0.152505,0.195438,0.237527,0.269442,0.217618]],"biases":[0.267436,0.31898,0.174863,0.067661,0.037024,0.335731]}]},"round":179,"phase":50,"phaseIteration":4,"trained":"pilot","generation":178,"dominanceMetric":"pilotWinRate","dominanceThreshold":0.65,"dominanceReached":false,"candidateSpawns":2,"selectedCandidate":2,"pilotWinRate":0.0,"enemyWinRate":1.0,"averageScore":2220.0,"averageWave":2.4,"averageSteps":98.2,"waveClearRate":0.2,"averageClearSteps":159.0,"enemyDropRate":13.5857,"invalidDropRate":0.6838,"enemyFireRate":0.4288,"pilotFireRate":0.4054,"pilotShotAccuracy":0.52,"pilotHits":208,"pilotFires":400}
