{"id":42,"label":"Pilot v42","role":"pilot","model":"sb3-dqn-pilot-v42","actions":["left","right","fire","stay","up","down"],"features":["target_dx","abs_target_dx","threat_dx","threat_y","bullet_ready","alien_count","wave","drop_ready","enemy_shot_ready","fleet_y","lives","danger_shot_dx","danger_shot_y","danger_shot_lane","pilot_bullet_dx","pilot_bullet_y","bee_count","gunship_count","boss_count","ship_y","target_dy","enemy_ship_dx","enemy_ship_y","enemy_ship_role","enemy_ship_fire_ready","enemy_ship_bullet_lane","enemy_ship_bottom"],"network":{"activation":"relu","layers":[{"weights":[[0.065797,-0.610319,0.268112,-0.129837,0.067708,-0.16715,-0.032984,-0.169282,-0.020486,0.757998,-0.203462,0.456439,-0.012604,-0.165442,0.077995,-0.220863,-0.678764,-0.200146,-0.071692,0.124725,0.193555,-0.09179,0.236133,0.364626,0.572662,-0.278399,-0.338458,0.299648,0.268076,0.617754,-0.018486,1.12273,-0.37782,-0.298493,0.02646,0.064483,0.179024,0.131822,-0.249842,0.36689,0.08352,-0.178303,-0.084957,0.228057,0.087382,0.708327,-0.329234,-0.530338,-0.020494,0.802612,0.154505,-0.3261,0.072352,-0.414607,-0.074833,0.303538,-0.292832,-0.044234,-0.65098,0.527814,0.151556,-0.030511,-0.592451,0.200128],[-0.606905,-0.115549,0.067371,0.014174,0.026751,-0.608347,-0.315385,-0.073303,-0.517099,-0.901957,-0.048147,0.014454,-0.021911,0.073968,0.31939,0.575547,0.164196,-0.304067,-0.20827,0.002825,-0.222014,0.173752,-0.882928,-0.267802,0.357702,0.287434,-0.820595,-0.129038,-0.470603,0.590007,-0.146497,0.731795,0.110042,-0.499119,0.089457,0.007812,0.230164,0.000642,-1.05024,0.037113,-0.302418,0.307573,0.136305,-0.254733,-0.117537,0.118893,-0.417021,-0.085802,-0.633191,0.623884,0.578482,0.236453,-0.022854,0.319195,-0.235901,0.067557,0.006041,0.11634,-0.360564,-0.595245,-0.156442,0.124682,-1.170287,-0.784797],[-0.090856,-0.118907,0.011008,-0.131823,0.016158,0.070844,0.133401,-0.039675,0.048417,0.006142,-0.016217,-0.011365,-0.10159,0.070972,0.015257,-0.06886,-0.067769,-0.356221,0.378806,-0.087558,0.229062,0.182166,-0.048237,-0.02473,-0.016449,0.142776,-0.06742,-0.053543,-0.001485,0.145765,-0.076754,-0.004654,-0.261253,0.195293,0.03713,0.067963,-0.018363,-0.145048,-0.105931,0.356586,0.085563,0.209322,-0.188966,-0.121359,0.101545,0.088542,0.117684,-0.088394,0.201077,-0.135671,0.210637,0.110019,-0.144691,-0.299557,0.113681,-0.119207,0.003521,-0.106618,-0.009565,0.220034,-0.042303,0.069172,0.064822,0.115525],[-0.059098,-0.14149,0.153649,-0.129282,-0.110785,0.219455,-0.126473,-0.054006,-0.073189,-0.051907,-0.084414,0.195433,-0.030527,-0.004047,-0.032024,-0.665064,0.08975,-0.063479,-0.313928,0.077177,-0.058467,-0.24412,0.069439,0.009645,-0.034696,-0.064226,0.017219,0.206865,-0.056612,-0.19981,-0.049961,-0.009812,-0.075587,0.215965,-0.096788,-0.150645,0.035811,-0.188235,0.07459,-0.123056,-0.117174,-0.022146,-0.578118,0.038487,0.083681,0.188258,0.065846,0.148191,0.375728,-0.041238,-0.102698,-0.602554,-0.08466,0.15568,-0.118105,0.198536,0.109761,-0.092745,0.229247,-0.045456,0.018326,0.168138,0.042656,0.039292],[-0.123976,-0.133102,0.072576,0.036805,-0.096326,0.098401,0.03773,0.026887,0.043298,0.312569,0.084035,0.154384,0.072436,-0.127337,0.096515,-0.024999,-0.000787,0.06444,0.002217,-0.044326,0.072624,-0.016279,0.031389,0.173403,-0.05556,0.168227,0.229863,-0.466283,-0.324148,-0.181948,0.067832,-0.03848,0.077469,-0.190798,-0.092028,-0.058108,0.122094,-0.118692,0.175137,0.052701,0.137398,-0.131302,-0.172944,0.144461,0.092483,-0.006078,-0.182501,-0.100314,0.09751,0.043927,-0.111944,-0.269607,-0.162678,0.147903,-0.062172,-0.111357,-0.292822,0.109378,-0.124136,-0.156145,-0.155839,0.029368,-0.079568,0.040708],[0.2355,0.13879,0.41296,-0.114991,0.257701,0.381222,0.464526,-0.068464,0.274777,-0.219902,0.485167,-0.008969,-0.0802,-0.16739,-0.147047,0.091428,-0.345509,-0.352502,0.414376,-0.027065,0.205744,0.402834,0.425368,0.138389,-0.23405,0.02074,0.367458,-0.16252,0.261231,-0.266476,0.122873,-0.061217,0.375927,0.462203,-0.253831,-0.175807,-0.216911,-0.145567,0.091276,-0.021716,0.136641,-0.418318,0.289907,0.235247,-0.046241,-0.275442,0.269547,0.41946,-0.008628,0.018759,-0.125844,-0.179731,0.369275,0.218908,0.149211,0.157242,0.032008,-0.20299,0.14132,-0.371744,-0.097413,0.082093,0.390458,0.406854],[0.033987,-0.052872,0.164513,-0.059396,-0.159753,0.189064,-0.141817,0.184158,0.080277,-0.250407,0.067831,0.123531,-0.060251,-0.054958,-0.169101,0.123696,-0.222022,0.264259,-0.06824,0.113783,-0.013507,0.032422,-0.114577,0.043222,0.002242,0.089023,0.146069,-0.106014,0.056321,0.068217,-0.209289,-0.025071,0.141119,0.171555,0.080517,-0.209188,0.203657,-0.046399,-0.001719,-0.365344,-0.027826,0.04824,0.237659,0.127245,0.110898,0.210471,0.171954,0.165143,-0.190836,-0.110048,-0.261328,-0.008255,0.201875,-0.05708,-0.178044,0.031065,0.067712,0.09714,0.015508,-0.137599,-0.137982,0.10603,0.227823,-0.002319],[0.223735,0.215951,0.085671,-0.006972,0.112966,-0.034479,0.206505,-0.18801,0.030951,0.206562,0.136167,0.057898,0.012547,-0.075734,0.258739,-0.251402,0.182321,0.28238,-0.041623,-0.04529,0.157203,0.20408,0.019233,0.131324,0.044452,-0.069904,-0.057557,0.199236,-0.028067,-0.076726,-0.000276,-0.016712,-0.06549,0.065847,0.176085,0.029233,0.045141,-0.156361,0.097034,0.191429,0.23163,-0.080995,-0.033486,0.122725,-0.086643,-0.08973,0.125103,0.154819,-0.205608,0.029279,0.157273,0.05235,0.128143,-0.181494,-0.142631,0.14905,0.096367,-0.20566,-0.053917,-0.062452,-0.196583,-0.023588,-0.170736,0.111786],[0.159706,0.157479,-0.074837,-0.16079,0.162796,0.122246,0.277074,0.010166,-0.023883,-0.048624,0.23441,-0.046611,-0.167241,0.079156,0.03093,-0.016757,0.165764,0.300321,0.037984,-0.190709,-0.091539,0.183562,-0.025831,0.169476,-0.194064,0.01853,0.080956,-0.094891,0.087644,-0.079495,-0.196405,0.291474,0.006962,0.164257,0.173859,-0.196078,0.039429,-0.082223,0.19395,-0.100783,-0.048782,0.011701,0.116092,0.204211,-0.199448,0.069258,0.188011,0.057859,-0.08536,0.025609,0.097233,-0.147273,-0.030109,-0.0951,0.086606,0.144603,0.191354,-0.038907,0.146773,0.118027,0.015018,-0.184822,0.006641,0.022329],[-0.24074,-0.152791,-0.277474,-0.13856,-0.112316,-0.288837,-0.284057,0.105414,-0.106366,0.217136,-0.082958,0.204717,-0.105757,0.017052,0.11696,-0.145769,0.228052,0.418108,-0.05599,-0.156137,-0.251334,-0.222514,0.048913,-0.025958,0.09788,-0.063397,-0.068908,-1.2e-05,-0.066283,0.250914,-0.076012,-0.093403,0.082404,0.040053,0.305609,-0.177832,0.228054,-0.175497,-0.000474,-0.098639,0.042042,0.505516,-0.104757,-0.036938,-0.17792,0.288407,0.03748,-0.090259,-0.166003,-0.230287,0.01443,-0.134351,-0.13339,-0.171019,0.07784,-0.134519,0.076814,-0.015535,-0.282703,0.094367,-0.1197,-0.08012,-0.048115,-0.081501],[0.191045,0.331599,0.411119,-0.185003,0.481952,0.200411,0.279195,-0.03954,0.348783,-0.047461,0.441198,-0.237503,-0.140058,-0.045725,0.300767,0.246357,-0.063604,-0.068626,0.29145,0.086028,0.31502,0.151822,0.255848,0.102907,0.155376,0.054523,0.32026,-0.182182,0.135339,-0.027267,-0.000244,0.239918,-0.082663,0.302484,-0.354087,0.140334,0.17595,-0.139334,2e-06,0.386764,0.371332,0.066214,0.192254,0.124399,0.010582,-0.234816,0.10565,-0.030068,-0.133991,0.149642,-0.076995,-0.080321,0.272232,0.003189,0.050678,0.297646,-0.170909,-0.046443,0.335654,0.150974,0.038692,-0.203876,0.165013,0.296904],[0.020398,0.102692,0.01308,0.143965,-0.064262,0.180672,-0.020326,-0.018799,-0.044882,0.00023,0.177942,-0.116367,-0.032101,-0.120116,0.044475,0.037928,0.081832,-0.142859,0.100969,-0.17367,0.128132,0.246015,-0.003851,-0.062347,0.239467,-0.032809,0.140218,-0.118137,-0.057231,0.031844,0.054316,0.014565,-0.391476,-0.054981,0.02525,-0.107687,-0.014583,0.099929,0.033534,0.232802,0.096752,-0.11786,0.044286,-0.084774,-0.150958,-0.095447,0.245299,0.114863,0.253472,-0.051549,0.144189,0.055848,0.138583,-0.134559,-0.101368,-0.084277,0.14343,0.077914,-0.195609,0.19109,0.087705,-0.049237,0.008406,-0.095956],[-0.086252,0.094234,-0.006506,-0.138268,-0.240254,-0.092893,-0.191793,-0.117491,0.085238,-0.284496,0.132649,0.134375,-0.164533,0.097433,-0.029452,-0.523608,0.265727,0.320664,-0.243172,-0.070947,-0.116455,-0.525316,-0.033966,0.250556,-0.204369,-0.036069,-0.200218,0.018506,-0.058003,-0.128557,0.104597,-0.012936,0.160467,0.18315,0.020938,0.068758,-0.129118,-0.113999,-0.145907,-0.140039,-0.047654,-0.276155,-0.525442,0.026549,-0.183804,0.040965,-0.227895,-0.231449,0.190928,-0.184822,-0.069005,-0.485322,-0.082561,-0.002417,-5.9e-05,0.150116,-0.053922,0.069463,0.117767,-0.076796,0.021499,-0.129292,-0.303449,0.035943],[-0.236216,-0.088653,0.15395,0.039937,-0.05509,0.079284,-0.270817,0.130579,0.237167,0.282571,0.103358,0.233223,-0.056204,-0.16098,-0.1232,-0.151415,0.361397,0.149613,-0.550285,0.162979,-0.058384,-0.067161,-0.367589,-0.195842,0.229089,-0.103658,-0.331829,0.105022,-0.223437,-0.087938,-0.11794,0.195768,-0.225033,-0.16388,-0.124982,-0.002584,0.13756,-0.168353,-0.429857,0.040127,0.142809,-0.262234,-0.0299,-0.053312,0.045197,0.227226,-0.348806,-0.074403,-0.208615,0.305379,-0.322228,0.010699,0.263382,0.215254,0.105194,-0.19233,-0.238684,0.06167,0.15146,-0.162895,0.131677,0.188156,-0.440467,-0.106322],[-0.00738,0.109589,0.151113,-0.060113,-0.003908,0.147524,-0.123356,-0.075905,-0.001372,0.086248,-0.263468,-0.019532,-0.007322,-0.110949,0.025503,-0.083909,0.08431,0.175475,-0.084391,-0.070714,-0.012762,-0.000411,0.004141,-0.119254,-0.800979,-0.370615,-0.140291,0.332333,0.039057,-0.153018,0.166554,0.185848,0.193222,0.026551,-0.087833,-0.070324,-0.011382,-0.046381,-0.027984,0.129374,-0.033219,0.300918,0.249832,-0.040234,-0.081809,-0.018701,0.000469,0.127842,-0.05026,-0.200039,-0.297888,0.76159,-0.19563,-0.239348,0.022364,0.111444,0.125445,0.129213,0.071268,-0.448233,-0.004749,-0.165094,0.107668,-0.123564],[0.00815,0.560791,-0.312929,0.131758,0.024328,-0.214748,0.354753,-0.038679,-0.231643,0.437043,0.04102,-0.420921,0.188923,0.096534,-1.152546,0.382722,0.804847,-0.390352,-0.098596,0.000286,-0.365645,-0.176853,-0.005461,-0.508895,0.823268,-2.998431,0.035566,1.303086,0.428035,0.784485,0.009229,0.185206,0.347414,0.073869,-0.15975,0.090396,0.222921,0.175583,-0.039943,-0.343667,-0.31616,0.570007,-0.217488,-0.298927,-0.109467,-0.311502,0.433948,0.034908,0.289049,0.528615,-0.037236,-1.455961,-0.116326,0.315457,0.038375,-0.145719,-0.203373,0.084844,0.007174,-0.26534,0.15465,0.120054,-0.065142,-0.164132],[0.276635,0.207279,0.351979,0.179184,0.290502,0.291724,0.213427,0.012363,0.414738,-0.026858,0.381341,-0.016415,0.092543,-0.033477,0.04695,0.200682,-0.337663,-0.233337,0.104281,-0.048679,0.395853,0.36862,0.3827,0.397882,-0.088478,0.121635,0.245622,-0.122919,0.214152,-0.257359,-0.167236,-0.163485,0.34439,0.476201,-0.135229,-0.073022,-0.23372,0.123291,0.057805,-0.026396,0.336929,-0.390227,0.296815,0.314899,0.013479,-0.294096,0.47217,0.231182,-0.064894,0.105973,-0.089154,-0.077864,0.232993,0.066568,7.4e-05,0.442292,0.269211,-0.111146,0.424716,-0.240451,-0.199271,0.087987,0.114565,0.462629],[0.395034,0.101072,0.37823,0.007619,0.262276,0.122384,0.197374,0.159322,0.203191,-0.446668,0.090047,0.297591,0.031253,-0.077322,-0.218758,0.381033,-0.521174,-0.311079,0.374842,-0.164664,0.171657,0.158668,0.281391,0.079614,-0.004879,-0.087846,0.141539,0.171065,0.381345,-0.330857,-0.027952,-0.368244,0.453801,0.201108,-0.017359,-0.178162,-0.147189,-0.165901,0.312019,-0.119646,0.112709,-0.262561,0.52541,0.189754,-0.195108,-0.273289,0.122942,0.411596,-0.096094,-0.201136,-0.949078,-0.004859,0.345042,0.099976,-0.00194,0.380149,0.135049,0.058632,0.495337,-0.282507,-0.090773,0.003628,0.549361,0.316009],[-0.261039,-0.510595,-0.441892,0.167725,-0.162676,-0.341698,-0.577594,0.007269,-0.542522,-0.89237,-0.137085,0.403273,-0.091663,0.018802,0.170204,0.537286,0.545153,0.151639,-0.400743,-0.019141,-0.226672,-0.436614,-0.290999,-0.670098,0.19079,0.136152,-0.452094,0.197288,-0.452287,0.280897,0.189148,-0.168546,-0.013357,-0.240307,0.518414,0.164008,0.092509,-0.002875,-0.219361,-0.782153,-0.424693,0.645352,0.036669,-0.462425,-0.2083,0.158742,-0.425704,0.043985,-0.351542,-0.663076,-0.353667,0.091507,-0.188289,-0.275885,-0.167908,-0.205627,0.3289,0.115976,-0.36831,-0.126949,0.166571,-0.141396,-0.316902,-0.252733],[0.197929,0.115141,-0.133397,-0.040057,0.011121,0.169678,0.128845,-0.08659,-0.05819,-0.009662,-0.022676,0.053811,0.061725,-0.120517,0.142835,-0.200203,-0.062395,-0.043526,-0.053106,0.133706,0.215726,-0.108417,-0.019569,-0.016238,-0.122682,0.157458,-0.082984,0.011323,0.105217,0.159018,-0.19122,0.111045,0.145361,-0.152906,0.208041,-0.042203,-0.124576,-0.190088,0.024228,-0.039067,-0.11497,0.252951,0.206911,-0.072335,-0.072263,-0.004323,0.047441,0.051998,-0.033589,-0.162955,0.135978,0.084015,-0.178729,-0.116034,-0.140764,0.263559,-0.198846,-0.131134,-0.052409,0.053167,-0.138953,-0.156058,0.018802,-0.131749],[-0.222062,0.400484,-0.27223,-0.183135,-0.126559,-0.071984,-0.195694,0.052614,-0.359033,0.112873,0.027196,-0.228235,-0.165851,0.12599,-0.18443,-0.13662,0.125086,-0.443644,-0.273289,0.022728,0.033542,-0.070702,-0.036881,-0.343164,-0.064522,0.213974,-0.11473,0.048982,-0.023216,0.132145,0.048347,-0.001081,-0.038366,0.130083,0.182267,0.141344,0.151498,-0.126527,-0.120401,-0.151881,-0.220066,0.239957,-0.005959,-0.327259,0.118982,-0.018335,-0.079382,-0.080079,-0.152387,0.078423,-0.106065,0.012835,0.02239,-0.036805,0.12285,-0.208589,-0.001595,0.080656,-0.072096,0.166741,0.20871,0.181336,-0.029327,-0.037809],[0.022243,-0.487747,0.352671,-0.099789,0.221141,-0.464109,-0.042028,0.199546,0.17782,0.773391,0.037997,0.487773,-0.071347,0.063681,0.303052,-0.359884,-0.652401,-0.133742,0.068422,0.145966,0.073846,-0.070197,0.122116,0.320911,0.711616,-0.196184,-0.226651,0.459231,0.127317,0.679398,-0.079292,1.097665,-0.258835,-0.311531,-0.040625,-0.007519,0.195521,-0.187541,-0.339194,0.464264,0.015159,-0.242697,0.137359,0.064797,-0.062436,0.719596,-0.052984,-0.374097,-0.291693,0.748117,0.059488,-0.086284,-0.153516,-0.320542,0.034699,0.155068,-0.221906,0.146339,-0.747119,0.647317,0.081384,0.072345,-0.804064,0.150259],[0.082688,0.353637,0.117522,-0.159765,0.127375,0.145707,0.052917,-0.052127,-0.036705,0.167857,-0.068162,-0.351231,-0.148304,0.01132,0.093801,-0.366001,0.116981,-0.255026,-0.335839,-0.187802,0.002233,-0.031832,-0.070213,0.06766,0.044015,0.305668,-0.296202,-0.031086,-0.264935,0.32503,-0.196021,-0.112578,-0.11731,0.10744,0.171162,0.13415,-0.162084,0.088797,-0.033061,0.081696,0.082339,0.335486,-0.295936,-0.010477,0.17056,0.136849,0.027648,-0.233186,-0.098173,0.097559,0.265666,-0.152462,-0.231593,0.120498,-0.046663,-0.291042,-0.24401,0.004023,-0.050417,0.194195,-0.188778,-0.142546,-0.497818,-0.086632],[0.129476,-0.110559,0.05677,0.125646,-0.284863,-0.06972,-0.038417,-0.235079,0.103209,0.112023,-0.01241,0.370005,0.13341,-0.173597,0.138562,0.447422,0.051726,-0.091977,0.304277,-0.141681,0.013888,-0.0294,0.051417,-0.143655,-0.197393,0.042915,-0.141614,-0.099338,-0.305292,0.186445,-0.097448,-0.120012,-0.352798,0.016277,0.311037,0.127028,-0.398433,0.020931,-0.102551,-0.467537,0.043659,0.399029,0.224542,-0.280865,-0.1649,0.201233,-0.15208,-0.110305,0.408474,0.364515,-0.257696,0.041217,0.069145,0.1801,0.108424,-0.027214,0.335977,0.096691,-0.524665,-0.09338,0.073498,0.114758,0.242775,0.173021],[0.057155,-0.027282,0.0431,0.124508,-0.028477,0.095028,0.02573,-0.032937,0.090626,0.061155,0.17242,0.068512,-0.090078,-0.027383,0.005442,0.231454,-0.58394,-0.207249,0.058458,0.021271,0.089876,0.094149,-0.083758,-0.235552,0.269924,-0.054296,0.024927,0.067219,0.12154,0.176898,-0.110335,0.062258,-0.264371,-0.210974,0.18205,-0.06273,0.075353,0.085266,0.001796,0.092326,0.169408,0.180195,0.227176,-0.263679,-0.120002,-0.043644,-0.14689,-0.147651,-0.225409,-0.11291,-0.384624,0.066043,-0.020352,0.137992,0.124515,0.046878,0.079755,0.045384,-0.084646,0.040683,0.048283,-0.142784,-0.001412,0.010619],[0.092552,0.300505,0.030749,-0.028333,0.10264,0.109478,0.158,0.177495,0.173906,-0.177856,0.275185,0.218159,-0.180396,-0.083869,-0.13893,-0.287364,0.055008,-0.079581,-0.024145,-0.045023,-0.070222,0.040794,0.1802,-0.096962,0.298085,0.07207,0.276303,0.317966,0.174134,0.28541,-0.169651,-0.087717,-0.113763,0.174752,-0.601929,0.122728,0.612454,-0.108244,0.076018,0.016492,0.177321,-0.042375,0.206036,-0.251992,-0.096766,0.501512,-0.140208,0.012564,0.19514,-0.15545,-0.265915,0.166891,0.099376,0.132866,-0.151319,-0.039628,0.072505,-0.169197,-0.048223,-0.170873,-0.069619,-0.169333,0.112177,0.148913],[-0.204296,0.048197,0.066149,0.132178,-0.123061,-0.087174,0.071241,-0.148223,-0.147756,0.27796,0.0434,-0.271618,0.028637,-0.170875,0.160748,-0.140757,0.00373,-0.145791,-0.304559,0.016194,0.155008,-0.190609,-0.121983,0.218351,-0.04886,0.267559,-0.30628,0.043142,-0.288105,0.319938,0.002832,0.013838,0.069982,-0.220753,0.068939,-0.201376,-0.12023,-0.033249,-0.126176,-0.134799,0.048133,0.161082,-0.120646,-0.148568,-0.127394,0.162101,-0.108231,-0.124717,0.079409,-0.193662,0.344877,-0.070524,-0.340466,-0.087347,0.103692,-0.069933,0.061906,0.101434,0.139878,0.140335,-0.054716,-0.146917,-0.339709,0.093663]],"biases":[0.062983,-0.097898,0.080459,-0.13776,0.004292,0.090346,0.109302,-0.005503,0.104684,0.23689,0.204939,-0.102179,-0.180096,-0.061325,0.158529,-0.119985,0.237125,-0.079808,-0.005361,-0.179517,0.191003,-0.152117,-0.022275,0.322456,-0.02842,-0.169548,-0.051843,-0.069082,0.085215,0.010701,0.085668,0.046772,0.236685,-0.100785,0.162317,-0.056858,-0.037211,-0.102807,0.117268,0.185805,-0.0552,0.223968,-0.129164,-0.019511,0.034147,0.168563,-0.035351,-0.056229,-0.245049,0.193602,-0.117787,0.152227,-0.171676,-0.013177,-0.198641,0.09663,0.035367,-0.113212,-0.04722,0.139325,0.137215,-0.096378,-0.137951,0.004931]},{"weights":[[-0.058283,-0.257467,-0.060837,-0.015869,0.145907,0.043303,-0.05106,0.224705,0.261185,0.080271,0.466234,-0.043326,-0.488546,0.082886,0.17903,-0.093612,-0.004406,0.209812,0.334036,-0.180871,0.016744,0.210089,-0.196528,-0.174485,0.061947,-0.015718,-0.123302,0.033485,0.108396,0.175119,0.063401,0.047825,0.196132,-0.030487,0.103458,0.010053,0.169784,-0.032112,-0.252371,-0.092985,0.011819,0.157243,-0.232898,0.268462,0.422823,0.095005,-0.027626,0.343197,0.293092,0.055472,0.114999,0.227229,0.057339,-0.161206,0.056189,-0.001491,-0.127522,-0.123826,0.191541,0.041359,0.015432,0.409462,0.054925,0.259053],[0.097572,0.207034,-0.126866,0.022676,0.191957,-0.043934,-0.037355,0.339118,0.142965,-0.374508,0.255861,-0.322173,0.088171,0.217402,0.119096,0.018017,0.029112,0.147141,0.020174,-0.266224,-0.398936,0.197102,-0.145076,-0.066716,0.240907,0.01917,-0.182287,-0.01099,-0.185807,-0.063741,0.290035,-0.033195,0.01815,-0.198973,-0.062183,-0.042672,-0.05461,0.028395,0.106992,0.194414,0.011219,-0.025844,0.079646,0.036447,0.182519,0.010215,0.115185,0.081599,0.239945,0.034425,-0.082851,-0.229079,-0.135043,0.005236,-0.036283,0.25812,0.282284,0.145399,0.060334,0.105263,-0.114558,0.137707,0.311969,0.370992],[0.10821,0.037052,-0.068113,0.035598,0.048633,-0.049328,0.063862,0.26909,0.13513,0.104293,0.272908,0.174099,0.073397,0.001795,0.187264,0.092814,0.042256,0.027446,0.290135,0.313716,0.059711,0.288061,0.128172,0.192259,-0.038908,0.127554,0.163411,0.051634,0.122367,0.169425,0.109654,-0.023698,-0.07356,0.010258,-0.118043,0.059559,0.11373,-0.118971,-0.027378,-0.079737,0.040708,0.022366,0.121829,0.241642,0.227957,0.031807,-0.06279,0.25428,0.156933,0.096622,0.11807,-0.030462,-0.081156,0.218075,0.023646,-0.213058,-0.01057,0.086149,0.158449,-0.091831,-0.014334,0.120154,0.223443,0.041319],[-0.101971,0.053764,0.05335,0.043379,-0.021863,-0.016655,-0.10973,-0.029818,0.015656,-0.007183,-0.067251,0.113237,0.073088,-0.080367,-0.118134,0.009261,-0.022862,0.09494,-0.058119,-0.044933,-0.02439,-0.10919,-0.006132,-0.02039,0.067173,0.043825,-0.086286,0.081504,-0.101206,-0.018675,-0.020511,-0.090429,-0.001923,1e-06,-0.052864,0.004752,-0.113899,-0.025478,0.078988,-0.029515,0.120486,-0.02237,-0.111161,-0.02492,0.09228,-0.001869,0.021887,-0.047502,0.026202,0.022158,0.069635,-0.017608,-0.111323,0.038678,0.050991,-0.044947,0.072367,0.014876,0.069527,-0.037934,-0.086058,-0.04869,-0.060204,0.003299],[-0.023883,0.025578,0.047059,-0.049822,-0.102441,-0.030895,-0.12597,0.210594,0.301016,0.088211,0.161856,0.09564,0.136083,-0.004532,0.126094,0.0863,0.152135,0.091124,0.122209,0.04379,0.060752,0.200886,0.141572,0.031679,-0.086915,-0.177791,-0.030006,0.044469,-0.103606,0.245406,0.304874,0.070504,-0.230024,-0.142354,-0.169532,0.087978,0.043379,0.080652,-0.154141,0.024234,-0.006602,0.078033,0.020866,0.25983,0.190677,-0.054768,-0.168801,0.127101,0.265073,0.063265,0.025378,-0.285953,-0.06754,0.158437,-0.087603,-0.171855,0.185388,0.165343,0.285116,-0.031853,0.061863,0.227135,0.103355,0.268654],[0.059702,0.070042,-0.004118,0.046273,0.022454,-0.091565,-0.129325,0.276698,0.032826,-0.095766,0.070463,-0.02062,-0.054557,-0.044288,0.270362,-0.081299,-0.089991,0.123426,0.068439,-0.120037,0.019701,0.041579,-0.113508,0.073091,0.150193,0.090883,-0.158916,0.000681,0.073531,0.109331,0.264786,-0.094599,0.010463,0.026136,-0.108758,0.007829,0.033818,-0.002667,0.092295,-0.089613,-0.081789,0.181151,0.161244,0.287697,0.096784,-0.12329,-0.058418,0.177746,0.151835,0.033259,-0.042257,-0.011121,-0.072762,0.088995,-0.042137,0.110258,0.176091,0.019567,0.149818,-0.06483,-0.034735,0.100576,0.106495,0.195093],[-0.079934,0.058702,0.122714,0.048037,0.093474,-0.024581,-0.087144,0.13886,0.266754,-0.016906,0.366475,-0.170872,-0.127282,0.079935,0.201778,-0.055442,0.014764,0.201272,0.31388,-0.065154,-0.081254,-0.011939,-0.020843,-0.289724,-0.09663,-0.198299,0.069949,-0.093966,-0.07147,0.287721,0.235557,-0.125801,-0.073179,-0.080776,0.063244,0.049694,0.203519,0.034986,-0.183251,0.117177,0.041787,0.092323,-0.014687,0.261347,0.288053,0.011783,-0.227032,0.293918,0.318085,-0.202757,-0.114471,-0.070812,-0.08406,-0.063545,-0.072171,-0.093266,-0.004332,0.207911,0.297582,-0.025084,-0.075545,0.247768,0.102328,0.174753],[0.021947,0.141806,0.089963,-0.091201,0.080987,-0.111962,0.040971,0.076458,0.017746,0.000566,0.059918,0.024544,0.123208,0.197622,0.047212,-0.105977,-0.078442,0.096043,0.113482,0.096617,-0.006626,0.015857,-0.038876,-0.041672,-0.03905,-0.044395,-0.080922,0.047472,0.063907,0.02665,-0.12233,0.013933,-0.071455,-0.029938,-0.095906,-0.070331,0.07542,0.116619,0.041904,-0.088837,0.055924,0.080604,-0.120089,0.095096,0.158828,-0.102867,-0.017203,0.011209,-0.038045,-0.016107,-0.054005,-0.040923,-0.050067,0.130995,-0.030578,0.130268,0.023517,-0.071559,0.100397,0.010767,-0.07817,0.070582,-0.082031,0.057826],[0.08038,-0.34541,0.054641,-0.125357,0.148385,-0.086867,-0.089873,0.198615,0.0668,0.212013,0.195562,0.160922,-0.441203,0.043121,0.265925,-0.05109,-0.060739,0.112223,0.263771,-0.164542,0.205457,0.143801,-0.082781,0.195975,-0.00121,-0.031812,-0.01964,0.034293,0.198052,0.205122,0.218671,-0.060893,0.207883,0.13202,-0.042789,-0.109369,0.037619,-0.034284,0.107831,0.024096,-0.016901,0.215801,0.015935,0.354694,0.144355,-0.052266,-0.270559,0.206957,0.251836,0.193911,0.096808,0.014211,-0.014783,-0.032559,-0.074679,-0.118372,0.020338,-0.013831,0.223768,-0.1112,-0.049507,0.336848,0.094229,0.187992],[-0.257034,-0.219037,0.244006,0.081388,0.232097,-0.082717,0.038087,0.151744,0.182341,0.215621,-0.063389,-0.103797,0.104463,-0.265256,0.160483,-0.102986,-0.23612,0.139545,0.078702,-0.064362,0.091876,-0.566089,-0.04806,0.017789,-0.139948,0.095395,0.217359,-0.059382,0.01262,0.057575,-0.142474,-0.124455,-0.044044,-0.300503,-0.123009,-0.088495,-0.174092,-0.086996,0.017743,0.049165,-0.055263,-0.65133,-0.040664,0.101454,0.237761,-0.104938,-0.066769,0.185803,-0.042502,-0.202879,0.062303,0.095955,-0.027353,-0.153107,-0.00171,0.249466,-0.55841,-0.303358,0.287152,0.069724,-0.106407,0.199104,-0.306379,0.076254],[0.076441,0.079393,-0.005031,-0.110357,-0.004085,0.092012,-0.136261,0.203634,0.01337,0.012849,0.306361,-0.055627,-0.052855,-0.061265,0.214417,0.058646,0.129946,0.147403,0.08775,-0.022476,-0.12357,0.043865,0.047881,0.075261,0.120144,-0.106464,0.122043,-0.128552,0.11953,0.220037,0.28334,0.072573,-0.005149,-0.096021,0.036323,0.026063,-0.035572,-0.124977,0.087575,0.041923,-0.089723,0.069986,0.130978,0.147893,0.118791,0.010855,0.047708,0.23069,0.179982,0.144277,-0.107846,0.010405,-0.125161,0.080897,-0.111834,-0.106517,0.112767,0.171328,0.198568,-0.080497,-0.01009,0.272217,0.086037,0.137118],[0.113787,0.085463,-0.188401,-0.097924,-0.143077,-0.044497,-0.004254,-0.170808,-0.271897,-0.016324,-0.382286,0.066702,0.009262,-0.163415,0.004443,-0.094212,0.085814,-0.505734,-0.30061,0.402214,-0.088587,-0.199513,0.24103,0.337075,-0.315824,-0.112528,0.38044,-0.06089,0.144436,-0.181098,-0.156749,-0.021809,0.214545,0.180943,0.057679,0.078164,-0.48356,-0.00506,0.145501,-0.010367,-0.140669,-0.406322,0.231355,-0.038935,-0.295452,-0.061523,0.089307,-0.219875,-0.414983,0.123335,0.041222,0.186275,-0.054195,0.314292,0.06435,-0.115901,-0.282038,-0.209946,-0.137643,0.000687,0.015839,-0.317115,-0.340546,-0.36852],[0.027645,0.04938,0.092704,0.016558,0.109446,-0.000738,-0.080216,0.003253,-0.018606,-0.122521,-0.090393,0.035967,-0.124886,-0.079631,-0.117584,-0.063002,0.001953,0.032871,-0.083653,0.078852,0.016964,0.083742,0.044367,-0.004689,-0.122422,-0.043106,0.122642,0.051388,-0.007172,0.026097,0.018862,0.028097,0.049333,-0.11881,-0.060756,0.018004,0.014883,-0.087893,0.108907,0.013835,0.030537,0.112086,-0.090033,0.098982,0.004929,-0.002142,-0.121738,-0.107098,-0.032227,-0.115553,0.092701,-0.11144,0.103592,-0.033492,-0.091658,0.041997,-0.033325,-0.116185,-0.036216,-0.014865,-0.080763,-0.092663,0.115361,0.091379],[-0.05847,0.031782,-0.006922,-0.112851,0.120811,-0.0667,-0.077327,0.019629,-0.014381,0.101882,-0.006378,0.080182,0.117215,0.027505,0.043961,-0.03696,-0.089935,0.073081,0.098242,-0.076675,0.038352,0.124753,-0.108111,-0.017098,0.107824,0.062552,0.046785,0.082412,0.109063,-0.103754,-0.02821,-0.016545,-0.010782,0.124155,-0.098044,0.008935,0.085733,-0.101555,-0.042668,-0.020762,-0.098423,-0.023965,-0.064873,-0.065515,-0.053833,-0.04688,-0.027277,-0.073371,0.016151,-0.102171,-0.046178,-0.014475,0.007839,-0.113957,0.000635,0.143284,-0.022266,-0.046882,0.071248,-0.09249,0.114746,0.123307,-0.08144,-0.074936],[0.060029,0.179232,0.025586,-0.07309,0.142584,-0.061978,0.00092,0.169782,-0.069421,0.112636,0.183553,0.131141,-0.045989,-0.201323,0.176226,-0.156216,0.192442,-0.125922,0.037401,0.046774,0.131231,-0.132034,0.27665,-0.098359,-0.10985,-0.10946,-0.005351,-0.110045,0.125533,-0.017644,0.068914,0.087155,0.05579,0.051769,-0.022105,0.058454,0.012175,0.028192,-0.011175,0.038518,-0.053982,-0.297033,-0.018892,0.208894,0.073546,0.073782,0.228972,-0.01659,0.155643,-0.085997,0.131277,0.274623,-0.1326,0.184899,0.012488,-0.060952,0.063295,0.156208,0.186035,-0.13901,-0.142124,0.248564,0.157494,0.079951],[0.392987,0.336037,-0.002855,0.05661,-0.48012,-0.01921,-0.053987,-0.575012,-0.55939,0.105176,-0.631301,-0.028585,1.101105,0.372921,-0.665286,0.069601,0.35014,-0.481244,-0.622171,-0.000786,-0.213457,-0.797112,-0.142699,0.083538,-0.655049,0.003614,0.09142,0.063965,-0.005318,-0.363252,-0.519154,0.050551,-0.418217,0.554151,-0.03262,0.002962,-0.518349,-0.10306,-0.100054,-0.066524,0.07999,-0.799179,0.168908,-0.682137,-0.773923,0.051722,-0.652979,-0.722956,-0.601072,-0.04471,0.317849,-0.308127,-0.012632,-0.307413,0.069225,0.334706,0.19364,-0.376673,-0.746621,0.01176,0.022586,-0.748245,-0.446206,-0.593133],[-0.029345,0.076383,-0.186844,-0.000443,-0.182082,0.067189,-0.022753,0.116171,-0.199598,-0.38431,0.061887,-0.027094,0.155383,0.239169,0.067121,-0.059058,0.076592,-0.191488,-0.193167,-0.297199,-0.2856,-0.283269,-0.132773,0.042521,-0.208792,0.130805,0.086659,-0.120932,-0.088199,-0.107055,0.2355,-0.121556,0.078366,-0.086864,-0.044086,0.091259,-0.220942,-0.03865,0.199061,0.114716,0.042433,-0.449686,0.12354,-0.190008,-0.118048,-0.155167,0.172922,0.11016,0.088934,0.005345,-0.005335,0.148969,-0.008349,0.006032,-0.06091,0.287658,0.221196,-0.000339,-0.064973,-0.053624,0.099924,0.072817,0.148925,0.141862],[-0.028469,-0.294768,-0.312378,-0.061539,-0.282032,-0.125441,-0.057617,-0.50931,-0.235205,0.260836,-0.122496,0.210835,-0.416729,0.076405,-0.201747,0.075542,0.360399,-1.208337,-0.023371,-0.041406,0.224439,-0.651289,0.032942,0.002717,-0.69225,0.14431,0.264887,-0.092124,0.272267,-0.042584,-0.006853,-0.113701,0.277174,0.264782,0.089208,-0.048949,-0.490885,0.105974,0.003891,0.131849,-0.136176,-0.908935,0.322281,-0.249854,-0.448638,-0.008276,0.290238,-0.211249,-0.032984,0.058961,0.091247,0.290779,-0.118939,0.111606,-0.099017,0.0749,0.223732,-0.027467,-0.238356,-0.110066,-0.113204,-0.227447,-0.041993,-0.399894],[-0.065692,0.063299,0.180428,0.061029,0.193618,-0.00595,0.05477,0.280889,0.453487,-0.032006,0.516721,-0.368816,0.233139,-0.098594,0.441793,-0.068341,-0.133454,0.261751,0.520436,-0.288994,0.148612,0.081224,-0.004118,-0.527353,0.185906,-0.016455,0.097249,-0.09756,-0.034542,0.476509,0.329187,-0.070649,-0.260258,0.154991,-0.158822,0.038852,0.295642,0.093429,-0.208628,-0.24112,-0.006713,0.308701,-0.413689,0.340814,0.248601,-0.139002,-0.183373,0.277374,0.524456,-0.467253,0.050133,-0.251679,-0.102138,-0.091323,-0.063995,-0.162975,-0.022629,0.320141,0.469388,-0.056398,-0.027468,0.462986,0.300445,0.350737],[0.013926,-0.028954,0.046734,-0.110161,0.12772,-0.027309,-0.047155,0.080511,-0.033279,0.007523,-0.045167,-0.004403,-0.020531,0.030538,0.042397,0.075732,-0.03689,0.107793,0.039401,0.064429,0.069617,-0.065355,-0.085026,-0.065424,-0.024662,-0.118231,0.033472,0.033329,0.083791,0.066852,-0.051639,0.030552,0.015522,-0.045835,0.091451,-0.050348,-0.092425,-0.009399,0.037506,-0.007701,0.02094,0.097504,0.086346,-0.096111,-0.019324,-0.007382,0.176485,0.116975,-0.022373,0.010343,-0.06343,-0.108571,-0.09768,0.096588,-0.112222,0.129553,-0.063063,0.00481,0.050544,-0.085423,-0.049222,0.011559,-0.045861,-0.081563],[0.112951,-0.042084,0.153283,-0.061912,0.10639,-0.013975,0.071993,0.267732,0.133794,0.099092,0.158201,0.047893,-0.167546,-0.043169,0.22105,-0.123224,0.055748,0.249986,0.21609,-0.00194,0.145621,-0.028364,0.156199,0.028296,0.057488,-0.048529,0.087501,0.093803,0.083687,0.126355,0.268588,-0.067253,-0.106595,0.044426,-0.144443,0.031731,0.027171,-0.090881,0.131052,0.070474,-0.095793,0.016779,-0.082713,0.129191,0.208575,0.044142,-0.086341,0.035837,0.056632,0.030893,-0.008475,0.121411,-0.124635,0.220342,-0.047479,0.11722,0.030584,0.219247,0.073019,-0.135048,-0.066105,0.300972,0.176694,0.177784],[0.040345,0.211055,0.121312,0.111672,0.085321,-0.107006,-0.040613,0.199989,0.229736,0.019074,0.190132,-0.053767,0.147042,0.023123,0.182432,-0.041488,0.068672,0.358694,0.238897,0.103154,-0.016548,0.191784,-0.070495,-0.221102,0.132464,-0.165777,-0.006593,0.019206,-0.308469,0.427052,0.211078,-0.095172,-0.312155,0.131266,-0.136927,-0.117739,0.330139,-0.12363,0.067809,-0.07754,0.010833,0.009902,-0.233343,0.281541,0.286454,-0.062312,-0.357724,0.199365,0.273206,-0.037127,-0.008528,-0.274979,-0.069033,0.211426,0.062339,-0.111908,0.012287,0.226906,0.183529,-0.107278,-0.069669,0.348091,0.249041,0.20773],[-0.469009,-0.364829,-0.251564,-0.042618,0.160521,-0.020133,0.078915,0.206242,0.412145,-0.026502,0.308521,0.028401,-0.176541,-0.023977,0.220057,0.116267,-0.302119,0.097216,0.367058,-0.105735,0.172672,0.143279,-0.202306,-0.332659,0.308608,0.088953,-0.298284,0.095601,-0.03155,0.061803,-0.063495,-0.106864,0.05525,-0.002661,-0.024209,-0.135636,0.136846,-0.12406,-0.346723,-0.142445,-0.108181,0.494025,-0.095838,0.463078,0.423087,-0.021186,-0.055435,0.189291,0.37637,-0.117599,-0.253377,-0.022046,-0.112426,-0.223096,-0.036216,0.225286,-0.212581,-0.215724,0.235361,0.002907,-0.065864,0.402426,-0.017073,0.388315],[-0.083871,-0.070077,0.012721,-0.024219,0.178075,-0.139576,-0.044381,0.013726,0.181616,0.267732,0.233659,0.242686,-0.356494,-0.232437,0.063541,0.097736,0.053046,-0.050837,0.269303,0.136612,0.209905,-0.059156,0.092639,-0.032856,-0.122674,0.158591,0.210028,0.111339,0.01646,0.226188,-0.003135,-0.035474,0.267771,-0.045808,0.042262,-0.119266,-0.088954,-0.039069,-0.016463,0.124792,0.08712,-0.142464,-0.106766,0.325101,0.293119,0.092368,0.043085,0.252315,0.117449,0.01005,-0.010938,0.044601,0.089605,-0.000686,0.048606,-0.004125,-0.230157,-0.07571,0.172397,-0.06077,0.081904,0.231803,-0.070815,0.013357],[0.158874,-0.034243,-0.263883,0.038563,-0.332174,0.015894,0.01153,-0.433011,-0.250358,0.165282,-0.080503,-0.697875,0.26235,0.296754,-0.61053,-0.004748,0.092223,-0.079722,-0.220621,0.142454,0.030707,-0.620536,0.110922,-0.064318,-0.895728,-0.494966,0.429446,-0.089219,-0.264874,-0.340023,-0.027607,0.082002,-0.611632,0.09921,-0.015322,0.080154,-0.560047,-0.053823,0.047012,-0.082745,0.118048,-1.197339,-0.05064,-0.320044,-0.261935,-0.026249,0.06545,-0.120827,-0.14536,0.001412,0.227558,-0.445609,0.085696,0.009774,-0.030846,0.297265,0.189282,0.052503,-0.262491,0.054558,0.082657,-0.180956,-0.244501,-0.223691],[-0.028284,0.209895,-0.045,0.103921,-0.057488,0.053046,-0.120386,-0.340114,-0.510543,-0.179042,-0.176923,-0.183567,0.216854,-0.167365,-0.221041,-0.124314,0.165177,-0.235768,-0.303718,-0.089193,-0.072357,-0.888731,0.218202,-0.142228,-0.359993,-0.599047,-0.044121,0.087761,0.262767,-0.346156,-0.088702,-0.132476,0.069146,0.072626,0.060012,0.018701,0.087855,-0.031913,0.04332,0.187253,-0.047079,-0.781606,0.112774,-0.139403,-0.141004,0.050698,-0.57774,-0.448354,-0.264964,0.260418,0.136387,-0.457907,0.086017,0.318584,0.095885,-0.129682,-0.010374,0.069253,-0.267028,-0.095719,-0.065278,-0.277101,-0.170113,-0.07598],[-0.397831,-0.434741,-0.142696,0.031332,0.166391,0.049043,0.004482,0.185831,0.29022,-0.258352,0.410583,0.013478,-0.18867,-0.171203,0.377565,0.029336,-0.122262,0.125965,0.26758,-0.227308,-0.049458,0.340617,-0.302632,-0.093147,0.189716,-0.311345,-0.206251,0.103134,0.144918,0.297265,0.186272,0.011866,0.142879,0.060429,-0.139559,-0.005883,0.158687,-0.107543,-0.122045,-0.059958,-0.029736,0.332102,-0.204736,0.440157,0.420173,-0.053619,-0.293528,0.231096,0.431067,-0.055469,-0.311764,0.094818,-0.055722,-0.238641,-0.052665,-0.171234,0.099053,0.120403,0.313133,-0.024437,0.08805,0.478886,0.347965,0.202608],[-0.059956,-0.499018,-0.169801,-0.100515,-0.36416,0.013107,0.056874,-0.371512,-0.592897,-0.222684,-0.349681,-0.187653,-0.011853,0.486905,-0.562751,-0.01028,0.528068,-0.689817,-0.414317,0.121435,-0.333781,-0.366962,-0.18399,0.105384,-0.601744,0.306017,0.48831,0.043824,-0.131977,-0.434869,-0.117921,-0.106691,0.212384,-0.771579,0.075072,0.002375,-0.820295,0.04385,0.050697,0.674576,-0.037267,-0.55575,0.614103,-0.53209,-0.459704,-0.011065,-0.097724,-0.232646,-0.415201,0.002037,0.406788,0.102346,-0.114821,0.003334,-0.029071,-0.239947,0.023609,-0.11674,-0.512114,-0.055704,0.013853,-0.429043,-0.352255,-0.188361],[-0.093012,0.036298,-0.169163,-0.097682,0.013394,0.027684,0.049584,-0.010609,0.240345,0.199095,0.228946,-0.035153,-0.04246,0.365449,0.05103,-0.127276,0.094438,0.191057,0.196759,0.081671,0.087349,0.213882,-0.001992,-0.178625,-0.03854,-0.156538,-0.15658,-0.105299,-0.022102,0.1265,-0.011618,-0.12112,0.062064,-0.25631,-0.072432,0.073557,-0.029475,-0.119888,-0.265112,0.072546,-0.084378,0.227123,-0.112999,0.055004,0.118871,-0.060729,-0.165935,0.30281,0.283796,0.205456,0.228351,0.051027,0.00574,-0.196295,-0.108898,-0.098423,-0.030399,-0.124648,0.046574,-0.098935,-0.138715,0.323795,-0.050452,-0.013195],[0.385836,-0.199347,0.110047,-0.030108,-0.164525,-0.117261,0.043878,-0.404841,-0.334424,0.42202,-0.092721,-0.304814,-0.087195,0.41514,-0.480173,-0.038282,0.131252,-0.283337,-0.46821,0.20214,0.152143,-0.85222,0.169833,-0.063884,-0.440169,-0.404599,0.348126,0.001163,-0.067216,-0.349924,-0.03999,-0.099285,0.0149,0.138241,0.083224,0.038172,-0.231995,-0.118745,0.342304,0.032211,-0.084128,-1.105389,0.23045,-0.342659,-0.305077,-0.01498,-0.212664,-0.218973,-0.327919,-0.002686,0.239575,-0.310646,0.002029,0.116476,-0.115253,0.278361,0.369824,0.033635,-0.370103,-0.04267,-0.016619,-0.260329,-0.048196,-0.328524],[-0.047616,0.139112,0.08806,0.092427,-0.051191,0.104985,0.008286,0.014074,0.059382,0.096872,0.055996,0.067961,-0.086523,0.099584,-0.112268,-0.078513,0.006293,0.005179,-0.042134,0.113359,0.094999,0.010863,-0.024219,-0.035007,0.024641,0.10987,0.018737,0.113496,-0.091947,-0.093163,-0.051385,-0.086609,0.038516,-0.093748,0.057916,-0.055564,-0.004782,0.112366,-0.046661,0.064802,0.072923,-0.132998,-0.019138,0.052313,-0.012315,0.042031,0.066815,0.057128,0.104122,0.080164,-0.101212,-0.028758,0.025178,0.037246,0.026812,0.025787,0.090244,-0.097601,-0.021592,-0.116095,-0.095145,-0.058705,0.074816,0.114314],[0.188655,0.042482,0.055823,0.071947,0.000556,0.085326,-0.052658,0.014644,0.213688,0.36544,0.162879,0.261001,0.348838,0.077608,-0.095006,-0.108155,-0.045785,0.099285,0.201729,0.600875,0.129865,-0.230242,0.337341,0.248775,-0.693635,-0.159412,0.566414,-0.022414,0.222916,0.21807,0.296847,0.035658,0.089583,-0.052056,-0.137023,-0.048086,0.031129,0.069534,-0.122346,0.021772,0.132648,-0.485835,-0.03198,0.100675,-0.105958,-0.117522,-0.034776,-0.003859,0.059601,-0.244111,0.25077,-0.040406,0.073741,0.096178,-0.067471,-0.275202,-0.012723,-0.010122,-0.002426,0.023627,-0.037859,0.17432,-0.083376,-0.056816],[-0.192634,0.329143,-0.164537,-0.09481,0.181875,-0.000147,0.110364,-0.042004,0.125098,-0.109174,0.134353,0.079969,0.119782,-0.104331,0.158543,-0.050999,0.105264,-0.454478,0.270716,-0.27795,-0.404961,0.001761,-0.140044,0.048942,0.127653,0.229475,-0.255678,-0.036945,-0.456805,0.176047,0.028305,0.003494,0.056246,0.142145,-0.158255,-0.083034,0.065245,0.048313,0.113129,0.06287,0.059303,0.043028,0.165337,0.178064,-0.029972,-0.109194,0.163277,0.097408,0.118004,-0.173612,0.094245,-0.00186,0.098269,-0.471301,-0.0142,0.081633,0.062045,-0.119353,0.152938,-0.080551,-0.039849,0.140202,0.18297,-0.092297],[-0.089289,-0.03278,-0.252936,-0.045021,0.133446,-0.023008,-0.046894,0.345774,0.131416,-0.12911,0.318013,0.103818,0.015483,0.197505,0.189546,0.034872,0.012843,0.161304,0.196484,0.001188,-0.072604,0.294521,-0.118927,0.007874,0.32624,0.285379,-0.221892,-0.089689,-0.139169,0.263651,0.086445,0.020143,0.079402,-0.077872,-0.1043,-0.094546,0.099335,-0.056532,-0.07763,0.132189,-0.065454,0.284616,0.180863,0.104921,0.161017,-0.06684,0.023515,0.317539,0.189211,0.048368,-0.146774,-0.002574,-0.136015,-0.018464,0.029282,-0.049338,0.029151,0.171295,0.295246,-0.021142,-0.129101,0.206183,0.272938,0.203568],[0.15902,0.128435,0.24626,-0.104877,-0.032358,-0.080033,-0.134665,-0.055726,-0.187205,-0.03996,0.102194,-0.064472,-0.231159,-0.224712,0.005986,0.011652,0.114906,-0.051677,-0.227646,-0.139302,-0.049079,-0.668054,0.124476,-0.283121,-0.430458,-0.175431,0.039294,0.082874,0.092687,-0.138676,-0.100859,-0.148438,0.287703,0.149135,-0.055152,-0.073247,-0.070109,-0.037949,0.154947,0.170095,-0.150843,-0.521611,0.199613,0.028062,0.104421,-0.051575,0.140472,-0.158237,-0.210158,-0.157078,0.151256,0.331266,-0.042393,0.030027,-0.061247,0.2032,-0.001843,-0.118213,-0.023449,-0.049212,-0.014153,0.027129,-0.167921,-0.131834],[-0.00155,0.095717,-0.102703,-0.105368,-0.014477,0.002008,-0.074469,0.098671,-0.100526,-0.092531,-0.119047,0.006885,0.081214,-0.107691,0.119741,0.097099,0.116353,0.001035,0.022923,0.123283,0.1082,0.109861,-0.000744,0.005898,-0.017808,-0.088099,0.099041,0.029809,-0.049181,-0.029446,0.075032,0.019983,0.081158,0.071926,-0.120966,0.002024,-0.144631,-0.089859,0.033981,-0.079348,-0.086726,0.12405,-0.06778,0.09179,0.020962,0.124699,-0.096991,0.061001,0.019291,0.067517,0.088838,-0.091167,0.036279,-0.05899,-0.04354,-0.075509,-0.045149,0.089668,0.102243,-0.053272,0.017017,-0.025467,0.0537,0.029141],[-0.186841,0.067679,-0.382088,-0.082995,-0.168542,-0.072693,-0.031166,-0.344714,-0.204679,-0.164631,-0.081115,0.237208,0.12137,0.308327,-0.369804,0.096353,0.136354,-0.419606,-0.265589,-0.178996,0.23074,-0.569797,-0.034223,0.059115,-0.713591,-0.300242,0.216707,-0.132765,0.122817,-0.408332,0.002995,-0.073868,0.466661,-0.172579,0.022807,-0.029029,-0.185107,0.075589,0.291513,0.202034,-0.136676,-0.912884,0.207451,-0.181273,-0.31835,-0.032621,-0.083449,-0.246359,-0.097633,0.381321,0.03628,-0.268176,0.101685,0.074307,0.09027,0.412395,0.260568,-0.123121,-0.200139,-0.086908,-0.107493,-0.180783,-0.201681,-0.187644],[-0.060523,0.118183,-0.076908,0.008312,-0.111999,0.122785,0.01247,0.114429,0.031857,0.088775,-0.051371,0.019703,0.02827,-0.017901,0.048465,0.090697,-0.032529,-0.106817,0.062945,0.101579,0.071289,0.054896,-0.008727,0.016864,0.060453,-0.048409,-0.05845,-0.041207,-0.057861,-0.078011,-0.085765,0.065239,0.085281,0.069406,0.095637,0.009753,0.00659,-0.007306,-0.031242,0.093417,0.017361,-0.103803,0.052657,0.018485,-0.090176,0.093006,0.023035,0.030303,0.119417,0.119541,-0.012937,0.01329,0.063849,0.038477,-0.087114,-0.024243,0.002874,0.0695,0.016647,0.01482,-0.1212,-0.090662,0.063303,-0.018532],[-0.246717,-0.263013,-0.083127,-0.004571,0.255457,0.036749,-0.041472,-0.020589,0.097883,-0.297832,0.141256,-0.051447,-0.967384,-0.14525,0.252373,0.115036,-0.209637,-0.030662,0.196247,-0.527063,0.136332,-0.196648,-0.072049,-0.471964,0.230466,-0.050024,-0.468007,0.047386,0.032779,0.010984,-0.07918,0.036598,0.241218,0.087901,0.00902,-0.037887,0.193698,-0.131916,-0.061946,-0.047972,-0.145882,0.120355,0.086456,0.321361,0.11852,-0.098016,-0.082502,-0.075134,0.090457,-0.293314,-0.264107,0.344719,0.00779,-0.163296,-0.126977,0.077026,-0.043003,-0.109639,0.191377,0.063003,-0.111427,0.179766,-0.091107,0.054758],[0.108434,-0.138226,-0.064789,-0.107459,0.045449,-0.069797,-0.026628,0.235485,0.17019,0.266633,0.161044,0.169377,-0.215592,0.080877,0.086322,-0.053976,0.015829,0.235255,0.031369,0.171745,0.261326,-0.192705,0.117088,0.026484,-0.128286,-0.199471,0.171385,-0.123826,0.09067,0.206076,0.189473,-0.044297,0.112334,-0.269149,-0.04027,-0.097691,0.16715,-0.050393,0.220654,-0.004288,0.019613,-0.244174,-0.044843,0.282247,0.189413,-0.129992,-0.043972,0.166804,0.095946,-0.080672,0.101371,0.022356,0.037793,0.091413,-0.105383,0.041416,0.10789,0.127805,0.114801,0.074449,-0.101727,0.150519,0.047627,0.130519],[0.030626,-0.002991,0.151803,-0.070409,0.021584,-0.087431,0.014196,0.055182,0.163019,-0.006435,0.223773,0.083595,0.042714,-0.000609,0.199896,0.022694,-0.011672,0.052322,0.130366,0.020869,0.060346,0.005832,0.14497,0.018537,0.081507,-0.192331,-0.154804,-0.061347,0.243333,0.175776,0.224075,0.044295,0.082736,0.192565,-0.100489,-0.119193,0.037699,-0.116166,0.130746,0.098292,0.016207,-0.059548,-0.054463,0.12201,0.120394,-0.076448,-0.213689,0.112229,0.112618,0.176918,0.025816,-0.02233,0.111675,0.054163,-0.032123,0.076294,0.161877,0.051094,0.244907,-0.114239,-0.110627,0.260405,0.046433,0.127513],[0.029817,0.069679,0.37576,-0.112552,0.085234,-0.025935,-0.068309,-0.11123,-0.403906,-0.224905,0.003182,0.041951,0.044582,0.019422,0.070407,-0.015714,0.048572,-0.314878,-0.341024,-0.395182,-0.377357,-1.149981,-0.30325,-0.018434,-0.293064,-0.259151,0.046184,0.045293,-0.252806,-0.364072,0.060606,-0.023477,-0.009607,0.134258,-0.037243,-0.099028,0.088107,-0.049955,0.324006,-0.187551,-0.007596,-0.878082,-0.016397,-0.067883,-0.152537,0.091123,-0.044743,-0.231348,-0.196027,-0.014744,0.01649,-0.21605,-0.014415,-0.395462,-0.031233,0.423579,0.19702,-0.040329,-0.127603,0.095216,-0.036279,-0.07137,-0.000711,-0.192671],[0.137937,0.265988,0.038057,0.08856,0.271846,-0.078488,-0.080899,0.510557,0.427424,-0.021378,0.546891,-0.266024,0.017549,0.14179,0.15215,-0.13808,-0.224017,0.420127,0.332464,-0.006141,-0.22704,0.584255,-0.19194,-0.107868,0.292905,-0.255377,-0.319836,-0.053597,-0.103282,0.278282,0.281033,-0.087843,-0.550831,0.437739,-0.025082,-0.003574,0.139375,-0.046637,-0.043066,-0.532608,-0.196147,0.442316,-0.476823,0.298475,0.479969,0.016507,0.167546,0.512167,0.362072,-0.133779,-0.060716,-0.369043,-0.136507,-0.015621,0.025155,0.009192,-0.03752,0.23785,0.328256,0.062031,-0.007018,0.409822,0.357365,0.357067],[-0.039,-0.085776,0.020583,0.086412,0.143265,-0.072401,-0.023698,0.059165,0.13576,-0.035355,0.141433,0.147531,-0.077454,-0.232252,0.060245,0.051176,0.135609,-0.197654,0.102751,0.038734,-0.065995,0.01942,-0.007574,-0.04144,-0.111368,0.164194,-0.099308,-0.118672,0.002092,0.145502,0.004184,-0.062519,0.169659,0.03597,-0.095009,-0.030134,0.035767,0.115956,-0.010107,-0.113265,0.084337,0.013795,0.139098,0.133855,0.207375,0.00705,0.021244,0.167119,0.172052,-0.05029,0.040765,0.180848,-0.082717,-0.065479,-0.014782,-0.215693,-0.10451,-0.074048,0.046141,0.115264,-0.12926,0.255002,0.071493,-0.006855],[0.009615,-0.038921,0.087814,-0.089714,-0.084784,0.119898,-0.073781,-0.105235,0.066685,-0.07088,0.001446,0.051334,0.026875,-0.065739,0.10621,0.005245,-0.132542,0.058087,-0.08721,-0.104104,0.034943,0.000753,0.111758,-0.036208,-0.019682,-0.107175,0.102013,-0.03811,-0.08456,-0.082546,0.053813,-0.031113,0.05835,0.06824,-0.020663,-0.023812,-0.050771,0.023016,-0.019195,-0.094942,-0.040803,0.063341,-0.071763,-0.092301,0.068879,-0.070365,0.032057,0.001797,0.041012,0.043522,0.098415,-0.090427,0.001683,0.040982,0.003556,0.120644,0.038139,0.077303,0.140741,0.122272,0.079051,0.109357,-0.030639,0.029061],[-0.010067,-0.183003,0.071225,0.040212,-0.087664,-0.116299,0.070561,-0.167853,-0.300976,0.281508,-0.360369,0.01007,0.066242,0.235502,-0.235834,-0.015266,0.17181,-0.585985,-0.422075,0.28716,0.375959,-0.659583,0.106779,0.202434,-0.419123,0.109254,0.328016,0.005311,0.060354,-0.266137,-0.271754,0.056493,0.248439,-0.098894,-0.074332,0.03999,-0.563435,-0.092171,0.170619,0.125712,-0.046533,-0.704815,0.133047,-0.28246,-0.282205,0.01507,-0.042041,-0.387198,-0.330724,0.270911,0.180518,0.030896,-0.059422,0.215162,0.086133,0.463013,-0.222683,-0.352041,-0.263374,0.107097,0.091098,-0.248504,-0.375945,-0.285553],[0.097024,0.276403,-0.048058,0.073412,0.183368,0.010529,-0.128721,0.242245,0.15509,-0.225405,0.231792,-0.078986,-0.170149,0.119482,0.259776,-0.11305,-0.074548,0.201547,0.240704,-0.056074,-0.17329,0.030934,0.106666,-0.314323,0.011257,-0.100907,-0.153573,-0.049202,-0.141694,0.203623,0.1951,0.099064,-0.046459,-0.16008,0.003213,-0.138837,0.04738,-0.05606,-0.128801,0.213319,0.101321,0.186068,0.015732,0.257656,0.194172,-0.140073,0.051815,0.231203,0.007848,-0.162851,0.137897,0.230888,0.066507,-0.082427,0.025005,-0.077899,0.138847,0.026591,0.059668,0.051466,0.048368,0.31754,0.201672,0.202735],[0.124126,0.116014,-0.109168,-0.10885,0.026415,-0.04623,-0.010704,0.096599,-0.046551,-0.251364,-0.05397,0.076245,0.383165,0.046606,0.196084,-0.101003,0.154713,0.020271,0.127092,-0.18739,-0.120036,0.287881,0.079203,-0.011484,0.003037,-0.160332,-0.265524,-0.061958,-0.0002,0.005413,-0.096316,0.030868,0.207297,0.1409,0.085781,-0.006219,0.163126,0.056558,0.07415,-0.001205,0.110079,0.234302,0.11338,0.238455,-0.029707,0.018549,0.106378,0.227857,0.141763,0.043037,-0.047585,0.169312,0.107908,0.04507,-0.064777,-0.021571,-0.0899,0.047895,0.137825,-0.021476,0.082083,-0.017605,0.137335,0.085109],[-0.363895,0.195146,0.265363,0.053787,0.597315,-0.013729,-0.068892,0.567487,0.734393,-0.150988,0.74169,-0.840277,0.24924,0.321196,0.454362,0.156588,-0.298913,0.564499,0.580163,0.298958,-0.334367,0.496,-0.39664,0.013004,0.910981,0.113353,0.156987,0.124564,-0.144927,0.443394,0.367632,0.048186,-0.472563,-0.231121,0.122481,-0.066521,0.493665,-0.048341,-0.169216,-0.325124,-0.071613,0.85387,-0.431104,0.290346,0.654138,-0.09569,-0.08808,0.443404,0.629142,-0.595928,-0.596605,-0.285373,0.05633,-0.590429,0.024008,0.431857,0.146647,0.338867,0.538081,0.046523,0.082387,0.66868,0.391273,0.550116],[-0.095269,-0.606461,-0.287075,-0.11583,-0.131051,0.097711,0.086081,0.445924,0.06322,-0.364962,0.123307,-0.121571,0.315195,0.047019,0.262588,0.093838,-0.095339,0.695713,0.292192,0.519702,-0.470281,0.851909,-0.317159,0.343922,-0.001824,0.020844,0.46564,-0.044712,-0.046029,0.281156,0.377989,-0.123421,-0.553867,0.039871,-0.000779,-0.083446,-0.219179,0.076177,-0.141951,0.047389,-0.131981,0.185011,0.085073,0.272346,0.350774,-0.027502,0.22524,0.410634,0.465368,-0.39485,-0.284219,-0.315417,-0.057278,-0.403548,-0.008281,0.01193,0.13052,0.117816,0.259018,-0.085709,0.095999,0.372604,0.513683,0.448204],[0.144577,0.172371,-0.272438,0.004805,-0.102332,-0.043253,0.083501,-0.074993,-0.087706,0.081441,-0.001956,-0.653193,0.111725,-0.163163,-0.109656,-0.030747,0.148523,0.083867,0.009912,-0.120953,-0.167516,-0.500601,0.159365,-0.131704,-0.508491,-0.293192,0.158017,0.1067,-0.617825,-0.193831,0.250976,0.080522,-0.243201,-0.165588,0.065913,-0.053847,-0.097702,0.041233,0.01141,0.062213,-0.049092,-0.558578,-0.021759,0.072681,0.110917,-0.124655,0.063501,-0.046654,-0.099041,0.126638,0.233878,-0.187084,0.087802,0.130984,-0.016049,0.148376,0.034106,0.116018,0.072067,-0.107628,-0.066241,0.045413,0.038299,0.170809],[-0.001331,-0.080727,0.074612,-0.109937,-0.27496,0.051455,-0.112944,-0.278759,-0.294459,0.255959,-0.200012,-0.072449,0.129308,-0.194774,-0.228286,0.024455,0.25522,-0.686527,-0.2408,-0.237971,0.213182,-1.070124,-0.151578,0.331103,-0.76091,-0.045633,0.674381,-0.122004,0.257427,-0.469558,-0.145482,-0.066336,0.092053,0.443424,-0.083729,0.001075,-0.361032,-0.070099,0.423276,-0.177654,-0.111218,-1.014363,-0.238774,-0.314542,-0.470435,-0.008549,-0.357214,-0.283265,-0.764593,0.249217,0.160817,-0.476745,0.028303,-0.080359,-0.024247,0.235458,-0.217536,-0.050876,-0.439558,-0.022846,0.033932,-0.325769,-0.242771,-0.155934],[0.244719,-0.017584,-0.108186,0.09756,0.004629,-0.087308,-0.105826,0.239299,0.041218,-0.128706,0.217543,-0.194495,0.04892,0.054182,0.073165,-0.064575,0.031694,0.217972,0.086103,0.13408,-0.078911,0.396714,0.041222,-0.016808,0.124507,-0.019461,-0.205845,0.005419,0.107089,0.12379,0.06956,0.075491,-0.102449,0.092602,-0.025507,-0.126057,0.140313,0.03203,-0.11612,-0.124522,-0.138464,0.360102,0.097353,0.203622,0.093936,-0.021106,0.156324,0.30222,0.269445,0.360317,0.029907,-0.054339,0.021096,0.14466,-0.121923,-0.224399,0.171568,0.118959,0.139189,-0.115882,-0.023812,0.309775,0.221959,0.048938],[-0.254095,-0.382065,-0.53735,-0.057724,-0.009743,-0.087266,-0.090212,-0.018927,0.292147,0.184183,0.024808,-0.284813,0.58472,-0.245473,0.014744,-0.024435,-0.060456,0.002078,0.270359,-0.094359,-0.096495,0.355671,-0.173252,0.096881,0.033761,-0.386643,0.326346,0.02149,-0.278851,-0.077654,-0.156661,-0.094858,-0.366583,-0.246487,-0.043047,0.067892,-0.320071,-0.10878,0.116543,-0.133217,-0.012927,0.198457,-0.020954,-0.009999,0.095167,0.038583,-0.206015,-0.013025,0.020452,-0.033953,-0.21511,-0.144933,-0.090666,-0.320929,-0.114219,0.204444,-0.176176,-0.045766,0.015276,0.006085,-0.099247,0.070102,0.121708,-0.07557],[0.038821,0.007051,0.097952,0.05545,0.004549,0.012009,-0.040632,-0.088959,0.063201,-0.007781,0.092186,-0.03108,-0.032961,-0.098593,0.013708,0.023752,-0.114494,-0.028906,0.128076,0.065073,0.091022,-0.076198,-0.080395,-0.017724,-0.004923,0.039647,-0.190685,-0.076606,-0.106358,-0.09718,0.043646,0.06344,-0.098465,0.057006,0.028555,-0.018761,-0.089744,0.05905,-0.049547,0.098829,0.05145,0.019583,-0.035968,-0.089361,-0.040908,-0.017234,-0.022515,-0.103951,0.009938,-0.066386,-0.114874,0.02628,0.090323,-0.079799,-0.122584,0.144872,0.045987,-0.023553,-0.070939,-0.020014,-0.113434,0.077507,0.03648,0.030446],[0.112235,-0.105371,-0.136388,0.080591,-0.03053,0.084052,0.073515,0.095105,0.10173,0.212307,0.26427,0.075448,-0.131261,-0.046289,0.169392,-0.016417,0.031651,-0.037838,0.152877,0.33122,0.138678,-0.026738,0.011766,0.049575,-0.031125,-0.032183,0.13385,-0.055234,0.026887,0.169229,0.176771,-0.118823,-0.026197,0.09187,0.056557,-0.083779,-0.116553,-0.013134,-0.059272,0.074124,-0.013871,0.092496,0.066213,0.214013,0.203354,-0.094477,0.150053,0.18638,0.135464,0.052923,0.204262,0.203566,0.059483,0.020719,-0.08931,-0.22386,-0.00312,0.153995,0.264491,-0.11893,0.066029,0.209548,0.184095,0.030862],[0.02182,0.063405,0.219602,0.104239,0.09263,-0.12246,0.059757,0.138296,-0.133597,-0.160639,0.181061,0.018331,0.165613,0.118079,-0.004984,0.084597,0.109078,0.094127,-0.081171,0.071013,0.073549,0.097351,-0.041226,0.050757,0.060832,-0.070219,-0.10146,0.039065,0.178277,-0.163501,-0.102548,-0.048097,0.183824,0.13252,-0.101053,-0.000485,-0.106926,0.076378,-0.148813,0.163287,-0.072635,0.188657,0.136031,-0.03782,0.141046,-0.044794,0.011141,0.046015,0.01297,-0.046505,0.099093,0.348788,0.009342,0.083365,-0.144143,0.168683,0.037315,-0.082377,0.112968,0.058388,0.018361,0.127494,0.054961,0.059774],[0.00261,0.025519,-0.020013,0.027365,0.081878,0.110651,-0.048444,0.017551,0.099512,-0.067651,-0.133432,0.037734,0.057074,-0.066998,-0.000131,-0.029856,0.109037,0.047791,0.085131,-0.074934,0.009749,0.061562,0.033151,0.047296,-0.124583,-0.121942,0.108603,-0.056911,-0.015116,0.023094,0.090852,-0.072725,-0.090998,0.089836,-0.064422,0.075586,0.010918,-0.111336,0.068194,0.003603,-0.119758,-0.112244,-0.072602,-0.094147,0.100685,0.075793,0.096201,0.025723,0.0769,0.002707,-0.044073,-0.019051,-0.010664,0.019725,0.120868,0.004573,0.10726,0.033622,0.072226,0.101156,-0.073296,0.097438,0.072428,0.08377],[0.032645,0.266799,0.022078,0.040942,0.243494,-0.082652,-0.103282,0.230407,0.353601,-0.272121,0.398076,-0.013924,0.355789,-0.062671,0.333919,-0.139122,-0.053742,0.226138,0.29404,-0.565885,-0.363866,0.392999,-0.228756,0.126588,0.425664,0.21146,-0.206297,0.086813,-0.370089,0.402711,0.193317,-0.073924,-0.329934,-0.230985,-0.043018,-0.101034,0.085263,-0.019259,0.113867,-0.154168,-0.037031,0.238403,0.025434,0.345369,0.335631,-0.097405,0.026386,0.385287,0.24553,0.082756,-0.194836,-0.313094,-0.103991,-0.237137,-0.089455,-0.062436,-0.075741,0.310993,0.325192,0.060735,-0.050649,0.401012,0.352128,0.416583],[-0.321644,-0.219951,-0.185611,0.07802,0.24868,-0.045234,-0.096722,0.000582,0.018499,0.055353,0.000719,-0.187599,0.095811,-0.161996,0.067863,0.041048,-0.208187,-0.056432,-0.148852,-0.18498,-0.191757,-0.944608,-0.177071,-0.194848,-0.450221,-0.396284,0.229259,0.07235,-0.287395,-0.133679,-0.11227,-0.013336,-0.352463,0.125204,0.107422,0.064325,0.005539,0.112828,0.18625,-0.1495,-0.032854,-1.04523,-0.229584,0.272328,0.223212,-0.015457,0.03737,-0.016754,-0.199565,0.061214,0.180527,-0.393351,-0.091366,-0.448968,-0.025029,0.474799,-0.438051,-0.414942,0.064502,0.002385,-0.025314,0.268694,-0.374027,0.073491],[-0.14242,0.10942,0.012144,0.022038,0.010643,0.007565,0.056722,-0.060912,-0.081523,0.003111,0.029062,-0.025401,-0.07285,-0.113768,-0.144906,0.005851,-0.096272,-0.088099,-0.115943,0.081599,0.073389,-0.078322,-0.026104,-0.064174,0.118938,-0.003377,0.039555,-0.072905,-0.002118,0.052272,0.014478,0.056775,-0.016093,-0.065479,-0.024804,-0.077031,-0.064984,0.122091,-0.117377,-0.07019,0.117332,0.043247,0.094621,-0.074488,0.092274,-0.056456,0.102813,-0.099451,-0.024189,0.025915,-0.086223,-0.055518,-0.086573,-0.05885,0.002339,-0.050715,-0.120049,-0.054009,-0.112097,0.013943,-0.081812,0.096861,0.050886,-0.09659],[-0.049175,0.101928,0.07241,-0.120443,0.00376,-0.051226,-0.02469,0.043717,0.115885,-0.009124,-0.025327,-0.02861,0.117674,-0.087639,0.049855,0.106019,-0.009758,-0.021409,0.083226,0.046047,-0.054791,-0.055288,0.024017,0.076649,0.097092,-0.099539,0.093333,-0.112573,0.097106,-0.033006,-0.038001,0.013119,0.019492,0.076324,-0.122728,0.000221,-0.093339,0.110186,-0.021726,-0.114332,-0.110179,-0.00137,-0.006149,-0.011929,0.096466,-0.059995,-0.018498,0.038555,-0.067254,-0.069732,0.005829,0.080796,0.051394,0.035506,0.065572,0.074389,0.013487,-0.092505,-0.031216,0.006429,-0.045998,0.040224,0.003883,-0.023957],[-0.207542,0.030924,0.094703,0.062581,0.384449,0.025077,-0.028454,0.441372,0.667183,-0.038874,0.582134,-0.33373,-0.562017,-0.01625,0.449968,-0.064579,-0.607493,0.455793,0.518352,-0.362887,-0.192468,0.533363,-0.516087,-0.311506,0.472502,-0.092221,-0.739064,-0.098889,-0.212401,0.432344,0.308303,-0.112525,-0.409562,0.00211,0.030851,0.026108,0.347588,0.119447,-0.53822,-0.408937,0.048828,0.826417,-0.593878,0.680852,0.522679,0.044675,0.039953,0.507286,0.59523,-0.158752,-0.4582,-0.61575,-0.016616,-0.455615,0.07691,-0.217246,-0.134137,0.351528,0.525462,0.064116,-0.116724,0.600103,0.542346,0.568847],[-0.094712,-0.193967,-0.000362,0.099501,0.177681,-0.065481,0.077376,0.303075,0.304136,0.069437,0.277572,-0.042805,0.036048,0.011862,0.234092,0.01015,-0.120021,0.009597,0.221206,0.030718,0.139769,0.112832,-0.065142,0.027811,0.209531,0.203446,-0.106153,-0.027767,0.066229,0.145465,0.125047,-0.025232,0.041645,-0.007138,0.036003,-0.117206,0.01481,0.106382,0.046424,-0.127193,0.086376,0.219768,0.035835,0.271784,0.450106,-0.063163,-0.084995,0.21936,0.288394,0.037572,-0.044092,0.114432,-0.026746,-0.119569,-0.032412,0.073527,-0.183379,-0.01019,0.392243,0.060533,-0.051115,0.414128,-0.043566,0.168858]],"biases":[0.055505,-0.021818,-0.025126,-0.058328,0.139921,-0.048126,-0.098819,0.168418,0.026567,-0.120366,0.071733,-0.090863,-0.197027,-0.070589,0.05165,-0.077997,-0.016734,-0.051174,0.052698,0.055721,-0.141769,-0.01709,0.058653,-0.068202,7.4e-05,0.10838,0.110108,-0.041425,-0.022637,0.073035,0.084818,-0.020612,0.110444,-0.054008,-0.053689,0.014684,0.103202,-0.088334,0.046708,-0.012053,-0.075855,-0.190656,0.004098,0.117522,0.231047,0.055721,-0.025646,0.128979,-0.031361,-0.082745,0.096544,0.058679,-0.017046,-0.030103,0.018044,0.152353,0.074688,-0.037151,0.048502,-0.068693,-0.083364,0.169323,0.14112,0.169552]},{"weights":[[0.333024,0.154234,-0.3648,-0.184553,-0.016811,-0.021395],[-0.311535,0.193475,-0.555902,-0.054974,0.135296,-0.163292],[0.39164,0.368655,0.210043,0.015343,0.291496,0.27639],[0.13474,-0.070699,0.008485,0.090624,-0.093719,-0.041437],[0.052419,0.050047,0.308429,0.075197,0.11637,0.194086],[-0.058059,-0.003686,-0.093871,0.091044,0.08557,0.076844],[0.05695,-0.034113,0.072537,0.117072,-0.057595,-0.072156],[0.152829,0.050379,0.223205,0.301092,0.12896,0.221763],[0.170512,0.446717,0.312742,0.235168,0.532631,0.371325],[-0.543228,0.62421,-0.488885,-0.037904,-0.069816,-0.000699],[0.235017,0.245108,0.169294,0.220799,0.27531,0.306697],[0.057113,-0.262949,-0.043292,-0.381908,-0.165953,-0.087668],[-0.634086,-0.263138,0.52894,-0.391965,-0.531572,-0.39354],[-0.152502,0.209874,-0.416466,0.123503,0.166968,0.124226],[0.255335,0.077792,0.358308,0.160607,0.112829,0.169684],[0.012488,-0.035034,0.100681,0.029599,-0.124683,0.095023],[0.049488,0.086891,-0.41616,-0.264378,-0.096767,-0.133963],[0.260748,0.320254,0.236466,0.340686,0.306016,0.259246],[0.295645,0.366608,0.344764,0.188658,0.404487,0.234545],[0.349441,-0.514018,0.419926,0.261504,0.164121,0.132162],[-0.487164,-0.020952,-0.553594,-0.23402,-0.122764,-0.17822],[0.612661,0.313628,0.786162,0.720503,0.586767,0.624299],[0.037229,0.078888,-0.347475,-0.139747,0.018261,-0.177413],[0.320978,0.162983,0.347916,-0.073052,-0.091347,-0.272481],[0.438191,-0.101704,0.881866,0.540705,0.445682,0.823466],[0.069991,0.201288,0.31512,0.288503,-0.133165,0.331369],[0.410382,0.123766,0.571417,0.420705,0.274435,0.545274],[-0.095814,-0.106507,-0.028548,-0.00795,-0.094699,0.058963],[-0.048827,-0.278658,-0.130508,0.024365,-0.431424,-0.582222],[0.368347,0.295923,0.248655,0.180093,0.147846,0.216728],[0.291962,0.230224,0.027422,0.229391,0.272142,0.105373],[0.007959,-0.081509,0.029537,0.034806,0.01242,0.086041],[-0.326321,-0.288064,-0.238222,-0.384836,-0.198716,-0.308707],[0.312417,-0.036728,-0.390747,0.007356,0.314757,0.003732],[0.058118,-0.122604,-0.000173,-0.06964,0.068995,-0.04999],[0.076314,0.051915,0.088221,-0.070835,0.007084,0.010341],[0.363205,0.05679,0.254993,0.122314,0.196603,0.128827],[-0.094691,-0.105891,-0.042943,0.07977,0.032079,-0.0309],[0.394503,0.149243,0.239084,0.184666,-0.007078,0.069916],[-0.136448,-0.066806,-0.316171,-0.00998,0.202999,-0.115183],[-0.138622,-0.087658,-0.029336,0.055525,-0.039879,0.023547],[0.492317,0.344357,1.134249,0.773209,0.626495,0.857949],[-0.009614,-0.050669,-0.345243,-0.187161,-0.042455,-0.200667],[0.263873,0.188343,0.37976,0.185349,0.265196,0.092517],[0.09758,0.253644,0.365346,0.311692,0.229178,0.314334],[-0.036069,-0.030662,-0.064293,-0.094026,-0.001096,-0.009051],[-0.091812,0.330408,0.216717,0.193583,0.323441,-0.167844],[0.216751,0.299181,0.22215,0.309637,0.06722,0.161136],[0.259457,0.274624,0.166111,0.252273,0.245771,0.352312],[0.21312,0.39602,-0.090529,-0.258406,-0.336643,-0.245201],[-0.156039,0.303626,-0.283655,-0.207846,-0.050352,-0.238096],[-0.526962,-0.382544,-0.340554,-0.124257,-0.229461,-0.119447],[-0.006642,0.036949,0.045279,-0.086522,-0.010477,0.089243],[0.412463,-0.051831,-0.456443,-0.285172,0.060008,-0.135387],[0.060036,0.006668,0.108323,0.115309,-0.113383,-0.082901],[-0.174401,-0.132084,0.546957,0.237534,0.026297,0.267008],[0.303697,-0.042616,-0.198545,0.041038,0.176975,0.213236],[0.337491,0.083216,0.02142,0.16165,0.245322,0.180075],[0.180745,0.175878,0.271525,0.22203,0.155257,0.156381],[-0.044625,0.031635,0.086795,-0.096917,0.025812,-0.070732],[0.079025,0.011606,-0.1113,0.051125,-0.04425,0.073386],[0.164011,0.307998,0.284734,0.241643,0.252768,0.258056],[0.350972,0.026465,0.119006,0.212653,0.096542,0.320665],[0.135839,0.118837,0.169665,0.23406,0.225758,0.184067]],"biases":[0.123045,0.228197,0.107572,0.016106,0.062297,0.202508]}]},"round":43,"phase":15,"phaseIteration":2,"trained":"pilot","generation":42,"dominanceMetric":"pilotWinRate","dominanceThreshold":0.65,"dominanceReached":false,"candidateSpawns":2,"selectedCandidate":1,"pilotWinRate":0.0,"enemyWinRate":1.0,"averageScore":1895.0,"averageWave":2.2,"averageSteps":103.4,"waveClearRate":0.5,"averageClearSteps":109.0,"enemyDropRate":11.8469,"invalidDropRate":0.7192,"enemyFireRate":0.118,"pilotFireRate":0.4067,"pilotShotAccuracy":0.481,"pilotHits":202,"pilotFires":420}
